function [y1,xf1] = NN_TS_ctrl(x1,xi1)
%NN_TS_CTRL neural network simulation function.
%
% Generated by Neural Network Toolbox function genFunction, 26-Oct-2018 15:35:02.
% 
% [y1,xf1] = NN_TS_ctrl(x1,xi1) takes these arguments:
%   x1 = 15xTS matrix, input #1
%   xi1 = 15x21 matrix, initial 21 delay states for input #1.
% and returns:
%   y1 = 6xTS matrix, output #1
%   xf1 = 15x21 matrix, final 21 delay states for input #1.
% where TS is the number of timesteps.

% ===== NEURAL NETWORK CONSTANTS =====

% Input 1
x1_step1.xoffset = [290.149318096215;290.149869496133;290.149989513024;290.14973706458;290.149967009863;290.205781329543;-4.35967012890615e-05;259.470001220703;267.166473388672;-4.89862140966579e-05;4.81576826132368e-05;-2.75205438811099e-05;-3.85673811251763e-05;272.228118896484;290.149993896484];
x1_step1.gain = [0.657806780460877;0.657761397890109;0.6577501919145;0.657771025872402;0.657751313143455;0.670045228435108;0.0136338428217357;0.112674506567636;0.144657989012032;0.0156226958559546;0.0140582507214793;0.00392419602425957;0.00992080767983559;0.160817436285023;0.657741022501455];
x1_step1.ymin = -1;

% Layer 1
b1 = [-1.4484148368481077895;-1.376840584654130728;1.3071890473040592706;1.2426096692154731116;-1.1521148810166472742;-1.1481026933610587459;1.0619939364985742092;-1.0037937764420685749;0.91563781351565620703;0.85300369880476656359;0.83297098747450315503;0.74363747430836146801;-0.65849599367017885854;0.63578622087145042485;-0.59064148914185399253;0.47583252015250870892;-0.46122643358613979458;0.36165229592899900135;-0.3420970194323956215;-0.28719317201357891234;0.19808168720570881738;0.13178676633156438669;-0.072163211889282569134;0.010407816135575970878;-0.0574229647054459863;0.053969115270941961371;0.15493767922665094283;-0.22904555632861578474;-0.2882289930895601815;0.32851412826423032065;-0.3813165221963195628;-0.4399438491148001118;0.48570101303682611249;0.5280755058626117604;-0.62837519269253039322;-0.70832610015837271789;-0.75385124977776230004;-0.8161171424848947531;-0.87154975991585625916;0.92728050823264340785;1.0100816219900141668;1.0772769591470907624;-1.1325412643915686584;-1.1729850892334094947;1.2341113649282746678;1.2947600791553763866;-1.33398125625059083;-1.4083944677072486318];
IW1_1 = [0.15332112867249292343 0.067611971772287851601 0.12907389761003612572 0.053412500472042989674 0.026664313459493219766 0.077205239980086312612 0.11174449051332754901 -0.069461421583746976727 -0.00076254976843953797393 -0.086995025473201065269 -0.023101723734227197493 0.15207403668842314759 -0.066831062539774596654 0.14131427928835260666 0.078468763851309283885 0.075686421475199786024 -0.0096441510115529809066 0.084200970857296053573 0.11285839811554908285 -0.054753450578434455231 0.03412530641999454023 0.12019433734533480074 -0.01189452696842920737 0.077995234503929644632 -0.011863402399244816349 0.14117033090748962176 0.10251442490870109336 0.099211521615705164368 -0.086808681485216601659 -0.014570252250872849087 0.11470581315837241609 0.10834091414520741203 -0.043603644946423866791 0.15294077493305455184 0.094396738344633829287 0.009240793066753384688 -0.057841676789098607492 -0.13626246975718617205 -0.029752624003643021733 0.095174443217788576299 0.092984676566776891526 -0.028699890351616682421 -0.044360290170134153431 0.050793141126433911936 -0.038023994792405757526 0.0065533399764146878577 -0.0049573208703729840577 0.059557120521434178673 0.15836693741215454589 0.067151026571211760996 -0.032223342593458333127 -0.097438499044746551547 0.10377515601125585076 -0.0060514185569698428907 0.14505560616794832551 -0.010928923999770273623 -0.077107581584030443489 0.14354062462053465699 0.13446588356139102527 -0.012502908356670011311 -0.035645196977622035928 -0.084983963162405043446 0.1388637217095460008 -0.061965818392708288398 0.15466601196401508211 -0.017488651858556889668 -0.051980950702597124302 -0.027088874478012083674 0.13052731581898158186 0.041169345293859377355 -0.016264708341367919292 0.13213859612917780439 -0.077829653048832284079 -0.087773915094293664119 -0.11829767342108414574 -0.02887680895637245726 -0.09010880343827305794 0.088574411572583472418 0.090830466821164773661 -0.1070963089748435404 0.16278376503157840349 -0.048256019894848858898 0.10013240814591210792 0.12961312875093800034 0.16567454476028312116 0.065920815339428340263 0.067509335796471045543 -0.0049747125040054875761 -0.04525710952512729951 0.022256882438784673928 -0.018105320151913465582 -0.014007025330625914872 0.10433678491604249372 -0.067120063897424087074 -0.10104891334091806177 -0.014545025128677457199 0.055873103644219677955 -0.10144484211452316214 -0.06698014072654095985 -0.036780249726259206522 -0.022890230264261225007 -0.026320845452369186213 0.0085712868870805886817 0.12665933895806663623 -0.013452884211675064652 0.078996976046762340529 0.12023109050407661258 -0.11803068184417091213 0.10950689035691850426 0.077451476236001681741 0.15049787857010193948 -0.044202359938963813046 -0.068366312617282418151 -0.047212090161233059848 0.10748875642804818498 0.15970553129230835587 0.035074405003689385074 0.065960489822559170703 0.10651068210688224847 0.07918338363992891149 0.0084295631643511986092 0.050532312594071225609 -0.034725519644580642165 -0.072738326117398346971 0.091693375530538578921 0.040285876318757241066 0.049838244155377325884 -0.071393520019573011859 -0.11113697917063108944 0.067118634924025991073 0.11032421364424462029 0.10444918832693253496 0.0074229524346175156102 -0.032732093570538883798 0.010338042258996434086 0.12241825323393192015 0.049134649454443700411 0.14065605370527844986 -0.11556531231258125592 -0.035144083944514334372 -0.0097742856995743868792 -0.11113855249256268665 -0.00253033565162070909 0.050201132634092114626 0.1132544479218906136 -0.022179826277097965809 -0.092502134199616795063 0.025205320877777461636 -0.026884004772744968248 0.071410873424269133425 0.076102043967613927644 0.06359054455292839636 -0.047732333144197697239 0.054966785744505371192 -0.039514063600497043027 0.042841603889073806566 -0.077621839926956051614 -0.024100512052575309707 -0.011842770309307157003 -0.062653864023502467417 0.00085129649605292072052 0.045127594111938111598 -0.047661338418889698243 -0.044670665626931289893 -0.042438966265739029582 0.02636503279110006398 -0.10509772113393689441 0.010547336252009825372 -0.088565006510514923677 -0.045558405191143819257 -0.071450885974397401745 0.10679810342274194401 0.051982503026480671171 0.11500890656546078339 -0.061437826450550160617 -0.076106358765273982026 -0.088150465937409605566 0.061727402317910441687 0.065317511162357649868 0.081533584876254672213 -0.045685830280164513306 0.06102662640661361132 0.085105755973272925741 0.069723178634574056733 0.0027693001076575622654 0.14350040978313116646 0.04756579061487382909 -0.065707936069331160378 -0.022359857070462438311 -0.041532804482469452834 0.10131926226531325075 0.13136750757859619321 -0.069348245960362375762 -0.095801956661066223209 0.10481271129145115772 -0.046198088141395032835 -0.1242771048801345618 -0.066718612103228130961 0.069926323070807511195 0.048431126933676238444 0.085270106289664124311 0.09852066679725692 0.046603022968676924287 0.013876628690696083887 0.13379212131774034789 0.16467736200624202847 0.070827898741790421 -0.004997791073627633196 -0.090816387685371063876 0.13024347600347843668 0.083933996126526078108 -0.050133326554318687063 0.0028713435830040046071 0.13030280356951823295 -0.051617899315679595384 -0.03957106524274989906 -0.053393288639162116149 0.10500884348213092301 0.049695831308991307573 0.022575657029859967639 -0.012298477211470017212 -0.10372086678002744031 0.0075405568048009961532 -0.078628787849456330261 0.010256273727865887133 -0.021083622661582750168 -0.057571060591847592058 0.11222645366309576265 -0.087472411751675804847 0.12945253509504592304 -0.094656883887037315817 0.014469043639597412368 -0.026557102364834064834 0.053612181115385258712 0.12241945427876882446 -0.048195650642078209647 0.10959920862233163419 0.1222140980013462358 0.048491834086655943858 0.14276799990512786809 -0.01884897805908947524 -0.086908836152019997012 0.08914921798586818158 -0.039486586096786749356 0.050243849920285563182 0.093340095134840928015 -0.03416274290010033049 -0.089748635248734040526 0.048070571651999759177 0.15881510422369046753 0.13546735357367822861 0.072498412493282482494 -0.083040296070749100577 -0.068336953490350474394 0.15241892143825855332 0.039948676787322043302 -0.062546921248172154817 0.11418323257837649509 0.08320666885474062302 -0.065305403165198297466 0.051556947194252043809 0.017692251207124087831 -0.10110020134165671746 -0.020679643086497945248 -0.030551608461894603358 -0.091815755585773956016 0.0074796920507932251193 -0.031793210908827418404 0.059955643580212214516 -0.069727569657180119012 0.070114286910880896375 0.033705154392745212411 -0.032096696668508055417 0.049084348458396022397 0.077566934625037831097 0.13735363308501363777 -0.0025649417301629819955 -0.10855896607711745805 -0.02099389005031886829 0.14561983014294743732 -0.008750363264464903687 -0.012178289547154063505 0.10226975583150049731 -0.02981844589709041829 0.07907225975773865545 -0.0075893404165294515301 -0.074241200630104697833 -0.016836425157195397673 -0.0087799799287325563935 0.049856539768084420783 0.036593771707261267545 -0.084176162507771282173 -0.030104867641552540691 0.14871473253285805161 0.1266838643170940526 -0.11655845524978940275 -0.02841644962019498552 0.047332740203237168297 0.068006517882990710766 0.055666804931114602373 -0.1330878027685952758 -0.14297813375536877478 -0.033898603510958184859 0.00085950062667627339513 0.12075544653707194487 -0.013547760575900513746 -0.06927367342445339693 0.078326479975336260608 0.066843440436119200276 0.053183388367353159887 -0.085747588654974879474 0.082595130168301209017 -0.090820983881983410879 0.051773084010658311505 0.065201705343208141152 -0.09164928343741939043 0.01870061437961918413 0.018594752761087986886 -0.030703910417714950359 0.061047043912316072134 0.12946927274623695747 -0.072492727889531344276 -0.0036439191595824217337 0.10171571130266009175 0.1420190521285096541 0.060188544971544619133 -0.07932479397965264134 -0.020792295810088630426 0.032280716016519980793 0.095516937803408072383;-0.0037993076630114287762 -0.060790571253892665415 0.046525312407896729505 -0.12611325822513680395 0.058957422186357910654 0.10811016668729557522 -0.087468985430162085604 -0.11806117545264674384 -0.0049583932830523248098 0.092442213486274890655 0.11757594388305050992 0.1431601346991833168 0.090635320656539480888 0.12375564266888587628 -0.013459110244900906669 0.11393822682019148773 -0.025940935532853693496 0.088698759699941287504 -0.085306927852224559428 -0.02377114593682631144 -0.12333106346685532295 -0.039238489576616346344 -0.033825384640488280474 -0.0053564176801264833799 -0.07856523840597839925 0.074349469334261605868 -0.051630871774496857329 0.070398777763356928938 -0.03038414148840806045 0.032875979428855360565 0.099872730228974859745 -0.0055909298491210257867 -0.153615051099516009 0.080929393739512189843 -0.053138144199934678191 0.013124743382553918578 0.064459112184230074605 0.071840777575202366401 0.058444921342784922347 0.10136346210332729256 -0.09258846723212237062 -0.016254209888753513857 0.14942974678492110252 0.064608892333519574169 -0.015090420725315432937 0.11577212021750876714 -0.13108543878115064274 -0.11692899609970978936 0.11092083437923597189 0.1139645773503105558 0.092076613769235662876 0.066871898177100319582 -0.056302185915722634257 0.084323615881522595572 0.074987587183584628048 -0.0052552461450699229639 -0.036551141896891917171 0.12123378739178455876 -0.046848561947355080171 0.014962598963962361887 -0.010776758340836823172 0.052825326091340281398 -0.018633236160684480548 0.029375169294088131905 -0.10243630328338777791 -0.077612876388826412821 0.086974152589254491441 -0.083151902819317252691 -0.054249629718549116641 0.10198458119764231 -0.042136376457563108622 0.12073255609579575109 -0.11659388106947482511 0.090689551485672884046 0.067665008811442800551 0.0024099813905133814565 0.063194720545833235614 0.068880397865578465999 0.10123322106052663749 0.025387856828022924843 -0.0057159456422776200313 0.095700266923880589198 -0.12501435013979556032 0.0042439838681351538252 -0.059461208619998380531 -0.013287791370458936283 0.14026462549889223697 -0.021460445812732549531 -0.09095784618620025852 0.078530245142269514136 0.076664377312672726816 -0.038101075593418014253 0.048229133664758061517 -0.024070664523015337932 0.080613996364269108197 0.02730494333845440158 -0.033983125642673819855 -0.033280583451643051818 0.059555570560400540592 0.02211406690585341478 0.12002080297525531682 0.038189356441248982488 -0.082320170388426663899 -0.097880920199732684983 0.050109094290485753365 -0.12513672892300922723 -0.0091918418531316322534 0.00026028995496298257999 0.00024976233996529522557 0.035179250140842589778 -0.1097926145542560683 0.13179792439579260388 -0.0094886382882105428649 -0.08268639375213517051 0.04910485884185019495 0.11790218919405749676 -0.016820966163975645258 0.099303181460938860781 -0.026553067942290474457 0.064300359822030764279 0.048792027638232038367 -0.049872087934319457581 0.07868880907381425871 0.042965227288020560459 -0.049670147208585826992 -0.0030360071445839063344 0.11147300307693698562 0.020517531336557929406 -0.099238277315109313381 -0.012260640729541430471 -0.095811167361575189094 0.015116867707579514923 0.091687286971790543655 -0.12565119411540978667 0.035503371315668587338 0.10445051885920172974 0.078673775486319069694 0.097567747092889123284 0.12173225217479423377 0.032904714753729621957 0.0029486198212470534144 0.0077313773813126500725 -0.053869771160371004992 0.049146743650943083837 0.052225444257045006147 0.064986651619926644186 -0.016567301605545235038 0.038408738624576985177 0.1145239720330678973 0.057519875685810441246 -0.1418011068596782831 0.023718808715285481098 -0.1092584630893044112 -0.029331616077669313281 0.1187313207881217636 -0.019646358361815940974 0.12899149950562324718 0.082148193603404556784 0.048192269524127973046 0.12999912928536083712 0.13083748502620340393 -0.022756217094330427608 0.031102230303104144021 0.0059996810771777101673 -0.080872298993236252374 -0.14352591434945932702 0.059229359116987061185 0.074205341059899454503 0.068725436917902990586 -0.0083677788097918578969 -0.028836313036911351282 -0.029303672202698312355 0.11367744831105952574 0.12936551465397727601 -0.0496822373495085165 0.078480026940165592553 0.065901397968265898464 -0.091494920432091633722 0.031505655032121548942 -0.035044788897950915341 -0.11301067113779829365 0.065765284057129863582 0.098823329101004941943 0.061495757987658043742 0.045490432158090600423 -0.047935493731966295761 0.016553557293006948559 0.033891107873491845004 0.025123981650529762094 0.094312788681707601657 -0.067821898713815137461 0.14224320969150114347 0.10354764112107806007 -0.10350846241132612147 0.096545377926455289153 -0.10402022142550501616 -0.10283937606719439906 -0.026399904673558263063 0.048500205538056416488 -0.037918491060829756512 0.081298096471220743231 -0.12029329671880459318 -0.014558712458592644456 -0.058041766900255510608 -0.083439333852082436804 -0.090001126393785726987 -0.01496113277728210178 -0.068420728412455958378 -0.04406630738136596559 -0.097976570647040669981 0.11125252626820185398 0.10786840286037475967 0.060213136107608811187 0.038991114152458997144 0.094741472321346581476 0.040795940674302158535 0.035905546438206252524 0.11816256941823936877 -0.062393029258506441104 0.12829867519550153254 0.0791094278277604257 -0.024311504618382339532 0.042420370105600943567 -0.029489845741173748017 0.088802909310873534565 0.065460978798665581113 -0.1396904798199001263 -0.00031470409329583298773 -0.14136636335980215518 0.10141496049064259444 -0.023982725206944784102 0.11620324147937700909 0.046612878591080944557 0.10314750325856474056 0.079141664011136189649 0.11158017317175725203 -0.049030357515679710845 0.10223905045314235496 0.13519707565876662447 -0.01713861946101123343 -0.1011254036624360253 -0.055610100310072435592 0.080871802752249824509 0.019746573628176566223 -0.058348314355101460471 -0.03363154066651190266 0.083530077708668104552 -0.054468680335525689051 -0.11522766432317765872 -0.072037873094309382016 0.0033643600214069927651 0.086258174011829447103 0.023643936515381068497 0.11803271147849228595 -0.1266191317155454521 0.082212571889031305084 0.11388971407074692521 0.063033556268663179512 -0.03859390704235213243 -0.079574036443565213106 0.019728487580911901328 -0.018818865920866498231 -0.034997900406267115625 0.071643175262102440359 0.018557465420310007703 -0.015095809556988666958 -0.048171777620890199323 -0.10459704050958666677 0.0033460525644622000387 0.081500826871606854573 -0.042950046470814157162 -0.081246246323731854955 0.034110020003717544945 -0.13098496697924072452 -0.066120659695404912504 -0.11939634670388997451 0.00066478279440501577419 -0.13104148692885633776 0.03479550182510906392 -0.045829348364692920614 0.047212420493830634105 0.045641942370555486919 -0.079567553315973593708 0.06338206973575680192 -0.11051849862284479631 0.095120590902608742612 -0.087017647829423297456 0.091748103191971117076 0.082106460228193442474 0.016560065327573331856 -0.008606803410491501577 -0.047743627345297558195 -0.087941575851341338699 0.12005280499426164431 -0.080035807783138679383 0.021433906519801790985 -0.0815673524779281095 -0.063486711951074803473 -0.0062856381209819836217 -0.11165049039600037639 0.12610080258445924284 -0.0148123569984966591 -0.11023360404465699924 -0.065570766776865449521 -0.095043929959907250127 0.078835740116693739377 0.11742155159769745998 -0.12784295792114769297 -0.021631531556145732614 -0.055592924868186184562 0.13414631966091966619 -0.076723294629793589716 0.061705646874873551488 -0.062423542660029841811 0.060940721723072785454 0.049455298903114092157 0.088172628901677332913 0.11879747267121769372 -0.0043529293933694031965 0.0097734714203817543016 -0.074380962056621355294 -0.091467408614364850705 0.096632746393663634943 -0.0046384236120093833011 0.057798533976012263225 0.0143903725838861931 -0.077694444505199536377 -0.031892544981725730324 -0.098280523226974295103 0.063241628156270560113;-0.06209047779926752525 0.027590044378741102049 -0.089836970412360828142 -0.078868406269678670295 0.041885253422368873277 0.015660518332695036459 -0.011383019597061592304 -0.088732937080278531661 0.11464176675115760051 -0.062382547723161700659 0.00067361873827053591907 -0.063438433287152776185 0.027330615629830818519 0.0069180129264233038155 -0.048171041825048284413 0.015539859629903444993 -0.048845000046104911084 -0.0753516050190329717 -0.0081727265656836734636 0.050483824200207041977 -0.10104131100923641196 -0.025088922190446814181 0.10619408622455536739 0.0078490236932557463229 -0.015824087597360012719 -0.075376398673039690657 0.070783266454889512409 -0.05728419692382820394 -0.10331041357971830486 0.1085470050536191805 0.029511935530844541492 0.082587323484066291202 0.03054121250418659686 -0.049809980903725757651 -0.11520182056943917281 0.040321253147839637709 -0.069017763943443583008 -0.11313863115993777475 -0.059651490107648551253 -0.046998782827530415085 -0.096616264105641211368 0.10917423322473636393 -0.13593309698732622404 0.078521198851337389857 0.10237721287276911608 0.12262605191208260369 -0.0077803822182054664658 -0.046260517485466737253 -0.01587281356517347003 -0.081359976442495179905 0.055064151086655799272 0.13345907526958877831 0.13541612010417841683 0.0003269410284632241542 0.11481759242693755085 -0.072281871337498623808 -0.044987647053462219426 -0.065228861022734327402 -0.075488818348743255693 -0.061119365779331948085 -0.10654552118164173358 0.036815872880390523858 -0.033646335204368563176 -0.0088312007991618278469 -0.052921372052914694706 0.1266097720973115015 0.12253216981629797 0.033939827245325397687 -0.13081694784560429778 -0.067015033377850335983 0.072468691767599138776 0.093375235325213426507 0.065958396107569997047 0.084382740868624489528 -0.11109996817344397479 -0.06255592318714842115 0.090987018745456449409 -0.010822534680475559554 -0.082050090772582157106 -0.00088426974488909574484 0.033977493358054999817 0.13206286353868099126 0.08875808219952770195 0.11018527672018260666 -0.11265351526887353029 0.0048851932220346340821 -0.074782820057743851216 -0.1230655849457340939 0.066974453769823416582 -0.060432137385586441602 0.10062707803411848062 0.10458970557622829234 -0.065511748242392586761 0.0046525804664210223746 0.048903187134261415225 -0.068237246489564876151 -0.079413824625840581661 0.11117921975229799747 0.10671648851615886389 -0.0035053645624511498534 0.037090285293095479058 -0.019346341562617618698 0.064556678441645226618 -0.10492716069186606986 0.044388966775385542418 -0.028172919338190355321 0.032587001820963079624 0.12650865418325929479 0.11796256230813936816 0.10749946925020104072 -0.032181570369430090306 -0.045861944586249092648 0.079867132887437131128 0.018851566825590589105 -0.027082587418273535579 0.074592108737080345393 -0.11508596853286394424 -0.074421869025802930842 0.0080479174876882074441 -0.006155960565075392979 -0.067621275467943192661 0.053425891650269105582 -0.045739355966929837183 0.049256743017270683549 -0.13612037028654594417 0.082459533100219931101 0.034191055914201635979 -0.064390337012780990422 0.019125671424783576707 0.092371065928752840724 -0.098568496726178414513 0.1274482422034698692 0.11756542042691926764 -0.0086921894848759739122 -0.099405098434502819904 -0.084513536113923246051 -0.027743951577480746584 0.11623373599026673442 0.0058808715072654702688 0.074116332327368861232 0.13419851950565533927 0.10825783676029010483 0.015281911012738050651 0.0080957240805265180683 -0.14017338933846346105 -0.058746758694911034582 -0.0065226216954624447256 -0.094094140064875250729 0.052459689103898761442 -0.0098749761709407135601 0.0062278520793130681329 -0.10569021199814782053 -0.095978082591417906988 -0.13154185181912533831 0.0040564170877373500329 0.047693451025771556318 -0.084740096549239016244 0.0040039497157371740921 -0.028474487420514445896 -0.11067039853282484296 -0.047160001084569018459 -0.026892835148319509803 0.13113419561199407548 -0.010899279563169869678 -0.037529516292622001894 -0.076045185744497117986 0.032376500541721572879 0.07349241888263059741 -0.023742386151127302385 -0.038363463397405067612 -0.030859822929262162305 -0.080842693565700535219 -0.042162812322845917568 -0.058971144072955568316 -0.11869731774764083476 -0.062987580305266299696 -0.030290216584276850875 -0.087382448519777167206 -0.017127539039876758797 0.095283353785164753846 0.013873377606865865824 0.01527108884285535359 0.07893340566420732618 -0.075809183820559011835 0.048154298916041740619 0.039822173399966458163 -0.049551447308867332953 -0.059929363928508394554 0.11682715850095919119 -0.1285734709710189827 -0.074517168242291709213 -0.042490776474132248286 -0.075472414219896602483 0.061137582819213220908 0.034880064274682966163 -0.048356640785328967869 0.075776933440321089797 -0.078422630652286398623 0.03561980744616497635 -0.04637416822360884705 0.088533969016191801926 -0.13153684815470678693 -0.032682840026538782785 0.027339527741263521671 -0.0081116717370599278336 -0.12098150842411255212 0.035655991681687579375 0.037428905210512605772 0.10920546080657929366 0.098084947463993224503 -0.0099175373046581673242 -0.09150263967692387479 0.0079663445167193012303 -0.12114984321851274274 0.059481465494493179769 0.03119589973601032476 0.10034977989304096069 0.080224616595198874891 -0.067326811852444240492 0.057704641260973695005 -0.053744722328954309953 0.052784546346535878014 0.10714277598766594468 0.094256424592534429618 0.00067193997646636043856 -0.050026861112807054222 -0.02139832934555653543 0.10306378564849773272 -0.13205247275414452868 0.021669602036801117323 -0.081719949834694202706 -0.097257841860567975645 0.060025942795783986117 0.11317779272680084102 -0.082489997869316905588 0.06808975164890186671 0.027799899936936673522 0.061725904180394794429 -0.0279986743095168647 -0.10091557760871508465 0.053397655469558491514 -0.14338634330771846126 0.10353234044617140586 0.041379342164999360909 -0.12625668678497661834 -0.13542934404665424308 -0.024008970344320063051 -0.12543615487000053799 -0.074248785240330544832 0.12642609207133612137 0.080289592609576868054 -0.13737963140162570697 0.032914589187171168494 -0.015352131061536374718 -0.077446088808001342652 0.06639294809836628064 0.0054531151857913013128 -0.022773119418189404634 -0.030515548608704413241 0.07475585998046428704 -0.11298162145486938257 0.11624021929341968318 -0.10869776358522381665 0.038173795619027124648 0.05621382262548803993 0.06670875090983614808 -0.1302942144427272908 -0.059309904588637288314 -0.11281150723495850241 -0.081888983633546796881 -0.057009171216173590291 -0.082745753414849479435 -0.020708410162580789121 0.11690483442320251384 0.068116922022966111538 -0.093048618741849442593 0.092934124596965123066 -0.028621470323846730233 0.10193417957680062091 -0.023920446740101328903 0.054013933485603245199 -0.011765228865383619769 0.094681507543060233756 0.10202005321708026986 0.08362149209084447643 0.12529081961587459904 -0.092721032592264926442 -0.12961236008549376075 -0.0041970162715374631154 -0.12932736904102973274 -0.048245447423026721623 -0.143543250199582334 -0.1362619534755619144 -0.0068449599937342817807 0.095248343305150723337 -0.069165735735047001453 -0.099096657613938585185 -0.092558546587096876546 0.049189738477926008009 -0.028363175452776785701 0.06854654378703127493 0.065543829934583436314 -0.0048281802794391025582 -0.063673948026342602757 -0.13642580205816365324 -0.031712986119861688583 0.11138701799443953555 0.0098586066333447523041 0.00035993593205339136478 0.11354020337513784367 -0.056258564328768294327 0.083116530405210928278 -0.044050272644352440887 0.11158231700365515981 -0.019387990499824765689 0.057065090910696683602 0.010476700760022522596 -0.13291236828999775099 -0.13660628789876513856 0.093120406205333239313 -0.010976101333155336912 0.048219252082485751509 -0.094383095531876778916 -0.1164226082859356054 -0.1094806289275365857 -0.041211803582871069096 -0.0789702339505325146 0.1027330646599104863 -0.00055642694371740050556 0.067727718083260224358;-0.028939929664525292086 -0.04121656312142955858 -0.067782027222819701828 -0.055057737238214554676 0.010154271582959967929 -0.049226208078252661759 -0.10707358297702132544 0.074154267991204600441 0.10046038872279217102 -0.11750959515215537998 0.081673537384555086605 -0.12754291265215722539 -0.035140321870426940998 -0.080954578850432570847 0.13548499111910330961 0.035671969781829432344 -0.039559982607379445829 0.087504246390941328726 0.031713236671881445128 0.056410390109424023153 -0.10412140383650421438 -0.081552622319585696409 -0.06771688975004382105 -0.10028276287300998126 0.098478133314838872669 -0.008457896388067145596 -0.078969874407106566139 0.10924034618736608304 0.026764611977959783251 -0.046735551613586931441 0.10721041901979921906 0.014835001918934774198 -0.0047418840638039716842 -0.064369636873950294986 0.04271315178671817453 0.086559795610743173189 0.086247400666233181576 -0.056642682667962900023 0.053057078038795231489 0.11153686798432511929 -0.0054761458963743028794 0.010310569626737240562 -0.074993182088358797954 -0.085444641457872311241 0.12108206319955354402 0.014929805324328571797 0.10923924250459533802 -0.074941722317237211004 -0.11841912182091267336 -0.07141386984095342283 0.12042005736769137436 0.099976528159326505385 -0.12187702959369649258 -0.068194314985707368826 -0.10150937397667716966 -0.082401027955319630647 -0.086400218150426241759 -0.0029203075925355952668 -0.039081371552100854783 0.038816234075988206853 -0.028689545139203735669 -0.016921554490417711758 -0.090878048807298439371 0.035466369627983954094 -0.057655925674437571993 0.016029026563411093859 -0.017075179063462963408 0.094619933021001162432 -0.053763365803032689416 -0.11113162492030836948 0.0022894088861206982402 0.087955629248657615782 0.077613726668625759864 0.033049545169313278292 0.10323221029756636524 0.11879050827853450401 -0.010955788145527866825 -0.013446261053014864351 -0.08393364252331789177 -0.11118250668623085031 0.11664875406020397408 -0.051079768935783066708 -0.11982925653188084003 -0.018434948133674643883 -0.13016408052579381271 -0.074364208797247505212 0.0075203086827552367497 -0.092701646492287459456 0.015100170826260653212 -0.10205486445783583382 -0.0055477147761864159525 0.099459761341346430985 -0.047169594393145670985 0.075822777861393200749 0.12371616363311099818 0.12701197578135325905 -0.10649801757950198844 0.036399929135202103991 -0.027289711105896331117 0.10384525280441805895 -0.061438597039221561069 0.08300606044894341673 0.026358174807767843772 -0.085757976563613141918 -0.11209171571170815918 0.10400113315999420793 -0.061100278073110560195 -0.097063754807103733158 -0.074193350281028330739 -0.084495389080791058478 -0.019704134594471036518 0.03241815609652496516 -0.090012834896503718385 0.023433089701958630807 0.037617108555968087336 -0.040427826238365827116 -0.088633041950181706836 0.067008824664607571919 0.11635315608557722511 -0.11002786239499955101 -0.1075845489171214503 0.044778687850717195651 -0.099744069694891496214 0.1014868891050306754 -0.11820554252173566534 -0.091257797592263906195 0.011250585374167157773 0.11726071949178784593 0.058945466934605117437 -0.00042434652523622834984 0.12717896419742658054 0.014282599891078944995 0.077280194893545109402 0.058870806748032911138 -0.04336666920619629273 -0.069647011515293122397 0.057171936835032063917 0.10588023063386241274 -0.057419328891098984913 -0.0095526148215369418443 -0.069207327741848387315 0.10810046818204370467 0.077762367793166434216 -0.045164840811553384758 -0.016718280064708043037 0.094992818796140271465 -0.079084465780189169837 -0.091150458729605143837 0.064341014890937797688 0.043862978153181915453 -0.10909111694935007264 -0.11006888285626724444 0.033947331582503743885 -0.02092948051590871536 -0.038976747746873770251 -0.049261569351827252938 0.0086902461730964490616 0.10992349296835335348 0.06004514208062893682 -0.1287716046051121388 -0.013975860068080721288 0.052415041794139666242 -0.12247439966002582334 0.069768012259820169629 0.049696022624177341176 0.078310791681064570446 0.059042809197470326465 0.074028714931183237091 0.019775154103266072425 0.091372589313151425516 0.070390906186440824199 -0.065239068203841843463 -0.12976389711821378903 0.13073552532794063818 0.085899444115946341216 -0.063203838094514713797 0.094529245597284358715 -0.041491728861384802318 -0.038426104385826616305 0.1156157451069284442 -0.11714524262590775283 0.034283774093081156864 0.11128082742139415451 -0.04458755132995346343 -0.019037883675840493181 0.086877334282668666754 -0.058100208583208884372 0.10918328785157770111 -0.062451889317659665946 -0.10343064235250004623 0.044489215329877547511 0.095273937147629036981 -0.11815380612726879284 -0.050512668162419525897 0.096564640178604499443 -0.11912892647728565154 0.094238562473954498588 -0.00084721691069379850402 -0.021794118848075024614 0.12194704969912090187 -0.050491943068190318911 0.10125002434851770872 0.089285850649803849555 -0.10251579573808243528 -0.051766488554653357357 -0.0025477402627268022801 -0.079104285153337464132 0.037374599524322746347 0.091541732051967208972 -0.055381759810984455827 -0.13038027042843655656 -0.13499190603895938612 0.058594767969636751825 0.094453272834231410959 0.096851250069016389665 -0.0339732497661429933 0.097419463079694942897 0.096625658958610680105 -0.11208702211356239009 0.11220635610021337247 -0.090029917188877220391 -0.077116928146132759925 -0.11021976844233610793 -0.092258702718241006324 -0.075776766994949479317 0.049127658319523460906 -0.066926852875328915471 0.020706932261363129866 -0.092653981022602166506 -0.024824958175892534312 0.01916181755781631163 -0.026694511386597952196 -0.086071429567187301979 -0.065076102436828056619 -0.11099582286195738834 -0.068502749731910742015 -0.012499975762710007973 0.094374444320216396842 -0.054117477380853810931 -0.051810353706634768023 0.020603432527615189035 0.066729666446822141768 -0.040088501132882072009 0.076498952675660689127 0.027899313254017524266 0.079573442317182357941 -0.0004013018371081135253 0.029000051804291458735 -0.10215721317925080536 -0.035842785667938172056 -0.031761649990660931198 0.064082937794636599116 0.0047343048279889889465 -0.049462393505423182805 0.050709169811848218978 0.065111611472762467856 0.11257722779103478128 0.0022229654938923540212 -0.009363553209141929623 -0.043865984425276824399 0.12732341987180204046 0.033661726883794859666 -0.10812617176395138141 -0.12397892695019840925 -0.083329950212410019983 -0.033151166033006405909 0.066406916257968406914 -0.079479843881381365134 0.07690319950808481575 0.11920405005222743655 0.074829458196342152343 0.096538669773823082565 0.011531220059008901943 0.07209749509192781014 -0.10416035700153332411 0.01244299502056511221 0.081813972901694884121 -0.020157601975182876108 -0.11915118957534182043 -0.11948977415009455483 0.099449050419062656747 0.11122363130518100882 0.088258426870193848468 -0.0060166169519961345061 0.12574530974302933206 0.12177105054843778698 0.039313966708830923313 -0.059606812895812572028 0.10132392832493133938 -0.096424671867137448644 0.11143796002675139534 -0.13277862608941740086 -0.030595471064440410425 -0.0068063314190400679357 -0.10407593588672940654 -0.035780425473971491646 -0.058541065979319607815 0.0072699453341645570159 -0.032440319425380309548 -0.0022529241213564694772 -0.079513696127241934031 -0.13040677009524509478 0.018267949870239146709 0.079762905806941106213 0.11364857765455789462 0.014559735944159216819 0.012237066810036350065 -0.085831459345514005133 -0.071501068067827563968 -0.07991046028002027346 -0.1161501789108983218 -0.09959167473579441654 0.011468320935153434453 0.065012720838039633753 -0.024612588317703631979 0.097920364069967916199 -0.13416054385990600073 -0.06403771788130502296 0.033482924698003471708 0.1004570708117636102 0.061457038106267507238 -0.0034495324220547053662 0.082018082746635523339 -0.034117370661924363573 0.056069742837972676164 0.014874752674316473952 -0.080019826377027258868 -0.0010915711381900212226 0.065946011100487353374 0.048629251169728833493;0.099998468228077383446 -0.00092542235119821944934 -0.074573494000456430619 -0.032243444204034049649 -0.0046574070989123059899 0.0070717866058757558601 0.013450927663115555197 -0.11492921568104720598 0.14437768443515064387 0.044424373104861983319 0.060503322871120250592 0.10765644393005495416 0.063557268598541674653 -0.01422175152785342539 -0.01452584303718712673 -0.021307769744389422339 0.030054476737733554909 0.14293795948584211986 0.16127374891973661475 0.048118867371410786737 -0.049123493137986876111 0.089480355238382533467 0.086605005937143611505 -0.011914364804798606434 -0.072951936452023372071 0.037850504798790249317 0.020155172194294992266 0.085019923600854502288 0.10275103157467642412 -0.056532755201387084598 0.13687183916036327336 0.1136177698697463101 -0.029803339585441516318 0.0070869083902331143215 0.0036127430725341647295 -0.011107490699979065407 4.6609678669854710364e-05 0.13115023285049987045 0.12426724117451740104 0.10779880168216712799 0.017296853400628468822 -0.098927910508223762531 -0.055791852177775554111 -0.043766879839180997114 0.014658774796297967952 0.10883645124341430332 -0.025403758698937965038 0.037936480478806537675 -0.072372645482416772533 -0.091129522198623469365 0.047417172986493401343 0.092494564714141885853 0.038146108906846429298 0.031505948167299922813 -0.10724892947548772537 -0.054097717979100790053 0.055966632274194315355 -0.063638705144191787255 0.11130573944508993789 0.021929337283909246942 -0.035645258185034618681 0.023341486940805990236 0.12288760902723747104 0.015994231293785823173 0.095574733846973888851 -0.0065694216419192744474 -0.085507299054349797385 -0.1066113168728628352 0.093725759149308973672 -0.11478818403115999269 0.11946994180611809899 0.074461510069382313981 0.081817789190031894875 0.040742710511854525468 -0.027193407150985362403 0.032750520057218207581 0.079072102982072262067 -0.041229232732781263826 -0.040263552842470608228 -0.073841935818763485 0.13921295581698170385 -0.014619647899800346583 0.10359040144786128834 0.12509065834902804992 0.0011917775088122822217 -0.069768604462526181975 0.044723356358636744134 -0.079403673696195026244 -0.084264446520434729826 -0.063757413314125141457 0.075182147911273131125 -0.11041448773630417601 0.028331767417155422073 -0.012562319164334855362 -0.1079120214170936759 -0.016968745725528418949 0.080437486280475381517 -0.074880026175369693298 -0.10607681120894534021 -0.13937902857785453015 0.0430433208893765476 0.062831792536631264623 -0.1152015044002193539 -0.090915101514573049002 0.055654936316157838094 -0.093465639598366248575 -0.089787420215132945911 -0.027842960725544117773 0.055120549183453500242 -0.066171430175999690348 0.0094700252633466708296 0.018606035847533185928 -0.060230500409178912291 0.024189897364176139033 -0.058974755823327791593 0.076961462282510204047 -0.034115110911732325627 0.10882707106713557232 -0.032555157225288733347 -0.037955492362931352035 0.051011557621821732034 0.098597369477595092624 -0.00017293242243922465028 0.062251711494913104794 -0.10714436393864529284 0.095507129375553001527 -0.1327090344826186985 0.048021984440038682773 0.088274269064527038919 0.057828872020242130803 0.031227035547493585399 -0.13136237177708334767 0.11436839872559854958 -0.10888968647902948217 0.13165118414110058009 -0.042383114336114281751 -0.072493172511662234969 0.12069376852792795818 -0.025752402215692367371 -0.12259809648311049968 -0.0085393705185573976629 -0.011742615773874160584 0.095578013963291116872 0.025180863754175848018 -0.004693289392625416348 0.11171418875677527338 -0.036326513376838003022 -0.11016472306279233295 -0.041747956006803053908 0.13196759988726319834 -0.091753276121490909278 -0.014482420696959352399 -0.1229391979590332834 -0.079321788338648141492 0.05667837159403123215 0.092412529278892902029 -0.036034988242425583516 0.11929064562135424654 0.087966960516073944287 0.031906697482605009264 -0.04563787161355718075 0.065167359729630697229 -0.078041219132587297258 -0.062957077649195267166 0.084287143686345322724 0.065102122733119771603 -0.1527323198963408124 -0.11632277369547623647 -0.12965896057142861642 -0.12836533648683398634 -0.037375427620399755135 0.11183244289646926406 0.12235978844457669201 -0.076949613582555656532 -0.13521678205346657209 -0.0027385911233188124821 -0.12919580667543667518 0.050770021149914808245 0.1308141205307449817 -0.01274588488912354288 -0.078685142778038924538 0.04877954231301349225 0.026009988396114718662 0.063630473201573681252 -0.095853633299035637116 -0.010925380206603028249 -0.13325887647778777989 0.10813055809209612401 -0.033332262259065256749 -0.12249619156686987476 0.096828445244258223856 -0.099328794974687120711 -0.059304333429310338022 0.0011481031848300422577 -0.043073652078186565328 -0.004279966751183721628 0.042738368439699810086 0.038321814398411868652 -0.14155712193591693526 -0.061344182827840404437 0.012780121033369350875 -0.079969925421746176908 0.10907807628201847405 0.042663954734966848259 -0.10507497071652076304 -0.093188618147106869194 0.033081700693625891441 0.011633353029778926643 0.13761609676258684809 0.00088379595856281337098 -0.060401753597884327851 -0.049438250829343430293 0.021596645297565969512 0.066472941325611586971 0.075111792652054865105 -0.11878966340892685438 0.10847586124520074147 0.11327469040945699341 -0.068685105277497882081 -0.072595388784512757119 -0.014410600999366657976 -0.093441279424059067726 -0.14098533583823422144 0.031073849289378386446 -0.045045878924225270235 0.054519069929342744985 -0.15381832241330745115 0.032264784775637891934 -0.089630921781150257877 -0.048053995832637107222 0.13360395376748465668 -0.050933432604904516072 -0.020120521366175276451 -0.11005138746309094111 -0.056068085929496469522 -0.10574255134672716494 -0.073215608204321408481 0.083034688150468091705 -0.043400852521847770038 -0.062830218882473337638 -0.088029153665063586409 -0.061147616318254299772 -0.055608645285456795304 -0.12594202285954358977 0.097079257902417753767 -0.029492373463966121278 -0.076714521485841222215 -0.075335940040482093916 -0.12103425834272547867 -0.0083534403172185189845 -0.0076831128084896066141 0.089865847979756191544 -0.061725665683620263569 0.071500207565001458465 0.040736676642345710786 0.093012463481450827207 -0.11610915959182348256 0.067974187082023837525 -0.091840799001924017242 -0.054457964138780637353 0.061846703305959760399 -0.054578381061829120413 -0.069985793813883534487 0.11585874869126214226 -0.039357055421655975924 -0.13316011745031830493 -0.083648097118080244616 0.093098537437734829592 -0.00098281792858371879416 -0.06577322509730786082 0.013994893425158205086 0.032110357655722246428 0.018058588971717765698 0.04803731917082238595 0.019204284242512661279 -0.07488641775320017957 -0.0336484097309620242 -0.0033034663860710402825 -0.071380375737888621113 0.10671716418198591569 0.015618591155186899166 -0.12191641165309637096 -0.026646685517038932317 0.016842533370358833689 0.047199102424106936793 0.045131698056747056313 0.031686587310639287296 0.081338395204629709845 0.12287358091099563617 -0.055134339976932615623 -0.067775536198305771918 0.074289392281266769524 -0.091841811175188955985 -0.052865030771239211738 -0.0080093650036481885829 0.035372996342985220386 -0.11759530849262669894 -0.034549363539510651033 0.13255483570731166343 -0.23399430275660590417 -0.055315869564667059788 -0.057428580537652769433 0.080086461186934618239 0.12796898430690770154 -0.03783443852272103114 -0.06227328530959531927 0.076541739353372134635 -0.11522543997348269618 -0.0092680352071955324211 -0.02696557223343637108 -0.10853477724621860001 0.051313315037449208633 0.0048950714618388466506 0.097805718092793023088 -0.11011849005925387901 -0.092505488445333156067 0.062027543507571308856 -0.082505787129002125524 -0.098085464931720947601 0.018585921413492485083 0.049832296210086370059 0.066650202804269517709 0.095245580350553415983 0.022622661531662226903 -0.13809326072697725163 -0.035535894570805713621 0.085152465702296606387 -0.060930043160972467697 -0.064329445626933642877 0.087005917798310419831;0.12363192492750514628 -0.029326763325602620003 -0.079496896092358340646 -0.044785033297749216041 -0.057938754185246639505 -0.034726094811192806389 -0.0044003234629975554806 0.014193852956898574125 -0.11189698852064657031 -0.030901924908610635401 0.023828006021537579545 0.028088655482019216775 -0.026854474532925682456 0.12007205740755247381 -0.036721485493545945322 -0.035900882364087428888 0.14043435438501586376 0.085474777618033515036 -0.046513952092918503523 -0.12615185662755776241 0.080954219767065904723 -0.083338282446449085672 0.0053558724025967703944 -0.11934677673288079935 -0.039047300749884619742 0.037791835580174584774 0.035637278370448513543 -0.063468899022870672866 -0.065262293780802810295 0.047743212329660916771 0.089013851689000750289 -0.092306848145851785881 -0.046094781226641082239 -0.015523553788266747713 -0.026166552613482298856 -0.054600310458800066504 0.016993365576595611394 -0.0088008745351348810493 0.01963259212292300937 0.083822093065522199073 -0.048636593596876068202 0.076731434799591879958 0.11236976184593927552 0.010700068136158216725 0.027133360474415144786 -0.04798593228118060855 0.13637062426666099468 0.12665408191270954852 -0.10434539777628713819 0.097896890213677603687 -0.010396188526849588912 -0.058925027641634458719 0.025094917375500347401 -0.10022857078889695071 0.15079286906164995896 -0.046045361728181993799 0.019801300289982240455 0.060270976073153771646 0.092814340748243892576 0.094380651320844499708 -0.066051393164091962151 -0.02410852679304308771 -0.097519081004927773981 -0.087536683817080365722 0.017757920260806168283 0.037203137626898745427 -0.0065560675759165623275 -0.01024467450452635868 -0.026570669603510382178 -0.085181703449397572214 -0.023804155521399899403 -0.059958415905576101235 -0.076054001932791784335 -0.10945897055099414186 -0.066567464410623361504 -0.12229117652600331179 -0.041351499456181640968 -0.047844586712521626481 0.035174027187140619044 -0.087927345541503595938 -0.12847894914070204231 0.05962840508930639799 0.047537493108205021441 0.0076869516904468707108 -0.075058634024734616208 0.034083010941813637884 0.15110946542472902809 0.090811215298371023019 -0.017800756865257238298 0.11612957027101490637 -0.014129356378202036562 -0.079209875488650799413 0.016694607888649681815 0.1010790660565759197 0.036278049249273976173 -0.070939109660464710894 0.1117352970501015591 0.067905179932774631379 -0.046864660383555252487 0.025408451892468819633 -0.063187110835462786951 -0.053798520615187812866 -0.0031911261538588300488 0.077204239314769107505 0.040666655384654040728 -0.05453069444658387166 0.026908606663670772696 0.10264618456775359556 -0.071282008589453660363 0.070153736857518647629 -0.042165056562901800929 -0.0448223691545672695 0.018319110687763148076 0.07963420849438081206 0.14673871012524988822 -0.011537495420100964474 0.051196792306267571715 -0.034906642589657442544 -0.050185166493786945163 -0.021508619066840907463 -0.13255369276478973228 -0.12479661649647086352 0.05018873710148779449 0.10004550781927636083 -0.0065570562496856787255 -0.033829392863625531995 0.020309478244771517891 -0.11260923273673874301 -0.081825089999629466164 -0.0073468837535343072334 0.14215709564809519971 -0.079583494061273116205 -0.0015014458937405465375 0.13883653425870515208 -0.050867991123736550074 0.00051271001724523257437 -0.093445126970488540108 0.035695561688948732049 -0.019622822478776807964 0.050032314177600220595 -0.0088460710098152914305 0.16752119958189473636 -0.037442358679554678391 0.048708590284141366211 0.071471135017506612352 0.15421480094091996604 -0.089244166412832406921 -0.039038089370723755289 0.057397018535961345787 0.078604913465467968203 0.010091693997094707685 0.13628524728897792317 0.10633448429368191901 0.012233256137732887239 -0.082069431533549161428 0.0056516414520389008855 -0.094726334628560476814 0.048812087694060951604 0.086596359531895872319 -0.092360970783664037009 -0.00030560660815092337934 -0.093601023621365603278 0.061145377970482674146 -0.0085665395105202508247 -0.0098393074179983445321 0.076887853187449436976 -0.020222186843241955062 -0.10238892143915960531 -0.095254833877980699119 -0.055382258579699444878 0.040396035761841579681 0.084773196240373036026 -0.06916715541975994308 -0.1178937514597586389 -0.083065612902747804069 0.029142838422492402944 -0.084644879039024734091 0.0027139370586912537134 -0.016590522415045477062 0.032293986977701263918 -0.0072982543445813735303 -0.043921520904412272857 0.0068333407508579160211 -0.040341608246728284659 -0.083515118757062953292 -0.054917215101414028344 0.047536609753747585683 -0.031661514311329047588 -0.11296629169619758215 -0.0034131390574274620212 -0.049266925842341845188 -0.094963045535798290553 0.033575014617303979014 0.14814052026922761018 -0.14342102267159981266 -0.0013744611590482730314 -0.11530679058092582756 0.10407662177541718296 -0.020440888507138477853 -0.0055111097687386128435 0.056566277502690803791 -0.0073073533757385998946 -0.058793467936302225285 -0.0051687134455558553583 0.10302698834699795805 0.051046412885150514727 -0.091193973054224358732 -0.023437915926470882788 0.06358516144357312383 -0.0085601374447654091787 0.088873754971322341256 -0.007842639653373215114 -0.092425935949122170476 0.05083244648183395803 -0.069034710448365024793 0.13124886430268631332 -0.02381005659143795028 0.1075863732505874526 0.14479909509225649678 0.02363484706835838195 0.032030044803247434415 0.062606738843769937919 0.072105995951045748216 0.05719576996160129212 0.075762467994271998073 -0.1059998321597060561 0.12285126339476694357 0.02581752411947390094 0.11112584407819711685 0.13255205950066656362 -0.084849102360445696758 0.0011152420641026711007 0.12891694606791853639 -0.081808444582210204654 0.091451843219893039216 0.14432561105812366509 -0.0041253834745179143728 0.13655873652123209916 0.035407843486003440225 0.045822259312020337252 -0.040659926234154847302 0.020365422613795397533 0.085037811592941506267 -0.11784190495086932504 -0.034503419169828936086 -0.099791829382075245003 0.0042774570825800098048 -0.094402140531295156145 -0.062804503389610119579 -0.080591181797776148543 0.022538692617083227326 0.13814715766007656939 -0.066957617258389057202 0.076068014762249350214 -0.1645917960599798946 -0.11093463311849501018 0.07412141095347693498 -0.029564721573075956884 0.066502414401232973207 0.058561777271042989024 -0.10313954846264029863 0.13837945691499886625 -0.053108934706013383176 -0.087318700322238831935 -0.098055060255828593863 0.1443907360833137643 -0.0086168255069405622765 -0.067707799836809939853 -0.010657477572638318977 -0.051040355514546754956 -0.090209921293780581664 0.091644807648871881578 -0.046215083781771505722 -0.026777395926902199802 0.0082910788494790065711 -0.032658743395916740859 -0.038556541360864567125 -0.061973964093796629626 0.1487609967425646551 -0.021812451483619276632 -0.026555826137013044397 0.067594545930281843549 0.11764433913380908936 -0.065856728857574903246 0.10058793422597057943 -0.1088687149757982392 0.073024845395278745186 0.075320181100071756375 -0.1053129307213450383 0.11840144512232697593 -0.12899143923138620127 0.16893543409469050087 -0.038558356739838053895 -0.039058345499143984347 0.067856670767086277318 -0.022859832353467519211 -0.07566893929453311074 -0.089873529333567403476 -0.035525017514808708563 0.034570157932352345298 0.10173731356276320692 0.09052932990162064486 0.0599660534162452033 0.14152246703117515869 0.069416971707146168935 0.084650401510702300012 -0.058007082212669272558 -0.048619129087235958553 0.11584439918396549629 0.15582086757064503302 0.07529154879005252321 -0.10199367755821224513 0.14217303497613031915 -0.019384412970360767603 0.11530498426355204056 0.006063832684039158552 0.072783690082649565856 -0.020598475154803196074 -0.094777882243511038518 0.087137130716776076134 0.080416054450732590841 0.16443399625982135781 0.022155085558753100788 -0.060072673700828485566 0.0077131421917836090474 0.039434493101260348347 0.10875317980020865472 0.082524562684001698254 -0.085637218696931430295 -0.030052243120769140533;-0.0184423255676551337 -0.1063179751564390374 -0.07736116383630622928 0.12525361188022451908 -0.10700038309114388857 0.11280495867691371636 0.10607950077587845195 0.13146402584451888362 0.11228569204884104871 0.044175957762580243815 0.066467455925072554956 0.1005167758216341245 -0.083260703520939186029 -0.024143675726544799875 -0.086083308652621245982 0.12583753544984424555 -0.11796299624162752406 -0.11423893907396014125 0.015193402724317545127 -0.013142251633020541127 0.039468766077426123418 -0.015124567479473540951 0.12389176451095360032 -0.024865692945342320053 -0.068943247001485782888 -0.06378084839459251254 -0.084196521005392113701 0.07982406979895405319 0.038025891373840534082 -0.088318189253449322362 0.0059264488368458000805 -0.031553441878425049494 0.018568824919932679779 -0.084371970924086756027 0.011135295589297657462 0.030355853026499537289 0.049540699095162933629 -0.12528944229562419266 0.020000722611259742767 -0.085265015048033854228 0.082856823305116872325 0.056039071714596710994 -0.019189642410959023566 -0.1427585395464361917 -0.0092317570891228498825 0.0095614875827636971323 -0.015567495670258691201 0.070503051860731080769 -0.14229001732836210614 0.065216789534515776094 -0.0054863557395929320876 -0.072943542641574210528 0.084419662323939437254 0.027611352294571008675 -0.020574006695624268842 -0.082842936945354425649 -0.08977649287440951642 0.074156574087718155064 0.10486291246822528056 0.077050706917432668086 0.054563707719855587819 0.039144709938824066853 0.023674377678813685738 -0.033665216211031911975 0.073508289301981777353 -0.11438618238886026635 0.10281430902799713889 0.030262232368811110145 0.023932984950208055497 -0.12481451414561077484 0.00087589235694012943997 -0.051789582736028898224 0.027512244147076047457 0.11244037596483093255 -0.13122138836700267261 -0.079363559022392837772 -0.011480041492937709605 0.10958042802827529238 0.10445157345223951562 0.042221804554281462674 -0.07334681565639944445 0.071615670899572686503 0.023003502548107276904 0.0011720380424864694502 -0.019699892554301538794 0.058789528729646704786 -0.048099425920135489843 -0.10458688966410434329 0.1340829019963680202 0.10558472555765288647 -0.059834205311387472781 0.05553165161560086327 0.08216857018366022225 -0.11863353166112697301 -0.10912395216015124966 -0.076301241502684968854 -0.12443043490876262713 -0.072369580915526102172 0.010748414093869285146 0.052516723971734201315 -0.12111055071303331032 -0.035622942883864791574 -0.09804125514015500642 -0.052541371935395687898 0.094353986579460424888 -0.0034740671591500212403 0.012063118598515682606 -0.013548893205057185862 -0.079203795428381129629 0.11215641582123633824 0.053498566444643819162 0.03962252116700901855 -0.069755432958190644044 -0.028539319945853219157 -0.066261412232137426037 -0.10406365958574607944 0.053210018183235278932 -0.0052833132112088867366 0.087238506839236854007 0.083104825869652176884 0.11231065374455245776 0.076608091399177541403 -0.073027250735346049826 -0.12591251834237318641 0.06680569640041490731 0.10581296626903946567 0.074388657682630518475 -0.06282566143212124643 0.067096382055464462435 0.031557211630811890513 -0.034376455704821978765 0.041733211770315296885 -0.076604834712686378784 -0.090937394678834840289 0.012190248815875891902 -0.038097863983686634792 -0.12339884227516921544 0.031714694872046277074 0.030839396075221240517 -0.029718345467457992631 0.0139061518334065784 -0.12256810885944206813 -0.028344346508783833938 0.025411945039181635386 -0.03065788322050971848 -0.006410871516275295362 -0.023679181516569555027 -0.014236183962270852754 -0.07492040242202779865 -0.013307002678410112875 -0.078647264239145878162 -0.077770607019096965606 0.0051090965921983377135 0.017023787865136506131 0.0085321358937718826121 -0.086122041243551730738 -0.045407260999900937726 0.018002758268307137574 0.04562122496900252594 0.079533912603368533967 -0.077772397213179814135 0.03628095213208221842 0.045561536290282395045 0.091178323426769805615 -0.079301190022720347006 -0.024900545429638001882 -0.051114124525235962726 -0.078146856163455208355 0.055942733809860520355 0.088009561933268254386 -0.020191332798921730191 -0.099070562794639091542 0.067104203028428080491 0.06170409256714964874 -0.059155151830257213241 -0.12509145753318426375 -0.0580038413616561499 0.071255712155287725951 -0.13385013603677911598 -0.072636825044336550405 0.028794092749250495278 -0.11113300795721625658 -0.05985650620748040468 0.0037109255280516114522 0.12666074107972039031 0.069420203785699394206 0.11763128291855909358 0.13999118242066649342 0.11089198498997411557 -0.12068880063751287468 -0.0645841873727484167 0.015449014550469297377 0.10558509025040431484 0.12892927851254618044 -0.086410262065138909726 -0.11745862850804321409 0.095613022828969385092 0.10591133713979637709 0.019182090993302484266 -0.072350204320258626467 -0.0028429064636358455063 -0.14492032991851358514 -0.052439229421528031627 0.066228817675572454471 -0.0092748758173374617336 -0.038960936126731557372 -0.10417325457628523466 0.04847587849850418934 0.067275139122869656583 0.12431956693172933892 0.11095774391409488069 0.13309515951138223278 0.0284753053313199396 0.10696299856750356161 0.025530025056277324408 -0.11511376091545642841 -0.13605697150604084689 -0.087273928718733559395 0.087849643934437240955 0.0096246525355567352777 0.050156302641558972444 -0.045539209620244831822 -0.029884770549237466009 0.055264938270629559991 0.056857699645690033818 -0.10002238003745934913 -0.054473723548621538759 -0.0821482015674373095 -0.11606848097724911661 -0.082687539437765578132 0.027681365417274342994 0.052614569340675231002 -0.080482065265038801871 -0.0027105293132034563759 -0.10223999381293000233 0.044979518193825528127 -0.12086654826440745847 -0.04550879551708261056 -0.11507980733029225806 0.010466657848668252731 0.11688529000810626846 0.074647949855922227091 -0.092011052448250987834 0.058290790161759115096 -0.087090811179001428877 0.038896796613178116764 -0.11313318652358700378 -0.076373739038698346127 -0.051013167255469324401 0.056505669869895094881 0.099453806734322719452 -0.044340107671206739626 -0.025358773504977418639 -0.01772888048595837665 0.01954769423405612952 -0.0062948599003011425357 -0.11888188346492369052 -0.0084211353324808863041 0.014138322135211890337 0.07714131406095824095 -0.015042031704800416791 -0.13857149779199026685 -0.084160670357792566332 0.1116887965157735696 -0.083240488161043776905 -0.131329859971617946 -0.0046090218470835123132 0.078293164589484182114 0.044948534113485885677 -0.031695059232423772322 -0.11538749256200844795 0.12294280796544451717 -0.12933141135350076367 -0.0056124138363635167615 0.032108964969231434949 -0.11606580053893335303 -0.12438707541911243892 0.025690783222557699722 -0.029004076226192207488 0.0085833393293062425905 0.0064031767581542112927 -0.1267751991406127765 -0.13608009195047576778 -0.065336613531253168174 0.11860891366218703769 -0.10692244950548680793 -0.076738885612823506954 -0.03295829894897914919 -0.098143038230333559668 0.045629861269974689164 0.029008854779610696029 -0.036755774666963308972 -0.027069937408635211251 0.099524102223697535896 -0.079181432232406284699 -0.08994372102304849792 0.026706682923274698699 0.079391286286109863379 -0.13486756687449072412 -0.083970190820737325432 -0.10454576527447548284 0.11077823203330915136 0.03161068610773887233 0.012865892606239718449 0.042998774840904453731 0.050283160424135837918 -0.11778589244184978213 0.093316413954303983891 -0.070330664976848936143 0.051391949419886194528 0.1187005540050938418 -0.12782435158205304737 -0.051672736375621385052 0.12047259247980350583 0.062917754156107480457 -0.089383523619607205268 -0.1029159299397722771 -0.022646658403978368185 -0.11807131576691604069 0.020602690241457020937 0.094797260159912091759 -0.066839505858226441748 0.13261271797847815068 0.031425248257101717764 -0.063379831347080056725 -0.10682205566805039187 -0.0046321735013176998721 0.10011723472945073532 -0.012824733200718006071 -0.042316939099595517193;0.091565230979574210868 0.10620184108926669642 -0.020640419991188832527 0.077717842967833655754 0.11853714110088735267 -0.034309549956185958486 0.040179443980879331333 0.07060865572976572635 -0.073338732957129573742 0.089354257940523512671 0.030618249202819580734 0.11163852386721392906 -0.073924089115146612849 0.05764198740268685478 0.078155497828498024515 -0.041287025005559883917 -0.070977359382437835156 0.051754664425438925979 -0.0062216270500888510089 0.12726832653027966846 -0.077015619389041320431 -0.10922291454304300373 0.048690635807889535991 -0.036469958058955080638 0.0530451577406836558 -0.028301314184188294115 -0.019728033042789677037 0.11146313402501629997 -0.0072115326119406870237 0.091245289040379498613 -0.0034586652991577503113 0.030327990126083278349 -0.058438527986125261837 0.088122524327323939475 0.066791786592295246394 -0.053365867048774946746 0.024554055033776295974 -0.1223435064366275582 -0.069344295281093010219 0.087343937886214750854 0.060584545411493551104 -0.090426493520088468969 0.060394703149067328896 0.096794304133949321534 -0.094052989639293149704 0.00097819377391886739095 -0.081647990366033318388 0.12850937066967743627 0.0013602444590900349044 -0.070479168748445744641 -0.09505701388817290598 0.0085275666495957958696 0.012272539112382721896 -0.067400668483195341762 -0.011590062419488962597 0.077063876264770667102 -0.050584261312575186376 0.10364192050660089861 0.1021993453740570601 -0.023265987563922303077 -0.052897574880206105208 -0.069502980455825313921 0.13914030791525661135 -0.1267360357938649984 -0.064806734397574700113 -0.0064784837105382967609 -0.11775322649492271643 -0.02940885014810528178 -0.017636367115577339382 0.064928379302261168826 0.023317130043948031126 0.14154846320293754114 0.062469915710564552502 0.067322945811286963314 -0.026976743039229356819 0.034409215153043008761 0.14829789801854284526 0.1018569095339017655 -0.058432739933133623356 -0.086072564610219670644 0.028552276301931057978 0.078636942368912471357 0.013148666647264601118 0.075968935794595057742 0.010304668764281691221 -0.03428182336268218583 -0.098831796287092710251 0.011509760059873998944 0.11854210848733437444 0.025803131004735770787 -0.052488436204181081191 0.12089521430295092908 0.044683500085796051815 0.078761939956471696545 -0.069057621949316153054 -0.03996931740449235354 -0.024601128925211001447 -0.038465420937785439748 -0.025017593100343550605 0.13206874527583251089 0.10267862379436970555 0.027333610203709259034 0.012368416347821006504 -0.0028669073116313207109 -0.11806550785783095914 0.061951660612012862672 -0.019737632466240835616 -0.06639595660653857534 -0.0073725041554284550388 0.024844283767609082192 0.021163967339800582312 0.13476484757120260616 0.11734599586336416643 0.0026087891190510500809 0.089499503623253262585 -0.12743653692295595081 0.063754398676133361423 0.13446958045329579501 0.10413656129197877698 0.076245704772003097816 0.06485487153591690257 0.09418633148719661452 -0.028602684729275216352 0.052530537682333011684 0.040416426016036961777 0.12503555268561589164 0.057497992979847187267 -0.067576394627803848536 -0.13494049594998769326 0.11830327658946221403 0.11638748716790274507 -0.066055191881056282699 0.1189008004498103982 0.040077620201798322408 0.13817234399327052441 0.10743107479985025687 -0.12910874240322556261 0.029437872711020673239 0.065416808424290734392 0.0011208313703125682374 -0.017821360069199806975 -0.024120132144861899243 -0.0855179717603545414 -0.041593002006016600858 -0.075651186865180866659 0.065636246473782480781 0.0094423811642000820415 0.020451033746666145985 -0.038775300441270893481 0.053061500969314036313 0.092687388008075369261 0.035679769836673931593 -0.039796693561134389994 0.10983110598269121838 -0.01233536496782463264 0.065969371298244483537 -0.053898453261398915348 0.083402993142910844537 -0.10026979381250024359 -0.07230589850214985681 0.13810325834492473418 0.12028343289795825899 0.027117713987776244366 0.046922972837005721969 -0.029393913964817632717 -0.11640290826084281894 -0.087096875034502030388 0.019091809578068864861 0.042709814942241942914 0.055776022131883720712 -0.11722462500533234464 0.14205665634020414601 -0.034287303703969519708 -0.092872790867969817752 0.015959876824766891512 -0.11902598710581105412 0.041362064087090678888 -0.079726599718680971063 -0.12357625318528372982 0.052866476609604452774 0.12205929535040846434 -0.10198778713321557388 -0.016958188418723083024 -0.078474896374474023553 0.079997020060869547531 -0.10584235664606543581 -0.0036830183136159076913 0.079538737677430138007 0.062473153386378044161 -0.016648582849154998364 -0.11566107400311287368 0.10735025682823085003 -0.069569739013264714211 0.099489315669939765163 0.0011933340676795469674 0.036125415873237046172 -0.11361585657205597322 -0.092793053155368690477 0.023410661954513536931 -0.11209977917507156497 -0.090829139999867358757 0.01910740997510021813 -0.10856570017347885737 -0.024819562137163048154 0.092766351372429250999 -0.004684066124976624286 -0.013508975188825584832 -0.10366919261334493763 0.13288343463815635581 0.10076026789164435615 -0.045734342549087710073 0.030476887449614967901 -0.02705108570477385635 0.066900023384899420797 -0.027881146201023759151 0.072753460502263098131 0.12391683334973049857 -0.045482228928314480387 0.1109720089296168527 0.096513627154856604373 0.11457973874251724256 0.035226275930261126412 -0.0072893429340590070939 0.0071018058430753110491 -0.083559276552156086515 0.099996866521527533189 0.092105979367701901195 -0.011627684125410790369 -0.12896193560965826808 -0.09070146777796081472 -0.055379528843567858709 -0.11252731047732141001 -0.13252180794072912495 0.087498392262544105735 0.076383483018150816202 0.026821340216472540352 0.034853894868859022771 0.0011260500430927992618 -0.068596526909080177137 -0.039632194055986023906 0.040863233051439074028 -0.084720595058204978267 0.13698124571939376826 0.008304289500748091718 0.12971912334394597455 -0.082407986346003117561 -0.095053059116548377361 -0.089136691493932287966 -0.051633400032120135847 0.076736484668646395835 0.0011101843279112200494 0.1246664174824295146 -0.12415042934759722149 -0.024813040612007238039 0.004656087454705482194 0.014134191342812746015 -0.04580012620101484716 0.12933579068081291208 -0.022953981932845674008 0.024921963815126520203 0.051340028341518795241 -0.027174896212980980542 -0.034249059565450185039 -0.073682866636650606873 -0.019634121757658253016 -0.032856020525054228931 0.060472175033781459808 0.055104039736049721665 0.013246167278558989774 -0.10392196127191093147 0.011436002937709317112 0.031918561248306810685 -0.00013230960582365550691 -0.127630919367823642 0.070149796895633317884 0.10303175239369373462 -0.016562639490601393372 -0.070400402396102554348 -0.072050554193680727 -0.10276155803479304629 -0.11552740345130438349 0.038647726680378802211 0.085817822390989090264 0.078410862904603390033 0.10598189931408917575 0.020911710142699435622 -0.083867157230082950425 -0.11507537098335425541 0.0069430199796767363626 0.13526660794050823777 0.082550672730549778944 -0.069286848055313945971 -0.13444965774581157936 -0.092010034894831588259 -0.10372088744080334988 0.13117941007439185008 0.11720190004958515317 -0.096697633163659021949 0.023338074098250307514 0.11764271059740175063 -0.050772054109760537954 0.08393028844339529837 -0.034455390558420943836 -0.031980528760560462953 0.015149277357031721084 0.0032513899224430732431 0.13519861871014063337 0.04390486927335998657 -0.036752114416817138753 0.076899338817688497882 0.12391037170983446036 -0.1155141787599237857 -0.035704229413462323928 -0.12090039639598013088 0.079163331883459642224 0.12110886267880950629 -0.01992678251130903383 0.074648509538424320797 0.0040702832358928938208 -0.11081510028096902554 -0.088406442148763794697 -0.081185454019714040075 0.053588612896978603251 0.05094605011811404599 0.036145490453852430202 0.048378838946847940727 -0.1043094824634108464 -0.11621555839657940479 0.08518834973800197552 0.061233479777267937894;-0.020322783199266836185 0.096344412389988656753 0.076044526513534743684 0.063866951717548428591 -0.081602343628858209357 -0.020669580133304745612 -0.12635764555243964025 0.10576710591168940467 0.087556244975745212145 -0.027095276637415548898 0.14952925434606836874 -0.04296329314111776293 -0.060092639516194444604 -0.013616717574682480826 -0.043184437994374567926 0.011296026146815301913 0.072493386429943337812 -0.0021832378577973606849 -0.00015523776935135740634 -0.086618623182712253805 -0.036767414473090377636 -0.10181534782693736629 0.0051426985413735781458 -0.0059268156122977300876 -0.094354647321731183185 -0.058888498515936971156 0.072548970429963791084 0.13190736607525926916 0.12842103384450426207 -0.088839462824187628853 -0.044407320883760419139 0.071507732262095086151 0.049761639255362331846 0.10422073449486547736 -0.10453302689258694991 0.11183290709075771607 0.091173979287244549807 -0.04357119318471083802 0.098990258422443730413 0.05505516799827627622 -0.012756506104249392894 0.11789931221133889694 0.1071284377630884882 0.062876520356026852077 -0.039460314276464888983 0.07500347992735843794 0.010642568215085400699 0.0036393556444489910673 -0.089179654980768949257 0.038527654290238584622 0.063213917422401691426 -0.053556826922275042879 -0.0040023266330458774978 0.015925482113728142708 -0.066533861863020682392 0.080961687660408121481 0.023529952920797018306 0.07498136750880687873 -0.068125015678031627941 -0.11756111418709917771 -0.080755720382915188726 0.030470579675394474095 -0.077229664759406416175 -0.11386168665600654437 0.066985734186886608521 0.001847987419241286372 0.01215416961870262498 -0.030582032971198210708 -0.020268151159938886663 -0.080717513529965090324 -0.032360125991801040601 0.053459104234679144518 -0.10620456883623814737 0.099792886296327168449 -0.066620405105587907069 -0.0028510910016443665425 0.12869728802369390097 0.018153620364737905329 -0.11942957999204847908 -0.086895486600918142583 0.14626511702676045501 0.016169405937539869933 -0.12437533898407460153 0.056203853158754188413 -0.02539317673013062257 0.024414368002706712119 -0.087915545883588977483 0.1070049675424546709 -0.021614156141244768305 -0.066019032681647576988 0.035086041730553955975 0.078847694779775975849 -0.0070491928638241729138 -0.10180957709222890339 -0.079940886864879073803 0.10629654152702280867 0.068594085608095725637 -0.078177194676838882015 0.078238132535707965998 -0.046525939676198155293 0.029993059053184983193 -0.018109769439459480478 0.1505434742730740183 0.048610365504855000685 -0.069382789722248067177 0.0043448968113896343016 -0.14177426422832967168 -0.13104389987842332554 -0.098018815391758107314 0.045615013432166277851 -0.051749209575958930729 0.095968168397906575273 -0.12817369180897830727 0.039571085220898756518 0.13818300389094828606 0.027775542950621869703 -0.0049614436361501172354 0.13667567163397539853 0.060899320937299467049 -0.1173024479385628982 -0.03227628280440224956 -0.076093308327105216304 -0.063486238585310744709 -0.068057047818628355063 -0.10028559545550611021 0.11850568566804439707 -0.023963455734061452074 -0.078080372760827576606 0.031118607514981629775 -0.072145960834985575771 -0.069005750630902154552 -0.0099279727213303619465 0.059540360000691815168 -0.080971417986255095345 -0.10435934062593194005 -0.11437762291538579318 0.0015183477400212746968 -0.082138361704618759185 0.033121162413892062115 0.092572084324884840179 -0.066330447077977527925 0.072207113944438974795 -0.12594812531331078809 -0.1175530748899965422 -0.003788356312970894528 0.12671903490630023748 0.042005718909689973573 0.065190193500061666132 0.12142074742022643252 -0.16848807318545408473 0.045833254447488591676 0.0093822310832422650684 -0.034346945345114912596 0.048739260048395793845 -0.0081543614154916520959 -0.13075292299030366605 0.13655119436422949453 0.035555220606958912177 -0.10245012705569805922 0.10089378575726729026 0.093093707010673654167 -0.10261446059566714517 -0.070843468819032265338 0.13107318624093197701 0.081697718238336478058 -0.08225504148666404336 0.13085318753704403005 0.089321749758849391942 -0.13704124353191543539 -0.072909858516644943105 0.14781235214322696603 0.16021961766703635144 -0.089327738028302836049 -0.0436577757790923629 0.057068359407781037163 0.10977200853444860074 0.058837903023944447545 0.03419192626815138053 -0.020382261622213140861 0.035134175586044438799 -0.080068335791029413007 0.01532398569082191013 0.05942463082305533828 0.03803036302935007551 0.13847981047570326329 0.14813255875397710049 -0.033602058731241425671 0.074029962452387770844 0.095140079626831741688 -0.077227818988190269356 0.016709181099392195896 -0.052108494489500320479 -0.079431212927115232847 -0.068196954636973797226 -0.10609089185556978829 0.10996182523361201777 -0.11029054934112067499 0.097217481411593711926 -0.092560361528898627004 0.11336689984398523601 0.0063435946421066527132 -0.033676933910265889616 0.013822482512112909889 0.0039658351004179439453 0.064076084440017486155 -0.11986533801085405559 -0.095718753604067480234 -0.011382751781262977903 -0.03897416733445644571 -0.12960848118200604673 -0.019582822128069422851 -0.091051835273475115184 0.027059852902866231988 0.015131539622880866083 0.019995893626669310889 0.092641256702011884339 0.092020376798851000189 0.0053482903994476445678 -0.041686191600279615121 -0.081708770666321914322 0.14349699664666584753 0.062768430545460315861 0.058333589211691391774 0.0054422904046862157629 -0.022628047341001003567 0.016441031748388644507 0.07149275804190076411 0.095664368790256609776 -0.089230109438678942291 0.11383849862793707364 -0.052507397269731539979 -0.055530834848606533405 -0.084715263533818696562 0.0016385690061159830302 0.062797278562059452578 0.079126399248120357632 0.05792601974668384196 -0.046591374265791421494 -0.043331625760091044275 -0.17320967822012470205 0.13034269420236982429 -0.083576407318385698142 -0.10653784263287981171 0.13221686463689488744 -0.0054622855258627507971 -0.0095450963351133549101 0.066297659581968051978 0.069648731908123664991 0.067921079210885401678 0.038694415924275381291 0.050663563993305099631 0.11101931035007855941 0.046520562099311608961 -0.12858685798752877982 -0.095687805192807853794 0.061254260047032597913 0.094078844682587120518 -0.062853086299279409266 0.10082917232237724459 -0.023648976270198528854 -0.031655900502113663852 -0.062256589069875134523 0.016839715794381319297 0.11074512746088228943 0.088154390199225329816 -0.11575279972541402396 -0.097578522805971693033 -0.062569915470950199232 0.075442797685866785917 0.0038984896024323117091 -0.096188796458447939353 0.044607716031189917349 -0.084363472928348962054 0.096356967575463220443 0.033065355233743112806 0.061645101509368242787 0.13905949140608084291 0.059656926213327327035 -0.098959018452324520876 0.02764366638901947712 0.014002678971066813071 0.11686199658608728558 0.0020773797745390946111 0.030173799606583267402 -0.01037458591924671214 0.013530461491588390358 0.072748088100304003634 -0.057943528105602278011 0.12787813589612134768 0.086680045303316452521 0.14424069158660837719 0.035177747157164908354 0.10033155910789638698 0.054875312020019328951 0.1005890344163037492 0.037878093369975607274 0.058689797303174438825 -0.031215129388851892839 -0.1275211848239203305 -0.024312761541678898358 -0.071121012602279543025 -0.068417665447639192111 -0.052868560165194082578 0.10114997713862973472 -0.11963807286472856461 -0.0049075316049816018402 -0.047252474987134356066 0.016875918170761210896 0.092712295237833114436 0.059245411061777587813 -0.11379865760885540804 0.087368122118339552884 -0.05678310009333002728 0.11835119949064105971 0.065448699262160736634 -0.04328099609701872158 -0.08979571738006490722 -0.094598935376358397886 0.11328503916962896769 0.16075252005861317972 0.058031601789869761976 -0.012940486515004127194 -0.028486455183889255321 0.081558580367144223322 0.030087891557992622882 0.0083263414587938736761 -0.0043190812382175791315 -0.041447251401231580137 0.064547859314314906531 -0.045194206890663925213;-0.094936172351853156948 0.13969146173671229127 -0.065272497927311046162 0.0058519334853326925722 -0.06277916893465058934 0.067763807857681435109 0.045052130145652895254 0.075508637745427042987 -0.16562216255953923771 -0.021987262398756573373 0.10765014807229282556 0.034811289076021219302 -0.020310887446228133996 -0.11159209183952223388 -0.091203042753627533434 0.014844443060369754903 0.055060792282536775988 0.058847070161042229486 0.033818158579175916501 0.038630376125033942525 -0.074341986730649581294 0.012190128775061315203 -0.093638931486866541776 0.034519347187780019537 0.10566257767672015966 0.13186191389706103383 0.0501378230194588978 -0.0053443553110676597639 0.014193541400905425667 0.0031258211154417503246 -0.073460076719818648283 -0.054355764281151193462 0.012341197714841061275 0.10697914088563771629 -0.0035921181114747114532 0.0051519909721022168203 0.1432104552834578548 0.028192495614152993794 -0.098553136159490670187 -0.087348239821346360112 -0.035059999751196613271 0.061972345270727181854 0.12737060764993754503 0.025777660192986925902 0.064843800753039498863 0.044329134547257183219 0.039702778582110326289 0.029439678669237415859 0.040716060960991916351 0.11835783947458158871 0.037470033900943090777 0.15517407210452072164 -0.016638523606461261967 0.06638175468626121567 -0.07669183614409456895 0.15781271549112346753 0.02977848785964785569 -0.081759788300465555122 -0.011077158212632285186 -0.11297164898393789734 -0.015377769350771518936 0.0918837879154903725 0.048452933539640682947 0.13521097760027825374 0.066978520164407681636 -0.0065790452002688721775 0.12971194521726409077 0.076602861391111734535 -0.039407692003152139382 0.079563144826057308201 0.1518824655841272131 -0.016165606394060085677 -0.083341080412073595407 -0.088554514860130439935 0.038938624742262673006 0.017793516760965123052 0.10836240946303636601 0.10366640761902626289 0.041936364009548206255 -0.10093090928396439288 0.10540585064385825376 -0.07994825727893942191 -0.058026416402238968628 0.022085959948075033904 0.033653535626722630436 0.097714713956899582059 0.019636646465466624234 0.1365620905701548371 -0.028810169391652182963 0.0079449334989638402404 0.00039946398362079616222 0.075394081666570939015 0.13715547828868654423 0.15079110172081658381 0.011137934983231073324 -0.0075077136428165257634 0.15529842350898823145 -0.070866761828846103199 0.017945400618909212315 0.010555025369569202495 -0.003837389477501029246 0.098328907202432661028 -0.089230229584651613028 0.11781632973166467071 0.038545868857104606531 -0.077362193215400748558 -0.016341948140011174767 -0.066107990888296330745 -0.04198033004754912062 0.14302977214831966157 -0.10811012498760115552 0.050566161350276792041 -0.031824324637349354905 -0.14392545932587685886 0.1356721017063066137 -0.049247027420647078444 -0.0077198635026750435026 -0.051671472281688168859 0.053483936058035835837 -0.10058165134290589227 -0.030929775690817853939 0.09680144464431159057 0.04688927477062607152 -0.10886325890172302011 0.11671892596057865943 -0.046431242687643745071 0.0018887954411693848485 -0.011486692228511801231 -0.021345424282845148339 -0.019231390522455558967 -0.080714508665639658758 -0.089625331469151386932 0.052861958610005255199 -0.093489073246355372526 0.048391227300287373292 -0.10894971680161115446 -0.011470783900295636673 0.10133304889665535609 -0.00028484969063351966208 0.10993291542246581838 0.14294255032020611318 0.089769927387528244966 -0.063307716502486927057 0.046185573560411141703 0.069420255486789594901 -0.049134209724117597351 0.065979720884297168859 -0.099473023464883986167 -0.11693418091157208039 0.020421082178559712278 0.10776311656186667032 0.13553419846628886325 0.077980565387867795124 0.061138952614627796456 -0.10194842877238154133 0.002743349755786071275 -0.04487553882859950799 -0.11806780976938437144 0.0543105727612195055 0.049409937693017103033 -0.027566706927559480461 0.024328381723656929136 -0.00024624099485835249188 0.096290411324649230473 0.1012670655722475721 -0.044981865312941043955 0.030536473728296192193 0.071224091621129914653 0.0057916165239579832022 0.10139156057551139412 -0.10993590908221261004 -0.017886455956647402676 -0.12050073291592329483 -0.044120070948397059618 0.012613316012401867144 -0.075211515156608413357 0.13312256140253311831 0.056807319580461548836 0.070701966873293359273 0.12566262917323975379 -0.066074591383614877937 -0.038473384869953948517 -0.12345559227709215766 0.082746779141321169515 0.072380410423307367518 0.052096290769222883266 -0.10580027955572661458 -0.059565996174039043121 -0.14803394535038641444 0.036516750947958392937 0.11938455480451953816 0.026549468995278290018 0.10862685400316443585 -0.12431790570423453812 0.071200921348756482376 0.019236117895974381986 -0.10526307971401627217 0.094835462337615611395 0.078900996202060022511 -0.031155390083359005282 0.036559307134306412435 -0.046586118961386313586 0.0067674413030060828061 0.1070006260397271397 -0.068952008070188267053 -0.028268336299849157467 0.086832176378933423333 -0.049293016134913270054 0.079139904950388556548 0.064631606541651440145 0.10003489517827211797 -0.065336610114151177919 -0.093520838453815063884 -0.11204563378473650359 -0.026136268239149700737 -0.044734872006183416804 0.051462126564865762202 -0.083952718474621670919 -0.08440183239206200394 0.084250327203654343244 -0.089563580325113328895 0.099911560378085378931 0.047650392458159905595 0.042258224471549310497 0.084776991971693665961 0.11931909699576831452 0.022218050409809765589 -0.12296200710847356163 -0.035785017461808815709 0.10283665023716276332 0.0095054574427874943127 0.10326428183399201377 -0.13812558312932227134 0.099557874661964043672 -0.046332944163716117958 -0.020914394868780265824 0.11774725937232791151 -0.077686442660369281477 -0.049275348288919267048 -0.11610277971105009698 0.030745843099596908976 0.097204402094736908069 0.059151219076458122492 0.13097294438225212665 -0.056915930887431624707 0.13194275020451914915 -0.033415099940726340766 0.09882001963879752382 -0.066482094572465733062 -0.00040827886574984278371 0.08508082329678506861 0.05351968683052035769 0.11782524069829231061 0.086107500671680367588 -0.025559892965630829492 -0.025327858157864174826 -0.1250014927946493104 0.071460215537267321451 0.11739684137936461095 0.033254135885058676292 0.086875282453608773658 0.0025176660131175101175 0.028380348116484360038 0.073021416210047401796 0.022469681404734667685 0.1419431206124665279 0.042477437152733651948 0.11196481048092778166 0.12071434495033632472 -0.04951527061013529657 -0.047505862127059712841 0.042687290643557647407 -0.073116535553702274863 -0.087410044710369200205 0.0115333315745842057 -0.12381623175480056809 0.12619753244917905621 -0.036393547118665964257 -0.051840067355529331761 -0.066250732127507858116 0.022282654230294639958 -0.007915359497904349978 -0.013449409517569368283 0.0054035897129689229243 -0.066874975548569914885 -0.046724945143035073736 0.0039782712727899887523 -0.054835338003854254552 0.032815058427972075561 0.0065606901986318497816 0.10475147254593235313 0.047793273143560355276 -0.05779556876408165067 0.069083294398374836542 -0.088156061253491818652 -0.024952234115024184841 -0.098505500968459516753 -0.10319407455627230275 0.084993870295702780848 -0.26151631690366022864 0.060720521296486217044 -0.030762585996340071487 -0.11329659584447414333 0.14604706366548739216 -0.01597083497486210743 0.00083313401197301613452 0.057696746760939832122 -0.13470503931271665676 0.12717525476874050328 0.11712580070850557579 0.11310884139657945147 0.023868101183750867894 -0.071078200061786889208 0.031309033646883255297 -0.12582515514824757497 -0.082405782629404095152 0.11338625598595010457 0.12342953347624623095 0.017554446788080359243 0.13315263853170972164 0.064570574983055489815 0.13233183314719249024 -0.045799798026486350511 -0.012212594405086771646 -0.067243082053441469159 0.066987274834775567545 0.023445555770950986946 0.081820829036691897218 0.087785377765462385691 -0.067725410270007432856;-0.06591650583858266188 -0.017759370524864436652 -0.096839940216916817195 -0.0066649023417811766035 0.045742661400339716671 0.069365252417488476588 -0.061827771693814176368 0.00053689987513711346246 -0.090437874017755201517 -0.044012142840824913792 -0.065957525926937446425 0.11615327473947580084 -0.072911154614555107045 0.082227806983055512502 0.0078542248769866290781 -0.0827061861057679093 0.10869714021144717686 0.071649748301018459373 0.018979422522609631918 -0.077786694249224005993 -0.0069467378752472363698 0.037113345818419060662 -0.1063171544929834289 0.07824113255756319496 -0.063076805088961698798 0.0084106490007702303102 -0.0083572504691622872403 0.057385830197474063663 -0.015598145489928215077 0.13410276216598474019 0.11865318233742574994 0.065259097332444601647 -0.09429907423344814632 -0.072775065489526599705 -0.11478937441273259767 0.067497737700824525509 -0.090217920360450634676 -0.088935161577068488903 0.082079630902030464856 -0.01555621138791175688 0.074135947952128439242 0.073008829100176683702 -0.023711536193017614116 -0.015767461621224405227 -0.11785209585645110841 0.024350018917201399216 0.012411233374289338052 -0.006491748120002928911 0.047334237808462374664 -0.080979735941810182531 0.03105193229491444093 -0.011375262459147123667 -0.0039142994237142186495 0.091581594448269174058 0.098136906044562224882 0.10175403167841086394 0.081096262173056848921 -0.081987117598590564249 -0.11450088755828925768 0.072215689884434330903 -0.0096868555293984359711 -0.04467458356258981883 -0.11636699106057611652 -0.039738603423434749884 -0.11265346907461672166 -0.0088318133441551791712 -0.14159856727016484346 -0.016163383330737947363 -0.13935427151234541787 0.028951513885978819723 -0.036947509978010002751 -0.10158459144019159337 0.089093627800003932782 0.13007748234899321749 -0.065742429021145798451 0.072532049654700184171 0.078150950765215013161 0.11252387235667356269 0.099726435966196680383 0.0079758293980761243991 0.064478871749154065274 0.044506620711237801502 0.1120656964407624745 -0.016311135477275227196 -0.14610134798272145229 -0.033759664454117190024 -0.047928785434328241566 0.034536501858560143818 -0.088702628704064895304 0.016886008238516055091 0.089314241620938816801 -0.08526684443981305539 -0.028179237627021291868 -0.023659725472017067299 0.079825161905600572343 -0.063404362228988750405 -0.13497932490766009761 0.096465461070031052748 -0.13615191129195808317 -0.0084834472022468285224 -0.096415396478141748848 -0.074717350080050023986 -0.10162056072292982578 0.039709808982657197884 -0.10819159286531582209 0.081829241878743227967 -0.030034166212630997173 0.070063511351515866954 -0.09895749042088525238 0.08997141546518562516 -0.11530050560850492458 -0.08310655150767223831 -0.13839710034078941958 -0.049866480582283947975 0.053979566727609472332 0.11743302886560458287 0.053765669074662188198 0.040912311214926576353 0.034115843977822753186 0.016228909747794714735 0.11255285435137056538 0.11987089750460618032 -0.13200467868166163021 0.028328586395262120995 0.055153171519813956603 0.098231318498775255232 -0.039991116626683406721 0.085739064043792265202 -0.091425069479606504985 0.031389956075490596521 -0.036178421682681830007 -0.13169415824743502252 0.13064716150212843382 -0.032606369060886541966 0.11612755418301781707 0.079979544438241720328 0.074410846607904215788 -0.073238878233990389877 0.060728528680998344891 0.045595268997497835628 0.11001861329340013873 -0.11474483834522505865 0.010961965937243824815 0.10794442751177979467 -0.140390347515843672 -0.046621665069748331744 0.021883146723650021004 -0.018506194128240147784 -0.12220319490567921328 0.014972672206047574206 0.015587281507779986167 -0.11062816382190714115 0.076521213131881815617 0.012037832789320628002 -0.047495746874471791998 0.11319289917876544649 -0.087890893277004500383 0.10964539863569214284 0.030709950561964828586 -0.12878192603593369148 -0.025441509453707107646 -0.061251108537943875498 0.075733677793383344379 0.062992544414008089237 0.028271831882434639988 -0.13133924376514766186 0.037129675476580893678 0.1076978856861866285 0.10281979388682052634 0.013346950372319393852 -0.1015239282024141404 0.0041780517980878808387 -0.0091704314940184907673 0.1197634980154170109 0.023256895856739904366 -0.06139805185615480887 0.087847647602924502919 -0.089036186632682409736 -0.031457776690661472252 -0.065470780088689062293 0.064103215339642388715 -0.12575714781248706342 -0.14169846327718052525 0.077640195979423398676 -0.091795359721753164162 -0.027957628148187824851 -0.082504021489279211199 0.12504718457248564789 -0.087735377900305375198 0.049040559417384971264 0.080073791805845270786 -0.12894491680835029612 0.037533161719429442016 0.10804501156029372444 0.12053839851493111657 0.055661926508758882703 -0.0079414596678123953316 -0.06511598951960824444 -0.1229951723362230076 -0.07039263425509290073 -0.086290101894680115713 -0.092192122308733914782 0.02142551008448734251 0.067027830489382989043 0.042275219540848694988 0.046164540689170981136 -0.066362584177112673989 -0.052275783611805078099 -0.034846259784514568847 -0.084049070954483939833 -0.088486477895044782227 0.10482406012390778349 -0.037321187252329642015 0.025698440875570074254 0.00081407311985817439395 0.04553720076013495488 -0.076137335386149168626 0.030485048995231654734 -0.083186605032651059211 -0.12420215033641644753 0.0048301900874038374706 0.033748582782922170731 0.016778303632579670557 0.065903966924343845846 0.031397092742705655366 -0.088383125346908203435 0.077269982138891996071 -0.060987268423564965081 -0.086090943253527091317 0.080895047299221062298 0.10063323965036091723 0.023114631558210013001 -0.0016025436810929959142 0.067709441892625357728 0.089937795595881123156 -0.097709718498258976704 -0.06866296677456948383 -0.123346388676062374 -0.072399311406760216703 -0.0048281068323220250812 0.050991348522556038947 -0.10554761560177713942 -0.12420320578272447953 0.038023294651933256527 0.072890395970719570884 0.013434637800435696164 -0.010888451826349567278 -0.090092376817207317496 0.12239559175469082175 -0.11374167034950113941 -0.12594430554368860053 0.089146152210937940064 -0.04372179574270320529 0.028502807012874473852 0.04383547535158990871 -0.13742709443240794243 0.10270802371237749973 0.094612206600192982897 0.076624304499765122367 0.049470344794392120957 0.10507196601239469913 0.12700120483009208483 0.076381713895634972822 -0.016366917072996433474 -0.014902217855842978672 0.0142131913355839027 0.049411188598688413065 -0.038792119624435329739 -0.0011461166812814240455 -0.071375672426605613063 0.046343538712166773563 0.021416048528798380113 0.094757727216596226993 -0.083667370598126081238 -0.076452885902783776495 0.057283980685504359842 -0.10046880974168075074 -0.042813156155178354323 -0.10381513984012082086 -0.091757335085078078896 -0.042076486412947589066 -0.062272480494266438389 -0.11458497256477095938 -0.13661898263352070804 0.091104311284046599062 -0.14781177678828963384 -0.056252166527027941401 0.075533438156006896258 -0.062544634906109980443 0.074430710096170873968 0.0057781692500917178346 0.064778292705006734753 -0.064809218047275199415 -0.082471079358501162004 -0.14013190016959345408 0.087204079038581266969 0.054338489032659836875 -0.024306325721936840323 -0.056293429095780000981 0.048546625876426156843 0.087034415559801361906 -0.096234322447536990719 0.11428425815847707836 0.061473859282432652407 -0.082669521825052549868 -0.12983650797985402114 0.12246571748351209319 0.024695334307841532856 0.0033081234159730646405 -0.043503885597136179864 -0.07172560403357719494 -0.080486301288760692119 -0.015594051703197915962 -0.11486535655130003519 -0.015479675772226369687 0.026869725862201227634 -0.016157893617630664923 0.11463089554764596678 0.070522418437825654114 0.042302485222689346911 -0.10102071207060868419 -0.097086680048818846389 -0.0021429992305580475125 0.053790868962580958013 0.045935476875309105838 0.0056702224730450527176 0.10015525568876920692 0.024364483547781517342 -0.063327527295197166834 -0.0060189523954246020726;-0.050297774519471129262 -0.044595231618482923663 -0.14302952856074430121 0.071477087472089070874 0.052549272809233674164 -0.12163297579092044454 0.069074585528389784161 -0.040427093238464315017 0.052363819409271941674 -0.020186442918985653822 -0.08410212437388660256 0.0082819144676850413311 0.12876361524476434561 0.064315483898019082387 0.076224430162590464666 -0.10139556133916567682 -0.081771621793098117625 0.064007954010461304284 -0.071683677071061352448 -0.011984016395980448197 0.10203814012830927926 -0.063828202104828729579 0.045736203319231949482 -0.087882464361113785123 -0.042864726490657908964 0.063973934039957006115 -0.036753914162024704793 0.12198746664196674638 0.072414706126602168546 0.018798491679978674568 -0.064043383111796622909 0.034696139204210565965 0.064428855662702580465 -0.12440771625758891006 0.080544453665493481731 0.1014786677831152617 0.12683476620254535705 -0.028669565377109022114 -0.061224902892860838532 0.11768330051463245234 0.037673195826489154492 -0.0017843805395961022994 -0.085911389775177995909 0.11032830254832479144 0.070895085203175570165 -0.10147041773513319762 -0.024392704462654530434 -0.056198698871259999965 -0.044156836740940598462 -0.030916786641527103929 0.11468696883137323439 0.075896698035853443765 -0.10064994933072320127 -0.079293293359386507468 0.065340547294883449814 0.064547489046854519823 -5.0450226272423818671e-05 -0.05197902298643181096 0.11796385397147982066 0.11002501886230772743 -0.070712868824851310423 0.11015357031559445955 -0.07814641821575533942 -0.022093171296871237652 0.055923839589506869896 -0.05207658597949971907 0.090696636474692268748 0.0057242519874613918135 -0.015301346398119959266 0.084878880028086051146 -0.044319652268798179207 0.12626293492815854336 -0.070193972691977649103 0.13094583630337991442 0.054755716139087029504 0.098088005553929630276 -0.022387573108537374422 0.084718827345429736919 -0.016938487489257237489 -0.13513113873670926091 -0.09030821837444094613 0.12403926629462683207 -0.033577974304450704246 -0.096762705031552098678 0.024411325180857076922 -0.064566659825521302563 -0.06400316225124336178 -0.026575027044941763182 -0.040986992903922367382 -0.064439811053543419317 -0.10029837204165080455 -0.088305624833074539137 -0.091432980292690660407 0.084995763263090717832 -0.044056734622101481613 0.017657709552810586101 0.038063634047936813209 0.12038351594737328742 0.03845440654713352252 0.011821397990033769357 -0.10071306495362424005 0.076169033106196243343 0.090680229069914047857 -0.097721167590075513898 -0.016587885612394152879 -0.047195914068888962511 -0.025096291079010641517 -0.075404020858725481768 0.12447676234200451273 -0.12075080881043280534 -0.04257483428436015932 0.12243765016171082038 -0.0055282321663246971818 -0.12308354799175560967 0.045442823359411965711 0.022462195538790259708 0.05657117184259897319 0.028820224129914549793 0.042188509660841165549 0.067503244732488046354 0.03469708287253914919 -0.086813668608087771195 -0.1152926890615804667 -0.093688841218085655571 -0.095241364788883370318 0.07836491191315722582 -0.076671242158783320386 0.0033244720193981629544 0.11556896583072975848 -0.082790270172777985502 0.07088241584230614567 -0.029742454457067239726 -0.026303735925097229686 0.12656406071004119851 0.024145281053226001072 0.094367115450501026785 0.073937714867180634459 -0.02015900818791385371 0.09384026660521188612 -0.13574290166440242111 -0.088519487747218655871 -0.0059183744186567443721 -0.096918243083088093104 0.0050045896455526766786 0.081033962486790872548 -0.098526823964799531419 0.044553686122968644279 0.13752108041843333353 0.12077283193617831258 0.037400246595108023462 0.056626147839589989486 0.036926648408500177545 -0.14037504478236104144 -0.022849234802345207151 -0.024053507843482840878 0.10170403242395367749 0.0205127922736085197 0.040117123286058889442 0.013810632319865890488 -0.066069611398866731622 0.12549741466051911321 0.11947775777229460714 -0.091343092507061171559 -0.057568712114419169634 -0.11537145772891720108 0.070519839720643365255 0.042515944129407949592 -0.14262358720389925471 -0.002173014737422866282 0.11212340589608907337 -0.012470403428922825773 -0.0035210417809187193744 0.07411547934828056905 0.057273276133029210611 0.056143586969319050906 -0.10560812056106183565 -0.11931300738095292069 0.060453859545036334189 0.080906369509347084157 -0.096227289229798881887 -0.11554978651644082221 -0.1049519363351851392 0.11652826462621741765 -0.13449941113236887902 -0.13845769346550448886 -0.080146959130176650965 0.13207019534480660128 -0.0010967863476921790693 0.13744843278908119855 0.11822979356363109982 0.019216957319610716154 0.11836877673604460914 0.048452640647377261118 0.0074464461712080995751 -0.055954751757437221071 0.084484074662354247121 0.095114897408498350062 -0.07908824054391599967 -0.058119386411614605559 0.079214116213380342257 0.044548805191104039192 0.068969861760929437877 0.1180172455218389399 -0.10656943083244584114 -0.00078762211988109244107 0.070060804897722289697 0.096231933838010194626 0.017538664163600014428 -0.027764796778166820485 -0.12838706002987607113 0.099524635493271285114 -0.017240522283620517141 0.043881408839478656947 -0.14070872907762221882 -0.009784254859968576426 0.053087363188772156153 0.067547021833847351036 0.071020479526941140969 0.080000323185803662307 -0.12606597440426825507 0.024263194588757790865 0.054333468555552821844 0.10731359143506148668 0.050651780083082735551 -0.02454166256790558942 0.052528922655340655468 -0.090544730643975473994 -0.10722720221086298742 0.015276797746368898923 -0.018500509167662139431 -0.13780835525368612116 0.11690192245774025381 0.040932185372267913814 -0.12306281693094681118 -0.037456402349371274718 0.013211741291626954292 -0.11358309884187839378 -0.053493228590828570401 -0.087906838132339307212 -0.10711250003579633749 0.09711526863464146897 0.06674678774492508182 -0.060923832623368145978 -0.12735429583876789472 -0.044365624268924472307 0.084715837861353865401 0.0037746744041041845746 0.011988738569831982467 -0.021292446895150061309 0.0065519920186985431201 -0.090508512463156581829 0.10620423983869188567 0.018883773322691282948 0.0037690769228287709751 0.030203699268493370417 -0.13306532386729541528 -0.10740756196122303034 -0.073895194651028062172 -0.071937477938276067624 0.060944369147479027227 0.039336694414494340066 0.068047844008508606706 -0.010017311967513401957 0.020970931002160946716 -0.063743414110543461515 -0.015169395594688061396 -0.10651098967641954574 0.12462195851654173095 0.10036577376803829109 0.055238369082538096855 0.098443583785888744142 0.054507425639488973901 0.069277510955286863981 0.083519350095642222453 -0.041795374568730267462 -0.0048315992760326730709 -0.0562876233790130312 -0.018996412510720404182 -0.068217491536402677377 0.077846915461242643941 -0.037105898847932708429 -0.11693076417758274665 -0.051590899332590832438 0.11682312499963178054 0.065769854993064119641 -0.11742631959051609558 0.029212163847118850085 -0.014408027393890394594 -0.078729381919012117463 0.0075257975844775122642 -0.0075378983615647229474 -0.08762592711606863316 -0.12296878829943373723 -0.019492594384527286988 -0.03818709076427549004 -0.078460526059232177376 -0.078674599046270832226 -0.079169570815194184599 0.13532777101900644867 -0.069551344055689703905 -0.061593788567591283012 0.10099607952609070127 -0.041816740079746478331 0.062039322970854703099 -0.14367333833294987366 0.12221398465142650769 0.1355439349286995665 0.10321501441848580927 0.021810471699114063193 0.12434698111174784241 0.034716463723064139302 0.097010393637485203833 -0.036059320345465113722 -0.088064865904388334172 0.10520602435709612565 0.060764831823521943399 -0.011691465556679991877 -0.051333511246301040398 0.11451967194862326671 0.0021433442748775462239 0.071112839393741036909 -0.097228333372090802733 -0.071847248672303715145 0.076332873399099540612 0.019302294755837973161 -0.054110979193052181901 -0.042745532263156506281 0.12564242295997860022 0.036962389893090127901 -0.0066382453106206690263;0.083610807836424605455 0.05628683033876834968 0.040519287841816742368 0.13403317632945144222 -0.065408306136979649237 0.068998226036851129095 -0.0013394315171796806769 -0.016213490400110493889 0.12917922244914556429 -0.09281891295688522725 -0.066129407555010566444 0.022356648502858490757 -0.041617388207268957157 0.0038524154976062505683 0.081113425808769068492 0.1227333462958080379 -0.074955031270796071419 -0.032318277592694732991 -0.1215917588732841198 -0.047424301469400964582 0.1082053423779385376 -0.080293779962797254268 -0.052765117737601660575 0.016661499255839203743 -0.10348303984564710678 -0.085110816825144999798 -0.078000526119077026599 0.067710295088288824372 0.13580627535280379026 0.053277618752557008575 -0.093780601654157733083 0.05244961437607319199 -0.11963498207434349052 0.022397732517416137771 -0.090260452273448962823 -0.009051299406265009978 -0.029107423927394990987 -0.051477157499200495994 -0.095011117520526808256 -0.10364824518390639008 -0.057280191794887497236 0.10113079825955498259 0.009201110827411094692 0.066400414827845880006 0.10292032613925521101 -0.033911735824384732496 -0.015002306034884595187 0.013128153655806336364 0.016975818602985567884 -0.029242563948453422634 0.092118341550236376714 -0.10507498863530799482 0.066453828354225641384 -0.074984901235854703461 -0.069369771563161555794 0.11254318937421982361 -0.016556798844561921441 -0.15293973183755527057 -0.050174910221472635019 0.018352730265517973318 0.019348840350411622424 -0.13070662264811541697 -0.039140425012784522962 -0.10801955208571725753 0.1343859162856611833 0.11466596437747017534 0.013489198958854293695 0.13087775038202409394 0.10911117669777993522 -0.0063132932473846988669 -0.09972844652432899526 -0.077356623889942743855 -0.015959503015818898158 0.052102691526300155822 0.082770767917786661205 