function [y1,xf1] = TDNN_ctrl(x1,xi1)
%TDNN_CTRL neural network simulation function.
%
% Generated by Neural Network Toolbox function genFunction, 13-Feb-2019 14:00:52.
% 
% [y1,xf1] = TDNN_ctrl(x1,xi1) takes these arguments:
%   x1 = 15xTS matrix, input #1
%   xi1 = 15x21 matrix, initial 21 delay states for input #1.
% and returns:
%   y1 = 6xTS matrix, output #1
%   xf1 = 15x21 matrix, final 21 delay states for input #1.
% where TS is the number of timesteps.

% ===== NEURAL NETWORK CONSTANTS =====

% Input 1
x1_step1.xoffset = [290.148989484803;290.149812076076;290.149985199722;290.149631460967;290.14995547434;290.149988972643;-4.35967012890615e-05;255.648834228516;260.740386962891;-4.90255151817109e-05;4.81576826132368e-05;-2.78482166322647e-05;-3.87302934541367e-05;265.549987792969;290.149993896484];
x1_step1.gain = [0.657735691473121;0.657748976769077;0.657749258920926;0.657748181315259;0.657748817870878;0.657750747995128;0.0136338428217357;0.0927153067403077;0.0987566511103644;0.0156226958511585;0.0135597304519621;0.00392419602173661;0.00992080767181847;0.104632096904751;0.657741022501455];
x1_step1.ymin = -1;

% Layer 1
b1 = [1.3930657394467613752;-1.3279966402454526087;1.2963245225343626998;1.26227643307731352;1.1861310909264004554;-1.126010336184881222;-1.0537001416858160496;1.0002894798379917685;0.94403121047492377649;-0.8646295268199968298;0.8226393457049535618;-0.73914641560859606351;-0.70437004957584770093;-0.68167538112544889817;-0.61415916695545713644;-0.5234844898458931306;-0.4231927637471761261;-0.42987637008106460712;-0.35836618001073716755;-0.27439157229825544837;-0.2179993201824366178;-0.13387638470051080319;0.086729880439778084256;-0.014032600243433132267;-0.043122189648647890614;0.12158100194538347394;-0.13605958147233079836;0.2114081714099410314;0.2397145736785130099;0.34798782015549467594;0.40639401504201549953;0.44327139852408953269;-0.53615892730785474907;0.59813136301837266373;0.68144942118334828063;0.69923593823772045575;-0.75601887694188385503;-0.77176640072175084484;-0.90161727079412490315;-0.95638384730482461915;1.0044266625267272985;1.0691766531821496056;1.1152371110421894773;-1.1794499857483977667;1.2421960235647071524;-1.2775256918979860377;-1.3687158391789389089;-1.4130477796849223449];
IW1_1 = [-0.091526052146119932229 0.031796291568972540054 0.092810400956921501603 0.030554524009175777766 0.028280826258520040672 0.081439156768950957122 -0.090503994702088377822 0.12790448711476345989 -0.023951641857235420746 0.06489447137537880661 0.070344276461612759155 0.0068955121648594103201 -0.082272369477616430489 0.07585176893874501225 -0.070587129386893945893 0.015395520794619661081 -0.045667273921527536118 -0.053778744338841069639 0.1260441197028625282 0.12951572509828376822 -0.11023443937339925947 0.053640554640544832465 0.054609752895303655118 0.060994728949624592296 0.061095834305304679013 -0.071040061270949639294 0.0024297117827598458534 -0.057776075304481165629 -0.10106810354239263716 -0.026850444043579380776 0.034865662931374344358 0.089941160758327171054 0.052665459145989967915 -0.028422486106671220746 0.098609077826787225329 -0.038763900909534236561 0.13545040591898591109 -0.032884429536602581556 0.026102627545279918214 0.071797382420113062262 0.1073271421311345758 0.026658672950517214861 0.095155638722931382145 -0.077239156224937752238 -0.062672575264625371427 0.12188485646689535546 0.077693313713298697842 0.073844887667298117484 -2.992694763129354204e-05 0.079175939259721730967 -0.08905809164438731329 -0.066552197493386713867 -0.095828819510833343487 0.016377475553188702156 -0.10234677295266612906 -0.023475399621360772823 -0.12252555326723278684 0.0022508734309912062886 -0.12024029257885854305 -0.0040452407339558286992 -0.0011222473697648210206 -0.044052610842073555708 0.029372919614730076676 -0.077024453260329306392 -0.060553229869333660695 0.042974751230232484389 -0.041523575043303131982 -0.026988894904774528988 -0.11417104094416218041 -0.077641656012985268975 0.13371483593329691608 0.030581044518583271746 0.13450765256730512487 -0.11600779315199864772 -0.16283585563382926842 -0.074721547511043262535 -0.058369304828805576579 0.046634102115063469363 0.052343376236366943866 -0.068336625917823537457 -0.023946895125176000801 0.050203737851724661301 -0.03092688404884811823 -0.13192411131723091877 -0.048526729478790310568 0.093652064583848129709 -0.043084614557155356818 -0.018314965515599711254 0.041677504641820253828 -0.069885383472053988485 0.040903610228707795726 -0.018653109841662428303 -0.0086563005789457442285 -0.03176079363560818658 -0.10072828384846807537 -0.058005333525582548904 0.029371882068664232485 -0.015751692681488554254 -0.13250848367564638242 -0.084970798380300971431 0.073624910797972661913 0.086119736212824052335 0.011902679692893262942 -0.026482282708252397052 -0.048127771520070430911 -0.055183464438706218702 -0.10226581818521350564 -0.019207360160132587457 0.13587258728942777641 0.094862457883237868983 -0.032923338258494597164 -0.019822114053223083979 0.13085167011421072747 -0.036416425012083301904 0.12516180531639684026 -0.063768552282920706875 0.03516827652479894567 0.052439523905266370585 -0.07301280716130663373 -0.14720230373891082798 0.12595308522679993235 -0.035148521425580808719 0.066269937915087798186 0.039987946487895054126 -0.10957647754851698729 -0.044702143665134870532 0.066693772554247715556 0.098811283832936067095 0.053777002987893618435 -0.1097865851429702666 -0.092175811138968527514 0.014626636795856816364 0.12063404854274085987 -0.016012173521758946149 -0.049289841488547529724 -0.088648903554428698515 0.027999034085361539786 0.055838479686923334078 -0.046982184062186495288 0.062002323275509009515 0.052960451760345535199 0.071151713111655440214 0.09916624421347894347 0.055412770521943099933 0.043616213485356568336 -0.049068906522149395577 -0.049837080476397066509 0.0074349828564485081692 -0.10080609400832027389 -0.064007850700610838257 0.037100587636454934737 -0.047137343024601964514 -0.10230733860251065015 -0.095906682388262110006 0.11859997901438511236 0.060836169799139527825 -0.084965093622319826094 -0.1013559248466205237 -0.068313198915123204968 0.0030106664059150792766 -0.010044584478413165485 0.065326249338417102797 0.13465181153959990268 -0.12692955527548391292 -0.034399549036055104834 -0.061343255617377336064 -0.039183756917347649373 0.11200328035073534028 0.083996573317172085194 0.095215891190807519506 0.023303715767708673562 0.13835565617217801537 -0.1149432503116752935 0.059340413619005175083 -0.025655648472484891137 -0.069320040213274536356 -0.010506222374910043071 0.084006452700398664968 -0.055425615489451081352 -0.083694556592665211858 -0.075255487773283474828 0.10095751550367537686 -0.11005934526957115993 0.12182217232549900909 0.12907173648792122367 0.062272164771826579721 -0.072482389782376796528 0.11609293286563236725 0.11028944146401113702 -0.10765288318806588708 0.15896359866514880865 0.12624952966597136061 -0.019032064373263189033 -0.10572752284327983918 -0.061046519421591491361 0.10651330331911938731 0.041675442367294479595 0.13194673415980467945 0.039126899081177037021 -0.0059617405653506240493 0.02281730622108943049 0.012420349429161817861 0.0017808663871907498208 0.093497244455506944849 0.12057217529013417034 0.1482493845884975403 -0.070754181650619224486 -0.11042242738393802381 -0.1662851459654778874 0.093164641355332811212 -0.041145197069392146216 -0.088225092937720669961 0.14228992437843224206 0.023178659645753690866 -0.081936365652833159645 -0.01196797721502896629 -0.021771589189894573202 0.066625486076116305356 -0.11244456074959005565 -0.066028495981891130451 -0.10147555191705914801 -0.085174145556073360686 0.049466555619914621966 0.075159389732764356196 -0.10290044435686361568 -0.0016347296787853145446 0.076036877567286137447 0.064769401359690129127 -0.023486731274018006477 0.079151398836123779135 -0.016894587809809329809 0.12116213622512971015 0.073852935191804830461 0.072269413808176863334 -0.09291276605611031858 -0.09026879673108860469 0.051703018768136273231 0.063554838053786172347 -0.049363220556935108463 -0.10922047940889129114 0.002181610446704182818 0.060388725343046324723 -0.054695174937536394921 -0.043729796735770924687 0.090816200076553624254 0.055873185393462178328 -0.054655116886558989531 0.043095821156845709465 -0.13137681643309764845 -0.098980774318862513317 0.058981992422405885024 -0.10176626232097794877 -0.084320655914313202839 -0.09636798687785523565 -0.14063822882159182637 0.045979389240472054445 -0.04826203333841120463 0.1183052817828047637 0.060747118571250355301 -0.092998096452343276264 -0.088297538505729092351 -0.0047633628785240557379 0.11691039515723609943 0.034943669097244764443 0.13699821667593084507 -0.12737101041650089606 0.098815150390330896979 0.11443755167912840476 -0.1256484860227915501 -0.12510748597410395466 0.034650667965784066882 -0.039378291860976445682 -0.051365052109697134641 0.036099110692052148452 0.088084822778368737639 0.053545650440236881862 0.091437427512317953626 0.12771940481388580069 -0.14430953895850379132 0.027709478858777735616 -0.063486581895367752426 0.12363805873519242984 -0.059828170639949516951 -0.063907109523500219006 0.054230275491927118492 -0.11076436567592333471 0.025300763289060859002 -0.039409038637374244063 0.075502238142081803951 0.04535541233127089733 -0.068033350571401696172 0.054172252144316881961 0.0015202054748106365051 0.10021176860046558665 -0.042390384082911229668 0.081303584711274010099 -0.09293467384031477152 0.026088388301418102833 -0.066070242086726571618 -0.07797605570112321749 0.080682271408325637041 0.080659022637747129769 0.1216400319091597293 -0.037410238535636075596 0.081278652987784999473 0.021591572491926589589 -0.0027590610350893595218 0.087697797871158097993 -0.015074103208634632295 0.048269681453096520418 -0.15202883400370692524 -0.0611381463961554808 -0.049679102856526873022 -0.091515105084676168223 -0.146400879403410622 -0.034502149945215269955 -0.10741274884812547497 0.095520467491830254869 0.035022000337353038912 0.06721462319144275166 0.08389254278961812139 0.017685017403881293785 -0.071244160360523611786 -0.10008328405286447127 0.13264572290642154262 0.10595030243550003501 -0.1050803869042946509 0.10316612593780910556 0.067977036622648839836 0.090337262906481100022;0.030623235382163473128 -0.099957698144482895475 -0.063300546938474283598 -0.059864152329757835957 0.10058778272212502702 -0.21471354131149930633 0.0032429400713097620602 0.029950245137632509895 -0.036731121446587293444 0.0069674645401005602316 -0.080488672835908423031 0.10402066466603022976 -0.050040838225019160235 -0.025406773304515992834 0.0031180402963481164934 -0.050286029971974580133 0.01705944001403694732 0.041692736202553239144 -0.075358565123663762142 -0.02690795374464434106 -0.088365192029986425193 0.11820691741087907545 0.019629163751064611365 0.028096137288227577417 0.034197816170196730645 0.02532119192997796947 -0.099770791395212790609 -0.096447297267038323287 -0.12111248033559110504 -0.053980520258792352717 -0.021056692257365099835 0.042474600485626998192 -0.080502405043336555668 0.080859936795298792411 -0.004266368615407708717 -0.12611352767868169722 -0.13409225297983742853 0.13404132755741060556 -0.064567529205090498645 -0.028921502439125303802 -0.17533423740770132104 -0.069886123125472751627 -0.10986630840560422662 0.013889113104432382687 0.0014702661744009273143 -0.12832450277758444823 0.11080234554521659063 -0.091577221021268986889 -0.070744002809666944875 -0.017236605091433449682 -0.048764697199478214407 -0.015361466729674765758 0.057344039245849721953 -0.069266340345177188076 0.10735837383833864156 -0.014551256605541806194 0.0035125761731548531958 -0.088838754222376165037 -0.010223711233502651152 -0.0055893297898091187995 -0.080285124626838566542 0.044058806673656615571 -0.0035180609875078753222 0.11546538772955615426 0.10609334273238178736 -0.065226159691942384167 -0.014217641563698320273 -0.1052215102855383333 0.093002816520808856415 -0.060986701501053404428 -0.043859191198444585913 -0.0091595672477506485248 0.07358913186973047027 -0.11740651197056017896 0.076532993957766123905 0.069802438413441206255 0.059337111658092786537 -0.082777332018310570416 0.011467623862299894388 0.0055762499350648963084 -0.19584327297758946651 0.1081790614612499063 0.10594375485061731379 0.0083202046151664155182 0.064141613423003965289 -0.11625504558621529982 -0.046035684143142387159 -0.032259476895961453069 -0.081860249134997134512 0.043046130251127863453 0.10111365398454795483 0.055655065487117266754 -0.10064655049940067488 0.044574203126587427781 0.10626574588209390659 -0.10249013699671266631 -0.12837245587680623515 0.076873357426450308894 0.13194485133994782178 -0.056896446830956612373 -0.013559264681110490616 -0.1290590906456073883 -0.043215648883418868176 0.062903004505355658571 0.034067939409085007396 -0.01664613751861468427 -0.036326646596344235041 -0.059592334609448134597 -0.054921696016169224697 0.13323911132041932337 -0.054084829543802399876 0.0079749104316738997356 0.10904747682149752708 0.0022449186843773454199 -0.12029558563247981506 -0.10150375624188368029 -0.022442873141070726617 0.04203603788215960757 -0.061647462447829870502 -0.03191043130967775171 -0.02256207478046381304 0.16011576469481222929 -0.069666303406822560618 0.093531898423944381804 -0.018616297749864264832 -0.11448661763189060814 0.11394216513136148916 0.084696530338542783123 0.087960220053288185049 -0.05430833706414773393 -0.06606951107362521447 -0.016789408819770899189 0.03235143889994567673 0.013065811841035165214 -0.054653268501328018669 -0.070362817969367011384 0.012571419958030068814 0.059149206657540275012 0.11647294303753864819 0.086789902468816820802 -0.093264483712269641291 -0.085586144659071966556 0.044192031137050523382 0.13964725205980768608 -0.089719626272984409621 -0.17520338673568355836 -0.091429156584153709053 -0.019700784654951244979 0.055924557361243701359 0.0086706479829109454199 -0.077335093181933309281 -0.08592303768179461454 0.082961719480486945111 0.071644811600930002893 0.094964113915911516073 0.0059790841257901360811 -0.099721358834450879449 -0.027979588431167164153 0.11234408161576250884 -0.13409650234732559126 0.016934232074124325185 0.00028435624958837930117 0.038559944234228510362 0.070668007624233461494 -0.075730612864983198884 0.064806941680695839825 0.020286957727279803648 0.08818555568786176635 0.048518119986356293694 0.0029445676396789334517 -0.18229945986028198157 0.036228030066072072768 -0.093365771659909321811 -0.10421435037047707683 0.097960333055100087818 -0.10834446350997450903 -0.041864455797135935455 0.080472593425789454291 -0.013202628610574132159 0.047870699163351258798 -0.030793316486136441262 0.074858365180028724195 0.0057313134721778957736 0.098382123677766622483 0.052840306727807942466 -0.099675101945214991672 0.14394141205103261338 0.098085234747128019483 0.1415153498021105849 -0.075004168255102157681 0.033173614486061660245 0.02778521210884493664 -0.081986137110647727688 -0.0010265196851000923679 0.027030690442387934891 -0.083774203651240150559 -0.0500114937885883723 0.045468158598163943562 0.11494304486722804748 0.014728079897887279975 -0.17443255987717071198 -0.031712459229041582709 -0.091319836564946715862 -0.086351229735375636953 0.012254950506366558624 0.0034086652284105755685 -0.077872293087398181122 -0.089818595334948236886 -0.063433770744375256312 -0.075473317452617871837 0.025996813843612118222 0.01547951375211175512 0.11360233413915793443 -0.008886459652889073732 -0.014299306191165679983 -0.046526678548603560281 -0.10441271360939378965 -0.098224253775305539471 0.11876979653695345085 -0.11953247486572637914 -0.049702156267534873535 0.0016030569382196159858 0.11636772275636983465 -0.01828116976886792408 0.13544680238833919916 0.16144967295678769315 0.11420011725060358332 0.029512116198744119816 0.11135674511292059652 -0.005934939842449634545 0.015579162170128488252 -0.012392022559655721872 0.053690573812984851432 0.1178367819935485783 -0.15225988465210130163 0.086094892299412931203 0.10410852907347496743 -0.04202276575744388204 -0.048306696542378839421 0.10898136839421047883 -0.084678325099619977667 -0.054480934218772099353 -0.10657114409596031568 -0.0070370575659810643068 0.0086229767698498566847 -0.11460058857400910737 0.0087373202348357530828 -0.086495688075544946427 0.032742348253947235748 -0.035607424719771935129 0.13405098123771619356 0.096799377456137009057 -0.010275590125864117116 -0.063475647360120401874 0.002777223204227421971 0.081665697480881080383 0.13394610869364614869 -0.0088413833423390091049 -0.08131303177336521304 0.14161299476956382137 -0.10819916968624224141 -0.10065742559356478936 -0.12753461147530070763 -0.14189946676513329193 -0.090878360672919156205 -0.046212487060350429524 0.043794459405834332277 0.050099344103264990824 -0.070668665774725497597 -0.028151444299101657798 0.19400321769242498404 0.028228640202664610076 0.044528929048686126391 0.16498037024072226275 0.035952788659133490257 -0.083560203782321818 0.034365819965679160475 -0.11897465812732851975 0.10565619239259176065 0.10364253511278918862 -0.049241869066091167872 -0.085760428325271198524 0.061142323016480107367 -0.011287175018631682988 0.13312950241030196974 -0.049651080698983114659 0.048445548946682244484 -0.023621346550847337892 -0.030172824833026405666 0.03449143133625361124 -0.049543389194088405247 -0.095790396695928856086 -0.1694600768939712454 -0.0027294117601671208199 -0.022300277481202276236 -0.15217647520660373961 0.083795610094359221365 0.021869806103045223711 0.10250080179817025461 0.60120820733222468668 0.14480358809836771372 0.23714184137583166345 0.035198988879684790787 -0.033564421768183076711 -0.024175535961899467796 -0.021022554013128854494 0.075296076457559799056 0.049614495312103830404 -0.084484041732318437834 0.11426270755699070858 0.019567520025634378006 0.0415603781399275507 0.0068441533718693169791 0.037383547868912521406 -0.022915865780749913178 0.15159950999768093127 0.12386894554994061501 -0.041076757777507633129 -0.13795983356802174469 -0.064472885291317963419 -0.19834380844798896182 -0.074718519153190235405 -0.084960856342495061355 -0.08023553978832764777 0.10504861132042883631 0.12663858081657919374 0.11265803628184743734 0.0057130678890544208531 -0.16931304342095940263 0.16935218654435463259;-0.08497766018297234214 -0.089678472541006859498 0.11515700804965871284 -0.018111453441759090693 0.080935237142120780574 -0.022204101267629828415 -0.099361829191330630628 -0.058599051819725828105 0.060783762371366213684 0.11325139377990144085 0.055162734865797431738 0.1094980310544129698 -0.059888361922908021906 0.086935367141025662874 0.048329088541169837323 -0.081133196661963363772 0.059445011430965193078 -0.11767778385949986819 0.034844844955066754666 -0.064199631273752569283 0.099184638161284061075 0.023269319458681155671 0.11502786342678840426 0.037308198249378851652 -0.10171156415039983578 0.051820353471223330744 -0.076401173624964305309 -0.088341905670394155203 -0.081944118928737708085 0.11257192234599619485 -0.12162049118928394686 0.032577668447443856869 0.06785428652653779924 -0.11735743283883198762 -0.080999185011493751718 -0.08308931753575815593 -0.037538825303327111316 -0.0878521158581776207 0.081251904108758266077 0.11735622275039865603 -0.069115942923732326397 -0.06873265304067163739 -0.092444112625119673199 0.060164443596648922719 -0.10399831334515582948 0.11785307734973939076 -0.010211740833012029547 -0.06331695504745679659 -0.11027443212708909481 0.06476822529872564016 -0.085959004435035249458 0.11914940313661220861 0.049464064599430493385 0.080942556535359352909 0.051802260858161419677 0.12803120913206608722 0.11027076853217744612 0.11091800938394880127 0.088205214192585201793 0.14567168514331627072 -0.12961416065816300236 -0.098079704239358272977 -0.030275178657667871363 -0.065818411155034728388 0.052561516560949560206 0.02328233763739690973 0.06818617144397792762 -0.033195084437788853482 0.12470239312740825921 -0.10360731769648146017 -0.045441958413583144472 0.011533032170278935402 0.07803649805119819427 -0.033207263809050473202 -0.019073224950083282614 -0.0057969442341025290838 0.041726927695167496946 -0.12367216968552349754 0.068621036934315524092 0.086414923793149356346 -0.069984670882933364133 -0.034992334439012062752 0.10077164496725668497 0.013120161904880821291 -0.12609839269466427414 -0.07711826832181917224 0.092025387818572779164 -0.11370765834703658315 0.13270086430112418285 0.06691162502434211401 0.12974067183386475688 0.0061377074820124265589 0.024584341255068933862 0.066636605804584511659 -0.071899198131694208591 0.032680098309433719406 -0.063455664290392219118 -0.11403803311855247038 -0.11001422231881811953 -0.050845253423020271566 0.024795247177717735787 0.051890921669863282473 -0.037514892173004896203 -0.056851048579520571669 -0.11498554488775496185 0.13559466393219424263 -0.076145911458047457754 0.034090359431209429908 0.044576385448772279374 -0.07600284970669202167 -0.076237623899487946821 0.012655643333035489217 -0.003063353422414212112 0.0042565938242387583307 -0.021013078095142464358 -0.0019490739662976145751 0.063944057671532272824 -0.085932906382219301222 -0.044788006129410577738 0.063509745863895780693 0.024609826870806688487 -0.12740353483037392124 0.11629483154101627473 0.13882649510189021269 -0.0096650830825230800436 0.11138149369110961207 -0.039793285772022977953 0.027243286090672291094 -0.097412817558584580135 0.053789025304049713216 -0.013656283792004985864 0.015846838376252527641 -0.12165172035474944301 0.017848385305102604237 0.047228080243595191301 -0.011306954507944276186 -0.077943169145757565386 -0.088505441861381428659 0.10594500588620964221 0.082160969894855412354 -0.039031419018543990485 0.072136546416770419565 0.095806045589210492297 -0.049585935839615472021 -0.060205276889833382603 -0.10625604565465231188 0.0079251549830015154824 0.134418988088535446 0.078884427046446159437 0.0021330429590463799959 0.077063941197433358243 0.11368471100861238243 -0.1219134550861708105 -0.1113053743128130102 0.087208225378385351156 0.13145661455120741246 -0.07178030069498818333 -0.075908048637986252904 -0.02866265466912255519 0.067170889572484002161 -0.051255656140564820333 -0.00060768371093227998084 -0.11485429889790424451 -0.044315284403166267657 0.0010716771648097483602 -0.0066142630615474342498 0.075105664037435057589 -0.037878052406326967461 0.036518362624439637543 -0.092324953380206270515 -0.10235588693422754958 -0.025973347967683690918 0.047536005247225100734 -0.025629824098250403308 -0.049983258997118598654 -0.0053914612462607732282 -0.12154136156710849959 -0.097247367909535767372 0.023640175435305835899 0.11979891337900025472 0.086519287120866816831 -0.13196340590272256921 0.11906649282085418617 0.026920923617276777684 0.088611881876286408 -0.0072110736194593780257 -0.078183861987606670385 0.069386588492418743712 -0.10378367450612348277 -0.073427275191067148397 -0.11776252784924384764 -0.10468289866006438849 -0.022971735742238916234 0.049577793206130815751 0.023347680801991156641 -0.13075862360082782243 0.12791046820529639039 0.066746590077545867037 -0.089412951451127875568 -0.13659908432435688419 -0.11703630939415871071 -0.0046038973359916832845 -0.074152639754695423568 0.024002468086838740086 -0.024103881196667047843 -0.10589170404107962897 -0.0011293838378214522689 -0.093981395718921723059 -0.1312894282097297749 0.15232280583129956253 0.12380606689746811999 0.00059107445705878234113 -0.021008217906696591976 0.028169568166528307501 -0.023661882464535238801 0.061058745189237768891 -0.014486316161274673253 -0.11548559948957116961 -0.017652803250852614619 0.083173686878355204688 -0.078534884817896388753 -0.059625132687749729521 -0.015550102128330162143 -0.070199711010307364045 0.0641446608164826515 0.012812898732302353821 -0.09648301602502430685 -0.11135115605246900805 -0.12180901530514146036 -0.064075039361314756192 -0.11919921205462530311 -0.080065172655038555072 0.029324794218045280997 -0.011263157865390043683 0.047075044307450047976 -0.12866609808891354971 0.044643154539248872115 0.099435746344635839167 -0.0072267844466564522612 0.10363877907576241055 -0.041318417850320893203 -0.046847713981578824327 0.035561582929272389508 0.050258620215294258493 -0.07697569743549806387 0.00071807399943904102937 0.025719955564689336164 -0.11137708702359373769 -0.10477634587593774584 0.019225813499290013431 -0.025308118893379336761 0.025125171318169221835 0.11731353187074854139 0.017267409320916891208 -0.086537585568938882319 -0.020965858657301106316 -0.035522999394880641622 -0.044022810164908492137 0.031894569273274303578 0.035998502749300977099 0.030317773698164952184 -0.12248026885193052937 0.069897054277674633416 0.016107968299075126062 0.0077876433539306438164 -0.11698266712053857763 0.027095751674754264132 0.0074356618295727903295 0.099128695743225858639 0.080431681809168792396 0.057696478036371595666 -0.026432039695035727811 0.090787192771127164792 -0.072132638021436823461 -0.047246893980607752861 0.11427795766816922773 0.057351331678614732301 0.11783791855700957718 -0.075609463169562157736 -0.10285965620810502696 0.040599032885404402748 0.08525764842167563029 -0.070634953378727285966 -0.055835792056368287184 0.12676516353668568216 -0.0868866513452692113 0.12019663971799610103 0.045358429609300865426 0.089795287840020346359 0.10898206981390759496 0.025732814550005544268 -0.056769069302923455544 -0.033096210395522726588 0.11900664093963134182 -0.031568958477678384089 -0.044974100539713401936 0.11337680489640405979 -0.029684315678921952691 -0.02309025752877154683 -0.097841846142390068164 -0.13558600951509927612 0.059118571368411809708 0.063531945297786954208 -0.069278290753735038976 0.099489351095358197208 0.10338196261681506516 0.1252430386146044794 0.1261321813602523656 -0.061396143211766875114 0.098678120448892500671 -0.0064213017572271923264 -0.10737580787129610838 -0.09854136266480890971 0.084636601647334122611 -0.095011060883437331581 0.035969962737804270225 -0.089838011269685102977 0.0079547225925537621422 -0.075220071493901613513 0.095754858325414304865 -0.041096882909071728862 -0.084292826026868092337 -0.016883408965243422439 0.045687915691150896014 0.075988049323192544127 -0.062456216675068620958 0.042022737114016953108 -0.068339294186149923682 -0.036279252833287096991 -0.053123392936122879049;-0.038234720413767950276 0.0061393029983848367362 -0.060276974306704991791 0.083996921564396073712 0.02889911718496764384 -0.11555269607789711572 -0.048327038595965578216 0.025324632725441074965 -0.0070784890785175521438 -0.08684919283282817315 0.065254765855851118439 0.011635738482984407313 0.10454809241820182952 -0.12398123602327586201 0.028853725698350745493 0.047350821692038087829 0.014123925632000568914 -0.028922588242704203032 -0.099356798085325132019 -0.078247675873754557463 -0.018517360888217163084 0.07594648266906044165 0.049966498335503456429 -0.094272517637773098342 0.10462165893500682823 -0.048130691991479936098 0.078253240342139804286 0.044093608059032750324 -0.097362021384529748302 0.0074827857268942163035 0.084988091426567338726 -0.1306351421023281556 0.10023550214725887586 0.05914655734952927596 -0.0083140753414583726255 -0.11379371517194183938 -0.038039922678677617895 0.15471621759107195837 -0.06261958719082119651 0.050744565137520659948 -0.057851801062121933905 -0.072461232462947749999 -0.15297596983204853061 0.091693908493596057441 -0.069299436940639544402 -0.064443288132252488087 -0.080741021322218289868 0.0068787490847035254182 -0.076796690372017237247 0.13168654201453977581 -0.05160432682086592282 0.00072664502665964784359 -0.017603835018592233624 -0.035562707642379995376 -0.098010468841718656474 0.052437938541295560368 0.062563859664108878444 -0.11818458227869468868 0.083310455386313417292 -0.019834455983717382693 0.033559980247085778593 -0.12626292941020758609 0.02518661422558166052 -0.08849233779560357338 -0.091236599894820497036 -0.0032776714042847565102 -0.022755834315103078136 0.09915050963260341188 -0.1161775808698626844 -0.13717669281910666035 0.020100134249038982548 -0.11658866829447987745 -0.022181868023265674528 -0.013701035048562354088 0.068448416969876232918 0.13145152608276702844 0.1136555700719071027 0.050675498115899754448 -0.11589439642157071952 -0.12593905390580151238 -0.084101425611446220532 0.052398551863872988577 -0.042488971493786012457 0.031168178496935622368 -0.13910407141953418098 0.05438488823043969439 -0.087808025267041248108 -0.0096107147966682654472 0.08418054336160953055 -0.087406865285274901178 -0.14089274309264757101 -0.0089011627008512145265 -0.0015081024230297135694 -0.064199655993181933833 0.091499415403277703507 0.001203580314666065007 0.035035093298057873312 -0.075097680409027450787 -0.094351687137221043611 0.079857950815531819622 0.033790879161770828731 0.069490843809721439261 0.066759847538999758654 -0.099498574047755292127 -0.034652573140269683771 -0.13073848434026952292 -0.089582944193224614549 0.08793750909657654935 0.014460126239134698384 0.0069329706960460941306 -0.018775976250925269923 0.094841743391906790928 0.11163833505300209403 0.053924544228163555359 0.0037465023702193248935 0.068335376737770792133 -0.16378370045158463508 -0.043891333449731173566 0.033997923442879371403 -0.026937316765050411255 -0.16759485141233651517 0.0090801809998970143406 -0.15123776612403994069 -0.15826188642145000429 -0.069879544885764158235 -0.10966241842960602892 -0.092473137501739036126 -0.10366952033933221622 0.0011079963405774561919 -0.10612193540154438165 0.027887915278848204176 0.089102415433755022267 0.03203690384561049681 0.11941623557071980033 -0.027193236366798500397 -0.17162141417027229617 -0.035054308300015650512 0.015210642393713912079 0.048820434185912725544 -0.05335519274054885408 -0.025187627231800426703 0.020383770172701789342 -0.079115631039603034891 -0.039542164928466745633 -0.007194732671559794443 0.11466332302107151708 -0.077770184739531372786 0.10224872969858295191 0.041677929623101961365 0.05445704834294155805 -0.058495964408705324045 -0.039613617522748549582 -0.081564672614013414287 -0.013606492420380091393 0.05958811531442952808 -0.00012296498559008167228 -0.016379978028485998182 -0.094477225617500840138 -0.051371186444331487508 -0.14254959191111810091 -0.0058472069927960109575 -0.12323941967085209892 0.027252523908740552278 -0.083830037203347265717 -0.077400155777791704304 -0.019318567706937087025 -0.069339298839325394508 0.035012889385890713645 -0.12242480820712013656 -0.13239053609495532449 -0.11863415074621617984 0.01078143669752804415 0.14168128989182898758 -0.056436232919413485687 0.011769952661071576144 -0.094514722737920858764 0.045804497110430164586 0.00055874162800863052744 0.044692545002060296566 0.07888400837092428286 -0.1732720101025201076 -0.077504140511778188416 0.042450482979700013275 0.079480580198075620468 -0.052393937165403726974 -0.13302348449394174601 -0.058675108794146592361 -0.026295666720526866128 0.15670455694473148234 0.089506177898639863177 -0.036050721972569005347 -0.015057744494194931148 -0.070424291379302561555 -0.091850952849375680498 -0.010886851679710140076 0.017711861967253703098 0.078440812549385369179 -0.052065304304438578265 -0.057846120140431757373 -0.15785319467863331844 0.11282011662490240567 0.056809078294642739726 0.048303094761031756255 0.071272848512711595159 0.097516182192436781651 -0.042101054662416835528 0.020848369162933061416 -0.0030427881874670152651 0.0085272380977322367185 0.0069698604557750596517 -0.12507309301786029287 -0.011675354129655507451 -0.059025766602505240488 -0.020247692210532155371 -0.078320690803540302105 -0.10658585972187718804 -0.0011798422174075014635 0.029211795307121382614 0.12464223459778903114 -0.038127115045645962321 -0.0023913680697473255893 -0.035649079452044228622 -0.035710824476283473117 0.12714791344273312923 -0.058791721758748125004 0.015992539533236285049 0.020801116444149999468 0.011275878672783731099 -0.12233756256401079332 0.075049095027869230923 -0.0099622632269123559401 -0.14161938499311643724 0.076868159396385637994 0.103937851579533308 -0.13215803895713343352 0.02741957887368395505 0.0042888603622303796137 0.082161867993243889452 0.0049422863882914872327 -0.0058086274061942711616 -0.076853290434608798054 -0.13428157083823871742 -0.0041396744783125738812 -0.11595193977438685018 -0.082367597537449446787 -0.00058635582565763546149 -0.10665988842753748589 0.11994362927864576918 0.060655404286278274961 -0.067412213250857083713 0.0044408184801912114689 -0.078831738754542579617 0.076505288049852904209 -0.077218884434174586695 0.038565698957474435493 0.11300139953730442555 0.0051446812751105071987 -0.10886926003834003496 0.043732420581603925758 -0.0031651022589175132303 -0.13779469104858105277 -0.074296164529296687684 0.13049350432426895519 -0.11222430443101652497 -0.14246002276941388542 -0.11423212249789348183 0.0098577847060200129298 0.0059144362858093973284 0.047204040950979360425 0.064084450928027808514 0.048909887190167859738 0.0044326479056525950814 -0.10343587232525265629 0.048423160883294139034 0.13629791951737102451 -0.13294144973720639635 -0.099823953634310041982 -0.032853444527002069464 0.11707224885624858968 -0.063354857101423314725 -0.059215170533215996662 -0.15015469941296027967 -0.032332871880330314729 -0.04598620821067204989 0.012926197001613652302 -0.087511209628120090187 -0.085756634592257671712 -0.065292972486639691554 -0.0047792620787972190169 0.15182670463296235597 -0.024221395878607752256 -0.055459554472796532276 -0.057105775365275626698 0.0066531896452901922653 -0.0793816062016926699 -0.086579368222702790536 -0.092449052379867863172 -0.11123322692532738865 -0.092769592425568522809 0.2009455632645174572 -0.0046898980027168272675 0.091757293145489624009 0.048597931178964534626 -0.091225310073505760933 -0.095767193136405068254 -0.032998119952375427888 0.065514916774969289559 -0.029341357307635672347 -0.093150207631998063751 -0.085005051446173263141 -0.022363742333944589685 -0.025330697400899129107 -0.11892317574428609706 -0.0073776842897484420578 0.073761391902424561229 -0.0029206927345062447948 0.10061658770199238822 0.12297268210534642585 -0.030687022316706454028 0.0059671053817617414686 0.026762640405728625043 0.11656989819688114152 0.11015904845711675664 0.13344459702744998486 0.0045084208703891235845 0.033507637567243862831 0.044955841691364732682 -0.092792932833536026505 -0.10512514375265717692 -0.024406303117070649034;-0.057871121531491556689 -0.077799998863363847845 0.092848396873489710823 0.058862250259529666496 0.019673830572379185505 0.018767160886324237706 0.033130205558767923668 0.10803607997090594606 -0.12569785457108861859 0.090795205412171120507 -0.13333007513326550209 0.1078389148748610249 -0.073854929077479522515 0.11237106121969178685 -0.075696950050432615376 0.0049686358448549506478 0.017831458964279685298 0.099856791295537844499 0.11153990432730502558 0.099331986201268138159 0.049453072455888841263 0.00017388020859303117611 0.10097284452136852384 0.023334801990696884405 -0.063015970523932970937 -0.07976153483902481689 0.12840755663127792485 -0.12763607470985269265 0.13224751691635069917 0.044213875275089416228 0.054778905331847413396 0.040715567433272967235 0.04889370543921121165 0.11074639369522870647 0.024415466113581699853 0.11544941911768663578 -0.076391519987771022704 0.011591029618730626718 -0.006373322905709367589 -0.12474687770244709262 -0.0092040937823774787718 0.10973725191608162122 -0.025993496137078690028 0.14295091393002895552 -0.027952307472742059929 -0.10663424369773685796 0.0015000720407637505287 -0.02767886723297025009 0.060331873941772404257 -0.084107369012909188877 0.10163007213379204874 -0.051657227296219368484 -0.023702443305534216106 -0.11501534216958335388 0.015799322202665819215 0.025099784560702491365 -0.018715267724242840019 0.033734925483545848135 0.13422495451942761946 0.021708471866822873914 -0.022545130640810987638 0.021499170056772438919 -0.11594251015448410469 0.092697091985309149065 -0.082585082747635069067 -0.03632501986835252189 0.043059654096220097153 0.045237643274626489209 -0.013236678093504306714 0.030523270734098620349 0.052390645435672483776 0.11446233658008214684 -0.1373465247880579776 -0.04572840375881460917 0.11277813552137667952 -0.028778472448381397369 0.14519952923945528278 0.012681408630267745896 -0.074817768144978577527 0.14053608940995623855 -0.016522184021849527918 0.037292390648352650995 0.077389243726608575313 -0.033174919034444902421 0.083309141730670679959 -0.057388719916155329914 0.019517315466182065531 -0.047228839397565565428 0.037330126909041826122 -0.10013615235542354387 0.11543572703864606044 0.12516581772253279614 0.057218678885911811172 -0.086178681309571070202 -0.049189348196202860308 -0.043590756346572466506 -0.083670822299975494696 -0.049724189794185198743 -0.13470442171983190716 0.010204987358980151593 0.0038186565216056515999 0.12831227406081038844 0.035955759461899231 0.1017747843341800934 0.097356658512870924982 -0.028590167925740473526 0.0069211349106906346756 0.056084667517060267372 -0.075178784465704084905 0.13015144144588269848 0.063634398268866118609 0.12574239360435587876 -0.016614609339038244329 0.12022108062715032573 -0.041011380663552352011 -0.018743117571290438678 -0.00018378647297945032921 0.11264785866094892408 8.0817835629109848502e-05 -0.086382171602709459379 -0.0059616309557525238791 0.14300722089873849074 0.073612996568523061947 0.11531699416552596005 -0.099010704778980121454 -0.036340349589313987455 -0.090176251705789620128 -0.018094699987897987919 0.12744593485773753061 -0.0013816883524255935394 0.039280994400156366009 0.0045612562635952156112 -0.0049571614201790624096 0.044911847140068322792 -0.046805763525609681008 0.033691646070818759284 0.091298901895303222198 -0.10585913212919367821 -0.12701872111166082058 0.070640416019068855147 -0.14282241254406385922 0.094131591522845475817 -0.13232910016645893503 0.10776469216635251036 -0.025122268721357091797 0.12301364330552275184 0.060398855788415618806 0.081741385134659658163 0.017063351083428008464 -0.012007763683264185972 -0.044846671077912111936 -0.094444949566549044051 0.014012088093887088008 0.080552543143860191877 -0.098391712382425708383 -0.13774069060373048123 -0.038143143633721572627 0.041462924178103099937 -0.11593925299139169749 -0.10552414526423542496 0.10093354760728162622 -0.084486646964198913734 -0.095303565472855886198 0.055487696565551011818 0.045421174472429867719 0.11487186082963488087 0.061893483641977567467 -0.025454817406502440458 0.078124064567348827648 -0.050571824630973295778 0.0013006707989726715245 -0.096125093897207566918 -0.0029301475505805031976 0.026284579037383775518 0.054503506845010700477 -0.1413478148880499552 0.037833537036698824951 -0.12432067059563639555 -0.10165143502831471001 -0.016329760103016819489 0.13226379881072741762 -0.021123100386805062495 0.10783050422034161364 0.069082611838203314414 0.046390716618308708297 0.018830800643636017716 -0.022394531358448536984 0.052223545725041141397 0.08732028176615548587 -0.045669942667121495028 0.054531372535692373971 0.10950479486991424039 0.037004966704400711619 0.12429704928110803241 0.020328956579920235553 -0.11354530286123970528 -0.12680562012368185032 -0.064879214706921151112 0.087216899028314337494 -0.074758521518681439466 0.018315288971344247104 0.099216926759313761597 -0.1420190725540319554 0.11103278761348005232 0.10729661662164710623 0.11138289640049203744 0.0024021474521578917334 -0.12594299465370720204 0.06656509756449544013 0.129021666986886413 -0.14200929441436480061 0.020358512336774329393 0.026810542142163679841 0.05472172196417150053 -0.03894914906839695018 -0.097679021637775587106 -0.12632226725679820967 0.021992285967243320466 0.059422456688517463763 0.11646561829785988251 0.094359872474114064866 0.10072109240831050858 0.10062743005005311825 -0.080464046433300143168 0.060254803037699526669 -0.069030240305974127635 0.0083821148319756372258 -0.075552923068735761136 0.094843161449901500215 0.0036327901746789829744 0.019618921110230214816 -0.027372441593257988701 0.0049426361476113522125 -0.02505909715119263026 -0.039055937875936107273 0.1055824714044981405 0.012073605822682725169 -0.11991872681955820235 0.015374790577836795064 0.028126150998434889389 -0.02411680733175013136 -0.067886693808292125629 -0.0017452375381118677422 -0.0055560936225753990159 -0.016553973347791337001 -0.039375705262238540338 -0.13074038014730735013 -0.10105196324474753633 -0.019343320940929390611 0.024496138944704808071 -0.010234072387889498607 -0.11244641836100759125 -0.054615900189740440585 0.06810557438206663039 0.022120625613616370919 0.036067088547447299918 0.078936680589668989372 0.10134768433152302469 0.037832499916461224954 -0.0034576724588101827307 -0.019466619781352900026 0.05608837845228921426 -0.042584596393260475133 0.10716401913474275787 -0.088150284968703154775 -0.012719047646290856587 0.075394655853128322853 0.12398310111184923654 -0.084422511775351316565 0.013019293874608465003 0.048508286294752754608 0.030035509672808012593 0.083936000714413247503 0.066809581738299497755 0.028831527162282544197 -0.12035076210555854803 -0.031488428438416302124 0.11060925108796550165 -0.050846967904927285742 -0.11264953999687563058 -0.10267621607622291757 -0.14127015683400526158 0.021692216334764029273 -0.046145414964040704087 -0.076261984091863008195 -0.013447110239768765572 0.04131446837955460305 0.03187693999322087357 -0.11868391845303849497 -0.10176976385229212496 -0.044120033746168213495 0.057525178704490385895 0.088237177894749094231 0.0099395780997337465634 0.0037058082545210263223 -0.136058014346789935 -0.033813494274756494828 0.092161121040031268592 0.0086733273107642994831 0.022885601008809160206 -0.067318632154555912983 -0.094579119489223067996 -0.11845790874091564893 -0.096719777910979146118 0.073847604061927418773 0.013530937139882568895 -0.068217441254400393302 -0.045718571996608156627 0.012826420884034664752 -0.10084531333107862872 -0.080262772403549703659 0.11765748896889292874 0.021224065623835618871 0.028500657382367459297 -0.011093916637809167133 0.053536837969611922317 0.018763082526809811423 -0.084705851795464151555 0.060441883253953006261 0.084395993434387583942 0.094967973066444846819 0.094346022920828914726 -0.13797942683076536152 0.054619920848618636056 0.054152738751966036923 -0.10840024512454267402 0.033896362662995796478 0.11532350944686177441 -0.079124873937196388285 -0.048559247189366827602;5.8536683205092024797e-05 0.010093707440560952676 0.0031933186236089376037 -0.085481993326772462427 -0.15997725492686321047 0.00942289457036066605 0.025667630478839829206 0.088790793893749789256 -0.037295878110375865755 -0.077946281765294167521 -0.0050443756632343565716 0.063231428192908736841 0.0098555842441143421545 0.0095636114752150284263 0.090703574717458920751 -0.11471773244137903336 -0.12925309566673706674 -0.036010596353713140994 0.078357010977655697226 -0.12842703845850464428 0.081488124179110277279 0.0019535504452413013712 0.0099158338249489153676 0.12690045249152401285 0.029119603753028723558 -0.010673303045565822253 -0.083714182905661044254 -0.074039860702704338169 -0.090634754778780163287 -0.042644727071908569704 0.018802460468332300031 0.042808154835088284285 -0.094079607580854263116 -0.095634550455064581964 -0.1585612057413733067 -0.01200631379667168111 -0.019932470761925950159 -0.041979490775451336337 -0.061244673893528452091 0.12954188947765715723 -0.055944399053459666071 0.0062053856346251795584 0.15923686870537245852 -0.016050881565267162421 -0.11325909119325693053 0.072618858296238777972 0.041662101476069031414 -0.10784682309496042285 0.058316212507720698033 -0.10598191131593842629 0.046683342696252981552 0.13675334405625538814 0.027420721064776769349 0.029056966873701475795 0.13427887076908909258 0.14974064801346603781 -0.098176492432265977106 -0.057673991161125322258 0.012883473827070637124 -0.058317074110786008834 -0.033173877373895863108 -0.12095972727110511358 -0.087223067504842072273 -0.03641219084891420682 0.019362914787314805531 -0.13495048523508551552 0.052629064394770080915 -0.097958172023775685888 0.011627164217980986288 0.016047196322242530953 -0.018928644140050746719 0.073712976805826377347 0.090143680487000887869 0.050765258729483626887 0.010144351514205016476 0.11828707641598999734 -0.0063701312790968491612 0.129793407349137635 0.055261108179209809943 -0.029833181071349950536 -0.052105259843060164338 -0.063280160725748643702 0.0055911464035905454953 0.07369755616182842306 -0.091286614045184885646 0.093816296769506049569 0.010917738087262639571 -0.04042524675500597936 0.055556861541210450506 0.073238917558376165351 0.10428850179334213377 -0.13106376476163519862 0.049586457691948158943 -0.095953857765680314329 0.081618966568748355095 0.11535366427150656188 0.13404054645228125064 0.10681219712004010047 0.11777133796020561318 -0.096707585167216822408 0.047961802745775508616 0.086204291797079460324 -0.04371661734329078397 -0.055850071125906175507 -0.017417665322898689267 0.042505875930564256115 0.047294258979651532249 0.040268483286859259318 0.11333199724697101685 -0.074167570639432661705 -0.026760638897705621431 0.083039166500564504103 0.016881496629611296434 -0.13015413362298758337 -0.046039974397990762744 -0.032397037322816180094 0.010885487879756622701 0.057211021012143911668 0.079046731350008336836 -0.047453733094840272466 -0.099340646749807443028 -0.090788998293006517581 0.030045236564111371669 0.040373645209202418949 0.078604254051381231005 0.049602818556293629126 0.10827265431740178137 0.047496556393571844057 -0.01081284167075159848 -0.035920442836085135496 -0.11812482358779942404 -0.11460208892446716034 -0.061817376157177708618 0.070309921955599888332 -0.043035621904810986149 -0.12904616753380002137 -0.064265286979486774266 0.044664662157408996368 0.026335782391705097466 0.086934275266573601826 0.073409740614966176309 0.088225510655120326087 -0.12153329144852854926 -0.02153852091445283487 0.077781081903002272093 0.058070948226446504614 -0.13045416444301688452 0.084815763575398051 0.083444890727723250445 0.03598328617460098966 -0.12060658552221134587 -0.028109554723757028405 -0.0061180204145994928136 -0.1498643337804052289 0.10319064534974327352 -0.10269237393586011509 -0.089095365956133362739 0.062120299717031285391 -0.099294721612596253957 0.059967078869787797391 0.00019915699953239535732 -0.13285972976953019931 0.074380627729365961232 0.1068508328344353886 -0.09614797259189686307 0.01945125773408716216 0.11230760751536764119 0.11577001070397051341 -0.054353606679360573495 -0.05378835307823985612 0.019304349511817815721 -0.079636887176080167761 -0.011853185129790454883 0.041881673205276880034 -0.096428678248966295805 0.019655102178576536187 -0.020556988835554144968 0.083246065010172981546 0.064561791959305309119 0.060849503033303380117 0.062436048546668267145 -0.1270598846397503201 0.066307856111221585849 0.040777123927207552245 0.070541722748478183358 0.042340534858560659182 -0.10576026527778542574 -0.10184906205432872617 0.027036893923116849664 0.021471132880253752245 -0.098691351232643290126 0.1152053532097779831 0.020392965731222404552 -0.10947121354253788739 0.056098910458624841324 0.077536585363470994503 0.018746433945835951074 -0.04501670218996851186 -0.0037170477951097265559 0.11938859760962822198 0.10247111895337809861 -0.068902315446545070454 0.049439096785047952076 0.039912007131046214892 0.10902187707894009372 0.15403349707150271186 -0.076972112369375469965 -0.10470862131377024762 0.059072116111462735777 0.057208036122918443089 0.010169078567203738636 -0.066530831689306929588 0.064851972435584506749 -0.12257988146817871966 -0.048467053405600736549 -0.10898427381266670433 -0.064306764287010001468 0.11189304680915200529 0.12343241080465607029 0.08405054235293889231 -0.043545854883575596528 -0.021281357862206754655 0.055036666821706908825 -0.028718196401487369046 0.085892504119020607334 0.073073393063422240057 -0.13401535983232479299 -0.044380040011162753821 0.092311434323006424929 0.03844651425230415781 -0.034046614426438366607 -0.01309504513755765237 0.047537198292949771339 -0.016901802268227121562 0.028050101993077326129 -0.052976478542136454242 -0.11973590136759582059 -0.078081030604394932593 -0.080587840528169946142 0.11154212921708223094 -0.033588982637970360434 -0.067374460978301062286 0.033446238416221601986 -0.11656601404963261304 -0.091865544438631763224 -0.081684613746775339149 0.053250267567078637954 0.045093997334598151516 -0.047941723975001189484 -0.023909316660170699259 -0.00069968092333838442527 0.058436712651757469206 -0.12137882668201131764 -0.14879762647997238356 0.10240828580237038015 -0.14803451986435200993 0.11972759927978740557 -0.10088689117463238432 0.0090415673485284148159 0.072841822391012403526 0.017515450541365391868 -0.043350005982302819429 -0.0024794856038941096542 -0.0081507458851908885095 0.010725510699542752449 0.045011425939233018489 0.12340903849099460476 -0.087974000611034247621 -0.027809282951731614797 0.14651133558604162443 0.012925025017999580701 0.025732188623737484862 0.073842049688264535523 -0.079594103085362730154 -0.060677823720868925839 -0.067570268299920327459 -0.051565737497764774222 -0.13275891790302521422 -0.067601224944576945863 0.04533394445375487497 -0.056560412211392643855 0.049359567928496050904 -0.061130355125396280969 0.041250576108792035013 0.22983868034575932748 -0.0060891398700486792928 0.099228104873727948632 0.071433365824033367986 -0.12146974959391394766 0.05290244424039521054 0.11294015277621859139 0.023957014514609614036 -0.099102189120551853474 -0.077473611425041638556 -0.097399995293504626481 -0.12060216846966521909 0.043344655856081604206 -0.12094288033925143511 -0.071783649527805193369 0.11475997672836395214 -0.13454030289706819801 -0.080959711131090364433 0.093222442705967856202 0.018032454364979681738 0.021421624698274792375 -0.10080910126507071356 0.087671845408020671053 0.082353800903712554016 0.099675119195776346048 0.12302994709071880808 0.043016594213291743654 0.11515144126057688667 0.030214985755711722126 -0.10856120026113529053 -0.41766637949380669426 -0.11286771736893538853 0.049761507529835609376 -0.035613147580129934922 0.010288174387065755072 -0.024684343625800554689 0.15387551250531264491 0.041773605358351291461 0.042182743218824744758 -0.068404851336138161599 -0.00096459980733656761932 -0.055376800387799123004 0.090960055695446420665 0.10867021663429410339 -0.054276903809980646398 -0.14485966580573758633;-0.00078946481930337224567 0.10717127580215950189 0.0058740794792806671695 -0.12571199457524126486 0.0094635650317878260152 0.1124412336173495619 0.11118712117554384322 0.092074597439009156497 -0.041513282450975831639 -0.1033150576695367473 -0.11046750938877397674 -0.044290016210198554503 -0.067393998063833226997 -0.12392866673078574424 -0.0048831629275057535436 -0.13647519806310662305 0.03239163565991719923 -0.1281440290530016235 -0.0048421259887717581216 0.064918042804474357377 0.11021157589943224309 0.0049859254680330259563 -0.037810796306232373476 0.042141324557831226494 0.091880526827785496957 -0.05635250310834947346 -0.0024087137755936997678 -0.07134128120290132713 -0.070184825586343591031 -0.032003757543337389702 -0.12701136996289019709 -0.030753465292931034258 0.11640706825319201145 0.091371033432409806685 -0.12645626395921552576 0.11918826342892212267 0.10374389059854204065 -0.12782518267510692422 0.055296067873848622765 -0.10461356540766315881 0.0039199756153297750025 -0.12470467402677105906 -0.1109574622857418813 -0.072194177329536923793 0.019025611747352982883 0.029439688732686205425 -0.050254057356789255673 -0.1178182618805055093 0.050383933313642687013 -0.024918292196589166693 -0.0024889988330934176806 -0.056535200164344788509 -0.11389490461456600046 -0.079914848487828218926 0.12930378413896939649 0.012191931742103985503 -0.026899097332854480374 0.045485675356066485042 -0.089123880085883039337 0.020060352648724806557 -0.082573965009277147664 -0.046088937011797941057 -0.055765941766917445643 0.066440868283598450428 -0.10561324487319213861 -0.033655280084168043286 0.071312620200945017745 -0.12858073627348745593 -0.060521436199741013295 0.10550597698893614262 0.10443846752850821646 0.10208246510131012419 -0.00038759535485082127152 -0.079783605652227682081 -0.045326500888260519428 0.0033332358097705864532 -0.12792362093176068427 -0.028885421222926692397 -0.080354804294063497672 -0.01709351849365840087 0.071886758726969784972 -0.13192746672315128209 -0.026231666628744262221 -0.051596417638776016779 -0.067940007401268723286 0.096255256730251037567 0.0074366831552764673871 0.042354457300216780125 -0.094195009603471338555 0.072418039511818174669 -0.068276778956084124839 -0.042827206469109799225 -0.1101518696115033058 0.05451093876463779242 0.093187701415688661832 0.11001837088296596845 -0.037327217280699639956 0.0277871393251233334 0.0052019192434667599345 0.075678529814498921025 0.10983742636642629398 0.036846718826448646156 0.10567932436891275261 0.069291908232919571797 -0.013622575888003057853 0.068103881135764640642 0.14250790971348886726 0.082866953728472803054 0.057569650986008746862 -0.033852189212217095871 0.097438896032179700413 -0.069180765502108443332 0.053262924063848381129 0.12557811748094174775 0.061605036122838574553 0.04126271878410563837 -0.11988444620987302736 0.10722561827196903927 -0.092018584185671215003 -0.073787214707141973724 -0.025635420718948063318 0.056824742672511481534 0.0010124894574547787986 -0.082745583607371525625 0.026848597270591412212 -0.020779352385005573495 -0.035224109601116729285 -0.10912372238380671496 -0.11572223155172817188 0.042827050876606875818 -0.076604732200367980921 -0.079330305892426719594 0.089188843818838653421 -0.080583231946514427557 0.098496999469953425144 0.031644211451029580218 0.0021051613507419505988 0.048754538115521592334 0.094587821222096704621 -0.094070031650582655591 0.063930013090015905264 -0.041704561726756447793 0.095482874167620135353 -0.0077635884848969325886 -0.14058432193707107172 0.082985959905686898508 0.0082909517035699795834 0.092500226097461793473 -0.028224670519450073547 0.10075535552544910567 0.047602740952959604614 0.0015252564271528846855 0.0086106439552677341287 -0.065677695015958922897 -0.018844976070798245132 0.079595272709612918671 -0.027125593027262716317 0.088547625933950657728 -0.062389769363829401805 0.081208746741726928198 -0.088388206084645259963 0.11682967950747553953 0.038325591016256661814 0.061219517528447411903 0.098308895233073886888 0.051069647335605802829 -0.10915781261191785656 -0.07852101142070000428 0.12822467207338728024 -0.029947725760798245276 0.0013322249608528772061 0.097178232900817909656 0.093637377760871165489 0.0010363080993890504827 -0.038244095449028445155 0.12570530868754745124 -0.066346620084088092639 0.093387934396960470274 0.066225153957679167016 -0.046037464854862278352 -0.046362955260028738957 0.12707556444394954576 -0.1148563432656747596 0.058691294868958743258 0.073957288263183609822 0.010135754071897630502 0.14249762139402386008 0.14871785965648970373 -0.05568598752362142329 -0.0073480249635294696275 -0.051216143806695806073 0.055724971600612467626 0.12702125346261314287 -0.041152596979127889498 0.054128271676010628055 0.08355703928207934561 0.11709415595346461814 0.084235108007185421908 -0.089602511513440175062 -0.047967267833058796489 -0.035531922254976214259 0.055700573434839133202 0.0081440986821947353863 0.022333755856770311221 -0.052776208245536700148 -0.1147824275792920512 -0.043468727129806289389 0.025461316867284453785 -0.011369496506671610686 0.10707406195528332282 0.10651989189001585812 -0.0099883128776536780902 -0.10087213080258501663 -0.091011313784639211177 0.1084524391801517107 0.10837315498436833616 0.11464900698567088988 -0.083075237973135915293 0.11453361758768823564 -0.045017551107556355583 -0.083060043189474450087 0.10412933753627022504 -0.10997832665791035245 -0.044751509287248962543 -0.10217845555970989091 -0.094957991881849543314 -0.068057703284359394313 -0.012574352284096533203 0.031351175346630281993 0.056859368517996833337 0.004037529411414952224 0.14440995547770413276 0.038014883303018547067 -0.071938145048736620857 0.007001675137020362677 -0.089633789689606779838 0.030819283819354514192 -0.069806412569129089318 -0.11446442162177362933 -0.138601074118098605 -0.029892884940522067988 -0.054606466015458945962 0.051704178721762722448 -0.016192977076870337244 0.11873281708313802862 0.019506312095502000015 0.082104499222795807034 0.038946039862896242312 -0.0820414789917001952 0.042693178263295557262 -0.071403879653780449877 -0.053231874369605802766 -0.078630124137547371954 -0.13662783933523048319 0.029535433413856969354 -0.099964744395143106948 -0.073700231387921186221 0.084982289089191503928 -0.079245331823544942762 0.06144512141489819057 -0.036164131310652852802 -0.032217377541293147625 -0.020378903553840421736 0.072531428569720821087 0.10183019175518565058 -0.064838485502445378228 0.1185461602582000562 0.013543752842787597571 0.050659655861720734316 0.042324899142192652646 -0.061483885157169362867 0.065955568562646879616 -0.082528539863100935925 -0.022587324625851404325 0.03142104835185381001 0.019391736872231297301 0.1246053431233821035 0.098539781439461612833 -0.038481348529478154319 0.0089538173055803034484 0.10571946182969550743 -0.040964494603538091633 0.0016720997964581887051 -0.09090000354704474983 0.025817990541029869206 -0.11802916099140582651 -0.013351243894896124703 -0.0073669497834751573873 0.11694566003267922727 -0.08504440654450594328 0.10481535678195699757 -0.11669950479127626231 0.11531456886557711616 0.105416211681692365 -0.045154428058287891801 -0.061233531749408924572 -0.087636867981893240565 0.0072663237170419552047 -0.059371366960525591427 -0.10694882585071355252 -0.023154703783260767447 0.069869139818082973137 0.13902149874459596157 0.010449428758950834659 0.013349408990077941614 0.14369303784004328062 0.14038292671012111978 0.16644304000594767334 -0.10468333648391774104 -0.064925719063268952369 -0.07365903008251621642 -0.020783123512073026912 -0.101335747805191001 -0.070070650293204223003 -0.012259065479640835275 -0.11327760093869236602 0.06629384700773906236 -0.028341311094278426319 0.12236367610254136884 0.1001868656380408007 -0.081505462140873286003 0.018574296706686026226 0.076518504317958604966 -0.0062551903745433493423 0.012321176242527737132 -0.078338364304316662756 0.11791462479542061392 -0.0020793919205580853674 0.12899361189960550922 0.13340453260609219654;-0.073553964836235677383 -0.024323902613087654973 0.029599824055685917956 -0.039819155081195038715 -0.06723297459924604258 -0.02076141758244908278 0.024486443099233781012 -0.078396712564527640255 -0.036355437905350389272 0.08114955109652877141 0.07721240573686435904 -0.073260551225822242993 0.062830579903743660752 0.078212150260831711512 0.11224491976199824084 0.056086166638202476775 -0.059638948752466239278 0.0013565598834500917479 -0.047254927045545402908 0.094033985033149414257 -0.014983018510002390003 -0.064323380359829637753 -0.061847068549800675308 0.13388881906182453774 0.054296639683972101886 0.10843534353725213515 -0.053590797624763084062 -0.1011145616780590728 0.13862295120324205633 0.0033089544375692432274 -0.062926879930258722284 -0.10837337514888789602 0.095938206646144358336 -0.091323151062248641985 0.057449341725837266281 -0.005816184528566466054 0.085172418010239975272 0.10418714787486176021 0.10782101454497405868 -0.015290368116317527153 0.099402044766707109424 0.029917010925730264104 0.077411201961420969542 -0.061334915747712097367 -0.013596605992376470384 0.017757752745793515398 0.099736698207523510895 -0.10626755748330433959 -0.12497784186007500351 -0.12833150552007124845 -0.12964078034196807598 -0.083830665790130765025 -0.022198617064198331028 0.072512852731992136213 0.082344275140053366235 0.079407813094624912775 -0.035989210096826360075 -0.064305593745580869047 -0.10847759714150015387 0.093973623553225235638 0.074482469192889810827 -0.052629468044156052509 0.091416733517243026208 -0.10061141599258498214 -0.11154807393833730822 0.053281375846952534758 0.024370625153168727628 -0.073131007305850523337 0.11228508162303661722 -0.080409723799201832106 -0.091691570224857604776 -0.01527954990657984409 -0.017991672585459604627 -0.048384156241901475626 -0.044729981765755683076 0.053515695999899998148 0.096534646102901314202 0.10875246287504672371 0.082585527797318869503 0.034737307438790977765 0.062689636875649046299 -0.11218268419499140276 -0.09613860396373365147 0.016126560781356609475 -0.05309862931719837309 -0.058398350008896628138 -0.041908035291827461233 -0.045666955391160446442 0.06715902778367767445 -0.039262183061325263422 0.11858540400093203759 -0.093219850953573255015 -0.034796744921371858261 0.037208890258459123568 0.030521691890546976539 0.10918407903426287364 0.10164495728099939842 -0.080339939084467515418 0.038315284528137809328 0.048702889202573700078 -0.066229043650882515881 0.0037572376050995074694 0.053263028929781623677 0.024726410982895206947 -0.046461682722524835776 0.044339314491410292129 -0.053489633313832218864 -0.029838465042146853495 0.027791050913518411392 0.1097868421028956043 -0.023474302166077973264 0.1092410024843104982 0.016735880168430364995 -0.071251093554040828559 0.1271664612227097757 0.02948385570330718311 0.12227013252663994358 0.12542529938094762465 -0.025245165194676233433 0.070618791581974885152 -0.040173513357697442083 -0.12045148737509177306 -0.13997768042919497833 0.10975279659721071113 0.12444646498895768627 0.078381346079547623007 -0.010579159015731391322 0.062037154829398470646 0.040194360201713179304 -0.13200084024020541928 -0.09253817427457514122 0.061466469913970464556 -0.04689326041958788438 -0.074519504613508286139 0.087784984695906440044 0.038255556053009703854 0.090542481487908041404 -0.13402294714639104156 -0.069866226930669669826 0.07950235474099068278 0.066125404402724380359 -0.11294234840620175075 -0.10392209534792661019 0.066417142656675406953 -0.084834736523401649277 -0.11441930808173036982 0.039443417077518673486 0.037457265092953606622 -0.076765249769635085508 0.050190668430320210802 -0.01378019519225920711 -0.029156077778098615783 -0.01627693424792325122 0.1226493629737394897 -0.093874069161448969734 -0.054200209552168615579 0.021899616433032627338 0.092998999583231281574 0.091574338815292796734 -0.078857644495060164047 -0.1139187543813478809 -0.067848941558662848039 -0.096363605557816922609 0.11313529155410055604 -0.078948598209059292485 0.11886590226315603414 -0.0099667925974384653787 0.018038490943774423969 -0.085382866339681229295 -0.031124861271650341304 -0.093903114693098171939 0.048505004393242623362 -0.029529837140638608151 -0.062237068759789238026 -0.11343377830346887403 -0.039335304681089318379 -0.062372383356642108199 -0.055914576164904944422 -0.11669144201981415665 -0.0039535466877162082563 0.02014090567378543431 -0.029050575714745268535 -0.04315305407530441173 0.079480128844800657095 -0.12658238710264660409 0.1215532556816208698 0.086345587220427150177 0.10515879087180282636 0.063433475716785620024 0.040892242929529955264 -0.037079713245018366963 0.085405196883263284624 0.088435292841431145661 -0.035715564053541391798 0.079902695068419751778 0.049743061940116718722 0.10445568574403236994 -0.071810134574670961283 0.081199611952957800876 -0.10292170183833621033 0.074998606769261941252 -0.069564879532502843507 -0.10348225769181673694 -0.1243538702477524488 -0.014579816776790738286 0.06457626867694458983 -0.11655948241325429782 0.087862662497826440888 0.11165565920503410513 -0.065288677747359330494 0.027894963919516766598 0.078903927741246590588 0.13450829249218515526 0.10842933392005393856 0.043720108708501181916 -0.056024095891740080533 -0.02817081272281552265 -0.070104399998569308372 -0.059790243051951096065 -0.025779962124415047725 0.0059464759398540293495 -0.13283901452619020778 0.046426746111492799007 -0.027931397012862409224 -0.011963640719422614575 0.050284223792700533107 0.003934267548559197171 -0.11468753914507154312 0.03798664786801519283 -0.043402084139971291998 0.10478847335670667118 -0.094934469902067705749 -0.11241040542717267714 -0.057605084749685300793 -0.0040670438935792498775 0.051827094189597848473 -0.11683935446712857831 0.12256602948428285682 0.12455997010710563588 0.069415021927642331367 -0.070658294804616203488 -0.113322214985498812 -0.0447505873867484541 0.051040466743450856046 0.011895783094214150422 -0.098434281505009532665 0.036496900413920528583 0.12285602519756409767 -0.0092412647029136273796 0.020958064652709475217 0.085438406850183487573 0.054241052652155327674 -0.091623039082953619539 -0.040354666027160916719 0.065247223159305769991 -0.078656683486387365956 0.069589566379043482636 0.096138427112561430921 0.071061361762127128738 0.029274840056348821332 -0.013025062938138026042 0.013377632803318465979 -0.10024226173841510601 -0.096709461705837065915 0.1158379213747992853 -0.091043607576420410021 -0.088238540603177192945 -0.026945733389256362744 -0.060682865522662159108 0.082921721140832821417 -0.086208036751845101842 -0.014092363340527816126 0.040201967657020415414 0.077753109676202289413 0.0089397404780972786198 0.025033899195664330306 0.070782282386407380237 -0.089694792266427653127 0.054161081917957834553 -0.052483185872211478296 -0.12488566381381471793 0.038192960564538379342 -0.096275017460910133904 -0.13400681284470777888 0.09539213046487365899 0.051305649143757854624 -0.058353128923326814947 -0.12364128546839162071 -0.094390344214432625458 -0.095718862090299242085 0.12666503312971705286 -0.12290185427392114059 0.077183290462266754273 -0.0021099958232890275896 0.1216748892136019361 0.090743777814757023426 0.12704403945100792295 0.072400335984374175613 0.065421368939655250019 -0.12779896208580979189 -0.10414526231190528172 -0.028445597891348487624 -0.041052006905250508495 0.070110815853268781961 0.030038161713838745781 -0.1000599420571184478 0.06042383467112379114 -0.094420026752772168166 0.062685740697642072794 0.037803285375328066209 0.0045329966232558679962 -0.089742279181202713745 0.047970692456965127737 0.025080486058211080846 -0.052587909608954257201 -0.079675588319532919535 0.018140868144772361731 -0.10158152350482049786 0.13273025717290531933 0.063447883106096475414 0.12872700983854631906 -0.10871772677703413212 0.044972209513522591606 -0.090704018604435721063 -0.043943681468146075786 -0.096573582279442252152 -0.0522172661101069982 -0.1298580891257790082 -0.089798886307819181241 0.058631754190760457246;-0.089614027134885435033 -0.10756491724685846023 -0.038959774725050251576 0.10417786388822729282 -0.044449273352046722585 -0.068079602871661717978 0.12068209147863345754 0.079504067706667472248 -0.12986924355215256899 -0.061873422635099470379 -0.13677760290428886414 -0.099276921010973476212 0.048589535268633826659 -0.056539050820035186007 0.042239085273615945004 -0.068077452443534955395 0.12109952838920791385 -0.022073252902359639938 0.11488554181420314315 0.0034617101999627549087 0.0094458147596672495383 0.037912131894772861662 0.068424374842699642318 -0.15363708372515219591 -0.007549540584354750769 0.12176056625421750879 0.061256890303835492828 -0.08826883821598230373 -0.10869948899483117266 -0.096859100680281445817 0.026916832971898677768 -0.10012187738569781892 0.081194083033274841443 0.11065982892392312031 -0.11533199901142530963 0.098119230915115845937 0.011787984109255510504 0.1245160263055694605 -0.083092771955892097413 -0.12733131821206980505 0.039717058437804958482 0.10407510218423249304 0.027688394251473610885 -0.10781085380915005068 0.019117092097302425258 -0.12927052800890659334 0.055828223027310983073 0.12273657193083180317 -0.095042913204200649147 -0.039636321785724626388 -0.029601280163691241765 -0.017673105998128848387 -0.022286338684406874211 0.089439476696634226394 -0.13155591943676953059 -0.065018155286074186261 0.027074901158597102641 -0.025013435878728593892 -0.069540512009894542289 -0.11338380885785163954 0.055764262592172632316 0.01047457518859067245 -0.081328727208644049917 -0.1046870592595959687 0.10830508819316338187 -0.10952211170329079204 0.0010727673099856168976 0.015251516221296041939 -0.11814575812496949658 -0.12349075238457074555 -0.12724427927512169112 0.011165587446945195518 0.10533611357364522365 0.0023920447626733913095 -0.028994412217621064187 -0.063843546209948573433 -0.038421500073718826973 0.12623537491741082528 -0.082415434894481831574 -0.049630974749786664624 0.010811301392354455073 -0.0015666175948979774168 -0.071828020534757425208 -0.074345901226293253927 -0.089940659748849641209 0.083378966616420163716 -0.0090184370910711391528 0.09939430153095876741 -0.030509339300793147237 0.054451606527432562521 0.0061203980254688570423 -0.072196958291116775097 -0.13081262454612224699 -0.11452458479223691368 0.10664608989252730153 -0.0024029738884860634557 0.11371175285580154002 -0.10272300043087807808 -0.15150569843227768008 -0.11479007549504820218 0.068484468608919837895 -0.066889918541393672546 0.10682936036373998079 -0.14430143411998985759 -0.010151473937757789223 0.0080504924629235686401 -0.01744082838291831361 -0.10128682778071207427 -0.010802267168834816732 0.021300445938624040787 0.08934068598424040053 -0.1280212708604601124 -0.11450139074081819301 -0.058832850189577345912 -0.0046640582154557075345 -0.10269769018317745357 -0.13240476932936351417 -0.017508481484740909956 -0.059621665954191785386 -0.059637109174590474669 0.015106674838051609502 0.089800468128878818685 -0.11059923290325525402 -0.057683422218342363108 -0.053123339392815563387 0.07597958779518051986 -0.074250030989840329343 0.029709027671358623907 0.06825457275626573006 0.023357948198346949881 0.0042999783896912439907 -0.1224715017125266453 0.088541506263737829174 0.044705239918032109447 0.065122305030331797959 0.010721451789475871727 0.10495587701818566428 -0.051139923856398178392 -0.10194173852034008054 -0.041702031593129004761 -0.084940713417204133373 0.053571228008972814061 -0.02771316394646384379 -0.1039035860570989428 -0.1379167085066599352 0.10126892892092514975 0.068489115333218691939 -0.082069539178804620794 -0.16937670295931955833 0.0048703125518715899983 -0.1212758119887425573 -0.014889858517208214364 0.052882347521423678227 0.05054266307049950363 -0.091262593753668241892 0.079612337528215046389 0.12818103855666029833 0.068344726049589521466 0.036693474407044970875 -0.10790838857044295074 -0.09725375951321210688 0.13301009261918458892 -0.093328924370140425859 -0.073116340998564052778 -0.0078077743606084328357 0.13178701333893499958 0.093928970753462848187 -0.10476615575634769251 0.019475781266982055556 0.0034048316446475546115 -0.074215427849181170306 -0.10322413240991239192 0.018464041780327806325 -0.073486455901337843777 -0.10785890785455437557 -0.024433907949257760439 0.014139443737662073589 0.031147585231955290247 0.036752438365653568308 0.00056785339742393880959 -0.0055017035672805811655 -0.012990550014988154828 0.0029398765035047683819 0.079394839372014788803 -0.11305128079372289696 -0.032953589049800897925 -0.052880588342634475552 0.11613476247303156086 -0.12356677254548102673 0.11031466530752460919 0.071436899661393812866 0.013262203539330422522 -0.084354382395729288202 -0.080417509734004355426 -0.036866874122369684696 -0.026199293866560509347 0.077672362583688675519 -0.045298466753130935125 0.090120777733946583199 0.031469841642299066498 -0.0034188909750721657548 0.042823239402439129686 0.13696496434418281574 0.071410878837153024534 -0.12671387360742697448 0.0086923979018640896294 0.11595253029912980236 -0.036787607198814346876 0.037288067618101307377 -0.042934558873535880186 -0.076438201510841477515 0.0093495210433208741918 0.12155763406541673921 0.013090352199799315525 -0.12286394637461985069 -0.11123139949358197553 -0.062623862620727277495 0.13080732945218082053 -0.047467929251936318014 0.097244601343719580533 -0.012110282710964584071 -0.10972663335115678818 0.13640137905769381121 -0.094517115551528946282 0.054068479284057960332 -0.0348716722102304158 -0.069653104323772377371 -0.13504164698010462375 -0.053743276051035113183 -0.11547447493719274758 -0.058363508690416066038 0.10563257325341281201 0.085374221967255400911 -0.06320156087077885565 0.056846473794081531228 -0.022416630080514424878 0.016677376286595414767 0.073423850774477994463 -0.12169369671065824456 0.060380236778736218195 0.085643616753486917492 0.11338112634270176848 0.080378457268663855428 0.045314843710647242925 -0.025682870068004536035 0.088051341575709637932 0.052855527663064144628 -0.0085226468703689627071 -0.034467208900252142845 0.095967469515179357198 -0.098728251646841361233 0.13404062705128613753 0.091513954551254217407 0.091440871440232551759 0.069835690998305666177 0.097397106032960242827 0.046654120421964706544 -0.00619486192021592285 -0.12402473470935566902 0.082710746957373890154 -0.12050494701913899709 -0.060948983691933571183 0.10539298671990057765 -0.052649633446614316212 -0.035557133281135147596 0.073385458758813498781 -0.071384886591023696822 -0.08637863945817585154 0.067165848370830574798 0.034096747628306549316 -0.11977951724679042345 -0.039000656775810042809 -0.11452119637926301554 0.035364499232600606071 0.0014975201729842894504 0.10839809432838730385 0.14791525513138659154 -0.058302643681856558544 0.056298336616557496936 -0.061964773622042577939 -0.11006214092571378615 0.0034304113736141027269 0.017036178925518771776 -0.0020154372847667016699 0.054335711322513004229 -0.083699997459980191028 -0.017962380304397611297 0.016180206124942617812 0.11097856677699056982 0.047849554365834115477 -0.021253827973373589505 -0.08013225284957432859 0.085162759409311547532 -0.011482219039386173248 -0.04530406506910614195 0.075115011665211964265 -0.035134069251870667094 -0.10080552225496026975 -0.035540220152929881403 0.14879508596807766718 0.016913666898988478221 0.026264831235655941577 -0.10427803717653288951 -0.075068951746817394466 0.071863788710695389317 -0.11013363151665771233 -0.058524628751692425732 0.13888333326699989212 -0.033169524341396111611 -0.063427813594149534682 0.008116288461626285089 -0.091773420289484597401 -0.061796905866467299884 0.018245129457283140728 0.0089582675568484222001 0.03207028764593078396 0.063249218241384824735 -0.10613652893914303499 0.048007041272649819685 -0.0077225809109226989727 0.025269123607217808258 0.057904037246982481557 -0.097063703123683384155 -0.030135006827665289375 0.11210792781050624156 -0.021947865816972274983 0.078966444263556714867 0.025095715397893257614 0.081882495052953030434 -0.11593480210177564693;0.085882724784910241533 -0.010811391850308809531 -0.018553151976291322456 0.10076174469167038794 0.052585786187224953236 -0.07099981726967066753 0.10736597979705320149 -0.056497394101824902068 0.074122504394547886197 -0.12444278207326434083 0.053980710746324329918 -0.14800035713087417166 0.05961887148626571209 0.025863108147933112912 0.0021793918557276368946 0.038381317407174084244 -0.11527687001491160323 0.050237318568479655267 -0.031553814022608005219 0.085481325818202863465 -0.04712023139997299076 -0.039032708759847954683 -0.038636696343268300824 0.058717261165601462858 -0.038893021023947489667 -0.14412514620191638204 0.045679041700933925574 0.031020053667325339641 0.10059919804957576095 -0.042905973033086061696 0.10837845590534424256 0.021827995108079135261 -0.019428291583840313211 0.040100266941663374742 -0.056271371074135885515 -0.10276791272908075703 -0.13485833658566639959 0.11955697901339905342 -0.023065950792964654004 0.04561052496760373276 0.088316390836381916674 0.023324693743120163136 -0.0061908876353074897281 0.059401499196635842992 -0.059967928326599209687 -0.065250899728645089803 -0.0029754919654089713281 -0.062447798851791636032 0.12355204794220520093 -0.054901557360658125029 0.017967970166327756898 0.049036423699671941034 -0.018356456348431322151 0.066171140171655540296 -0.0090916271508139721164 0.082659095720098232918 0.009681112345301650518 0.1336450640210070373 -0.063158839959037677003 0.1373189934717657934 -0.11170721901152086408 0.058616895414227931926 -0.058060623069073266644 -0.075805563299049472104 -0.051420764121563343474 0.0067253705054784824677 0.029767792282669975484 -0.065320431293643163584 0.12831866924951540465 -0.062828733844298656486 -0.066885413681158953358 -0.012918271114654352252 -0.055707411043181782884 -0.013358810230957468904 0.14537447172953812946 0.13461279569098008602 -0.095186736437779251307 -0.061377248779840909432 -0.033780928433061650773 -0.0051199734262199047413 -0.055066090164448605604 -0.013870081471144620963 -0.1068402189571105998 0.14430329290379029228 -0.065132201230875930165 0.090367496536073593782 -0.0015623035486997871243 0.089371736529053544262 -0.12202178049757440859 0.11797117570346506155 -0.06114615962492365997 -0.061014696281154995328 -0.076982961060745758175 0.066746046893747273954 0.044462274610505093941 -0.01408344106244485347 0.12203116659714058345 0.022936300491478760211 0.022883097061657850513 -0.078597541409260632261 0.033038641912820791713 -0.1129284106978939578 0.039485538594338169538 -0.01879379058380756945 -0.011967434376096685797 -0.11162253222196882874 0.13027804428755176969 0.07153101050102697589 0.091579389068466132695 0.035659018927644836605 -0.11108887112079307569 -0.01550237479754289216 -0.062123061329179413148 0.13718289329448105085 0.052301022714369600763 0.053696284328364263239 0.045285049727347023718 0.079975991618409736361 0.074131315448254450629 -0.011928101354224300915 0.074917065939569815747 -0.12318644971323713944 -0.014682211425630637205 0.12206452715736590409 -0.06587460217636653681 0.053658127599094780635 0.061388509101516303135 -0.10387641057406178657 0.046561930882716644209 -0.11250186499940564855 -0.12088026541558806459 0.048487209425410390806 0.13189266877881239415 -0.11025905521410903076 0.007913823369310003103 -0.10807347432339615978 0.11078139686951014864 -0.097950620434891874644 0.037743276051004442939 -0.048732008987183092485 -0.045297039767567229274 -0.099645190281087439588 -0.019463180063662568337 -0.014660061632434518222 0.0121289708814222158 -0.010112467948340853746 -0.0021698348246200508879 0.10299997164413871031 0.11944904273169372477 0.0076584529076857820601 0.014171894623029051077 0.0012138286637903804299 0.054229888762741235153 -0.037530249950497175659 0.031086522966340186802 0.098412532126582449865 0.13983792772554473616 0.055731709754147179536 0.12619600169887884578 -0.10637522445472104293 0.082632153614810924247 0.12755335058247146973 0.037259213821133979616 -0.11296951843980293506 -0.09752473638269566758 0.051879557822610770923 -0.10348202019667192275 -0.10048332478634385001 -0.088883300569676332303 0.12969547432286726574 -0.11082414237258790546 0.046287458855543597847 -0.08194672912301868839 -0.057729910236601102158 0.056458173526362426253 -0.045847864174323807451 -0.051859175487425822337 0.10454649218777477271 -0.019356580635709500632 -0.10003078230505321744 -0.014562893056514781068 0.11561933900459128721 -0.071010076387060777625 0.048405615050350903061 0.1071554884790876655 0.075070523206588052334 0.10533694837350941753 0.048115958516392831612 0.076566173864831651996 -0.078507875484364275653 0.080290502194189289353 -0.091287736203648897626 -0.063043299543065769996 0.043085529226013677406 0.016534682379274280584 0.13129005880857183564 -0.016528049004232651942 0.11460170329319557814 -0.11927762398436013436 0.090187217293225666048 0.10342931477373719373 0.097575997881685166968 0.029675760367420700447 -0.01625663409755453287 0.033989381148864898641 0.086138723095562891308 -0.031852004210393441985 -0.005568758319097795971 -0.084019649418023367726 0.084418531204356980768 0.13262919448951709933 0.08567700261861660449 0.062758260584994493558 -0.07196270967832481269 -0.13217407592073096567 0.094437966098901982015 0.014905314842598943112 0.1394725068341879648 0.086070998168841797438 -0.076752447145163674169 0.094046721636673796807 0.034375596555776606611 -0.10203495214636711108 -0.047609443947327211022 0.073195893285376914528 -0.045854587061975808637 -0.010513105214127137915 0.11991890274126729143 -0.11738012213777705706 -0.10980463300033285745 -0.0016212192284475426991 -0.060137801978361063449 0.067784098631163192117 -0.013749082841588497819 0.092870099015043214297 0.13123132467021247916 0.025890895199091049778 -0.069179418627366151551 0.15096734820466739535 -0.055915663457726881569 0.085660918412876208006 0.068775467792827879587 -0.14121382947628666193 -0.070499310572320256219 -0.084368603116298013234 0.10712161443338198696 -0.017389686621769418623 0.099558128716987007167 -0.083609523066333596431 0.12225759645766387518 -0.11621362796267094286 -0.086467299688221810339 -0.11346721832662789997 -0.0032613669536015505064 0.027450145252802843343 0.054969542259548476171 0.083949867442731668232 -0.040312909397594472172 -0.09675721226397375474 0.028846234481675468719 -0.12905440960950162466 0.016432349865255095611 0.07318985628451850356 -0.051009779611698793933 0.10332828546272165848 0.019547842084364858151 -0.13109006283072374699 -0.058569757937951535953 0.032288696517624268512 -0.11955986972007304203 0.027533531307862395276 -0.050420167407694220507 -0.068547791554661202662 -0.011444601416910884714 -0.020496993864870222124 -0.034127747198902977366 -0.11369665980847261377 -0.086155395263196626887 0.074658039501801512494 0.017782863633130013142 -0.015922132325893987442 0.018744597010881589028 -0.06526584321838985181 -0.035023727795177830857 0.070418782692135042933 0.12114450121085632017 -0.053378138792206403229 -0.10503437012994649991 -0.089088286243594411173 -0.088750663460823400741 0.04488754456904220369 0.10260361701629809594 0.13032674473590227793 0.060469860772300432217 -0.0043580535689505288041 0.11950182570532139059 0.015047652523302755198 -0.035111123465856382275 -0.081895509399293103803 -0.16042540212415198897 -0.0058031162304686845915 -0.022813424746144974481 -0.0070191168492982842012 -0.11273642970134049868 0.030448969045893156671 -0.029135900472769024616 0.061265831758378033745 0.1413105319177088981 -0.10013284276747078105 -0.10058355898087001368 0.028401575469696124093 0.088570841352287307813 -0.070672350042449386121 0.043162706569410264068 0.31414798385958719873 -0.014785951381365996377 -0.044337744805449566532 -0.031684694566889763656 -0.010006790407298049236 0.046031111009388399335 0.042927522751098554088 -0.065289759997295776506 -0.057791244327405191794 -0.076029725742445944392 -0.016170892535729106121 -0.029019948793543002413 -0.042154664071813861825 0.12488437317393205617 0.032694573541683598361 -0.08930708313963080236;-0.070325870539715520935 0.074823356416530345525 -0.062583544252858433476 0.12024443138360338401 -0.010924164102762473974 0.074722225925213422992 0.035700168179611690977 -0.076077868262317729919 0.023609918090225501253 0.12423496494129744605 -0.11566851028577018745 -0.0019266693484176846719 -0.069465577869213410156 0.089969331482498193786 -0.01841722921790285572 0.0022330009418786924032 0.059302431825663810827 0.099990135547081526735 0.066007997442217677952 0.046643021052634979495 -0.1313730076631523247 -0.096748092066924043508 0.017957100135622603571 -0.10308829920244128031 -0.10024520082531575282 -0.040185796086278889605 -0.060892313380307767912 0.080178903177193727725 0.042965736027421763676 0.042165838157466960234 -0.084341900331363559018 -0.063285632203421163244 -0.0061287479555485486343 0.11324179404349751787 -0.068067515534571090829 -0.15615292851858511569 -0.059203197476889186934 -0.050722665665069013863 0.12544573696443697686 0.11311946467961325746 -0.011313637949523515022 0.059784541856299409923 -0.0092703401700346080988 0.04789321253687754687 0.13058869723998736689 0.085886827406793000983 0.0031969862135875458387 -0.14430051454396505828 0.070476386822535624921 0.00025656447744004098541 -0.026140212202765512189 -0.1091493981761274823 -0.0058763588785755551183 0.019895043867451299435 0.014229632977509266978 0.034488546615515522364 -0.080350915992688981548 -0.10933433836990706645 -0.0030774662700102815502 0.1139095383082018853 0.080990011164210617967 -0.15368070945715101017 0.064447578055083235005 -0.10209113916291133461 -0.13806660565349090919 0.058585683349696306144 0.081065164292515812239 0.092868839180506937425 0.031879390864099896308 -0.082792401894104319937 -0.040313137585548559916 0.065874812398087775889 -0.095579899474889248867 0.076830185327298447517 -0.017939816367237695904 0.099886149871200841099 -0.087486418511472860415 0.081387457715709168871 0.11525485505515054019 0.06096142179612879658 -0.15533415766706948347 -0.072727626485579260907 -0.010927745253969793973 0.019158764177542097346 -0.13184446965678436881 0.073388247598945313688 0.052127922486653738288 -0.13194642620696386826 0.14189738330618212325 -0.050980729350796311072 -0.087382691877232729349 -0.11590532084626378739 0.059490047287812534982 -0.14172747488330417198 -0.13040165192498173741 -0.14952339702249542452 0.025510980248378466173 0.089366834661546615259 0.0077065633681414995315 0.0038487132432863668807 -0.089077856277880063107 0.024610839229068960654 -0.054234693414064158445 -0.10254600266166370715 0.075944318562821411245 0.0048385388862594103446 -0.02450091679491502375 -0.05760884177550163604 0.10882740484764626132 0.072370973999168752844 0.095438224173898036917 -0.030635418908140459732 0.036487319121698787161 0.00081293942272892515122 -0.1028203425502409174 -0.012477729753181577774 -0.024034754797379445646 0.021137119884003876397 0.056682500328971659187 0.065744885856176465966 0.090681444003164995982 0.017090030596685543834 0.0099386842828532821759 -0.056235509630173784179 -0.012075892308506962561 -0.06723147374346127858 0.082094398410646515774 0.015124447607091881171 -0.09079147756310720907 0.0692661116293418061 -0.066733137150773752522 -0.088260536304023737286 0.094672973072835675534 -0.087830033811121255294 0.12412274810037023098 0.087384974608941373697 0.10972641543653080531 0.010769796155798176326 -0.13682577599481132724 0.076391089029600969806 0.069960891269994426866 0.0014428315909651475823 0.13060488912605444645 -0.067245707027989778948 -0.12609553951030896823 0.077282111919734233774 -0.066859309885457740563 -0.068259820747969837673 0.053887603547403871429 -0.11318174410853057421 -0.14881151009346779701 0.057993622187820170755 0.12034433811591313535 0.0087190272748345464676 -0.095478745412899676537 -0.096899208746049653174 -0.11833030391048494911 0.083051344348675615326 0.12531612083646245792 -0.087594255415536143028 -0.074996553922545700077 0.044625614462814031103 -0.025757599222053197824 0.10610407918944959882 0.034841271630305127582 0.040808158349358504557 0.026576063627667637079 -0.027012396423602761525 0.011775089033933851257 -0.1356407003180645221 -0.12995499272714286509 -0.00074691015142562826486 0.013372482478973842998 -0.01631211484064495898 0.050546357855634271861 0.12006081102056988252 -0.067641868024783710633 -0.050489994313623921818 -0.013036007496765047997 0.0085268659517586282981 -0.15086762638518785851 0.11552247506991975001 -0.0015714363049763426308 0.0035007013000768172871 -0.13268165863633998858 0.050709796669884732445 0.04014854028075406922 0.047015295650247049264 0.12203970656576566822 0.022160073879373742844 0.0093922971407267505373 0.068580245819944193886 -0.10026098292613508378 0.079167881246160920483 -0.053030362964814607707 -0.021835993661414799388 0.044454057402123249576 0.11363332268352525911 -0.039479142841006197029 -0.10829515528543549874 0.099136419284176616196 -0.006456654800746483916 -0.064719017050029914451 -0.011572701647433351196 -0.063773922467729365904 0.093522922021182453012 0.10502001989942975901 0.0007224484075815836015 -0.10849772127697022983 -0.012848002325055229988 0.015595043669714148127 -0.12630510222863852721 -0.058368732839752413 -0.00027063701626077728843 0.10272222679961477698 -0.11531281843402546583 0.028413204023736992471 0.037899749012879402343 0.052379920834393481344 0.050652896882236619902 0.131284822953627478 0.08998046276542003008 0.033079660953264283796 0.13015551446743231501 0.0088957422403476531236 -0.10644004470503048987 -0.018515192989902336945 0.08365407568743389588 -0.064318919369192067981 0.060240448243184294141 0.063837106805873622406 -0.0046075171129040682488 0.068608892335398435902 -0.12239387580363680907 0.10615165900130929533 -0.026927210313458325303 0.12525299653743615647 -0.035907436501205473867 0.12518479284664615903 -0.10481382078741841024 0.094278310974214740714 0.031580944044158044959 0.066605431911934784295 -0.0050366895313962104647 0.046421562643279574989 -0.092141746746354988296 0.068230396211834742903 -0.11283602274934331766 0.0024459285891439475936 -0.02130806671883792372 0.04163199982982848657 0.069511165359364968097 -0.03691113607649484929 0.069644653968208916628 0.057503432545128053965 -0.060609921118562726239 0.11313549115834574399 -0.021878106098226039744 -0.00045603149356230937485 -0.075060527276876093383 0.040417066679316264455 -0.13018620991113852292 0.02129165962117900851 0.07904668498072596472 -0.11939482876283048773 -0.12097898836042765558 -0.046667342074911126459 0.10983099153689097893 -0.096592475659291049395 -0.016745499548148520125 -0.021099875177077377641 -0.071655156699017411026 -0.060610232748343394193 -0.0083147768674311471615 -0.01696115494562182649 -0.065226921719003516653 0.019481298397601532618 0.072899870667601743279 -0.10747943748253566132 0.08240662731655536144 -0.11238268385684958839 -0.047070764770552948886 -0.062632116745967109095 -0.018497938179163210537 -0.10643841286058949858 0.1085577138103466649 0.060123333051588706555 0.01643750247399041256 -0.016380207422541100126 -0.0080909290731809718755 -0.08704349065960162446 -0.079614830308049278074 0.063517382619009965516 -0.12275002987896674322 0.0064372193397059882664 0.049714023997650916287 -0.13574798080341296536 0.044374509820809211746 -0.043614534565369927899 -0.03706093458597423812 0.096282167710560084828 0.087018479066536522093 0.11097240832182436732 -0.1170256714007820581 0.087048600134177395171 -0.080441202811644296755 -0.092663020425150580128 0.069172640799860463101 -0.0075184928908347565396 -0.1167071157930312103 0.094270144017811544068 0.04420029429325059156 -0.028310756677943905296 -0.072759420301637539596 -0.082418340727138023061 -0.09695951197221276685 -0.045115946201526736792 -0.05977966771408552149 -0.095264889813842248967 -0.11805081698895530939 -0.0097538333314431385074 0.010268940474039599947 0.090208783707682579922 -0.093478489831594971382 0.0060009293351153888962 0.022229227487937281565 -0.062325752991025780425 0.0515145946310955824 0.028738325182011900671 0.056890405296228095666;0.016633814187331869006 0.14034230381153783851 -0.11532620287021741468 -0.0021913882466342389163 0.14850759572919602913 -0.04894466404469694637 -0.096917738310556694747 0.00013250320231146813063 -0.039119039516585317473 -0.069801604021291319135 -0.051519757034824455177 -0.029317844407265040291 -0.033252306100488626672 -0.058567699157466256155 0.10550345106628530867 0.074595034301744106431 -0.0031846168855375494612 0.054531334880278350963 -0.05623191795571351459 0.056709115400007288621 -0.12906665595654345791 -0.00074620641619728802271 0.055922277372921838645 0.071663626590607334976 -0.081732375244484054 -0.10157184489172542408 0.046399228870311788608 -0.1468762056449493536 0.0083461017040403467221 -0.046337947503891016576 -0.093828349587594880865 0.10766446490229347743 -0.072021350954537266542 -0.0075257347135088302134 0.13622108534800117519 0.052453548926568803468 0.049301310593906709501 -0.022724777702472279822 -0.074796660398144865223 0.016629286795911166902 -0.095113440966866483195 -0.15948511274349760902 -0.003018142196395290789 -0.055333905155010576493 0.035070464041658665211 -0.025997428706900471695 0.030462978547780086847 -0.030304421533483057866 0.11185610612169009925 -0.012471465913412530663 0.046314588803896064584 -0.14939950368953788806 -0.08347637181036962617 0.11820230525610249395 0.025339634227260789817 -0.027113197576711607628 0.00071070311611561378957 0.057121042196762332466 -0.13579941622688265768 0.0086411545739103270969 -0.035223884632609704648 0.061778268498047635149 -0.026164070391336176347 0.014044748257038951883 -0.049585461084026220824 -0.046960239848626135484 0.012025968774469278366 0.063991019427874190617 0.050338685829506284175 -0.11735868319800449311 0.026278880610610701879 -0.090957761619543567311 -0.15094537585835027249 -0.010725553604696957954 -0.11129517642354377904 -0.093465210757004604791 -0.10453310638225896123 0.070968559882197607136 -0.0011388130574180429979 0.082158276141584038466 0.079647603091149779542 0.0590560188720665874 0.13475276347499925977 0.0077031740674312317377 -0.11114426953059840242 -0.060668358242401153324 0.1064216811024941145 0.074052314986201503433 0.1131809144151433022 -0.080125427292910611499 -0.010591837522847511593 -0.026751632242750403995 -0.071661905701010317205 0.11854131073296152177 0.09541224056053673741 -0.13611798762634338966 -0.091575431584038552435 -0.086040117547771660655 0.089940530140629179612 0.035457975277226300159 0.047903137468036774416 0.088674675346889567096 -0.019734392259888371146 -0.10036544732321563134 -0.014314294810503900082 -0.054909415723848185864 -0.027586658600136121366 0.044290596630387438215 0.12024033556947799628 0.10396723940647110973 0.00751157060993072178 0.0083615672799796456754 -0.076094386315143425215 -0.085488266205601889935 -0.074736365063030107958 0.058436964479154147878 -0.06168549513124191308 0.024470294687591799543 -0.11073544743560533032 0.069672934313880774404 -0.15644843449984929817 -0.089560283825250455725 -0.033008632354490738403 -0.073964152670060234751 -0.017807983222918440103 0.075674840315050159734 0.0013915582708963979662 -0.077312992269591054861 -0.031209425450096677651 -0.0055454194874646209681 -0.029996558394817851578 -0.012750500176302180869 -0.063255462209974508414 -0.058047392565305847012 0.069639723038661047183 -0.069934230469802988184 -0.081404881423545141783 0.031980607043583936244 0.015798891802530388301 -0.066573047541311353159 -0.11152704988285698506 -0.031423896235085617412 0.15892965144923934528 -0.079474293585875377399 -0.058201640620503369838 -0.13164343234947736838 -0.10039375094673182176 0.11908603427166954136 -0.038295475502307919913 0.093670618136219865879 -0.16289806406273532602 -0.043123026677735029621 0.12560809263238018052 -0.068137614076809169261 -0.05545985940818430604 0.094597412102560826663 -0.09304790284537184375 -0.10604720496442435196 -0.0049039839135618630908 -0.065421863206267985569 -0.12830059233216661863 0.011376722931672925143 -0.089081185504938126263 -0.048806297601122497487 0.011260177386118159701 -0.1080525535402787618 0.077260571443598852204 0.048569078271093441002 0.053826600110017733258 0.013761794070833213363 -0.13158391707054900577 -0.11810716353686291635 -0.091195209638741919767 -0.042072658934633043459 -0.041526090433318861572 -0.11909194568812084269 0.044144469258157230385 -0.0090197138840970910584 -0.043586744839655383599 0.069852227670079494737 -0.081025001425042986192 0.02826362545065965598 -0.094726121765418072607 0.0016908156096645630007 -0.13739320828862297552 0.13919387548351672135 -0.12491105950207302688 0.020333707784541955182 0.018326020384637681238 0.056144593412606254301 0.082003243789004545694 0.024584030153872147434 -0.072613000442327227391 -0.074931722621165805509 0.0041134380380898182689 0.044683945237126120043 -0.16016823322347803482 -0.047406554478374759998 -0.11757856152546299067 0.099751668254969838578 0.0059722773484180884454 -0.054745252026500594578 -0.11005782136433854557 -0.066588694235054854409 -0.064180706228922704271 -0.090000947928030664014 0.03387714713750234613 0.061187451981161974923 -0.044147392318885439466 0.13275283106899310459 -0.12490808965179708845 -0.13192724595196156367 0.028290660492113886559 0.10316379398121036659 0.091631622877055493581 0.041489917510152705959 0.077845012269119773229 0.0035889199627919055394 -0.093836573596026096045 -0.07473413707846840448 -0.058665832282125705832 -0.080188743425580272239 -0.058858138939841687931 -0.04782772972793031957 -0.071974623064943607509 0.047267797811207941383 0.013356242697520526522 0.085247973939607743499 0.12499014602919139572 0.002199885592868634776 -0.12005002110476009625 -0.078930740053157283365 0.11295267915331888564 -0.080932128447970264062 -0.036004548763063450034 0.095607604162179005147 -0.13109777309684561564 -0.006571283969760670883 -3.5282606767747800116e-05 0.0094529196170581447634 -0.093333305869231594776 -0.01990048195463786293 0.013008007023426563023 0.12875283265684034362 0.042352723134478770239 -0.11274659215668489387 -0.14659771245574909626 -0.026222688625742576751 -0.11602597216126764312 0.10111354584418127955 0.067073836843316470002 -0.01895173697760745013 0.092701367143374846513 -0.091378768990645509174 0.008617583472246849105 -0.078622201276936851122 0.025746296787923009936 -0.035071074180285037591 -0.057481562361736737721 -0.083092175365350934291 0.013765734661286227122 0.058520343915864123097 0.049313776867487717215 0.11514059071361604225 -0.072375079373609874089 -0.11686367707105377312 0.041367758528115763927 -0.13670791097987206042 -0.11897144520325311778 0.10629916634280583976 0.028291224698107849539 0.0038390307074351328297 -0.11625282672630003755 0.018567137700734717698 0.013000785013542594942 -0.077662419964826187591 0.015652218552144592928 -0.080439269785306355409 0.060348880763736470478 -0.042186533001450719771 -0.017308812681685308704 -0.093853642959972810589 0.0057481992999779468398 0.087979955414759031251 0.11996881909168112534 -0.021676823977088945788 -0.050559378862466239357 -0.034129522116934957188 0.10728906400302856694 -0.016443847822891956983 -0.1056404547603915639 0.078803973327546864014 0.069103036490852393081 0.0026300202918855698081 0.088838041655661448281 0.037917678230128037953 0.063160647183095802726 -0.050468366917574399022 0.054472252109933623487 0.1228375376144345138 -0.013112633637838041339 0.06733061633643003252 0.1582167336805090363 0.14774799887531056553 -0.072704678297704494749 0.066194299960534566662 -0.091375506134445338979 0.11219349010689202983 0.13217575074242729483 -0.027127065779464835243 0.050974946999536481507 -0.046819115631621631424 0.070048858967549809673 -0.11105169449157102635 0.15816288324384941699 -0.08792847555678955096 -0.082386426817156244162 -0.060495622158980841276 -0.11111027593509992251 -0.079406527199125748195 -0.062229694303257157562 0.071548068299545922177 -0.053481511051508112686 -0.050177732657188542365 -0.14795040351881877383 -0.12516989610338427608 -0.1064230469598020784 0.07753024952102449685 -0.12567684095310918679 0.10216523960636461621;0.10350355290908150319 -0.033512671823139994487 -0.016508388577012401977 -0.019030940029424358445 -0.055499688875326469439 0.16170682848568360135 -0.0091265557109469624963 -0.12402542026615773207 0.082685092215265820759 -0.079601925840683679381 -0.10070593805633465401 -0.054650413578597102637 -0.082104676800598630493 0.083406065440895363339 0.0075966805280625162092 0.12057851544779826791 0.16823130091247143203 0.079136415123561260065 -0.0078736854789019320583 0.096460478180458539277 -0.076223346042087428143 -0.090365287165533034197 0.065583946225885605963 -0.14493449358622564893 0.059713122175349152287 0.0478358169414853443 0.098941209602179669425 0.14276567283377938899 -0.15205178681987641109 0.11002326093421838094 0.017325141938083599147 -0.064260663414667351656 0.049434729404377278361 0.15706825390501627515 0.098070103944169886856 -0.023919728556237522532 0.08566509675955814862 -0.054080509249577399244 0.050960927458765833964 -0.0052621229494276677147 -0.015743306937690385722 -0.0045677903481765183905 -0.028559792455426898095 0.0093199913084021264453 0.0094478855345621042677 -0.046361117878299010209 0.064883794704679906284 0.15192472168334678062 -0.053086085355565852673 0.063190254018366351363 -0.11524063291113634255 0.011911737839700752006 -0.038549717424167670443 0.045414793122220374622 0.092699553085447430889 -0.013728126208086067692 -0.043504579099348530957 0.12430471966183034849 -0.008688150280357732208 -0.12627956732080511393 -0.11739431502317987377 0.062936945630516910599 0.11389395779168716427 -0.074201632237962833472 0.035852747355054212508 -0.053345800281544362986 -0.11809926100928622161 -0.13073983290994559137 -0.1080490515927550188 -0.11830112483046578697 0.1013793711734111147 -0.098353606926636624741 -0.08542600695566869573 