function [y1,xf1] = TDNN_ctrl(x1,xi1)
%TDNN_CTRL neural network simulation function.
%
% Auto-generated by MATLAB, 06-Sep-2019 19:34:10.
% 
% [y1,xf1] = TDNN_ctrl(x1,xi1) takes these arguments:
%   x1 = 27xTS matrix, input #1
%   xi1 = 27x31 matrix, initial 31 delay states for input #1.
% and returns:
%   y1 = 20xTS matrix, output #1
%   xf1 = 27x31 matrix, final 31 delay states for input #1.
% where TS is the number of timesteps.

% ===== NEURAL NETWORK CONSTANTS =====

% Input 1
x1_step1.xoffset = [293.044084778067;293.047873837639;293.294620487087;293.387415934489;293.56617670884;293.039854370394;293.393497232672;293.084753204318;293.07088928023;293.054200662266;292.882690969098;292.967790631633;0;7.16672802809626e-05;255.648834228516;1.99999994947575e-05;265.549987792969;0;4.81918286823202e-05;262.176635742188;0;4.81918286823202e-05;0;4.81918286823202e-05;0;4.81918286823202e-05;291.15];
x1_step1.gain = [0.325931660024975;0.326752676845628;0.426628451544446;0.345986874465065;0.361194157816859;0.32568604126439;0.432665483402963;0.327537448989321;0.408567455441686;0.360230317510269;0.472256759891732;0.361037746813582;0.00226678498664473;0.00467082245752734;0.0472233511170294;0.010091328952785;0.0540540540540541;0.00238801236449371;0.00368120536396639;0.0515639285393944;0.0026787064581448;0.00730765302345829;0.00277808228050984;0.00344412336193347;0.00399081435545906;0.00981512483774486;0.4];
x1_step1.ymin = -1;

% Layer 1
b1 = [1.8398497453049984518;-1.2141444457239072285;1.3325917863909635397;1.2429816383605778451;-1.1320152658734343731;1.2380500351874732523;-0.93282759755428568127;1.7139154282810649121;-1.1395832525753326614;0.80802752065951355398;1.5182363342079692181;0.78189528875195646318;-0.84182667934221611095;-0.93734697382910692198;-1.0233979629237053288;0.37397708702624388177;-0.58896087570912369902;0.44033315298882158562;0.501494423918090515;0.43984004705025048221;0.26474692265685639825;-0.23482201388412698995;0.29263366228358378418;0.10969489892953571131;0.065428452754026200644;0.20959874491231880733;0.1906988189650151988;-0.37696663991976048225;0.00017798246164956344362;-0.23310587821048955881;-0.47686017575012096259;0.5367520121794655541;1.170682528178997428;-0.60364676678323458958;0.074027640151560256121;-0.19163013976123835502;0.8782638439666580199;-0.96988635309328019574;2.1050576194335981484;-1.0159265778906056976;1.2965182966996979808;-1.0959513853206046541;-1.2005953043133887892;-1.1102767144298613111;1.399581757241385338;1.4251447713977329901;1.8791340465782864211;-1.5644986543015317881];
IW1_1 = [-0.28501479258632611558 -0.49268128286741019739 -0.33126927705054176609 -0.26511226909903967686 -0.22648135917023054509 -0.37135940054377764019 -0.33063970480086851689 0.15292618415222014594 -0.47978648328783379817 -0.24572439737968568285 0.48793203591799677588 -0.049750705025386469937 -0.24196544210443221568 -0.094540473251847695346 -0.089824903477590797851 -0.11798101171024587275 0.14497157296809348725 -0.038100328605426385387 0.026695066089312720348 0.18506326869140904412 0.090801473389995598917 -0.10658594257234842162 -0.39263886339615178267 -0.17893724083473247499 -0.092635520757593570185 -0.13110480266055607457 0.068043121750513427259 -0.14636559769460807945 -0.33340808436466912168 -0.28872620278609256728 -0.20683897649695387466 -0.25993373185199980524 -0.37241132948267846592 -0.41305107013089087387 0.20322509935349261645 -0.35446269788653400612 -0.20135778875171050917 0.57900331123462345229 0.042045111849527069814 -0.06319852631193073611 -0.055811692104124802083 -0.1150666584224797756 0.054568858261226052542 0.11406606136559878373 0.069301524908829362226 0.0057237544990485292318 0.015858612431082365346 0.14183850002525699718 0.020996748366767452321 -0.40379272424871909264 -0.14699510462771817054 0.011522808927685245298 -0.031577419352904007033 0.075760149276762986381 -0.08761233773031991412 -0.4109695682671757333 -0.21214961176163332768 -0.1489957888552087828 -0.1980735402338934803 -0.16961421069144663742 -0.19317622787402474738 0.17090948253399665391 -0.19935698370606480534 -0.054218085771285715047 0.49554063351488253364 -0.021916456225108932321 -0.081699052468822072615 -0.0052333447939983089581 -0.22984469155997122591 -0.0051060135437456912258 0.14187681680463562484 0.083927966657209543411 0.068566770276115199256 0.11091004566616019522 0.092990145925390357839 -0.03953643960621794351 -0.23525497761213676196 -0.091505018904483592657 -0.052646059831704096477 -0.0011752743935180543205 0.074799012337359499503 -0.052884594438345020051 -0.3043661863276198587 -0.33220316764497409556 -0.18493260388659255034 -0.024307539119350338175 -0.2796262449948497264 -0.16455863721695115909 0.141922285385270186 -0.1530066606300529708 -0.0070867894266008974249 0.52651332339004908167 -0.070480192971575483796 -0.12802586365788121148 -0.096676539477137335421 -0.13475722579606930207 0.060586501265740777544 0.072908124580787700419 0.033505427269822349312 0.035836553195250621384 0.016812132981376581159 -0.057860247233548940671 0.018470666223297616676 -0.13148613029387121176 -0.20885419613268677019 0.039944119690731513805 -0.061999530328894325582 0.041585054347238852024 -0.041536850864483609858 -0.26099269159920773786 -0.1723163906470488449 -0.14763063356182221098 -0.042113470587386618582 -0.15222150336976814078 -0.053118049648956076891 0.055846106821862043224 -0.12911491672228347927 0.051572603197567699895 0.54346803599990511913 -0.03662889758423678449 -0.14987378674780421628 0.0098392794362545266812 -0.19944481450568390946 0.010211691258393593151 0.098919159560846056656 0.058327375121517720247 0.042190258442224952418 0.056200412820772600864 0.028114538482010995035 -0.039869292728807209647 -0.14881564165566543712 -0.1342071454725575208 0.0066893180823049090689 -0.020232948187039741933 0.049260557897545451111 0.0057451924496423091571 -0.39333352740868010589 -0.17597291557296124154 -0.10532559621786601045 -0.021086299580574351803 -0.11370382970670486755 -0.20502519430879864726 0.028223811583176234424 -0.091409462261314272657 0.078690117942666337747 0.5629196264685600859 -0.061175937284321142695 -0.074951345080360248785 0.057924895071733220608 -0.068203539011315428287 0.10098274340743149113 0.040890640183076275294 0.095921907393710037493 0.016219733530460089116 0.022398325468284605716 0.10212308081962111206 0.018697990309240734852 -0.21303235847198523367 -0.028008765747961648918 0.0098563401207557854722 -0.11192687560067564323 0.030288908206527753036 -0.075933380892344012891 -0.36221339700907462245 -0.17889505509172823339 -0.10048336703612516241 -0.012761150852392152272 -0.14272270212503895825 -0.21747421039067960091 0.023626636277920630425 -0.13962994603874032129 0.022363727854420492602 0.5375059997179797433 -0.10085225871452686841 -0.15761405541243458939 0.050346151074119785407 -0.11928245158317374308 0.13482919761820377769 0.083961252747623588144 0.032612512448793130881 0.0061257682941359865858 -0.0064020376149479790023 0.038812714683848233144 -0.08037981648377356958 -0.20978238407959831635 0.0063434954705315713813 0.0046530486490917663533 -0.094763697102140970197 -0.035828147832440121467 -0.066023345534964292258 -0.31412042242690252358 -0.18380446218092308386 -0.16483188221007621932 -0.064947757837153646809 -0.18445099661263195112 -0.088489882568121777662 0.11079225428884072191 -0.067431603725126215698 -0.028674255154467309659 0.41963276813617839123 -0.14598945267862084574 -0.16263292371137255676 0.079742392985443041886 -0.16544637145438303993 0.11997080100075380171 0.064567955054732062425 -0.060758337110809849946 -0.038100321839116456368 0.0053288639769929696879 -0.035223567158467319893 -0.074285120093649154027 -0.1124961047244132234 0.086930069209789379014 0.011715587905174240646 -0.14821400004391704908 -0.099902117184176408848 0.052143059044376223465 -0.25230933174258840523 -0.07352738986272588928 -0.016033524259257577599 0.079094244065336924421 -0.10360655604707165456 0.017256837714034509168 0.051156634744337375897 0.035134346942869751351 0.042627063279061169765 0.54163833575590536462 -0.059652103398789471655 -0.062461463264969291354 0.092048742966193933257 -0.1324811620800175338 0.15051694557936409757 -0.032169000657935292731 0.063795492455731780956 0.01876582939730656735 0.047129016631734320375 0.042748587573105997772 -0.048290762038652942922 -0.11361651914207344938 0.097067173637882545045 -0.06086222872927220251 -0.12494891718490817867 -0.058690117379657624763 0.080926685575166051878 -0.32448795292375276489 -0.10995150205960109446 -0.02993420233420739443 0.1213840597620172157 -0.051843598348789439456 0.017807970138357311074 -0.006189826993632516379 -0.073977472719852874206 0.094712572536245639987 0.51028749690622043911 -0.072888812738634706223 -0.021333511942531455108 0.087250081835246046102 -0.11162287775206959639 0.20054155578297774842 0.00675839499562441888 -0.011376055448117799312 0.068457160398028765735 -0.065645844456693969171 -0.06663415435571874712 -0.12563986445667285619 -0.085948863229555166887 0.096508794680517054343 -0.013386684672805876373 -0.10220222009748314296 -0.010174025173661734034 -0.02939705484683920525 -0.39912853736107689606 -0.078696289999699853279 0.0083338785188687182492 0.099627162218448236941 -0.028287087703285428847 -0.088538580789959422934 -0.056831592600603393628 -0.075592208373699787405 0.13884800086345158721 0.46584560702301514024 -0.11874819196274326305 -0.023164634860787632065 0.036370751122433216118 -0.013291341256704310506 0.17233028009083292686 -0.039947374554264614144 -0.059272273666755241617 0.099964780289269153379 -0.1116490180066552762 -0.046698614806758034779 -0.058001582910100296653 0.014318059929741623268 0.15676827746976015887 0.02189575668319921134 -0.1313591180688168103 -0.020715100485790668289 0.0017287369227745972167 -0.25495393291261159163 -0.1988259562150533899 -0.011561059230938182038 0.021827596914727860622 -0.019347270996427631123 0.002390288208243935078 0.043521856656325935697 0.01986618007527653218 0.11446461328835609572 0.40698400555372477028 -0.18839072947023402516 -0.052089257770747854348 0.10126790397466661764 -0.067390960086983461852 0.26753667722015411767 -0.10996220826290457884 -0.11184921089329918908 -0.021919522532415178229 0.0061131178270444966327 0.022223453916195401447 -0.10094363974806828954 0.055892753154743707311 0.045746289550378460564 0.021306982340683327387 -0.16616334090848527971 -0.064049703633645274636 -0.045458391068056422379 -0.2549224792259038308 -0.18937610400961354951 -0.052185030779712066051 0.07410671942204452578 0.014465101444411552004 -0.0078757615899918784891 0.031202749666730675987 -0.0036497923828234316024 0.048597463548862240845 0.26763489702905057799 -0.18427420949600728517 -0.073296032077919195946 0.054493820521219447917 -0.056921579874719595293 0.23333247636570522698 -0.060709825510893759837 -0.069084131328206357936 -0.064862574470008010907 -0.00045898798126517951915 0.1053806619195554739 -0.10751290996202403361 -0.041924362823361295549 0.0021483155843374972596 -0.095852225711957311782 -0.14663772121790505376 -0.10339736524853045119 -0.079107407954044639542 -0.2776818167545092586 -0.077597772094088579564 -0.034240305651268419795 0.11811257192220793455 0.028871866813600103457 -0.025912440156984420381 -0.061757567715931938057 -0.053542355035821942444 0.11004586012133399375 0.20053594115836384515 -0.10015989216622869784 0.021698659398162182393 0.16438793235099277701 0.0038098103481359899339 0.26374612556542331721 -0.065664455863752427267 -0.13078436775011703652 -0.08089840263939250542 -0.010359754145710487611 0.03040393505098984081 -0.048516162251413509632 0.013751243635319401054 -0.011420513186157898317 -0.058779084927946034789 -0.14644617728729503181 -0.086656228831100121091 0.034192718565282609333 -0.26115351934224245722 -0.081030734076769375673 -0.069141571595816908591 0.16901235879678283558 0.016654971709357625775 -0.085151886889152594851 -0.018197839430818235629 -0.026380890425954716533 0.1411240376395290208 0.30374593035780200756 -0.18435925270969041878 -0.089907234870301888652 0.1431550569770633774 -0.045410433073086356459 0.14897853793005583212 -0.087651232861472375135 -0.038594634368000584057 -0.12938402722621092367 -0.096617944025505581029 0.052337314951882693559 0.014019906641780354936 -0.053231193368143858713 -0.074942145822142383627 -0.015100049516096270691 -0.17089548979513680127 -0.048266885831952537067 -0.039786428903773672638 -0.1369445223672256795 -0.11763037460969019699 -0.023349511817471704789 0.046150224931619264479 0.037303332044464836137 -0.0016998621585202519473 0.0048951631436918337237 0.023432925877393130654 0.14028084095575141244 0.21282970601196316007 -0.038032378137431897824 -0.010896936419681611807 0.1647880711123604347 -0.041221637573068618809 0.18898865916505747098 -0.021883888905789159601 -0.034245878604902038611 -0.019394060273977338504 -0.081293257588869669017 0.023155067541664110797 -0.019007027695509659537 -0.016611508120809477529 -0.15236366912771495685 -0.072596142750564557344 -0.069552351756973038177 -0.039740458917379796466 0.0022247502640116603549 -0.22012767734334029446 -0.13793472610692211755 -0.044929534225752243426 0.079930936984346820373 0.0013401901516603669916 -0.13746200318733492463 -0.0042393407424561055721 -0.16439878926690468242 0.14161254961684030529 0.18797452057052804753 -0.077525409962338726055 0.027835835995874344539 0.20213853342066603891 -0.021196832358153207265 0.22495402174029072162 -0.084326807422053604024 -0.12018279261194123042 -0.018619961162608788391 -0.077253574915429362724 -0.10082729809175208779 -0.054893668397329536957 -0.14122653877222968166 -0.18337998783655917734 0.063999531333562870161 -0.15363419539639025513 0.015652437715918576105 0.057550639015497090378 -0.16889022751550233914 -0.16723101078665109087 -0.019804068368835456293 0.15903935110524719532 -0.024515299030979587763 -0.02339569792406105686 0.054280540640624951043 -0.11822998038264886933 0.1247261510267554524 0.13571891585303613725 -0.1470204823489275614 0.069647027682354326061 0.049407466173937347742 -0.13604909835433903753 0.11371138679479604605 -0.12135396517281579754 -0.099694679874125627372 -0.037455744808728409778 -0.0095369428329371321029 -0.085531179266109855219 -0.039376996015009886609 -0.19779435233132222627 -0.093612720601451537838 -0.049803130315919416637 -0.071345018841410742794 0.013464888436864859769 0.063161333206804379237 -0.18271318344584688842 -0.10885438706147212984 -0.049736782582391080021 0.15166109855696796593 -0.00034446308811938877812 -0.068029096900312099883 0.06990169766100515214 -0.11503530196511764505 0.14962749485166221275 0.19226917093521758706 -0.10712013378514945172 -0.092736765648947061536 0.10936577631742518124 -0.0022998542638875763347 0.22392687494819929483 -0.10119941114839009488 -0.10913205962897526424 -0.14835234948246039943 0.01292198654671343136 -0.085377433903800800663 -0.027483170819431107512 -0.04295716707477295615 -0.039233007569868583175 0.030424175001311531963 -0.13017895996921127755 0.0522900903595806682 0.07204730882318235996 -0.27880927900756613536 -0.12131528441084075964 -0.10539654352662358727 0.13321621051620219367 0.017671506595809311629 -0.049589638417738453324 0.13908789012912398109 -0.087551159502270173296 0.088047880789993093753 0.19565628068112228544 -0.065143944230528535999 0.034646948953790591974 0.084669095719624484775 -0.099329347297542072703 0.23315235300742120916 -0.11414186287316950563 -0.13944688834681981393 -0.13999658868672348877 -0.041317711513853612459 -0.13305416360932861841 -0.04020037999159265657 -0.019998600851626420483 -0.076155905602585186043 0.10164013305236743734 -0.084367666554511666632 0.054849932920111199586 -0.017261963189159807569 -0.1947671498853288663 -0.13735688506235010919 -0.10001878863391548691 0.12651234413754863795 0.076046537976317621355 0.030695914222342527561 0.051620060005291082406 -0.084146148327511466336 0.026774130477590227933 0.20461054058360575447 0.01898464049785521246 -0.056966404235936317357 0.067667018533279665871 -0.04482869300276445812 0.28545682371524511156 -0.09992282573868314921 -0.075000102064958676373 -0.15643227027582326527 0.01951983926196549507 -0.02185233238241092793 -0.053758683533866133408 -0.050068523118026432572 -0.076897752554172013606 0.037682855996488510975 -0.068723827343661947342 0.062393938864548276202 -0.073142558076511696163 -0.19090537627634346363 -0.082683368072669211069 -0.019410026748707818328 0.11000790626728222665 0.051980358194964909613 0.027574463646736043637 0.071293538541037190792 -0.076063934961320078809 0.040509574702035672233 0.22850995253052000522 -0.059112574912869267352 -0.023834522144228952045 0.12957031079732550527 -0.0052719915893092300641 0.21877869926225468333 -0.029201585534644563386 -0.22330902926263795916 -0.18899533247448324635 -0.089781699590859423421 -0.090931278389354663894 -0.057675335682782366553 -0.074012630491136585653 -0.030494826944926424483 0.11124576944158223735 -0.048067223515490690999 0.055760216106870992558 0.076585044809877045324 -0.16890820137012632629 -0.21736952511838547597 -0.10065262279976419646 0.060234446405207350828 0.042283617503876762267 0.047002758303333461165 0.04579100244313721868 -0.12219999455085624185 0.062332006391001261447 0.13619868476748558939 -0.072796033318706043769 0.0049492002460958632593 0.060191575227638599577 -0.030271727715548164134 0.22875720374367711218 0.054394486842014082295 -0.1287584975739123061 -0.18020964078381218609 -0.047309963457917603158 -0.095257443315976131348 -0.041274067934073198349 0.03842105084518698116 -0.053611050912831186011 0.0014997581591084572193 -0.035597488563041346232 0.084564510907911102922 0.0270136004985973531 -0.13075167561349868017 -0.12882765464011763923 -0.012859546658952201309 0.22167605645112681279 0.10868622130575116003 -0.010349740427586346173 0.076130134723048997758 -0.011417403900016658003 0.18483714422442990011 0.17254320810739010028 -0.14371104822868630002 0.032430993399385356357 0.087856231121111516558 -0.11897671561443706745 0.18618465160572253425 0.025367135425094167189 -0.099395142671697273018 -0.14033365764936242548 0.047310106921877648212 -0.043498257930563721807 -0.065200188109803644543 -0.11890245688237809085 -0.061042976193027127796 -0.062353995798448171028 0.032778174909974568119 0.055960926893861395737 -0.0089451878287882761326 -0.1758202954989243616 -0.02676335160857937906 -0.0038663262098833886711 0.23357115609477557827 0.20301923261976270729 0.10540877748419098803 0.023510482378891778277 -0.065558076530292594408 0.050784224969717337017 0.32747335496465290738 -0.065043847111480035394 0.070614015249371844818 0.087688821189422158642 -0.1321567278413356139 0.1670423959323077967 0.16484730576896733378 -0.11892177474569594342 -0.1026215079116311879 0.089641037929622274794 -0.14767507337630150777 -0.090948759556938332804 -0.11475881944252394606 -0.13043559263992277053 -0.024332739975014176098 0.0017538309686833037683 0.044092118536478812352 0.10849029949636586345 -0.07577598698726961679 -0.021793727763921945384 0.097666287713147614813 0.10819163444439482136 0.18960575073874735841 -0.017317857622725949668 0.085247475800676944524 -0.032442636958562101612 0.040506518360454345229 0.27294381664804351351 -0.070258888832985214035 0.050844585113256457465 0.094131754709378512302 -0.13645135250570311625 0.051613073830199265868 0.16584531261123228174 -0.10853789704923835768 -0.052186239421642299785 0.030063112601276576613 -0.12038499967913530997 -0.093306906427333580201 -0.17750972721748436989 -0.087116296476288157535 -0.093374722715916236293 0.027793575475222830756 0.047785738826511360566 -0.030670505700518050501 -0.22838581873252414289 -0.08833999412080910385 0.064941907845367685681 0.10029445462169399306 0.083521856618276671402 -0.0021237539082230288273 0.11783299133468991271 -0.036752319249303361248 0.1527014745802960094 0.30807899949409889295 -0.13309836745606734576 0.015862201973738384447 0.051009062980787479857 -0.20140532959577922556 0.13052564324882220959 0.19461841717425620857 -0.069302851114559832491 -0.046662093685482332328 0.046590364671919022588 -0.11845069975224123415 -0.091584629525115798798 -0.16138323493486800286 -0.10337580268188989452 -0.13542917802370038616 0.018105633608700020393 -0.076259344854854901885 -0.053432672888839974346 -0.099814173225380581345 -0.051965739444630155985 0.02262330014909663678 0.20469086474910935802 0.058677665515189290912 -0.01385934620075062601 0.033920207117036055289 0.00042771161668372123087 -0.021236153964302596775 0.27672148839275112486 -0.038304947087396144789 -0.049578779465471817245 0.10119829893321993786 -0.15349889694617940838 0.03524840202069965539 0.17125501954798855175 0.030733552375787013405 -0.034243729740224659874 0.10927010337504687587 -0.10161148199249561697 -0.062525111034506378194 -0.10592909870296551844 -0.11650762913325483916 -0.15729728784812960218 0.12737694258518256207 -0.077218600417626251375 0.025337554897333910281 -0.12856623291610316806 -0.15330884313541440211 -0.034906107525769607125 0.069812825981856299618 0.1779421952372974014 -0.037908160167827310849 0.13458696108236581357 -0.021974134087164160639 0.072252228022973749577 0.31519999828830408406 -0.10624656544575211692 -0.1462200743568710104 0.019807790576617797379 -0.18570885781458582042 0.05586103601367257282 0.20691829954540102987 0.009714910102133877956 -0.014825891379582985599 0.061720938090493449035 -0.0096030281611067733194 -0.074561195626994591912 -0.045387779290835664203 -0.087676812354933686411 -0.013463711674398651241 0.084202456197906769275 -0.056397097014274116811 -0.024086987472464935905 -0.10908094705112696132 -0.12465797732321197422 -0.048502493180056283073 0.081555863997596289572 0.10296012083231677325 0.036753609137242175542 0.042158997480603421781 -0.12982361646241913355 0.012688094717687311078 0.19442640169489380786 -0.10290070516417416935 -0.034190924010155679391 0.081319667618669780329 -0.28310485222737319377 0.053215810766017203337 0.34489116770243544163 0.049221202330468311059 -0.0057514520163417142198 0.057910470997018161088 0.065645133894153828713 -0.15334103667180867814 -0.13052167326752173171 -0.090054480426231375834 -0.015256471890478729564 0.041640300456381444671 -0.093274814289123861299 -0.053256835874128015396 -0.1712631402764941968 -0.11945412535311911162 0.025869045488503258912 0.036497504457108344289 0.15875800665622824548 -0.03161794959692219853 0.053036445144061541979 -0.15744242397448046655 -0.06373490987123069107 0.25458887903104659989 -0.0032620812455309597215 -0.057891051142451445399 0.0065274101464618122792 -0.21904998197477526523 -0.017920003698162975669 0.37685793878714518579 0.061953509527812256064 -0.011753448418192900121 0.1003180336532128597 0.084914184450499835544 -0.11729094534285630647 -0.072786345473776173365 -0.059070382258452611146 -0.10684555933851287712 0.012658648047891307015 0.066652956901612117613 -0.10740378261171835972 -0.24020145828238664842 -0.097848980978484156878 -0.061129837785454589627 0.1145616999972227934 0.01579469183808804994 0.023592300391765907985 0.060487845353944837135 -0.072495647576044167093 -0.043765422693252439834 0.1634054782884506174 -0.15675002052153849674 -0.14760276797071403276 0.095450997310448246203 -0.31887793013525278507 0.10478743994358954983 0.37000811364427227401 -0.074342312204825178323 -0.031124891310473343231 0.058268495580713237925 0.11298595105930243909 -0.1707498718579403274 -0.23439910070692332456 -0.10201267096770455511 -0.1075051105722460848 0.14215945248325750905 0.041292159707585381068;0.090980642304305567314 0.13537781318155500676 0.083777464066014037392 -0.053116796190296737545 0.084984300872940968241 0.088500038352117588181 0.01366063057828341594 -0.014831701827016655765 -0.049777904283809362718 0.0024292886489363004626 -0.099392197985353633594 -0.001975096512386626587 -0.018006038187591076605 -0.033608034294420802146 -0.08588412746060077041 -0.0025135680039649987809 0.049027639777541064114 -0.0021055399478179938171 -0.18889153793533663972 0.014961885802941733356 -0.10896928182185448841 0.027196706083829912809 -0.053704808403803858119 -0.018713932501245134771 -0.1183397926372950909 0.048650824319204005741 -0.32786429971038377751 0.050865330520423884808 0.13756763917864903157 0.042094374788831691314 0.068953379755443106047 -0.071530099433445723522 -0.04816714911002700078 0.1090150843209273801 -0.0081656625079171828857 -0.038913584427104026819 0.011195177013089290669 -0.11177837231036574783 0.017485196271549829222 -0.1089605703539505005 -0.020208465313166029675 -0.11809954288078623741 -0.094086210447380622113 0.039196328314125249148 0.068302986007823349168 -0.0902171581431707309 -0.077509825487013211953 0.049722586537342607083 -0.027620994941541018169 -0.066631414346232917256 -0.058434671038769328555 -0.081440994222938822844 0.054143064061397731812 -0.075274636045406462248 -0.070719787635025316286 0.0072197138201303065475 0.058447561343738435591 -0.056038359164005568935 0.038910882369050214802 -0.034333239081179481311 -0.038581345663529824364 0.055795869847265505692 -0.035933832660400288894 -0.034758545147107196283 0.030875438276292754142 0.10717156461679167023 -0.031388143960202841143 0.0084393031225180829141 -0.077381524823375305577 -0.056648268486960196011 -0.034133623092433756918 0.01914854360431673605 -0.09260164447178985403 0.021599019121988832781 -0.0085913273423239566728 0.066553130700168425249 -0.085715239049430375085 -0.049548657892631270405 -0.13349429323515848989 0.017750324858412627055 0.075365926036242245067 0.074391561068894329622 -0.011876306698153248423 0.006961390025793784235 0.035217837754388803262 -0.073247125510947475036 -0.055821204886647483867 0.076734966271123250525 -0.021903352854191544818 -0.066497826166522375213 0.003284437835839440923 -0.016425559740656282132 0.1098345943130057123 -0.05522580463904901843 -0.088010147623753448576 0.0086404039127036414564 0.003204875329201546056 0.059040155403649013932 -0.10777833602215036723 -0.083279130594857836423 -0.06132732316537874151 -0.058184214344596099644 -0.080073541739053316624 -0.013951290592968675769 -0.15790887621392984963 -0.10314813522820952263 0.0080116610975198444128 -0.016438277409116928973 -0.022088736893065220174 0.11932866486039707399 -0.0098592359517197716151 -0.07124803116740209552 0.067917291837317456116 0.040663032551150057881 -0.0025067497997886302452 -0.063618120087177057465 0.0040971463782691610808 0.017476022119174441927 0.042734234088021898212 0.070914639020627973087 -0.030410233048400722722 -0.104678080698344389 -0.03608572227771169455 0.025268397887830480741 0.070149518950714750964 -0.10136357086963890262 -0.018408616724139213044 0.088102309113610347002 -0.10949135712704352597 -0.080809547641162188247 -0.138485538070030334 -0.22872982978642952823 -0.011260493866425183226 -0.070845687808347879155 -0.071821898909856282667 -0.041204443878086395581 0.11265111302808045179 -0.072864933296457504164 0.00048287839281454121012 -0.017834431161961858403 0.01472874938055383949 -0.045878992478750116324 -0.019074369480819006878 -0.086535380101556869104 0.065984450142398232142 -0.067532514363659562617 -0.068887732826157746513 -0.010694582197804593238 -0.021594683901116167729 -0.061818451833982580867 0.048226459829008812286 -0.018431054969676691907 -0.085225975927908370622 -0.024602573130725349793 -0.010609469883218213687 -0.018871222209573438461 -0.054421822005106770814 -0.032379857917015600344 -0.10532275812167268825 -0.070396356002123100515 0.0055304053574825179362 -0.11394032493114635007 -0.026377267104588458801 0.052495660342751895855 0.070565722526713531293 0.018088541818215231327 -0.041600886295459965636 -0.010923580199336761082 -0.0067115320350330867627 -0.0042580830798900140555 0.053476133922410969135 0.037750776831318041959 0.07123657347792516914 -0.044958136104676943434 -0.028496475167637820569 0.027916050110304208021 -0.050481318296666390089 -0.038513902972658879686 -0.01621553771514859868 -0.010939465942724921343 0.019326515701939949582 -0.032828600164070027845 -0.13915845900758316844 0.044215723738697428058 -0.089889989004236836578 -0.10431385013334741607 -0.14181730727665850522 -0.04254704684920516955 -0.081162961603104766262 -0.0212718610650225598 0.10817542321865723787 0.075078202667180543584 -0.023388313946130216692 0.0099217588774258690804 -0.090313496716983784895 0.049350142293096393997 -0.019240152615501868172 -0.041877601732510552623 -0.061845250349733371653 0.062011774751136859718 0.016728756797743011414 0.073514679586546963219 0.03612865797480951241 -0.084232095782561744457 0.011996192522424056412 0.096502637755471604164 -0.0092461774155472679915 0.035082442862345707135 0.061535698235954748581 -0.028155282522239914733 0.066062705311868544222 -0.099433000961456546873 -0.0017198178558670159342 0.0053502379189427455575 -0.031760581657395203781 -0.023792135454777468134 -0.043129251612954028205 0.015099630757225644337 0.026352578806069844319 0.010725055642331449146 -0.054383178374056567739 0.027197765246677257228 -0.043109339912636067405 0.0041790024416798578558 -0.089476084780822098819 0.046358544685925290318 0.030834500485674092018 0.082567242300962337409 0.0067032261576674689874 -0.019389664144699628179 -0.031166260737587193896 -0.0095030580217996471482 0.078881927724577624583 -0.036796373730753409448 -0.058801517783785742233 -0.06852925510500397499 -0.066874317324907367466 -0.066828728672942955269 -0.19582054297026188494 -0.072124221411993275077 -0.061104733617264740675 -0.046844806098447162868 -0.058269652358235932144 0.010939656935004159893 0.056167419991619754738 -0.0050428324312794094511 0.0077947924728858745957 0.034310950743201798496 0.0052853533599015066133 0.054143587365473526407 -0.028978889159668553416 0.033831039440819971054 -0.071353530237515214174 -0.060623015009813277509 -0.042004538040660191478 -0.027330165319205630692 0.015193478674684022037 -0.089656464358050816377 0.079716258626502126128 0.1084891877928843007 -0.076135629236743981862 -0.011611919888310614363 -0.022708713270425184144 -0.095016702257390159292 -0.053229131030095008792 -0.11363401987566332241 0.0053521083645257710656 -0.077363241118732259394 0.059681233900839493478 -0.11777160103529915602 -0.0012146731986137670242 -0.0023298987379845995972 0.066554090809772939452 0.044379614051365458283 -0.032152654777910752437 -0.10388005436686824356 -0.0018112892784202228556 0.084526677440521100215 -0.058715276558096947401 -0.055955528025659125035 -0.020112388751838884693 -0.022955930246996159028 -0.033452483215710690501 -0.02687019106165149801 -0.039551032096929672477 0.052830866999909568971 -0.035110673481913323712 -0.10928457434834491779 -0.10271642948476235324 -0.025237641346070392723 -0.089860064655384194743 0.024157314680657345635 -0.070090491197214555008 0.018074721184701051518 -0.098235381771616919755 0.0067046473258656601873 -0.068575993389072747997 0.045038781276523193187 0.078580391379339004088 -0.040801213114813390803 -0.013189420395353609536 -0.026449074710817855466 -0.082239392250014323182 -0.044504889873811286083 -0.0056722689191775000142 0.026577476262966859277 -0.075113972529505385056 0.079913083977777923939 -0.041916316691999397359 -0.026739224636872151175 -0.080620827710836548419 0.014979753450351374414 0.0010619350040866528534 -0.0065106642866310498324 -0.073570667830293465239 -0.027833652033733637804 -0.0039704773012343630087 0.016230104728386499091 0.050253936162397837284 0.07307954345917228034 0.043996691602644084906 0.0079226750399931031299 -5.983209310545125172e-05 -0.10169367678403082311 -0.061085623362979533935 0.083113824320936210976 0.027689068144767049751 -0.082404460881864635691 -0.035430606551670636162 0.0024981155817007530753 0.042367996069889786448 0.056205787986562422143 -0.12201064626407150115 -0.11363963340517271861 -0.053094754531762121397 0.015998037870443026359 -0.093322914104176396544 -0.036996990605449621425 0.036223022544216325336 0.035525379979828956845 0.10360717291511442606 -0.0790935889639555606 -0.012418929708749340893 0.047421993490358603507 0.030229491742288557704 0.057954199230732660053 0.080139658680337816365 -0.013119361757934320731 0.0027455367808957732018 0.0043390350643035058634 -0.10148926143492446872 0.033948368745381062028 -0.00081856592805068636911 -0.096251281243292574619 -0.031896158581758357609 -0.055239894914589512953 0.0013146643906375087788 -0.058177281101144492914 0.024094715907198201166 -0.15100380498777185578 -0.038484579106510777291 -0.065049549836806858094 0.028086392994487018732 -0.089982034067614291573 0.023732261174198160392 -0.083184568534689751207 0.0066879133690253235109 0.076625204858750253778 -0.1428301881518180827 0.075256266040192795752 0.0031194500877267466142 -0.035590152661310499316 0.024810027816129863465 0.11167824569972503723 -0.072135445679295390198 -0.0035288519395722780028 0.034135546877845625302 -0.060699498919639584271 0.064020757325558064199 0.0062482276191843542576 -0.06351397141153537762 0.0060650601103223950386 -0.074813957576972595076 -0.042699987732281258213 -0.020238102705964575861 -0.057359991509401957177 -0.051346452070018568092 -0.018250728677215746071 0.0092043507875308391841 -0.020720360109367983587 -0.081240870422934319262 -0.0090449120000643083717 -0.0055493507755136773502 -0.072910721898860414436 -0.0036110031307908458179 -0.025623567315770302139 0.048340661980789081942 -0.0065922748434925149477 0.028045682139033356606 0.0086032216092256207779 -0.01217389798271957882 -0.068494352115034198847 -0.096220859702911748501 -0.082897049833382238648 -0.065022100232414878351 -0.027336868102314160894 0.0073097038997622324624 -0.072317569085803487527 -0.0070042102872092757565 -0.067745377467189213383 -0.085537005725775924758 -0.048312469817823590346 -0.037562535098768196073 -0.10004334086215244115 -0.09556805831687242847 -0.058618395117175502163 -0.061719253769841497803 -0.076296153824463336379 -0.108966725431378475 0.028052019704648368387 -0.003739890224945813333 0.016918275194987071608 -0.084311736463462849667 0.10987874395771915492 0.068642854001819478271 -0.11009423625481359887 -0.11529552518714074327 0.13395621736763899112 -0.072268541066386984828 -0.12108729407639762243 0.024438472078109989977 -0.039848243595391540095 0.043713285999168086104 0.076723117385722156003 -0.052616045369856152825 -0.078555547518779592076 0.0062137732579167761701 -0.022474031818570900515 -0.063482373630690702715 -0.040919835524457312537 -0.043829076361944871443 -0.0700509970471804716 -0.021349117221476650308 0.036294177431780018372 -0.060270445130419209034 -0.07070463070946240991 0.006879239267501365343 0.00067521833332802631226 0.0046558049129206248787 -0.088282981974365737354 0.053835735859459346586 0.042599218850867405506 -0.10982969559278682459 -0.012305937710924185272 -0.00015625108610511041969 -0.086053176839688591548 -0.040488068354071683752 -0.097077518468956236486 -0.025941822714946962541 0.052091527840868706578 0.10050453327490697919 -0.099449233229844211102 -0.004536233780343778936 -0.02607800713483665947 0.0003222572342167047345 -0.037442472852443148268 0.0036012680347292341625 -0.0046746147162532924665 -0.019650927064992742416 -0.008648006684217918183 0.050903135121250504824 -0.010013560552522105668 -0.0073180762918228650996 -0.010420607040591623946 0.018243335306797843487 -0.031631681861782008636 -0.085422861266852764817 0.16208444718022679831 -0.02457891407276891968 -0.0042660310408957772058 0.04513124313528320275 -0.011425311814932259322 -0.008685886379897828774 -0.0053604936741745157214 -0.015537126915326823079 -0.0046444936749244205773 -0.049423415341938628509 0.09698397992246586552 -0.078051068549024660292 -0.097463118036736740013 0.034336309672660013381 -0.035000232399648507908 0.0024558068930329540573 0.07824912306721729105 -0.021245037217469502078 0.029921933227738416183 0.029867095588529492256 -0.036287640058603742865 0.038878370145324997464 -0.05223143484749252774 0.071715340403609634246 0.046570229466698767617 0.044119247288121145323 -0.093355297413696761155 0.077041730717058179434 0.10848988095421747968 -0.063221756288674921254 -0.053524164160393086775 0.036217507791177015741 -0.10668573880616147309 -0.14912482565628751296 0.023219547104937138943 -0.012360847247610294575 -0.0084919190389160775084 -0.013776434554004214628 0.018847604454608247321 -0.1080954026589560496 -0.04163531859040735944 -0.037684654307553640262 0.04779310232355660909 -0.073566940485957341145 -0.10267370765857480874 -0.1039930994713921808 0.016867226796883186962 -0.067024012183787770591 0.027243593870456900979 -0.032811304891456220811 0.078001245416189093906 0.054189106160625458153 -0.018362735626504485265 -0.030489732369229947256 -0.0079277776504849718775 0.058193524312699078382 -0.043463205961389722587 0.02536125666599275269 0.0049394029657418144982 -0.071052136482095781811 -0.069275078449902827149 -0.047112088653847535025 -0.0014912753835304983982 0.042814617924475904809 -0.043581519292728930492 0.0075067358137795737322 -0.014730638095625124898 0.013031213309916852422 -0.067094063127494066312 0.074810688142888714935 0.062776878427987903297 -0.050279600390198318782 -0.10592536950293407472 -0.014341939763078497688 -0.0007791662800673171841 -0.0034511187106084136728 -0.090042722510357692256 -0.0058992028728355339756 -0.035384967257248337025 0.087303435716811469969 -0.019562466013279801447 -0.010562163387816944637 -0.011013600363056428796 -0.1053459210388777989 0.02535191135800182391 -0.03413084425529354371 0.00036448048157331565562 -0.059779603152974800095 0.035329918581490385443 0.043290262546011246125 -0.0057404361799553525053 0.047758792735224049608 -0.0048484695633613274224 -0.059495001799382787877 -0.11633019782160526623 -0.033522444267567189091 -0.0089146515875709771148 -0.042422941280100039119 -0.032304728039653438088 0.020570402514994510362 0.054891349666605734892 -0.066195035457298032067 0.0041645820647588458613 -0.081654199857970108378 0.10885144805112620392 0.03092970190466147809 0.054789371472789720474 -0.040978180788895791908 -0.027257167037740018256 0.0081272752108925930964 -0.10911475749846190342 -0.022063786348268478454 -0.079858013842530883863 -0.010314410060220017759 -0.11653697628160840372 0.066011829822112788602 0.074065306149213583353 0.054020345369502689725 0.026228743426139324024 0.057922521164976474572 0.055136908712576891689 -0.10377756693259120035 -0.10491853029676695419 0.046121752042751630596 0.06078333678352854097 -0.13006519374267580536 -0.083741968937469976608 0.07176955279912951291 0.049879933313353698454 -0.064015310529490818126 -0.080368740253163498122 0.04443984623168464182 -0.021656811913247919765 0.054190952303787787159 0.027072671321486725671 -0.067604396588031523407 0.010854013654796797542 -0.06042111286335741932 0.059312680370443460198 -0.067591750766903657688 -0.006398667386643939331 -0.14827522073244323031 -0.0051268466605424419316 0.04834321528796925449 -0.0015543998123936869724 0.063899040633687023694 -0.082593348556233667224 0.016373719738288553677 -0.026937241153289957774 -0.13425854658838989875 0.015422726654968969134 0.017156750656290700729 -0.15040805245815139224 0.030057536914922817345 0.026242704172043149202 0.015361659971788677037 -0.059959879488872977471 -0.012577894236349576249 0.02426683911999174062 -0.039371288944998049375 -0.0040252954179468220311 -0.030659995761285179644 0.018024488581492394135 -0.015339796603366824546 -0.12224162301469980452 0.0050699011827518205425 -0.15033032766771348143 -0.029177938405008759654 -0.12677539525236172779 0.077285177323161480256 0.020572621355808663052 -0.082126405704006935626 0.088556585511786620191 0.042531509483914847758 0.04390745648151775371 -0.035513850027092584705 -0.049513172477582613473 0.090063438925857927653 -0.015105559996345288565 -0.089294130337262161978 -0.017592195097172955154 0.052156823545017404198 0.070982777746505895666 -0.013957922466770753336 -0.064153495527832060663 -0.10983607649221525937 -0.022312875015048611038 -0.020425859067753269344 0.017172696931249828434 -0.082787031747696568362 0.082293471148861624398 -0.068879547483703729149 0.012445098949307871819 -0.089394226247992175649 0.012833791778366632208 -0.049544495771749609558 -0.038663155877009899863 0.026093940996049155845 -0.077875968304633030881 0.0037634206187237752989 -0.062271948366218750348 -1.8883979823684371841e-06 -0.017340515649978755636 -0.079485778505917453751 0.036396916525565613243 0.064152087622104156384 -0.045961227224989104068 -0.088436170214552814461 0.034387341347869276875 -0.021323263155629608445 -0.062336470202915598982 -0.1571354482601289293 -0.069227744123439252655 -0.0093330963767699112038 0.048456977129614962896 -0.0650953383839264349 -0.0064103264145937421947 -0.037150151173407315597 -0.0096244114012719733653 -0.056958929872627364621 -0.041767864576272441257 -0.010396905890211572548 -0.003891815951243016939 -0.021831312723526775238 0.018483106997652397341 0.0071581672689270160748 -0.042002814513904480898 0.017839056770169697819 0.012886187633776659961 0.046342620488333562123 -0.066610476300397514215 0.058796036735028714415 0.044946916450043249147 -0.035479381537051879469 -0.12201362801695163351 0.062798535165413407744 -0.066751000574091043371 0.016864784914782774555 -0.098485259626644242048 -0.025844560546887381663 -0.024119761865445898952 -0.044213288021475380396 0.045055576924865156641 0.0029026336567746376625 -0.014583787143843328707 -0.062447481755571881967 0.027561402637519279157 -0.10594145557672109137 -0.029515025154552638337 -0.078886914986234638048 0.034444784646832114772 0.088398758817884268146 0.0593827279736890562 0.016042646153134037385 0.013960438546694842535 -0.017428768180624089335 0.018757963564552653651 -0.11749281053853090351 0.037481421161586078727 0.017578828364604781598 -0.043380182242576031948 -0.072288417230262955182 0.095855949232768328239 0.044006854715642751419 0.021430842343904028813 -0.15160729033258160681 -0.043297381798223608107 -0.10146620817342012766 0.061082422314088363757 -0.02863117361099856012 0.0042693512623563564801 -0.0031753663377463176715 -0.12008086466165544814 -0.1038857597868773075 -0.083897133468886248009 -0.02633898755587940621 -0.10399448605685930602 -0.046465720523402836983 0.034520035964522861882 -0.060316951631176306259 -0.045718479735911886352 0.083781788156754535835 -0.075003140368054804776 -0.047431465691418699115 -0.046000876264399200022 0.00547227735629606752 0.086941077509997924389 -0.059877181837826934374 -0.0060980425247225246779 0.031973500844207809746 -0.019099057000215559354 -0.043544589016381848867 -0.11558007935788337794 -0.035271787799940917951 -0.061412990729406528867 0.094582922693944013193 0.042216118288628132205 -0.099503769377260034568 -0.0065247072481241039782 -0.022716147282431545934 -0.069858310953046134917 -0.084340321049768712802 -0.0063167888129667271874 -0.10004201604259294056 0.026286179230347220259 -0.0048553498551527143889 0.029600314255031172361 -0.038008526157673534762 0.093335652470309032891 0.030019651261140315596 0.015862842118136551151 -0.1018449497067791254 0.12718360915129744981 0.087083560716617894326 -0.077523201074287229062 0.046935484184535296304 0.029156488584320617435 0.100829565291345985 0.044189335317044040052 -0.092143223078696850914 -0.072285463692566262472 -0.084701526298226914591 0.051381324443004493252 -0.068507777143996043123 -0.072152928357331058695 0.029726565571361166646 0.0058613131445933710703 -0.04081201958211786579 -0.099142396903760351967 -0.0029836707300961102032 -0.088061194220111299602 0.027394642180608962112 -0.044613570764253325518 -0.0059862277775817292549 0.098867428429815551461 0.043721895255743999098 0.0049590043275310954907 0.076764557665359361982 0.0048865092602258285506 0.089403214176031545191 0.084260945516959090407 0.022042022390548424854 -0.057632332647817377524 0.047446018056353823911 0.029945328004547196177 0.041183562709573899585 -0.043304914315446800532 -0.075544919401436427808 -0.098277020926648084309 0.12248574252262726947 -0.060301387155023838949 0.040330283306396395859 -0.042915053207077794029 0.004853690592514690004 -0.0894013123239612989 -0.14620344030772430832 0.038207976114668022738 -0.10573482421308184886 0.10357699899850038305 -0.024551402153142495161 0.097288010595626958632 -0.035739528810086691746 -0.01409898644672065611 0.06696335358542787608 -0.049031600273630612796 0.034442622090232744014 0.076319200049387789231 0.024497242190109309173 0.038770414225461610758 -0.02245675396148395786 0.13238830011965219136 0.017796913370562925105 0.0079129210395428757618 -0.0021547634491526413726 -0.057634126615035044527 0.030648683002866029812 0.15162421714686655227 -0.097738701987670109639 -0.085259185803660347824 -0.047047736416249721914 0.0029949350115098965532 -0.01390769487277779097 -0.15423441466405674038 0.056872002647796938979 0.0107706612813850168 0.079594280300809658324 0.026477600381426272952;-0.020547018947579709369 0.08117385419412383174 0.014088544294065726351 0.043327299771673752349 0.035369001386232043482 0.063620692002100326379 0.016421066553261875337 -0.057719941864372431573 -0.013688170782780962817 -0.053681946497293082932 0.0015819633061657735387 -0.00079111286410159188578 -0.10129076164912735603 -0.011705006445317552369 0.021879115477683327984 -0.035093150047371492184 0.077882958152992273759 -0.03690808697753496237 0.017732380018473783978 -0.068437341509907642645 -0.018468645987175034973 -0.045896143993247928705 -0.038071495603504666716 -0.1070478341475603612 -0.010224521483310860387 0.061930865458111036825 -0.038596696448941911206 -0.034976455589765614862 0.0030603704527416312683 0.053138388005491622723 0.032532014731129453577 0.052705438171804279424 -0.061865721918597904594 -0.065416906507341485155 -0.065386227161368312699 0.043471092202293837303 0.046753681665279295254 -0.084931172334958768277 0.011224637507794028163 0.04669459865986469449 0.00091782689457677729683 -0.0093078352103533532058 -0.037763707834959463205 0.059028152086127501363 -0.058462413788828548888 -0.091664504179379088789 -0.078527062871674227496 0.021740135520819686699 0.0001016035099090665183 -0.087732336104703378954 -0.092524064009430362354 -0.093434146758248196041 0.034135695929384278491 0.077335712583791529906 -0.052246721105828231035 -0.0059993608520711554088 0.067590665380237210935 0.02562836098728096465 0.063166584814535034487 0.0041534704573203224884 0.035692157686881491319 0.011816538377040304922 -0.026710284882354426439 -0.036068642876479845016 0.065248668663338477147 0.052738296921875225942 -0.09543954536997238669 -0.075572847470432594208 -0.0012350787807478636263 0.0444893793970985163 -0.01872899670039781736 -0.033851564228993165362 0.016230075287162012976 0.0062231799188036222847 -0.084487725970190608038 0.034582606350011944885 -0.098084267755342249839 0.039377589185090593193 0.0085980445138815597 -0.070201723869707952086 -0.036089502459820566038 0.080447361324414087824 0.070694054837184480689 0.048438169053728184765 -0.059990284589498961421 -0.066724189541752312871 -0.0793734246748821759 0.016176856692244171582 -0.029188067637561675161 0.0057190189893509138855 -0.05148739283504272235 -0.031563247725114020048 -0.039513183051775327415 0.0065715525474966101499 0.040755420584085960689 -0.014557794163339276769 0.067253711419472048116 0.011624818904687979348 -0.092279524249768055122 -0.03312923826499838964 0.061984151069471742079 -0.02506971607624713938 -0.012269330639281313816 -0.076039320414650765634 0.001379897721572644672 -0.061294579931502966852 0.051737928320748811928 0.063108220427852371182 -0.062873948673830587497 0.07474554078361030085 0.025248409287027297199 -0.076202693724794517971 -0.014831245752836775403 0.070509440347639701363 -0.047566011438088771912 0.025511350965134828306 -0.05417903590541128106 0.075901805487958717844 0.040372317960228741585 0.044043474743682177464 -0.024230728947588719285 0.0059597157255551940283 -0.0038392920739201753279 0.042981232549572666313 0.046638465162689685117 -0.074704367780320163339 -0.039338722784308798042 -0.026847000092011179262 -0.066246121740750021911 -0.072559692855607912931 0.028682879896731888064 -0.025942073258367184807 0.0058412800867652485415 0.075633625275144458766 0.044404360318174129763 0.058132728916542988906 -0.012266746163749996448 -0.014973874589254660555 -0.013722554739749781919 -0.059386991566750597926 0.0059425383997765510863 0.046143878579560683451 0.024549782358074027921 0.075507325292574936637 0.060762513637874736305 -0.0090457979659596416538 0.020284862484747669814 0.0048445352274030370129 -0.080347498000236258764 -0.0043753653121646482807 0.064177399652645544803 0.07685252344638986155 -0.035179856880526536034 -0.010233572464170297492 0.034205382711362426751 -0.056970554647995691466 -0.027745331262328021965 0.024357599414921136255 -0.066097422910698713783 -0.072552220101286327147 -0.033753869482991964712 0.0018319155600952767311 -0.063697753858091871182 0.065781225196942447186 0.065077253770065845995 -0.076923705278042722733 0.059610519544239820577 0.075886503974245483883 -0.00022923577840929819697 0.010501624005008921431 -0.039245617126828953591 0.053800992712101425308 0.010960081089470117069 -0.042492615991498561279 -0.072849504007831633601 0.066127936462713754473 0.00099610503809590290186 -0.05081349401380536035 0.0034336854992976428499 0.016968085294301306354 -0.10107987710172623708 0.052096330099705170924 -0.024011894305579796483 -0.036371149563039578689 -0.031013568452679655951 -0.077228449264153190001 -0.024910029629222292524 -0.011280841203162828359 -0.0014567013054728908221 -0.025977412340185072892 -0.076875521939718000075 -0.043039765697863663352 0.062931069684680124299 -0.08303654231692544907 -0.060034040339696281841 0.022828179734413141938 -0.03791698658076103623 0.067811692684861923919 0.033607876831224473002 -0.010564528919559801681 0.081358380144262693046 0.0064428084516021536313 0.038587872687338431454 0.048791138004834193331 0.024404051006109320904 -0.053403035347559475732 -0.0036234469167294677296 -0.007194122157209284496 -0.023627822795625749025 -0.0561026269367065622 -0.040690951695545908573 -0.031237495471257672314 -0.068954734873352296898 0.016088872633973964194 -0.022538319060380673786 0.081647415133449099955 0.052194583352001201748 0.045040074799448215348 0.086743543019128899196 0.076139321322589326169 -0.042812615549786964264 0.064499778740994828663 -0.00015761883820648007635 -0.034670129462180412916 -0.011708738432487215964 0.020922285597592706757 -0.080962293537981580571 0.028309871053316424533 0.047514057609149278061 0.014943902504485276697 -0.054293653210220525762 0.049538344653771625159 -0.069072684118896388039 -0.053533787324719250833 0.0043352668234565017169 -0.05329166976806785222 -0.056106661559587350796 0.00053801337702890879907 -0.030997779160424759892 0.018859332658540763072 -0.090404309015518033443 0.034098093068279239359 -0.059850897217408279005 -0.019068832790385945031 0.061555904341334580221 0.082329231339296926606 -0.056486174320781984415 -0.078763643764454369101 -0.062371478380307751599 0.025326553389718793607 0.080505977553523927481 0.056157315468113401524 -0.028242839374658414153 0.036759597492397780294 0.045714029944508662029 -0.01791519465480492096 -0.04165897741099834628 0.063236506325576119503 0.04565027157585545281 -0.029555149623168738143 -0.041259254301631083373 0.044631336883375116731 -0.016666434844014952482 -0.080998230305972682141 0.082851239303006030124 -0.054754289881954715247 -0.079625863030247975849 -0.089438642764819914488 -0.050304738665624681992 -0.04855185187066517194 -0.052864905338308357252 -0.056364035153325497962 0.012863710146570022166 0.042849548896490029237 -0.069492876105422249355 -0.077542039485423652767 -0.062659178293960560158 -0.059156905448207480758 0.041785656421961733797 0.0028194116126328311496 -0.043878079392238603096 -0.03752366941210117518 -0.0045072242367319784173 -0.053891526678222390068 -0.049537092791646503143 0.083383913656326094643 0.0098787564137310917428 -0.073871473831405659594 -0.063363027894105056204 0.041215948440283367571 -0.0019175549344683240349 0.0049576547043758403474 -0.107259506466590257 0.016509186956403694435 -0.084971961283850622193 -0.063625291628348595863 -0.025993340199476844959 -0.078160788923492457991 0.071871377805519803816 0.081221827428275272798 0.0292317219109579432 -0.0033784916178125241892 -0.079607557351065103002 0.025025808611421132555 -0.063432900201331479662 -0.060283364755602343588 -0.0071183731730910769497 0.0038839235051865779631 -0.025378013458780268596 -0.053385112837882581216 -0.0070029249675107058809 0.076065348370370766684 -0.045944720461342666851 -0.068896328547912610851 0.010661528067053428759 0.068747612291815765606 -0.047819190786355721123 0.036654149847920133864 0.018738794405095241663 -0.02149621289472282426 -0.016833354250235878918 -0.079139630469121563516 0.009354734004202521977 0.030895670051831736896 0.0093944829031811383918 -0.069641108106776136721 -0.031569261962724790016 0.0025607243199579077242 -0.083694249984990712332 0.063020449317934254529 0.0091730273069690580756 0.068221046258620285374 0.016691331273351955877 -0.01718303245205388477 -0.033375880461770035534 0.030885447774800327964 0.050695832117819070173 0.00038617813016231098463 -0.040814411403814844503 0.031821720868746988797 0.091545019259715740279 0.034026049457059941161 0.061589915942687020745 0.054192715893533617566 -0.062882823254537645319 -0.063129515675536027053 0.031230810380946154303 -0.0015537897477490355148 -0.062765059910088863426 -0.043705443738679364274 0.064682311255144786521 0.066311603203219285363 0.027341060534432810869 -0.052325710463839977815 -0.065824895990070506069 -0.032406165478827332616 0.0262133077868773115 -0.061253522730285704656 -0.035912266621266147881 0.039223106765493197245 -0.0532041352576614196 -0.052838724494784501673 -0.067848584066018916006 -0.048812580795436807946 0.050865617487723030488 -0.018687459804853832901 0.04087748371796771224 -0.070708598568071198698 -0.0032348651118832057877 -0.029031214270011453799 0.044667367411664028742 0.029457232157724951016 0.044289034367578389295 -0.01203564706878730399 0.0084413724749611424025 -0.044242686626043199738 0.070987266351990305213 -0.024445759214203121451 -0.035845674822109423185 0.027117225400547277647 -0.0029931528227252327846 -0.030512789320953807165 0.021742618528322734534 -0.079497968508049965397 -0.054728736475968202402 -0.042609618751332956066 -0.015694367813351602081 0.030952029353440633358 -0.0042031434098365330967 0.072537683543362208027 0.060778894880581531279 -0.017527132770096234132 -0.077484530091363745807 0.0094691863227440286471 -0.018521692898075044209 -0.10087264104487944638 0.064726777769633342396 -0.010438587645545118268 0.0170567439315551031 -0.073188677177171271304 -0.085357153115106623731 0.0061658334083055637426 0.0013662259612824453458 0.035151334653136870334 0.045869357058307982933 -0.046205744419191209504 -0.06142892936782391039 0.05610423238987040373 -0.077152009630199039347 0.066561149937257008125 0.040936711011107573821 -0.031101246717317645313 -0.033415647359613290246 0.060238234187405863274 -0.013770147521773508023 0.062386304311394344402 -0.024143297358613834136 -0.069383038142464173448 0.050553891252006842583 -0.030287665404808469805 0.05484391520703017775 -0.030151887396330637192 0.032730753559885125692 -0.051379220520068082101 -0.042813898337968392394 -0.02525140271785586768 0.0035232232548033652793 -0.032063364416670368795 -0.063478982222327506868 0.017911917976317141138 -0.041678710516836213473 -0.028922864483953109743 -0.02709606196216403709 -0.06810921931672032914 -0.057979475669499014323 -0.079674905772925866398 0.028829724237258678998 0.024736867573968340794 -0.067652541836074053805 0.0044657739406532602836 0.011676093969157983268 0.022726005916436795018 -0.0047729617835194221298 0.068883793227242473556 -0.062129993358855190033 0.07353112719969218114 0.034738703433532143461 0.017390198151412059047 0.08748111570303754303 -0.011369487941656082272 0.042140231698818954309 0.041315836213476751781 -0.043836113548519031746 0.07349882130117260659 -0.016798510652966058831 -0.0006520383396922663612 -0.062393484016361272504 -0.047987175634001698332 0.047208264502609564861 0.003894876568550620019 0.06200222116754952606 0.021955838304448895004 0.059612442796913842069 -0.072861775910943268886 -0.075577786738057345373 0.086265471053481090902 -0.00014159868862136372968 0.0033125749263872854462 0.0044430427255628011582 -0.050659869259611356451 -0.015876581960835300933 -0.072945064639233753168 0.069898357712180531065 0.020504329855125364573 -0.029844190826547666723 -0.01433482340227405262 -0.032138356265392797884 -0.082194420600319631487 0.074987357161016870988 -0.020750930206540493805 -0.0090616958058216904442 -0.032024722414040640572 -0.0051638742993329956113 0.0037805749854654246284 -0.059685655639841669884 -0.037891509092355793453 0.0062369227149041573527 -0.050621346689526051932 -0.010155736999247337929 0.016297639072080327 0.080028512110769681187 0.01136127007479444985 -0.031266609859317971709 0.0080836118165170858102 -0.068505240664199121281 0.065119564409992877763 0.055998313179855582766 0.068026932394626718481 -0.033454071870548225676 -0.084033129683247068109 -0.083965080193395019714 0.024438626579975652325 0.064540112837197266549 0.063279041685104370218 -0.023289499492225348987 0.076561023919834200746 -0.029394405543853661944 0.031324599218598536687 -0.073135735564237899786 -0.012588709369570258087 -0.10241496671850801314 0.090871532828074280674 -0.054607400605399813998 -0.068762175428054364557 0.0449245643664264796 0.036493732817980684136 0.017269924278828983205 0.0048977991900561804184 -0.030763569945940080763 0.0019908686808338522077 -0.004864990180276330782 -0.00076017310275159981868 -0.038780924773811759065 -0.087986998159025595068 0.053486403989935413228 0.034800888897676629519 -0.062721976403755902441 0.029328751465109308832 -0.0011959118328614703509 0.086376452065246814294 0.015173657003424769266 -0.033025160693064263551 0.062496491544103888183 -0.051568744961989862463 -0.010508607704989009549 -0.065324594727853069198 -0.029691049556589559771 -0.10995480718165621947 -0.024498549974906025373 0.0090874827719918723629 0.019204022615818241299 0.059877282991852728844 -0.015511746580864065048 0.0054401651334589741851 -0.019063831533912334315 0.081473970364291325996 0.084474326564855026223 -0.071321443318247565446 -0.082881286111268409611 -0.046229976463043533086 0.053961610568654679032 -0.020396638953578759279 -0.024316286549204573636 -0.069011299220609695348 -0.089636658479368011565 -0.046913788076167188545 -0.062454107177780639193 0.026368691152794613425 0.03685474449981981232 0.043933900226332547878 -0.0031833662088593347485 -0.030067438445257561874 -0.082759155298794712108 -0.1024742267690878228 -0.036550407602054441059 -0.004149228226167069912 -0.016312776509198333857 -0.0024669704056991103441 -0.02685309388885637541 0.002301065976172119408 0.077747829692250566835 -0.054654213261993732365 0.040091133222348619702 0.014742587497245093764 -0.04618545362124016479 -0.012497858266584546683 0.016032735249379714143 -0.033187473349052379334 -0.034600297823940848185 -0.066082624261945360766 -0.0037885571490641461317 0.0032476013084314944539 -0.0016007006010557373391 0.065134682318177816729 -0.008463988801066463577 0.031457160612362602969 0.036143942976738958894 -0.030293733488641883672 0.040860679123438610472 -0.040597571560549293446 -0.099683920367239026161 0.031468197037859781118 -0.030564001277590499561 0.0036288847314046818009 -0.00024821395008308870305 -0.042177819230005839102 0.068580159653772523876 -0.064577057745403371181 0.041911332638702759879 0.012821886107301555882 0.018035167848781445687 -0.07877219907344895633 -0.030748543876755254911 -0.044416895143628114251 0.0028170953678246296245 -0.045032076975267197605 0.0079043976075550033411 -0.027521216927828155707 -0.077581090764527224635 -0.033711143410139469967 -0.017676746639712012654 -0.055518084580733137456 0.063350330081232697488 0.029941831944337457538 -0.017362831269596572942 -0.029257279853132672764 -0.094319100435042421693 -0.098945049164144455167 0.040151253317613225247 0.044337384133728979796 0.048359028974426856995 0.050896105445039793724 0.030412734758071383739 -0.038485906846460526953 -0.080531524151400121769 0.077160720496711049377 0.058072887601487668818 -0.016416562899973188849 0.02594722816925644493 -0.07221248130034434165 -0.077784549813015843589 -0.084502489808969211138 0.077787783529402007576 0.042976481232140352484 0.0061679450939846197643 0.036540170234806657046 -0.019925102851665956599 -0.077250667451704030375 -0.043516840968738763895 -0.06335896709511303071 -0.047384384309054929096 -0.048337590706113646444 0.022339574050570618069 0.055986174076673320132 -0.013873821565049892016 -0.055673511358306781993 0.01475760213346212317 0.00047909630399594471803 -0.070419502149807300384 0.00085868527007803023467 -0.046688474333515542214 0.058617957409531525059 -0.033129380699842947422 0.029540193795569737872 -0.038848450916874492644 0.077122147308587490899 0.067869938405235391565 0.017449105761208415222 0.0093010458379804185347 0.071048649129597102325 -0.055394391797959297019 -0.010913956444697501744 -0.0028304173888550310766 -0.042911488623704599488 0.083897953177157855165 -0.025302370384432282258 0.044099503307906288974 0.047360072795443401705 -0.11799384644347274409 -0.017897982572576066201 -0.067805350411142356615 -0.077759331766163175548 -0.013606958058390081559 -0.0055566923445277069393 0.0085846121991362007303 0.014210284728421842051 -0.042604458253030358383 -0.034883055878441170117 -0.061544577519816519307 -0.063741224906043503218 0.063331596620608027193 0.0061762249943506531552 -0.055167994414099578993 0.0660569723838077133 0.036730279037059630765 0.0085757523346152286087 0.072734207398388525667 -0.012493694308811012852 0.059611245916057382932 0.052280199939397552222 0.024127528101897589841 -0.035276397484453735076 -0.0078577421653431740733 -0.078429503862136984438 -0.067792719577425691879 0.0034467558409573746149 0.045200207407878272015 -0.0022903597776788744804 0.015064061711501220905 -0.059829808246083339418 -0.025824966365621950665 -0.034772471136646054823 0.044160933717590118708 0.064917003050521310259 0.015242332167082621106 -0.016508561168112015349 0.0049344485132947644643 -0.055171942305443949506 -0.054639558010979569214 0.082864627421734005086 -0.065690010399842568845 0.075628274279870413843 0.065740869632360601771 -0.00146834588796180502 0.049297360231556411336 0.0521486173769633507 -0.061956731145489177259 0.069342694587890260638 0.021747608209400082213 -0.040320499944056134578 0.065600443511418804476 0.019440758194329502834 0.03750184734189231095 -0.053123685165104392314 -0.066054867591586532982 -0.052616705827210320801 -0.052342175334125599917 -0.079215103817584064938 -0.040132652512286072499 0.047300857765869237792 -0.071063447843395396997 0.047819600205241404034 0.078955233252162165813 0.0005862500235612217326 -0.045681452084279053349 -0.025714579359085328741 -0.011089235052001857051 -0.0084111909872325082288 -0.056901633726763690968 0.074639712923334960992 0.056933814393072448845 0.044010591729924004867 0.025838008125543734245 -0.019511293394458770201 -0.044418497007710458502 -0.045224156066027892953 -0.039797056879765119186 0.022866726377319446933 0.03821611952987549049 -0.022951917611195828822 0.011545124221918662624 -0.029663184905310762546 -0.061663178113519609425 -0.059640574196679341235 -0.045193144209262757494 0.062031148350111364742 0.089413695168942472491 -0.037483059703764677606 -0.048654047110819734212 0.010050438213444395918 0.033578688442657010638 0.048375044828272366348 0.04407135395871468464 -0.064656454645210026388 -0.054898875301664637472 0.0050767805770113244926 0.076048971371354606719 0.031257576389408368855 0.063050740517880884961 0.010348610928266596676 -0.063761555469501310367 -0.064552533313563947859 0.018940801351495378108 0.05963974330888133224 -0.08131966841010250524 -0.088576590311837066771 -0.091250959124380415233 0.079339826720027220586 -0.092896828064789493951 -0.02859813626974297765 -0.034213001841887524801 0.041582902121496977121 -0.087375585907181418932 -0.022423152987321399998 0.0066246082150113782053 0.055695017334145814625 -0.048677930404262360897 0.0075743630066387700184 -0.0064402084498195134518 -0.019277022373897671065 -0.0020117033568847848476 -0.028969800808965714273 -0.027303526330308729858 -0.058413856828968234447 0.025972198583528192939 0.035335214027406802728 0.029749949099272317288 0.0065765356855435391434 -0.052100307966867452636 0.059485782430902571505 -0.069831532839335033747 0.02267385274335159337 0.065277348659877929005 -0.045433891752892904825 -0.082140395322337744766 0.019957781518272463966 -0.062496813946759627312 -0.037281873061556093651 -0.017030863730823412455 0.046461817793561399625 -0.063761349309530965246 0.046536318440236867922 0.024136170139595704981 0.073603394081282816352 0.07686166613649442203 -0.053133267780651242951 0.079700605848629160755 -0.030525211175738069941 0.057663294037148010718 0.034492638237804351675 0.078136992358869741815 0.0087545095313763133388 -0.02422480629281228634 -0.064703373582850248757 -0.032118433954487844717 0.022375829419035275086 0.011963382124461144351 -0.092326316712792774744 0.035573480353880013172 0.0080596106140954255903 -0.015991019506900475133 0.07754890834846023262 -0.053476531117617021049 -0.0095299857436833973479 -0.064662908601155921762 -0.037068687978534846372 -0.027892891193192180521 0.023233205308196582667 0.00053045428526466689625 -0.037152900112626160989 0.043562135215288164125 -0.026842787528187070367 -0.045679017224582695034 0.013288660444772585831 0.0044121197144729269388 -0.031342999851531869182 -0.019976297810026945323 -0.024383689163988083587 -0.070439440327918392826 0.047018448428781098314 -0.023361574874316597822 0.014212391708494068535 -0.0073454397265866940708 0.011602676625444055189 -0.083290662490344197222 -0.076804423281680161972 0.041778390902479665969 -0.12389511468480420009 0.079033054340644143254 -0.055984891361686668632 -0.010802256547095706943 -0.054551083053538181045 -0.071192050603022000166 -0.076042868801259128064;-0.35402844737959177079 -0.13388893767163514981 -0.11339674941198495117 -0.096696346242097830359 -0.35677453281695870047 -0.1950212403350894963 -0.14765698146843408978 0.086481815281009302709 -0.12977280771598803666 -0.11420662418162690066 -0.057627087117385629444 -0.029978901189958561541 -0.42953207815446464712 0.32593140078512944369 0.014302450220969993577 -0.11985166329708638044 -0.055909949055262531115 0.18856896586346855171 -0.42885240463487828144 -0.042640178026296118863 -0.073053935956626764314 -0.1746492511098466649 0.11780405604655695695 -0.22670475433269307586 0.18996307247257099293 0.16044687475131066967 0.11393046942532514265 -0.34649323475057980382 -0.04381757618814808436 -0.16189585536032261026 -0.036313830368381982971 -0.34365247186465208706 -0.1564685412275092502 -0.11474212677621288548 0.056282535569929979802 -0.036980721553636880516 -0.037219411128855191262 0.0084131067019579397481 -0.043431387304508239922 -0.18575157317544480073 0.2521040918685369947 -0.076626921993861618621 0.044001072041559646797 -0.12410819347864421314 0.19175100866097302688 -0.31502825376645576805 -0.052276132748726104882 -0.12615440157624802087 -0.17530433771055023429 0.00045957885817445032206 -0.21358937566173599731 0.11698814231575903333 0.095538910878823754547 0.10373925400120288798 -0.17004649441761882089 -0.038044002749624779292 -0.042059517874670708515 0.012777136920712122564 -0.15454613231795033546 -0.14170231640317970667 0.036228920913980902641 0.099724147071228008699 0.068338794214274203864 0.090843982435608927606 0.13036747306817153547 -0.00079391243426154168173 -0.052026168746124284992 0.25330294843305151131 -0.091641650593348930598 -0.067977447620165207254 -0.079433917532145320584 0.099631734268400801158 -0.26426011489911666041 -0.029692660901083064995 0.0091940548289731801462 -0.0877563862261945965 -0.06164699402497801628 -0.35985367891273523089 -0.093398658682746923954 0.13555886705487088517 0.0304152790334367637 -0.27399593016960605008 0.042377205911097101665 -0.10108659491090400684 -0.13755474984165155794 -0.3479192302671407222 -0.17950656185902405526 -0.066936147094883019504 -0.036466153163964225292 0.020060525538625518377 -0.068912307115708476557 -0.0091655031261419633859 0.054572548201396918477 0.048486930135221546767 0.23981938162991048302 -0.19601203109324041862 0.029111425231089910898 0.0064918863662866369696 0.11897569809473045044 -0.26471809764836762291 -0.1386917747709003057 -0.0063767747943071235311 -0.053088013892077338951 0.10035409511176519859 -0.25015546481795930545 -0.11642012170101233293 0.16958049344555006788 0.0048272096521780301706 -0.13886992782024912274 -0.081941470640193053709 0.054581314297946756375 -0.013904161600183158332 -0.1880062894700406384 -0.1942069485552178898 -0.11550691200120852264 0.018581738241763463837 0.050221759966863850633 0.0013638731183011039774 0.059780382494114610303 -0.017300759523421246205 0.012119611059704193598 0.14541106548719337499 -0.19397160805346949641 -0.0036268034192753228519 -0.042523507918754199775 0.13194127120531590203 -0.22919220798661743554 -0.11511031979932855041 -0.039358881984165629275 -0.11518085811705865151 0.11324525690337426675 -0.2010826303647790525 -0.10685554005667342869 0.085273044218111992976 0.023496812668051092476 -0.22614299476932406274 -0.070907978758442666289 -0.10835568480332646857 3.3340817084506455296e-05 -0.17856005753744702558 -0.24662305146129726019 -0.1012576757980155201 0.053283723194131805967 0.057185963829760565191 -0.056282619634652773788 0.032081263969278406289 -0.045579198507267180973 -0.03925799573139776566 0.10459683742015839225 -0.1066025702793475527 0.013992293318114292985 -0.035200367943191396281 -0.027116236733042763801 -0.31821922261786333985 -0.020622885895928973893 0.09747299721835839259 -0.063310269434423818713 0.129397934790976471 -0.21418017072717598914 0.0028051741838125009328 0.10861053311543980571 0.050343774422800642576 -0.31206495343620849203 -0.070168902914463038289 -0.03358543856614886608 -0.04259699730165774495 -0.29500117829938155012 -0.099340296822899507023 -0.15932908494179562342 0.090409654134472272613 -0.11031478116669468648 -0.055042260280266076811 -0.033739718568750784455 0.01628388290470048072 0.087176536911808710784 0.059397429751101689377 0.10587398024479086067 -0.01795121366975277466 -0.17007645413163952064 -0.049695941313605225542 -0.19061999533688200881 -0.028336825277528756434 0.12227974462557386626 0.028069911754122205128 0.00089039611644665267193 -0.12214013701166498427 0.10591937514806858134 0.089970258880438427895 0.060054048978071400411 -0.20153054449768012524 -0.028809271703235887069 -0.091822831275275448859 -0.096814351547482885296 -0.18704282443079783826 -0.19956939162402170806 -0.17622515403142094415 -0.011083842490984579382 -0.085913073744438170354 -0.011564685812527392486 0.061894124692104111884 -0.043790861931079179403 0.020568463882862153547 0.038664018282808215732 0.023112482666303273138 -0.0010024219911227703114 -0.13062843886814098915 0.0017915464365285029957 -0.11008777908519924715 -0.020875344692834668647 -0.020896389682108263558 -0.024120483420183035789 -0.0042600780798104469216 0.0011199243973923640304 -0.10947479899420925475 0.011316180352704702586 0.15425302764105178199 -0.14935050511214237323 -0.036575184155444528944 0.013073278268441760816 -0.071846893196198469145 -0.16119328509957675521 -0.028684428415548163249 -0.0019921768208425024924 0.043427120085536341509 0.0017967832181990180292 0.095397323183673152225 0.21263034278137613042 0.046686870365635818603 0.01067411898920734778 0.042413452300903736747 0.034858728015130097111 -0.078784576179658311057 -0.094891915105771690309 -0.075992949346296204127 -0.1489977658835693608 0.0057539534680721270837 -0.063311879972417078877 0.11091448581990133448 -0.075349509399222774908 -0.016041269948620904412 -0.12545417466319686017 0.042865299196174218299 0.17322463648558666938 -0.10241555138740052189 -0.10979257928971683511 0.065128920477149798707 -0.04723662386630095994 -0.098423239398502643249 -0.063955215248838098718 -0.023885869302249389257 0.020920537581970856389 0.073603707065416662525 -0.0025305898659727476922 0.085483423909876968261 0.15694597456521158785 0.10668481582977272504 0.09262438389561904184 0.015562546786474970237 0.11834985236386344476 -0.099714856237705165598 0.019536446273659163753 -0.21206338973896451949 -0.057327156435724911654 0.069804271943165047132 0.031938809250491417835 0.02034336482012298955 -0.05614910979969012228 -0.02598329953317464816 0.12533438287989345783 0.23427255472659391788 -0.19365638307472521351 -0.082148468766041649047 0.088588019686300048527 0.025463400273915279964 -0.23645095611847344319 -0.11639907526357679002 -0.013159637536114461923 0.09605731041447021501 -0.026334437928494540404 0.01810717109914307052 0.15914805111683894001 0.15544849922217501836 0.034430453949455062934 0.24219472232070582418 -0.058700713712477231576 -0.0063935283382737092758 -0.11218675966652418008 -0.104196602400820168 -0.153985841240872251 -0.14733080178078747369 0.053142062763168892991 -0.024366797687846584314 0.0088136125075228295006 -0.11910618517314337794 -0.0034595825936614165753 0.13367824975172121205 0.22663593699439768536 -0.20926906306406339864 0.053169191607274519928 0.083099837793299560773 -0.0042363430342187485475 -0.034936339241020075708 -0.097029523814600435183 0.092591965135070355974 0.036511140344904241539 0.079202621796419236944 0.073587284039373715427 0.1568554091030280595 0.07558515348390737465 -0.1067723055052672565 0.11471974207882348895 0.048059467360129198843 -0.12684724614116107966 -0.12324078280387436302 -0.07075022654501407493 -0.1715247854991985843 -0.11681456211707948178 0.017558755426033589159 0.035288574923666798933 0.10938545049609417481 -0.1708424459585568822 -0.07033787979980953009 0.063064554939645411924 0.15304185132015121762 -0.25130393787586957632 -0.089921756462331622894 0.049556698118223947713 -0.037397358723398499425 -0.17082308727171283125 -0.086602919502643441185 0.11166841873766732152 0.064892737202045636113 0.13120573289024481389 0.086312650887599220995 0.1381213064873244023 0.14690322693783550156 -0.052090086498135547421 0.10515369730262925929 0.055192117305768756408 -0.11397210999675076726 -0.10402162844737845859 -0.13951383759752217228 -0.13479609272276121823 0.0067275005454285625311 0.050216211940808323788 0.085072861421339726617 0.14174113586092049188 -0.18518212681511692086 0.0070407359235366865843 0.022967656050173406584 0.097156275032116462542 -0.14775224782054752204 0.032924760352278266418 0.1395837108044931385 -0.039498901728431595748 -0.066486368233184864329 -0.032085122716409231192 0.023424342926739980669 0.096732293653256487542 0.026005649688035918643 0.034431276802990448682 0.089190782250739703008 0.20214908173168671945 0.027672825144914005996 0.13115318677517207036 0.023317542596608651501 -0.062629850767728215133 -0.055923727135419869227 -0.08101589145558996119 -0.25284020841299614801 -0.021614794253994772805 0.10169666579920993987 0.10604386892633053951 0.22446990418535331391 -0.069974892321752663049 -0.028087067275347266104 0.10506860096303104191 0.12326193431759316366 -0.23221228749738029307 0.019851655038462302089 0.045435683033640955619 0.026255920165630362156 -0.08452100586736860377 -0.054151817281929498504 0.076197660653031046296 0.019872203548485713187 0.058339394516933526513 0.019268472454605788807 0.026641012104519141979 0.078707633588093336985 -0.016704023811523773663 0.043827739245195451723 0.071044330426319898808 -0.027843803692656057813 -0.15807368730873838647 -0.077407115310411528375 -0.25728319398702026444 0.042024875581760788579 0.15621065637376849167 0.0087178268124276578344 0.19477630781320490194 -0.059013791916376900915 -0.05562619005872096456 0.10112914090939668921 0.21983409669379611051 -0.22170284223109079647 -0.044139505541668372368 0.11152426620042812933 0.027972860627203919442 -0.13035226526620966037 -0.13267619445585890348 0.027053664733299998685 0.091658512979735928816 0.17255333225669514108 0.143502040550805815 0.068023709538458779211 0.082328239696546845483 -0.024768420149929679108 0.040932190388584026308 0.056184358697153706508 -0.03863548837651271245 -0.10533178325814579468 -0.003875076732745208561 -0.19588238287075884769 -0.0094220075720377396977 0.10363613667391312345 0.034008876187933870239 0.22527574812798004111 -0.10646555664876528047 -0.023616754848045488219 0.11068739375318314977 0.26807402912766586933 -0.096347694683704909746 -0.15565273587813416301 0.01240209139308993784 0.0056900015169562114317 -0.089947222164573278902 -0.046452087595981961243 0.026528753185320008007 0.084191743173617217266 0.097964270659434873889 0.15789455103208960285 0.1530794496047502562 0.16965520898128272353 0.072750452915550087307 0.056051678223590931105 0.038351595828764746543 -0.027407853241092631352 -0.13231546377769071166 0.013563668195731924671 -0.32876551299776002324 -0.091599657019461724894 0.0045812700573589259026 -0.017653353595708683871 0.10314196563450371558 -0.06331040443596745726 0.092225747697700088956 0.01809090730531329877 0.29473682659792049821 -0.15150360826354677957 0.068353561604676954522 0.085065856127482311622 0.062434079223249977497 -0.057577107442574826379 -0.11774329942794350967 0.047789749963890591766 0.23963616936662823775 0.06800416766073867636 0.2123886650917893304 0.086999498064122632313 0.16169629666145335367 -0.035253977920345201669 0.11719722397193768626 -0.0059175445505938260166 -0.053615913567321142608 -0.15347383902997038807 0.10589640092399586757 -0.33178213696226122043 -0.12749755855438946184 0.037593088255866359548 -0.10489772060971651324 0.13417353405779522402 0.024129644964402181817 0.14416567295786172909 0.03702355494948760678 0.1334484940103672912 -0.091375993214183437452 -0.040285424448730573765 0.037087138180931143727 0.099810016069577289777 -0.026765888189871175906 -0.10082278829307711465 0.12718327686984284841 0.1571940926423415763 0.086698776376714054015 0.056268153705320546332 -0.026906314920968975313 0.076042173836754364813 -0.091360303882097704253 0.0438061436757925457 -0.028524312145660007944 -0.069791360297631249709 -0.15697695398543906609 0.058813870445027921496 -0.15263619414959472831 0.0059401440278065223421 0.085893924146145411713 -0.079558048349207363681 0.011339589912559048038 -0.13797442759862385553 0.19282361159018182595 -0.022600177983594104542 0.24004902643488151837 -0.15296446641040703507 -0.12289360917255742756 0.13581344370243170205 0.056991985380771041647 -0.098180256479575275796 -0.0095362481562669080409 0.035330359489226206837 0.15645046155739053551 0.13815059158195835964 0.062341530066914133124 -0.039284264674105569271 0.15574074424261305505 -0.097863089745275688713 0.068838239731468894855 0.080081445727619021691 -0.021107342274047861952 -0.031698442555307633495 -0.082017430006346883631 -0.18695831970591966775 -0.0054264053944388570411 0.065108048800524148669 -0.12109734670906345533 -0.037350679414285041513 -0.12407836590548446121 0.2341029928514986036 0.021224773848702041534 0.2342061937839342578 -0.096939627735231154171 -0.0076062876456259665217 0.11320557393507181543 0.033114572116009440006 -0.15099995243262145928 -0.12910059422549458041 0.022453246127908433466 0.10124547250131607501 0.00051775020014146837504 0.095186531288908582393 0.057560132151157038238 0.10870623725846664809 0.07995782905987636191 0.045000823213580391779 0.038345461622244135513 -0.10693469323350054956 -0.14689201735098258994 -0.030739150960343176316 -0.089080843929659758729 0.0012822188543753097658 -0.089070232819485381515 -0.083253740881626861481 0.091158843277799161964 -0.043651048493619865054 0.06385007311220675108 -0.084396325327935076133 0.3435392599680791581 -0.23627928507233605937 -0.12282799212898545815 0.0041579225274441080143 0.015689676660908737083 -0.076975159432390069525 -0.14761290124048595529 -0.013629321218490345405 0.059773381713546666627 -0.020330805755418540626 0.070957153114254475912 -0.013624688512076247107 0.083882792779812295758 0.055205873151894624407 0.070081016684584357401 0.057501048381099657825 -0.011112389607076056386 -0.098386513703139874543 0.093018201552033122348 -0.18047422610820271216 -0.082720107208434937029 -0.11233511778645312307 -0.14557282241274283052 -0.072210728895623965684 -0.05238497935523619975 0.072967167674798674715 -0.15216064090685452181 0.3805733402027401957 -0.12391567025826613624 -0.054489112493276765925 0.025751491316906800766 0.070488313031339386305 -0.027979543448818800649 -0.12662720744609748391 0.014271231908222414483 0.14768678693242393019 0.011377416612158207376 -0.019249434718358427593 -0.014259745555812207776 0.017896490345176964409 0.081724075046752192586 -0.02685934496497604379 0.095775283531062904707 0.10337555562458669578 -0.07932983013204247813 0.042049963937767727284 -0.14766104537907528971 -0.075551241956983150594 -0.16771694799393149777 -0.19848042471596180625 -0.12427241655720515368 -0.11221560312631105594 0.066401818821210281674 -0.063145442498558496114 0.42115655798945228483 -0.1654399463524753866 -0.11224163200052833522 0.085035663320849982916 0.095906439456707473501 -0.030326294891387384212 -0.08422959519950029561 0.079220831430433749643 0.012362414591341385969 0.12432586564622315206 -0.025438342492431043063 0.0022492503968341015508 0.085289738765623179795 0.13424120371040815236 0.11964365967339114782 0.068549965254488004485 0.017086677364775128274 -0.075034483632799103825 -0.098423365276170751703 -0.11228170282363483801 -0.047594632572860215425 -0.17933141033271429721 -0.13897338114510615625 0.061289749998919285101 -0.069608808049798617801 0.04365746192096035122 -0.10349553561046126449 0.41399728994795209625 -0.090367289396102237764 -0.18880454771927510094 0.11587707140787874283 0.015389880347003394648 -0.052913623258932819537 -0.18523851598396393059 0.057182637501816228898 0.099817227583422943327 0.078149991533990187387 0.074029255629687693019 -0.0040959400111736385744 -0.033699371765515920285 -0.01566180366109648156 0.14525726394266216812 0.027681888380550342954 0.029434631807428755096 0.016001037658881174519 -0.05478162293814971967 -0.062853759946247200752 -0.07360633359966259337 -0.12078113520500986799 -0.04204131322792853398 0.0043327497163184068227 -0.11381766636777634893 0.056268195631474907104 -0.11659928338684538707 0.35851041527189830838 -0.114835377065035521 -0.055800436037570191883 -0.032376040589558598148 0.0089083767615177975735 -0.14896950685339363507 -0.15196706155112382763 0.051917092250464549896 0.15418806591036318676 0.033101924675878337256 0.091661414146238615053 -0.12515726140904320784 -0.012612591692496009574 0.081167579291656036244 0.088922751225139498588 0.19625794705406959806 0.050707962845663347162 -0.06539179084124716046 -0.14423817147733522526 -0.0074110367005076607447 0.014091998419606691084 -0.04790864347530088968 -0.10994040087498314906 -0.032138497557226607115 -0.090843290748989571903 0.0015920868693431588104 -0.075228541411968552488 0.31701513269040615395 -0.15799025818200568283 -0.10682953785429642746 -0.011263457561740309806 0.072299683225503411088 -0.13731366169090322704 -0.14163684227305087249 0.075227316271362892897 -0.025701923551683117375 0.044116768854370755348 0.057073641023112832438 -0.0176399504525972875 -0.045509035523700232251 -0.073107790971689082249 0.043617989617699658156 0.18005658911582855808 0.018932200111812194643 -0.058423463790544249985 -0.056186585453394992384 -0.075937805038814573666 0.099418558696001857466 -0.15991359771622681851 -0.09930395186637816507 0.0052989643364611954679 -0.063588904858573033763 0.038567814586392953902 -0.0202516990933877504 0.29392920158839908051 -0.082564173834304477317 -0.11871572671365572538 0.086700642409383840703 0.093006256587975649763 -0.041604679908774339081 -0.083652199407748054072 0.047372150082355277134 0.069483583905712395512 0.093949792445961202714 0.12623183611694732686 -0.10769346957926127784 -0.049845933887113155758 0.072501525190801247023 0.10940945824387945939 0.20879462269103657435 0.025370785475490861827 0.073678628479012089891 0.042811216886164293882 -0.071283878179142542986 0.078806664541863066797 0.017322489803875174702 -0.20252159047391046776 -0.017107419002559662996 -0.10730375896624837206 0.020521503778758592301 -0.038279565870235315872 0.23637946137489640464 -0.081969158522313886883 -0.030488255823625902419 0.096048646926548547631 0.13486286072565581429 -0.018985669678173971997 -0.080356336075633194582 0.085155054118840597943 0.11524183010407917926 0.08110470261289676186 0.030715003185189961726 -0.085687058132900506546 -0.026149848567909673991 -0.0013253337946451239446 0.028394874772750065828 0.05569716510175761609 -0.15190082236709206986 0.066276612336095344635 -0.0022762887071360142499 0.022002843872094991068 0.11686541795027848012 -0.12911249470826444141 -0.20517407190207989642 0.031603373326599591697 -0.14373233772721816237 0.020718244720959590882 -0.14707160034528979353 0.20404735165067519609 -0.19468272301837039051 -0.16079849067504342619 0.041198611185546116231 0.056247668550967730439 -0.056954807247962924155 -0.071611640260967973637 0.1282557820648211333 0.054865866832675698472 0.041048921994284240378 -0.046751637332055943908 -0.081894178581739723866 0.00076540663284800137568 -0.13029977924259009137 0.10422828066745164211 0.050157106289741758276 -0.047419539963659364246 0.096491587084607463587 0.091214771033788055732 -0.076607758814348794751 0.016316785274454122939 -0.13143214911918602028 -0.3363306584147088274 -0.080509920594861089649 -0.065878988582312128508 -0.013112597011970384894 -0.20371424729202092241 0.19388198101800757644 -0.13993750049834960403 -0.081456824613844111549 0.13185474698370341917 0.082271688117927677109 0.025958558886721889991 -0.10409740514381782273 0.12156307799687905702 -0.011724854130818708128 0.027580522031590264803 -0.080952022776274307203 -0.013443198483936776022 -0.17288272567990506379 -0.19749617358720158999 0.19484783646818254477 0.08989144434469344136 -0.090166296732918649326 0.089423555915023725249 0.0096200031777875782968 -0.19592528680482512726 0.089919362246405967753 -0.19391924829416309906 -0.23598233082642630642 -0.027815693399740808872 -0.047822774393157775619 0.061770006255781634286 -0.053329444687869487218 0.27561019626824845297 -0.23905135022721804572 -0.20508140173864683464 -0.014993890971271007367 -0.0461761824652156469 -0.15557046095956342247 -0.085359019113032799653 0.072666471642626212502 0.031374305871222175901 -0.047770374474090861183 -0.050202548665345417267 -0.13588683688341982037 -0.15506558136187853503 -0.11831563183486687452 0.16549602846793975974 0.083209399864749969411 -0.042769236010018703287 0.032952137473507656096 0.024417888556196830352 -0.15162850892345641762 0.1428015321736954002 -0.057158257348534302622 -0.14162364813479119685 -0.072110976665069090319 -0.0027478645683637935651 -0.014569370682800073316 -0.027748346499692568695 0.19525509583324102136;-0.011218599273864555271 0.050974793759230231649 0.036254893846598724994 0.01919103763047697378 -0.0222000842729893344 -0.010510771762138449922 -0.087841630631875056157 -0.022403824170566594837 -0.069262460640279618906 -0.078763291727182632718 -0.021511588073650712155 0.036459752443292428592 0.012813503873079563899 -0.043626215407590908379 -0.0058332546531433783141 -0.047231090719062868155 0.10158493996464150466 -0.099206415169947700927 -0.045623566730295474214 0.012015875860767171596 0.021235952992652906701 -0.049861876231480375954 0.0027646631903021595504 -0.080780749781731137071 -0.094606828798116812673 0.05246587027087173255 0.14607978127629892007 0.011206631717738429338 0.035825416032430022761 -0.072139901466472963754 0.020846795471535953942 0.052988469722536957196 -0.076804415340465240214 -0.020419537674329159976 0.0077503206714948811792 -0.10848007010280018292 -0.0055000845585931306542 0.012756913084138241446 0.029419818497979602356 -0.001267981063012207487 -0.016107053238007634083 0.085434892130394762821 -0.0022960618758531663175 -0.025498867966122312073 -0.0050447266081520931655 -0.027995342851895744368 0.07100943289939851133 -0.035054636696326246792 -0.022153080133792701217 -0.020461504096456240714 -0.024980993436913817574 -0.049382494544793396896 -0.019055222183238514772 0.017839219356531838684 -0.0093681806483411275699 -0.022618668684288918691 -0.040493945967104122419 -0.066695928877010479674 -0.076890668307664403192 -0.045187843358450364983 -0.037219746995633989917 0.012622269480072908707 -0.072365161642223937988 0.061255295859910310896 0.023037921365291653963 -0.0020744055679977613238 0.043177133365430518663 0.072314650049024542522 -0.0090771984226747232105 -0.069300644112258030782 0.082245998857700869378 -0.093548445692672177465 -0.022804147890283378575 0.054237113050613051934 -0.077161771011885219029 0.0056059090372866113641 0.036556772499285059008 0.021873012321139195802 0.047334891880963549105 -0.068973055333165472769 -0.0086175562312132830689 0.050415466940071519686 -0.0094025754927758841556 0.022478718951263319814 0.0098549469255973069781 -0.042653895109028693022 0.0034235800948553833829 -0.044437254013609844838 0.088158207066205557245 0.032596643534632180339 0.02518682456773374545 -0.094784337731195128507 -0.058914808682679606355 -0.035069265324183300503 -0.017371778966523206134 0.038428765848129139981 0.070336439517237364649 -0.056611020722836705166 0.035137695936392633611 -0.052618416007475868335 0.029365472664246324713 0.038499213658796264947 -0.024459000519767737369 -0.074399466863352012314 -0.041537321237755477077 -0.015321567834154850574 0.030121320151550161348 0.010482746677244973027 -0.013046012699101692395 -0.064664427815549874179 -0.0064803291158208103581 0.01182433086501334836 -0.05219648137794906384 0.077555999168087572104 0.044539853056142900134 0.0088394986485377594065 0.012867108685753173361 0.015559631755353801191 0.061194802642395317027 -0.040631282877105726059 -0.031010294662636817692 -0.014901369595705604015 0.0049413489352550868383 -0.01036599289550007609 -0.030610469931287905693 -0.083879821669183118882 -0.06791557382279277133 0.03735465831289239147 -0.055699639146917077903 -0.0058630205941446857446 -0.03834475258646576068 -0.027795678634139474317 -0.067562502035964505653 0.029252835568592410603 0.092953727357887441785 -0.074340528538110128842 0.012987511786471891279 0.0072749208907202508531 -0.056885533656429891625 -0.073787111373647379375 -0.051768528396708500539 -0.07086955494046459636 -0.017062754069214501607 -0.081978550119673559982 -0.030703671100512922726 -0.012285185455789557687 0.076453689509879949049 0.0085285016295407918563 -0.033578028706965204475 0.070014789605347946266 0.049273594754786903538 0.099183263353321129974 0.0062335989473347366147 0.056392286099366049912 0.0066637624599110642509 -0.09486387876777561956 -0.035992258159157519692 -0.091267351893412548836 0.041332586850484194507 0.055469236263233780149 0.057219876843788070042 0.01735132346925286409 -0.015891315223169368009 0.0055276014729016007335 -0.032283475567778392723 -0.011946125947961377944 0.054256275775042897558 0.015812173070537886843 0.0013142156044828141523 0.084518153118238625865 0.02177961975940569464 0.05539891692217183139 -0.034803265335191770069 0.066623852859360774281 0.031563303625712808842 0.019834242082768592519 -0.012301093301783581554 0.013043152428903274573 -0.062108255267274370404 -0.0082878322757037135166 -0.037174391004989579268 -0.0027146312254397453323 -0.030023328815174051692 -0.050852678532558905078 -0.072923611262384321896 -0.011373648959176682616 -0.061581338282231418146 0.026150022918820351597 0.037921167893905628754 -0.0077974834539089651203 -0.021395167171289870833 -0.066454663489386112118 -0.060439542014278160864 0.024940458539428164014 0.046550179448686460071 0.028484652064107010561 0.074880716191378884905 -0.0028006138167162570977 -0.029981786221471302956 0.047933489815525823219 0.0010879989144600183022 -0.013636508987768310164 0.076467851485191723482 -0.013701925184615540085 0.049857866154403671088 -0.0066355795745716775191 -0.10104158383622369177 0.060886207142074447174 -0.045405084107777729518 -0.011595410018398871407 0.0053104822007720292598 -0.12119046590792995066 0.0042126159879284858292 -0.026687615236421356052 -0.063451880160409729337 0.023968775874368981188 -0.047811768606869364806 -0.038341715515781339685 -0.011686487005479525431 -0.02265910452738663719 -0.019562495344629830807 -0.020510803490473631522 -0.062396219824283227773 -0.021391867578164039387 -0.023453853632232565113 0.068022635885812657297 -0.086330195831834127818 -0.043807716379017543062 0.054043905258051451457 0.089537227980687805751 -0.047844971187163257142 -0.0042289962176138484393 -0.015843367640999708734 -0.019360969522962897388 -0.010619725221854536476 -0.027650042173341018298 -0.05980938943793311785 0.07552108209019763041 -0.061397064933081002547 0.060096393696580326094 0.00041711811624203971611 0.044012792009386771108 -0.041410343020066464614 -0.012858447776633294413 -0.023035330270812250791 0.064334261308735818385 0.0023693707348025239319 -0.02263680362733555898 0.070634755128340623309 0.017460993667211977681 0.051662928533244723006 0.055586251245027459844 -0.006363133843065972052 0.015009967108720240203 0.019239303472317580146 -0.042113491541965662746 0.052919166260881382591 -0.048315422259438682573 -0.074303843456797913358 0.096748303183718936671 -0.11017878622017189538 -0.074247890690662551871 0.066062654476029228356 0.0023094135514144923695 0.0064459376380606612719 0.022270850913386142783 0.0013735116458469997982 -0.041317384393075091975 0.074981270106014200061 0.12067375531814171497 0.053012510283924695054 0.041197937148222243953 -0.025357287667374380641 0.043419208739662353003 -0.032496630685233722502 0.081097665607158794798 -0.028263711241433890631 0.090737710099292018251 0.058974731597300392161 -0.010217071910970583135 0.061387242821876471244 -0.021493642538165044081 -0.072780761700954557658 -0.018713779414001485701 -0.058224381049576709457 -0.0074334595279142053059 0.089607173704939910297 0.03584987104274641595 -0.075294881567356433671 0.06541559042816560976 -0.040792326458994346283 0.048215345128124337259 -0.061323249394974403692 -0.066882465437445776102 -0.074875600494303667931 0.072606952424541140734 0.12105846005783379993 -0.085773805400470373717 -0.064299101129478758443 -0.05370013951572975841 0.029844104302400687595 -0.0237340865576100013 -0.025592453026818336864 -0.026469914674404876331 0.013955931499418712527 -0.039287779274378077654 -0.05677045168258068597 0.021114270078247412976 0.026750953388686094653 0.067868656308994121384 -0.052806494553329252906 -0.060610857659887475146 0.066737605024234980533 0.02000911556908270203 -0.047434146692731465889 -0.056942588832652837882 0.059920298433164466412 -0.014547183414888762223 0.013289276287462212928 -0.022268435837560652396 -0.0098920086949072453392 0.019341222608629263235 -0.037747736506541104684 0.12534390050379556891 0.0082815203920922203507 0.086389942646070055909 -0.027528392249535953151 0.082530648581520302254 -0.02654795346228205899 0.053937026512936317446 0.002430269972864412386 0.092482481025830357013 0.049104216123326979715 -0.02709914331592654449 -0.0088349479398693465254 -0.0043179781786159407084 0.0019498128734900751786 0.019333468259821309787 -0.072358003653016020329 0.0031769280636063886893 -0.0034578904209901996543 -0.063372504528203477125 -0.050437275619190514997 0.08492598752570366949 0.0011456625962105262441 -0.012668366271190124525 -0.071615205593896627545 -0.074076315592748173677 -0.052847084238126583455 0.068948566671139258077 0.062539213579386424002 0.0070758632988864329089 -0.023240895139311650019 -0.019171686440556584552 0.055497209498318864074 -0.024558609443723695281 0.048512393705359230234 0.044073062467850740442 0.069183338732488108835 0.060989948717718518723 -0.010700118130654410684 0.014979822538809559745 0.0057478597865613066664 -0.0066187529013748995152 0.087100270137426799577 0.090357727241078128477 -0.063794730011703826289 0.087910264946452751356 0.047697625834778059617 -0.035781070756432380164 -0.043447867479455469508 -0.0084855190745589843815 -0.021578014662030242654 -0.015762485089526150073 -0.089432175207067615696 -0.0081822690389575739728 0.078776863588422604834 -0.022412328296158863516 -0.041826816478778242048 -0.0097107351916837694045 -0.081023241874284085418 0.035293684602221812863 -0.051398523574954536886 0.068502004688330606075 0.01680337347252704866 0.013095313498604002622 -0.065032524341541886326 -0.025469099626949744108 0.038011933590168175967 -0.055099502546498875521 -0.020350302533453840798 -0.028237548260776863113 -0.005024616767570913925 -0.054870671770439048698 0.054674404371577299544 -0.012577609327142262943 -0.011204840661143121786 -0.020831194727938522754 -0.093987099152775574473 0.030567479662828016262 -0.058305046700733921539 0.03266186756812212294 -0.087809180661572130977 -0.058795467897423153714 0.074935951721581184337 -0.057829769012399785677 0.072246852683325757383 -0.066899964037940642947 0.025018907042084301273 -0.062188093238029346077 0.031500871570349073258 -0.034299809630747052358 0.029833565661494310106 0.047374163986640294155 0.026027137172392939002 0.046709907631823387175 -0.069653630595328031028 0.0041798702450634760489 -0.01187285168417432854 -0.048247924555488437559 0.0026542088745703431435 -0.040920830709671396352 0.0099942021654932551578 -0.096141757638612782011 0.015300388195143082085 -0.10729366591182201707 0.068207299935032689175 -0.086077872729864612911 -0.046195143545164296661 -0.085721438220782944506 0.08589662948519770358 0.096896346858572485194 -0.01652867541359252096 0.082292932642029498203 -0.022700204356632842917 -0.0086830403424383740402 -0.019948011829874448542 0.059982087969714270592 -0.022041559287855522903 0.068578598389892775344 -0.010654939908824476169 0.0039988110342942207939 -0.035973140975306724942 -0.040420745181310183125 -0.037917849811760162559 -0.051599906028620926013 0.061240921441490243915 -0.06566276160368342274 0.0502064219470851128 -0.015863565686194153193 -0.0084304228895553806611 0.087748782774316858024 -0.050893399083221928236 -0.093312211227696367777 -0.08103869215129920478 -0.051272736839284613342 -0.0053209405139123195153 0.075653439318945317482 -0.017942319108935247951 -0.004985488666802465399 -0.010731275099038253482 -0.091895416109169486552 -0.026490982007993352232 0.051947584120262235707 -0.06390092500343012849 -0.0078457510258430895878 0.03858707625687431142 -0.052270933587531223652 -0.010379792291112683103 -0.056747576893831482014 -0.018693822919484938405 -0.03006464953652986799 -0.0037377572070636118882 -0.0038528786852975479942 -0.019661076001981674793 0.051901394707845972809 -0.0042440951897303414928 0.030889459804829801082 0.031859983423755559862 -0.015994045132073548415 -0.07137231199425134176 -0.063742300273392629717 0.0089393310214075892561 -0.077111599048844833848 -0.046618799035467638203 -0.014296742693248376543 0.049958189247150112944 0.069732747540275932807 -0.072260952955223403671 -0.031453393664369479199 -0.093663972553895094575 0.044375687607279487579 -0.017242284359009658889 -0.039396140538788003427 0.024331274835337542151 -0.081621286121050143358 0.056749158496873113033 0.061603785680732707497 -0.076130726803156731353 -0.012169601156772976921 -0.066860397780176633598 0.085951292257788858286 0.08402429943382699884 -0.07988614113615216672 -0.087497049928886488912 0.035771941814854019137 0.041790486129212114919 0.020746761997342818423 0.033405956798585052792 0.00086792625762952045707 -0.04041347288215487582 0.033479501878734260756 -0.0048422424443010647632 -0.085449197563182560655 -0.07172763646681729055 -0.029059133050138297172 -0.064052001358006899201 0.018932814770149172801 -0.06860816259303527398 -0.011639459177967327944 0.077947147723455928459 0.011814414212177645758 0.0588974733488738314 -0.066029443248347641227 -0.0074210947415400494581 0.084025887533294499332 -0.086770505969253022838 -0.046085235487554818135 -0.044114178742938978117 0.075985913798985671441 0.014142708204278098272 -0.02330450610342638465 0.0086079822322223473879 -0.062598986025023159452 0.030378829169770214802 0.042622993621941579478 -0.016881393601118850623 0.0081686612290445183987 -0.048621069678966059857 7.0616048029134722251e-05 -0.010061360665173661039 0.049518898029222928325 