function [y1,xf1] = TDNN_ctrl(x1,xi1)
%TDNN_CTRL neural network simulation function.
%
% Auto-generated by MATLAB, 22-Aug-2019 01:38:35.
% 
% [y1,xf1] = TDNN_ctrl(x1,xi1) takes these arguments:
%   x1 = 27xTS matrix, input #1
%   xi1 = 27x31 matrix, initial 31 delay states for input #1.
% and returns:
%   y1 = 20xTS matrix, output #1
%   xf1 = 27x31 matrix, final 31 delay states for input #1.
% where TS is the number of timesteps.

% ===== NEURAL NETWORK CONSTANTS =====

% Input 1
x1_step1.xoffset = [293.044084778067;293.047873837639;293.294620487087;293.387415934489;293.56617670884;293.039854370394;293.393497232672;293.084753204318;293.07088928023;293.054200662266;292.882690969098;292.967790631633;0;7.16672802809626e-05;255.648834228516;1.99999994947575e-05;265.549987792969;0;4.81918286823202e-05;262.176635742188;0;4.81918286823202e-05;0;4.81918286823202e-05;0;4.81918286823202e-05;291.15];
x1_step1.gain = [0.325931660024975;0.326752676845628;0.426628451544446;0.345986874465065;0.361194157816859;0.32568604126439;0.432665483402963;0.327537448989321;0.408567455441686;0.360230317510269;0.472256759891732;0.361037746813582;0.00226678498664473;0.00467082245752734;0.0472233511170294;0.010091328952785;0.0540540540540541;0.00238801236449371;0.00368120536396639;0.0515639285393944;0.0026787064581448;0.00730765302345829;0.00277808228050984;0.00344412336193347;0.00399081435545906;0.00981512483774486;0.4];
x1_step1.ymin = -1;

% Layer 1
b1 = [-1.417071793322997264;-1.3638723272285770971;1.28686603810062139;1.2291425855842430526;1.1794576961105209811;-1.1088579517031602606;1.0516574146688097979;0.96258710168777517069;-0.91626229991394236851;-0.88000661724279505282;0.81645848233990392373;0.72996282430111358863;0.69781562353114834352;0.61095910334526237762;-0.58052463369131379611;0.51747484638354823705;-0.45319878741294605806;-0.37532526601406729361;0.31179233716177229274;-0.28434012918280471283;0.22308874181076798759;-0.13534127980755603082;-0.10010533704852582482;-0.039658397456613300736;0.026210762127801420784;0.10277949034452237009;0.16191894029788217457;0.22144413444930202695;-0.27041595177351052115;-0.33676331119613023279;-0.40415902499066058695;-0.45840244881645592079;0.49836045423309510705;-0.5791786984362151669;0.60807745809700730621;-0.69422475842729813866;-0.76046896402233121748;0.79825336514109757058;-0.87821207278111290684;-0.92750113307079518066;0.99796115339876412254;1.05780454551722225;1.1148237356498462702;1.1721125783924399855;1.2365246683962642926;-1.2646545356810074967;-1.3452518287393322449;-1.3913082542451997714];
IW1_1 = [0.051943601996746573135 -0.031579420290087645284 0.051406189429752481568 0.077893634386599477915 0.055161241710334305011 0.0027744501561633490988 -0.057911145332182278889 -0.066499189564788702134 0.024567726540239635813 0.023328379064897594025 0.051033046777838271535 0.0051057736437404429783 -0.05324120608207693478 -0.05800201371003942119 -0.083009557329708286155 0.011767819560426131392 -0.00055302179864768878387 -0.052554783005211894165 0.05505467618658612533 0.076842407491822722898 -0.028300037685100816465 -0.039762454289892792958 0.065020112678632169256 0.041404346238494170451 -0.066188369983168293675 0.079657390952168963261 -0.055990271497082362562 -0.054967109301107278108 -0.0020800905562739250773 -0.059805652170535121559 -0.079534869854135312184 0.027005440771061855337 0.052232402182750124753 -0.069874370052159712197 0.023176156790098663418 0.030407337098294330568 -0.077006768608305159463 0.06792798412468988023 0.013906407758607818026 -0.070213918557203158777 0.079670796911766289528 0.054916507006470181851 0.0065037542673793864723 0.064625608139408069475 0.038333050054792462691 -0.062839709011324768051 0.030914675372469158782 -0.043837713016782853259 0.020387235707855225902 0.0044518991527674684275 -0.025252870196319707197 -0.015050035464516853603 0.070430596773705361757 0.075672815447142022238 0.075791649878776956584 0.021741819251530399709 -0.032413358445822812448 0.024721520436278718313 0.078190492315120943556 0.0080449087912904046482 0.048108138955165781481 -0.015809453236777168406 0.049525433711656727254 0.028525075699870221235 -0.066947190387494900921 -0.036242079409264431333 0.068048836966473902343 -0.065221095729421543763 0.051210331288596526444 0.042474656510765228246 0.072139808081583753352 0.065596810400916291672 -0.011585523492655873043 0.040399762201269534545 -0.047346447073044112264 -0.076434305995419615787 0.08143735520864536781 0.031075099881335319085 -0.059147470638921138819 -0.024953960617726721194 0.051584947540758069318 -0.0083349689892530162 -0.0785348435747929563 -0.0027013084659755935354 0.078565398035562630796 -0.063545974937351978884 0.029465624554966277082 -0.03089037063641624295 0.037001689798471612547 -0.0054014481896813189288 0.032577593622819062125 0.013947999302539435332 -0.061646968360589866898 -0.042037943283927563243 -0.017057378479060695403 0.062187683066646147478 -0.051764991682531825978 -0.0066802958745991120396 0.041267950078153717297 -0.049608857724554852875 0.052778069799146593022 -0.058004388915087204404 -0.0060512293826827118909 -0.032508865275492696001 -0.061780478797764118437 -0.0065301024421701298062 -0.027934750789702932766 0.065187009129914499916 0.030976852077821557391 0.0083437143767635339048 -0.020553386611716833315 0.034848482091949295469 -0.04251210589554612479 -0.05635928550194502229 -0.029955621925848423953 -0.039264320767400905099 0.042760278507122648217 -0.070595434069685020217 0.016637095267644320951 -0.0052679818759706065201 -0.01858713151840151942 0.027303247476099207908 -0.080734828794597077173 -0.039750112554375154061 0.034941649313594523585 0.070118756042363866721 0.032730652613917894656 0.063662562106807096818 0.044657884781539911034 -0.0068971735293279299445 0.061613412949535796559 0.029418569944649756304 -0.037684682992459535289 0.029251240993129753315 0.044696179137233907341 0.0013246621765918870518 0.0792172480222858022 0.02341902205357234909 -0.031433894379938730201 0.034167052234275581413 -0.042924763493277492965 -0.014452330410029343155 0.058687969434944371738 -0.030279875028412606836 -0.0098305678131112243096 0.026911279582464732452 0.016264725901430941019 -0.0034781663121857676717 0.0053676943455764044091 -0.079400875421417313471 -0.016026077719824862594 -0.0022350537940711359686 0.021142452306971554893 0.073618430899065445683 0.046789668280743400286 -0.032539878843192829305 -0.022390127362829397722 -0.010879844907001366 0.085107717777672883819 0.031350742969873057753 -0.012926609774451085222 0.0077452607532387477557 -0.018085111317058755187 -0.0034752757081974159671 0.0051874733429128237414 -0.029673486390027096343 0.0030349861427453987683 -0.011282725743196712898 0.022787261106941576749 -0.00035282144152949478479 -0.011070715121250152349 0.051630349551878250425 0.035434855741362993042 -0.042975731664988407743 -0.061155859067532007678 -0.045453399216772785718 0.05051875056645917933 0.083199201616980286711 0.068057143399346861634 -0.038128563666813275468 0.0063584174602724129535 0.0013590922366376483911 -0.04895040152830307939 0.043203250515212961169 -0.048257231688347806964 0.080144766118792912235 0.034598122695758924683 -0.060153639703649383619 -0.0022335435435334896441 0.012121926391015537539 -0.064404068846918488545 0.018869461371078574685 0.05120830733293947612 0.049178092109724902414 0.07301152090883565593 0.0032594200377520144742 -0.070039634194300759429 0.034418819601654479512 0.062536410612011553156 0.055285987062979553841 0.026816263776868392438 -0.021544987079649993017 -0.05462374968468380193 0.039788978345834037642 0.004020068493126007815 0.057010956186383819622 -0.045710498693490177191 0.049536806164513946804 0.059389403261417651747 0.033770015636506597878 0.081020345737638027606 -0.0081314905054401444978 0.08609196479525224599 -0.040337900546202822005 0.068928806450486920787 0.04421571114609199743 0.070823057516706658387 0.070776411744879183519 0.079160208995593991932 0.038136236323786321112 0.027552566105748806102 -0.054344617390194090156 0.040369416525540241514 0.057809191218724409467 0.068910758494671375818 0.017968271121561390363 0.026508274065721110918 0.026401232281893866061 0.02712557207534301365 0.0052120958071603688475 0.050173181634581190402 -0.033847165587417196719 -0.041239427186223816257 0.02323194446726843318 0.073379294637424860581 0.064755809137915176787 0.0055871988231159719004 0.06827883203763092379 0.017579925491391045628 0.047978655978964321327 0.018320628298505049064 -0.022441734181624355821 0.0053064061103586081594 -0.02803360403358710895 -0.026656031547533744208 -0.06562114768031197809 0.020283427409530090102 0.022928974226931284064 -0.062010316359319084256 0.061398933654856005515 -0.052681329585343335264 -0.037278043124681262133 -0.045059441083409777773 0.062423109587102371121 0.071657246298590729361 0.0092839201589036673273 0.026975880051713016505 -0.050129738493085947149 -0.052109149209667672553 -0.034156257524261608716 0.08610464474462495299 0.076998873307041790226 0.052772642715567821825 -0.012214362168862433894 -0.018920025611947402511 0.085550703993575991091 -0.028737062741879804834 -0.010849056850865413867 -0.020345303494781329101 -0.00092551092054811629796 -0.07442075083701504834 -0.068655218973118548043 -0.068215312405618525049 0.048081919745092224772 0.054951832799468816604 -0.018821309610090090902 -0.051717378137962531637 0.07364420977995796147 0.0017190226232142657384 0.082975550470621564636 -0.045004152955444180761 0.055557671854879434048 -0.060649683837086666716 0.023078300023903940835 0.053823470430351863514 0.047090394088769770009 0.072336969497382219707 0.054316031621260883744 0.06994055297309992314 -0.023982183274889695007 -0.038650010813723482961 0.023918504504152983403 -0.010758898148260502212 0.042787900235683726247 -0.065232758178550134809 -0.019942657273603388995 -0.081860171889905686271 0.037845105164867838543 -0.060840924054901643347 0.030182763035524931561 0.060046843718009362822 -0.027266656160186395624 0.045758973820642048769 -0.010188224616947934645 0.07817346636617308886 -0.065559808446253003966 0.025389656510320567084 -0.058004552753771435047 -0.016448455377889494716 -0.033777661104160042194 0.0082508754646120775061 0.01666742950663173406 -0.0059943270585316637059 0.022286466454568460566 -0.057496210146159215659 -0.06468546403981910442 -0.070402891557277705314 -0.044380602983151537511 -0.048954584145118371086 -0.024110780829098968359 0.0092135816190956742328 -0.0030131258031040972917 0.027393077652445533415 -0.032731778306091530162 0.030825706158901854809 -0.013514291977035724351 -0.019110538320246919092 -0.0655250550310461366 -0.037785046723226370369 -0.034576209762954286664 -0.050137035522801486065 -0.060266050044262449437 -0.078224486897828085508 0.018537969558137443876 0.077959015842980289301 0.021994164298860464229 0.031415827714028003725 0.030755323336868901907 0.024105888877620582772 -0.049677049209142336295 0.0024040940729791421097 0.043800592355843152859 -0.073565729331461104934 0.067260934341066253017 0.081876397420787117021 0.027473306646973359724 0.027130550806881346265 0.049198636512235931206 0.00033158824082419962286 -0.055178906237366473486 -0.018099099139089767918 0.022914423205326078792 -0.075450013884594144264 0.074889831184566518774 -0.031152869949129795291 0.048118386744278929257 -0.013669248736077098741 -0.0083520092603434435002 -0.06190682637304771585 0.017521234340547493097 -0.030557754914318828454 0.053394338693386264594 -0.045264698313764499538 0.058138801073469928427 -0.033822154954809564853 -0.062178454067562047292 -0.055980962163156927636 0.0051353432361211934568 0.02455421832020227707 0.02696711669472249065 -0.08322461375366307923 -0.012818414588375546398 -0.03128525090391597735 -0.019637058360838472587 -0.059895451149768248744 -0.019353106668518717942 0.060986457540296690194 -0.05190816155532364945 -0.06067709995893882241 -0.00080798847786778282311 0.066219667744823920708 -0.060313702797169042868 0.061429910461224146445 0.013600906646740002978 -0.07317102123642486855 0.033125281028781920767 -0.060599412864911508803 0.070953584764109442484 0.010694276789755563853 -0.0057380674383697713795 -0.064129872694494508001 -0.02853243450636576764 0.021280877184569103183 -0.062345664305619628853 0.059501514768608224082 0.01540265190959115571 -0.042390652368816797435 0.026344124983223322217 0.04536969653259610713 -0.012276769557691412024 0.0096429146247818901122 0.011662195779305776361 0.046452913725345129636 0.067934262242288726008 0.040240054197378929968 -0.035589870588408560603 0.015965584125412334709 -0.017675417843184389188 0.019210167173596397888 -0.0040538501701829340526 -0.058766511104413374222 0.063118663931197332984 -0.07835441142798045544 0.02387201597467244682 0.0064074788479524177887 0.04570846932521809014 0.016507296169823441195 0.026736554023501678951 -0.028787203917373480055 -0.047228132172096357055 -0.064714022097592222016 -0.062626466906319816497 0.05654022500323434286 0.02388053633255454028 -0.0093936082457916798838 0.017963790345261625159 0.067069275536778480418 0.052635507130027951728 0.054452665226114776997 -0.016457012736438965395 -0.057947282371110804544 -0.050573903937878202097 -0.022474412017856819357 -0.024452540897630260092 0.0056325411404468039497 -0.04688958987207324236 -0.037685830180653176469 0.079128972064788624663 -0.019654450839506971277 -0.063466623456362600275 0.065291992771090670566 0.053444756849725452708 -0.00088611476416627650132 0.029201200619832543004 0.085159339863694033523 -0.07051622864325092499 0.043672733616434082637 -0.0095193116355730428985 -0.037299266605499543925 0.034034279892724790539 -0.039671662286806436137 -0.082142329859913335022 0.055649620627891097091 -0.044019056402269891859 -0.049658214335458250588 -0.047158543672034154703 -0.055255747852587175362 -0.048560329069677089786 0.050497310504632082762 0.049139927723673149096 0.055394449385079654047 0.037931221622213226463 -0.064633671539324075161 0.082369466316062053823 -0.042251415969061657807 0.076609559484888525849 -0.0013375374911395567293 0.072328493033386509481 0.055533409526805237177 0.057164951646033461408 0.0040695744753257391199 0.075376703344698398057 -0.043854448467193364591 -0.0039727383655389324202 0.034518954474627876194 -0.03236188049979107223 0.080864999162313516701 0.024550495684129210183 -0.008786678025457189331 -0.067574491708881204155 0.043614325841596697508 0.08463566874016399677 0.081820922438922458197 -0.039844830007992659837 -0.041313582962740631743 -0.042522150592222487941 0.068147940437833051663 0.045587363361903783521 0.020717950682800419238 0.069458768344299440245 -0.054805404064594623326 0.0043018936243693272833 -0.072601114129274876841 0.016530374190257362405 0.077309227854265472057 -0.049900773666152663244 0.038349201771858992815 -0.057760350952210298692 0.049180128967732904266 -0.037098860553618072389 0.0051259704681006186891 0.08876295462655307833 -0.010781897410209472649 0.011255776693071163283 0.025355754712778625498 0.013209188311603182672 0.066018214692720719738 -0.0203837288565750889 -0.041090209073795846972 0.062709023289856988259 -0.061045573867519006828 -0.030342674003018009488 0.044078612185242130317 -0.0025648368030520385212 -0.039110519804229165741 -0.068449695769704721471 0.036280572783822198635 -0.015830580885125677959 0.075787831193285665199 -0.040126290762578752103 -0.043839564198497063541 -0.016659783523509281988 0.015688315913293442161 0.015448460448329447148 -0.061457331112580095012 0.034463546931304295251 0.0060776945922897396279 0.076563417311849915614 -0.020390274403455772162 -0.013756223737021417569 -0.059557860357079744906 0.029899494645300526974 0.070269269553282623364 -0.043819252809126942039 -0.065453340146266747457 0.022186424684292251064 0.062483263070603672906 -0.062147475999032253391 0.056548317247491597382 -0.046431746782910635063 0.051145706773281451873 0.050240218406895680026 -0.057427069575152138448 -0.047464764654718154258 0.015203724683319300506 -0.00059058979843632246256 0.031575921065514371555 0.054883385952103985739 -0.06888931488898350497 0.00081829704164238621037 0.076234557658020077331 0.017779525994932373484 0.01814975793907644061 -0.028685740829076031289 0.076702427652734314623 -0.0063011795966602078545 -0.0034657595511103944132 -0.045945760773961702439 0.061159946122312257299 -0.016052330826331125124 -0.0056267509429330500245 0.0039448869723395559722 0.081782627675471952777 0.011959487178492815562 -0.012874040682336301833 -0.03371269306735511645 0.015449959837292755183 -0.065431901477419354696 0.007342391275868766394 -0.0096689450955211291711 -0.066340326152376352664 0.078733273871357686846 0.081281944755004179037 0.078935326536792860264 -0.050846970169913685567 0.07510435916575664006 0.027840431698013701212 -0.0672516212338521574 -0.069555815430306949798 -0.052478597147249013422 -0.051651903233481621935 0.075700612031496417043 0.012615676762278246748 -0.068462139871416652359 -0.0051669607572209083277 -0.051095731773530224384 0.02374627879229548183 -0.010548867135184646429 -0.045008449485390476796 0.074332787640312009136 0.0051376229001259326665 0.042855031947347799193 0.02505854150337934183 -0.018474562794242976871 -0.034452681298903532758 0.043366366228534763971 0.0078858860419838885253 0.071288553563076006991 -0.037612041174126031873 -0.034939816378559862553 0.055619118115754373477 -0.023346124052170468682 -0.0054085498302043812785 0.031090519455640158036 -0.016754915983877897989 -0.01746867128737289096 0.059708913320991312268 -0.032714683127390030426 -0.035588707336082957278 0.051246319795351595594 -0.0095546252988725731414 0.09051982711001935189 -0.072378908109343567667 -0.037166842439153788269 -0.025489018061191213993 0.0052773964818268667698 -0.0034042042524086327075 -0.072749817850209438919 -0.022253411087768702747 0.0070788982470082481915 0.031542671215516446259 0.04188694908536356315 0.080743275397924266223 0.031028062689083368841 -0.061079095264860439052 0.075675654680925949491 -0.046158689186181892095 0.055748495803179289043 -0.048119404546502222986 -0.053539251930312607708 -0.051650413320335770984 0.068042430211487259228 -0.02933568180463461475 0.051293855195803463032 0.029108606813701903143 0.057661982498194590263 -0.0068761574053546508159 -0.081094500730627391838 -0.06170251806270324324 0.057562993134697891529 0.033309502417170254451 0.013674460291476649501 0.033657830797342115636 -0.023411555430601121292 -0.034164160054093707652 0.076284601958810163702 -0.058996723483212096251 0.0032671723472736040154 0.056754158858606400251 -0.065998516433408385695 -0.071373307886748588169 -0.0017260515622604740045 -0.039344573652874095804 0.042474404999414364092 -0.010744454359973277385 0.014049288201858510863 0.074935041492619119952 0.051223083571680629034 0.080894816819459480772 0.079925415179054229431 -0.063270194726779763195 0.020116192964304974167 -0.054360077559389749502 0.057705244324104593145 -0.028223954478358709297 -0.054938849036067320675 0.013413516653141643528 0.030407131555465607975 0.038661475168659933943 0.086159413667249926116 0.0037771156567531984256 -0.043728902499362731771 0.03728904157186678503 -0.074814246995493882686 -0.070380276056194485124 -0.015687882401277372657 -0.035498974547839318161 -0.081132694848596989545 0.018538037768266173166 -0.048735236745038948425 0.015855789149177196978 -0.0076296759871916476972 0.043223855646096223659 -0.045818089898517044833 -0.071813596123202552701 0.029573032617057133653 0.066701516416805592402 -0.051267664170911934896 -0.063655650396144777825 -0.019511766964823224618 0.087500281590417269828 -0.0022798916672861651612 0.088685736007750662346 0.067965035900527562274 -0.035191753049392586472 0.053755790739890986496 0.049008200165173550211 -0.02175195313125756133 0.053059754999679999143 0.031385004828845805558 -0.031919633519788936926 -0.01660544805403309232 -0.0058193889176722827725 -0.035700179348315159988 -0.038794966215608996107 0.043012530730910568388 -0.078701016379499721953 0.0045562836602129680105 0.0031057464193349937527 -0.071648453536926684504 -0.054656500693768358956 0.081981785223841044385 0.077278183038046927011 0.039025738900315333491 0.066324118452705596582 -0.072774977489405118236 -0.018554469352613612437 -0.0019189055843409094735 0.056174025322791906745 -0.064002385305497691559 0.047658648017521301754 0.053403629659797322016 0.021431531045459074197 0.051777613690008376934 0.071547623531000664743 -0.053067575911867337357 -0.026870542197272046653 0.018814020243211115185 0.066989168102737875476 0.051673854219167009161 -0.040022842107613962326 -0.019037570847275860769 0.050665252498567202311 0.071859237703024006483 -0.044877621158214121844 0.074736931797364999919 -0.0036199968268514999201 0.023874891325319641533 0.045994462878834310726 -0.028750839827331241966 -0.023337758985848118531 -0.069625609722988035521 0.041174862247644293534 -0.046027697523671279312 0.056885928812690556011 0.037162031801219554128 0.019037785485900855786 0.078419500533719266322 -0.063941957157049034155 -0.033139744276726154637 -0.068583638929598789158 0.057787058714934960713 -0.031595669027916259419 -0.02978000737559347022 -0.051416477974803385942 0.0013862597312736027987 -0.014134283849559496626 0.014364681380468426533 0.049608205707104835458 0.065283284487250181627 -0.059232121522548517034 0.058829850895058065363 0.060458013753977586646 -0.065440747000378163278 -0.0040580686785489841067 0.082579450154614167379 0.022445798287318959735 -0.019168597488298071141 -0.029786700605764333816 -0.011323255708787088869 0.057503329856206902848 -0.03426948486759285456 -0.035468759646466771485 -0.01191326481789355303 -0.01712418543228784451 -0.057738828352704447966 0.090821231396550544668 0.042882227557795311867 -0.045950433510368024481 0.0012738746154808814649 0.066420641588458076421 -0.058979216232607718784 -0.0049566930070138130043 -0.047678394418158874524 0.03240470198865662288 -0.055944093710783952822 -0.059087152805195691796 -0.00063565584273618145564 0.054350601973218427843 0.02087205206577040853 -0.024036467867044060409 -0.023413558811430121992 0.041109410792707141991 0.03463305070619305398 0.062483410382632553759 -0.06376025156327974619 0.061477874338278719335 -0.0031794266422855697353 -0.006801555274644161507 -0.046592245318495525974 -0.057076833191183444505 0.044814140427915108433 0.065995657311246236354 0.072878531827522033404 -0.015790968365575107357 0.04354091379016340746 -0.0492413438117692559 0.051573860671816428025 -0.030741687016200305166 0.026283911463209266163 -0.026173242082643058404 0.0091971057963788696576 0.018016053883541501002 0.048602230799359602553 -0.010475160134857258026 -0.0011450844908045779581 -0.079019358611982906671 -0.059437178529203320287 -0.078830876234403893243 0.0042525312559043466909 0.045563217247190833381 -0.024587545690866668274 0.014816082570648928668 -0.063125349671119337924 0.043568223929492659596 0.047349515021795407499 0.04478135827044985029 0.013568142968718506503 -0.06351180639713806253 -0.023827239349495418774 0.024680018728164731384 -0.034359397986729267593 0.024506353611649472207 0.081554390091140238628 -0.0089975821979874984202 -0.076423175491042036334 0.011236077583362187246 -0.072584602144643683985 0.010425662291231816911 -0.013341748595028126226 0.031820156555432771439 -0.0044681346362867397845 0.057133342731857675312 -0.023308267845368747795 -0.077909408623341822042 0.044318578519739755539 0.010383488068496567538 -0.052099539366188142575 -0.014260255236408544977 0.032911835221917012939 -0.062936479099661601921 -0.034382987315459558053 -0.073498107532022682875 -0.02038514316700837728 -0.057046926682291811128 -0.032427927452574369094 0.016387628943331962461 -0.071193034297612645123 0.029302767481645224101 0.033100147698069959379 0.010612396242573509525 -0.056722128842651854674 0.083030583293930079747 -0.0067912711644885137216;0.011255062792577761807 -0.054076494681749395776 -0.072385768291212002068 0.052620034263382450823 0.06697692244702765918 -0.03699814845386256712 -0.018541510093524931485 -0.082396887131807081128 0.023241242787922802154 0.059266085850024380344 0.034040836671582939965 0.052680401202150298201 -0.06065145299221470776 -0.037860471799719096209 0.061258689022665541168 -0.038647485419870154788 -0.057178932098058493638 0.009202245586484638154 -0.047382796721877541712 -0.040102106382481524094 -0.026818555661309594756 0.01880929788204196984 -0.059677466888174227067 -0.063452226925351948306 0.031893111596501919069 0.082532941755594765865 0.028706028803830906104 -0.087292284710262013636 0.077117539314472002832 -0.066200771650906917176 0.018822066370654748357 -0.0047670223097789595282 0.026425150273931524714 0.017846106592260078255 -0.090377491829565684278 -0.090803390237041564648 -0.054426424811334445097 0.060157419960872107745 -0.060405510075697742278 0.058552955525646217805 -0.011185740139307938021 -0.076941401152884100756 0.020745844360112963151 -0.0423012371310358265 -0.031095601011181146778 0.092384758882259873647 0.046712700245000661481 0.06385020987310864593 0.069696773460648842047 -0.04085231530227340091 -0.0061840747275498106697 -0.041691210048666826893 0.053990553936571893112 0.01360597886694856623 0.0045518448647189329453 0.011555809821985948277 0.044169261879163278228 -0.027215862600522264247 0.043560545067540076825 -0.018131556453597551942 0.038708737485459936145 0.050654372357246964242 0.041631054146848728292 -0.07531655155671501678 -0.0077800514639240420448 0.02142015220394855729 -0.069999019440618384658 -0.041664211687157726161 0.019603228625718130407 -0.042205536263008672226 -0.089080134441378786003 0.0046991408402921363077 0.011391694618079097404 0.070022593084555537213 0.052087516126943018968 -0.022300526001737364795 0.033899759256132790119 0.068313745289174471198 0.051620788353787902536 -0.054729412941028163231 0.021326694472058271151 -0.082301160614541138405 -0.028370682412607168416 -0.064952438402366988179 0.040427150475992434941 0.034885586718658580241 -0.0048207521349498023977 0.045625981524855051263 0.0063910010404965881745 -0.048408135091350910917 0.058677803865388761251 -0.015038270924938045708 -0.076024465785229713988 0.083168902090443697084 0.063069120358203722976 -0.046247474740954551409 -0.067444360889649987434 -0.0036949494680266984498 0.02945797108897945174 0.073981677086079014605 0.050596667363886148328 0.069053782130137839057 -0.053983171182245943964 -0.016112970688405843511 0.076256406757179137634 0.061676363294564308382 -0.043978094158015235138 0.066093218900200353949 0.065297321956438600377 -0.061097891899396197801 -0.072819213494104903517 -0.084363514359959479449 -0.056105490233528565458 0.070673946815402469146 -0.065664053951017264943 0.065915037885953320362 -0.064673887235914398475 0.052362692423027316913 -0.074346960697489167247 -4.874666860113632599e-05 0.002126498638851538614 0.040227197742039144668 -0.084446959093537624086 -0.01128560108046417973 -0.086915665366041186535 0.084121938881520891274 -0.040548202766753561888 -0.076493050119376224116 0.063509891402468696131 0.0018717810646285872999 -0.041206053878618677244 0.069575474743719056825 -0.028141722063207749022 -0.038264458957010590023 0.015449023919931857349 -0.033838031967674896128 0.063408300353254051784 -0.018106871093965262731 0.040293636220303200024 0.039264855046878738287 0.0035461280885112473303 -0.0049581067993046540332 -0.046169058953304878412 -0.052365835706098283475 -0.012527206034974485913 0.065292948800333386328 0.014456670423337278017 -0.024318496063688813114 0.011573963017776189854 -0.04963329651303912543 -0.013516640572373393378 0.052777460548052837486 0.047800620590188698522 0.085397085760130955756 -0.073415709980119758793 0.0053241840304128996639 0.03430311829589476752 -0.033369063011349883729 -0.059918345255674292094 -0.026477708115474628964 0.016340847496260579863 0.0092789211806743546879 -0.05762958558550973498 -0.047154109560718575345 0.061521768920789601798 0.010665345113084966425 -0.0013642641214796883027 -0.073120890701878007989 -0.060611599951425926269 -0.083376266796983469765 -0.046865632659004348437 0.043852284299182198168 0.068998468614868121995 -0.026461590150633488433 0.029015384154344289053 -0.065928160859466192201 0.0068020527718115680535 -0.040349162247016998051 -0.038535344200861798569 -0.053109662379459077197 0.069450282767494361802 -0.026073659330182599042 0.079802310455989788895 0.038886299349877619103 -0.063469649670542777065 -0.024311818917298763654 0.084401216050905392141 0.0039470020586541481808 0.053430824448655031556 0.037051971276812568912 0.058304038479465157552 0.075165090904504461289 0.03833699223511529558 0.070689584152487619506 0.06332183106300791342 -0.05320928449101648694 0.066068037934206666484 -0.064951613315229389523 -0.032837281737486012645 0.023437366239964216308 0.015533313998591743998 -0.029861768446809711097 0.063431833534793452545 -0.081089253327541063743 -0.020393766403661601344 -0.077604790608450532896 0.065135636891069992327 0.037364458117131210679 0.0364228295750612871 0.018796628225258085743 -0.01110039973795781329 0.012184280016107593148 -0.046763702411760102451 0.062002965769732680534 -0.0085812869533851230536 -0.030760446676553723083 -0.088088514601787362701 0.010961823953018052374 -0.05172365958721561463 -0.052773280968919138167 -0.060916688997151989537 -0.017546691188710859116 -0.053682455411900739661 0.033693562568068831375 -0.0040900144330069942988 0.022158236550566413198 -0.00079003663952338068661 0.021612401693204535275 0.06701975132529855439 0.051998786584712200498 0.024566084734682559765 -0.050332967726794991536 0.057176760156697301052 -0.041527678895174953422 -0.050924688062273813782 -0.084464407505877123206 -0.00072289586979411410341 0.027768674330563170721 -0.030667821793071467495 0.062216331705946800734 0.086108758202869506437 -0.022483639554841481495 0.041995954312156420773 -0.039872585583638923967 -0.03050510550145764388 -0.037291502648026622624 -0.015609785547877928075 0.025345996964365787724 -0.042767182787622655404 0.06023829286050240428 -0.082091815929990694101 -0.017914185681952070339 -0.037060652729904365599 0.068073932265430250887 0.056616946751626207046 -0.0021993870313476485655 -0.059768978035807891758 -0.03543554627570393023 0.061797823867514915797 -0.036396601658254021383 -0.026605736453759361304 -0.01961296723048591012 -0.066927694301477561045 -0.017269764082589258297 -0.015030621593762505395 0.022523849181703071293 0.041344786855089070421 -0.063212598270065034622 -0.059699625710684094126 -0.067145940904556722373 -0.044144646524233784046 -0.055419393601725444598 0.013740084683339794103 -0.061158486886315019393 0.045735168279298507588 -0.068470462824737135521 -0.020620699348062578038 0.0019594228116905426304 0.028535734597472908053 0.03985925800434356181 -0.040162771018392537381 -0.001980228533211848916 0.0041659839974630408221 -0.040508642272744067869 -0.078294820140655169149 -0.02654077170418739362 0.052043164840492185663 -0.044645636103334142286 0.075973494987744097373 -0.08280469456839184561 0.0027491707239607646 -0.054490064260631340676 0.07332044486814838502 0.006603272789039155502 -0.038223563741291023688 -0.016398750988026473269 0.0055703282659233105401 -0.025898518023140203875 0.034845664208634226366 0.03573187062397958913 0.0027622208436919454266 0.055828007266271427456 0.034717470951874142282 -0.028319075198541862615 0.025154581122247859915 -0.071112082821185557124 0.050082008591704321732 0.036066582240345437804 -0.063764529720965870685 0.0048713812168874352435 0.051299578981890102403 0.019322807026077616632 0.053102083085144628771 -0.083549092734142321737 -0.06925305651761512471 -0.050143764064344613363 -0.0029465688147826099748 -0.040846931139594776228 0.0055803187325904456823 0.09818812734452714297 0.045306064443903136529 0.071094053694114339725 -0.0013342637708441970959 -0.0034666642461044843912 0.026754024779621934232 0.070954269073328649076 0.071831496486003745816 0.0022599640986604896571 -0.010122383353979245643 0.027618578402346462969 -0.0002996217747940098982 -0.042194225568250920411 0.039238535877626400106 -0.020867230068509930868 -0.069372294425937092166 0.0016758839806242644896 0.0012412613011208745595 0.062817572637206803288 -0.062653719033136448524 0.041340982071270397646 -0.092198267302991673833 0.023112627269190742785 -0.045527223003410284552 0.032904165774507533604 -0.02485254176381486782 0.066244717371757452784 -0.013983361021220748824 0.042281611521559930855 0.044337870563759602949 -0.045437044082159060154 0.062716142964717683239 -0.014438038531354620286 -0.0014580644148158208168 0.058205092912543332506 0.036412983400035188464 -0.045797800537752834937 0.020515542659794404334 0.042797112506436835178 -0.016100622349438854786 0.045173647667779273651 -0.046121127478799851807 -0.068199640174882295018 0.0088763707767590734748 -0.048413500113998912677 -0.013097120107873653008 -0.061635941735009101838 -0.073715627849770176683 -0.024550913505250807067 0.0070192668010972125714 -0.01542526392609135967 -0.053454524781994909588 -0.030110620377833494793 0.044267606257618066778 0.043636916473888946733 -0.036749410291423631469 -0.034659292474270166073 0.065539247091110031107 -0.029196580571591364273 -0.03023257468026481834 0.064631505306316644477 0.071413690406202365302 -0.07796075210581199233 -0.044929651664367166453 -0.0677177259037714252 -0.059878598346359279692 -0.022183404688068526084 -0.024868828258184250829 -0.026236167401279649608 -0.051505646035552701822 0.016957473416042742609 -0.012671583077707895826 -0.032837303098921265254 -0.058133142872565345127 -0.032362890224618710844 -0.038474200522323455387 -0.042220720246994455915 -0.052909718211448138192 -0.068317365389884948668 -0.052157001975771409563 -0.038309660972277621849 0.040316105402959170889 0.0097285646907993676702 -0.011615337213600371649 -0.021571181070988553613 0.031379611922001726665 0.033848271743320064442 -0.061750678920564995578 -0.039691881671298827328 0.061999432585025514297 -0.055456413703816952177 -0.081370513711507871935 0.051858770508880651373 0.043154320510901129915 0.049638529433581886352 0.050023424862667871527 -0.028245937917531094979 -0.051615063072946922029 0.063853919661458674595 0.033520257627144993406 -0.070638184284047597639 -0.030812682541216648846 0.023371921034003616258 -0.012460768819233809801 -0.015626049538955792684 0.037291256140898156046 -0.054123259508151978781 0.0052053858112340164674 -0.011362115507265031084 -0.0078036101060782459005 -0.020630195468297998079 -0.049283151893042359548 -0.044205618334180282747 -0.00066565312579552763164 -0.062094401859986277092 0.045469919158610934418 -0.076547764433394907546 -0.039906350268727922015 0.017932013448431545488 -0.080321987857262716615 -0.012585210810013179247 0.059366839693910627984 0.075278959277618046064 -0.072560657873485145952 0.023641741108765778473 0.029507269232642800022 0.053927698086490061247 -0.045057044636548734817 0.01325218302881252079 0.063728477771887281911 0.034194742000021115247 -0.0054247354995313806433 0.052091288373788333099 -0.009912068889289245982 0.061444665990668133337 -0.06003357296938399007 0.004864452734062276254 -0.054582247382025946003 -0.064548850469169138933 0.05584092764549585669 -0.077269645670048917041 0.035468973856749443085 0.056758516383649891546 -0.074617056392351013838 0.07462835159018949005 0.075286545212475020072 -0.03928442397961826732 0.054237756939317753602 -0.055066053817196806974 0.056697166310083924046 -0.065695455475062072837 -0.082288393557525402189 0.073070652544050443411 0.0011652474923597591974 -0.023093644060527749456 0.070312617536080437852 0.031698886569404324809 0.062947620864583428424 0.012544629339445586072 -0.054385330940874165861 0.05926509286694909423 0.012646380303506449608 0.0041916288622978843323 0.042550016651808970913 0.022587712414224421498 -0.073020723455115080225 -0.043345948757695526576 0.050863554185751357062 -0.025268658444095131593 -0.060689771988947940895 -0.0037070679683141542077 -0.066924709582059371815 -0.048995481205573163108 -0.0076831002600466309291 -0.0087995433855772089982 -0.0012097288570704250229 -0.044286715757700288731 0.048330184495560521429 -0.078465186808602774282 0.013429299222999097063 0.011570261120902130408 0.042523955187425334368 -0.073637114092570510326 -0.027274561791942701638 -0.057809462986858718703 0.021083587198787619166 -0.074446771742062864408 0.072951483378164136417 0.011921594849476234781 0.0059841039017380793369 0.046462552269951051809 -0.038661697769804499736 -0.0043340938647415160404 -0.072614243144143372777 0.00010045005031517928484 0.00267941993924199727 0.021689955273043768497 -0.025391332783816500385 -0.045759635564784170714 0.044864416693302572314 -0.074479070477012965235 -0.065800732398690595093 0.055139238611580439209 -0.06884508871863750934 0.043021038981722464767 0.019669383662512422012 0.072553049107700925968 -0.012718668976370481674 0.074333496077197885876 0.062995996576194465688 0.033472392339952063145 -0.056224377923219291675 -0.0048524629052037514601 -0.0068367319259050943203 0.064877886329370443308 -0.058446325318181259478 -0.060319416578725630618 -0.03070949231809666502 0.068025631408011197343 0.015500346936553423272 -0.063656270942432313653 -0.06214691327858953146 -0.05730300045612456844 0.0091873340509467053133 -0.051358496380262838588 0.027945979051233128115 0.059919140347612816211 -0.0063541062405066657884 0.019715677012269557794 -0.00028254611205305807733 0.019330533153467405888 0.020531960549700734725 -0.03514444552776394004 -0.068002020728739440147 0.014711647120564594338 -0.024512049775043589367 -0.054165668690122223405 0.041904924889885272754 0.061398280245220482332 0.048674503993494488974 -0.084175631988675878037 0.081103107412107675045 -0.039627736645309358243 0.088424366797399220341 0.04396481629571293015 0.036592157971541673656 -0.0015902929588515136907 -0.064261025611393143842 -0.030040419193389015368 -0.057554402789576651622 -0.019446352093565395097 -0.050281311361517484759 -0.060902642267959876399 -0.0025992803737953959313 0.048283024862671650168 0.037456570319910210964 0.050328670550200460543 -0.0081429586654694074976 0.0698653224705443332 0.068121829225276986364 -0.066990961696110171153 -0.064519180795729449973 0.014634496059151052422 0.038867731974308240839 -0.066251683313693660038 -0.051560605298097736404 0.048561371202857459006 0.022637962997361833067 -0.00065842026914363603607 -0.032551672208290839683 0.052222668165956741271 -0.028708695916802889903 0.039843597299033271797 0.055612177243739610577 -0.082052770583904990898 -0.014628752107400248492 -0.0050787126940054988858 0.065487670979235357294 0.016058491064614474619 -0.075976450405100801055 -0.044639974823188079134 -0.021817696276110600667 -0.024281889347843726989 0.0070367671013972649119 0.044249984023371817521 -0.057733717024126829376 0.039989400630470503528 0.0256951594667605282 -0.077496912267406223296 -0.00069238206091660396777 0.0068536102687412068027 -0.066230915621170505236 0.081300294064385936199 0.019934040549999029052 0.0033536896642648523006 -0.022191703936485729365 0.042663870524112718075 0.05692461172933321184 -0.064472663208126543277 -0.012945588183497447332 -0.022541256042105953239 0.04891813731491375522 -0.028435618063615598211 -0.06706822069062769176 0.020335853495257145279 -0.035331808622381374874 -0.06881969422221809185 -0.03144083006144924447 0.072183947660841976668 -0.082293627788093792752 -0.075658641181910346596 0.068701773046392008992 0.063023240443229835983 0.06156797380156560362 0.012443133069011689043 0.006246556458398695201 0.066191621323708704772 -0.031938474094815032245 -0.0080329265083088716853 0.030736202079516074942 0.037604167058170455407 0.053203581335977578881 0.0018103113357410788135 0.0084612392405665742129 -0.060603115589538847363 -0.041197826015135961819 -0.025597606018500498187 0.01290345278340218442 -0.048351970136106176001 0.078003399967832759421 -0.012533067178921521861 0.028788090722786423281 0.029872660342276566997 -0.051690762692361502673 0.036612190868916448527 -0.04534264376702342586 -0.01051358791420385283 -0.078859919878317683017 -0.020828832866778095728 -0.054036712228231191524 0.0063975406747845131594 0.019224028011821634593 -0.029867180065321241589 -0.0035824376247317554246 0.037399594818299145005 0.024549873169391854544 -0.047827927606361612944 0.00287179920941136365 -0.04892486491372240176 -0.053946802126740203698 -0.047943463119200967204 -0.017377834589924319453 -0.0065154598270164912344 0.042529036224144341205 -0.071415286539819003431 0.042545509307178978886 -0.041138031690934093176 0.047326352290507675558 -0.023540671778557471089 0.06694628278093325835 -0.061458446401949487492 0.072708622466071265444 -0.0090592689924073824953 0.068162790118443158938 0.0026671402274247879051 -0.065208610927946539237 0.01924708757420694194 0.015042595719127627857 0.07706819171432076343 -0.017075313265458989809 0.010232727447634775222 0.019576668667567478921 0.03083346025959198336 -0.079944280180717794404 0.022634733506983771567 -0.090273761641372393671 0.028040283356226426009 0.043324395664330273004 0.024417577237967075937 -0.015016007820019820762 -0.056127017128646677913 0.047803416947811053217 0.059199393239402132993 -0.022391980560993948041 -0.0082725648662460831567 0.082646365106850347426 -0.01554983955547329863 -0.048849435148130386508 -0.011694470710550202222 0.075748202289362548401 0.0056058211298652353 0.062356782015637567118 0.0048275861535626097068 0.023707799844589771271 -0.0065323828183629743804 0.054836179272742632818 -0.058093226168857627079 -0.0043962066983863805694 0.0071195937571315696946 0.031904435946313168537 -0.017771998161192521792 0.064517125743972017493 0.039452228112240229907 0.037788053046285297043 0.0087827854396449363261 0.014163057456739850531 -0.059517477842238625252 0.03974927688946296167 -0.01317479250726922603 0.053951072780675603247 -0.014173805710766656726 -0.067519985928796266705 -0.054699138629257064437 -0.014278120729614133047 -0.016969718147482142773 -0.046767231989581048435 -0.014673436892106490881 0.037555904617597654638 -0.066164362677042745653 -0.061760556315692362317 0.08125073098889289136 -0.075501176288513313639 -0.028088297348758770045 0.0043073051848407026276 -0.056746603793374539304 0.068161505956954790419 -0.0012679656017934375859 0.036070887260126312246 -0.019612023192497073099 -0.032811859898459271034 -0.024199350309530669872 0.034173759400911191131 0.048058730883021573421 -0.012008118676048741211 0.05995318834703949884 0.076066598364996171333 -0.092977017770811770658 -0.016441799713460294313 0.031707955991245762029 -0.030807769089775491334 -0.029489867198125796488 -0.01601249814582411668 -0.047676868621822458827 0.036637840902846385838 -0.0085642476823510303718 0.0086348124443727681393 -0.066309956543372752802 0.069212403642880615529 0.010664043621594995748 0.011631025338031760266 -0.067990798451458278606 0.035344237230457174748 0.048107467836095971214 -0.044080644088628925803 0.067703492015986188601 -0.052793545034069938593 0.064972822859454007483 0.06443014397746436861 0.027866520553411159439 0.028256845937854244838 -0.049696284386971822933 0.0019842477468816682382 -0.017675457314873580655 -0.094273910338564720357 0.017334414621085678793 0.065208870414942332605 -0.0073632774058545675047 -0.053206803566257836191 -0.030212514565392315641 -0.037274770585015402913 0.019168934788668625518 -0.027911634003751593924 -0.034037275861243963815 0.065778893130140500545 0.0077519402001676755362 -0.024995950187223513889 0.061426978247663244215 0.032549334830671364238 -0.018852971719650214039 0.031973726534085138151 0.044466425417106922313 -0.046915685988843200405 -0.050468642496854988766 -0.020576631823713376762 0.067877563463993151327 0.057876356447540459882 0.03094610431171216508 -0.061166344684542864329 0.058889890689766785647 0.0059160508889882614317 0.016609795772993752455 -0.061951103606290185144 0.069299310642412764727 -0.073021654146282533038 -0.079089036569930340481 -0.000756660441346173945 -0.059012864358585680191 0.059968869514428813083 0.07666619958183226724 0.064551514895512779324 -0.07272674314582647237 -0.058281953863172732133 0.031246257884767172225 -0.071964384611852352802 0.057940119490722474804 -0.042552605281073518917 -0.036423738082806439431 0.054510575629439290968 -0.017454844216746204927 0.024192033341426711496 -0.041562446155541665771 0.038959586210878624501 0.072707132697773541041 0.032604611038413590374 0.046846330009795801586 0.074440685883490273489 -0.022608233054595520961 -0.081096902509728091557 -0.080171186519229983847 0.069604378105519212894 -0.011585325769844142044 -0.064436092520957680141 0.030542824163599449627 0.052615278367119260039 0.0076874450527142723991 -0.072418373569985483584 0.077526061577355087628 -0.011967037095191649515 0.075253509016020625477 0.023413699176835420929 0.017255932647728587648 -0.043009834309882422065 -0.02534515453341332214 0.075738375141070735097 0.0094086930349302436843 -0.065873953459909387331 0.065035955817524804257 0.0028016881499387039089 -0.06273529142301659256 0.019526391966317113713 0.091801513807761594976 -0.0074734075939610492348 -0.020633200702623376993 -0.059178437735683223075 -0.013827233575990903816;-0.068282442095929332671 0.004262797581698694882 -0.033382047342356759023 0.015826593951439964919 -0.063512550752568230905 0.014799289026675042577 0.071289953000393174731 -0.037511385178863307366 -0.030468948391542276938 0.0052912143320956476697 0.050696073710864993089 0.038153424686703359126 0.050000966741202815258 -0.064596424493701384839 -0.069874332110622050518 -0.072647349360966798071 0.045749948238049523153 0.040794878134654925794 -0.080097037586674565968 -0.002511262149809304501 0.070163024470574555935 0.012942922565032559737 -0.0032985191990588429503 -0.021800377466569265117 0.048635580728385037486 -0.021969589864674805152 -0.068462775062916439439 -0.078524439997572692551 0.042777833487114114153 0.010176391910232224572 -0.034020635511658299521 -0.047565968181325746222 -0.068315844023105726235 0.041085793257408284584 0.079252477127261772294 -0.047806958544598883443 -0.0036151746376625088115 0.065206206058438243023 0.031410296373712537354 0.061000275060436856545 0.0014813611876316845443 0.03145075987306462928 0.0047240159754387989893 -0.023774913710413896062 -0.041010982212567083371 0.070506824530297856901 0.03964985272584881093 -0.07450183835532640797 -0.063572348866239136722 0.0051480582010569563012 0.057464801404385340566 -0.029200309311548273972 0.001379451019698005234 0.038581375955920753362 0.0057302058737341166755 -0.064417709182204324625 0.042440576458576677321 -0.044979051421078899975 0.084339684353670077432 0.034002234871603240207 -0.065018522973809014798 -0.035775357976867844245 0.084011303506816972786 0.072608734675799077585 0.045976162459554902051 -0.05406328767661208734 -0.06822374117940996352 -0.081740915201725022898 0.012231411987356364396 -0.036237056023677050032 0.0085357206855281014118 -0.056208074002995128682 -0.025395993371844814007 -0.052019649042161136832 0.024052974180038783764 0.051982912835479407054 -0.0078381531729032564298 0.077389653555331783252 0.00074117010003258386713 -0.058314678899237776255 -0.011899202023691223679 0.061115507929634119155 -0.0060148265019771126813 -0.0058513086925157361054 -0.023953287403188187887 0.045423933001258048892 -0.033882401702917806785 0.054954779277772446144 0.063730985019873190311 -0.05903428704495611995 0.076532140707801954438 0.022818413962841257309 -0.070389643546180449829 -0.016350222693123122458 0.06754672533388533795 -0.051003141496231405028 0.018057910624169282165 -0.051030858287053754152 0.070857361047666059251 0.046784639386831715357 0.031401572911596342674 -0.0094820087999827711023 0.016820546301387500482 0.0029516908696317371505 0.050284514806950057764 0.035431151637840704871 -0.042580968615530727372 -0.019514882418595162761 -0.027536380242707474836 -0.047149681996044627563 -0.067632677866476142992 0.07907897527112600633 0.01584410069906845922 0.035316821452963956252 0.077213573900215284884 0.044706378235909567664 0.061280676567830295876 -0.010205199240060251059 -0.017231579826036937109 -0.0083302387999260301549 -0.060470859323688487541 0.003189070575569325286 0.042605716526680180445 0.016975806155576124434 0.078301519799793647958 0.056035008031365282632 -0.0019383476988271192056 0.0079541693665525405738 0.017110550942908420158 -0.069995818188553438066 0.0023829285522832446137 0.068533855710765298475 0.065466057266553120964 -0.0051257306766988690316 0.0077378106774849677793 0.033120090588643458229 -0.037416469953680149552 -0.02462551223206907447 0.073279928616292622223 -0.026803133351713259031 -0.040429180165638824163 -0.033327550286198992513 0.0035549629185137690025 -0.060361635605267395521 0.067432085577661227127 0.062435524717942884887 -0.071563978091053886965 0.058313847864340677407 0.072684103034914987473 -0.0035183463838716101668 0.0029847366967035850009 -0.036010133367340151078 0.049389966816079773626 0.018248985087415500739 -0.054366614049431945255 -0.061904401282849519372 0.074708164968730159106 0.0076213189443710468302 -0.048516636679907659824 -0.0075875216396504201535 0.04488241781839407557 -0.084297218205398094515 0.050802356951979890654 -0.0035772821743835863349 -0.03489224681447149895 0.016562428129923315728 -0.03984535111882202274 0.0090295643857989382752 -0.012733536576613448121 3.0826260408124730159e-05 -0.023167117938981459518 -0.074806422278394596459 -0.04546319310857005469 0.067382119213512545186 -0.08351634708593960732 -0.062920738793495883945 0.019335224609580321797 -0.045060616346548405808 0.070473312435109125573 0.029644099421955564383 -0.0031761927274885563659 0.069243986639420551654 0.016276059379812145983 0.045886608965014334671 0.055070912877727098977 0.024344514533477856766 -0.064016208618305814326 0.022528358662207873669 0.0080262697385462457994 -0.024742853832692250637 -0.033898097357370308991 -0.040710039719400743785 0.014896666542473156053 -0.033133566761245548948 0.051469122922830685962 -0.025711959459101447339 0.081750172697068107519 0.054476563428986553295 0.046663830039810207106 0.08379565660261249771 0.080356828404337013461 -0.042918630565901644269 0.061185201015107409939 -0.0034682919885871020191 -0.041231250304299589537 -0.0086933041604362222554 0.017701627123967767635 -0.073092206230840214842 0.016968649494542555056 0.057058769269041652306 0.020900413317216953724 -0.047765609641154532783 0.047732437256017945515 -0.079401668292992624854 -0.028840633132826656859 0.017869503838845064714 -0.054370071736235155158 -0.03156594814088797829 -0.00076224914898048723444 0.013925522517352129093 0.052783523501738101313 -0.053349015817932159134 0.029097426356559569216 -0.059590567459129835381 -0.016680111184636119831 0.063197287209273741992 0.079444277765374549105 -0.051877182574802560566 -0.078176977048419471483 -0.065016235491251572753 0.022037014313497634704 0.074284158688903242918 0.058965142802556012869 -0.030505225353471474709 0.044385810632677845378 0.035026073562473468426 -0.0077938067910857580095 -0.036845403572350284016 0.069224603429447612024 0.042582588739283777635 -0.039838902717110734331 -0.017900603397776330278 0.056200951854661854168 -0.017917863176477501902 -0.053699959430700987262 0.080342091458328296349 -0.01076587550669931212 -0.046891165492230935108 -0.051518388325841137088 -0.056583815195006936793 -0.048493602741175242943 -0.050631593510363170907 -0.054335205685291466937 0.010151155762073881678 0.046788688955388353652 -0.068644346213401319368 -0.080083824866040764778 -0.065699843703004995321 -0.064194582133506844501 0.044467169657468635924 0.00096615290824852181721 -0.035988289810867782337 -0.047329761414782997586 0.0061028168234613829057 -0.050177951998893174923 -0.042996891192938722914 0.079233745547426737144 -0.00039830039515179976829 -0.051128777529408968305 -0.053273922264556905493 0.039790275608708187971 0.027577090523851967296 0.002170923051226762799 -0.063802866326396673324 0.047271493305144955677 -0.046698517257546756642 -0.071004407283280029928 -0.025478762167020312795 -0.076231242096347795467 0.073198240737383651888 0.077992451400031970188 0.032805287627329551836 -0.0026740333154754224003 -0.082226586141315172185 0.021413708344388111826 -0.067897838882866795585 -0.057553286657137388282 -0.0085260856645748006599 0.011317579877284243001 -0.034740663108663291658 -0.042199060138687398414 -0.0043921700300420755264 0.082498790870805499553 -0.050449702797953160927 -0.078741611905817618378 0.032786663030352471149 0.076718788028740159124 -0.048735806457869935981 0.067970932934820343929 0.015408105966098276096 0.021248683767645021314 0.01228620140105484565 -0.040916879189422605823 0.00080851361478932390336 0.032277888002480527307 0.010703813457834025422 -0.067811514715391651986 -0.034473958417064243243 0.0059470796090912367293 -0.082476725643459730675 0.059892789178783115145 0.0055845696546003463154 0.063985829295229612601 0.018918279027124212249 -0.017959109364120175861 -0.02589637286294270424 0.022052989008995944886 0.061246788456225137454 0.0023194634510870630086 -0.033232028293865491231 0.025858866400099600469 0.081160430831180005451 0.055872868647402380848 0.06813709708786665209 0.053161522989641628312 -0.029853072294471386106 -0.066731065901004291141 0.073642663203770539204 0.025618051634227742563 -0.024750101240081003734 -0.052921989095390510605 0.068426371787771694821 0.067175567244757705687 0.028791416296484684256 -0.055207009393658745822 -0.062418443777513689386 -0.031257678555093586226 0.0233195636824435025 -0.064531244308001722843 -0.03899035603146426554 0.041173596862440417499 -0.053301140401505846256 -0.045309203836204153815 -0.075480102041565605431 -0.039033396978837772706 0.052314436674781805703 -0.010196006444977308986 0.033199150278093274291 -0.080397050684351878402 0.01829370727145906983 -0.023333258505695834983 0.044072830695807634072 0.062979351808580913419 0.039711762443337600414 0.030596066335292465554 0.034168064914304359381 -0.0063184508732042673346 0.060556427325968484321 -0.019788797062723156861 -0.034927639708480513747 0.028362224480050778758 -0.0062811336742819648404 -0.027641031318332051625 0.022461108616906238361 -0.082030923710716310837 -0.058179766211357404615 -0.0452932614668371189 -0.013947289007230408847 0.030587902323702443469 0.0029431545257377388428 0.064836356580162263219 0.068008322316660665963 -0.015603902024033134213 -0.067605500631793880029 -0.0002620072718841045048 -0.02832465269380297565 -0.079969757437724373061 0.069400396790278109926 -0.010309874924381099565 0.051174423063007144774 -0.077802602332416898046 -0.042346815389280881292 0.031273727045299425098 0.039260398781122807232 0.0241054732317134493 0.048123116680384880883 -0.045692000450271413881 -0.060295446491710390224 0.052238257810482330301 -0.074626607169715558632 0.066592454861605379635 0.037757036600061438802 -0.034925266723274478453 -0.036242571103759224638 0.061108495969561915651 -0.014431627471152258524 0.069049425551977364202 -0.031420944489226845797 -0.064455301188428959502 0.053073726537891253996 -0.019474223976822972043 0.042598206484865001886 -0.039740904585622065237 0.051507111003372907376 -0.046538918861749656308 -0.041959707887606299825 0.0094250491732109694526 -0.0014395218404083822382 0.010703688829911149616 -0.037927999810590674878 0.055955985613671231638 -0.052947372370472443881 -0.026643003098124146133 -0.02697228220961908271 -0.067386014870944560551 -0.061603250747968289758 -0.077537861593237070168 0.028558903679542751997 0.021553758370675996092 -0.071458630823334604032 0.0012200206519204783665 0.012319503543552384403 0.021278535393316044128 0.0022991300592498536449 0.061160646312216467024 -0.060323532024407947039 0.077440367612079480386 0.046145205991244560295 0.0031965350849541469304 0.07770654387632359994 0.00547106105435575963 0.046520427582343384931 0.042482648576098083759 -0.0087449227970951785155 0.068674843159004600457 0.025527008457222593457 0.025474950332030170397 -0.02384658526257030578 -0.059326196951058549067 0.049816640904250794608 0.0037081676243377534319 0.061859393205412727124 0.017962755260460625678 0.060940224907974356594 -0.073057973245273841179 -0.078365253259205749914 0.081845308945207209672 -0.0037141152404715680434 0.0037151048743274198149 0.0023275674581743968639 -0.042853199234429317777 -0.023462544447282816795 -0.074046411454486177339 0.075768887159111120155 0.032410514127396913842 -0.045309735783046443947 -0.02334605584134842593 -0.017595692062124929783 -0.077370843319074511513 0.076643329498375808995 0.014611190220588304162 -0.012674754585150799224 0.009451879885026437389 0.022026114984339147801 0.042358046501834598074 -0.070670231465611979549 -0.034444328556251589679 0.0058282710070050825976 -0.050720492064011100941 -0.014121924507104486116 0.017499630774518624976 0.078945523754074556355 0.0081314872179321512347 -0.035338792261335322253 0.0040099996950815480767 -0.068140212803698252397 0.06187607810521656565 0.064083475511709148131 0.059691723463609853984 -0.03703535700903506922 -0.075391379288252707846 -0.07159639088728633749 0.0082144491916741335658 0.055660804728286432386 0.075137400260796516349 -0.018811282359828686295 0.078815935754273286351 0.0065911997622661771049 0.029059198109920299918 -0.032929843237726255656 0.015401891349009738663 -0.062769463157051286206 0.080198656013673735865 -0.052809450265835312932 -0.069113267401560679604 0.044036573215219275423 0.032202466542240223979 0.018136356074303878333 0.0038718449632532941224 -0.034073475022835232606 -0.002425640313259693967 -0.0093868874604248111332 -0.0010372034010307539572 -0.042536793208938820932 -0.07871163058654950806 0.044634641919949404054 0.02960994135437109917 -0.051996844130593612709 0.041100056476682945983 -0.01694325374223891803 0.077911988223913139495 0.025274466582017894589 -0.028930194298915669349 0.065431180421390816582 -0.014534893570502360749 -0.010854332855431622629 -0.027069461397277335551 -0.0022074121712610042523 -0.06917255154872690992 -0.033405590538054814875 0.011351298256373945628 0.018376505938692014319 0.058645234867947683421 -0.019635929265878520472 0.0061148643840203071101 -0.020026462825419838465 0.077524934909929177351 0.079602758166702522469 -0.075833211856332724543 -0.083111507725307731675 -0.050615299113654858842 0.063102118613027488592 -0.029386223265604211746 -0.029584425161940101218 -0.056256285962362359565 -0.077572548343871089438 -0.061587267646050096459 -0.06977322796563079077 0.035093573792423997382 0.040261592737299151112 0.047598720968697549871 0.034921336487254567293 -0.028331819289359683189 -0.046749353029534729265 -0.076904460604792002076 0.0053574145945628516563 -0.011441207627749203427 -0.015071326501072443427 -0.0034070893341620568304 -0.028012869087500259779 -0.0020235272848384542634 0.077837396085860391381 -0.055519543364437380639 0.036113412483560314303 0.0098850260859668741265 -0.050847021460169269935 -0.013365435405783760922 0.010900653248044282762 -0.023948492418145058552 -0.043833047955474671586 -0.070723037780931224949 0.010619945015554854706 0.01479250132699599235 -0.015709148919016809737 0.057972496960259328747 -0.00027306574020012690197 0.034034358975588326068 0.040499685483477133874 0.0091303740873609050971 0.044117375488931770411 -0.007429351447767278821 -0.077210165374887756995 0.074631268431004066377 -0.035952445826465187495 0.0061971272489520171783 -0.001418063082155896458 -0.043452914352102869899 0.063818667081464733326 -0.064232801087158522546 0.040632700708404440038 0.0089033829973065702762 0.012875995020370869376 -0.083096701437136169521 -0.031911346127115471083 -0.049595149793146726946 0.011185386193186864362 -0.054232070766829572339 0.0039298370567514492868 -0.011105036091181026692 -0.065913161850811363696 -0.04728894442339969667 -0.02376750368870193808 -0.047239807127650378094 0.065324356449269857516 0.034986475996350505091 0.023077305264639361854 -0.024063473697942202451 -0.063668993461144476886 -0.079012006362828068884 0.084856072584456307406 0.040677528532843933162 0.05147241238697389254 0.049291880665544303419 0.028748081165799937997 -0.043052013420763368678 -0.080404019699865061921 0.075651269265068279979 0.053979328203561466326 -0.02178515068992556078 0.021542137884963109135 -0.073615079282811343719 -0.082992007825039196267 -0.076934742379478407437 0.068316986271819382659 0.040148309935897276424 0.024267449248805215978 0.047541323826823980725 -0.033478443914592162511 -0.082283714473717101123 -0.034959784384953666858 -0.060390513972323922598 -0.041365359999015756387 -0.0067663303287833157645 0.028939826486847144288 0.083560184021659933418 0.0047824276968861526363 -0.0090309073267266764401 0.013279751016012784209 0.0076507111733168254447 -0.071666544634979970074 -0.00071536699674564754783 -0.051315924487744066229 0.058063699529327834903 -0.034189502434665362818 0.025600800604726147575 -0.044336369669349097455 0.0729065132911801278 0.065662974347750452386 0.011879703777115746891 0.015365081113374612701 0.061960304987958743361 -0.056257881977734743029 0.008430036170715814875 0.008172932519501178994 -0.056346216156515735451 0.079114666155001872605 -0.016198675118391459016 0.049499170790148372401 0.053689352466704885758 -0.075161206524847978816 -0.0098619246626263559058 -0.041939136067658665252 -0.057526647229902014291 0.034237357277571323078 -0.0052403510887593877238 0.016766561789428893053 0.01259262213834015133 -0.044065300011137197023 -0.039560595744254391237 -0.061711308839518148883 -0.064556086668052042876 0.059237084577610454872 0.00040996186419988361145 -0.058576874424832586774 0.063688698709027033451 0.031157816792467162709 0.013708019254646883547 0.063899610156629163549 -0.011611352673656058151 0.078847253551736787291 0.062986656904132312662 0.010758813825291202448 -0.038693279881850554947 0.0019950381457568542622 -0.068929005157873174392 -0.06036247368428816068 0.046745355271510392881 0.05384441209181653476 0.02131493332783804262 0.036659128966322687693 -0.010734542714279586562 -0.0242374462641036445 -0.026156987129511657941 0.04222659563812945771 0.062731166163268320402 0.010161236149201060067 -0.017142544664295548268 0.0038249362250368677471 -0.05915261842629763317 -0.060493446615183486814 0.078843282597363575914 -0.067932719668721996964 0.069784260586278859528 0.069845295099396131899 -0.010205270217393232549 0.052170577019185544743 0.070738542711470536739 -0.050866362340525196617 0.056907404880601163144 0.019014002852160039048 -0.029485861146312075665 0.077031263083398943126 0.027145837402378487219 0.081454807587557284676 -0.043790241311357835929 -0.044155823686930030514 -0.030317242943480090384 -0.0025629127623584060935 -0.076836448246876590251 -0.026286512965960809329 0.045165219141141250969 -0.073062751514556545374 0.04239804503413958231 0.077634592861145379494 -0.00050946684111143644529 -0.050181634576364445022 -0.032022934964810581548 -0.014964398726963290195 -0.01125093815363313772 -0.062286183291245335314 0.078300952728362460675 0.047600486456426768789 0.049247731691737475779 0.043343353108376128646 -0.0086295755131127437065 -0.054619122394267818899 -0.046797036481186549128 -0.028161041057472243482 0.035816820128491758113 0.046440858228761289217 0.021719286799474279287 0.02043140086859184662 -0.009823941495635521437 -0.039619797816635653198 -0.0094857588622202747286 -0.04289846688344514658 0.080827531816574857415 0.087080521563526219753 -0.039740461432496820837 -0.053739721532814803406 0.0088362444828317641965 0.032492712551950991839 0.043056420792710409229 0.037296237174562173189 -0.068391057995439055728 -0.057751351380148696624 -0.00033181870041023355531 0.079707799834516507298 0.021821125947429825809 0.070411119830893487137 0.026332027630961662296 -0.05263398029719830451 -0.072584166859026619245 0.01802620296595926902 0.071583028379702637323 -0.066881490391949127705 -0.079231825276303680106 -0.046228870496323952455 0.08733924207324940403 -0.074569684104832376081 -0.0064209391215158811983 0.015842395329138985599 0.043158003719320825464 -0.064310448330284430973 -0.024400405807845887418 0.0041042585286785301588 0.05008835264675688681 -0.049880259511946453688 0.0066003386778846293709 -0.01211922706352800902 -0.026141642544611185667 -0.0060176518686209049674 -0.032227482696899498182 -0.03235400877444936929 -0.054513812124138388837 0.016362486086118125522 0.044735330300975865991 0.043942562539264790056 0.017738373893160776229 -0.058459998937182823531 0.05934705726089568173 -0.056753314953509687024 0.036460487477287105429 0.074731273056901872942 -0.00085643494501981337272 -0.074177366601261063295 0.036259678925989378973 -0.040714775682465953466 0.012545044081018620619 -0.015714560748915938626 0.071342233518450856589 -0.065708102787981600978 0.043820154295301880221 0.018460516343061499078 0.071671589555910700242 0.075514150050699016536 -0.05917551719340903571 0.072003580346848380933 -0.034313595811283230386 0.053665049493877493847 0.029478361853670406734 0.080844388300598729602 -0.00089389578177476094068 -0.012850263763379011703 -0.05141094968171146945 -0.020231550759302142917 0.017059080758205454054 0.012973130198551731732 -0.078472614255644432268 0.047099605820425195779 0.01855758617631700011 0.028019950235460923393 0.084690079708889920429 -0.038493349128505320589 0.0089475504671533336726 -0.015021731393290382872 -0.035734286311307969508 -0.0023519357930274482731 0.020786343261989616293 -0.0020458957685399346491 -0.042839262579230201478 0.041472745055972953798 -0.028020442568199806221 -0.052236543850698598235 0.0052838670571811697727 0.00058714630384527183825 -0.035507019022635435967 -0.024514103164488237896 -0.022194902245275323349 -0.079891987254634977411 0.059758279135432995632 -0.010612882062388955678 0.02671478548204096401 -0.011561486224329484834 0.013603594016516848755 -0.068550945098229579266 -0.067463653586367966497 0.053040473581083609489 -0.079924925146664230202 0.086438795416770561331 -0.042476457545714343955 0.0031248490908644798586 -0.005210347231260582454 -0.069273803542478307183 -0.047884339282889591682 0.075054259144950188909 0.074365727164377726233 -0.066332066233845021763 0.033699688468993634072 -0.061241815828842693925 -0.018015808035995253128 0.042221288004479350098 -0.052063844522462189579 0.027167047446048933623 -0.040258499522474081034 0.045417633692441505833 -0.03165762041232732249 0.00047109433929787400321 0.069719511638682812871 -0.067157737424515598357 -0.048262706976702388073 0.014585736412324376218 0.0796666572824303032 -0.036910933478734302138;-0.021736756957622498099 0.057456001270360497479 0.028451725645199564541 0.0065709767313944685008 0.071233785472349375745 -0.075244666283791505901 -0.050460367721205948155 0.009532004544920020736 -0.05976790736060839937 0.004234286180969147953 -0.033023134553098701383 0.068316177369542971376 -0.02693779036319288861 0.063919839622159080328 0.050632634636045975585 0.022703496546114337873 0.067659638955170825492 0.0017008741228835282285 0.0078854675255272260737 -0.046640930681577430494 0.025023147992347193058 -0.013112802820229300937 -0.016435482961763562409 0.038926150966415169752 -0.081123010542205761797 0.048443752737673949349 -0.040049855823420001111 0.0019007237870468649595 -0.047841798998598000781 0.028169268328668440465 0.011527561847503153131 0.032255325118390611172 0.063619434088329054888 0.01136414776671858945 -0.027196624756764094938 0.013142326315294815611 -0.047148361430042237674 -0.053122620927935550184 0.010661321281663454358 0.022669237718513240293 -0.019604616192040996009 0.041687970689509794286 0.028307185735169958229 0.020287327660022575621 0.035041347780363073239 -0.038603093294288251536 -0.053040891851439606053 0.0063273629912856451524 0.012286875811116227189 -0.0036287455708107676372 -0.07023013048564394345 -0.029007472456544534239 -0.061713421402069749966 0.065326197921531159452 0.039151969215684929992 0.07978862019311785958 0.0029820183101951485555 -0.063516498071572821682 -0.0060237444191536277521 -0.028341837126030066524 -0.016370635081677673006 -0.015143626114611253089 -0.014747109515792087425 0.073144268709922008465 -0.017444693879917223117 -0.06118120349187480822 -0.075331540544904471157 0.01284270428014175694 0.056736102031090675235 -0.057161196553975765489 0.079993937549008936605 -0.062164326657282983901 -0.043862339466883774886 0.042870477074907133164 0.077766383893567408991 -0.0010074339792706201759 -0.073415940763535775249 0.010415775005842958442 0.062077969478521927149 -0.025571756116654947161 -0.051065091893725919614 -0.053752261376419550876 0.034567315214691578251 0.075743445414116788994 -0.010954605622208660534 0.00018554965949064687494 -0.021127487827575196222 0.056194306965611062754 0.015341954286240524 0.072932585942027269854 -0.074330678002488728695 0.073605151115392161709 0.014148389315370936761 0.016457682689765752715 -0.047547117074938277659 -0.064498410786782825466 -0.03845969856228528827 0.038549239743640432987 -0.045179182110599132305 -0.047981373809173971656 -0.07483648184472078968 0.07438372102773357919 -0.06136224230653952727 -0.077857336736992854842 -0.023688938545199583058 0.021597004523979768803 0.073814951381719423606 -0.0069281626396216723293 -0.028049595505270870366 -0.028298189279044150268 -0.07817620820244573776 -0.043729565529732492002 -0.03539850869863910704 -0.035521420672767978211 -0.03433867601540202541 0.046451664672593546979 -0.0009258009949667498923 -0.014905655879581094017 -0.076273625725626792438 0.05311927610612274947 0.041437399440107297588 -0.068357249154044633088 -0.02726506551914302523 0.049312997385858682586 0.068761308040117111173 -0.058724856926057070194 -0.042932908128093645594 -0.041715238872788697189 -0.0088032545570532819146 -0.042023435569275131851 -0.072015529947541886968 -0.025982801830915974728 0.042451657057088677816 -0.0012479730922362675463 -0.048941602695104821641 0.044863615223253279496 0.051267759348447176915 -0.038838150828467532527 0.013826361394789618217 -0.023514420606927270013 0.043415542869512671609 0.011677936030321545494 0.055965265989887602593 -0.068072554387613781746 -0.035206220764613868623 0.013440388877377598686 0.014330250665257938253 -0.055269279471040093366 0.078629529233888162398 -0.060996847733090726884 0.033909765435209911211 -0.070633092312624060072 -0.067985797617534649007 -0.074032963300787374417 -0.050821783090790273452 0.039453412283362472579 -0.040627662713072221212 0.060119063208812502375 -0.05252083200470896579 -0.076886606018087444436 -0.02700814955515103144 -0.045978177016926698173 0.018020394569795795958 0.049198157253357049923 0.033846367929495156657 -0.02952131135680901089 0.00010552238443958166045 0.072129161219863902055 -0.021355095141053184044 0.048752604097534610328 0.057571777435369980713 0.052384408011008867789 -0.032001910193266411286 -0.02162743073899839677 0.050417827001096295059 -0.0036477237722229898312 -0.074496102301343389285 0.022210509938158394527 -0.039988575354128988448 0.028053561542790924482 0.034797166506025899169 -0.0075843138733849707611 -0.056464661995838161257 -0.0082509779523769338772 -0.019199254819432732405 0.048816272794371319554 -0.027013066235708059482 0.072379034951084511573 -0.061053696464417273049 0.033525890601408855907 -0.049455915058949945218 -0.017567612747464433909 0.049917249312930227212 0.02572794661860314594 -0.068773302745299538796 -0.036149559114352414202 0.032945113326292442546 0.041582574956631285223 -0.0251727408399747693 -0.016100670844304876966 -0.078623783958837178965 -0.022626725682694127234 0.076793629393177548215 -0.013180981874327321948 0.047692347794410401562 -0.05944002783260475542 0.059072754971478610986 0.072613616266678490674 0.047500074104618074389 -0.080080108644990335987 -0.027876962162489526964 0.004377668218593377264 -0.021457129409368159295 0.011773521949723817284 0.011592374638081597016 -0.044881113599152665239 0.067345215086359405676 -0.074498424458283987737 0.075596096775036161763 -0.0025369250892422561504 -0.0054584927161271000126 -0.046388632527276235651 -0.053401059524636834697 -0.00093834463728358400401 0.078783677181495079256 -0.07573733354701607523 0.023610660286160468913 -0.052332553827346618702 0.032038163458873218647 0.050339891373278919384 -0.042352782457619815581 -0.042529937683407841031 0.0050987638977693650055 -0.056950114938577822699 -0.05152573679633630499 0.080243574576610507409 0.02032157242430129504 -0.064739657894664556781 -0.0028599560647595916561 0.077268306994895452622 0.0030733284550609443926 0.078295337766155839732 0.049388093152823969723 0.0071555198580309682665 0.054029183336717988284 -0.024320518199425707889 0.053388599417484076948 0.062223950297580682411 0.028310182472265410514 0.053170188074985483273 0.042753196071240187615 0.011529815329336686944 -0.036954005739151099541 0.074385329902961802584 0.039604457975439898154 -0.080590160906134258867 0.016786577571695222855 0.00018908645005996516509 0.020228432816051491322 -0.061718293725123662963 -0.02535202755404846256 0.069083560944074778876 0.063442475735493900069 0.015546733629581671599 0.022728663560079104267 -0.040499156213963730111 -0.039469979477027850034 -0.015156425513052795839 -0.055764073482515517932 0.054749176354520187604 -0.073254676206779778536 0.047363353114328037019 -0.047969128050474138525 -0.03607839232419537967 0.06718374811620593523 0.057574604144112799531 0.023635978485951083389 0.065451036642933099752 -0.042285919789720308182 0.075911626964385123251 0.019984810317366524107 -0.030490655947361049172 0.064769150270093972521 -0.0026477461873911445692 0.04550091004879393275 -0.078486156044416055533 -0.014650393624714000418 -0.016404938693533457211 0.015420907324594390619 -0.056787514168614709742 -0.028757605971021074631 -0.076733520834394039478 0.064188547046964097853 -0.077810476277773155118 -0.028339598815790349035 0.025647653379960569375 0.010950641075133150243 -0.045371464594826972638 0.0048752697078953298113 0.032554929818717041889 -0.017485669661600540536 -0.066921522533798183385 0.01154482920074454029 -0.072541292665284320962 0.0075902830251220552299 -0.075469442555130925032 -0.031735544277513419442 -0.0013322704148762967106 -0.048454894949104772295 -0.063955941301104296537 0.024168374478857206772 0.075221270614394625253 -0.023326758902437377818 0.048092207902980667333 0.018691111837567730286 0.021340781317205945178 0.048468154618798470201 0.049996533372363566317 -0.046605717439177789252 0.03813204988676355961 -0.0061683694274383389991 -0.0059787122074657136211 -0.0091019144653781934584 0.046092715750585912249 0.066616273651110183285 -0.014502925386616054987 0.039351820440716292482 -0.0099174446079641695451 0.0095122483542520244737 0.054922095441627467871 -0.078981912544592414172 -0.030592733460794687556 0.0094203570766857886581 0.038539791114604454725 0.068062030611720322759 -0.079687076592690336829 0.019921527252735885677 0.037175061159750839856 -0.036550069407383159459 -0.052584068910255160612 -0.077478479548362816365 -0.082003383091409046135 -0.043952339208253053682 0.025899236140018076086 0.054516962688951391136 0.01058410469266803447 -0.066434960104064119668 -0.014375397999858400763 0.047092209420933200947 -0.002817472091766703296 -0.027483545388313782021 0.015167197459205670335 -0.033812351836783646752 0.017416997203559787116 0.071812695811626747755 -0.06917216739314673013 -0.034369142624654992757 -0.047176400853862925089 -0.072626709523005511526 -0.041854690552363349454 0.031705013684136723606 0.019346088748741042257 0.013655764742540835166 0.041944922108031204577 0.031392641955540902254 0.063384896123728273754 -0.079983774929093184869 0.0031362930917351555631 -0.058082401114214178561 -0.045696709217326561547 -0.044408479266022170273 -0.065198563014152652317 -0.057036667552661013403 -0.064446300361673439228 -0.055905555417329527712 -0.050325107938574337174 -0.066622919816992157149 0.069540494508547642805 0.064248680121038778679 -0.047559191228193409273 0.019058548230126603346 -0.025989306893503157092 -0.076216198520596592503 -0.055613903251034504938 0.055214662450481996614 0.042232761083845125893 -0.072911416968846870512 -0.014301377862249711401 0.035464531674382092363 -0.012050671565429433088 -0.057974989454539195555 -0.067344062711547830746 -0.04519489797386973956 -0.030417657049778255157 0.062199141114241802974 0.043048949804990757628 -0.054262277718639319313 -0.054795220064697100493 -0.070012059763736769757 -0.037881039017367362787 -0.060153194343887619877 -0.069374402415097707886 0.00067912412968552536476 -0.038526564709240915252 0.015461563216740506835 0.0184595608188367101 -0.012696510717716935623 0.029124146233277178886 0.052532557631108374452 -0.064232488670113954687 -0.01643923311776595772 0.037180044164112233118 0.032665670198976336225 0.051834338368002177977 -0.078865012527086039706 -0.064205842893276007799 -0.024731236727557101562 -0.034017238310915978716 0.041833531342007325426 -0.048904740278511993345 -0.021914970419693906994 -0.012674884096586588531 0.069598245181834952899 0.056487501306193725614 0.068657114793681958687 0.035411205014310741246 -0.00015608732574300620242 -0.010465801807277849006 -0.019089711552260347355 -0.03448966850456264277 -0.060718502401480835273 -0.012754583271316633983 -0.045115041110288120474 -0.071543144260259886047 0.062771275956440136801 -0.026869020771405342785 0.05256817582981770931 0.057574272825735413328 -0.036009418303825861674 0.0098759706918218666954 -0.024936220933434862651 0.079504210016371035241 -0.016869151117584402916 -0.0057514264123465315068 -0.03517078228983166327 -0.072755595634596173515 -0.057048995038266617219 0.054376764434556135175 -0.067568729062454424561 0.056242924869845348224 -0.016922276259738133763 -0.025675135594564069824 -0.034207680375023412356 0.060359717295010460736 -0.010599214992061470331 -0.030657644291725592856 -0.06710695389471030281 0.028913801170738887697 -0.071431785580927956159 -0.073341947506036828108 -0.016600247874231279649 -0.0051449648098041518215 0.056840797025770224693 0.05978582178166002431 0.016592317884832570585 -0.054416540273437813413 -0.062895090628133698551 0.056039642168848706472 0.00060454446036503389945 -0.03816007116214296252 0.055446360745219067101 0.020901931469352791337 -0.028531984982208730833 0.056361722254399636289 0.010671832799941383119 -0.0075813411587676770784 -0.053852224640020311675 -0.074607275916200269106 -0.057743177996146741182 -0.052725121283896253521 -0.048604563522731632219 -0.030521275695586602694 0.0095296088975531621779 -0.0814942314453295652 0.039023982079564215053 0.00088876364484504974135 0.052871631372702641849 0.052241198926560837579 0.059461570766318729009 -0.022235230416033865269 -0.0063721619261364343539 0.027816526822218173159 -0.063989355011018586583 0.020573085011158013385 0.0058257347329119515619 -0.059898867004568541461 0.072281544678508904966 0.025019382122677506775 -0.037694748551408412129 0.077443001283733894913 -0.017149940225266727817 0.042778785824205654842 0.06676333330163752855 -0.012063930170968758734 -0.055679038706273338566 0.067109050371371686827 -0.078127596133965346303 0.0045755325712269296831 0.067314277660734125885 0.053013697214083083109 0.036270328156820935694 -0.075076621715931365908 -0.032769573673220649124 0.034204705006883717733 0.047993134703904018201 0.024021411397376037783 -0.050917510656241726785 -0.061037209319201299329 0.079070023264338304414 0.055941010926303894046 0.06047867283861531329 0.065837286416388016153 0.075042188891645975057 0.059814802990143543793 0.012503235784468522823 -0.08201986339002712012 -0.029021728691796276622 -0.015873019935207961784 0.02444776949898852525 -0.056709880327410727707 0.046346202796831721671 0.063876077641976419796 0.069746667341747003999 0.050927673083406871379 0.024501506541318270743 0.016681483223963646662 -0.04996351375411284268 -0.081968583769216910029 -0.06076157976223463264 0.070727992849957663224 0.035872633940266823727 -0.077329507944128267338 0.00020656495940428183222 0.074395598469009727172 0.023473019628202026338 -0.079110905845576257045 -0.061474852485006670211 -0.06093922274939436029 -0.069474089755103385357 -0.013316072573933015674 -0.042412819452452121816 0.0052411760321027225581 -0.0062413661997978379242 -0.033290085124036007669 -0.045928264979472756269 0.0062947206106283033061 -0.070491883414693576326 0.042960516508379384404 0.0076310989756208308724 0.078833292936816970475 -0.0039106350576219956958 0.053579309914746957311 0.010320930533797447945 -0.023714540686455506252 -0.03539277729414028878 0.039005549857569661587 -0.010746591449456987036 -0.057308892642401194906 0.011689726463039428958 -0.017112883860610300646 -0.047785898570689114284 0.0074764552118118205934 -0.054024385928553825265 -0.057565399725718696677 0.028935285431575998721 0.026955182992593980373 0.067230339680955056303 -0.043905753269225654412 0.0468173525919046013 0.019711762724910535105 -0.016334518977815008778 -0.046994583494002400981 0.058873118456542521126 -0.059846208283255097893 -0.055672688976118801796 -0.016795509575302205313 -0.021333427486468662521 0.034553273267546522063 -0.076935528211997533665 0.050990229151061557122 0.061129833524803417477 -0.017568618352325600374 0.060582373107753502428 -0.075577528521877337941 -0.049688635438698072755 0.032764747627276234743 -0.054816645751941013576 -0.058731881249373993348 -0.025041923941901658018 0.018692990677571647701 0.00088619211078949265345 0.061317707642786385691 -0.032942996797658025132 0.00089220454121053717218 -0.011314947067755355692 0.0531695528155596564 -0.0011915034466767346691 0.011396705201697126045 -0.006448905132637940997 -0.068958232513120165663 0.036555973316527871908 -0.06148550339368465123 -0.020110587395509877534 0.059301933668819549472 0.077704672749291686662 0.057734328612394289482 0.01941153298702902319 -0.035921389826468148876 -0.017086695498173466723 -0.033818724650511042262 -0.05466245484279578376 -0.025491045777858763882 -0.025457499773267111554 -0.026618228355875735852 0.075967958153245251918 -0.069911930001167132964 0.058024629421150296371 0.027691613330684105437 0.0061578249966414751876 0.076322157584674921171 -0.066198477913788328353 0.067654649517997531016 0.0037201331513805752094 0.024531842287811300718 -0.062609647298213111366 0.034158278888698899445 0.038912849023891880884 0.050366732940050298883 0.064335978719948422322 0.049905968014921642251 -0.031917490142506631245 -0.070387628490412468274 0.042707561312334836601 -0.074451184139612963664 -0.016711613267212037381 0.065380516655910367319 0.010186874522269448451 0.0068491691886265176209 -0.075592289450970531761 -0.0076620836888649321988 0.053563600312454079377 -0.012425557156058995856 -0.063282050413828075386 0.060598050168727872478 0.026525509794974630462 -0.076633599308014874185 0.050931836614649589334 0.040357087874799052463 -0.072079137285544950253 -0.010606060722269949198 -0.074978338281427553413 -0.046000715553470052088 0.035890732239236881884 0.077651409900465248604 0.0060444406124607417269 0.053535689976277049673 -0.052595096917696829153 -0.02219098494694946716 0.048191173417462165873 -0.025823039905789997583 0.036407654107913411945 0.067039858713260139234 -0.030325473194648122632 -0.073761797155057789999 0.045968539979470264545 -0.018522356927595257786 0.05100978502063565484 -0.042163629159860174789 -0.038667109268000918187 0.027416349936909025636 -0.017844813780697469513 0.026741854665526920698 0.044540986278398010667 0.0041418959837215274522 0.0045309174220394691016 -0.051350788588446431848 0.050381934511149348288 -0.075764307389210458488 -0.035208278047697327828 0.052348627250352657014 -0.074745993055743142897 0.0088979887450159160511 0.022211517601569592817 0.057326577511416357269 -0.012132531089605590527 -0.080712784270132675868 -0.041895011120186280429 0.011063028383024253731 0.06081077339950938937 -0.046805602498231735353 -0.0088550243586257865874 -0.039327666961027837877 0.04775113425375002163 -0.068952465855611946854 0.034400439672547758474 -0.0097624302442666146401 -0.07805288719734143621 -0.004844263459753893504 0.058798168838580189277 0.078639681799179142474 0.062695621763857720121 -0.011718683846268210594 0.027438677292061574436 0.049820274493072913558 -0.0051095372861709965548 0.0085641779753073306314 -0.0037948034379329089252 -0.010293261219349271116 0.034449281078859313177 0.067611377962527891006 -0.054455353948445174572 -0.041826723056706191506 0.072000187279557176234 0.058027105626494490664 0.048007852156044319991 0.072637016297015064015 0.057710253687134449585 0.026803890873962375047 -0.074740645157921947739 0.013010280518603265301 0.074561968053098170994 0.0016342345770371290506 -0.043970463178296351203 -0.074472825566144096321 -0.061060728770258969333 0.040908245089635218716 -0.038965108208454293792 0.042802629604808913044 0.05568707060308446255 0.0057336956988589234466 0.057473241892860536806 -0.0060383874125915035919 -0.0056060672652410489109 -0.001649578959824182442 -0.0066688450046631150142 -0.0023591983201858793967 -0.046538475416886243563 -0.066101281722058397028 -0.056939042089546976211 0.031461778767912722266 -0.01137827690810623571 -0.081314915289824984956 -0.066711923210805712525 0.026692185818029692812 -0.059181356531704552848 0.074069682244798970561 0.043321785716396374322 -0.055667895117570635743 0.075610184923913553723 0.052039481376516052991 -0.033250495825804589345 -0.072179865786971567077 -0.022642797095858296225 0.02446166688885803922 -0.065814529688865613943 -0.043797999284301773748 -0.051799727427392645851 -0.018997688733526443133 -0.037986723893762411319 0.023288748531774840916 0.042438092916054895309 -0.012254334791910535818 -0.029013002322092508456 -0.071544805383880555327 -0.056108023526970023098 0.048522154767987164814 -0.016723835894042481803 0.030708376218995900309 -0.076970605445749226692 0.034311627525968030339 0.03558594320900029806 0.063375905067907467583 -0.029199195227872034447 -0.067516428399595457277 -0.05035320404601040245 -0.078306849057011782 -0.034785063467479629407 -0.0016805630257735683277 -0.055606397620979901297 -0.072014727165533323761 0.010872501406950608321 0.0054883173224960874956 0.076334645712612350654 0.060348149026500090553 0.027451969830236760961 0.066236660569979816104 0.019540487293461097917 0.066772698459619986289 -0.022252271461749337234 -0.0072989819243022011422 -0.053346982496862573042 0.053999198062157208189 -0.043074721482879878287 -0.014660983231267360125 0.067323992172851274129 -0.040755829903630406974 -0.025469445362627671225 0.0088592382896215144533 0.026560554183872365358 0.024799293616598383494 -0.008822650537848777258 -0.078418844456013311883 -0.070385890980842885645 0.072860684626614477533 0.014674654313216602478 0.080741981568991691431 0.064570172934818120813 0.05726513386415169049 -0.067773073712462938989 -0.03303263613310099267 -0.04626756076167206494 -0.074863730930369271066 -0.081740327979413315851 0.055780580681575202273 0.069580864227769864683 0.067394287287717333235 -0.034930238016191501871 0.0076178070900254756664 -0.0021671423329886092823 0.040724727678719395418 0.040423170563142325762 0.049906675476594823671 -0.051400185655418123565 -0.015819368843971715749 -0.068879910792152942989 0.0068023355122988626853 0.035849787529737317526 0.028123845615934155856 0.062150509096022002464 0.035388156829207456644 0.048687811642853850991 0.079138205048705334566 0.019434584890938955831 0.056955675567811343829 0.062934566052049237261 -0.047945736625633707251 0.066956466524386387684 -0.036921281397978504557 0.0058121364550185877773 0.074118571821377557396 0.055639790121739828022 -0.063460763001710218667 0.077101406423225840592 0.064737839893642679101 -0.0087565739984254622325 -0.034741716046378649796 -0.0013364317905790320477 0.042802980726659702049 -0.035191910221795207059 0.054989256145970874523 0.0063484348718720832322 -0.020647960858816878649 -0.071089249503253473805 -0.076444917857864336241;0.00074908557674168807332 0.05003778429007970513 -0.048486016680002276547 0.038545929729791976459 -0.059944457406658130383 -0.068047246444160006118 0.052362450755891659648 0.080919551709884657287 0.023424917142038984702 0.034513149793933439735 -0.042595116213512002057 0.02133159905789576774 0.065250048874796864884 -0.077410079975595097457 0.0084262298372989388739 -0.017634923797222378655 -0.076538556964069678901 0.001416616038009434024 0.027012267532728541364 0.035616228685308184976 0.0020363914380335623559 -0.020211871757658050192 0.063453495561240511047 -0.007261109161223426936 -0.054902676138569493636 0.026584673417850143012 -0.0031940498324316939083 0.059738562801731460994 -0.0093950480869290017849 -0.022689356487747742303 0.018697191242820217216 -0.0038498961912110610945 -0.02509026440981423911 -0.020475966713435666405 -0.050483049499256915649 0.0013620279764866819079 -0.02467034040521355609 -0.013010348322654989237 -0.06729246078746013715 -0.065526888043827155594 -0.046947836475462988159 -0.010085540627038354008 -0.013258329307482760728 -0.042119820853586967258 0.067373909378984533913 0.034241599087075608177 0.0027473797831556708363 0.045547130555612422298 0.066067303124120180247 -0.030705530900582946735 -0.074944056050199228669 0.052763548050241491916 -0.058179461500705000054 0.0027140275353296963029 0.04303532126632052951 -0.054551278323305148199 0.0032713486250862421935 0.078826224486832519034 0.043548262757441211224 0.069477941596777878508 -0.071904075459286218019 -0.077929726897123977047 0.059902947522836320904 -0.011967981151779754495 0.048009226114794557871 0.008048199103012042277 -0.032635368981789557308 0.00074641803401871915143 -0.019119660222117525888 0.062415459481908457107 0.061104165556458221731 0.030799284423982244835 -0.086246314515683125679 -0.054380179480436094397 -0.033852991405736464203 -0.024738934748995675128 0.016940230995984829898 0.063867402453518545835 -0.086028486046073077143 0.071461120220693175042 -0.027755947574109825216 0.018208116149075026513 0.059186410899650536421 -0.02792386802909925525 -0.02965684119275173794 -0.019793737465407058862 0.0047613014382127429036 0.026267536779938489844 -0.05809347898079292305 -0.0044071112039269968313 -0.067377814738914548753 0.017546559971698478392 0.0091111390919766804819 -0.043360706174331201113 0.074284435592614425636 0.068392924832234330834 -0.016016903061736361552 0.040038937131139297476 0.021065042212579751513 0.067608395906991386459 -0.035328034449070774836 -0.030671499233952296409 -0.022999500161821801597 -0.016690686393273101301 -0.01781308027437696756 -0.059975230819372594981 -0.048644119437945727846 -0.04407749218825852966 0.026157758753908362526 -0.034846868812880127386 -0.0094174433632709698971 0.0080244492877520924579 -0.006374010406588245109 -0.049147431350898385105 0.024270067139774472581 0.045724633024727220909 -0.064186053532878220573 0.012207721614475003369 0.032763289775011708582 -0.058170376451875831225 -0.063824482637238721949 -0.053269193425504964001 -0.045435143759802801289 -0.038905198265195548024 -0.053369159692622826496 -0.023083633647978534648 -0.004389208309038300504 0.085084024033016736333 0.0085634010961909926701 -0.042551452888325583257 0.048010715235407681878 0.040767883458448478384 0.069862509748569640022 0.03939054604105332591 0.079488369205403475171 -0.0045906502093609078893 -0.071813875143010102997 -0.03835950233704933654 -0.043334508926689489783 0.062996233431880613307 0.072993675327376467132 0.051068125944639844449 -0.023964745978891213718 -0.0076125610187751206748 0.0032573026915320756405 -0.0095386656393904086654 -0.015466854650020742459 0.06129791622174378396 0.012404729454250239609 0.023775391765497016355 0.062085228195156536013 0.047305705235095488193 0.060916938495146545629 -0.030388495004810785194 0.074852104502693986299 0.031706553542731101547 0.009542494229622694446 -0.034640695311902239273 0.003743352178591671537 -0.091273420039860511666 0.022516401875964330709 -0.013858193785376136942 -0.014045337246463722447 -0.0033170926999995017231 -0.052055277095801773257 -0.023047394329333104751 0.01143076196493576259 -0.043946700178225620026 0.018351600290948580363 0.00022452714879017785128 -0.0017385362576259179388 -0.025422443496370811938 -0.046947980631959013165 -0.06662842135740469629 0.02853810627143030243 0.040772812200540978211 0.047287698828561063047 0.051568550426025157318 0.018747601847765648503 -0.027248247887150262719 0.047962271240456003096 0.0084167434949070762257 -0.013371706027698342448 0.06438389141194585108 -0.036501819308073751857 0.039363046254034507465 -0.035782159985015056514 -0.072742415859460882177 0.084579918220937327922 -0.056859950450865490157 0.019336189181135794019 0.0048605098190871226169 -0.069282484098759353208 0.027916968675311949061 -0.0079808826013338853705 -0.073428920134062866665 -0.012280000983375706503 -0.043838012506600999851 -0.043978286569352494084 0.0049396065942342156849 -0.030991757532940759218 -0.018326337386974412419 -0.028298758611831512783 -0.046424758470013288703 -0.044989317515408709658 -0.0049084541792990890596 0.068793416290492015452 -0.089964796980353603506 -0.037204909505248566493 0.054338008192775358318 0.075293339990407243123 -0.071265570940087605289 -0.016204938752015091152 -0.044985585376175064865 0.0065276262111734493013 0.013307867205402685445 -0.039333944665510343908 -0.025347836421611317365 0.07532830926581010611 -0.0082468683733610600312 0.08354432687170303129 0.020520627524934446223 0.031604491833894264585 -0.077742341428519962099 -0.010949186893097566028 -0.030389569506033674989 0.078176775922280519748 -0.0081121683841657993286 -0.023758138573570789648 0.060739183033226652741 0.030565074353679878155 0.027432612816478171847 0.071064675582175093616 -0.0077126483837571787119 0.007663974255513381767 0.024679224013908460794 -0.041396449351929751059 0.036657737692292073628 -0.072228631698875805922 -0.087279939691171995464 0.06756605776253826745 -0.085606349625182640017 -0.050369817935613757365 0.054188869090373341375 0.038864438514056784402 0.006086227400566981971 0.075792496348579069254 0.022828130105205492184 -0.020087236217728281218 0.060101241173257692607 0.083799545946595013768 0.057501609764590316809 0.036437266362937516251 -0.0082921247115314549586 0.035567997509142024182 -0.030654124319529081621 0.073651844994850959591 -0.011838138263450488641 0.070110000373059283563 0.077497158071694119408 -0.0086143952614604335505 0.057214839949506803018 -0.01256913589262856866 -0.071244670721482744602 -0.036207413669907866083 -0.082088425035792930706 -0.02060740206392517454 0.060462119566155790584 0.060680195682962803638 -0.050066258661471546576 0.053618685580110791999 -0.0032838593703486910341 0.04838287844301415036 -0.0075532505232116867178 -0.044508850469446130382 -0.052161117533516022926 0.056175901599388664009 0.079507218323760564527 -0.0798720714697181422 -0.067818936470704180297 -0.035020263100169014836 0.023160245195506645038 -0.020637071550878710591 -0.031867267154780706817 -0.0085297523264566479928 -0.0048910167775879156982 -0.019325834251940603864 -0.053961890540987801634 0.018398260257357423181 0.037123112389092889629 0.069908183125755266052 -0.070116413886143313938 -0.083768882695568230856 0.053823407971382561388 -0.0090639507808887870982 -0.021062648722604455226 -0.031030909449134801148 0.048455776375031678338 0.023172631271492560162 0.014887970188575568725 0.031657768543555633856 0.014186868617609035143 0.04486513647696513396 -0.053951735891613665508 0.075300619423980003075 0.014811442583783201651 0.083242924706440873939 -0.0080202895368940395338 0.07641546838587068291 -0.022648466927857571068 0.048140104092341796937 0.02127228774232408845 0.074484477884691438487 0.070050213294428204103 -0.023579974308920947923 -0.010743521824572587961 0.0064847325834971663791 0.0032380462588905566286 0.0040751318837816330118 -0.0943714363216656138 -0.0097762151092374259542 -0.032496845770099189177 -0.035758449651383222845 -0.026125665529743050813 0.073933112719393942469 0.0384929294457592025 -0.0088059773915165253516 -0.018153591828670698205 -0.048976789864436917621 -0.023324512509784397357 0.054950599400924955706 0.0087756036652850179236 0.013476710457849035846 -0.026788796025057761557 0.00018399023237403936814 0.049167773335982919991 -0.02060230234809049682 0.042415944200638822092 0.06285144944892377683 0.050842654672817309824 0.081901238476235621588 -0.0076477974695518327608 0.012742097639821302682 0.015449398682077029876 -0.0077712025017586386019 0.075438220631836222507 0.069411841919704148074 -0.077581943730676478088 0.058847290410871028188 0.075167875557664493025 -0.014851527210623284223 -0.053910926950305491923 0.027844952731725346184 -0.014924458217224078824 0.036232614655458482422 -0.064647168648554048653 0.025663930610383502151 0.068215041656516914315 -0.078222117015647033011 -0.032334183929362880772 -0.010588814311546028771 -0.057822705778911832886 0.031853816076811411473 -0.044214766453965798076 0.065268791692473557275 0.039375374037291556439 -0.0030520022145921676601 -0.040429449879946448287 -0.019792605087161529304 0.03992094265232769279 -0.043547604593983248178 -0.024937430116916636108 -0.035698983828310860977 -0.025191094407301189984 -0.070296008880639290761 0.025675164711095949804 0.013321378662871538948 0.006776084556658514349 -0.030947508366509078603 -0.058898129516763597646 0.040230063698033086128 -0.0087824615423624137478 0.056650573886283993319 -0.049558368792855606033 -0.065735891487915393272 0.020112060637313758371 -0.046756597915880458716 0.072730822061901928555 -0.041612903445699102323 0.023411762901686873628 -0.052572054652266914099 0.030072963924091068721 -0.0091982674831401767257 0.014618415277999575672 0.074703617350125081642 0.033537524163901481777 0.051454494779564756424 -0.057652106598422750428 -0.0036768983113256424079 -0.015576049714639564336 -0.067935179825141356336 -0.014685667675841916624 -0.069756154125327152205 0.033405474393203897499 -0.079801303306305790275 0.0054635447679054083975 -0.072778369278003643417 0.080552161777602507287 -0.039893252256641996423 -0.023490886549791312188 -0.042932237152939742297 0.082303933317208283205 0.041007102291369723623 -0.0068955777813524870082 0.081426170737183445336 0.00059418983886668072167 -0.012101120485084855896 -0.012728419743990981167 0.057343921448182968992 0.00064041518963409518363 0.050754529076960736012 0.014536810693410789561 0.009041107185969813817 -0.032948602785616551425 -0.031338535974897385739 -0.047975201653780837063 -0.052278195957080060563 0.041981866658503626255 -0.084339695469875325395 0.021552636875487366647 0.0048064865597411896014 0.0075418715274267328352 0.078229733310617680098 -0.015696040984958237879 -0.079074610747314089121 -0.039217055745954222667 -0.029695703531928727137 0.042030057738615636542 0.074373202407929508984 -0.073793088659736716384 0.004947060613650289089 -0.010994246627109675873 -0.068230291272856943841 -0.029724943860564245063 0.058942102197567243504 -0.066017134304127964017 0.014780182250755185061 0.020550953785912397936 -0.026920416920672950167 -0.0054747137249683977892 -0.053011373466633093798 -0.010056217829328518293 -0.041184626161670769007 -0.0022376429307537221147 -0.022443905712241741385 -0.039234825624078352446 0.023542872060974461002 0.013308819961618140529 0.047398642669679552641 0.0228041016379753117 0.021350798344713230875 -0.055879325676256703936 -0.026655866733695039034 0.030270733761464944239 -0.025984379305765022833 -0.046467572026197841162 -0.070058737334392884311 0.059169618271558109546 0.069309400671784607284 -0.049416442943661258169 -0.035287786066293326537 -0.087671157263678051175 0.041779028668613764352 0.0042094006524594383342 -0.057680518673069669511 0.048880631425552559244 -0.077190426608666984354 0.059897593649125599469 0.069771385768805066485 -0.087569222704432514437 -0.0088759176670950290511 -0.084822032754911416697 0.065373897677551612295 0.056020621215724597519 -0.065797603912065932841 -0.070986585311689068267 0.027174447994867820949 0.082258163371961665056 0.036820888500695786449 0.066120779681539579298 0.020896420879761068434 0.012953309552260853024 0.034302404942292384626 -0.060734247423186130121 -0.0756617838732322745 -0.070800357221376231109 -0.0053941699574358622365 -0.066828395186468866895 0.025997166565499215535 -0.070098556223312596947 0.010895314894410288581 0.061690515440426696436 0.03768303001210282499 0.065131072534996808931 -0.061372624889699280148 0.0029087727741950006495 0.07273467802471628163 -0.081817575011723819856 -0.063608028776582267727 -0.065149255102638997661 0.048420362033756207676 0.024918477825642333656 -0.0073146925177430119 0.00045879829730052350831 