function [y1,xf1] = TDNN_ctrl(x1,xi1)
%TDNN_CTRL neural network simulation function.
%
% Auto-generated by MATLAB, 28-Jun-2019 15:19:26.
% 
% [y1,xf1] = TDNN_ctrl(x1,xi1) takes these arguments:
%   x1 = 15xTS matrix, input #1
%   xi1 = 15x21 matrix, initial 21 delay states for input #1.
% and returns:
%   y1 = 6xTS matrix, output #1
%   xf1 = 15x21 matrix, final 21 delay states for input #1.
% where TS is the number of timesteps.

% ===== NEURAL NETWORK CONSTANTS =====

% Input 1
x1_step1.xoffset = [290.148990419624;290.149812340978;290.149985271457;290.14963173027;290.149955516867;290.149988994959;-4.35967012890615e-05;255.648834228516;260.740386962891;-4.90255151817109e-05;4.81576826132368e-05;-2.78482166322647e-05;-3.87302934541367e-05;265.549987792969;290.149993896484];
x1_step1.gain = [0.657735893671023;0.657749034032155;0.657749274389891;0.657748239547099;0.657748827006475;0.657750752776786;0.0136338428217357;0.0927153067403077;0.0987566511103644;0.0156226958511585;0.0135597304519621;0.00392419602173661;0.00992080767181847;0.104632096904751;0.657741022501455];
x1_step1.ymin = -1;

% Layer 1
b1 = [1.4135062018676058937;-1.3792095220034161773;1.2906478957570981514;1.2262247019462650943;1.1313389440688270682;-1.1175284648236056828;-1.059733137244753598;1.0181573174230387213;0.93127938972969670495;-0.86747976469702980928;0.83127852667994062141;-0.76523255151466995638;-0.70058575610674878043;-0.68222190722190323431;-0.59649916387778267879;-0.53109097973719898711;-0.41326109669702271177;-0.43064958954082960263;-0.34530347782343551177;-0.27822545411870064358;-0.2247235252175749376;-0.14806372477874402138;0.085894751573859715044;-0.010107147544667141603;-0.058625739681762142896;0.12177311922104992747;-0.15321012126806343723;0.19483705401039030924;0.2388937826181404267;0.3526010225798633102;0.38514970122656261298;0.45830713400117195633;-0.51784093092531002789;0.58918587833054225644;0.67106616038440092264;0.69088746988791960302;-0.76796648271613432435;-0.78926456990499072042;-0.8940347982733285459;-0.95637400814260298265;1.001187562223867733;1.0585975191781489269;1.1390991639822971582;-1.1856992912223776049;1.2370398873582131305;-1.2958555216148976985;-1.3722788377143089189;-1.4357906957439492412];
IW1_1 = [-0.097128016871160419154 0.023065935669005367681 0.080902135223360607807 0.02248491006527999353 0.016486874723856990294 0.091759469370552196321 -0.10551452630449753567 0.089158576633656075328 -0.031577230028509803428 0.054677544071553590976 0.057677049326432493215 -0.0060499368025033898114 -0.09380459398430847362 0.099721083839535207272 -0.053228162452452078279 0.013215153597016976103 -0.045191966680565444359 -0.057811165587765535323 0.12694854156811127832 0.12673853717268060426 -0.095760458838410916771 0.03988173753341962835 0.020250562253599477952 0.055579622289046302919 0.048874123988366040272 -0.084108866000759854864 -0.010500706993330605546 -0.069957011831833906812 -0.077121278644797910951 0.0048595257928544851461 0.032693599627009094222 0.091915527769937541147 0.050561810952090724403 -0.025821292652639354914 0.098084617302173868203 -0.024781990920579931997 0.12150246634097996989 -0.063643810849319928935 0.022674033688713669116 0.057360607713988001621 0.096815879023160647532 0.01234166695358797361 0.083340880789610050083 -0.052870840892340356665 0.035215483068154487811 0.11850059828850745269 0.077768635089859219911 0.071540741610502389669 0.00044938037429318215214 0.077844308138054624235 -0.077476875721339863445 -0.080393373019841590787 -0.12396480106951551781 0.014454190059564898593 -0.1197422289286913244 -0.028476419753267184082 -0.13793804115270949517 -0.0077641439723321187261 -0.095446613405138963637 0.11864441290585535371 -0.0060790816063589353524 -0.047237917000062537576 0.026633952210798152171 -0.080513976983968379986 -0.064600837199817323642 0.051451942415672802245 -0.054004863037444526819 -0.053315841314925678518 -0.11502554642016156461 -0.097993309941855399892 0.1334103733776864642 0.015518292197598829163 0.12662402105481171399 -0.09087121519201589448 -0.086869691910119659073 -0.083821199780035229865 -0.068893864103060073467 0.039045843129433141505 0.040807426798948748248 -0.079905967586494611177 -0.021836544814394818342 0.039795095227147012085 -0.055269577877531013421 -0.13153696354518779055 -0.072634544783337626206 0.096972606756618354162 -0.056621338469774636082 -0.025710412182317607388 0.067317807689597886078 -0.010142521876203808989 0.029482337911353153487 -0.032909595491543403023 -0.01875893206136891242 -0.047984193495239239879 -0.1166211577097697738 -0.060333741502481573471 0.020690841066361039674 -0.037399707979033774974 -0.13034580715514720861 -0.11357364589941504329 0.079532175526621312622 0.073943797377819017735 0.0029129654730565180017 1.217218573726155397e-05 0.00041347877565097406046 -0.066031369122486568979 -0.11591476755199923987 -0.028590369068770118965 0.11954049851743339672 0.079247435899100743262 -0.036068294887007412708 -0.027768146112900154998 0.1114111389976011196 -0.032638442330484539189 0.092919037514189270488 -0.05838019996621227059 0.023567326326864625197 0.041248874706595092809 -0.04551422670346427779 -0.12362784899717974008 0.11564298623023194779 -0.048492703447833331032 0.055629063490378057033 0.023664305220412230196 -0.12567157696475850237 -0.048374027231277628991 0.058893499151888697996 0.079542985635651999865 0.058145859032564931046 -0.14278329166023775998 -0.091877202557400297622 0.0032907134026655161796 0.10895263207471798939 0.01245767709201383612 -0.037997432466813786667 -0.10015918502067625018 0.012559592406518766197 0.041846625202657451725 -0.065656124321967129776 0.042907584426470864181 0.047114879347729607395 0.063556420961999857133 0.078550891104496783912 0.059616859875261836443 0.012238542354451781985 -0.053531650404471199656 -0.060758179615338664403 -0.0037029537055943582621 -0.071369941997512467702 -0.036455261859724204243 0.024306175169296100752 -0.064387516839489664089 -0.1195676859244739626 -0.11674974695693546289 0.096643541887784928379 0.052784263770973505192 -0.091806556729394112049 -0.1228501970495327611 -0.06405049981241875412 -0.02649611089363169622 -0.022857125094426493372 0.05519332654647182701 0.12395870627747736237 -0.096545194078977020213 -0.017245008236071147911 -0.075358949148591009015 -0.057584449825458669525 0.091696136226541533065 0.061483257920993086842 0.071101397036422847586 0.013227784114889373432 0.13271960454998801837 -0.13465604740882308743 0.06494792898944887205 -0.053096411357579094414 -0.088218033932671635622 -0.019005523359069114581 0.073728674490422183019 -0.024147816550638148692 -0.084477001511090957231 -0.089145009631590624299 0.084854180330500336704 -0.13054077238568562169 0.1004853014627544866 0.10576695838044385123 0.051310440695066801553 -0.077907352853358174949 0.10134725424492278811 0.11875219410702085587 -0.13122136884727136907 0.13566084973262976243 0.119791536503899676 -0.029560111536001101168 -0.073678137294902079635 -0.063707651791704025812 0.091746283798470745774 0.025879874355223847493 0.10971091142582699296 0.016850934041727799739 -0.030365293035797543547 0.009747448703545127241 0.0043734110507565072956 -0.0066377268055357284415 0.1054174792291805024 0.10329386726602544921 0.12893094726871109912 -0.07660754878045106242 -0.12282207418087168205 -0.13359331504998323004 0.081818284617013653515 -0.053586547491227050355 -0.09897320630817756093 0.12179317094526913301 0.0044740315763126944568 -0.10306061161844799756 -0.024097708652108539712 -0.035179413133030836003 0.063823080985864547032 -0.0974810182837057837 -0.07611323088232145595 -0.11382750008924907847 -0.09298179173512527429 0.03404466314051710768 0.10837752123798018167 -0.099435004314023536787 -0.013020371704716027922 0.067698500150088658511 0.045660244620286137562 -0.041785684269836448346 0.058669986066391580093 -0.03003295432095627604 0.10213185146062195297 0.074618475313561943851 0.089226168994476939833 -0.096340081733473040271 -0.098040570162420334621 0.040723188456691587767 0.045780480505248188905 -0.015704434414232155276 -0.08756969533603096989 -0.010771378841358371717 0.04926213457359266551 -0.079494922708046214521 -0.066259869190217757229 0.065855550836828022354 0.039338346815850903926 -0.077430279617112532375 0.045803139024508207622 -0.11320822491801460496 -0.098953608278655347252 0.053928283970710290396 -0.11548485206131055281 -0.10289705964085880951 -0.062246279590700580309 -0.10614251881228112251 0.03102198064682772094 -0.062228589951306624573 0.089477683648652772685 0.03346965416907272256 -0.12226936873323415722 -0.10951946479679586233 -0.028606538461436962356 0.1205882052569834384 0.053854999912325882128 0.13444512370524594469 -0.13070996319335073665 0.082889000027498646594 0.095507206980013970021 -0.091055007423026884661 -0.1089287495268740219 0.017675237489083988479 -0.056043583633472476846 -0.0814870976753063192 0.0054746755729010079111 0.056319553035286698539 0.029445994271971490108 0.069059678568631321927 0.13172403538774471454 -0.12505195949567601832 0.018311593584204900742 -0.062975525539792451268 0.10648138911697750675 -0.077730031240312150165 -0.028985378356238995778 0.052797121612352511388 -0.13014332563927630271 0.0051813258206370345349 -0.068070474951497941807 0.042438933326748036479 0.012354966441791842904 -0.093467668601441289411 0.034904449422287667226 0.0042091266712128792143 0.11883543403958765627 -0.057973248998597966264 0.089566467457756496207 -0.10992681275802861085 0.013230486518100128407 -0.031135722952821132115 -0.078458608020203463029 0.065429322667234321442 0.06804685343891889171 0.10575401643175587341 -0.061411361101073980162 0.058353651864229111323 0.002662068099775126602 -0.017759906801037880775 0.087494531145357393176 0.0018867525034732914903 0.029247265061513705309 -0.13837128422815492268 -0.076761382262395982945 -0.05338434996719990111 -0.057022574959866470512 -0.15981398940082958138 -0.049657034217288946454 -0.12247604346808262099 0.081479156831493898538 0.011660394116154455119 0.045843080874877831232 0.066327086012029121131 0.00794620938498935038 -0.074448688933275150581 -0.085145211430640035943 0.11251696588514380204 0.11459529363399556523 -0.11824374553308486524 0.1091925765900814832 0.10146806706234419437 0.1279013268899027167;0.084229900583081343535 -0.091919488084288764052 0.010204300624218282448 -0.022838499322765465349 0.13732738373344058336 -0.015537627757987483579 0.035986532515450128655 0.0032287810232468601782 -0.039927701339756732635 0.045627713810048646514 0.017140321695532922952 0.13433844236143782647 -0.016454488513304700581 -0.0050676842039158558062 -0.035442888542495297466 -0.019244821801265722672 -0.022231924299654155786 0.061305765125515603031 -0.080312655310901051586 -0.030505540194074597798 0.066742689765394574986 0.14811569581166370013 0.0026129805621798560429 0.029231855383799631998 0.076028756526367410884 0.12122931458090308032 -0.071295530936944226386 -0.065182795386727429565 -0.10177391432010220174 -0.10952958795829402516 -0.00011783404240204127999 -0.027056795682886523174 -0.079206218866307048776 0.050668879629968653633 -0.027682083946750292436 0.0033580237050510469698 -0.1052365992236038994 0.12642194410464674403 -0.059019629388921149293 0.014776860872188718118 -0.088776208283267071808 -0.042683484216953615498 -0.076052496162164542892 0.032714465286953445244 -0.019994101967736765957 -0.10087232124991124538 0.042814286808943897988 -0.069000202194196794125 -0.091918755395261592112 -0.026186805029403521783 0.08220998781403429656 0.011816093298349601703 0.056924601561285120832 -0.060900026404653612166 0.15016790040933028494 0.067519632928976877628 0.027188769118646739786 -0.048730436080867647886 0.0070551073904828792357 -0.054815951297447276791 -0.040727812115318340336 -0.0039365553696148703963 0.059270893550600917132 0.12033292887360043377 0.12790996842140922585 0.078488167459607224852 0.011257803909616021648 -0.098983885155066550499 0.1035631076305308651 -0.020824510634334107012 0.028910642173043725467 0.010053072799873502205 0.12048376044674984076 -0.10242567953069367515 0.071644611184854656294 0.081390531840228722005 -0.03416463670081869991 -0.060927244916050532497 -0.029761079776601365859 -0.015375118526892368395 -0.093243422361027894496 0.13143992059047052146 0.11959007646046773687 0.021503016032096901322 0.10181738178552417196 -0.060042237448889874962 -0.031065111628003364008 0.010868765748894917283 -0.069075965421189239324 0.088773868954335505288 0.092165714263123282857 -0.0650234008392410745 -0.11795763707195768 -0.029301170711217613962 0.051127218204371487065 -0.034260819538174329402 -0.11012828708972093039 0.097886761294564320068 0.1481828470804570641 -0.018960624546736346008 0.031359078849053687033 -0.11885994440173393294 -0.018077610190866847534 0.074463296648781970855 0.10117665989643327695 -0.020000587083835112689 -0.13003076706889080127 -0.055971607718202379123 -0.10809256363931592226 0.095431714992910129935 0.018445516287440070352 0.017880022770683349359 0.13444072878323307108 0.020248791236420888434 -0.07918132556432759539 -0.059047662650716932486 -0.018436265541243366389 0.042372386994379430958 -0.050828195371535121738 -0.09573907151463542653 -0.03579440874168023784 0.065425601970682353836 -0.074380594686417875194 0.034896355618513154317 -0.06439499952967683849 -0.051935118893734089074 0.11532026863442422504 0.10496796269845207195 0.10284520841469113606 -0.013692248977104139532 -0.02425329209710534728 -0.018878385335646327703 0.012609298100134076065 0.022830038446580012967 -0.077122369643955218654 -0.086143187026746295687 -0.071813846210243836854 0.052214682364464193309 0.066476958732754359849 0.04723896329835836766 -0.027746497020091975133 -0.088055081159324075091 0.050843799181869889225 0.14702644960260199958 -0.054006733845257975934 -0.14095661150555663377 -0.095666251899214543863 -0.047969360489486176369 0.064357750903604099557 0.05008302632791429565 -0.082570470306081597545 -0.13636851784586520586 0.099528559281139294956 0.055928870456323991067 0.088250567664627868614 0.092124688804238963336 -0.10076466134401100561 -0.03356657244605634749 0.11297343959704859995 -0.099246335961496456868 0.040149191880890611195 -0.0014536420593930284711 0.014724265874720858516 0.07795654442313955379 -0.061033841040135920764 0.041644425688970712618 -0.046146735125428675617 0.085377942965093808758 0.017886270168478685116 -0.01799417429743668112 -0.11074028213296974177 0.038994839120451436909 -0.099775253554113332854 -0.10408387411380001786 0.13180730682352179151 -0.10028353376545662279 -0.038729602520220042516 0.064243193220406655253 -0.0059821049321760943682 0.021311909617229632397 -0.05134072626658246763 0.03091474456588843428 0.032247332040073635462 0.089094959800612189005 0.05399389369722000509 -0.020733501241543893928 0.14816479589943773454 0.10300054796379258526 0.14772505371184108114 -0.042624582772257266217 0.024156024624063191647 0.034094749976025559568 -0.095691143243581147648 0.0070217909321028393332 0.026065898472997377916 -0.11997791493681150832 -0.10764830793764622319 0.057876606068060436339 0.089536228307455834052 -0.0005124596389662376076 -0.11396655927412197018 -0.030898452838494964295 -0.068305971761134010034 -0.070147760017285926137 0.042102264568598925243 -0.023029716468157372666 -0.072960816693759922291 -0.10711768577661247293 -0.05353716291591321258 -0.099529720789472017617 -0.024976757528186059598 -0.059684988392070016661 0.10920099011055516003 -0.050854094993528900503 -0.046329382298402603524 -0.0010780109964187082998 -0.10921363234785105845 -0.058596725188132116335 0.1449271809670515665 -0.087654458262988052542 -0.070928303644452808663 0.0020899671081655189428 0.097708198339447466241 -0.0051094423541959621202 0.12033249317268361611 0.11434967755259697886 0.052940048111801862873 0.039233366967773748712 0.083954927834989104274 -0.023749800933321532637 0.068291449686943159203 -0.0200178441684612414 0.10118791120526633709 0.15044105170935559435 -0.11453186840671186753 0.076343789187738930746 0.10108701134262665366 -0.054163581713343213198 -0.030215109830344144548 0.15900164497418059484 -0.14610443837455419636 -0.13709099330542523498 -0.12211052389094903536 -0.054637798426376102401 -0.029630459630878812349 -0.076269781331328334595 0.0035087119295021010172 -0.039573440752251637376 0.068542899711999880075 0.0024305466559933377839 0.14113753322281472058 0.094161028477999994535 -0.012970947120300968872 -0.03848387910176030019 0.029473102269476303405 0.016606564881227806746 0.048851209593840039247 -0.0245480732293901667 -0.12923523354512897465 0.10213961838156739026 -0.067677079888660132689 -0.096577867708008205416 -0.082382315418681670294 -0.10291183749676166559 -0.057355254755945155043 -0.014636597082740275891 0.048831902701427468139 0.056351553372955755228 -0.037442455478397168589 0.013990108675767673821 0.11777700547538820508 -0.076395000772264992639 0.016322520669393755788 0.1051518985714646609 -0.015530202734715975454 -0.043201341900823538034 0.05384025248232394284 -0.072804500729545917892 0.14918506660902380867 0.1336831983312675165 -0.012039355601361363332 -0.064504354722869083893 0.07381235418205774057 0.030115251627766091713 0.18553106340626865367 -0.13884525731079191968 -0.084498046689609196402 -0.067500795128480617358 -0.10574434862380402422 -0.031275407634467469742 -0.0080103359201205131396 -0.061501643052451503146 -0.1164598152341405346 0.047446361591097066523 0.0096882131288605604497 -0.11064121096054363447 0.12421190651941624306 0.035056705561425510753 0.15041138578707408113 0.04795796920164693139 0.068469262572255967791 0.12166425048087445293 0.022078827550825436132 -0.079959857707494766399 -0.059735604929286673093 0.057207057774500719161 0.1107823052959987925 0.11739102825668595864 -0.024307109785127439111 0.15384790153102104182 0.026904594185845020354 0.091076067073626074122 0.007086344996375752367 0.09050380803784681405 -0.15903293059804679555 0.10028781771264010103 0.042392913309555940726 -0.0086510422337666478126 -0.13703243358169603372 -0.051014543395356402866 -0.069798599577019920792 -0.061625331347690152917 0.0068283076338961305046 -0.0047503558953702869697 0.15798362443653723997 0.072442574723765487676 0.14997336871737909636 -0.027494419464205700765 -0.10963753252964723861 0.090492447746282567156;-0.080697082172958414792 -0.085674770972637259714 0.12454593598464953896 -0.01183893813093649279 0.08763250805524108733 -0.011897784243814190849 -0.095105169791223173603 -0.080999082963558899362 0.052733306770686924625 0.11795528638375267494 0.063299795555943463854 0.11384346889196758634 -0.054885275157349290576 0.093392998310808009177 0.033002834949296788736 -0.083345794932646113939 0.052827975401078280937 -0.11996848874606881596 0.030568327408776397452 -0.068073017410729769194 0.10133236727806221866 0.028110142627139966115 0.092515185011954215177 0.028657176699050650182 -0.096265941629942536339 0.059278708975073896026 -0.071455673749792558702 -0.082153478544243055404 -0.076577359396488242638 0.10912938580131573141 -0.12679147744782859331 0.020965302525398826772 0.058916558725989408296 -0.12613754043501532176 -0.089627371539349978691 -0.084491875916244643663 -0.032526374016453682425 -0.10921840602564074352 0.072786047895620500925 0.12286702448866103354 -0.063021823979966043461 -0.063715695831522867199 -0.086076244854705968867 0.064756857198219497374 -0.12722510966395778054 0.11627742735945509334 -0.01509361995887980451 -0.065041426149598624562 -0.11134669814687177258 0.063631580362393011518 -0.081602660546442079559 0.12426834660920529907 0.030086964774016532187 0.073214552655634118628 0.057149243215908793192 0.13296718610806998462 0.11527662792967105498 0.11754204448755847801 0.092285984077264543446 0.13740112387695654905 -0.1355183609607586992 -0.11018512272273423003 -0.040480794833507888209 -0.073701142943893460657 0.044331924083725895991 0.022922105891699021823 0.073353775520235461882 -0.050178598579164894466 0.11803019542016819632 -0.09828818452300845665 -0.040850802617024714603 0.016543852035389026295 0.084999994729399286353 -0.02941569430038456362 -0.035748117101590357048 -0.0065889464290665314752 0.038952008230607369776 -0.1260766322964441688 0.070553261537566816508 0.087382513814533283036 -0.062966038771485224879 -0.029791367796960094294 0.085656500334533355878 0.0072202154691062610942 -0.12069890827182112869 -0.072720553391407871668 0.097073587634168623239 -0.10639251575120092785 0.13614671940441427922 0.067346187713057434343 0.12801620950317926795 0.0020867383604510998316 0.021479336475532094519 0.066910876422002413255 -0.072346798678719778652 0.038941522395656298638 -0.05765678229777301822 -0.12912329348599413392 -0.11627327907721241029 -0.045353259728813266616 0.028515307546570514696 0.057394279653441029887 -0.028744580445943669622 -0.054185572143150027846 -0.11994277423114928227 0.13181534423052909677 -0.083542298588273639082 0.027491314319580593961 0.040380420600280124421 -0.080771745025494237624 -0.073242981386796190968 0.01919114925534225885 -0.019714198754993455392 -0.0033777130688132477043 -0.015379954069534901642 0.00039862178966091482701 0.06992787521725445099 -0.07692035230925352296 -0.043328241396052340206 0.039638922690384721659 0.022139359028103169913 -0.13242209804528362604 0.11270433797222295658 0.13493944144370256799 -0.013313050013950855979 0.11386265710390548744 -0.033365121120589376347 0.0094473394847072993813 -0.10624175430169501 0.059546909763478324262 -0.012711380041423230719 0.021705217535387247296 -0.11549090075362548891 0.01809057358797307169 0.031154816281536264894 -0.010586530313971652742 -0.077594343506327545512 -0.085181217989474686259 0.10511750177166388764 0.082495169672412757556 -0.035319660434009032823 0.077753577689541580886 0.077533701764477755414 -0.059155792446020788455 -0.054504013675363144342 -0.10666204313266804127 0.01327190067997730677 0.13769919614402945096 0.078165729969478126016 -0.0048918235380827528383 0.077516901355531547813 0.11279131995914486175 -0.11879023993189195829 -0.11501652803528497615 0.085127350081475414156 0.13330457891155181316 -0.066833357421767200512 -0.096012972113592678913 -0.039594670449571239823 0.072564614224575177404 -0.052459057431124424264 0.0043696562956910779338 -0.11167180193626576046 -0.045912676734077860485 -0.0044741575438548442795 -0.004622198876168490296 0.076373369294162177234 -0.033869376640139281509 0.034161774594941650418 -0.093724831297879146463 -0.098464077664695670578 -0.020219258235090957487 0.024111492202039654098 -0.038665157005436025239 -0.044579721921992498945 -0.0059818770454221487087 -0.11586415586061733773 -0.090471241048263081885 0.021133781781876727346 0.11719812468525761529 0.087298062970742024147 -0.13292247555505143364 0.11970507578771612256 0.022089145441364307215 0.084061748302636865593 -0.0035196034771067135662 -0.069942440588225671116 0.043731364086145384229 -0.11835477979544876959 -0.067703018206658027722 -0.118600912667982894 -0.097057582041758738711 -0.011197095996735866377 0.046207576077730495856 0.014217473714242596927 -0.13193419586890814399 0.12538072686797849253 0.064919438355347747205 -0.09661146461238255545 -0.14394412700809411376 -0.11506410477028149175 0.0075615691381970889448 -0.098800265278564558535 0.0095596650807291440322 -0.018381709158712480207 -0.10880340940008020878 0.0097065933222940919273 -0.077854231504922766227 -0.13542232399100198603 0.13729875765088675466 0.11429561263696993989 -0.013313756859969305343 -0.030786280917155284947 0.0078838837017816635472 -0.042939446974741654617 0.052367365169683488535 0.00091881755920232381901 -0.13741531217062280534 -0.030991657919330315579 0.087210284026765755305 -0.083948932284448302132 -0.045932804431874710294 0.00079811585277683120415 -0.074855641587751417521 0.050566326526798460739 0.0068398013301467774916 -0.10240493201423610248 -0.11729377182242596567 -0.13520237043891336626 -0.077715840978402617178 -0.12431448109119658252 -0.064207124020599998238 0.0091371928297872741925 -0.023866170401670012274 0.04885667388426868929 -0.1361577844385839231 0.059177498248743153064 0.11100491993389499656 -0.012143113411230799931 0.098899473240685487063 -0.039592113655702872166 -0.038724409281072395828 0.043018338322686942854 0.049954269361336157973 -0.078024398513904816288 0.004191999805280047578 0.039806817184742770976 -0.13291718712563840854 -0.11813891235248936973 0.021724077742469868196 -0.031343152154455496128 0.038788767045806013534 0.1243665761808480652 0.012207712010966004917 -0.056378957823933747995 -0.017413712439097301515 -0.02679481215769935476 -0.043426625754880571195 0.034304332430822780109 0.034740131049663988683 0.038792641169327429784 -0.1099882583169112249 0.045349328366705840554 0.0011605578308077331515 0.012543577341631154121 -0.11960000119845698441 0.039848285424272100741 0.013924554935599403951 0.093922905899876424352 0.098909443489015147488 0.058318888042447274145 -0.025032236218804512079 0.07651109954394848256 -0.074406401211787889793 -0.055603351325002887962 0.12300427590171528203 0.07015403349001447797 0.091582905212923698679 -0.09153673705991335896 -0.09701995261616598587 0.041401768965847657311 0.098613943398987227718 -0.061638493902709562411 -0.061282113263732902741 0.14509217186004880196 -0.087733105126812399588 0.11814015766493696225 0.022160023338620972455 0.086403254946825769345 0.097694902472716491082 0.035607359294373336356 -0.04165787054972783926 -0.057324202895499144772 0.10389462849150817025 -0.027017978761486590583 -0.042156428816506441581 0.12930875054070878338 -0.018314526608033121491 -0.028887596309156004376 -0.10161410634217055149 -0.13479441635974923064 0.059704100858680823893 0.041244429121229109203 -0.068699147909802416034 0.09166370049574029677 0.11638116357274513879 0.14193691096487520698 0.10533453112808895125 -0.075098742736458973246 0.10241132378671838343 -0.0025119808839366322521 -0.08901997482913370785 -0.087305764365742374866 0.078255892269782190152 -0.036676885779595214121 0.040473826749447890105 -0.083495591385928380479 -0.0073920686900742502493 -0.068215705799382297947 0.094989323668623060204 -0.023748397122179840113 -0.070686773623271845213 -0.035860177488729438888 0.032623001278529968616 0.08041654868014241897 -0.058285913845699831304 0.058650999904162649801 -0.061351712896509875972 -0.043228881946184682938 -0.042420338196633246286;-0.042888624732266796002 0.0067244676473208154707 -0.059262936279965407194 0.090075716232369720804 0.035022359563625843348 -0.11028055377852882812 -0.012496950973753324227 -0.014141779916326839214 -0.021952056487123346173 -0.073569615736518365057 0.090027196639751908003 0.041330810390356000072 0.13581087808787625781 -0.11368782133259953959 0.085384318672989373278 0.046160273555239016152 0.018330598265271252911 -0.029477965852827088533 -0.092063962262599982611 -0.071496571174283179984 -0.015437041686333358506 0.11069468444224650483 0.013635526248126951521 -0.11017206715304195264 0.13841944716934684312 -0.014146885120761022378 0.11462206969299715276 0.075647826035281251489 -0.092216582540716671157 0.021519509428969144094 0.08856840266327700717 -0.12244955809442564787 0.10060650835809469006 0.068934071764729307197 0.00085356475422396617479 -0.10998455638640849963 -0.0035097691713234864704 0.11898877083888981243 -0.080799353404291410219 0.094177532696332888484 -0.01651139105671584062 -0.033219303470335470596 -0.11907596043418540444 0.091736352917369368143 -0.041406789841409809283 -0.053619962384832853264 -0.065359382007911109858 0.013962942532481328883 -0.06053254331900809887 0.14759681490873324816 -0.042434643576458874747 0.035741994746736609201 -0.054103534508764046518 -0.056912983625146212896 -0.052608492260558317732 0.097110761998743480583 0.10240774424658262431 -0.081327253804963833828 0.07786052040446589384 -0.023605164141864514588 0.049702365402640336089 -0.10666450037374283766 0.037598667641197451583 -0.068674954364888643465 -0.071351017441920253082 0.0095044220921809141611 0.013174273995301213208 0.063012129516474515989 -0.13993724622558006976 -0.092803989200492043032 0.064423245679159524268 -0.076806216999489224095 0.016952958661005657071 -0.024262804626954230514 0.10287926835743395337 0.13776102433022027749 0.11044652146591499298 0.038711683059738294377 -0.12001657962134014423 -0.13013232634274421451 -0.086596317431634636796 0.089022645577863518396 -0.076417915003281808306 0.0064427558311077040218 -0.097087024209693978394 0.09473592210332430763 -0.048554161699997482049 0.029723750807241797883 0.069529493304993264524 -0.099888474985473318934 -0.13705050383162151184 -0.022556516793758529804 -0.024572928528606406001 -0.08090427074346775993 0.074730421561862811486 -0.0090314628516666977526 0.071625091179405270259 -0.1052644244441967164 -0.11856249013047460983 0.11951752816229985199 0.069807639285602837709 0.1077521241629771781 0.10420983359838024984 -0.11685328231192022852 -0.028218081332188362648 -0.11240628637887739583 -0.082931496151674555239 0.087100554345057853989 0.016368067764117633783 0.0089676287584190238211 -0.014726888949182443192 0.13068182566212893647 0.08507202575301024694 0.030696823977545372591 0.041503964680270732934 0.0995720271489055897 -0.12687223077833634233 -0.0096520623050737486964 0.015011834710033370582 -0.048963942117351277883 -0.1437030557124181207 0.021992186244411581625 -0.14784694616995089356 -0.15143172981485958362 -0.063245408011500581225 -0.10100607594932412003 -0.057424923013533940575 -0.13006500533455200852 -0.022566162649031513282 -0.069496845801189560676 0.054015413832105500791 0.12492964127099515093 0.063416197189163178716 0.099337410676502105322 -0.045085406557936608118 -0.14236049383391605194 -0.013221260721209422348 0.027407970455889177352 0.063323215415880249046 -0.03875254893186439592 -0.0098640298324502006383 0.055447916386066123384 -0.10996704950252270128 -0.06601610404145624722 0.028885518430717807559 0.13595924368452588782 -0.042065808256204345605 0.13233624766983495546 0.020418013496522065264 0.079392019573838998325 -0.026351174820282416422 -0.011112221163100025056 -0.062060068932857120894 0.0071291492025265567126 0.08008201273586178226 0.022161956378838366943 0.019977371616260231058 -0.13023439147838133945 -0.080949101001221962504 -0.10674245632440575171 0.011743884532994765951 -0.086220855797919479513 0.058075732100046906226 -0.10639657057176046817 -0.066786674590078254354 0.011638949826104355925 -0.039752171161286015133 0.053542252296594629313 -0.099597910889880611474 -0.11163390420377804213 -0.090801004602673998645 0.048773829180977147646 0.10708328673174642709 -0.085787924509991189681 0.047524646918483522129 -0.078588405295412055995 0.084923062169838789415 0.031937164132849089893 0.021446064035952987908 0.083266443042181545464 -0.14179062954090410065 -0.041369884877664235556 0.067416518746922865502 0.10933207591795141012 -0.026127728365939035388 -0.097893693268592624213 -0.021064611013815997403 -0.052184152139924756819 0.1315166543633774221 0.12556255088368445394 -0.02062115226069864693 0.024941254884678680515 -0.041631134480288621569 -0.11544875577066801564 0.004801194984757662515 0.034106684698025947766 0.093185797401081224556 -0.051623017648422551973 -0.050671434348184621332 -0.15510354521488459167 0.13259530496887839135 0.09010145761060650571 0.035034711434344882608 0.052092182110190260458 0.13422240162187609736 -0.024574139893388427525 0.058421023217448332654 0.019393027319148971321 -0.01565389419067810331 -0.0040448797279238508928 -0.10859278908235510397 0.0070940117649711939216 -0.050901434164861002196 -0.0099951682333710486356 -0.071670520652660246741 -0.083468782445841410711 0.024268396900615708117 0.02849732933218528802 0.11141466285936352243 -0.00035898048744080593474 0.018161374703268513831 -0.004031445702698620466 -0.021891023464905085688 0.10232425543623564768 -0.093647842471223805005 0.023472781023832507002 0.02542074754828516428 0.0062486491281171490514 -0.12937801536624532472 0.065085045618047190907 0.0015842511129808508653 -0.12435523039659476807 0.085885463301761472144 0.095784068045709866435 -0.09408018560635444949 0.047369725769880612065 0.028964828753419595564 0.08874178477006616772 -0.019499077381376385409 0.0045523213343289523417 -0.070912253245090484111 -0.13192778974303004391 -0.011118853974904021817 -0.12875008551197467122 -0.097301335388464860188 0.007617646726745012746 -0.094471036771669875121 0.13500064309875978164 0.056611311842859397825 -0.031493301001203267975 0.023175762255963419656 -0.058745021989470534718 0.079304487242663590507 -0.099518867439063365965 0.044734200430616044564 0.11845554367612878832 0.0061615318420947355615 -0.11653502263460910338 0.026559823091380295457 -0.022013282198506588239 -0.13098895876213559331 -0.062823094572590568174 0.14886003190033614274 -0.11272658906771822196 -0.10986589390408867117 -0.090485468773379207352 0.029489997424953850319 0.0089938118510840322356 0.028669594831489224329 0.067907520550930550174 0.049860498013328764799 -0.0050435594853367963358 -0.11672067016945358864 0.022052024948765097667 0.10911823430823762437 -0.12691909174319168652 -0.085963415267651055451 -0.01246802671743155351 0.11990840468706653876 -0.032193750299849263619 -0.024495668044886176329 -0.12767476882506775815 -0.023578313215176883305 -0.05985201305189220139 0.044154853634471476209 -0.090145271550144831507 -0.10481035501779614738 -0.078401829015208590601 -0.034857917605723709453 0.12192244037610595886 -0.01148565953774932473 -0.038248473406015823239 -0.035002362034922997192 0.012289444383150396889 -0.045911728930540365856 -0.042394092520587872697 -0.066002393614952928336 -0.090990795821775952157 -0.10275134082255735213 0.03881066219652517385 -0.0024669634129428743077 0.078917280976012998961 0.052591589408115542448 -0.10703151070417434021 -0.11031975647949683605 -6.8306733242726741929e-05 0.084013597062684214345 -0.0042046347209567930259 -0.085074851286257857641 -0.047292930636965227476 0.019538201316605226243 0.0030974360461208470113 -0.088536800579344876461 -0.015519555240391594633 0.09156533356176747851 -0.0012227745438537723863 0.081769596344779205133 0.1321109789172108806 -0.041638519320843510318 -0.0020366858907719053405 0.075517440006937913699 0.12837673999090470911 0.1415824178206567252 0.144693411028063601 0.046710004658816986489 0.051238250549132217937 0.06833938112318839464 -0.069693034317036800518 -0.11322514464544890245 0.0069620624481218805132;-0.072571168828019394503 -0.090891149036102750203 0.11085834066935758291 0.057788504976458064666 0.021359034213017637216 0.037228092135683885089 0.073041713989044812494 0.10842106087763800359 -0.13151207846361601117 0.10373403802200176216 -0.11722905148271345332 0.1291151225171498218 -0.029379605361025011578 0.10043397501449641274 -0.19185906846553146821 -0.020891720068211858813 -0.017866704901672633005 0.084093265256993676715 0.083810980273710047883 0.073507920949850202863 0.041741219141136799708 0.041282217509689085599 0.10239136546949068052 0.01850783440176497277 -0.041160062006141313884 -0.060955828445196466592 0.15496296834297604295 -0.088593728197504120758 0.1212534259046856161 -0.056423252454476012507 0.029254141122631405897 0.0024423861820479153203 0.021918332140595377794 0.077982860940638568104 -0.0069757592307369501589 0.098873249558970907613 -0.03559377685613650949 0.016272269656003385957 -0.0087748209414631392344 -0.095788110297645973068 0.014200621886196293508 0.13876712765283100159 0.0080433562010891659216 0.13354728833021736745 -0.13176772266017658386 -0.11654556992242300073 -0.010948841279154894468 -0.031202191056678343223 0.052649613185355458034 -0.090416322202018215015 0.099096637596338119081 -0.010043656158775988649 -0.013951669971708470508 -0.11411781906824741695 0.04755438843459215692 0.053791455148419417553 0.012379593430297671994 0.068202285537879436816 0.12637797869133582385 -0.05941799952366143972 -0.030314890639400234734 0.012100863639498927668 -0.12079616799940245953 0.087155071739767567274 -0.087060335464230892422 -0.040363593422123707211 0.086033291786660651135 0.059981779208331691133 -0.0092492102046529620085 0.063037364794016420566 0.085751994963929004112 0.14797696202541976707 -0.098553318414177498719 -0.052353421275926161071 0.053034168763668169955 -0.025371604845904571074 0.15473040773177945684 0.027140641350908732699 -0.061435815365126711374 0.15473163567926048745 -0.0080083429443972928979 0.079513900258910891194 0.095135800190860445036 -0.027215162670791964716 0.1165066605185149512 -0.025181585072235532913 0.053727181056511877366 -0.0075122159757411042721 0.031661556887991743059 -0.16185992923149378209 0.1180279627884164434 0.13170746714021916435 0.070274723106964656627 -0.075374105153003898017 -0.037915726891980257307 -0.035844829955568292823 -0.044343970555180932391 -0.031615333154617772382 -0.12823066692716936221 0.045623947079894852652 0.033445104401395767124 0.16177472373778975512 0.072891929453227463642 0.096752555729414241315 0.026790889805574178567 -0.035928079056538199387 -0.0064601032114403591708 0.045787602354515941072 -0.08514124432822439692 0.1197655213084405923 0.057369596116992674362 0.1618320048868190919 0.0004185201681681673504 0.12637075762997929118 -0.0011356118560004477367 0.01480372758001775868 0.032626746659382435678 0.14642095145534819722 -0.0045489434299515922946 -0.1585119978500700022 -0.0073981888036991723043 0.13568211960891179979 0.065046462220576195534 0.1094487857362050065 -0.10585864992059253187 -0.040798331063006509911 -0.055515929221613261046 -0.00049215778903853298152 0.13390862542728518281 0.044853924071612198687 0.081647534224497192445 0.038133144450808405257 0.028439778537141510717 0.040372935327090249402 -0.15154741210241484684 0.05259834682878227613 0.11530442958644442075 -0.087531046860624919792 -0.1054409212444581273 0.091317339647741052611 -0.13246793497749906332 0.12929793204062389744 -0.11371131753882540716 0.1145080775260322592 0.023983427502837918743 0.17550005527082956913 0.09540864274465427064 0.11771405646317696647 0.012135635921608184384 -0.081628696802153663525 -0.019542348274931124058 -0.065365257724913472526 0.033569706868261266208 0.10373119546847911487 -0.075605793076724089885 -0.12923623397052133588 -0.001772418654988804727 0.057871591675500176633 -0.11080388801011921418 -0.056054727558101140328 0.15394322961760406598 -0.049097112855998145675 -0.054157888613502257191 0.049541873786078299835 -0.049958901560720317403 0.14510439033544214604 0.094938531166192982602 -0.0046963828007267538131 0.1023712178693810676 -0.026303575357022358772 0.0087117072262773865426 -0.057877780778840128006 0.0080090673867463605534 0.028219147670566258751 0.10449525133555445655 -0.089622156231969715701 0.073364092815058304375 -0.076020935790797120046 -0.10864646229229034391 -0.075263582578666304856 0.16535919614678998291 0.014169883302390603314 0.13068619743127002364 0.093594073361278243284 0.071194756976961232064 0.025890608769469396905 0.018626490039624622047 0.059343271844833914153 0.087089906761386226552 0.0037994100634846420493 0.10471127530836328579 0.14581397766547810058 0.091286356253015496498 0.1167009284277204656 -0.073683959650235664185 -0.078896545111989638266 -0.08839270790344012918 -0.038811318639249275941 0.11302082168403276841 -0.048803644911172096299 0.025620635826515168049 0.14572085166265866252 -0.13274335852573435068 0.11186307932791245134 0.15872755737064353498 0.15463516618183623108 0.043273218891731184133 -0.066518408082625130051 0.058981303325713767272 0.032878262525400908656 -0.10858669671610089724 0.059179194597400862354 0.058630913467750379875 0.081502024513759249724 -0.011637166460485761504 -0.088540907128417667415 -0.075052317117897865417 0.035359810382774088666 0.06259305574769664926 0.16930179552901597484 0.129475286352290192 0.14705003847348288581 0.15958559925310911165 -0.087387218107025543823 0.010910336696070834298 -0.046192620944232876123 0.032379103352721295972 -0.055252552229952477114 0.10960604503311958957 0.018439953007655648931 0.022984811219127914556 0.024181754687913708385 0.022052061130485457047 -0.019391802101877547715 0.013378008934272298674 0.14081281661787931059 0.060173941959829752024 -0.068708896230315147369 0.009752682740883755752 0.0055842299781943792458 -0.0099953900500374132793 -0.054827316672690959432 0.0090682998123626130937 0.00016815883219693856967 -0.011197957998582464684 -0.040944943724408891517 -0.083651064855691112387 -0.082875964076515568069 -0.012138311011242429449 0.078834646703243360655 0.023542254576405508698 -0.067803725799830225074 -0.011619036966913312559 0.064506730412933144247 -0.0072307796656066328569 0.040944757705383784396 0.080996813709152709615 0.1010866831540831734 0.034347729909855094499 -0.0076634218208881579176 -0.0264044854547523071 0.098084931368043054567 -0.023566793431477901094 0.11601712651569691392 -0.033203940000986170711 0.029639815503777786759 0.11457413819678607947 0.16238545421576361383 -0.085546610826434582586 -0.047661737877413123954 0.045756067674764394626 0.024879249455540191488 0.074820432614260828919 0.056953896828181971301 0.017984511470318147175 -0.13164674248546778812 0.0082983722730453884225 0.13005019613067558826 -0.040550341107389753503 -0.06186540796728548508 -0.044572229154418996355 -0.10492411351424149601 0.055982522051550541453 -0.044841187816304653446 -0.12967549814402798414 -0.018189467055076218721 0.038161499545184586479 0.022741559692799687142 -0.12653729574215147324 -0.11080146487365191699 -0.054667504721055165673 0.097602725735571216337 0.11163747955813665969 0.023262230917774240346 0.042656534859807589133 -0.075284364114356017161 0.0026656346685199677413 0.11709179187319315729 0.012080507610858395862 -0.38115289716313660584 -0.068622702556271314434 -0.08784174689618762244 -0.1189950104435785333 -0.094318209220159418549 0.074756871369558844376 0.0081566916256616377179 -0.029365098653582517169 -0.015758261616253328719 0.030395406162916600162 -0.069948657457346435917 -0.026527646537946789757 0.15428629634624649314 0.035971809198941190333 0.033895966552060827204 0.068608605473474554293 0.056029084626201750008 0.032395799655359880376 -0.078207971947666765633 0.070520786798843729248 0.09328204644627249853 0.094489133509281453271 0.12699693525111860337 -0.10210031929160980069 0.076532555951385070059 0.085778650218699528662 -0.067611425120000248623 0.065636889021013930523 0.12379348342178886355 -0.070950891148082867455 -0.024770905241761172894;0.0022813036689568288833 0.023512851015868623666 -0.015101439498950441215 -0.070146884588806412975 -0.15512163746684906607 0.0078874188909292854144 0.0060087397923958363669 0.12277844733215305395 -0.017163919464818180177 -0.065035285576864096391 -0.0059619142913099835296 0.052144595548733518875 -0.0091522852890119736624 0.016009700080777441999 0.1164956086082967468 -0.094644562952438601733 -0.0818292717203815273 -0.025096579978441189984 0.13102586468555627031 -0.081560344685191077385 0.1012623336525354939 -0.015620521185912858084 0.037343921990284696666 0.14455814328832961024 0.033583069607874958817 -0.013131869428043117451 -0.095940591717482218148 -0.094920123815831092262 -0.082575285344940185794 -0.0087479570308626013186 0.046343652418291844675 0.10016472468590009726 -0.056910688426932143358 -0.034513646249895460483 -0.096935628150862276908 0.013146505602293013376 -0.031390558782957822537 -0.017689072960682668961 -0.044970518629879267791 0.13210163167904948045 -0.060458830558851546499 -0.00094146969428946598781 0.14076805741457273924 -0.0075916378323641169057 -0.077488225128075946535 0.093544648073826078272 0.084020061506009338648 -0.075451790574854266103 0.10336680289680591494 -0.05798199961507495559 0.057930434445985487524 0.12877535549790983249 0.043681109486450570012 0.041134848741528645677 0.14157392197766097142 0.14596360126296284432 -0.1006276474975495161 -0.073389036920389699725 0.020872378860805992917 -0.055888422295713086063 0.0043410264044275951451 -0.053762315964440053617 -0.017221338879623002138 0.031523220467308432635 0.094317602570592962152 -0.10566676710793568295 0.039738447235644382138 -0.092708971544151197453 0.017559037772381019815 0.016054569227742340048 -0.042488948378707550035 0.067060072549507951378 0.06811580745511819357 0.05746593267182881215 -0.0077539169720926264667 0.12244835912053908533 -0.0046309812833929316772 0.14855989278541745224 0.053164321274198858558 -0.019248752044456914762 -0.070650611674413735241 -0.085789388025443252817 -0.0013843126020348956329 0.072833245113577527174 -0.095068300547071910023 0.05151264325955495077 -0.0074868896308395308306 -0.062760785396617072007 0.061001962228121639487 0.086105625247753156404 0.10446760769128726754 -0.14055240636401436505 0.050724306865343141149 -0.11038576708149593075 0.078728766139665812274 0.088615894855816709774 0.10683625469649687956 0.088987635880077936568 0.11114395470531078514 -0.099576875895715788456 -0.00028897086563742403883 0.059341759955191780707 -0.059831749893276255092 -0.050997006313800420652 -0.054036132933282118862 0.061123802365447260643 0.073856633514081809766 0.076626226656573301343 0.13329087449774912333 -0.046818216778105117837 -0.030792290311607562608 0.061638993301148990722 -0.0067662423035157442247 -0.13987031775965058644 -0.052548616286575693113 -0.071604966030183431203 -0.012755515060564610874 0.048873965805534436146 0.083576062021912214672 -0.08590555233874372365 -0.085488188765038164441 -0.064798720367888432148 0.062090027282722712321 0.060632767867860197508 0.10166486784896464068 0.043705925074716538148 0.10030930208787158797 0.023150200828524945817 -0.021232153034294563854 -0.042356509093427564816 -0.11860157950151468953 -0.12406871029544089269 -0.058563212191226288184 0.074040407535097343961 -0.044129313380127710431 -0.12949307345307467521 -0.050413377912503352929 0.049866252802375686526 0.036571154006179398821 0.094050026729637026257 0.060627075751813447324 0.093443916378312619209 -0.14582626999175904436 -0.032530865846008741316 0.073310204293372496775 0.062704176617468312949 -0.12400572018636203675 0.096018442818770782798 0.085846048362384089203 0.0088799881573792382311 -0.12507891333927087518 -0.0078106048089675063351 -0.0099962124609893811961 -0.1332348772530672909 0.11401624494202455828 -0.1151514872345926338 -0.079241165314992062507 0.039126484109148554347 -0.10991740513667462575 0.066000768533273218575 -0.003013300808096337248 -0.12030323196771706973 0.09321496344290226832 0.10865697293105937293 -0.013619337262379408587 -0.0053439788977569339934 0.10607047705652002112 0.084136118919799274263 -0.0680973511775977286 -0.069506654216497168464 -0.022503188424114764499 -0.074146577429939311554 -0.033827087215614337623 0.031980268703573205835 -0.091850792673860190418 -0.040979799453589038638 -0.014012965941699867881 0.099622840575078100422 0.066845622443897967369 0.054653334394977416688 0.036651805279916432889 -0.13187406128944256789 0.035043152489095896751 0.023109771532703198699 0.054027737857362027885 -0.011244706016433549112 -0.10867587490884442203 -0.12506275102184788439 0.017032828866436745124 0.016710812030791388771 -0.14583436637198621266 0.11072981543593320153 0.03034716656314530997 -0.10612017868993768588 0.02525719032136287609 0.064608366559221669378 0.030655677319052478114 -0.058014350033771415471 -0.0067670972350552926339 0.1191670190547165914 0.05711082888170705002 -0.076494762914043612501 0.019671060697026995778 0.027015023106470012482 0.099298369063867519824 0.11615407326138514621 -0.088066441594888841826 -0.10032031216722855915 0.063186543680802662037 0.07312756237159366568 0.021933705293447170598 -0.022350093780540637028 0.074803892592202464451 -0.091685853614681941948 -0.017688530219008055666 -0.12960906980877578976 -0.070660140201772858592 0.072490013820238272113 0.1055293075396352559 0.084022702553908437673 -0.070160502698729296234 -0.030763304657339261144 0.062642059722261417276 -0.024960337881898598394 0.13289157021585634721 0.082441319695562675918 -0.10070662116835912836 -0.042670382665744729933 0.11355838560704538398 0.060838827820228300047 -0.059373802847231343938 -0.016046343892794981412 -0.00026784589309215980435 -0.040070014381991425623 0.034173782363295018838 -0.034744164400890301114 -0.12802614349881227818 -0.05744000189182941335 -0.079003901050973962539 0.12364532586811424753 -0.029364561429106435242 -0.044069259162315709 0.021166018599413430334 -0.10487160028317137062 -0.079349679044756274426 -0.11267712488137678062 0.056308552498861332014 -0.0065176742445416969984 -0.074639879171597589558 -0.02970863717202793311 -0.0044792846909323539087 0.049854784663429407843 -0.092230860348142026939 -0.15054912353520105706 0.095979462432190187915 -0.14929529143736505747 0.13863655401020813507 -0.11182724849045262705 0.010989048014365485756 0.079582239869423587741 -0.030304670549617895164 -0.035462292157850835994 -0.054187719678883680685 -0.036295299493036489724 -0.011950939591983681526 0.011485177965245323833 0.1155237847723011857 -0.062571128303085449263 -0.032415367169890664523 0.15723491733169572826 0.0079458702099609035407 0.042808616884354340482 0.066387085776234394663 -0.085228576461366237216 -0.058762343953157950005 -0.13580061719114572272 -0.042953651977666512662 -0.18527923239634647157 -0.096994789627884908656 0.023330945983776652658 -0.12649388789114138221 0.045746388050843897477 -0.047933228345088910172 0.034976460711910288548 0.15476677324403623204 -0.0096543690561092122132 0.11947333370241390582 0.073966471798907015844 -0.12891533989938941396 0.056183549003368062069 0.028657088733492486199 0.030885273876171695506 -0.15994010837843591899 -0.11179713602878176004 -0.10687466300431186506 -0.15613850620600397412 0.042525045871776287476 -0.11844934952109296977 -0.07956343765403978141 0.11304260510274920237 -0.14396938821284124832 -0.067069529014233117414 0.09308128035401583289 -0.00080768821245187269985 0.014881316692141904889 -0.19939631727179074616 0.096509250462512838342 0.0054173129920148570607 0.055919536067190647732 0.11413820701111049294 0.012422662304099971881 0.11573417733475221958 0.03340327440108799284 -0.11906184413031062341 -0.4750724613854057643 -0.12465471076279335816 0.068074983075283423961 -0.028907955919185050059 -0.0066500935582030264864 -0.030514097390305996299 0.049203390886850620345 0.06550006544254394214 -0.051510712614101339391 -0.12216361161749698938 -0.0093972860741978522098 -0.082345070234701722711 0.10446670949061673261 0.13423379319554956668 -0.067951338336316696731 -0.094178208419084780134;0.063690272509499545883 0.17042283332712102051 0.07493437639100668235 -0.059423587171653705075 0.076375637747426242119 0.16901267607514128266 0.12690153223124595039 0.081660828091871084933 -0.0028009959305396931774 -0.093889832708017290086 -0.1008218203813977254 -0.025941152632447249393 -0.061033383275310042204 -0.03607637464820633022 -0.03369551866374277671 -0.07960582863682261201 0.085133355896513190908 -0.065682615335663330214 0.05009917050314263709 0.12171814918433709884 0.15685760850900148933 0.017889285381619546289 -0.049191419511379924634 0.076682881737933125676 0.10263112667167406666 -0.046442218015630025441 0.01371198765819178593 -0.067763084884783802986 0.010292780190700229551 -0.048758194943767173279 -0.08779352575824486693 -0.0050089587552074243612 0.15220636224410821757 0.1204630318481739043 -0.095228876372190476851 0.14667055756917996012 0.11341439961382294987 -0.13929518762921871966 0.086048087908216400188 -0.094799442067835207326 0.014970802501396488632 -0.11114189040801888964 -0.11316933254797877095 0.00079474391748367441933 0.004166560661246703802 0.065458984923682184132 -0.025110754626725566296 -0.083363825468719163214 0.080862446093570877759 0.0073401554319463459958 0.024630668832485002467 -0.050680597316516508288 -0.12633238775700189604 -0.053404215863566292799 0.13995238403437218477 0.022403769010258835909 -0.015639524720961420906 0.035666191545260773899 -0.023628164899941222349 0.061862876423462068165 -0.050194036264164701433 -0.022930750283449201354 -0.025389935073785504377 0.09679215731747790874 -0.074248073676622325379 -0.0074712454191604637729 0.072899239010020447371 -0.14245009381577228291 -0.038260591267253910019 0.11912652633551301662 0.11639255781050268646 0.1114245024211909102 -0.017853140801300806939 -0.021327805122467229093 -0.055802084357022385674 0.028162551214168850267 -0.11280890694269481156 -0.0014009299995383112537 -0.057648411803368146411 0.0076500106971603447012 0.092829321936497191659 -0.13467943370526375135 -0.041412286846111520666 -0.033267635257071229149 -0.050191769419300626132 0.11105450580850929898 0.015179468838476310732 0.020213843146494377828 -0.042277689025837596193 0.056359015284741430241 -0.048031511461757638026 -0.03027406763876565321 -0.082981336180992071316 0.075598753015272079914 0.11611227983941800612 0.13041911394080454856 -0.043629601790065482281 0.010560869406164890422 0.019330399148460544051 0.097305951489504716179 0.12634288166453822022 0.043001984304371194956 0.083437390316751056107 0.11486562730287643019 -0.05109860889911910925 0.071841348689151068863 0.13148972364986308281 0.085071070786583061207 0.054812664616969222764 -0.034727699251550253612 0.10093254725961491036 -0.076841703345648895707 0.032800617364317045943 0.13480581418813858408 0.085797416937312076524 0.052651290337297186606 -0.11492476392995620849 0.086790858604924303599 -0.052986874600600350482 -0.11723153858294332874 -0.028218876035772957889 0.040860778573270903347 -0.0060505985949633788248 -0.091114931825178185898 0.018844708816139657537 -0.022547852721243991786 -0.043064794447530918564 -0.1332732828292536309 -0.11171561095547075104 0.068021193685487729708 -0.074396121740459106308 -0.075333607274048419722 0.069529716375720682087 -0.048276329523487600259 0.036811319243111505217 0.026818028117255525433 -0.011184656587758851423 0.038630627975576446731 0.088082064832390311038 -0.10197321170127572609 0.06104036139877565964 -0.051867503398297126749 0.068613622216914443852 -0.0084678249994829066921 -0.1172620326743892688 0.078989823162269989787 0.0091062347730799450551 0.071518774075042618188 -0.0025803054050449959929 0.061395251017933701043 0.04125713477145222241 -0.0082601571740094151264 -0.003520887314690853559 -0.069823632391139270337 -0.02533688384914962316 0.075996628715356520645 -0.042454592530488090285 0.059554707873231450821 -0.06742983511639025207 0.099376195346929499519 -0.092737306478506045804 0.11116225993288475493 0.01518745559854012446 0.080349727210024715629 0.021207251285073065727 0.049193340727612173968 -0.10651983688890612201 -0.083464380181517860979 0.135600519176648171 -0.02538933604549417633 0.0043720582559639339232 0.076318239310831204048 0.063050646411570168692 -0.0079368538266574324008 -0.024884444243311300282 0.12965133544940318777 -0.078833458473291387336 0.069312860425343902904 0.079103954909526860706 -0.041318766454591877857 -0.044043333139912370366 0.13968205381026865819 -0.11381660644797450543 0.075499165186410907569 0.08749501805102191665 0.019509512528251924529 0.11850978739735480716 0.11776689586061925286 -0.068029882371160921295 0.0049755425780946046371 -0.035963678290201951671 0.039532971257772178686 0.10388646448629001995 -0.034648855113309902365 0.090082666658077223398 0.085500726468024951243 0.13165107163656228351 0.08543957599861772001 -0.07210722580267406312 -0.033486240891903600037 -0.026556004575399839995 0.031542008910847664505 -0.021980759946538822036 0.0070402304659564884232 -0.040915780566200772583 -0.091211120676764484427 -0.060558336716286367829 0.0047194405583529915396 -0.011629609050046153806 0.13429995441151049151 0.10103708002761363494 -0.0057622125092621169148 -0.10761061183040282474 -0.086111326792950804165 0.11178154743586250774 0.10669213838207780576 0.091287045856138518407 -0.11143284224326892307 0.096893772400219152496 -0.036235412723553489522 -0.061024606875963116615 0.086449123369562452801 -0.12991877937057136339 -0.051507466716591572553 -0.085696288889582694637 -0.098944353526986730807 -0.060040887172772103297 -0.015777532715865866947 0.038340793100089476386 0.062715877281499979312 0.0020489460853338444316 0.12096294502788727809 0.010864207408264206153 -0.091693115838743594059 0.013963805450210288461 -0.074808400807678837596 0.01230323884197939005 -0.09082065694770995179 -0.12664436580254961884 -0.0069551173764069934916 -0.037646185719106793621 -0.054062202796217657952 0.043671685124363458785 -0.017175217435320470211 0.11723082985850113991 0.01295436398850045509 0.058109775182920812842 0.010035456252291043849 -0.10476341017144034928 0.050664628353523505355 -0.062581184704042974731 -0.072315534581424270599 -0.097643426703138663791 -0.15292695144833393095 0.10746205124789716401 -0.10898363746624954718 -0.0793638689324401847 0.06665952039659117645 -0.082423015609804889392 0.054977925627074784865 -0.037188757268248023857 -0.05523925243712384664 -0.05509032348089853981 0.045203903126126716849 0.11271321625830370283 -0.059916192555563643762 0.099700305162894312105 0.0053312705261278131239 0.031001414095796306358 0.16642887432710398721 -0.077644945326098613325 0.043090958779804192091 -0.12220405204313294911 -0.036155194735427255426 0.01143875185578459297 0.022373550456801269415 0.10530867602237715952 0.058437673008278040454 -0.070104887174812363648 0.021116812732407629766 0.10508096366488291207 -0.058252731671933462299 0.011020794347073483224 -0.11369236113783748321 0.19334098475386252147 -0.14081729114834448668 -0.051469079861033328882 -0.066871267357926950092 0.096589213626610367913 -0.11559168593515461998 0.11632689903377883833 -0.13125958527153266941 0.074268521332032766402 0.071712773830354611948 -0.034072159253018548253 -0.068259594444254625967 -0.10286552858217207218 0.031596543219432893235 -0.08531412328934789846 -0.22804458243292188846 -0.044506399026940333952 0.030610943982673843172 0.075987894239454401024 -0.0035897994888801653714 -0.014156682389892160517 0.17316399863969247908 0.12682499750139458738 0.12882232983100119772 -0.1383862739590661084 -0.057391341999270442664 -0.099974217153462593966 -0.036917135672295771365 -0.075799385735328586589 -0.099443866745011849639 0.0047303228428679129636 -0.13206681145198168048 0.026817918146771292653 -0.092515880041275005974 0.11528668397273178492 0.077038267649735231446 -0.033663625484329925963 -0.0029456157862471164105 0.045885465791656761259 -0.037995020172150346938 0.012790742766066153999 -0.13902107292925133808 0.093513966642819260078 0.0045697031854576835447 0.096485153892051533919 0.15853587119851123011;-0.060774717936550155806 -0.0075374563644571472912 0.041106201853293257431 -0.024780542033085491832 -0.052889432633170238574 0.00616642570200201523 0.016097195262041473496 -0.088723489368891392259 -0.052810993889195842477 0.0610777724551114648 0.058933279276026637183 -0.080834016160473809443 0.048379959113446696639 0.055555662955163821748 0.12165306594950364705 0.065489550104431179522 -0.045341412268412352449 0.0084384170001868159805 -0.035683735728172231993 0.10503820195146337801 0.0087620663484288298373 -0.074127916904859564307 -0.07165311881256217208 0.11927545740469343294 0.031414598761373105362 0.08971202180681009386 -0.061999488544188047223 -0.12041812471466044332 0.11910295615659165225 -0.0004243919375230630715 -0.055906368923496360668 -0.095870713136371563112 0.10094447124645031244 -0.082607796606940689377 0.065542336045645827047 0.015166741419321710244 0.074715183247029831604 0.094626011799823883663 0.094797311542184486965 -0.039026199038029417421 0.080989960146075706815 0.021819095057262295756 0.054574542758655489316 -0.077948509436727764221 -0.041830260979481059813 0.023435522124281370215 0.11179118532950930998 -0.10167844803893026639 -0.11778018047470703578 -0.12198153748368162352 -0.11075111759329861472 -0.093941365098582002569 -0.031227457838759600101 0.061154716754320846694 0.06031265523830688785 0.062367312825768558837 -0.04258511447987542442 -0.088197225740451190568 -0.12231995299046174996 0.076113798913608338159 0.080475182092547004054 -0.038965888556981305435 0.097441562534599887591 -0.092687737098398295665 -0.10465272500997301053 0.071701117148393389567 0.01450916922409246565 -0.081277538807145305322 0.10265387295178769744 -0.10125760268355440963 -0.11052342472568767173 -0.020458550896483563425 -0.042819335357503568451 -0.059675026092363893382 -0.067349277729174789053 0.060435255227134096478 0.11191761831322721843 0.11589691586137304546 0.091816937261252187796 0.042785812262910172254 0.081177774342506184291 -0.1225011118539619942 -0.10361642985488704605 0.0079598367332848387473 -0.07113029568364226396 -0.084289835152709213784 -0.046590075190014401674 -0.070383883580052541973 0.0581154853035624544 -0.055628416307533803953 0.12495502381705800299 -0.078633103065165077528 -0.028622647536588111811 0.045461992081931447418 0.037660244023502119359 0.12625707310449219012 0.090257989477813369006 -0.087482626221972684122 0.031286430780352460224 0.035455494459895049719 -0.09952465599359029691 -0.0011581519348000614191 0.02961802747735292618 0.017616301672712986887 -0.063379577321855909422 0.049492926687813361408 -0.040359171701909980767 -0.025102468241681889088 0.034556184188025161619 0.11513132635466971632 -0.0085693749482919981397 0.096453339860386497207 0.010522623128234613946 -0.07694311299757830569 0.11887786457099921988 -0.0047038854017524825077 0.11682966271907643807 0.10292338203541825936 -0.030601313450623338769 0.072267008699770859947 -0.034877535806303337773 -0.1074881839357954838 -0.13364840472760899925 0.1166712481318351452 0.13030022446416683612 0.092692950918110944558 -0.024910879151640200752 0.057794568842592000668 0.036347434413550955279 -0.13556225097889715303 -0.11964045276776917592 0.055524652432111049061 -0.068076225817034430321 -0.07814118536162142914 0.083365043849991216085 0.043142396882097568123 0.10181112215861949644 -0.12698467781518557596 -0.064308786593069031112 0.084582117292964664745 0.079069610165834927629 -0.12929107137436768316 -0.10538781221523667309 0.064809898415644481839 -0.086827816138948243907 -0.13053453065330408722 0.032539866054441458909 0.016159406016761131836 -0.078668433277968338735 0.042310452621619080993 -0.010828609251269646907 -0.023108144308280981205 -0.011903731350005351819 0.1234273018506670816 -0.092974863956580236501 -0.044647829878300702988 0.0034247503897532698657 0.094392403152442336256 0.092172970369843662541 -0.079266580561228122681 -0.12128430292475499142 -0.075931956461961866434 -0.11815012999646923308 0.11279948188600674719 -0.10203388257865335376 0.11934454221782871131 -0.010126430081666014729 0.017571992786692962329 -0.090526609116540007749 -0.035817498020279538162 -0.088612893224853370167 0.028071022016749814371 -0.026296222481042363234 -0.060061100027908237431 -0.11104016476273477487 -0.052023159741838201353 -0.071697470422067158258 -0.07815518591191437936 -0.11571048408500750337 -0.02631803543200579576 0.018555045215867899122 -0.034808380354419757308 -0.049385425264788382349 0.068863854576818067654 -0.13664693381988912702 0.12263525280146495011 0.064136028979288453589 0.10933758123729908629 0.066716269002602177074 0.044868569310337391709 -0.052096030399518822307 0.074162146221498206899 0.066273130152140743987 -0.033469864733241178056 0.062886221652138349358 0.048232742558857052972 0.097018106159415001821 -0.080759969338305370723 0.06892477722674317242 -0.11473900662753183655 0.074505748824807802033 -0.092259071666470099382 -0.09907600995339932437 -0.12024855495449328358 -0.012606670039698453234 0.045647270948728113638 -0.13021093161717403608 0.066738121069859032697 0.11531259332462164002 -0.086663061638228247596 0.028436174108185517662 0.074022284903628832176 0.12673044821319170983 0.098479598262184081525 0.034024764575132301903 -0.055953533026517635052 -0.049904745992578165847 -0.066123763635480836687 -0.055156317564391314778 -0.028837854747847106729 -0.013334049526484453851 -0.1488813628924043897 0.027416221029656427655 -0.022797934262099688041 -0.032817155014365141652 0.054209355065149900099 0.0052008456960899668645 -0.11816341371002289651 0.033506939229221252563 -0.047902489835498780757 0.10677023070667543414 -0.11517583757782347276 -0.10897326368808360475 -0.052620184433097370869 -0.013948235911768724557 0.04018934706620174574 -0.13525662942602664773 0.10614973786192791194 0.1309353986937837333 0.030091594408813929912 -0.06335652915521713946 -0.10610333731717709604 -0.042415668615670906738 0.052616830610039362626 0.01329079501097062653 -0.093455330457290056168 0.018017415907453447621 0.12627798384226943118 -0.003814702007584564597 0.0041294423182828632682 0.07203417092993741333 0.033831868998712509577 -0.10572951667711656676 -0.033087347704549165128 0.016433295326415416071 -0.069023364763907191222 0.080935686754727995118 0.10264763283120195703 0.077098101853201858602 0.035063603232506831975 -0.0065540207045089284368 -0.0039187497503427731749 -0.095669996874953644461 -0.090312868744396923582 0.093309914439703739442 -0.095501155609772930832 -0.10992928623681814948 -0.039624366183270934294 -0.052635735317493111129 0.052116521066822275865 -0.075324526299800229068 -0.00079190009157239994904 0.04863001345848178697 0.086016312808186098926 0.016880526391549213056 0.031173004794360623104 0.053905572678525116859 -0.083012296075082481206 0.062021092810275270379 -0.077489174680905104076 -0.11877791594592071456 0.016263305793282622352 -0.10879495452284609902 -0.12515162214134170626 0.055252098738394560262 0.062659295549231650013 -0.044220753579631275065 -0.11480022650903536074 -0.085411911702212128805 -0.087201614752152920018 0.13097109074843338306 -0.13962819845584983902 0.086172863337048405397 0.0073207075452380457672 0.097384654951362323305 0.10204586544540907023 0.10563052826595928368 0.058746297548134020217 0.075109141489729872032 -0.071281179600069979885 -0.09657879346216305394 -0.019748593059335555616 -0.039001952570180187241 0.073119471577396913387 0.032372209675312027533 -0.10245923978915640051 0.043709927495403567976 -0.084226161473654442835 0.073100104630435314146 0.015170434196575236993 0.014770991930712493861 -0.11049290330971034413 0.033020906497195280649 0.03552460572285653928 0.033790879098884542275 -0.075971717507453628837 0.022141727252579641166 -0.10492189983076209703 0.13025379736883066495 0.060114880591192958181 0.12089928153872557537 -0.1247539259742972001 0.054761188541362040838 -0.080128667849827736602 -0.064844206473707713401 -0.088523002135007952673 -0.071807745234527611822 -0.14441878490045231831 -0.078644356871216361538 0.081187472879365271683;-0.088423942300578164954 -0.12824335719226975794 -0.033629096201433936186 0.092913332830139125362 -0.053437712421693255027 -0.026497659589464084978 0.13414956525781659979 0.075168815683987325049 -0.080158107580649048951 -0.055170553972081495808 -0.12482677932361371798 -0.086328886019459330492 0.058024401702528212443 0.047148383676391757147 0.011199726682574550826 -0.064752843158691800185 0.10291682753758435442 -0.018961651021423692187 0.10453976708314620392 -0.0049868890403625670132 0.047947898149144282942 0.050621131191208437738 0.066689650759765475851 -0.10673109978074921123 0.0041334471221948342751 0.13861664128968484433 0.075399453625867279838 -0.079003732751200622664 -0.013147538631421323493 -0.11599322456244903767 0.030986934521024470796 -0.11801731371951897087 0.080630292556297500361 0.099302346439859648375 -0.12487274562008526813 0.13312794301410982301 0.02412398306962700717 0.12446655826830615998 -0.039046749064980817989 -0.11186490375511970452 0.059088349230167286352 0.11883910561049436383 0.038209269027228473514 -0.019581217491005605685 0.040476684450964903195 -0.12324409550395705459 0.041211122511248560185 0.12387710361377489432 -0.1030329585490850075 -0.045677574472535030503 0.006080306251808545101 -0.0049109585141925487725 -0.019589568516834757195 0.13114469372252632318 -0.11451881285231954588 -0.045236421623817441029 0.042461953243522622403 -0.012511292674035265349 0.011340968482542920434 -0.10670609756827478809 0.062638318587612706878 -0.0023009749002747075484 -0.080302804183540243965 -0.11073918700082134581 0.10429081413333847472 -0.07507231261916916254 0.014520440209264448561 0.023868882841659926769 -0.077089600698183144423 -0.10662976565482197577 -0.10389116721360888707 0.027056640434698811526 0.11912721152695689153 0.076119269867815655961 -0.026192983869424518034 -0.048809570457210127437 -0.036762172740249877967 0.14140269444335062943 -0.073176288930062907689 -0.038239955363225289209 0.054250701867572283243 0.011768393738761338818 -0.055912925450595868382 -0.033084389203690008074 -0.07361254431713100399 0.11016442917468849405 0.0065191697485421987168 0.11179203816553417994 0.03638185307700675386 0.050968775133943509947 0.022711536083385247542 -0.067775202942411724716 -0.11199827996060637836 -0.10153899645747650748 0.12223086819895991051 0.04233747623616140876 0.12518142356876418853 -0.080941677535495151763 -0.11059180001405898019 -0.098181773412074818674 0.097487160934500799447 -0.053003871872902424967 0.11397191607552049908 -0.083937658697321296253 -0.023856986866685331306 0.017982696656869006507 -0.025087803267725763967 -0.092865659871224109922 -0.00751558714577230981 0.027698835499658912979 0.1273440738945345041 -0.12065490605682210878 -0.090368938405965604233 -0.020087306918434588016 0.012211525879399115144 -0.067817690370032379654 -0.12196027967743879039 -0.019385134271603807199 -0.0059239372969756278961 -0.10806175279986378335 0.023609983315630481138 0.078680778681695554 -0.1007174264957582388 -0.054114998500955524552 -0.045474345559171298892 0.11523781260965665352 -0.072218083826494139377 0.05164221519397955984 0.10242504171202861107 0.039417496297562679142 0.043876220697361627276 -0.11680622788191846739 0.076682676869051447088 0.091477421183871351906 0.013197953637570631821 0.01977666129930566799 0.093903621362312186815 -0.034443492797284716578 -0.09430790434518673826 -0.028530145880256405772 -0.042235029774673082947 0.050364052408894681434 -0.011843222207103031376 -0.07647776652166048128 -0.12373568491544044423 0.14637602433031590698 0.069253815325096404476 -0.10246669391807015914 -0.12998918845381832177 -0.011445558321431145363 -0.11364991536063018263 -0.029881538223773054797 0.073062360869049519652 0.058615720480212261945 -0.07621148932489298089 0.12366977721354645292 0.12127888796830361973 0.077463763314653932834 0.056644537554488526288 -0.094883204751311997494 -0.044463050915224795745 0.13056802711585446808 -0.11559108296434729424 -0.041875182623457136988 -0.0045693072162910413833 0.13588645020328049551 0.070416059198514499573 -0.089360476363541635481 0.024365349991590491696 0.01563856087034467407 -0.029967944685699830082 -0.1114769010748047906 0.024477718992065449627 -0.059471817335767604429 -0.095168140415318056013 0.038418990611448690375 0.010751245050532829209 0.015707813474784459301 0.059261280752918796266 0.01972649902161286925 1.0851946682963081498e-06 -0.035362623718724089938 0.021560454174395990434 0.090600542126160851786 -0.094755109690446343018 0.017487412104152583181 -0.061499680653216232118 0.12367369403331056332 -0.11365661281040856379 0.12253988850398196686 0.14914583783748872059 0.0095518474628891233275 -0.089937086499638968506 -0.067633605343798600118 0.020307944719754930651 -0.022844446195591783244 0.050900988240408708008 -0.031066092858611376454 0.10133033961944896972 0.049445479593974842047 0.047104771698379552247 0.032657972927681994113 0.14862718907214844677 0.07806633976255120122 -0.11429007364224533227 0.09279324582407347255 0.11079333255067098929 -0.038063571049320787942 0.039446636792284966999 -0.066545433773018039525 -0.077316118114512374926 -0.024103459828882886629 0.1305010423249314544 0.021004117164442101529 -0.10774402971514020211 -0.065580337025235455051 -0.077897042020461257361 0.14589052547305850216 -0.044451733927651622402 0.11072294901026652481 0.063474648592485680143 -0.11917053501634561341 0.1266545927556186335 -0.10304804136288471528 0.031103167066173678657 -0.031868258206294873547 -0.093867463494295352855 -0.11719009626718722428 -0.034379374058458894714 -0.089081474029800086778 -0.0086385373412442029856 0.082670515848623532529 0.1010544102939705674 -0.064665860541573375042 0.070599375838735128896 0.036043435261947635861 0.00084820538733146669252 0.046646631404218472094 -0.13976496276199096291 0.18696564686150135559 0.08272449009148279131 0.079209044562515512622 0.089693715041980953684 0.058567658099493470625 -0.0051078329467193111027 0.13283718853698614493 0.022994568844816789394 0.0034616288212918188555 -0.041559303098238908891 0.10866121726531809133 -0.055341588941176363126 0.11250624742998091565 0.049547674473195121858 0.06584773082167778846 0.080531937381513638008 0.093478795096949937604 0.008933240085252562232 -0.0029066777300707463509 -0.10712985298733303241 0.10501793376124581025 -0.06899155736576823017 -0.094438210654411394729 0.10984540311255096279 -0.066500477652177758525 -0.024329845263253088716 0.11119634290628059581 -0.095542749002393206892 -0.13450190754366422863 0.035633160851390163759 0.054850107406643255903 -0.13842473241637051617 -0.10647413353325409224 -0.13971217757625867262 0.034972234870396703976 0.0049656319806318472906 0.16003126755710192497 0.11520806727631294208 -0.063126592731012232118 0.035006632608980049748 -0.051711592983949374036 -0.070767099253749188303 -0.019244696508515395095 -0.025704488673818106509 -0.039150894630645485806 0.042968682503045342591 -0.11891911962247408985 -0.11767191608628155275 -0.034823778576814269636 0.0945749010957405295 0.033644362252550380488 0.03708145369630851812 -0.11017966550544126825 0.073465914533827586519 -0.03961758285636961946 -0.035955020764917383636 0.11145531991212276335 -0.054558045645273674229 -0.13317206953816579373 -0.079546040167921855391 -0.28294954564953173071 -0.026165792677427468504 -0.089137970834999941117 -0.16148120951757372055 -0.091060690311569519872 0.056591815367548453652 -0.031211774193374629965 -0.091880097488218626101 0.12812894645868530552 -0.065343540914578918111 -0.054849432857194443947 0.02317581463178279913 -0.11288975534446725468 -0.095277938290712668734 -0.034803208854200337607 -0.057512499192316511587 -0.012377308327926161979 -0.058282480542062538309 -0.15788233444229080038 0.042069363749442367784 -0.013661074403751862286 0.13379256848094517318 0.0027120263950894674121 -0.096012941658609879392 -0.061526138401943077094 0.12041193606112250702 -0.059572655773206466268 0.040430659762612786157 -0.043577578989339532667 0.018647392121041304197 -0.11777192609642900267;0.098157083121385740876 0.016915573989741212318 0.00072853851009037308081 0.12818822880036312428 0.082988003804149917952 -0.088313089099221878109 0.10557440608464141452 -0.027160013073811641038 0.094654904531129943623 -0.11783563086637295625 0.074743150751698711476 -0.14556616727163537717 0.045754889505920798287 0.037589558061276145962 -0.0042236611154989412223 0.0574337514072238986 -0.084713057518361584153 0.080061226449074027189 -0.0033723608232371785412 0.11620881471281452324 -0.058785339198285387063 -0.046140543807628206507 -0.014495774281699904187 0.07447260234547656288 -0.028857489900292479512 -0.12227044782605211992 0.044260258501093767414 0.014814594652449979834 0.10795551517463959634 -0.048261311030909762043 0.12936060386365014208 0.049476679636354187197 0.0046577855926044457735 0.065838226215435252664 -0.029789031340169511153 -0.11247168504654156407 -0.14631887606049065464 0.13438706267559380469 -0.013887715294990121001 0.057775650294452508826 0.10770342244152940336 0.01930134726379413232 -0.026227056024553878355 0.062900109184362951176 -0.07619459128128380776 -0.04546704988666645797 0.018176559552870914099 -0.045260409425564036845 0.1433171818165707434 -0.03510384573959319382 0.0075654192667651181184 0.03535219009141126606 -0.013224075100193220106 0.068783861306532037561 0.0050872669447090783368 0.093128706513216363838 0.005293876966235927517 0.11090782089571489533 -0.063051087139435441076 0.11606550631419003394 -0.10751591988531687683 0.052048207902317733531 -0.069220123284652809725 -0.082032614138773635171 -0.058862116114111615039 -0.020727645822596639513 0.01797886875735239115 -0.06792560466231199745 0.12553328420386750119 -0.041673769221366320503 -0.05220796592519508228 -0.013477580890336158387 -0.075240838902452700232 -0.016276131659175786109 0.1322057483072018591 0.13054442386567238765 -0.10996541221369744712 -0.083469731487248469137 -0.046218125116343031222 -0.02097002109328803196 -0.089414221677628524798 -0.021286787693153612355 -0.11238794040280804254 0.1387804915778253767 -0.038626696260066428756 0.11762776936851564169 0.0040936755050798344716 0.074030234386034607375 -0.12747215207906251178 0.086094474527573558453 -0.066099863594110935816 -0.070578544064330367425 -0.092008431838246501622 0.060766205825287140929 0.034691299019050172991 -0.04666993481497834495 0.11670556056410352763 0.01914730183202817404 0.017302357634567212125 -0.049581686805990399236 0.071240385205866979534 -0.10450441276129661394 0.0278812764609291594 -0.026125206463192676698 -0.041362203338896293137 -0.11270356038798741427 0.13184727920592670403 0.06794490186034683743 0.097582487155336239404 0.039726407438801333849 -0.13731445005910106194 -0.023436092384056590732 -0.063325422535199266116 0.13225693584770795153 0.080159728274375091628 0.080844873736726427516 0.048984828050987430648 0.0723237626188558691 0.065509151499316034539 -0.029940300880953885782 0.070323748451169287854 -0.12452669073964196811 -0.023613822989373891431 0.12406785539255382744 -0.064763144742128853082 0.023110705746539120936 0.047975780195513934023 -0.1045918558657091546 0.041478125979217447816 -0.093168963698488108105 -0.11772142401379225018 0.041175232661806546175 0.12696194148582978789 -0.11968173567722539818 -0.046823068484466760786 -0.11544423808501459716 0.10610218979932199701 -0.11009160683343716114 0.035116358036433696632 -0.05163029830710194612 -0.081183964979229555903 -0.11789861233394836881 -0.020898277223540328434 -0.020297743576134910648 0.020099826589107173958 -0.017838697159741668391 -0.021767625105249474582 0.10149563014313299492 0.10964773008980006896 -0.041370224947331217524 0.0027535764787658535517 -0.0080130732054071850817 0.037102068981223305932 -0.045557614068516147365 0.022314598212225252721 0.056485559220802061819 0.12146639772219164355 0.053108068591111355639 0.11982317430775366041 -0.1143237779052387465 0.073130055031532262277 0.1016001869246790229 0.035559998290203925775 -0.12305626900860221207 -0.16089199532527906356 0.038818482086871747283 -0.11077174906134312771 -0.11714596401761621924 -0.095472081420015120212 0.12128787148239375537 -0.15487114494428436129 0.033888519157846165586 -0.085878968635571234502 -0.065056616517523799259 0.040462666691065275748 -0.038443112408442461914 -0.074142795944988529322 0.10316747755847377466 -0.030053106929366985717 -0.10964473707664786073 -0.031327687910584496589 0.10732903988718199562 -0.088842059184466151689 0.040777120245981242352 0.097548925862861318725 0.029045038758240632193 0.10259474273699446811 0.042108764578401222667 0.067561856681243689926 -0.091749800789568555781 0.079217631535568572287 -0.10258353733846325984 -0.062572504212876731144 0.031102187424458499487 0.0024525264632945329574 0.11265345272395427267 -0.023181067098375425506 0.098681399752500092992 -0.12529156604385613405 0.082526494549159862268 0.058598487676117222422 0.10276515336501979014 0.021612793455086549976 -0.027324220205571434633 0.025416982145750426775 0.086164130168926197917 -0.032852135404259220908 -0.0032399805283743385829 -0.098083932904935625108 0.083889958036653375362 0.11198479891122779806 0.078005983488569172191 0.046513424360570924943 -0.07934628194197843043 -0.14086834991494825986 0.051156930155050787945 0.024202683518872010471 0.13050375084520260405 0.073334316456726000855 -0.086456469672834254658 0.092294797398581054915 0.038246726214930630572 -0.099420936979655261112 -0.064139333879956031415 0.05578188400224226573 -0.065561431246813711704 -0.018212330733861442633 0.10329140576221566838 -0.12500545242324184736 -0.11910445567149988144 -0.042012159409496256657 -0.049638826966353341574 0.059021271764880992028 -0.027477118382799488316 0.081558655571790164562 0.11184463531848543028 0.031883612684683343419 -0.068127515104372302068 0.1322255637206980472 -0.06531353214250787409 0.071551714846533942538 0.065722150075863031149 -0.15290411284566271521 -0.073842112901638140565 -0.089699149807176387084 0.072104547553006728688 -0.0090463702422690604743 0.091269759485683554789 -0.098164181672116226918 0.11332683348971932247 -0.12306657891421102224 -0.080060815791326123136 -0.11406048761313215822 -0.024142935302844326789 0.066143935609395729247 0.047560689611874096272 0.084070678424289210784 -0.046478780811130951389 -0.097482036412095421363 0.026115578592825164361 -0.15770148508293080347 0.020993022943071065756 0.064056822885736580675 -0.067323341305686471014 0.099167000491385368099 0.015787504734075998719 -0.12652306766885051958 -0.059686277828133293966 0.0087272972813174382739 -0.10213875312740935963 0.026744233834134184535 -0.047927536007568154186 -0.069310211327001283732 -0.010490312019477258249 -0.021386071086080905845 -0.055235514467892869728 -0.11268166084744798972 -0.097748699480185122224 0.055531724169339172215 0.016168735120266158195 -0.010586639554372476862 0.019395284175353171702 -0.066006220026239389997 -0.061752732605273759348 0.15023293303702250912 0.1285783327158774858 -0.044796821906822319181 -0.095918764411196122399 -0.082522268820248656507 -0.083547648727672410573 0.03503105220547613613 0.10067641274977374988 0.11610471975626526775 0.038748463482026769544 -0.0053744508026691189054 0.11397685653808992123 0.012594360406067936844 -0.035432234958963845783 -0.11118495403080988493 -0.12056068799196420493 0.011377493754750047858 -0.0057541918193542151982 0.014554426892728726528 -0.097707396799395718201 0.045055740787178263917 -0.029337060733296459886 0.058447881235254996179 0.12575411719627715978 -0.12298121829306629671 -0.098515540789856553827 0.019806172162712736007 0.086022787585108340114 -0.070181962883598070224 0.012961562933018113547 0.26583394111454539122 0.0094534828614823308152 -0.022302168890405836554 -0.0029656327365967811299 0.0094995949582237747266 0.066257593233764872087 0.046370505356083564774 -0.067590027803699659348 -0.074137642043019591487 -0.099268378641307372656 -0.012412186870893173948 -0.036965293430510103023 -0.043653046473969829566 0.12606954528784083958 0.0025120086259957162371 -0.046066033609817626238;-0.045091656644307372137 0.089802156244635764071 -0.045167160264999360597 0.13593295387460083146 0.0061211502917388185482 0.094360887776713212038 0.050420556229628710199 -0.055082774945893399343 0.048208647793800914194 0.12712705121495526672 -0.11168502093337043246 0.018644649663169990395 -0.064713346230753199251 0.11797344586580900405 -0.0074845474801822856753 0.028398861387923930027 0.07060126939638569632 0.11360015287161602526 0.078184574531880435266 0.060865984295468640586 -0.11302389643872121083 -0.084307822467711721059 0.034777687228662132468 -0.081851426809801647311 -0.10337889453762680314 -0.038724867445709049152 -0.043060980966085148081 0.080253631749745577006 0.068420767710058685851 0.050571741747750850737 -0.055060470414558006225 -0.048787722766230917637 0.01235482315616523441 0.12820265613878592537 -0.051169953252425889878 -0.13530555549723088937 -0.04653410938285592463 -0.037509841692526135759 0.14364003198029201558 0.10963040861283766814 -0.0083157948389366315861 0.080076896890234450233 -0.013428124410872051275 0.070886142496053489159 0.11122508350963682122 0.11975452789626062078 0.026902238338406065515 -0.11517412414592113901 0.095053756934894720332 0.026595802959972613538 0.0010982646212821544664 -0.095859036073701511804 0.0036821946963274962764 0.035090954947464239599 0.017299599863975841096 0.042633076105885465978 -0.055517745597357677501 -0.11585900673419476103 0.017553474899559343148 0.076779786973396463301 0.11820117625821928431 -0.12039688074013060737 0.10467599992735993064 -0.067558462116716011536 -0.10142581223996172124 0.092863822326493067338 0.093319094766931384721 0.09893995681613626525 0.044188573361676745932 -0.07407838804190600146 -0.030510674556527447171 0.093652036451714548715 -0.10522613103785675992 0.09514613026375794147 -0.056602812892723640414 0.13143463381345077412 -0.059247783421891297984 0.11652585543540300295 0.14439976873499185683 0.092433512371321704948 -0.12536409916434443357 -0.063703425294095686326 -0.0080379157292443017407 0.028689191808193289374 -0.11708126322286933896 0.084442625125982245793 0.078709609693906307237 -0.1425599212700714713 0.15782952930350091503 -0.074981958725526168252 -0.060374235886129258566 -0.090180593811314643804 0.089829154253234233529 -0.11529927237541061358 -0.10260075036964397266 -0.12217297319234089736 0.030423442107649995014 0.089313138858659935071 0.014517522839018238284 0.024750367100367636625 -0.081560692964894057622 0.047122697630895507559 -0.063691485631124922229 -0.089101188922026980377 0.043731261255594330861 0.031113648188549530849 0.0046708251537920970897 -0.024812694246419277067 0.13886239563854879675 0.10283713660151796998 0.12481055045490689615 -0.02968355194049873691 0.034309943619953965632 0.0053350632991352522905 -0.080508869943417618598 -0.020204996995568245272 -0.0067547839575675507409 0.012767120457390750132 0.067686685721362896406 0.017529222098805728042 0.11251737228406204216 0.041109347685769910552 0.037040997931115773878 -0.031230449121368429599 0.012924610972181237861 -0.041393237507573073242 0.080101434201133220325 0.011304280862152581849 -0.088159552176127725653 0.087938831894037852721 -0.076574991292601826687 -0.074944258848126360517 0.085947148406382928298 -0.078952936199993106747 0.08900119316334931252 0.10416346508978134577 0.12637564884820498556 0.029515094905779571538 -0.11897354330383597132 0.093904567727864762805 0.091627275809826463915 -0.0023006046914699459019 0.12525257957690680288 -0.066269876718527617743 -0.10886796760050135302 0.066797973836722229768 -0.055528766587515480946 -0.076730307744346290533 0.061009032163963937412 -0.1719064687299489691 -0.13447715914501298662 0.071164780318564838102 0.13518912191151469249 0.023007273864534674712 -0.081410810731418509212 -0.077514641653528379428 -0.1230058170636700865 0.077045244772753512796 0.12521524530439751 -0.064999990940386234706 -0.074033723603735959728 0.056259258160352529354 -0.033051065300877743858 0.11176081181957898958 0.0223882142101322415 0.051630408519610725138 0.033548991969741023822 -0.017976889753031799479 0.019341849094551475524 -0.1278296239432731296 -0.11641850058396774337 -0.0073971808735116750463 0.0071775790653446714176 -0.017182984522832046859 0.079084449055439640097 0.11134545544310409104 -0.0567673869152597807 -0.057421140696938745285 -0.0087063133566429515287 0.037955637018171645147 -0.14145057142930952954 0.1199476882820599416 0.005160512338535207591 0.0076842285302273077852 -0.12790460101807116233 0.060348283017545974183 0.030972701902615678432 0.040011528776813805319 0.12011760272899534019 0.048958122784437153874 0.0040399026659323402505 0.075039284844210130121 -0.10769892456600162201 0.082203363429256881556 -0.036568340434646753878 -0.0094446083498600213318 0.054640985097751101907 0.12689091479380104621 -0.029931362579855881612 -0.097859262404517560752 0.11180102786110568402 -0.017267572392480279309 -0.073439784519058054491 -0.015134666074680631215 -0.04686688100708436 0.093118629936594726759 0.1053732370387874262 -0.0079515857973972304401 -0.10702850349459176738 0.026572731506823658171 0.025446144800027388488 -0.11984980319684289396 -0.049654804344304422081 0.0054883801720743584027 0.10931790076681929813 -0.10545359190500119828 0.018174084409175342986 0.026993281929231612709 0.046751300656069832984 0.058051225953332202812 0.12842565966684088563 0.086409840876624233186 0.023451840277046595573 0.12967833137783801867 0.034705313894461575774 -0.095131113758688587434 -0.0081404597071641510847 0.095773259226352797091 -0.054364110936554153886 0.070879553953690180301 0.076801296831009030486 -0.013603524534659501219 0.055028439983050694839 -0.13039705937780568523 0.10728361955120403748 -0.032270479230077225852 0.11983397438760566567 -0.045926813835149925269 0.12262479893307520751 -0.04508924447455912865 0.10567952079492681783 0.043552615942335212718 0.079144367826442962865 0.0065393333118391816852 0.058415736529163389545 -0.076885509218346442806 0.060138789802391443007 -0.12877872678693161324 -0.0076643162009341642832 -0.027494935918873662783 0.042482444695261141476 0.06232876253443347947 -0.048110468565807647245 0.065232765018275851165 0.057920343676639604591 -0.047643125670937258587 0.12901622455357553143 -0.0057970777275470905879 0.015424827626747853598 -0.05904454294432608108 0.059007030420423850492 -0.13763113465614823516 0.0041494190473979177328 0.0676272898495413749 -0.13185356463347072675 -0.11365597904232213611 -0.054900173484834072224 0.096731351183764982538 -0.1024002136106950539 0.0098407108634283920606 -0.0092417295722612147202 -0.057301340052448385132 -0.046298190797122322493 0.0069710409120154167087 -0.0017834374714589414611 -0.047189480786447232652 0.012279933951542509538 0.055129927410850501635 -0.11980790042365123405 0.068136608409359547545 -0.11297759155240377771 -0.05509136402985865405 -0.077388363245165195381 -0.025473356205121550772 -0.055606196753843713243 0.1188076593754167215 0.071739357891262789391 0.028809595252966401641 -0.0024714400804246514087 0.0056709838003288241468 -0.069918759156513562991 -0.087500543226128990604 0.04529426142710988451 -0.1359258413727403858 -0.0056022424365434701082 0.042363625204856973638 -0.14309599951985418897 0.028308877573670392092 -0.051823674900297475587 0.047201478536267243991 0.10321564836789443032 0.093552624651248042498 0.12019274950088613962 -0.10705934582525569732 0.097185241476054576304 -0.064458603496049843296 -0.10201620017546064734 0.051243355202663286307 -0.021197900009211619737 -0.12721463620794298821 0.082048208324681806691 0.0367011135024585336 -0.045805395201155792162 -0.08226456724338393478 -0.098021840577751651047 -0.092242354666401529806 -0.039468536969110089296 -0.047766723549244258229 -0.084977919527701062385 -0.10694520057714039518 0.0073745940222283623208 -0.0014124516975964798281 0.073178958712554420529 -0.10740768409759107738 -0.0021339764740225613225 0.011498030032859037769 -0.070507369548086312738 0.032229071072653145413 0.017843610747607208111 0.052246161899369820969;-0.028262600686863492 0.067074074576975201145 -0.16652629921707520766 -0.07627917162452994837 0.072237811753172287421 -0.0078503832449726626552 -0.060544921181581203007 -0.016104762646958040856 -0.044469005826391273806 -0.066027353338271907446 -0.080543540594600115945 0.0010567669585405754708 -0.0092889137355339664037 -0.052668923145781622319 0.071644626908935443721 0.0383532615054029552 -0.064112369945267852489 0.01197000154970402977 -0.12008342675233686647 -0.0098868472655538643112 -0.092471604839567150824 0.034441250280608681766 0.045970465344104073646 0.070712357853331186952 -0.062195127024421544004 -0.1097220729277318535 0.082760519519574693437 -0.12628613148063211336 0.016826761159217124703 -0.089797987797621853234 -0.12228301350504493239 0.060117017858343786696 -0.10538370828596822781 -0.06015579935164992037 0.081380168691644577672 0.086781088651082818886 0.082057811406893180206 -0.027585992448653590126 -0.072226286270750700291 0.055129170846252337213 -0.086125842701393076628 -0.11955349586000912909 0.017477780661181070015 -0.044868055324152535113 0.02876466820057677759 -0.041982864089484629722 0.0075180608981747949759 -0.044720504483858170008 0.081349585230439086514 -0.044202486100502293154 0.085039111358110430761 -0.11977032954613379967 -0.086965827373691143021 0.12211518136310282878 0.072261724975690874717 -0.0048194230329011529187 0.040097290409321854898 0.077592419260870432174 -0.12405383135301510655 0.031345139684033233862 -0.039430435053923157396 0.064174588690637288102 -0.02085473372187252733 0.0062484334976699871037 -0.057703784840122882005 -0.0035271774994901591328 0.039010115502702349954 0.060976472841910545064 0.054864348765969080113 -0.073631162969524197037 0.054716220507851458243 -0.055126705222138132345 -0.12937733325337943957 0.0017621846627012421622 -0.094158741333448300881 -0.10924343539449744844 -0.11950518104529200825 0.050247482732009324247 -0.030234389607280677537 0.052952197614200648135 0.097032494777639102801 0.085126418764709471665 0.13354855061079917711 0.013343243943020598533 -0.073687948493758217983 -0.031873915902228315555 0.13800400856202812983 0.099457311562534761462 0.1261574305569780341 -0.022105145211610284506 -0.023187390151848848163 -0.037357219426712426347 -0.10006990593713570303 0.089372728885416544142 0.065042288023322042401 -0.12790528795622996272 -0.065938254124864301153 -0.085077529907897922468 0.096859323393061524943 0.069177061373929427113 0.069695808366874861806 0.1169899810448308819 0.00882528154594515446 -0.086892065345930816211 0.04042531095468596819 -0.037821717935589478643 0.0093314153049764373554 0.059431964049212568368 0.13530197318064732248 0.11721128889715307086 0.041162040126877699753 0.033120489432223253201 -0.074899273100791322055 -0.078181274211908527438 -0.047880252062127807988 0.08475014432049100821 -0.035942077717185043351 0.054176077988835641408 -0.096652663237133326635 0.09131248678307388178 -0.13161155830698789693 -0.047347636401765161307 -0.017020613445337947484 -0.055906051759940768309 -0.0027071839406894193138 0.10892404784101547555 0.026538365142146622122 -0.080675452592854454692 -0.02580576945033025496 0.014047785752103436954 0.014191531627265011051 0.011589535150414496598 -0.030026593607256606838 -0.043273263555561790328 0.06091418630867408146 -0.045195398359982610903 -0.048115894752557578085 0.034222454828323693732 0.023506959632489436707 -0.062413927661917077694 -0.087265836905521254607 -0.002951264740125079597 0.14810858477637808828 -0.077336240974742662124 -0.040918417796856468294 -0.074089305533528423964 -0.075169790521150109397 0.15831575406824519026 -0.022734293316842731775 0.10660298175512936125 -0.12930622134259378564 -0.00086778661103766117219 0.13417701558554631647 -0.053748751311116158003 -0.044153402800085568558 0.11816286642016855801 -0.058289772222913788235 -0.1218282876413551985 -0.0046472471408168826434 -0.045786937826745199853 -0.073475722855926545174 0.041309557831624120483 -0.043725691669626538804 -0.032145133988011324877 0.070179728712030514659 -0.077760861697380750934 0.10989492061686496893 0.049009002385209270158 0.054703928202034637907 0.013919663107745726058 -0.12546337510744554056 -0.076400162797535656201 -0.10680268264119213706 -0.040952277190101610271 -0.021715698580693623687 -0.068719957074904580718 0.080373125643157627973 0.040014663089261257034 -0.025379241172676030025 0.095016821547542401616 -0.051975492219742513988 0.057987996024074041357 -0.094886186725712265422 -0.0039685002548017255311 -0.14160833280579060434 0.13251517150330544004 -0.078712404184335449386 0.008312536119749674296 0.022033098821579971682 0.072637645492404576131 0.13229452915113049105 0.065386914464704709582 -0.022958230597981889309 -0.055084601275680232513 0.010238718084876237066 0.071146931643428806824 -0.13421560928858178308 -0.047976685103787254649 -0.12816432786344292283 0.091768877794622200073 -0.0093288252966891669488 -0.0090515407084225656814 -0.11860422255428129668 -0.060597899317523774843 -0.045261644130821718224 -0.042295590983426084586 0.075920390981339416769 0.10825339088273751298 -0.023116973580091015883 0.11024502137759792375 -0.087778278378671192872 -0.084706636212148744836 0.053595660706308057009 0.11725624398700637552 0.10761847032691716775 0.04237992595791249123 0.118547947164092074 -0.0031488142370619653237 -0.086599747251687966831 -0.041175302531091959035 -0.026777668657315019385 -0.039278511402255807117 -0.014030057160504500607 -0.026023119620855891809 -0.078343037896261999431 0.061206293066215035348 0.024498430567485941778 0.082940037465101451586 0.10822157738528259685 -0.011883494715045232748 -0.13858179827401953532 -0.045185288970573493639 0.10579483938903561091 -0.07339982478504630814 0.011144962616687867016 0.1125435582392348699 -0.093936901558728552741 0.037031820362618116105 0.022792319474926062139 0.035867745014613129639 -0.085573850489668368269 -0.011012299428021928363 0.01301047246079892368 0.11225485037136641309 0.028630586993543080676 -0.13282190205477789613 -0.11743353612940236885 -0.034012200592896717211 -0.10783446731569540367 0.14623346594227099038 0.07578480950502045066 0.013649792474873159026 0.13200031410010293342 -0.066640630831258568234 -0.041316295001239559948 -0.08344189062761697695 0.023215868694807028499 -0.044645007960043961437 -0.08557638413293858215 -0.10818159772141518193 -0.018772649159344557274 0.086864733909389896249 0.041469431828514126404 0.12462786448478468948 -0.037472688739061642271 -0.11045716538369269866 0.072290317430580480762 -0.10487780537795406144 -0.091615779082136805656 0.011113288139852843528 0.0100605805829534177 -0.012029271395430108163 -0.14095604686832557961 -0.023006548116856744696 -0.026452633943184335891 -0.12398717679639602307 0.04463806923403527277 -0.088606986679465052359 0.07118083709362198197 -0.014219906521648457975 -0.012004208685744532925 -0.062171432124740889924 0.03106423111458472483 0.11834552062263693772 0.015682253935981806114 -0.048774342351797068951 -0.073379955653367537338 -0.06833121869570447926 0.060113530845798651692 -0.062502812796396939321 -0.15788338437415694315 0.10793720762574601779 0.059697804711898540264 0.014649557788966966962 0.11366882985552881347 0.046754081566156416305 0.094620513563940508717 -0.027930511293316390153 0.088430240510841584545 -0.10396894390374035455 -0.0477715765487934374 0.035381330318900311438 0.11215475709330316456 0.09324241329934525313 -0.12697495449565282533 0.0094239151343433365249 -0.061381939970127502582 0.10276405151825955542 0.14639598325214742136 -0.007208351626202993967 0.063399082166313042164 -0.01659775383717503397 0.092821224745646746523 -0.072683230355002764744 0.040476381026463822965 -0.12188813927637928702 -0.11256765814388157432 -0.10573016787834460528 -0.16187641889533033179 -0.13096047224909271312 -0.11479263482106479011 0.10491621288547953172 -0.059373307376452848227 -0.031509021256406588574 -0.12929222687594132957 -0.11434971378609468107 -0.074617511638999794998 0.10245289667732197791 -0.081952809324367423272 0.06781488976867723617;0.028027011557930057301 -0.12248179075223611378 -0.095464424281167720165 -0.10732784816221252466 -0.14582412965491883816 0.10280057099250612673 -0.0037901093034000900468 -0.098704964252129628877 0.1150388995856464619 -0.069948231244584227473 -0.10731612064358457548 -0.044616603191017609187 -0.078935740787538885566 0.12211736837564624025 0.032718277006718053668 0.051942416661892157337 0.091327713887213279875 0.0059310376031782487821 -0.086918436726762304811 0.01515491985957004295 -0.13554700137742442534 -0.086060904258365045205 0.089707905421488681741 -0.11482633336473641039 0.066996963032141296224 0.038216337019283820597 0.10783910209616773268 0.14254160342329799671 -0.11654911365838613313 0.12595917574433318498 -0.03961959627088192798 -0.12572512947342553979 -0.012953103692632758973 0.090691374454845721798 0.030535288767181426733 -0.077470664190792445924 0.087937628231186198979 -0.030371862918899209666 0.079316032429990607211 0.0010857216898922843543 -0.030412054610995865878 0.0024872778469776069508 -0.030297521097688382558 0.041810159855389078531 0.047184588997601452365 -0.078264607268645758342 0.040586574723930929354 0.12430457449430604155 -0.082630143541649048178 0.032425579213390995359 -0.14551733556490262234 0.011362362552777600586 -0.018892465192276011732 0.070178427801414602905 0.099006298017107197129 -0.030459359091500517319 -0.039626611133997145797 0.12503899355608219524 0.020703059075154170432 -0.10051526572418623129 -0.12105597688192304417 0.080736744966714305005 0.13020729354741938932 -0.061286982557441117836 0.047723097837362282725 -0.054414022905695969001 -0.12017202497148819773 -0.11826242042231727147 -0.088438042396034616255 -0.11276581325464886396 0.080623486441336572605 -0.09777099270147647514 -0.078508605997483882355 -0.11654639298574827333 -0.0078157889757569341815 -0.11979624897645101134 0.031069081471931807997 