function [y1,xf1] = TDNN_ctrl(x1,xi1)
%TDNN_CTRL neural network simulation function.
%
% Generated by Neural Network Toolbox function genFunction, 16-Nov-2018 12:23:16.
% 
% [y1,xf1] = TDNN_ctrl(x1,xi1) takes these arguments:
%   x1 = 14xTS matrix, input #1
%   xi1 = 14x21 matrix, initial 21 delay states for input #1.
% and returns:
%   y1 = 6xTS matrix, output #1
%   xf1 = 14x21 matrix, final 21 delay states for input #1.
% where TS is the number of timesteps.

% ===== NEURAL NETWORK CONSTANTS =====

% Input 1
x1_step1.xoffset = [290.149715326165;290.149910719391;290.149993847666;290.149944755806;290.215892032007;290.999402949395;-4.35967012890615e-05;255.648834228516;260.740386962891;-4.92016442876775e-05;-3.03787765005836e-05;-4.05440659960732e-05;265.549987792969;290.149993896484];
x1_step1.gain = [0.657817068112627;0.657757928342135;0.657748388625668;0.657778535794887;0.672323109467405;0.912717808652539;0.00708878066086676;0.0927153067403077;0.0987566511103644;0.00678315020576719;0.00263664489881638;0.00440082527254804;0.0966183005109848;0.657741022501455];
x1_step1.ymin = -1;

% Layer 1
b1 = [1.4298944010979814934;1.3677533489550268708;1.3227040161584220357;1.2425981089813331604;1.1879709374761278085;1.1264281116613865663;1.0531640135560258464;1.0012556435998558602;0.95257343505252978222;0.84003210023530694439;0.83415657428919798289;0.76341065638377603175;0.69264737145875820978;0.66265848653235470689;0.57172697291535390374;-0.53796601200723770386;-0.45554309293652378576;0.35895408840835080211;0.3441402813532756233;0.2527208883487408464;-0.21582552547099820295;-0.1823539203077199633;-0.088761480702188283454;0.035998752798650460183;0.038026637819005747188;-0.10427311287859501732;0.14997709772165718212;-0.20662718601222224146;0.29188531402354644939;0.34297241013377632868;0.36471432689243582503;-0.42092184942536553516;-0.51486395994010880628;-0.58706238648429820426;-0.65065429454880197024;0.71946310917794620288;-0.73081948001135199622;-0.83142984897839855574;0.86978686854586750865;0.92808105038991117741;1.0021378078077101126;1.0725274818199639348;-1.124522428622211967;-1.1469891282834654422;-1.2381835667808032131;1.295313697661449881;-1.3635581761646100585;1.4294450538871468215];
IW1_1 = [-0.10076077668420431455 -0.060758672225509104126 -0.045302130098305332107 -0.069926587954023025628 0.052750287710362650517 -0.03783323951563827281 -0.0015219335241807331605 0.051298796136282139024 0.016506469895226322936 -0.066101776121002500664 0.048950118004955418816 0.041677960142338495164 -0.019907912692375916847 0.017958048177250413024 0.15222917440938360523 -0.032280696044194548411 -0.089844967885512064254 -0.040726724342410938751 0.0042329071202968169413 -0.024177367105661772689 -0.053818561951928224618 -0.11975018264596352935 -0.083224350954694853444 -0.13538568496529965191 -0.11037649223823013667 -0.074704819155603632841 0.023366916908796667857 0.078374555349154897965 0.1561011601359839629 0.1518798722649749855 -0.097566574622084623059 -0.12359132317101638454 0.070305588600112170483 -0.01023920823714917494 0.078388937205762662663 -0.076565411226147891965 0.048606757435720925054 -0.090198042562678951151 0.095675745019314598072 0.027781986391947979115 0.0054166272639727197982 0.10467971955046806443 -0.076670280216674088769 -0.016930577619397459144 -0.021012156188991437666 -0.07966459721447378961 0.13632761991759104192 0.0020021824016902669066 0.1205798945341605144 0.081758291735358881724 0.12286442065422541192 -0.12563412010084715198 -0.048280424928240923965 -0.028135945590945635186 -0.073058314084721770465 -0.0017868155464393533759 -0.11812776850590556155 0.05662777201987908432 0.0085982434046764488061 -0.017612920317741486559 -0.020578353611264824097 -0.022915674432239335062 -0.038097690176029298803 0.10217757065352699175 -0.030312862790070407848 0.072896429790526739989 -0.0059675194328466588112 -0.1167607594605424709 0.1067315643537600639 0.13463552160281189174 0.013990796298272796874 0.074722450218779823405 0.074981657852576419354 0.031880525602533967 0.060443127871289782649 -0.047262830110302800346 -0.020836802983648133186 0.078705312733885021692 -0.061171510259121528175 0.1141799733678345169 -0.053534028212288725657 0.013606236691070198314 0.10321598278482416178 -0.12458868928639139917 -0.12692775395967020868 -0.10087333735695408476 0.12517563860124775177 -0.12400962624063360806 -0.10007437540636718309 -0.12698708655108603693 0.035703978299695050824 0.07686915853076145555 -0.037283471547641770794 -0.039205076656993555206 0.022174352239631656136 -0.030185445471864552625 -0.13118767339760575852 0.14803833070557015361 -0.072405303752854435761 0.080570762938994427982 -0.0087521601800629872381 -0.068073613100183102964 -0.10901740575988962123 0.010047118595389850984 0.019577070750263127902 -0.052544132212553190664 0.085229378323410223683 0.089849551431817373248 -0.036649892187201105198 0.026124346474691400449 -0.071805480968320234414 -0.032652242423066905885 0.018850081247557642222 0.139407223749116016 0.0088160796023037269614 0.14013370060668067785 0.12898580014353813739 0.13952617697752195403 0.035895381319786361096 0.02481400328948866682 0.042787039362247092367 0.10266529753049399853 -0.017954834122704609739 0.043855501322819491483 -0.076362792961865127994 -0.0003157539789121931108 0.01078248791960710086 0.012669585105855170684 0.073608893342411024774 0.10234249555365990125 0.10648397287552033297 0.11891166681496256885 0.084949748361069582492 -0.097999913444007311081 0.060654963214738275012 -0.077631288950835694584 -0.050732185877580389388 0.066070826385752123855 -0.021129275387013000953 -0.0076356095676563913097 0.0040667333182294058275 0.017224617128662658011 0.066650724054963958465 -0.12437770871990591615 -0.098527938048375604541 0.03216002206954378384 0.030942686981749820824 -0.094099381200651574519 -0.02945428884888127638 -0.10483310430750472642 0.12494130557335172971 -0.062098483291457860778 -0.017297280849358533106 0.10530986457992068395 0.12873799849741091039 0.0094023218859014875276 -0.13140227312873786758 -0.0175425789356522914 -0.043790553252513894633 -0.00114540534483407422 0.074389924488114322898 0.085251959209755270863 -0.023687385510526796223 -0.096043351013213984491 -0.089305165379057457886 -0.046935963083307864763 -0.037271374468431241189 0.038769787167345602652 0.1308716642242185868 -0.14114413249586774124 0.039631843708407964166 -0.022814761334014933142 0.13280495747257242689 -0.015567680679436306235 -0.146719473978664805 -0.14825574924618867279 0.099246245759031806455 -0.091881590769029797272 0.084183712045420036607 0.063064853174685658876 -0.019974620001658466989 -0.11244479296518909706 -0.14754970396705158198 0.020278715650887565308 0.032484849253425755744 -0.005020779015282310527 -0.1068595654169690462 -0.046531852867823152164 -0.097259700705495902295 0.027458870281157451293 -0.034399548699894623438 -0.12172864799880130093 0.12513114403009409359 0.030568262891177564594 0.032951720381607881027 0.056353823048193502077 0.069422415607639689772 -0.055852152661936965705 0.074986005673331676546 0.077550689497536254291 0.075313768967201238924 0.095184126942776378644 -0.14260362123136349766 0.028325745159470418905 -0.022585840435081428607 0.038217268835412189498 -0.088119180823392317947 -0.076991535134111263594 0.063415425460579544215 -0.1269373831441991396 0.096701674269793480576 0.00081894765057307760542 0.086652928128148565268 0.088071693648999860304 0.091305814069117918752 0.14263971782748283146 -0.15222491658181430685 0.02649169383289056573 -0.056900637162633285748 0.072392159268992534171 0.0038247368275273283672 -0.065480790515586695388 -0.014981853769489449427 0.024642399506499754192 0.092624142718160704102 0.11044436048534106432 -0.056913188080574703132 -0.093069283825544968369 -0.081258749409539296482 0.093676174764448658094 0.071315009941621598788 -0.047820137434552684175 0.018310420110803048155 -0.0033608331450887284943 0.043054119777469201935 0.0084173232351136603041 -0.12195746591925704649 -0.097995956295165831396 0.038720522637530147003 0.093540364270652986978 -0.070732405574526563408 0.10843785052069995767 0.10914195854806915675 -0.0021226731712477311075 -0.11242050348965365592 0.010501768251617528763 0.047594974992788224855 0.034811454271838765395 -0.031047135988681948821 0.12023685385811520854 0.075015958570362500923 -0.011444485702984756245 0.084498422678748089099 -0.0087480160891679932533 -0.1194286678428059939 -0.13419678341975499469 0.093704282972222288639 0.097023463167745724323 -0.10429567369297264301 0.13264158075123128055 0.074753354195268975624 -0.075658462957664179838 -0.11601262859306368802 0.047388735043189481044 0.044747184606122175632 -0.10717711418827305381 0.13411401833663127992 0.023136530682756489136 0.028791837326111412859 -0.10759213251535269806 0.12010185966913432265 0.076409535301941139407 0.008717209816438000608 0.099183633276792068645 -0.015221833465120739384 -0.028277051268837005704 -0.0047658894538640831848 -0.13604265584175351256 -0.0062661725058173380759 0.023558500283503185785 -0.048969094107071280131 0.10031794243673820832 -0.043263590139541487078 0.096680886086088796416 0.091504634816479038517 0.047218833896095595282 0.033254819610329298951 0.028027227807502531898 -0.064089992211176227688 0.11396607107159700822 6.555677122943806708e-05 -0.13599302760309900373 -0.13490724794000000242 0.16325740861653220692 0.076173954284562014894 -0.0052676633820348522236 0.049946491694817379825 -0.12932323273456924895 0.096295605565350134158 0.11005197088284249252 -0.011909618119852577803 0.064493838384025226063 -0.13703764809237936606 -0.060412385555750423849 0.012854281038274611298 -0.043992138833285079902 0.075959856382006779585 0.1342107536326360151;-0.023645612946655864689 0.14703155804765019599 -0.077331517335140029235 0.053514163882468872291 0.0072335692328198870904 0.12374784814321795889 -0.028021257341741899471 -0.11244522682125565605 -0.077972714834556061669 -0.12861082986588701083 -0.047037037559288008559 0.11661231288347380375 0.088689019908366473199 -0.0081863510357297695347 0.0031735907286147102373 -0.05045579940231306737 0.011584467393263334425 0.048157736793293701161 -0.12104485801745358542 -0.13874500807490805498 0.11972855939623922028 0.039486874304368708988 -0.10560923856212053873 0.058854881330825288555 -0.021550182335703108732 0.084652455256822925489 0.040944766750409422595 0.029393172671656246642 0.00027171753168301005172 -0.09648613461156592408 0.052233540615240402205 -0.052522190644035626761 0.076211517813504353613 0.081004749629723746263 -0.069646321744232145279 -0.0055843289121514866694 0.078381686363203348367 0.046145440903898000962 -0.046196293054940974765 -0.11170354042366753555 -0.061572157244084636807 0.038165024232040600793 0.059993445585799769215 -0.14545383767186761959 0.08924020962928420897 -0.00027305017123093003892 -0.12094937180229262119 -0.050452696548107724139 0.0026562553740675422936 -0.042367396265682200074 0.05679107885899035979 0.050742759105018887811 -0.052021623758352196487 0.051568901038727271713 0.081650185137754960341 -0.05432127367628508674 0.044099214828970029201 -0.12530250761283767691 0.03297474195835902594 0.095315752392183733521 -0.03773822970160085194 -0.11674609223265325353 0.026531577351774918855 -0.0047171327193834440561 0.062536594969808179112 0.0091524202786351059602 0.052675009927753119188 -0.010826483909735649253 0.020018758924561234208 0.06990364814394040005 -0.040868576874710460523 0.038071717876528771152 -0.080595056784066518296 0.10232321750048486986 -0.093260906267867163533 -0.12629553698815154661 -0.08517950280292513332 -0.04910063266422533268 0.046365112463759586281 -0.027058250951425593528 -0.11908417251445090057 -0.11790655093958704591 -0.10079786010198063528 0.12486193816757462649 -0.11048743556902487772 -0.067592878295918049081 -0.076173432102688148904 0.10674213388474448894 0.084820433226836716711 -0.1165007874969647278 -0.11634972794655179529 0.090894239834829124169 0.10577050530930005856 0.10236519400023665061 0.085907623268610067147 0.05731080856139330465 0.074725596845793496037 -0.036363830363296399673 0.016452142585015924053 -0.016187858279247964444 -0.070068052274812511748 -0.043000157437028348195 0.12096171234450973919 0.0091542107413786193842 -0.02180201958310001506 0.11306244818674857089 0.026818731132332022243 0.0023659278224775026449 0.021084005951655288708 0.03519502910533638812 0.090605556823090127594 0.086427433331347919276 -0.025189030808202585859 0.07388542464807312804 -0.046746798730384064857 0.018583741005845352823 -0.13519518546581374419 0.018415877388544239085 -0.0117526255278627631 0.099940475431492370451 0.13973255748094176587 0.063739473152895451125 0.1171802560532221732 0.099101091169758279142 -0.051164744054133945439 0.018419348303334231315 -0.10447709706769371663 -0.041802225640277343444 -0.13204686196665949005 0.070870302029855114512 -0.093566479883903458381 0.095435956071690766778 0.027361839332748626175 -0.0091097058714361533321 0.11640860979939292308 0.018317927010752393241 0.11151096390743064912 -0.047254104504033479783 0.050271615132730380904 -0.073707619028526488725 0.12010252459060874464 0.035323831960163802612 -0.1242439961454406272 -0.12797407858985521134 0.12037488042996685733 -0.062871764586266171149 0.11631416671325567336 0.061389799762754285184 -0.12891549271110519514 -0.033519716574848548718 -0.027871897977307477645 0.050086765394573802557 0.0039528022656463157603 -0.031251904531010461785 0.079285033014443020982 -0.11223692461720545521 -0.10458440294706809748 -0.033304972365381664556 0.10317842862023064721 -0.10955280422950910979 -0.084049505253093056978 0.13123994847207601233 -0.034539587205111868529 0.051627590455513773515 -0.12494554937372936987 0.0435029494130924968 -0.12744974598506561558 -0.051577371140821531847 -0.038680477790545189642 0.031441173280884519847 -0.038101627969893164805 -0.084552145459217464829 -0.076919945047325022358 0.073616173135883047896 0.086598284194736474539 -0.097599099417202933582 0.095149820959353800798 -0.095359956317700139694 -0.079499624395054396819 -0.021345675034047217888 -0.037175732720833687406 0.061750541155974086882 0.044485522922289660874 -0.061991928156665182525 0.092873206661692617181 -0.012043572905962971961 0.12392592921866879552 -0.067411641872541838705 -0.082874902009508269463 0.099170526637949410476 -0.05584260527628676779 0.038308042038115802663 -0.025980385743161957257 -0.035210461807996092098 0.054740555931610354601 -0.077139109865359295481 0.09426596542438818449 -0.13717362522550533011 -0.095768946186098991014 -0.00099466221489040440584 0.047182950532028561375 -0.15670185569383668356 0.10278827346675757648 -0.095395126568001448186 0.038561202339962359631 0.1188174925559921935 -0.10321153903418710251 -0.035298374971368361164 -0.010813582204904640532 -0.12283589305927444801 0.12602496936396095917 0.10691454604325206779 0.08722025675917526033 0.0046037586311908611919 -0.10571779680657578115 0.049650267246055708459 0.03563403402580787166 -0.12342866670136991292 -0.11009761062823156252 -0.055256010757668304334 -0.124135532445000904 0.032380220370237897121 -0.10228468577838517595 -0.04868653705386184749 0.071721363241469007765 0.060799643837146317982 0.064342783606129286267 0.014553257451512544365 -0.019948670895271934655 -0.0072649866445907949897 0.15591740317555033424 0.061491581301660790115 -0.081017169854684573105 0.11278259618521055407 0.018832713982195228852 0.04107830666241935047 -0.037016864658775634755 -0.13812191335683798865 -0.084866448740547856255 -0.033236408932649084969 0.108874377666447128 0.016888124477242232729 -0.033309170556579968669 -0.12659125430862572248 0.07510330283088102743 -0.076907869455913449586 0.11044446287670706131 -0.065178797879724775788 -0.099181315216609097773 0.0179343354513965339 -0.09231904884381467169 -0.030464133665882006663 -0.063708283307137264506 -0.05011642447847650117 0.084029322045789486828 0.13320082276628747442 -0.04421058870053284906 -0.030611096999115620931 0.081171558907526822346 0.083765993594050860982 0.015498179220169862325 0.040926645232422946552 0.033993834774523869202 0.1799973912280864452 -0.15023204723090899382 0.0046959414734672579386 0.0034267157686706044804 0.036954502192966864893 -0.029059934256964847776 -0.086344340623131204948 -0.08167251353233848099 -0.015366428834728121378 -0.016268493505960223561 -0.1271050220502928374 -0.084905360060316223403 -0.090800229599091938915 0.0037207114665536913239 0.079837900063033956366 -0.098593302132279653227 0.29157521424339993832 -0.081696154230943493491 -0.041743883088580256702 -0.034196389425653617167 0.034549042403801563661 -0.077344627678300345575 -0.14422231470271990039 0.13899604595478529112 0.048587295588134078728 -0.088627110856827825969 -0.02736686127638677038 -0.0563014027767236927 -0.095593654159111599022 -0.13581896681832045237 0.10810082909487772618 0.10714572854007237135 -0.076875500528479689955 -0.075390375160634959251 -0.0044995866713017137334 0.13868298789936781001 0.06436439292568803261 -0.0071447577201998856838 0.016907467847568965341 -0.027940135175845048215 -0.13957454198390831235 -0.074250828140105959441 0.040425309488517746637 -0.062368084077141970611 0.10262404707484083788;-0.042499706226103710349 -0.030971448963475516764 0.047800177468641305567 0.076891067485211489485 -0.0078777408647715593121 0.1332033231885701996 0.091282802672123963816 -0.12399786693457809372 -0.12961817633414357553 -0.08670434753924238791 -0.016682722592252664101 0.058112931200457997039 -0.078704318491702840443 0.092129903164857793185 -0.093812487550480966325 0.055928080157397190575 -0.13828273912031396886 0.078331988870602678454 0.062921050497732361473 -0.0017519420007424616869 0.0017734748327594919339 0.099545245150671868295 -0.03310710453652858376 0.062845463728145242732 0.030274067601497672841 -0.12308380045562748728 -0.10094522310641514118 0.07685514652878143449 -0.13058964337331033234 0.10096992728218982804 -0.075576741959803711568 0.1283746958687116968 0.094182713213462429525 0.10143194617237130672 0.031657635113261618776 -0.12683914768208970347 0.0092550561697091696806 -0.070663186228938731914 0.059198094518748807513 -0.044606867492106176687 -0.092418279512490250638 -0.10515009869485643368 0.022780055390673084603 0.065814899771947252272 -0.10175356578590452616 0.053054159141436844915 0.077738467130319025 0.06801428384253711823 -0.084703283355190034376 -0.10761973949176439902 0.044680574327124696066 0.073524003381688102232 0.094156428451232496157 -0.12702098466746719607 0.071445343781433676145 0.057936735722870738585 0.02281493051603010469 -0.018359912305979025904 0.075502806709369318927 -0.042822389560891092886 -0.068563335582569218118 -0.012385463902245692422 0.040304575133133936637 0.10121539550672271901 0.085615993667846904125 -0.050283720554843126804 -0.13110484995787755058 -0.11075205015884202753 0.040127063779644665809 0.042096906241082109046 0.0098834986866430437485 -0.080236280382966984615 0.12711460882119654525 -0.020928463371487265876 0.01447878008403228646 -0.020615930535036307986 -0.037139302711374742871 0.041424214789836488748 -0.0023417199402503818123 -0.020677865096893795205 -0.1447969162599121451 -0.056022631207574682954 0.09725628257128787757 -0.0925298239942532047 -0.077762725896020554184 -0.12305832129892406435 0.098208179475152798665 -0.064812723854155873671 0.010429070512644090726 -0.09453720991313412092 -0.010035819728112715596 -0.11256052496841799371 0.10295468662140111471 -0.030261030678807303296 0.059385884714733112866 -0.097121534214989577172 -0.12433457979882962807 -0.080428101348254774083 -0.099324198088246856697 0.02824104965527094932 0.11228426781969920445 0.10685631106585789796 -0.021955386105801621283 -0.034752781946299347859 -0.11721031023446784602 -0.074723327925886123824 -0.11489897120206489511 -0.009916937557824778357 -0.10985839612276433741 0.023579842012805381918 -0.011278990739682312819 0.047527814449965156973 -0.07633690088995659373 -0.057309058862786879662 -0.064482116724133509145 -0.033762424087891616808 -0.0013071001115047911362 0.12800331465741321413 -0.012488349775208178183 -0.13521718460266707318 -0.055382711432738034041 -0.035106183334963951548 -0.10151365291895121656 -0.027837748470400099782 -0.025794919638244668408 0.059068631314773627217 -0.10779706009485777451 -0.018911558027262690557 0.13729041324754956421 -0.12418894354605092278 -0.096017332439742947292 -0.10151204215512087126 -0.019440373391556745736 0.11482667826206451045 0.11822618315184786619 0.033682808391571825157 0.008427927487535760015 -0.1314154522240557621 -0.032340057076474366948 -0.030985113080212133702 0.14492461217040136789 0.09114013780265921294 -0.0682508959245561736 -0.044801452340259582952 0.054696965899722546633 -0.034773406241332904809 -0.057922519710287209693 -0.056810699499681968638 0.11196127660733236342 0.078683658419570978726 -0.049538597984141251318 -0.1254951972324546694 0.088461732144724039562 0.08441437424308211035 -0.027675800674107006727 -0.03538408492870635802 0.067528052913698233262 -0.073177826562735664995 0.060627995562639154514 0.061164879589433028551 0.069240148480574720269 0.12028273402749420362 0.10158055281885911003 -0.059001840434815017167 -0.051179224380347262957 -0.13175258732273131823 -0.05009545820700899571 -0.038599844089449115991 -0.028804396014465345061 -0.1122841308239809488 -0.009774403717057464705 -0.044922698709457156707 0.013449616308109910157 0.022245482721078856797 0.079673168953647635626 0.071986149068354182701 0.042148348495246235057 0.086368228861170653898 0.060841144735869982785 -0.14401268690943749839 -0.1291471006753026618 0.11384478164919636933 0.14063439074788014471 0.040044457495718048523 0.11483814133379542655 -0.04652072985029526847 -0.063454158043390385124 -0.022439198061479807833 0.013453178710967069603 -0.071814914226616663462 -0.12097577828308819781 -0.072089481315408238116 0.13206056016460229752 0.11117826396306443315 -0.06797287655908428039 0.013302390075546276574 0.056308535471404817796 -0.13460732587078574896 -0.042689180554055163042 0.098586101374755444327 -0.099829912894430120063 0.070265398847091237178 0.053800484142733230597 0.13196945144141780659 -0.084494741833656558661 0.085841237828662320108 -0.014345279697654249318 0.081134358574923959306 -0.01707096957855629149 0.10973996889511282438 0.13942918652919841782 -0.052857760371239063957 -0.10819998467275449006 0.03925759078452253914 -0.10666434020331631849 0.014732184648871255936 0.011113605981127119143 0.028654347429005102427 -0.051377644740766725828 -0.03418528154069003927 -0.051816961024517278755 -0.1348227528997460456 0.099366159921692773227 -0.02945577173842079538 0.099105492460478616934 0.12833933538164052357 0.019572259915372664657 -0.041746447948631165703 0.014117011286258262376 -0.049804526381298223903 0.046666204990575284317 -0.093524227851391542043 -0.033795504797181984136 -0.13425708358159679778 -0.12953438149968027338 0.047540858039103899013 -0.030588894374652994546 0.058593095844288858864 0.10016661660872350215 -0.015760370348796765017 -0.048016765337342198761 0.12239217205513726328 0.1079614678066375677 -0.065601044224384646997 -0.14676925700295292976 0.094219245044268221112 -0.025548511158005913352 -0.014827783411870592081 0.079876145103592574581 0.10890879344628799641 0.13371911760940322078 0.11465360261354531901 -0.10317917585112777734 0.044872616439489518281 0.046324037738005502396 0.064674324872638078165 -0.0063143166869846908615 0.10063337347825510038 0.050402646774096046545 0.10354155226997477368 0.127408044188597247 -0.1255433346289310248 -0.10678968247961311 -0.15112077219967864905 -0.10393264120354762936 0.078148763810063290314 0.055631066992062418175 0.047238843671554092696 -0.05207293556018281061 0.040805103012537438656 0.045739849667003229516 0.1330645801410787199 0.070528342815664599175 0.018124383813626302603 -0.018239123830184989644 -0.059377497126179956677 0.023870785872432628144 -0.08798132182494675102 -0.022193354176686715812 0.020836474116223840242 -0.050380905601180525633 0.038168314060781700914 -0.033704467357023565333 -0.097884868659358789666 -0.090483126310499872869 -0.09105413703323986252 0.021090622177264917864 0.089960764634058346112 0.048001189939435168208 0.035366528456754135756 0.020596828359641990852 0.098454168820906406978 0.12410884662260174283 0.13412966281715230088 -0.11281561716057707245 0.023345809803619992084 0.0059743250941760393108 -0.088396580304604885359 0.07886226988929558035 0.016959916374832809116 0.041695189533550121308 0.014845727497713642404 -0.13409073177767621976 0.11310822931948112668 0.065305894589589366661 -0.091136493193343617869 -0.14013626247828078752 0.034711670307605899111;-0.087110404865242421768 0.052285510645665465856 -0.025264135996330750605 0.10252941683154687125 -0.11587553774732071987 0.076985119748175276366 -0.13236400559699418311 0.021368860198369477033 0.12211100549278781913 0.038930682835482184612 -0.013202981777574991293 -0.11602506329353272363 0.015793474042511336519 0.020112686770596722996 0.049539145477423551789 0.032328418644219543421 0.1111500515927276167 -0.11190203351562288958 0.04599282381866728886 -0.099705323443818980045 -0.011041017529557706905 -0.059077001831100636742 -0.080173822500101007971 -0.13477831547941404589 0.020089525181963611283 -0.013765553204436583798 0.053907183332948034604 -0.013962422388552088448 -0.035181305587611857999 -0.084623736925390630192 -0.045997378431930024956 0.10206334720266711791 -0.12645308525163498348 0.081468144540669890086 0.043243289705525517208 0.093875078574355230732 0.057961628366036674342 -0.021420040038396169491 -0.10259317959806159293 0.018973485692779869932 -0.051851270833097679036 -0.029602251546759175693 -0.046820475049489544694 0.0015850142151080301705 -0.03775328052732343509 -0.039275750458365073225 -0.073577905498707865672 0.043156082937414512457 -0.13247142795525934655 -0.089865252733421621678 -0.027150301455722967992 0.087346119027290100578 -0.132947381120464031 0.0059708419197710745768 -0.10905282935056059834 -0.072849879010983775718 0.10356030995142583018 0.1326810103376045713 0.11369071910061365194 -0.045315335559939079468 0.11459275470419481857 -0.072416980771475417122 0.017555801169178861243 0.042541037498145334306 -0.11204586828262368126 0.095611424190890623165 -0.0829722525631847313 0.11634777762117212707 0.0087494849886637013348 0.060697663583680450117 -0.055112548780881717714 0.014267999069379163832 0.10888630693624994084 -0.12894541770814640924 -0.054356744866768641478 0.060578245307575682987 0.012911255743529371706 -0.025193345658731221282 -0.017131933327136118772 0.073875043112491586839 0.012543020914164215024 -0.13078490101451381578 -0.057652262153904267061 0.086557157331788939225 0.096162351581381255716 -0.12259048571607092382 -0.03094604869260277058 0.025790057547344147348 -0.010073946754519669256 -0.10982206769025300297 0.027720746338116868807 -0.0047888345225060736238 0.13408653116211027845 -0.045997826522746088074 0.055385419592753400153 -0.068700210136200659528 -0.016013479482060631598 -0.026720225541539563419 -0.016800869676932062013 0.12958663848806550867 0.13542515800127474801 -0.081226462380576180955 -0.026468957244960924363 -0.014147584230983247661 -0.13992993289228375375 -0.13851692919368857604 0.087253446052886693418 -0.13459007907419970329 0.086288712750996712786 0.029040662381843718176 0.12312901305166079613 0.038714665373183812513 0.080966297481500276723 -0.02581235469459620957 0.024248236008844091527 -0.10346589519985778527 -0.015523222551412035539 0.096098994299016554654 0.076519185148173129996 -0.12099949211147430217 0.098930834292609404201 0.037422084281637804648 0.10995323775764893892 0.033616153143610119636 0.10379050884990698167 0.029317968456951594425 -0.13071509399977512822 0.13795840358714106522 0.11902024379694770007 0.0032702459997232349344 0.11370649564509610618 -0.034745270534581658428 0.13029390018912273552 -0.020387150562768231038 -0.13940951928266895332 0.096076733002671943495 -0.00061768434550204870045 0.12624053808326018977 0.040357464965760890541 -0.0070700691718280986309 -0.12316863974105037027 -0.094916485454086707563 0.13798842881792383608 0.0028185981411102171111 -0.050399403334953449263 0.068620430990865594056 0.12030746449993938441 -0.04170695725929682296 0.042375109252605111521 -0.1045713873050947984 0.11329484639296064086 -0.11425296887628696996 -0.10364979299230467347 -0.076443531046277712893 0.0028921816246091011648 -0.032250562781634385667 -0.067590146228613520729 -0.10505680424372149107 0.13244807705862804426 0.10323360748133418585 -0.11452206496860740936 0.012189094901714726468 -0.030099511007509283794 0.1128428720877332897 -0.099334070232190957439 -0.083333446544638242748 0.046358900986940482225 -0.055457593325739865109 -0.027712094807320293566 -0.012946414956709203017 0.0059876240711730695926 0.018722122003100562238 0.093765706290841951964 -0.070191784520174924089 -0.12213399760739573896 -0.073475179731961090535 -0.10593454542554378572 0.11186327725234952724 0.028247441928414409457 -0.13733324761413504 -0.095104343428158391593 -0.054862546023935053474 -0.055157040177371330358 0.058184116220984405388 0.11378880151681072808 0.10688091631869862941 0.13457478565222641409 -0.10879508836858321763 -0.11118032508300977612 -0.05891310932689129698 0.13099222145773770087 0.10631126950236434447 -0.10123367910799910274 0.065818234733477143372 0.12469561931880417116 -0.11435359138148844249 0.10977631783387184483 0.071675138813857480757 0.070964942826902466244 -0.052203838887933007307 -0.10088297991396356912 0.11712981253145399174 -0.084871592686645555559 0.035887130530096962577 0.054658256661105027174 -0.091295718234382275402 0.069374895023939675553 -0.13887732663640250941 0.014459997706490200151 0.0043946668592407993684 0.020427138738194829115 -0.02347824105684096288 -0.11432340764742432437 -0.033121814073555584657 -0.12283018377124464704 -0.11067801485960662711 -0.046709167784189674355 0.065148080901127766729 -0.0087572467843630256989 0.033486009864210228293 -0.093219483506655889671 0.03478993729759029957 -0.031394979719036854304 0.07644561548164965914 0.050082706957633733869 -0.00059656998499155460165 -0.026197844431235354362 0.06221842048814017756 0.0130052746183247879 0.12581176874381272413 0.10215706950519798379 -0.11020718265741932806 0.071595294391309183268 -0.030667667864153980162 0.061723732180750744136 -0.0026102555963897896771 -0.0017961311430696453965 0.047688646757272211418 0.02830563768248999662 -0.049923422187581244225 0.13288992603871910281 -0.088888525758907863117 0.038602536500992365442 0.076447644331186725974 -0.10061998930068827285 0.12388479359085373399 0.13345948755782235939 -0.10218907667236667991 0.051977642149932168358 -0.1018094163945718611 -0.11833049452851240879 -0.042334695257327512041 -0.021406052859184818843 0.021631505036988515206 0.12182661197297052491 -0.048697283214632985926 -0.065123624081507319739 -0.0084851714678008619691 0.095331912558583975503 -0.041013376823361827328 0.10742648664589107832 -0.11078102161984687557 -0.13501548735604346207 -0.0011622936804417912434 0.075794512319839996151 0.093851762123031909346 0.011707740878894921585 -0.030794218159822715764 -0.086981665986598205587 0.093070229298464132728 -0.061086706144663403817 -0.084582080154772670832 -0.017699044353180277273 0.011340448569982617896 -0.040925181459919794669 0.021615002652498303132 0.1103704615164758096 -0.14061433563277681014 0.064537885800962924154 -0.13009866678173631627 0.095464982005570617196 -0.074154919871304805779 -0.045209830918682344936 0.08102046817913999277 0.061520878053254769713 -0.097488759576047231969 -0.0613343212772262808 0.0005550947700857723939 0.011786462663989081753 -0.059350217734078794529 0.071253075836773940854 -0.12028019877634979484 -0.13870219881335990597 0.01443748043992833241 -0.06165348621996107753 -0.076331635567837244349 -0.091755171174025859648 0.020026015968374204917 0.069515227360324505224 -0.075081741651960715034 -0.021312086023415884734 0.022886745101516042106 -0.027051691078621480091 -0.099300065311524951528 -0.043505844479449495843 0.019210635620782619964 0.10141687859492633239 -0.092901317950529652134;-0.097477550971700910321 -0.14745955981654620959 0.11731508480471930511 0.12842508477376785025 0.10911303287267561102 0.11780558010588006168 -0.081714896646939150227 -0.087187776710352438148 -0.11756391835495427767 -0.016114419671990034416 0.11631126109798009538 0.10653661236466130391 -0.015813597960100771872 -0.1083285539945621212 -0.00095063015456763261604 -0.072379765537516585483 0.063457448276394573528 0.12185097712081180421 -0.066520750585639026875 0.087094722462036755495 0.069787833379296060343 -0.1046618527508096641 0.11306936537483130989 0.075614739428257360387 -0.12888212397897286232 0.027669612176029249884 0.12245800477089141545 -0.021303610135178643187 -0.079728348482924052409 0.10563997312014455909 -0.13570153973841633799 0.067887685438486708445 0.014074567038711138095 0.049891966540478178971 -0.078313437380217218453 0.068373263353632904304 -0.04036722174052657236 -0.043272233163634300779 -0.0086779740553251192431 0.061998799734628934344 0.090161997726153172983 0.00961689782779217954 -0.061482670497551981936 0.0030657896197271183349 0.011350648123264958644 -0.14291553595964595624 0.0091426657530167664695 0.10957085483459719222 0.0070704073226917118003 0.098410185780022127466 0.1040042438510517947 0.025081012410935354939 0.028584976131230982466 -0.088851587886390137605 -0.12198449347945744536 -0.092494853105611132826 0.026547067732137080709 -0.14487528910799127302 0.05712231115168039941 0.027429604726118734376 0.11650009582276985021 0.07434644770072507125 -0.092139063621668904069 0.13232889711786696707 -0.061973785436664464987 -0.087210443079778807163 -0.13944776139058101538 -0.076418770960158824423 -0.14188551807841665031 -0.1026692898666476117 -0.025384299819483126248 0.03428493108783411264 0.061979550947631960323 0.060123391948870903712 -0.097104291883965215826 -0.10115301543441719556 0.0092907902995897542059 0.035577528366717466046 -0.055363683496931520578 -0.15262997606110706439 -0.075771309640776565719 -0.14294259745445145326 -0.012726357201016495757 -0.042277358249329592688 -0.065251218880051420346 -0.029830750328800566262 -0.0039420144330308930225 -0.010314857130271340782 0.025256645132663860243 0.063005977757455353117 -0.0014816865884041043738 -0.068897428373567923265 -0.08646395458687934632 0.12292441472626401688 0.042526750027023545175 0.0073530415160176880451 0.021477475824104995394 0.050511949165283766272 -0.045499348018363146295 -0.031380441788532803526 -0.064056827277592265357 -0.13301897080618368951 -0.10287075035804937873 0.027367980985161289437 -0.12669914399502843483 0.092055860880096485044 -0.070658257137789406976 0.052655003323313645525 0.029341399968225760631 0.10209419019381113514 -0.13825605742796306941 0.078115070811242831583 0.096145106858165615971 -0.023206557167276174736 -0.12389321610727756229 0.066475343496232394691 -0.085139343994139596306 0.039222272630556859196 0.048074093838507192533 -0.11174467990577015286 0.074663118614417947616 -0.10597828918999187275 -0.14666410089456244359 0.12195935117350208132 -0.012248313740067328856 0.051876785509936407248 0.064428316536027985251 0.029740454367206126118 -0.092104466932940456947 -0.1390318925453554455 -0.041170135236757061936 0.0036950015121105677686 -0.0088134432175201015552 -0.12619547809993231224 -0.12374694054202688143 -0.15506486356727117171 0.047365206662487002731 0.066837663540273706264 -0.14507511005613671351 -0.0043939690951312693548 0.044091064778149516301 -0.010670655617482625171 -0.034225549770753267709 -0.075744594370896561886 0.082872505959455528002 0.10734974493482943303 0.054305682587408241058 -0.056208932138597594852 0.050762786461851547304 -0.14233597340432360689 0.064310931893813039206 -0.063122720183031555408 -0.11616865190410850806 0.058543961608735088642 0.026151282367223915859 0.1243197783381503746 -0.0051179574750376448725 -0.097792332482108390579 0.055923225421073023689 -0.077963585938127064057 -0.09978500664131063902 0.07862749345490152586 0.0027493432179213819072 -0.038593133265307826008 0.10231610739273039323 0.078070300623927835204 -0.017591486341073634542 -0.11512017401670192329 -0.079147203564550683286 -0.13553023722558937836 0.0037002136591725342044 -0.091100508214702127785 -0.032869473900933580957 -0.11815689489259025013 -0.020059224992032092388 -0.070047997007993217933 -0.018055255564601399576 0.018788487559024701079 -0.018052810835304442666 -0.046595714190060665005 0.084468275029209408111 -0.032730266327834503515 0.013511325372956590335 0.08412453827303358056 -0.085408372364854587278 -0.11559362227633973585 0.083974716176938066226 0.04620142640566707315 0.083508273041410382986 0.018496056655959814546 -0.096237078256107652652 -0.029397184002541005415 0.018206927067882371085 -0.043953423614098055539 -0.073047235067607824144 -0.046147650004571737214 0.13696634618844721887 0.028334825044039075453 0.06621505235613180107 0.038478199117524564121 -0.11311008757677813719 0.039082374432690865362 0.11647562399213129414 0.036440865343148096112 -0.033370921530557207113 -0.066108203616321623008 -0.13821181492994208395 0.034106569943094293407 -0.070436337549907399036 0.1203253637535040832 -0.043700436792707457456 -0.039947318260063494066 -0.027095009267092004523 -0.12383190993854129025 -0.081798314438455407838 0.015370711339717334568 -0.090913799413240944935 0.021176689046816625506 0.050797578522907838039 0.070834879635441952428 -0.070150872857343601896 -0.14645829799931195381 0.032406652631727032865 0.097466147428663732488 0.12374829830906884653 -0.068737664317423438631 0.029223306808987041527 0.075213857972973280352 -0.043603352360573534308 0.13073189167117352238 0.13704364589110001882 0.071913980256563800331 0.01991811624103584713 0.087870436902814014202 0.090082065891236628996 0.035118200938854232662 -0.039124606910221529366 -0.053197804257369231407 -0.029370905800753945025 -0.026963488671769449828 -0.1135426863544661269 0.10154780086907547187 0.10472981522215078776 0.0068651917919703734847 -0.11042621237816847846 -0.0040695391815326548493 0.07405628040254638722 0.050424672032456284432 0.039168599731858752544 -0.068476747716678415534 -0.012521193893299170652 -0.14579665189855023355 0.057641573947113229626 0.10978829534004290458 0.057103072590127909591 -0.11996104965634092621 -0.027796919270508653466 -0.060165991036578041207 -0.0019602643734947678561 -0.079913350829273796516 0.077447662182786897178 -0.097522635980093502761 -0.012671239280173732245 -0.0099463545847513889359 -0.12837070313535828281 0.068116131994212500422 -0.037009286681793429619 -0.07883352620247187359 -0.030401866428264378434 -0.091148104923025566326 0.089843113228424004157 -0.061737322928011206802 0.046918767521974096002 0.090766175826444500663 0.042391274019942887241 -0.023983617170595130513 -0.063820273017513709513 0.060376857636668515572 -0.1312564553943245671 -0.09758179647217382624 0.10535457962007648003 -0.12751320017868106316 0.14330624077897799462 -0.030652512368477897314 -0.021779227934456017735 -0.1106396672317629809 0.049038332351963163924 -0.024675538136414279511 0.07353317619909756353 0.071852810759218552206 -0.073688267998650414103 -0.0061765728016487638288 0.081454220846214772656 0.018353702021097491326 -0.043047253874460414402 0.1420278011275076524 -0.0086053243850808935206 0.14225415189463114229 0.047783712280456545896 0.073034194440173075269 0.037188286960181095309 -0.14904758637065387838 -0.063247867004320695861 0.075552886382268286125 0.018522764207541602549 -0.0076648273522560116111 0.032046088739097915166 0.11587829153900221224;-0.051867319302762573963 0.048328566043661438933 0.084672444479874695022 0.077211262413548087391 -0.10405504163098124037 0.10135374552977009788 -0.12782735452900415019 -0.031551143503891661279 0.08337707720939811773 -2.9506057976456743347e-05 -0.13993571523182690708 -0.065520518835352842268 -0.11197312895065396343 -0.019340416510524389287 -0.12064481298291968026 -0.019211759653582061863 -0.055355147703579611618 -0.020403295449657007921 -0.03070426615536722692 0.13049149257726064266 0.073824589586520369955 0.1009829531177047629 -0.097993574086912005328 -0.14297894489602158696 0.045707565229715717281 -0.022271012557712945024 -0.14256356357620267317 0.082076232591455064447 -0.086361154852569441132 -0.12564068739201733615 -0.10970435723021128294 -0.03325765950874752519 0.069505676583576231353 0.072923202273133425066 0.043708475335335623957 0.077201349305334954209 0.071724101056086120298 0.08180865611862407627 0.031829512549960310708 0.10807303770487973471 0.097440212525160246892 -0.10057482020072554263 0.13625535466339014357 -0.019154916631124896398 0.10808443019717482725 -0.019446100539366805576 -0.098147216230138251136 -0.061859384876733959635 -0.059080890010463280038 0.0040131197166487974845 -0.081940792420453073541 0.088753458609433927284 0.034176053475972037465 0.091862729099382450793 0.085413096685925921081 0.066859632320206377476 0.12785849708123667168 -0.059859269104600633382 -0.12430318845660859317 0.09870363389894094841 0.072840741009181239618 0.03806803382851401546 0.045868687719592890484 -0.053214355426676199223 -0.063603101743477385988 0.079805481044724055351 -0.094706739168807049789 -0.027207425499518832906 0.031931391439875687899 -0.11922541097932744247 0.046705109641582538693 0.056084612595950752989 -0.0060260143837981934231 -0.038314179186988636672 0.023641917811595917348 0.12546217677593679563 0.030591769369346329122 0.09088652109915472399 0.10154067564935159718 -0.080595244826670325855 -0.081256743593327587782 0.085453120668478016464 -0.0033816630909016720703 -0.0096967912167030267945 0.11763010504346284313 0.042617207922554668775 0.085138502107120705986 -0.051338730902940374334 -0.057980810198282654866 -0.1082138842835338316 -0.088770216021273953833 -0.10412824862969817519 0.10365922994934409496 -0.12397473132137362684 -0.055493601534705928879 -0.10746695299426541059 0.11944448988721571847 -0.041290860803388902689 0.0088650553313303574049 0.10645880073382432696 -0.09733017460077074412 -0.10667430135846649175 0.093134570639961528071 0.0057241469454306611112 0.05035088550621830833 0.096060683317367140388 -0.069214946194949375502 0.11646889471813533234 -0.072896420674308487486 -0.12598397563139157596 -0.060959553505385066785 -0.08630702764802282434 -0.078551972401356806586 -0.06253170299641498675 -0.13754810923346977303 0.087618027128800637926 -0.049208731420542495272 0.049908464183534131942 -0.0062580970074821197502 0.032431789798631052713 -0.085898933088484813458 0.081584380665799358101 0.10789842663187716731 -0.07690732085059048817 0.088958773424235582095 0.084403926507994150863 -0.035573267054474305704 -0.14117809639693013057 -0.016833203005202801439 0.083972878303126372024 -0.12236330473829874765 -0.13409296529574679657 -0.074572966746988877951 -0.088103879629767553605 -0.13782527632221083791 0.047038759682286990227 -0.11918514158690120264 0.02356771816647851292 -0.032026687348134151578 -0.064790592565134336178 0.01120072110094343619 -0.046475605537146788548 -0.027784114651079504926 0.074135377294715559815 0.0057278521352909584144 0.11172465349574223215 -0.0090802357679407811469 0.068183410714601086489 -0.078017067398063355554 -0.0043596816111048106515 -0.016270734084955249671 0.083343237701315631138 -0.0067845399562706997995 -0.045190325296728124649 -0.04174476707451684615 0.017630720867970618021 -0.029560638830512256381 -0.12600567127153897151 -0.099501737964609926479 0.037454703001546699181 -0.094713707653113543561 -0.13339052302921014515 0.09736238096777642681 0.089271184137940329251 0.11990350119557009745 -0.038884703349637735059 0.098313235901554718588 0.12467990463980835325 -0.033924863755956130573 0.03750857739954900627 -0.09221606108569609106 -0.036597550491090972968 0.093321147793220551869 -0.096637433187648877353 -0.14211336680521768905 0.050060453700605904437 0.048680352957929010072 -0.11637329700672359445 -0.13972225742170735208 -0.034494373528279040353 -0.067756504064855740954 0.099664995981334852937 0.080534422420477438931 -0.11036476768060680953 0.10500978844576797089 -0.067127425220578892939 -0.088655938410941076411 0.12103548556432473793 0.08583451891615472007 -0.017984061296040583511 -0.016799097487926784728 0.090111190380754838114 -0.012670609231428911837 0.10637117813668418853 -0.020889303459185475792 0.1056743061938443945 -0.066872740637549277221 -0.059664359015198467628 -0.073019998816993184065 -0.03035376634294244258 0.099257752859380363186 -0.071367776195086343738 -0.050731994030262649031 0.11508479280737218819 0.069576400507805294393 0.1068855960661633242 -0.019715955039399272325 0.0026021944733248133196 0.104599220552352698 0.04997764934822518379 0.0044941384169801274623 0.033873409844841238792 0.10150092985612664542 -0.069084871504947756304 0.069074125751984100097 0.086238381606557973358 -0.078017292085584291628 -0.11504281217185431674 -0.12123053069232610224 0.085144374108035783544 -0.048612235989836612149 0.092484996996591073426 -0.084848154613434298432 -0.090710797077890190088 -0.027025812155073096477 -0.12557374204292540143 -0.048883744860015121425 0.043822430677333365501 0.11600237453257004894 -0.015148055964484933439 0.0039233021075785858359 0.043099753859086827046 0.069212956275019152375 0.046473124967027726329 -0.047329714099030618935 0.10439675898009667665 0.13048663407330277075 0.1417727109321322565 0.075636787789646386937 -0.10721029173305117455 0.010482889575239441593 -0.026675212851694708044 0.010795898422251294646 -0.011628711394392986928 0.043369586149600541924 -0.052612659304468248345 0.072650804725679293816 0.10165727237957274121 -0.10476745679431032077 -0.044481624437606066824 -0.043187284915726868728 -0.012435612511346977316 0.13023471028279989814 -0.024205280983184137428 0.093536790125276922381 0.0045727981824802465052 0.0062129252160211872677 -0.09107529884075317439 0.055369871805241194229 0.11071149584936462729 -0.090062252564614975192 -0.060488225085631494582 -0.081703654595747757239 -0.10677481372275567095 -0.06616695100942036889 -0.01861658906893938828 -0.10874875643872765341 0.015160497466216121473 0.025598375621517531486 0.03336837393845552141 -0.045415397643164767683 0.049114490807657583404 -0.10504793194757941488 -0.054567676160331569923 0.031355878943026993522 -0.036724005761561269445 -0.11871267284784518814 0.078307840276311324601 0.13603734254296123707 -0.2168634535103942107 0.13249236410614079196 -0.035526603565983562449 -0.11419509587663906336 0.069340653456387527087 -0.098609078416236992104 -0.055268380276711166765 -0.076914192407677120511 -0.073664171420464358286 0.10399828557347522151 0.021691294782721966955 -0.038296946380697416412 -0.053309006736823802419 -0.12285332999898924966 -0.13881642894854917536 0.012686318551666131427 -0.017102254822024105796 -0.088261234278819822308 0.10194689620185518053 -0.01672531427112257385 0.038611143277454323952 -0.098616100106627524458 -0.037902506432021865201 0.021083699782586718535 -0.044769814399246356251 -0.065928769476676793437 -0.11022046229348535229 -0.044257946105653055147 -0.17106682915520990407;0.02223411555189118427 -0.068939721520169083835 0.047950448732903300231 0.066655444631148419443 0.075663995871637301782 -0.033311194741121534502 -0.037266975360423830466 0.045608801507563537236 0.012355006349643989083 0.077852441412804049281 0.067236159042535020847 0.016770069699352671555 0.0021625601171187426586 -0.097369291781075659187 -0.068709833630422045836 0.010155490864365041004 0.13219191505523522623 -0.01167554947651909536 0.10242214831382559503 0.15233562370937284158 -0.094953326988884687032 0.070464946498474956282 -0.10604426593309877747 0.035505548945248571746 -0.10367240265998638182 -0.1105491713989002478 -0.093475004646023096555 0.071205284136666421868 0.050381565162452880691 -0.0091554734773431050571 0.1169251670177495761 -0.09350861890794338882 0.025921058209558391766 0.1196684949293259359 -0.004238304092065669354 -0.026705512980498460895 0.087781816006594570734 0.12834602133699632431 0.075346840413339499776 0.0037664043674964439723 -0.066956449048644867128 -0.014651652929392562294 -0.031418575330562872883 0.056920737722554057281 -0.10082613333252134213 0.077847794230016448269 -0.070401768892255953136 -0.13589853696211429135 0.069765947916039738885 0.013075007790594386434 0.0016333441185807475501 -0.1091493466853802885 0.045328293441118959473 0.13985267019759498042 -0.0064645338296880367618 -0.085845107454392485802 0.053015179910703806587 0.036960223380800544257 -0.028312327730681319249 -0.05443350285326836735 0.018516557921751962412 0.026783290718522721752 -0.00069496579964926517761 0.098503873691469984175 -0.13571236865047719977 -0.11548391615840300495 -0.088726409915970402831 -0.11036343490692515634 -0.064762176611476235388 0.065892278784353386367 0.073679136937640582472 0.020034976202243381244 0.12085672197054968258 0.073768799785809607839 -0.11194896890913760834 0.069055733876283734163 0.12405020112432561807 -0.12157841748761910594 -0.029136113655022492785 0.11468197910138083762 0.052608459387212785918 0.11748302571510808867 0.087265359097938449695 -0.04099331474159144395 -0.013570561716220867418 -0.0024432027463181277445 0.033911395062140775591 -0.05506439230454680811 0.082982114951424920668 -0.030738881754814588454 0.026022551498656811692 0.059695561690830192814 0.0074801891582976457601 0.12317977971467478082 0.087053038614238548165 -0.016773436646659336396 -0.044340509365164086641 -0.07018940139261717337 0.076945215663137542239 0.025614832774360687256 0.068422087652360644161 -0.11242623320007386067 -0.1413220968358162577 -0.052320634281781193409 0.068194720845101766682 -0.14915469063929687188 -0.13925334114783963213 -0.081245979015055855288 -0.070662207041741600944 -0.011468396508863703404 0.1034551743459330847 0.092938685447071997525 0.026660727264423148691 0.05464321541754086492 0.027221133608322952563 -0.062527632951558109742 -0.10340365139773589898 -0.059103365151648080966 -0.0079990412215861731587 -0.12673824917170964377 0.12853883408831381918 0.086319431137317353953 -0.087181650182064474031 0.02145623937594081862 0.13983361396035792756 0.073262752048030718721 -0.0081187262434696920443 -0.050880725700412986201 0.099230408899240521436 -0.090707170176857490618 -0.088647130270982060773 0.032528694681398281907 0.003200213694405447569 -0.061134725443905454934 -0.059591910894554532552 0.098203417959683889094 -0.077286807178726837919 -0.095514248589281661173 -0.046740534902152006125 -0.033225617516061151102 0.052075364421408407156 0.079533200084755617532 0.02902825034312025293 -0.10015008724852322852 0.066582908718494732137 -0.13773903232907364069 9.355504806144289507e-05 0.057191738014637769072 0.10821861536369706269 0.089030912907553064195 -0.0057360782505044317914 0.021296290756723207371 0.10413888793122798304 0.022250963806567474607 0.12148513448439061946 0.12450958458914224147 -0.033946305801079712516 0.073970453092222152036 0.044273915627490056934 0.060252193647331343807 -0.054976450223831685449 -0.13966455588828421974 0.026995965655301396718 -0.087351469727869127113 0.10752740463440436935 0.080206757807013182027 0.075594935641047994457 -0.0018897074998266184809 -0.079285729464731558025 0.10181164203636751397 -0.028567816032841475415 0.034069416844127405064 0.041266630370543316841 0.098558040734122484561 -0.11236303829356576733 -0.036230178850864526441 0.10803760849863196236 -0.097981416436071000486 0.074257139659618665029 0.079405940811155303893 -0.083605121678718363754 0.042770008741531223562 0.059086414772818666996 0.12082472803067070832 -0.023402591033299620371 0.064232489759659547324 -0.042802071062557456305 0.10367409288684885371 -0.12522683260265171645 -0.048522337186745555238 -0.0097756036974837780956 0.075319177223008265676 0.11153098679936926385 -0.12577090171048188605 0.018355783685656820031 0.094179175624523145394 0.041180627254902055223 -0.013533310308579142925 -0.13853553939713961207 0.081736593984271743718 -0.045288688977901052357 0.037842356452441092141 0.024917938819635762626 0.10751463366587928061 -0.043497711858209116287 0.13697149806822195295 -0.08506517829767851202 -0.084551038089558105959 -0.075523194387636619074 0.087743606258108161611 0.0889892590256303323 -0.11445377378688693926 0.076573877812536134124 -0.038211719624326657974 -0.020245654225308409163 -0.042957046847227502162 0.029869088544709095773 0.0025451995821880249449 0.12061162305160452735 -0.11194772884375693567 0.084190412359191210689 -0.023368919769685150833 0.0024706260814874648514 -0.11995698936277215951 -0.084514236599054590182 0.088104121214272579365 0.017156504232338502108 0.087739720931892278832 0.039847879955590866097 -0.10084770353973421253 -0.03777370351294662143 0.0084795140782233900667 -0.13935478221694991285 -0.060103102256698362482 0.12070315774348175375 -0.019388353057967995519 -0.091226909355019661363 -0.0064418086509245324131 -0.07980063911085162609 0.051381943439155614017 0.038188813661181437997 -0.038735307071480019891 -0.10975522025836689788 0.014958575800379349599 0.030876056593118293009 -0.1189180356469277805 -0.1304255185493969349 -0.020545195086943756485 -0.1174157592822561158 0.110037077710916531 0.12017314453353830639 0.011064471049935862071 -0.054123277434382062456 -0.0015436669100051974603 0.065865561507151573761 0.093610422400377368835 -0.076381534962811886702 -0.02508519700327819027 0.12681545120867904197 0.077956509552459127277 0.087227903701716291707 -0.058945768943403920037 0.08099813600464744745 0.12903843494297240202 0.063252466891072223198 0.11838312443806180141 -0.11926158813912125789 0.083751148566073282953 -0.052102080671624181885 0.050690502821655221422 -0.082692368672329513712 -0.044805557848197584414 0.12724608322476657629 0.066617987210250417807 0.030146365104930773759 0.11433332179197130962 0.13266354700652169263 -0.014279277246461202083 -0.070029269491378484669 0.13509140522350318592 0.051595389993561523168 -0.005220201458304278043 0.075445733345350027288 0.065498598101003571714 -0.059401201861137759019 -0.14460713948607739621 -0.061932921695994985756 0.062380463032630270592 0.013424777699848074175 -0.0047391769935002580824 -0.14242130841436143052 -0.11792530674750105468 -0.045427567214540880147 0.46033243604382895198 0.065919831111500709619 0.0085299097407663740378 0.096715632361154491026 0.091606160890818508213 0.021013007910290096986 0.094837413996914227132 -0.0099820589734355130024 0.01703600067289798986 -0.10399828966979757228 -0.13059850713553100565 0.060092052918527899541 0.053874244286570067974 -0.080533537880718333857 0.027035749763831367493;-0.026388267589911855449 0.12649500391325899096 0.0017614186603495335728 0.097906494286804854332 0.063079975942215871232 0.041561854048642300763 0.087176314824973746842 -0.067874528026331149011 0.097458327282799350755 0.045478163054465524373 0.031188489784945316874 0.060756508720288787684 -0.13320439231332223406 0.074685370604371040248 0.0069083819781454777059 0.050982661103879195474 0.048156933487627812118 0.032905583404796767688 -0.10191075183621073341 -0.058790884428814575713 -0.10130578001636021679 0.049771679944809854579 -0.10617143399671301329 0.028656923510165084601 0.07270388507303432446 -0.04346972402216283532 -0.12059584686123611674 0.049826361633982428623 -0.029070043412193324883 -0.013054177586103199102 -0.0010487854419816257726 0.11074064897989145673 -0.048961708931762389085 0.054091730734226010913 -0.025855251411306102993 -0.059021910391498476345 0.10716904558811460313 -0.0641553896789834599 0.099838617733021647882 0.12515998423551316643 0.039972553369755130237 -0.068894408279216529101 0.12989687142506009532 -0.049102813793069494119 -0.082421828060894916645 0.021028701399237403891 -0.13266221734780886399 0.032961039658399235441 -0.065055892592088285231 -0.026271372026485228374 -0.043747759929900376097 -0.139792646339278126 -0.13891583931511797267 -0.037599877888342431165 -0.079226339629548392374 0.13981893567355740959 -0.13240755235718451588 -0.072685621265325281448 -0.09789985550271460002 0.11538976045727268593 0.048179671089651723848 -0.12473014222643138971 -0.11545244080293946831 -0.046547880015754362903 -0.13159294599140788917 0.10045512160645517219 -0.13783205814846818948 -0.13922254591385921363 0.029097297550083889295 0.14207512981656786333 -0.0051234972349880336662 -0.017266499842124839736 -0.084863236681080894686 -0.0043592764338875166635 0.022292682896224182837 0.039853931779375011135 0.011084678796060403946 0.054876245029459556901 0.081178701514077758472 0.1093649261884260121 -0.024308100245049556187 -0.13316534876348631866 0.062432091987010239487 0.097683030882266055905 -0.069067603536266813924 -0.084247120128833188901 0.1241969806710423313 -0.002810473936091079615 -0.10093483195666033692 0.12849256217203205988 0.11651991147106872948 0.092700482414787357954 0.013409040317806318263 0.12848554201143114195 0.032301167165387840996 0.047289247682646723403 -0.0096061876113524655857 0.035107730164771089321 0.036812658428799466259 0.10528139482991452636 0.049946016245111572729 -0.053146509969900473935 0.045422961112348371471 -0.02178739346607869512 -0.061533377953066611954 -0.019068972538031903757 0.11554061983325891738 0.016485614353723535702 0.0042257624084874115256 -0.12068066319245061846 0.043335743006102843411 0.023666326027156781714 0.092515522159359347976 0.064503804772547287949 0.077937418964599700089 0.1002992344942554015 -0.016714638968340050917 0.062195898544892713744 0.023796921827552060258 -0.096614397216736563889 -0.10742279101217142023 -0.076636761092496147318 0.046747430505063802819 0.075035890943664210195 0.076172619976471747649 -0.11134613332139998987 -0.12180212121052150231 -0.024885816287511578621 0.039984758640795467488 0.091152533703940608056 -0.072569840392982185029 -0.10117997209659072844 -0.12404963111359368355 -0.088683214886629599394 0.010516283869938929454 -0.10987293849355492248 -0.089385527159595648539 0.094391757660932940066 0.11357638378590910466 0.10847284345803019645 0.13145930255389193242 0.032066361545577216907 -0.09108879391965588046 -0.085269311038734529884 0.09168994630489803177 0.019880256316279952544 0.038864193577228076104 0.060834428823462391445 -0.03231518414935750233 0.015509143618607137277 -0.0097582138585439598399 -0.098678685975539720543 -0.08128888326717965962 0.064906462106185183747 0.067606718904242316115 -0.10442465562098984799 0.006834819216947680097 0.00077728492288948146383 -0.10644647869674193907 -0.12091803539101921017 0.11015412093998792897 -0.031466843937088880001 0.10138637374446297923 -0.019017768522155767408 0.01695212117424451867 -0.034714748463363136188 0.11163659316746749051 0.074116584872259388961 0.057706017005645010576 0.019044624692088566592 0.089831917916660147805 0.036526891741060329988 0.022391016402059506912 -0.027463359156518905163 0.05007093799864692496 -0.012888743114655860575 0.053229441742963394535 -0.03095996719021061952 0.10122779260287781411 -0.11703833479332298451 0.13665768762348579068 -0.044403697266248896847 0.0087844137834691745498 -0.074454511303603324035 -0.074509394263034670058 0.01680457904381169737 0.024012588754275220049 0.0030091113785998776543 -0.13957626891719282503 -0.083383530809392203409 0.011883698735176573963 -0.1425745573703603164 0.01527392877359455732 -0.07698347603775679282 0.13286383999468096007 0.047970274164145593199 0.057732223964080467415 -0.055108454584160943002 -0.11838889638786821712 -0.089406163771158689291 -0.088947442576843616102 0.0042413659541407251752 0.094314669432107048341 -0.064726882555705342326 -0.066892588102957423191 -0.046997417335719215981 -0.0016006163767321301018 -0.1011282540610540237 -0.11147157212551392358 0.04283537872680683728 0.10899735850674437121 0.12789049597631862998 0.0018937467237321297525 -0.070931573060104238793 -0.12472780321517193403 0.0026336607571629836941 0.03930096491849160989 -0.0004244975249554840558 0.131380874913878537 0.056399987639199393452 0.066391811693467431277 0.0088787326108774322631 0.0040684590114055630902 0.12809656325809884447 -0.096076514063826404244 0.0089635280800601443985 -0.016664346737442093521 -0.0088147057484218981765 -0.0075682485690104443071 -0.094742821043822797455 0.0012399497508891988654 -0.053419370609584578002 0.01624165375007429607 0.028643250289499856687 -0.14389798316237051301 0.09441451802261907611 0.034491426629779046997 0.083441733742240897787 0.13005045901936457264 -0.09084209239307931838 0.023700811336790181261 -0.062538017645940136013 -0.088725286049425020063 0.11127725527286629059 0.064374471606432295823 0.015831653446084021503 -0.069345388872047955542 0.037052093459716585466 0.11910991231713317917 -0.10320414123304808007 -0.071849709491236882219 0.19251381720837965061 -0.094305049760902898148 -0.11328332490026571389 -0.044486720234017035347 -0.0068515070240532955498 -0.076821358886472262961 0.047379264426753220363 -0.031808228888032120951 -0.02744713149981273248 -0.11100711537654539551 -0.11888113360607725777 0.021936659444005836284 -0.0037768167689921079526 0.13395723170174861361 0.067648890306786960136 -0.029589715915013404396 0.074930240851627513687 -0.12036544408864439937 0.093703473463983694147 0.13927502880752176684 -0.082272471752878037488 -0.14282916044071838901 -0.11151255340453641862 -0.11586296445339253069 -0.057284825409642040062 -0.028848436833236762444 -0.080451703898298768114 0.071611727405851546835 -0.18085860633335551495 0.13193888589925628629 0.11291007641152799035 0.109097919724924039 -0.10413996659590446514 0.029246302057780060313 -0.073888946314432393803 -0.13797670068970030455 -0.10425078268752638322 -0.076520014032040256646 0.087453664455081167595 0.10264191724314450371 -0.094984541372183345365 -0.07307985345112538722 -0.12725303347057448367 -0.11531653539453370905 0.060999734205793805508 -0.031793175136078183352 -0.025204333060906101982 -0.12335975962090049707 0.13337074118984712512 -0.08387732345871738715 0.12918963513436498847 -0.053639076338943832145 -0.018404382258992907362 -0.002693740392364292989 -0.090629974417047218238 0.11357102147415311377 -0.013166856272983362697;-0.0074315217317986737022 -0.036518290659088487038 -0.064309298460977229461 -0.020356860404231635203 0.062212275279835922703 0.045498671823484049259 -0.14994814050709837083 -0.092311853222125025975 0.042717419063323686101 0.028719418317406947977 -0.077637483419322667055 -0.13545682950645387965 0.043809998538338841556 0.1195449636640738833 0.098635625102963378485 -0.10279844201796058123 0.080434101617606307277 -0.12237480175922527126 -0.097564483518812319951 -0.035856521438675556523 -0.089843957647094088714 -0.10218098223043908801 0.0076802227277350488752 0.049136004340108889454 -0.025213957090108006509 -0.0087858598945257590507 -0.015719182432579283104 0.13399327668845417705 0.065758818889574785493 0.080533848869959442918 0.043115514853290105857 0.043931109678935945095 -0.11348659711737567324 0.039619192615926564216 0.013338135796897583607 -0.0085315931335981937816 -0.10283469179073768951 0.021421143903911900319 -0.1346251565334178335 0.1158208749100043955 0.0035519808439491988745 0.13592314231954630288 0.043966831659732009963 -0.076414042521559727428 -0.1077574913655745259 0.10389884792610712405 -0.12716734269922094769 0.09919095542853445524 0.071182982619482304543 0.058584896045677230247 0.067616598553943654815 0.081724410009547124312 -0.0010082183564910627595 0.11764157912463227285 -0.075636549415747530989 0.080694201835239384724 0.089426243784755832245 0.0923266481540030437 0.092755769342531588229 0.10252431954821852877 0.075565492241993881262 0.017973441443288860203 -0.060338893148627580076 0.04956041202436164278 -0.10106890693233562539 0.067376943238969741468 -0.047295281742668532354 0.10395765192999811832 0.11350969704536462146 -0.016644015756893219826 -0.057659006927687626864 0.028465436894315829935 0.075538442212603001957 -0.094708533611228981619 -0.074419281969867495663 -0.036612254096961005523 -0.13120935083076143424 0.035928084311988850441 0.11102790205754316244 0.047180677982159205386 0.10733091314016050821 -0.12341081743423644446 -0.090871089222275450159 0.021053352782348815075 0.062905846956330044306 -0.10847922041193239218 0.10017487532242018433 -0.12728590562565364475 0.0083152853867669695304 -0.06885396937971960396 0.071271991520627561711 0.12388881467425950922 0.073096004426267416343 0.10493603411410978854 0.066557243562230486433 0.087721012077609628044 0.12429230652161050996 0.095942032772933324991 -0.038479436677106786113 0.084340643196166673046 0.10281893120028184896 0.10690032446234748464 0.11690516451429880385 0.1232614327261220416 0.053131900559142339335 -0.014700847538272138193 0.095845883928559583165 -0.12845777118390977467 -0.068200622237540378667 0.028727374968392324628 -0.011602587141641147739 -0.036133272936295972311 -0.028901088273101508547 -0.10493766992192339604 -0.039292304955740861572 -0.040847519436373248836 -0.001651343332574956935 -0.13127721208087300697 -0.091478204046056318943 0.016839190022496154653 0.13345938015605521287 0.073228983907170613898 -0.030489354609848078048 0.042450313329812416896 0.13324626322540389367 0.076802862174664074391 -0.029316199065484278841 0.1055956212610481143 -0.087227070038667184337 0.1287459454762065747 0.10093823511609531507 -0.050031549110871591235 0.11532962451581986463 -0.066197629088171824896 0.0028202659692116672716 -0.15264537632307534354 0.045942652139090447982 -0.039257362457683304957 -0.048664286423886302102 -0.02495677916072871691 -0.032052958893076820279 -0.11887152140333305528 -0.026860308864673037438 0.048712654531293385352 -0.044211358131562739082 -0.11261463627115771147 -0.11170364996664766677 -0.06843569244513827976 -0.084717046625519903946 0.1073037847341925255 0.10351218851045010383 0.0026238226167873135442 -0.12769414158605754683 0.086134346526013150225 -0.085014378763370063163 -0.090085111526861480491 0.011591847121562245254 -0.076780666930885657639 0.00072363672237203170712 0.084577840536765841462 -0.096531023627518988683 -0.080519242344223154739 -0.089851708592107712437 -0.037544017933127067643 0.047875994481163475225 -0.1286858973066261902 0.079951179600447716544 0.098169913965364077879 -0.099513155761540600386 -0.021337144686705427493 -0.0081855467827948290988 0.10375266838358791766 0.090357395306244578381 -0.031135108305131827672 0.11799034748825273922 0.090890289614416835962 -0.040764362473823985422 0.050319023149719262211 -0.060094153554034232534 -0.13178455876907707589 0.11220088394514797503 0.022057626015715623563 -0.072120772395908444574 -0.12076843249737109764 -0.081505408902535381177 -0.047183074591445051116 -0.088298680628202064202 0.027503246183512755629 -0.034423142757704104644 -0.052449499817220121556 -0.045515983431215024935 -0.0083624495080515549167 -0.10148869960736556228 0.084131682713218844394 -0.064630700183689993032 -0.062241893329361454301 0.11290638111558590206 -0.065716242696311516491 0.030198481204960190422 -0.12767875806097020441 0.077169515226151105813 -0.053000088636530877373 -0.028890709690839112139 -0.09973236052073509994 -0.11969205847295237566 -0.1467217037353558684 -0.035750319331507150744 0.083170200986489972728 0.070290845828523088046 -0.070773889177269524997 0.031304335554034119771 0.074595677965074172477 0.045557278627558893402 0.01247807928447159341 -0.11360473104407485534 0.030793759611841615975 -0.13329799045490389742 0.013084729464717214167 0.12990198941100122854 -0.0040839834652358058403 -0.10817819980958599813 -0.13351773919803835988 0.064861902515733607655 0.13904602118374295716 -0.053653418468399438623 -0.10519920570275087535 0.13849321427596070211 0.068451748132655407253 -0.023424936664393228303 0.11570630590855837672 -0.083113278478203017618 0.073761652829792398456 -0.077643570771820255572 0.091784758641074340457 0.077048927586530549516 0.052449253396846848285 0.12494127255367809548 -0.0079773130251010199859 -0.004662510293752373039 -0.0021957100823313470579 -0.072401062801738982899 -0.026099345660446315182 0.11121455054999382361 -0.085503776542443676867 0.00032772663381925036573 -0.04854741666083123991 -0.033851900327552635062 0.033635373712433636051 0.08331142042966348249 -0.059954158242082833397 0.091250333255874171989 -0.055939456015967371771 -0.098571987065975391618 -0.024792383559100867468 -0.071517143564124779909 -0.079302150056016207369 -0.023764481371161997464 0.063323154649000373828 -0.0012961402520490236754 -0.027720995303783319691 0.075509840626952859366 -0.07872739154937571926 -0.14536254020271652254 -0.094633611790150506948 0.013985673643717251927 0.097783535587502426467 0.1337647464538472275 0.028603067631152438721 -0.0013033054801539281642 -0.050096518599966562146 -0.018760198543372356289 -0.039155992873441063107 -0.12031127116281069289 0.062913412126627862864 -0.047917487544866618765 0.1181840347941045255 0.076325474254191338908 0.078231385101680830929 -0.027457246195528112187 0.24097408504589082345 0.064143149731378870659 0.060350314369596022579 0.076554571017828892954 -0.11562670748272602106 0.062316312986781599581 -0.11260754435670364271 0.090370546076318114537 -0.095287961337042870191 -0.11616490886806893346 -0.12472506653039489022 -0.066581545648450174424 -0.061636697996704632729 0.038716120774628437484 -0.020879003161325501714 0.070195525943636150057 -0.10089830344872355306 -0.032635260714151514971 -0.038553753405791181541 -0.1342991790469454938 -0.049375713594662092032 0.071548541062900899989 -0.060192247558220793313 0.083054072327437070133 0.10143728319440085961 -0.078902169816283257431 0.032022243067373806769 -0.13241645066175511403 0.066357396500010407125;-0.099942945652238088239 -0.11551686287755305593 -0.096314213651552557649 -0.0460627513585242232 -0.12372489676863032693 0.034214737553589918972 0.062057849120521597908 -0.12243714979155446987 0.042569651597414853716 0.080524226715715921388 -0.015908612401479765158 -0.060969389048566142997 -0.045165083365523113479 -0.084916525073860257833 0.027139499416363219164 -0.04573414351572754194 0.0012908885873866699206 0.031155048033997961854 -0.13828029039433945013 -0.070627855535495831507 -0.014333162100108922873 0.0036308868499221316414 0.11000102832911055895 -0.044513963024483939324 0.10902394491452950531 0.1078981380324083722 -0.13158113596512382992 0.11063806012596394401 -0.11283274076771718231 -0.074194356965895588707 -0.078969390606324768589 0.03031141477949279503 0.089691981488076680251 0.062779759606728643972 -0.0062050297847035728802 -0.10082170620389281634 -0.12187435800700377464 0.14396411621844820705 0.029508492329291754336 -0.030954902503666767433 -0.055420463932990063349 0.10230564327912125555 -0.1329295738338632793 0.13586641581792860412 -0.044062837500411212999 -0.12088928065047369054 -0.047658081688771031237 0.038076611726517828327 -0.030333196703275961542 0.017228823904871577721 0.10540037966672849423 0.074247699742946260404 0.13727189959665819785 -0.0059024531695161070941 -0.13040001274418222543 0.031906538717010449191 -0.0061177292353027483418 0.085168802861005796223 0.04319071633722958159 -0.045369047156973804635 0.099319069684298114109 -0.13814990291141990286 0.002706372742220432108 0.092832338915129680723 -0.026078312856843408052 0.069247588999344744654 -0.038240185943698164206 0.0039924524759117124492 -0.038418214267247979832 0.046267827855911637658 -0.14891318276389020614 0.063435068380143996847 -0.090042847932960606849 -0.10781198287620601117 -0.10947934196044416255 -0.076724092248407552153 -0.095213522879776121832 0.11661792314769826862 -0.10619817176256611535 -0.10063703357255721071 0.10276792670892956338 -0.037544461551835620061 -0.064089513214967863686 0.037844258182108979349 0.086819722403513585607 0.078231590237427511836 -0.029321341481422791286 -0.0060571841052521353116 -0.1065896922277513037 0.050584466850047291042 0.08100840913951204425 -0.046067359708110211525 0.102024288950776712 0.014938824867140643865 -0.059158816637761159341 0.15230187841861037024 -0.042483806134226136109 -0.10199558658978225001 -0.08288621948085758695 0.088215598177743409503 0.06064481885608877243 0.12196096266483706649 -0.14045924088012531894 0.12513746904038319796 -0.094349906466861463428 -0.053939777677409678214 0.083699731693339163296 -0.082225286327917410101 -0.032335817160579684304 -0.094301295603674728518 -0.082769568464454781886 -0.098421689624874381108 -0.13419115553617114167 -4.8345309453864590814e-05 -0.099367635369135384749 -0.095730261625472282128 -0.14279202853239028603 0.064644426446935646102 -0.04150817455089639979 0.12147601863544782441 0.058921764813656178628 0.05078822105236953377 0.016065517507813761172 0.10728401306409982019 0.030725168756834321526 0.054580896809478002263 0.030203731094023439363 -0.013761073133738439128 -0.092127020667853720681 -0.091746015961178442599 0.091447601033021685968 -0.065384357121256175827 -0.051320508994524838275 0.086864486954486244685 0.11773450839439691951 0.09911002528004900225 -0.016311519297023100578 0.13029043503443218932 -0.00052230832933096449106 -0.036951304158270546762 0.10203991206123860791 0.0075256645111130195808 -0.036033603641933684147 -0.076750313959311408651 0.093566778883882331663 0.026080463048250790425 0.1393471495567692453 0.098215439137871923814 0.042243292179333293002 0.018698077877963775045 0.11561365660364544827 -0.023353640477560912853 0.044350086884582397284 -0.028527654048661657549 -0.13202063201029709538 0.052593841419380955859 0.1208812158904894879 -0.045524722907563736074 -0.11933350975792848814 0.006008170446300838477 -0.020834733337592593883 -0.011055589764291004831 -0.044188723350315713134 0.12968097334941322551 -0.017499756775288068111 -0.01441081845464749385 0.099951390776896048562 -0.08083878673507494117 -0.065840704235007652123 -0.029215679375861534212 -0.042750653783371200811 -0.13005286441197475011 -0.054744576575869938195 -0.046185777826655789735 0.016295033569800006223 -0.12518675199455975289 -0.035946013248964084341 -0.011528758912085207769 0.12746575772537344085 -0.032557803291720116556 -0.027504726271623890221 0.034324960282523062083 0.07526498957227144293 0.060155105121997336226 0.11475658680236744402 -0.07191676876565593346 0.054055572693500614223 0.12594708805745677416 -0.085465662876221371036 0.016854286871246296903 0.077137037407930764132 -0.012205161811569390645 -0.037979523996485325954 0.09591195130516230738 0.027812528534596144686 -0.047224944591784417947 -0.13719599196085471848 -0.0060265127510517341874 -0.067201631105372139352 -0.09271991012893524009 -0.10359820574177797115 0.021350736926788158737 0.079304302039869184471 0.085736802128766928521 0.036783811501855931403 0.027307998622416024964 0.12898521511465596556 0.10799025454013555514 -0.11114462009924380714 0.041225694453887927471 -0.13590791991351999779 0.064200130110052530674 0.10624892205836868053 0.037268977123452583233 -0.031883822800392709607 -0.11460479820589555833 0.01583788727158115528 -0.061188475874828417156 0.0071865399189839362926 0.09773510464121321073 0.12595423694619692356 0.10743642734807504202 -0.052765924006931759493 0.096416862654279220091 0.12301252559087168248 0.13546608615691779764 0.13409680552602487591 -0.10166480191478813322 0.1249129943013792543 0.066245283204429197821 -0.10190934259950377994 0.089704577324001902316 -0.1149466587215998703 0.067028253985765257061 -0.035056676449955248565 0.062133056949867815355 0.012157604245075521315 0.0034390619041898026591 0.065741729609691629266 0.10945587029469490414 0.14248028085856240255 -0.029040552960582589892 -0.052547442033247786231 -0.1136130923814119148 0.15158517242962851745 0.11370014837267743146 0.018737086152684837015 -0.0059912564628585209675 0.12717388378370808599 0.13397736052253264583 -0.12187665364266975221 0.057486610106840210777 -0.021962952503301037127 0.037513841140818800224 0.052926284075975202348 -0.037644087573673754021 -0.11683863469135929991 0.04805076415632410225 -0.037600478009498450316 0.055016852599438607896 -0.065034702838859578811 0.048443386215197663247 0.13541593917387850787 -0.0064635670703701618781 0.028798740582246348113 0.017091738139266184071 0.11897669057588816655 0.012707804508230283874 0.099653107950917627078 0.028222597522718179813 0.10439911292749451399 -0.095829435565423615184 0.13250296098261193922 0.019668229906656002626 0.065354901534785417305 -0.016785363424135262694 0.096559431568688347536 0.072097070974919949538 -0.048540304926933314222 -0.1308427798538758513 0.066374787629984666193 -0.10918429641173132971 0.01811097211846088989 -0.10356275234178480282 0.13308331673895348879 -0.019687586924995913173 0.13395410145060207552 0.058169397770539532644 0.1194379576951667965 0.14778278434120778462 0.11989912131631243197 0.0032097016257099254127 -0.068821927595034845804 0.043849016768778392716 0.018359087640389057383 0.14671505690821715073 -0.097864173350814945285 0.01858882024358185156 0.052001394727202644719 0.14647166602263608781 -0.11306596286858380807 -0.059891063501847884021 -0.05632454976737349267 0.01457974778338883351 0.030925505722653269525 0.11164783540656035565 0.049413851382383557065 0.10034138813841561588;-0.076856949194095816602 -0.041276791877384873264 0.13480071015931893719 0.13469655755838624844 0.063983672195817353767 -0.094213443483884870555 -0.12107546084823314625 0.098604912952025905448 0.10037048635132488072 0.096175778919344798168 0.030459668971887267352 -0.01541940301721529856 -0.069831363181565325737 -0.014083466291871508946 -0.03802769254046688141 -0.055224899850876023322 -0.10966591050673518692 -0.0029318593521325850108 0.083582465686053861176 -0.10589125890222327031 0.078613447688143336944 -0.026983747399511006509 0.076242622631654141663 -0.064576948496535155342 -0.15478044686049693968 0.086510291010378520538 0.088213716341427578227 0.0082095393517844297837 -0.076111117619314896943 0.097500314429878609523 0.14473790667093472395 -0.082277099612019177766 -0.063139526881915611356 0.041051121066529007442 -0.11888819949611360849 0.065978301874609318611 -0.0048718890081762486477 -0.0089224959555974665132 -0.070892824942805854338 -0.020445606403416430319 0.12004727202255317808 0.095130751835987209519 -0.095994054640001658107 -0.067595197421019784234 0.050937661056490529665 -0.10620976656043872033 0.10266354759508933281 -0.083666789557364479313 0.089912309679751459268 -0.059455613516555691489 0.13376934881567492663 0.055985856089365217125 0.089421924978137320994 -0.13711466434727231922 -0.0043839873142159290972 0.091202864532149083288 -0.12870587939313352099 -0.060937839882448413542 0.13761753030759862892 0.056466121550942660612 0.10323134324177700438 0.053164366989153541421 0.0026822480150410239058 0.07636375826790957333 0.092330519683728726199 0.092017497413324184086 -0.036932114613665377456 -0.030976964098559548605 0.096715510018696868033 0.012650921262443737617 0.11743598966658448657 0.021200525235719944878 -0.0023982164932248449703 -0.026730626871089197688 -0.10384185354551948854 -0.010977550035440646059 0.053206295628031960443 0.051351446058792084293 -0.049045540951438960919 -0.019713555272469592689 0.074652871973712425779 -0.030207287163422174431 -0.12333799913205781285 -0.035512724434845599486 -0.085919208972678795533 0.10230960258894510051 0.0549440743689502617 -0.052875519046612841356 -0.10880462883908088856 0.089875892038064814082 0.071630999591832583695 -0.090055908319714661481 -0.074260638885227797656 -0.13235129507380641312 -0.061550403788405746996 -0.049634109961567488001 -0.03158930801198744226 -0.0061851576264952698794 -0.03797480322278801862 -0.10746699267366564834 0.032630162022524798748 0.011456370519691592286 -0.12179978450511738663 0.11670541179318454084 -0.06366332182164843867 -0.061814728204616337104 -0.013688873965383376377 0.017062055603459757441 -0.023667560036064707457 0.10477418460075098305 -0.02170507226477231405 -0.024559754307544562346 0.042974513085149670943 0.0081716284051987064102 0.12549194773861724328 -0.074654581486086141195 0.050193495142955207866 0.10466988817628776476 -0.091506115942729976398 -0.094398234771571151724 0.018882502347067078863 -0.017963493867725291442 0.031105224799932395391 -0.010206934887378208213 -0.1402131791997976995 -0.046630721225491722493 -0.00061051806867105050652 -0.038435133299953384844 0.10956058230648062224 -0.12245885860690394753 0.046340076350600306609 0.0083313913809767072699 0.066976880401146035582 -0.00038135027602209902982 -0.0019264582032969207806 0.1025188848359920718 0.033408077971932542694 0.0011802625728203701948 -0.10860888693518049031 -0.043926580059274460133 -0.093286556312268814617 -0.11936126618669411215 -0.10517392812578144068 0.067929433817685250241 0.10258681677230295504 -0.047599297565705481206 -0.020201140163815974049 0.13469375330728983187 -0.076890372868498535475 -0.04890003489717564128 -0.14804342084341381991 0.01959019857660686606 -0.057362388571530330272 0.039531506550572248493 -0.044074162910221412193 -0.11128481324209374415 -0.066206130403882193503 0.092604927619427707119 0.11612727417955912013 -0.02188405470292941607 -0.060277815984842691988 -0.020897187255849491994 0.093117115666882618874 0.041702825234934196019 -0.055043242300757556917 0.086732888038617880766 0.037595210200855100346 -0.14446788687420797359 -0.12123720788952235816 0.094703706071457269267 -0.05577801930628194238 -0.010087649682299309681 -0.0049383907297199424249 -0.039594946095090878535 0.037944283541395645853 -0.10265351314448926956 -0.11754547215616562017 0.04599875164217658019 0.11423130581670885852 0.12355360802294476641 -0.014934555663579563226 -0.071878971442262545866 -0.11514507471570779862 0.052125950839955657867 -0.075063639329586012705 0.034139965219945264674 0.054281197339078712805 0.11822077692009769212 -0.095342636677701819714 0.03568211197528543821 0.096894562164580061436 -0.12273219400898212339 0.0023153782994795751339 -0.13368218104097184806 0.079914941154633101217 0.11570375306240339441 -0.095313765294998201161 -0.044605876539347985577 0.019418042060602210691 0.0862649076143566923 -0.099539213533261838851 -0.12742493990260433945 -0.002967080969967824354 0.0025229018886684601367 -0.090892226644274029534 0.0097171001290198844025 0.0055646708091256586945 -0.061149915464835356838 -0.024406105163395690194 -0.034256118446536837352 -0.062916939985601633145 -0.083189898488601116133 -0.00050459432859878373609 0.13810859138873546326 -0.065416496889743824816 -0.038466070035984546716 -0.076640498323125999525 -0.10978765486492293724 -0.0026387961854873521507 -0.088656348904783896514 -0.11540788185922241926 -0.11643101215834095186 0.070386964221920020335 -0.098542109736385427587 -0.025687284417566690758 -0.019905010083532882759 0.093596861086872637503 -0.10080350502772564281 0.13914929056790500961 -0.037839625748595250021 -0.013803762803827101038 -0.12545870953249771418 -0.03569758693854972742 0.10753252523639171556 0.11880455793866843972 -0.037768187657522163392 0.1130917822658506211 -0.12329468539668662908 -0.087915580026178274942 0.13478192246518053143 0.031602666687144953528 -0.092110143304825947697 -0.0025785734053438702507 -0.12559848699531650507 -0.008589377511408801194 0.10267741393323109866 -0.11775882039690029057 -0.14134103973898257123 -0.10355203727555591098 -0.016944071445870872994 0.046724979030211381825 -0.037209715561150526197 0.11465436132023872073 -0.078339354640045461009 -0.036425994306111923737 0.013769634632622556117 -0.1008601995242889432 0.067558715499020566275 -0.067186924046735374549 0.1094739479602152149 -0.085921090761664944968 0.010869297926778476865 -0.11896801823429913048 0.036530386909914405735 -0.13031481538309902524 0.13640086195947176417 -0.0036162141055545563885 0.085095819859405119612 0.10157681472929100397 0.046016176534723944591 0.1475636176408150757 0.090803024220394101818 -0.03447665647937968314 -0.087638017916821867037 0.054469923437135865651 -0.10332315190941242233 0.049769301491532670634 -0.098690548896148894142 -0.035191547678727251591 -0.1096836967766454396 0.081128573043817972521 -0.09220379178865856229 -0.126608627107979127 -0.033105336077334845957 0.017765806382446441142 -0.10845922500771747188 -0.04221986833761055824 -0.014224879927010943004 0.061913115237253464607 0.049084236457709186363 0.051869047782165125793 -0.12914967117123024587 0.067570842844600090271 -0.021295526917111371606 0.13262237929105322176 -0.050510191754051650403 -0.12189045240642465417 -0.016181236749760196519 -0.017330466393740719816 0.078206254174485179131 -0.090241467794366050925 0.064705409794508159105 0.04274597064647839284 0.11386402769262421453 0.1056755237437330408 0.046753879899258499186 0.011807526403020986855 -0.018030338032291832323;-0.070449382695768822393 -0.10734448651861283608 -0.11417942018816108762 0.040460931375971599666 0.036344216080694533022 -0.052375953740202499387 0.085287521073229191626 -0.060487901628633891637 -0.0081383429563936862672 -0.013389419583210361575 0.094687468358832044268 0.066778895719875677739 0.082012260838532871632 0.034824366010048637965 0.13398914520134908024 -0.12716607883337666118 -0.09921737769218273717 0.068269561890535623849 -0.073195450801580172473 -0.10981997101078201651 0.020747556188820327761 0.0012675424335972947619 -0.10436835802831910536 0.051890590369211050947 -0.10414477128274778062 0.10768981227632758169 0.025112339417792842872 0.1505533924912580146 0.0089399730508549993951 0.089610878936053295352 0.13808283414225422381 0.073672342673862994955 0.10957197085689494853 0.10915163180200448956 -0.085442226802219273241 0.13581013812837020027 0.076679684426700339683 -0.090497012050563915841 0.026053881922351716793 -0.11553877129474836305 0.0044626309283633076516 -0.076837989462111580541 0.042948161830492964652 -0.082225638627016831017 0.097845364546550905871 0.094140839314724708564 -0.010117865190165373224 0.082090574058337667518 0.048978125812987202692 -0.058769086130139848445 -0.0062553369322633145186 -0.050475153336252027991 0.10775581381892156141 0.023099441789913494061 0.0497023730373085601 0.0052286800598322661845 0.017062905959027440533 -0.0043977358024911280751 -0.10297999774638523507 0.10263436847156363896 0.066213169825618728437 0.13967005251929581755 -0.080002377487250919685 0.13899571039893288127 0.025096802738233996155 -0.11560556785026464277 0.114820098998416803 -0.025884011250477085425 0.0038959448761927673553 0.080749914912687958957 0.12650484581436807763 -0.13656429882392798203 -0.013294971029657712963 -0.12943085751646712933 -0.12599271372415685177 0.12795123861213539285 -0.087998984866103607816 -0.025951056139457657351 -0.046149815488897072413 0.1043357659231867185 0.10174825781124657853 -0.029649843667167063294 -0.12748710860186096561 0.10860144909269668634 -0.018832355133721768309 0.0074519078496635034192 -0.037396891941860431474 0.0062471186423857490502 -0.12080076073323824104 -0.0063669841749925196184 -0.1271166060569466072 -0.0017172820200092710295 0.094104757807891917243 0.10125295594206756844 0.064591315461901402384 -0.14183908636523859248 -0.11075806511466047832 0.12320515578886957753 -0.11987244206496856791 -0.11693153307821338438 -0.024792268443642146575 -0.019262567920525889426 -0.026317632273489408729 0.045661910502703483006 -0.11171500007036552771 -0.066496131914754189052 -0.10544068908744735902 -0.12476697966196960421 -0.14458933512915356223 0.0086351165470908743116 -0.022703565923297908818 0.014979126854552809317 0.05904797952950263662 -0.027774940750992647975 -0.093901732360465298144 0.066669056328609019313 0.032823575536642682349 0.024470269712558702369 -0.11508410839584168328 0.051452198525150788511 0.11386413910256776294 0.016159100216720168747 -0.12818725351159621084 0.021419041450332278187 0.091516061239822921181 -0.12307417607202172927 -0.0016127278819142477906 -0.067469680659643968546 0.00094031478919256420053 0.0091618269096819526798 0.020250317914134490643 -0.070226091015509334303 0.096745396076419423737 0.068606976490957274906 -0.05922290712450434258 -0.035428968680555304738 -0.066716059865198309997 -0.13691765939504091376 0.055094883274786676797 0.10321624138765796153 0.0018466554089917918205 -0.048788668575413397799 0.050461246002597937022 0.062060909466890433472 -0.11663497741030781629 0.05023133099308763061 -0.01583966433683676317 0.023843935359742350621 -0.059999426808245090448 -0.090379147226007247595 -0.14428823258325013112 0.1064763169397950765 -0.12212462704838474015 -0.050880950582038078633 -0.027128937685510785827 0.031972504553033583019 0.026802545256784039013 -0.036303308422303282033 -0.045481877956697461252 -0.048268370564356365138 -0.020138315447837350919 0.090039775410784728127 -0.10594756263268113872 0.1283095384599894917 -0.062572454337569444194 0.026436365533023243463 0.030167055419966847668 0.087602858355505075494 0.0196635088926508661 0.064875111520804149001 0.085471519155178088401 0.048853045466545674813 0.082355547752571547915 0.053868331910982038269 0.090921518801154427303 0.012218091133194192155 0.084652689057538629824 0.12169021582278334581 0.12762351684550418685 -0.13287684774271224519 0.058764331131504324301 0.076692130269456509906 0.096993282558631266355 -0.056719882848294829458 0.058032936455302781831 -0.077302438352412752853 -0.023463730935556932622 0.13595255812777806703 0.13238282488409947035 0.036000575800491985134 -0.020868583847701863143 0.038211850780896998436 -0.046530759606953221719 0.097021478926662296782 -0.10571406372269172291 -0.061029583167022061208 0.13502890890249535927 -0.022354292547665490648 0.020414962470187168753 -0.12292457368397598227 0.032210585185544045317 0.032252723078177530924 0.015635219365585439205 0.028000909590397932841 -0.1288771586729761387 -0.071355856996963909489 0.062917637857430416815 -0.12791529267136250714 0.056831895794005528322 0.047845365351332019843 0.020861865274586090246 -0.094982961200032856031 0.10397109996088403638 0.11149254765711442972 -0.06458282059469558356 -0.010416311053595727829 -0.12240829538924431763 0.014922299828474752323 0.022948125669266752902 0.11696738972085551911 -0.12091504672090314099 -0.028604428830047639448 0.011827003481041065483 0.081541560463277221182 -0.12727157331057853407 -0.055081388637622789861 -0.10502479785074776697 0.041389507673032316371 0.06409386305771214154 -0.029324915581606793985 0.097421309521079038629 0.040039494796638763763 -0.12402725793212057703 -0.021239913905225747681 0.083284880597705654437 -0.12419707694578870083 -0.10906416814650540803 0.067666881649787818942 0.044197615874659611224 0.0911115870104123593 -0.10554537886578876926 0.061881002899002279793 -0.0042047332901458712995 0.0027556257908098345452 0.076090400289560822245 -0.064973663784117174913 -0.11842103855447611016 -0.051609093212271292539 0.083469855916291121889 -0.076844981761111166851 0.010687428201140191861 0.0074941878331995399887 0.022679949224978193656 -0.12052121472781421319 0.1405321855668035802 0.063315524974892609111 0.021895523807529217175 0.015228736812343206253 -0.12476973143011056699 0.12840127522921263026 -0.029674332136617447703 0.066951853754863566159 -0.0069356346410813299319 -0.042285125392608986783 -0.019831420853832784634 0.10934412176234860337 0.076550349369982603753 -0.068271091620073179329 0.098614426213930989062 0.11130759213689025988 0.12349606282909401933 -0.0092399962665342168927 0.10385732252434663747 -0.066662816497364010826 -0.052615474598865265288 0.066015154896891511949 0.076158616220675309783 0.071936449162759000253 -0.10593685069934981324 -0.090302467406146988416 -0.13152234853008171189 0.095070857688727125612 -0.097455237716887868626 -0.13502472762411912854 -0.018940022402594257345 0.013313628488564391295 -0.098370861950712984445 -0.070916304263302420985 -0.054629110777695118195 -0.016630586975717991799 0.042280691358716600281 -0.065147938016066206379 -0.03608996255212283677 -0.024913472075427593733 0.11549457867809793943 -0.017230855479994342666 0.1003696644418443501 -0.094516985561396066329 -0.11354577526791760633 0.02690200258504082606 0.014661771320786658179 0.12078004284840181126 0.077173991255206977891 -0.09655205153597029577 -0.12932219821009913185 -0.11424407828685818889 0.056692786031429506788 -0.070228920709394765387;-0.011467847654524136042 -0.059309468607446368116 -0.059468167219222677067 0.034505451820374795358 -0.088852024103335328076 -0.032169747380075719434 -0.089368962705756130327 -0.13737856799729172841 0.025710092390150960512 -0.11076612449591363707 -0.067875940215123317656 0.023743556742675517301 -0.13128299535051279889 0.10784939282905046942 -0.066938326160479871829 -0.00032748642939115624574 0.11891782947887137578 -0.059610044193461345086 0.096808170040979954485 0.057361870615219585912 -0.051467134586806698171 -0.097306411692461944329 0.061968441592285330999 -0.089265121426431545681 -0.10598987859615538465 -0.055148813335258582702 -0.057485962495864698085 -0.059875064767361575735 -0.022228205649590965232 -0.054034742373933616899 0.091420873503675295635 -0.13101538421155467518 -0.049418871959445345721 0.097592671386985865856 -0.056276742069250776379 -0.0621073464197650707 0.021464168540139709485 -0.11520614074644634772 -0.014774656729883593395 -0.12615720723145562587 -0.082975338189123878929 -0.034195674201094677924 -0.0048794622451608232749 -0.008765065803564894148 0.089768780794071398321 0.092113020211336812948 -0.11580787381640149369 -0.093907080920645188971 0.044383392984401165426 -0.0047427341592723151406 -0.095748487086294756243 0.040539853708039759461 -0.027053863787151397058 -0.11362258605017713786 0.0083347668436850475687 0.082844185271436943108 0.11648361555428458913 -0.066390244813500129406 -0.0076345663618451117816 -0.0004564119958938414514 -0.13344961369582167277 0.12051931539667749826 -0.00056364041094347859095 -0.042410940128066086652 -0.12177399643682129682 -0.14459561026228320846 -0.073670849954977274399 -0.0016343216165092811203 0.026401418888114043526 -0.039260909873644458945 -0.092956581652338318711 -0.056179463420947144126 0.046239470235681083554 0.0031449070280248985453 0.068458330244132878373 0.040062509302286372637 0.058620521714994024143 -0.011854940051305678031 -0.13238464579966455203 0.016736446364345611282 -0.067497231202383517479 0.05388029734825375977 0.068857996443574237544 0.0462189721906751394 -0.10490964095272023449 0.050331789038628622912 -0.06891576046904866748 -0.030668101866335763239 0.01864367017878975491 -0.0084007384273470358388 0.044938062187622800081 0.060657675557415968726 0.078662793479577247657 -0.013017298241496711581 -0.022380574033139047363 0.096337769228094491392 0.038505259927356087768 -0.11319242699837525623 -0.041194178493870990676 0.084038061256696813817 0.007274158741860477749 0.059687723259749317362 -0.10358959728097497099 0.078694439287100834135 0.017180259566330489257 0.0055757368040443852988 0.10835607737193633793 0.096140034393249237943 -0.034167966459765095055 0.04262098594772940896 -0.064668752339667956441 0.16634630225722191188 -0.0021185168653761721723 0.11952372882158211753 -0.056526574719281005854 -0.082921493196527168434 0.014021415229391136908 -0.029354296167032591092 0.14360512868881303294 0.051310358874129088913 -0.11434390252420408018 -0.0061969313741538009643 0.14775053206236529735 0.12802970186282586207 -0.13524344258823484122 -0.084356608021333517877 -0.12009232533637448359 -0.077630265629763536839 0.069913591661026563973 0.10675711765150593113 0.062803293218691061406 0.034335427964853781901 0.13398395245898797601 -0.072677370675500299613 0.13373530054035004389 -0.090252959034992835674 0.075558900299989018023 -0.056471692261534651991 -0.030473205677141596004 -0.023142251386178879641 -0.0068712646947312518847 0.019740494539037221899 -0.092054014112623400168 -0.069207619685448529268 -0.075834022380181234646 -0.018539902155930553657 -0.1260950781258663167 0.10285604823946006836 -0.14360741887818087581 -0.120108473415406522 0.018644336722812494822 -0.042494984032586752276 -0.023591061953087057168 -0.079154133530784376305 -0.07387356446274695454 -0.11107582943811449006 0.04947358318050334991 -0.07492242050230649153 0.057143605376072041657 0.13716436074197413397 -0.12893510093322679833 0.021260241549683197432 0.058536833810796266853 -0.098900924635965350995 -0.040066707660371951583 -0.04766935732963876321 0.11283820537822525365 0.163792858739649827 -0.014789103260836780618 -0.0042673436795532841345 0.11319720885912902542 0.12904513427512176449 -0.10577262973332335338 -0.1229100057770230181 0.065003392875668988826 0.00024153058369938380312 -0.058396948880522846215 -0.010510199195562196228 0.015806241126218565501 0.046852456041318407687 0.11837155172692739868 0.064954911336697257473 -0.081330677067898302091 -0.0076448294327917613172 0.0022515787256854585124 -0.096022329508062082004 -0.096972297371983887104 -0.088270009529371057377 0.11602595490868704287 0.12456427394322562574 0.037864042822485600992 0.13851640911628704256 -0.04127040630800901666 0.0061749654131096395199 0.10402597263442654729 -0.0035674658876577122237 -0.045047075617788319424 -0.121899516657018675 -0.07673414875559521342 -0.11211882186828693586 -0.028973516844893833222 0.018050577643927697563 0.0422677150475439245 0.078012763135231227851 0.059768334531926703423 0.079150031371833670657 0.15080572121331589641 -0.14692263583431119933 0.10443622190880694212 -0.015221611015609799386 -0.017638452396841468317 -0.086191517307423234917 -0.097261740127957047042 0.1432582494636875925 0.025181622692761539833 0.13798055075747095444 -0.059638323170801268991 0.12651300443669449836 -0.0028995596882194106178 -0.087113211859115038949 -0.044325140581026795106 -0.075442218467966989937 0.084513040582012977087 0.042898809667124081224 -0.11970613653045471259 -0.099549550690505236861 0.097823443458323069977 0.12604450472531128491 0.11457071978380994892 0.14119760982351142742 -0.042133744987352873823 -0.056631989767833991467 -0.080646115094327827655 -0.075228652870944115461 -0.11552411443336946251 0.017279434422457488896 0.079963708357027776796 -0.03645691037376858068 -0.10630876962046298395 -0.1096850516640080625 0.14008974872646456911 -0.038731324030294590754 -0.01243438437123774512 -0.11932178595659985454 -0.11229674636637730634 0.030686632658347309105 -0.049158667986494826441 0.045724499257131262508 0.10235328722569321525 0.11214784887239426237 0.090335200310453014905 -0.068336087845858831114 -0.057304685633549096169 -0.065173155448365313602 0.028818970627991220834 0.12253281058289217098 0.03329861891588245526 0.15111669079664519222 -0.036975728219673688335 -0.044064873748418061095 0.076082713379088340311 0.080131744157769912995 0.10700437394478404252 -0.017001312580784373046 0.01674237599118577613 0.17290370812532640521 0.063354066653809548715 -0.09148919196023815037 -0.12862708939161146549 -0.031973676184337627981 0.042185465356747754717 0.07462079317702957626 -0.039689965133008035802 0.13087128618817880921 0.11262917748924961003 0.022703562171996892471 -0.071761560855797643099 0.085436589659251813145 0.081748192378734887975 -0.20115116220304610217 -0.034117345312760741227 -0.085206259236706757831 -0.028098307004623363642 -0.072640520739106248516 0.13835634335787702631 0.0094741417778696750823 0.11907577678395456222 0.0052031402224821067179 -0.012937440781348629598 0.052640533658924945626 -0.014808896927167287602 0.11012417583066254345 -0.035500307893626480149 -0.1013625674954541922 -0.074324271217228371489 0.072320290231121783786 0.12879859871988263986 -0.025941346077672618881 0.029955141744236100931 -0.022035295631932554777 0.015898729693068030383 0.090874100234133600718 0.029530974090061255094 0.076058043530011970601 -0.098747579219134559714 -0.096123898637589313965 0.044360326758882656639 0.066199534131782505897;-0.048139420617565015226 -0.099476260265961624629 -0.049899730189444858885 -0.084245717856374580101 0.039666538173593161865 0.099489414480735019475 -0.013829359024642716089 0.046859691519382108693 -0.021305617886937650712 -0.067306190302954094218 -0.00045562784201034952627 -0.1273488823370238221 -0.029605202627616365729 0.044464004005963592148 0.017800385658641094955 -0.032613147083817510541 -0.12055902143312241526 -0.0059007890339261180254 -0.048957974522727418232 0.031248094007772845432 -0.14035117660395263206 -0.062417610789524950732 -0.041063243649857764095 0.10586541195785061087 -0.11131646010017151593 0.060994344493714235111 -0.033302189338165533172 0.12646920149210125195 0.0055193085171093168514 -0.058027872063391369717 0.068506574235789111094 0.14454588022545214465 0.10241753209170825767 0.087254745342705469779 0.045882077473627359832 -0.020885000723829427738 -0.079229144971233234074 