function [y1,xf1] = TDNN_ctrl(x1,xi1)
%TDNN_CTRL neural network simulation function.
%
% Generated by Neural Network Toolbox function genFunction, 25-Oct-2018 15:11:15.
% 
% [y1,xf1] = TDNN_ctrl(x1,xi1) takes these arguments:
%   x1 = 11xTS matrix, input #1
%   xi1 = 11x21 matrix, initial 21 delay states for input #1.
% and returns:
%   y1 = 6xTS matrix, output #1
%   xf1 = 11x21 matrix, final 21 delay states for input #1.
% where TS is the number of timesteps.

% ===== NEURAL NETWORK CONSTANTS =====

% Input 1
x1_step1.xoffset = [290.149715326165;290.149910719391;290.149993847666;290.149944755806;290.215892032576;290.999402949394;255.648834228516;260.740386962891;-3.03787765005836e-05;265.549987792969;290.149993896484];
x1_step1.gain = [0.657817068112639;0.657757928342135;0.657748388625656;0.657778535794874;0.67232310959594;0.912717808652065;0.0927153067403077;0.0987566511103644;0.00263664489881638;0.0966183005109848;0.657741022501455];
x1_step1.ymin = -1;

% Layer 1
b1 = [-0.78253953382154950447;-0.74277340205493436187;0.87544289395080654437;-0.97525784606165544233;-0.26625469568389509289;0.66334312720399302155;0.18445931430863657385;-0.10636192210668250768;-0.55363111913581453116;0.87334977982756900605;-1.0296283509643726628;0.078244419256980779487;-0.24179865755823970463;0.69847752071744872993;0.32561543469023951358;0.56959704498861107869;-0.48178121402941492812;0.09355105471348017232;-0.91608766948371922467;-0.21746278577772115703;-0.83741912770164717017;-0.58999825213671319712;0.49695249665483387513;-0.56682830352161750476;-0.16187564667129264451;0.49442139878864616032;0.71336470100990156951;-0.87285449142820570323;-0.22693074425105674852;0.49269629723251123776;-0.37616586239997362728;-0.94041521186629695173;-0.00032731052178090806705;-0.15115108154079556768;0.73965356415259886358;-0.73391971294759916766;-0.2192941087934298372;-0.21454337040924176261;-0.17618439242395822486;0.46056148797860207988;0.43625421816863091395;-0.37091426265313587329;-0.52341065956284438254;-0.39917676306736848968;-0.4460217347109380337;0.33013171348874198463;0.43313170639610232282;-0.93152516453453682033];
IW1_1 = [-0.241633119944361624 0.086225383496881510825 0.13553545115332768511 -0.46887626214329719554 -0.56212398531307694594 -1.0067923416663215885 -0.27237482464970852458 0.82150254486567175771 0.10596303564057313329 -0.60149714978967139256 -0.34906107142979092561 -0.48545605985116774272 0.43046294014272135087 -0.285686904570903899 0.24757684361503673465 0.43735193501589664233 -0.58259398992652933202 -0.7294127696802686911 -0.74875170700986792838 -0.78599451150086840912 -0.80066269486899677155 -0.5209827778206798099 -0.025727722948343093035 -0.44131333456019933292 -0.45976913696773924478 0.52133189712058403131 0.88234366446236245363 -0.66970292384460861079 0.85577639239942304705 0.87428897969315100269 0.099032915341233485051 0.97354723631507855686 0.32079294673557939843 -0.5789267820931417452 -0.61050486102008205691 0.22492119803633525699 0.58728620285467958428 -0.72388867752945862399 -0.50120268894372577151 -1.0170688074195657347 0.043925866435010299527 -0.61010846407983498896 -0.027745006585744854538 0.67307004008486837066 -0.9039808934432568277 -0.22129055812977507789 0.18959734999539976097 0.52999266363350172604 -0.10416526409790956287 0.77817649339786942875 -0.55104615998790351661 0.48930732537448690112 -0.15418199992089945405 0.75183876488560197338 -1.0214740078477639873 -0.44883715099276200178 -0.064595484113789278235 0.27088903301257516443 -0.95007364667891047727 0.37953332343986451169 0.33292909382860491618 0.84157139437332872944 -0.54253131842278734531 0.80186957964103910967 0.90122717332275870117 0.19566694881327104105 0.058267968155517553541 0.67802950524519167708 0.62309570458044749586 -0.41721579363683242159 -0.24846587900141992034 0.63531898421290844414 -0.72655250867740006626 -0.99945097833295770684 0.030129802995948737343 -0.4492937965219317431 0.057575941920337110613 -0.14393338128225682815 0.88053208968934160161 -0.10659981782758558289 0.51726369527411797389 0.55593779375107799101 -0.49431643443033773666 -0.024583043217442313022 0.0076215665515460889398 0.37767825927587966861 0.17650434787020918836 0.74774283688041787155 -0.69654860132845730636 0.90665566785311746401 0.45311138193566513621 0.4229892185546532124 -0.37524403553800600442 0.79911418306680426227 -0.72904113083806432183 -0.81357180957561880952 0.9063712048528066445 -0.98005934007626427373 -0.0032638313204813758361 0.52916543675029914517 0.7585637111855795256 0.58955397617846427849 -1.0006477505902426905 -0.085897696951094268392 -0.68179907111587823021 -0.63031504598289289643 0.66203861864233837231 -0.45643129991789394007 0.067432967811796640234 -0.47002159930791626019 -0.69233142912946787906 -0.78611349008054320908 -0.24278187437997159059 0.92084769940918254072 -0.99080338875963269718 0.36231402942642998433 0.53134079195254069194 -0.2112489143497463806 -0.33664964025751087373 -0.71577186496423994555 -0.22040389972932480922 0.49345190496088137122 -0.31922277453839142947 -0.93746540778140519112 0.4184599572527962219 -0.78146293250378373596 0.70649738977278675467 0.79728398324234261985 -0.6254364356313689699 -0.9191664992787202948 0.87322892906575932948 -0.36933222028474560483 0.28346756541927975448 0.62149393111511308518 0.063063324224967326481 0.17859172636478148899 0.40570127322353882748 0.13911661310827411198 -0.91076980970293242024 0.59568471080862672729 -0.43427033366852507701 0.79558773498657264778 -0.84479448477037522025 0.8166570569125308765 -0.33362820785460373108 0.67278724210642071313 0.11661889743267975228 -0.4532391333685924506 0.90206059786450720761 0.89839031940717395397 0.86947142890649009583 0.10808282288579494634 -0.75276194317947109358 0.86197625649418729843 0.23565416148153384146 0.72099271960071431575 0.76560782532497351216 0.2811879398940327901 -0.0014717306064722206205 0.66948612201377100117 -0.52128624131124845498 0.90548607509155831785 0.66043219935184160896 -0.80300179419500750111 0.65124626671545404744 -0.13356610678472663478 -0.61964916727141072794 -0.73342750117828625633 0.16015530703181785066 -0.38799303590028694222 0.46239472147366983412 -0.7623674353303490081 0.58584164640922031797 -0.50465069964165965022 0.36197580359680697759 -0.59259424731400056618 -0.22471874569649716302 -0.1513027933065062558 -0.31805414981878582514 0.10123204246381231619 -0.37303132959313328731 -0.074669905480950968246 0.18878192218720166173 1.0069446580596677077 -0.033087649424479691207 -0.51453418257394945012 0.30027183071812962867 -0.84457516892953210519 -0.58824621399913634701 0.12634512073744488814 0.78136247561293747932 0.63814655900166294966 -0.93999746345176204976 -0.31166769338283023538 0.37955955092596321832 0.40133016953917899361 0.098722053705012038916 -0.30730973586367177353 0.86684590894726587518 0.51926584802069108981 -0.90512951969753208115 -0.45516466158961166322 -0.31116646275888476536 0.57248199720416870218 -0.37265925462504823074 0.29773433251127517929 0.162917233333991468 -0.46374610718281555899 -0.17692605881960404846 0.88830916595462716678 -0.22009961324490770473 0.10601978681809536009 0.86401950183655329418 -0.497717732445957739 0.50334718652947307849 0.24889819678393532154 -0.011469086954484798355 -0.91406310757489728225 0.20184181257197339465 -0.32850333756511318484 0.077689588717533675233 0.55170236741936662384 -0.93865004676422025831 -0.81839393266357718382 -0.27056371300186743412 -0.45036588832907181734 -0.021824152894319652496 -0.95392978399125227806 -0.56591118285060293402 0.18358168896339938092 -0.67370913879685689896 -0.40887646465255211847 -0.47750376244427067407 0.63898462136222788921 0.76139664530678707877 0.76427184819742621791 0.15094147991912618134 -0.43233824539650339558 0.54837539141935931486 -0.39003361836087457881 -0.67140585035947886183 0.74225743975466706992;-0.45556519587728355747 -0.77978810097785999922 -0.42184529510218665704 0.13138133578737776208 0.96281558824676605202 0.35722097018970572213 0.88400193523449599464 0.37654997403558398972 0.095719055335864708378 0.97939343601372930159 0.50117153782238466064 -0.043766481234465887118 0.50739288086421652224 0.17669887530309186241 0.68502804326973687488 -0.4396916543720602033 0.67141743527619901499 -0.41057223918188362477 0.090635503184185006731 0.86614443302333421482 0.53857557192683103153 0.21280172856938253667 0.17015305388177098811 -1.0066871519404774205 -0.93618667046311732083 0.24957071600193514449 -0.94380833946535691581 -0.64283736050957673847 -0.057643837276358668442 -0.62183761940289106196 -0.73547390237636589561 -0.81942849629304570502 0.86330523065419939588 -0.24837525109702371373 -0.10195205805406336308 0.25598468462207579766 -0.62916578801266420662 0.95246551644571808559 -0.073926301629591920084 -0.66706862018730805897 0.96016178802400919956 0.23415702831057175204 0.56591965488523554573 -0.46694194639956398962 -0.035197366534528706783 -0.94031072896730238941 -0.20277953520998279191 -0.57041306707958983058 -0.94795504210306602566 -0.40355769616693454305 0.090676021077702242956 -0.49213495521556938073 0.9610221452694830413 -0.53115194622213424136 0.7332561737621203779 -0.14372465178794838203 0.26603834514763130548 -0.096462743921496257871 -0.19425137055049279677 0.38327153664954283219 -0.77589733895606294301 0.34953521449630120532 0.98385259948391068363 0.13858738827407851568 0.71771121575127294623 -1.0038241896095658756 -0.76899379474702511672 0.2092813975876508803 0.24578167767627381868 -0.58205434558337987294 0.19571560085482497815 -0.36655853004365457348 -0.31250294087077329364 0.66571215807377714935 0.24626199158846132087 0.93245847123886183017 0.47471312612222510419 -0.61985694314226869039 -0.06199626162529588147 0.6145615717972279235 -0.16143526819909501113 0.47247842081169982853 -0.35850012100523537262 0.10309662027496824255 0.44939496665188694013 0.73099651655616659784 0.94540525361415839178 -0.46135074504203649193 -0.92178555055056710099 -0.97276801478694485681 0.54957625931751652448 0.3630540316758492092 -0.36501628072982861273 0.41415421139290109487 -0.82784430583203838516 -0.093400923559049012224 -0.33647153277220670509 -0.72128605435230908061 -0.64219370300074474223 -0.13731637118701153777 -0.44757668491664859278 -0.73691199909418736436 0.59877077902982456248 -0.04597569581197158417 0.43147005294827056598 0.73608683572473276868 -0.75359685289484246162 0.4726553711708229577 -0.54615730619953950509 0.2518734205695969397 0.99691805901342478435 -0.98037059734202325334 0.57815813160646956081 -0.99270309548123336629 -0.30033485531508830046 -0.25160737122048415504 -0.97388087950794133274 -0.40726543977670814911 0.68210597883054213675 0.6377853739150215473 -0.67910192366717614387 -0.57206293540509300932 -0.26514318163421168872 -0.84862312368144476871 -0.025562186486821195097 0.41810754340687955599 0.37112620181179084566 0.47200140331252327108 0.85739460351094554103 0.54079940652221181185 0.46810080667542025568 0.066762087770410774579 0.41716647878323004361 0.67312729369441148819 0.73771375993772581037 -0.58377100181453844829 -0.42460367143712707261 -0.66343050399407155204 0.42378388531340027701 -0.92423407458361261924 0.95033629363481286756 -0.60121459958293876902 0.062709506608157161711 -0.28760943719720771794 0.1224830005053336307 -0.53014665223466761468 0.33254707147954876145 0.24903615910060364347 -0.96525851534109474716 -0.87985421179286571469 0.81348387262410148946 0.53100794047558852462 -0.99229011277078316144 -0.17763623327804656249 -0.78026373870011411782 -0.34182028284248455741 0.63591774247609411663 0.1700867484100491156 -0.25521332466652102422 -0.38237497113183777087 -0.26658869502735094148 -0.33195201534379492614 -0.1451074658187476718 -0.30562357597957301447 -0.96981812588541560505 -0.40694368063729274843 -0.59199336508648836563 -0.93056572412942528683 0.89956009642795886627 -0.51954159153436874075 0.90035041078564215233 -0.59935290879535674247 -0.61727666369242495392 0.066908466767398033781 0.74240635356629802732 -0.66886325787781086838 -0.76206950287335339933 -0.24750415181942581055 0.39776137224948759918 -0.93532574804422607961 0.87071214609111435845 -0.74268394425918082824 0.15221825103104796861 -0.8479853978964991823 0.27522970118982786891 0.93582149685886428792 -0.38845546747119846787 -0.71668797616662993644 -0.32809122066663037876 -0.022140238878742141138 -0.47253353696267919037 -0.0084524747292162253492 -0.72435700164657634836 -0.27875344586478412179 0.69776997062265699867 0.55051145271327905917 0.26976019113250437886 -0.57483167808041590874 0.58294872756475346609 0.40951806025677683909 0.10051277867848962266 1.0010364983703483599 0.93682805299988380909 -0.25426843594538922622 -0.37249541785280149142 -0.67240541316282376183 0.74896862334305203124 -0.81421308152641203026 -0.65596362342601854944 -0.36407482491894954668 0.39323595541313599577 0.019790644836801270234 -0.68875897096841665057 0.94009671778450809576 -0.67556186759691594368 -0.82704057365117722433 0.97011949118927864877 -0.77279775967272112958 -0.64310223538288724399 0.35035023091219308355 -0.32772759293520264956 0.33641563880199149006 -0.03354175788855942586 0.91015916231399529579 -0.48899587610316297415 -0.38275031642090606709 0.78368560229095673986 -0.76228821350427733439 -0.54171474664635066443 0.16257086750299942768 -0.88791354336931671565 0.63939755075688620156 0.887460700127650437 0.34212290242643111915 0.84692183048327185357 0.50124844247471955772 -0.86823577538722251923 0.60824458332058650711 0.54844998469820238629 0.42292431000683639031 0.84458107802773674244 -0.14836409887114876405;-0.62224238154673239265 -0.3527801325421908718 -0.81434554604785480691 -0.72422891540557721157 -0.062951418304716663665 -0.053740653266896490359 0.87361584097886124667 -0.75229062216569397847 1.0246958161822876665 -0.70407061866095999036 0.86717214865106184707 0.67683791696971828955 -0.2613637060377058674 0.56036488780291282552 -0.46004053694966479116 0.31049291663238576255 0.16118603384552435132 -0.46557433061127861951 0.56771687115547797564 0.90436931318296176485 0.6017066956854625337 0.0093162209484501726231 0.79129040131823347171 -0.97548033900177733013 0.11720052183592315209 -0.68043944256761590417 0.28603914202675506662 0.53484133312249504399 -0.17760621495523304381 1.0007742754087309844 -0.129084330807796549 -0.11685022396968480773 0.36468519184282366385 -0.50657570373858329393 -0.77454508073587990946 -0.48996130831743778256 0.34689912606667150374 -0.74360683606397104395 -0.86103477876696032922 -0.2174879043494986619 0.64862789737907722287 -0.544511597779935963 -0.71024836893041076724 -0.8365546067726558066 0.43266892196873768528 -0.10146765906013041625 -0.34025994785572544199 -0.86358697243541038269 0.11285282160705563392 0.50120073677555110336 -0.079413873532087550511 -0.50039805232183820483 -0.12256138315392890725 -0.9163181768670742855 -0.89016728492576269183 0.066669912273699810656 0.89761341228848656737 0.91874524821837610933 -0.87342683921876618225 0.069680910632569120766 -0.61836641611150211517 0.57293432959447854191 0.37702743468768162849 0.95496662910589580342 0.56387931490944154245 0.74131382916732269095 0.84411749411602243764 -0.8898771112843444353 0.69855929770010116719 -0.25866778255320271862 0.79848674699830268775 -0.44115692152098939793 -0.86461553238125210541 -0.59015659749311499827 -0.21792772784233679917 -0.35669198078408853592 0.64957578300641061197 -0.22197388998211503575 0.36604782900166360493 0.37850793384854169998 0.080751226336516587767 -0.6267966994903004796 -0.044263636227833746961 0.30353477681693935564 0.76625555087463892434 1.0260996904205017533 -0.5478081609049700873 0.024636331112887363548 0.57664677191747182317 0.057340689899794634876 -0.65950249236551783394 -0.96601545478726291716 -0.6769373925818641391 -0.97262397368390907104 -0.50949421010631201767 0.0019979806538891189613 0.52050923460864284564 0.53247387221811437463 0.26472593139911160254 0.38232021740562838197 -0.94071891539617336075 -0.75928820102463079333 -0.046146514436210372967 0.78831978238181277252 0.78515816365238166874 0.62095239918132516532 0.68548937048538405303 0.31934571258468791299 0.4606391972405342039 0.6672024570608846572 0.93586961126085010942 0.39027366736490870514 -0.60786855807010653496 0.71018714460028598001 -0.24249722868216344596 0.68496314570811356326 -0.18383099636004085475 0.44790034639163378571 -0.63372198605956808759 0.95891638455172012456 0.91429412025704881462 -0.1997331273544598329 -0.85347283068917345616 -0.38692855137126347387 0.41210861976105295224 -0.72526768468243929533 -0.6280467088962867761 -0.55569270712915663779 -0.47898473325919266319 0.37889015862886216146 0.37588691069498769703 -0.26879298843071258718 0.78426101199980469136 0.14111475107185780797 0.98270122985781549474 -0.89691699773305710863 0.33942897470825861284 -0.57845456638361003598 0.11640686419860812872 -0.68475862216196936583 0.21790707847787704754 0.71458595056779838917 0.7934206040699085527 -0.28802008459537981055 0.60824973199526066736 0.57576505918416154284 -0.855478799521299349 0.015058779073864320477 0.10608744197480123039 -0.3782657193892850489 0.22032703365980566002 0.21149163906041640315 0.39697913119068872767 0.92264784711551761642 0.55110082052178455125 0.83094331466210435977 -0.75706894814394920523 -0.9435619733548294974 0.77401544873284244819 -0.32832957684754188188 -0.82824645954748199461 0.90918060247060383805 -0.93819077889312652019 -0.61849585462843892358 -0.91308405854615415365 -0.57445808165608058804 -0.68974506195340790082 -0.21096513272319167287 -0.31652161865890349191 -0.96974444938858128662 -0.27319829723318150849 -0.5345114401891599698 -0.93460330957520942885 -0.82217702384388391401 -0.76061984365200996372 -0.89441529682801712564 -0.89358970396882209108 0.47080431759871232966 -0.027876996839081284729 0.77309438676202735241 -0.2105211122784819977 -0.11089374077439403954 -0.69311340381549646494 0.31827421087030127733 0.62861391031698854448 -0.81390784759147405403 -0.015381107371587354402 -0.63363934297458490708 -0.0053054700396989581609 -0.3057100816329360593 0.1849413192272280626 0.95180182498806187308 -0.91626961823187724754 0.80301335133004747568 -0.27307816827461128817 -0.2963866885156299924 0.59008335342945850144 -0.7677421540986427706 0.81060195169613136201 0.4209947784884355837 0.7045588966299298761 0.25078830269972612887 -0.92943925236930724498 0.35348853031448929096 -0.94504003959192539597 0.036738619598497876395 0.052586290648088750144 0.95480408567276198184 0.38748019089020890871 0.79250513836312208582 -0.45180560715113782244 -0.5195315843797622124 -0.59882668446199449619 0.12610878587908921911 -0.7203337335812626252 -0.68894560793211789829 0.12730737000917499713 0.099761031780394013313 -0.36127410126666592571 0.14111532073597915504 -0.67255693622148171595 -0.94523459453018798815 0.82024594040316189947 0.52448574934708425133 -0.79900980539045762807 0.76091285373990125152 -0.68927714153176189438 0.7696387893082249354 0.59784990682180394472 -0.57251660227729250785 -0.21650860710160960143 0.35409682917513174427 0.271852044296444606 0.89230142409065626996 -0.38903616962429815596 0.097978996109054430907 0.59518106806456372304 0.057121529878031727934 0.38778182759226931253 0.49594439591614325469 -0.6266201612963732126 -0.4391212153477672131;0.6257393132527464541 -0.61022208536255651001 -0.2277341392087583738 -0.83337538547030864944 0.70927536774434007949 0.75055021928007159548 0.87414154985022873845 -0.60847786409428006316 0.025578062504923702175 0.69891265754414910738 -0.39212417666604076905 -0.045485259209235302802 0.12335710605915206628 -0.80925507562577536635 -0.5065254530632230523 -0.73787087885543678478 0.28864281746462833178 -0.80698308863611356578 0.80990061903819277056 -0.43740891182112068281 0.69316304051840682554 -0.53293911980659136596 -0.43058012271279472172 0.51362952607082890122 0.80193833092674682295 0.16016139059005446432 -0.21088947036495067633 0.44980937236945239821 -0.35193850467614334887 -0.88233463337199868892 -0.049834093324945122339 0.91635959139037947985 0.4277160366611700848 0.54907350627065587556 -0.72159477482431366724 -0.85671530736193679534 0.25947143045615922441 0.75360401223508943769 0.1076580119793121848 0.12512613192556409913 -0.75078328365009472378 0.12866427714882189282 0.56082894274193562101 -0.11569033673589433631 -0.79546079728994922853 -0.42755562875290503699 0.592201861465661894 0.23418602466443916299 -0.27876186528034224699 -0.90728833683783549624 0.10386934706040035215 -0.34693694466518337771 0.71599394750497102891 0.95790369272899644759 0.21941586571495683144 0.29090491842860743965 -0.31719681310267128227 -0.072309252516831415414 -0.29810227612539480502 0.55439358265632943112 -0.18331854933700392207 0.73783370729150454803 0.24373212963619120264 -0.83726248768496747132 0.76093672525873801149 0.62091004444464459322 -0.32102625172412591059 -0.52133033279330553977 0.3738498975115657208 0.49534713761867710247 -0.073923183761656519053 0.30994700060304891664 0.83481977570169885183 -0.23232209123453015365 -0.78244912494337170994 -0.56501725240169675679 0.96991709096599199036 0.59774183945242032046 -0.35325545760311705124 -0.50711563773828027823 0.35818806324719287826 -0.44901280261354070689 0.40046717192121999984 0.42317227742798924073 -0.2078853176873346198 -0.91190048429618431047 -0.74027017459166410962 0.53578887755179305241 -0.17133159889458041136 0.31732497184488933639 -0.58682892919263873743 -0.25105581799039805579 0.31535269485930927935 0.019271009432191101018 -0.43760758532623922346 0.13910528552706077909 -0.2708178436671397904 0.54271072647530660404 -0.50005124439003145742 -0.91795073277879846163 -0.3998330490985065877 -0.72053340050098202418 0.27206968620508159562 -0.49882519881432502151 0.20578769492697121524 0.88361656946428024373 0.15838438418092301574 0.16530596844743103424 -0.37200836981268869952 -0.33397973858394908175 0.33446266382995487598 -0.44409991352267852438 -0.1651802502467903111 -0.58144467403976185516 0.20801081028538653817 0.51117958302100841017 -0.48833633349654193001 0.85186912705433592841 -0.15574333420600303124 0.441551214952965565 -0.93364613221825043521 -0.8198928938221364815 -0.52557485514102564306 0.70763110575235510513 -0.14377993820406315129 0.27639616829506530316 -0.35357197249743210765 -0.83704482446063899204 -0.3732132021759372309 0.96496784309987349015 0.13999804112541855416 -0.86891451697773880447 0.1080924555427291156 0.89293237505876610349 0.45921635753465467333 0.64432402392816345849 -0.7094125860068624112 0.72291831681662199749 0.85490561764310435411 -0.48584410363244812103 0.40065020477910140428 -0.44089925261709628224 -0.2632621946469629326 -0.1661573720101577889 -0.29736146643563299286 -0.808002215723394146 -0.14927332835610371276 -0.58005358889708602543 0.77133492072051856869 0.2051053335788041998 0.60713212810356997906 0.99527419969893182738 0.65797569412361789354 -0.18679730659675131133 -0.97754561697789577046 -0.79427816538436668559 -0.54024449656337980574 -0.058867558840756999128 -0.56191620639589068276 -1.0103727773737209983 0.028621753856777606972 -0.4660852748922073574 -0.18591975135229490967 -0.063365249404820328527 -0.097621229698612407844 -0.39797722790455003494 0.77815906921469191193 -0.66408205048568114126 0.87623678047104913702 0.73342923251950298269 0.56819410221783195336 0.61436942998732813059 -1.0201309254672026317 0.57376095246866987143 -0.24145134010327320984 -0.27871475114268307038 -0.88168304517153661681 -0.38771697480550959547 -0.55438295396835113316 -0.71801580626118510775 0.91127120758365753872 0.4199978037561596933 0.71638722794694742468 -0.99714627444706804837 -0.88121575630135795532 0.8776051782377034538 -0.19480901787739762776 0.68797352526772970194 0.48712425937472947357 0.3873452947672817448 -0.88175713187361803858 0.66537989314701129206 0.11391409895794930851 -0.17561228970778963721 0.28351512828216318685 0.47350511195694328093 -0.26699878219016209835 0.95955572654959508938 0.43942549075857323393 0.92161500779374183612 0.24500857902702355418 0.43172882951253060968 0.2565391714491099262 -0.76205498481198274963 0.53149651140558917817 -0.96309045088792522016 0.22006113866446119776 -0.12093182067540403368 0.36929986665749470198 -0.92850197174182902415 -0.29101592872280240831 0.67466938971949041992 -0.41782348284547221606 -0.19226910295682006491 0.41075188306164928109 -0.25730350570025661838 0.49204762181669037258 0.29843034023256154175 0.52745058431296454327 -0.38321112953380875865 0.64861047885602818308 0.10400413219334438131 0.12189173374401211791 0.57741537233168760412 -0.56652859890453333147 0.75518286126113742807 0.12488235191330752938 -0.92791088149857303691 0.28236563010288379116 -0.97530851162265597143 -0.59478543627256375004 0.44059202126174434877 -0.35006009132297843944 -0.45619885480219907192 -0.8885467267411029102 0.91423334865216854261 0.46233021294736470486 0.93075300503707802946 0.42219411112941906961 0.72839155662507071298 -0.81641889043775472956 0.97754516199252083908;0.1323432641271105048 0.6114798808618930881 -0.81056474179555537685 0.30509619945946991892 -0.49079053226989710623 -0.24580431480398326483 0.7732162061528867758 -0.35892167424917209573 -0.23240373452382892538 -0.36136744190898728579 0.4304649132411970669 0.88759477803544450936 -0.65612892231928288123 0.37213591642758692135 -0.96433697368882054235 -0.33793687985566600585 0.62005664600361365402 -0.21796452597476623225 -0.088639987480857510005 0.041178832233519133132 -0.0016443247798894433491 0.28926275460686501351 0.6186847524625546102 -0.17907948009386298605 0.20647682552514548537 -0.78790314411989093024 0.34311856086994863002 -0.60086848755994914928 0.32011820856815825787 0.87516060020170760581 0.92265750459126583127 -0.73749027836865277408 -0.56512284258270328863 -0.86855260118119914647 0.97476559850890254211 -0.67240939370687002885 -0.027161250051228012781 -0.80931449855497383794 -0.99179078846757395826 -0.98038037630473406914 0.49246595236115364713 -0.67436508071229139816 -0.4718095618676130254 -0.9194149090474101893 -0.58156872930488556772 0.89186261914437414688 -0.6543529124334102054 -0.28898342014278760592 -0.25321778064725325441 0.43149981569496681511 -0.75845053918790594771 -0.34122533726888287786 -0.30609489590898991684 0.2523723288016641586 0.21548188637570231396 0.058120402843617510746 0.74324775773384477162 -0.6876339516744834901 -0.46453160806778986958 -0.089296519113253258748 0.067061465403544712194 -0.13011778652203892515 -0.83186119596967300627 0.0043414792948344464382 -0.61002993530313576187 0.57060149798994097559 -0.0034849554370351785298 -0.40837320675269656034 0.97278777025357954233 -0.12340280919980996244 -0.37037596526199467739 -0.08609387708547078244 -0.85674806887368204489 0.79489864209349236912 0.18236584785459350466 0.15865537510967958612 0.44938616569600048356 -0.23928458829539017705 0.20138348233881506189 -0.3764302691154234326 0.50710613150486849587 -0.51621110277248039022 0.37177807619510477855 -0.92439187553559287736 -0.84871797154750694414 0.16384376743872378079 -0.57469148925682089768 -0.71097747030408542379 0.74484791488507950952 -0.71260002218976270516 0.58375436562018157005 0.2839781317191653609 0.49338563642224209094 0.98694287883402809225 -0.82046806780647074664 0.60770053083998032406 -0.46896585785804706381 -0.275518900900868835 -0.28335078409317310255 0.45674220471150706047 -0.82357659095114310599 -0.097428524649308914651 0.87481395992673027795 0.12171237121535424808 0.8168445602611602574 0.57715089562244792365 -0.040784883499821331099 0.81438251598472088943 -0.094654036998415583271 -0.66892294831939069777 -0.77867793909931637408 0.80677839494042713486 0.21134116068875150041 0.43701758405949892028 0.97838335378625329586 -0.25553819617101314332 -0.5790026065008442302 -0.5241021739838734872 -0.47342949594354477583 0.69533890144217058715 -0.54208767250700040652 0.034884381103090687792 -0.89457127147719361915 -0.84079425493656445578 0.99151747917518950892 -0.92137283367456646044 -0.77194234166114106266 0.98219755211454939925 -0.48421464552870224773 0.92321555045343128842 -0.18852437451215092734 -0.82115709062575770183 0.23727856474287231658 0.73926540097233928162 0.78591674005803047187 0.87348186622056933626 -0.40909637819825400706 0.4442626004382846383 -0.63590763383549997467 -0.67016378936460874183 0.11364528544705260193 -0.74375621077681064452 0.80052046645090468857 -0.57859244238509022207 -0.67718436896324296637 -0.41232063064238566596 0.91760249056779230603 0.20701147622994992004 0.29396625638372259059 0.9545842565109345923 -0.90943656532103944734 -0.47234353272977702698 0.66399323734700610444 0.021909171930453805871 0.7131728905693264231 -0.47202637649459200375 -0.70228766858162527953 -0.87550914855369255108 -0.25511930876500449328 -0.47116501467989585494 0.15706652979335838927 0.50597806356298735686 0.96164706332987792692 0.21991523784201422176 -0.37359982869259683591 -0.5112326283690812323 0.95119870207453705024 -0.61375451214664555888 -0.98338560087490489714 -0.70843318795944698607 -0.10868403355574009217 0.92476667406246426673 -0.37942238895149649203 -0.73153481485544336049 0.32712104413946779813 -0.5371995041176250707 0.17502198632564094916 -0.77935740076237802754 0.20618425146447327823 -0.53744340592479866725 -0.76560576415042957965 -0.34483197929467240828 0.2087691028751950395 -0.11292768402069952582 -0.20752755442636527938 0.706971341500128303 0.73952222421945534858 -0.76039304711720434593 -0.51037878518924417737 0.84835118242783502662 0.35239481952590157032 0.64496487290188175834 0.23169585506879886161 -0.85563150236696816631 -0.62640966143254439569 0.11235043173173840658 1.0093268968746544889 0.28251090546816165494 -0.68062582392015036348 0.26007246971515829426 -0.29372179340674692272 0.09237827830104880511 0.19921393415512314573 0.26317038067125680945 0.3908410355824143978 1.0145869914102501053 -0.092835858497081980012 0.69021171301114914165 -0.85781504125286656137 0.77627996062141790823 0.16560270014681602313 -0.74600610810688361418 0.2308683785334803007 0.8674935903065564835 -0.93834063421394264815 -0.72780557439383364304 0.65058097619376986653 -0.35538835592306833311 0.49203898653313848932 0.23373895423832313778 -0.97169663162247765786 0.54119163368407219306 -0.18985161056889024445 -0.23931788938980380621 0.13582956998823744743 -0.2323840801780741594 -0.2345974635498274119 0.56054490833820491691 -0.11398382555836067409 0.77214521572996230869 0.0094511093166990776254 0.067038356856526898353 0.52536756786890548288 0.5267003445455019639 -0.9168292934522055404 -0.55194483865732990591 -0.73700853975318636468 -0.68236602338335983209 0.55964654979606753837 -0.69971304679813728367 0.40216407731253756008 0.98599669023433877957;0.94256952012670647267 0.092953426705507477545 0.68517228601621982254 0.60997346422418086132 0.27761436246680215589 -0.81428269462367663944 -0.054365857835205623483 0.7346977683094432221 0.1329534481233319021 0.53499552594680754858 -0.12483586885022782131 -1.0196971580347595765 0.050506944092936087443 -0.95622933243688545968 0.25463852828634003789 -0.35190274626793721646 0.56798556224169061135 0.22975515403547575044 0.94068235582155079744 0.41158942383657148856 0.40993854693345765927 0.84227077811129213991 -0.36104048856192672012 -0.55077974082049974136 0.10976365756304184984 -0.39843707486832308229 0.78868954981589300957 -0.92473794007925891325 0.36520425024891667309 -0.052499980227149203871 0.70147483739064020458 -0.28867955287473406889 0.36245186691848002569 -0.80306771180070557481 0.20511803537456524404 -0.59792356230710996812 0.057784419391640827468 -0.96143405715856045113 -1.0193939515858980727 -0.64541158786030550232 0.031136961994270663523 -0.29081700346898747833 -0.49317627415186726658 0.10520075967679325124 -0.54510360983159200643 -0.56848130135900409865 0.34194862587682767208 -0.13012225941941718554 0.35981177830236305004 -0.41680245336476862139 0.17270442499275226456 -0.46503497384292274974 0.85128612848398910184 0.73700558662803228316 -0.50376629070622480633 0.018396113383487032455 0.85529037447990219345 0.53930941440297219813 -0.79587082433681965998 -0.70440062495948396748 0.42047201573477543946 0.63278610710177951582 -1.0032553589774750868 -0.52678070401480847629 0.90081295185786536273 0.24224867037215647159 -0.94639215232320572646 0.95783634549620022547 -0.79389171759666277151 -0.38188656359355421799 -0.17698650459881140606 -0.88476238613714164316 -0.69011620613100510546 0.97191243017699779916 0.57778049822683286152 0.42704995320960020821 0.079564339804037348403 0.80727512002916190781 -0.89210927970973763479 0.79372625258123530312 -0.1052056657229546166 0.38518059548891458999 -0.0457451414237256479 0.73036240152725018238 0.084480496690688591799 0.95875756009072365948 -0.31870756146848078227 0.68309093472229087673 -0.42525389793361162427 0.060497624908738834026 -0.32171895893521951226 -0.68822353382973633362 -0.7581836839076337986 -0.67200857757854415286 0.6900017098342140498 -0.66629526056768273445 0.64743241001823215175 -0.62383156482163504286 -0.30563904848000800207 0.68295581555525752826 -0.77304620698773551801 -0.65689774411653290009 0.86414165409852594646 0.74647894298464245733 0.0055129213196935308167 0.11472911766572908843 -0.54124044924927927624 -0.49832233749579463167 0.58919685386829012685 -0.29796385951664650094 0.50040118953771650645 1.0004362293471666945 -0.85811473152551442922 0.23114490292968806195 -0.85926741131668327167 -0.74351057175871526628 0.80056391330953724506 -0.21368415752574068667 0.57325181224803922753 0.044852097876289763467 0.27506587054130604564 -0.71217754870215033147 0.31486903824360279458 0.085736010814636123833 0.52608511426439186209 0.1886738746069455408 -0.20756427485646550268 0.8913374713138004779 -0.50003030977166817994 -0.2520982055210640449 0.46710492180331036893 0.73242596760830214198 0.16665359983959621148 -0.017477778671066635657 0.92531771764832015936 0.27890834461604852024 -0.47241504626709712733 0.23658951141901396475 0.42851708937090693396 0.3695672029031401018 0.91167871505659170417 0.10902071539672054945 0.55304239083466455451 -0.32377172873543164089 0.79407184269636321705 -0.7208489507672649621 -0.4072144092239241564 -0.9498531636305572734 0.79336217192095659367 -0.58030646253430384629 -0.011921607468973399041 -0.81386292923133762844 -0.050191525286806912276 0.18996588236437381148 0.98065061953837528996 -0.49668921514449587695 0.18748555256232135591 -0.063318620781448994861 -0.044323759516324771901 0.6783649885162624793 0.45017341776925140495 0.88486475796368979641 0.033952542285194411975 0.60382982929958495255 -0.703603746201210134 0.14923865625091956022 0.31807270499357664928 -0.16612905181908740881 0.90545627427816854915 -0.79634610464855171141 -0.27626176528695528534 0.2509483490453753296 -0.048182206209747988068 -0.03819785141721911137 0.79365210520536744188 -0.98677691182642324197 -0.23507454888035203555 -0.51936436221782278366 -0.035436521059380436671 -0.41030841259780381769 -0.64641282451915504925 -0.62003390178831940815 0.86576406909546232971 0.34038926607084696307 -0.84775388938977669362 0.56831852507104207994 0.41617851950204332034 -0.1712517366453504275 -0.50152866739923185335 -0.46455085505704479809 0.22619875858216056952 -0.55539937181172072123 -0.2582199029043338312 0.4391299645952176367 -0.017798337431494806044 0.36659523435576563122 0.1793107736474686964 -0.91010387802211323294 -0.020372441662708188487 -0.39598492855548250713 0.79873098437397715976 -0.5237341942557016683 0.5712568061509544215 0.45901153023232077466 -0.31741679028143376939 -0.54132674823341964121 0.11852411553712359493 0.79954710553966212849 0.30604081009843547845 0.33619261186253340812 -0.0062316440822026029564 -0.16437547040981070889 -0.50907050037162704381 0.38451539467596057564 0.91546589504149133987 -0.77078448220892459286 -0.15029342623728805806 0.49343302886644047067 -0.42508481161276284732 -0.49966690947568120906 -0.58812980574960538327 -0.024672177914870696558 -0.89528849839111801501 -0.85082002314198401649 -0.86740161516515279505 -0.59404637032807861008 -0.027090609671087867438 -0.86289097477845355666 -0.607217414413871448 -0.033389518264550846482 0.54906186556794001064 -0.38209198253510190391 -0.083668894041780045301 0.92371486559216076095 -0.5485824439779234396 -0.57746445698943238423 -0.5717874024939924027 -0.10259811699743136282 0.10082426071489009045 -0.7304406741592411878 0.31166357782679443567 0.12081615288252328666;0.75697263570694761636 -0.49617217316411121875 0.28871265810349572289 -0.40251378244091617908 0.5565379872862602495 -0.22104540955608495412 -0.81954170807708359714 -0.03735493339439151933 -0.62692856775103222855 0.037389096008563084406 -0.62789556831833304162 -0.77229038518841131022 -0.49472056481888065926 0.83006393802393063641 -0.48386238185642632681 -0.30288604991540846179 -0.25706159169173276036 -0.32527205842374518063 -0.73079121162127214095 0.91251994357018340054 -0.028314452721924905643 0.18070673763225947317 -0.057577341959807779026 0.6689511432807602187 -0.90596415191809276379 0.099279717501795330947 0.93556366713329042195 0.17730332815522270584 -0.23189723841137044325 0.20533565773229708884 1.0135657630864616241 0.6433091769189283049 0.68621830465410416089 0.96937292755217563389 -0.50190324949634579355 0.12109598847562372259 -0.51180983358714582376 -0.91938407703877178534 0.15521702635046175089 1.0116664864458273509 0.28578142748196511125 -0.51830651029216090464 -0.94742544936344164075 -0.60348168478502772771 0.37951118638340486378 0.94189360618671202907 -0.7859905408185418052 0.51636407577817367009 -0.5430727402510402424 0.81371572413363957299 -0.61003371998151056932 0.23863200245941890154 0.80796728422003749603 -0.2140530720216460292 -0.85480357207359236593 0.039619166204499935147 -0.18083687523762650984 0.054502697555624285419 0.30308942388724391392 0.31183289587282336797 -0.64495593949817109358 -0.90239309707241144309 -0.73661348656103387 -0.70282927760618707502 0.85107062584964532359 -0.023811373927495080999 0.09027862684748964861 0.67666160006910003322 -0.65919625953719884759 -0.08392929583425523532 0.27211204286624346427 0.99011198815203560475 0.60514756507654254847 -0.58961133081797356681 -0.35222126980243917416 -0.5259545522628956693 0.37732271272431039399 -0.77795787141687899879 -0.88712383252845872228 -0.91906046747176117773 0.81819348735247765525 0.97706602407228815288 0.34105986785550562734 -0.81785178978218797674 0.54126862422886801163 0.88587918121248976355 -0.28240677404938885342 -0.23520129592759903003 -0.31482724993910971012 -0.86163739800913086153 -0.069883079610901607803 -0.1921895770726629038 -0.40920675517904048224 0.40723818972791259174 0.9073226713160166268 -0.66941955860520907517 0.37346116447393457038 -0.35904675600578356276 0.38854058369100169523 0.2501981412153250206 0.23080234602156779466 -0.74059185773951341503 0.63965176039390503338 -0.1419281023129098096 -0.27425306847134550692 -0.85512241649283693423 0.65398289368596851379 -0.84619209525796623694 -0.18543130947293476329 -0.84459234065884158937 0.30094583891735521286 -0.35314457094358131517 -0.39898684121138605629 -0.5828244341733372913 -0.34642347310367282986 -0.41746469492336085727 0.61570875887671283611 0.24917466010608213534 0.2788414536289859913 0.54566618394120303126 -0.83002332621761620857 -0.21891349888262776058 -0.72198772658381060729 1.0054726623341445624 0.40050398133105474807 0.26002991241874823247 0.65053330467099457213 -0.17960708218580212492 0.66468021644864561104 0.98808117647826732011 -0.14342747189922713802 -0.65694904518437569063 -0.047217769822793319301 0.67460268347400220712 -0.19238922346997161528 -0.52564221913501807393 0.045799511752409073628 0.27860237243593932721 -0.52817445947322372302 0.32520409356956109237 -0.9065015967386534923 0.83280301161793335307 0.53683221320027929568 0.87629911165752039093 0.40926782606721462399 -0.24349551731033367008 0.41402986537340047413 0.66657981388540832324 -0.7735600967291207386 -0.089640446950150026728 -0.056114684296668479457 0.32602638548721685208 -0.34259794714291963436 0.70640137845629091817 -0.36747357385233681004 -0.14953203926079072783 0.17354495508426603934 -0.18614996007736636652 -0.92512936665656586577 0.85874823425083757211 -0.32912627909078839838 0.45046023765537634986 -0.16008647484032406672 -0.32182947548039236851 0.7400013211206106778 -0.12106403284192839009 -0.25459430507274849464 -0.50385729599619089036 0.1135385823973237146 -0.45051461824432059711 0.8969290749727548695 -0.28966800885426680079 0.72618791638573521041 -0.39583752206717598421 -0.56549098428458288712 0.037220482108575113356 -0.7294021797029770493 -0.33805736689098403458 0.34726067058294207701 -0.42449604719021782895 -0.27503458298591926257 0.20280269242120951834 0.58570953298784678154 -0.78106096873527486313 0.9815199724621900268 -0.7997927285711854406 0.70310687838197327704 1.023528779127730548 0.96196479984773308747 -0.03729035027193876306 -0.54143045110053178437 0.93919994733473199933 -0.46354153532492642364 -0.84500412962469628742 0.25289407516100753659 0.24035497358070448404 0.45953709065656711541 0.66830434303781471872 0.31336073855387547304 -0.93610982548865739883 0.5292337518393877005 0.23712757014561974822 0.1827656256739192131 0.092096352497975306206 -0.20071483334573964052 -0.26385212445071010157 0.89868760804273539744 0.55854185497816899453 -0.79953197378866203149 -0.060560599644832055488 -0.37060747268655463982 -0.93509873669117293815 0.75528098088134432153 -0.3572914777048059598 -0.27811014793704530446 -0.69972956395739704938 -0.32312488789994836536 -0.2195506547221522109 0.36266759873109671863 -0.26155556860768225391 0.40667446110488525424 0.67872560957263916581 0.33711859229037177688 -0.72256112170534525507 0.076424741423126676954 0.59640829666823713673 0.30837758082676747229 -0.080088992130756944676 -0.744656539966381259 -0.65377076857139515553 -0.013913548712441338104 -0.29965316793972701648 0.96401298599293749891 -0.0017688270654512127517 -0.87673564131956505108 -0.76647159886992499711 1.0071755490067157979 -0.40795503301228103199 0.65117041360672167638 0.48529361737157467038 -0.22891049038955846306 -0.31454000498371498251;-0.28265507221461799725 0.63450811734976608758 -0.79717842928464754948 0.93018940243307279836 -0.44107749059511325296 0.20067730139123535205 -0.26291963052268491063 -0.62401015049543095969 0.10865436105254577814 -0.89359057425912136186 -0.96010489183278768799 0.084180880154908779844 0.64706128792557726648 0.93895395302225292955 -0.94432808782100519096 -0.9310480395614039173 -0.061082769097977718253 0.74974172432891583728 0.11999510624413362025 -0.79342640280055498625 0.22784317012007057612 0.17504860131941019086 0.63688665019345336304 0.53485148454781961114 -0.12735208299773553842 0.87556715030453147186 0.51910756169236171864 -0.1820750801736278901 -0.27987013738101212956 0.36584134335003754002 -0.63785630317614216978 0.084884546713824157727 -0.77872286340626706291 -0.42377491738736633442 0.13998017409753862883 -0.35819556737087493437 0.68286608223308009613 0.64180050475082295325 -0.17286193968342125626 -0.34380593984016549758 -0.91429426094395127578 -0.047876907586115097226 -0.96125502646113625271 0.13670857006123962596 0.61336720680994838428 -0.7501579833320963786 0.38993741194043779474 -0.029011200961382474506 0.75509626946320884677 -0.40039935609640009417 0.93442660171030944571 -0.77012014711827969649 -0.49680708872597167947 0.47145479728516759277 -0.55954214005189728542 -0.82373989344735776275 0.0019293949445335566942 -0.46603270274659253092 -0.19230701032911332038 0.58073670874175786771 -0.92319814945528877459 0.15897103424644615233 -0.50028668292328104528 0.25862372335580613436 0.53486718237329544667 -0.058336033783100940675 0.83110965428610450445 0.75660787159633269283 0.70116101321010460001 -0.15846418850696963876 0.58426804539345966738 0.80516470497539771589 0.15349184814871846827 -0.60666679541144119536 -0.2417430908169684034 0.11849376833383751251 0.032841646618890385501 -0.53855007036216784311 0.68491732752986222987 -0.88222082131282020256 0.61130651024290594275 0.085816387216625336642 -0.14867456777282123115 0.79392420835288879388 -0.70933684383665807083 0.87477294225398882777 -0.070163766937621038777 0.54550565838082432091 0.48466153510041315444 0.41726768156467153315 0.2780316592403548337 0.10726847810380886472 0.70284337029325549828 -0.54834978279834689641 -0.73879031444972242948 -1.0112354502891161001 -0.59399534732201775267 -0.090732841068780004101 -0.98261655643416323525 -0.57106996123983111424 0.78771166259071678795 -0.41933960270722442365 0.75284153063972703013 1.0001997532525732648 0.48816286339870074151 0.26507910906447340604 0.76108278564867037908 0.13359569460266293439 0.6525349227601598967 -0.17408061182435666248 0.59094738586288730886 -0.39476375552643039324 -0.22901642422738929805 -0.44843839767116294714 -0.61856837459456359696 0.96006387013403338138 0.15864198807591681217 0.15686942946375437291 0.059132193512878593322 -1.0335999734215766122 -0.95724746291333340231 -0.65895560228082883381 -0.6416292548108685212 0.94328051965272630142 -0.97967736963838836228 -0.073591158957936844698 0.18296860455490321362 0.84008888583887098012 -0.89848524991159695041 -0.9413570849223181769 0.44806452425053894251 0.26821300044738838331 0.94626573293061899683 -0.57631733598067924618 -0.37190126779135346258 -0.57974890640880161197 0.78084921460210632294 0.60871520582813576361 -0.5173489583940233949 -0.16608657146202537858 -0.88442055157012566813 -0.32022188678429558406 0.4459505040710726731 0.84490889481021658192 0.24670204686851041065 -0.78142439988483680668 -0.62908015124882632474 -0.64544343129068948439 -0.38211026613560444831 -0.7113020339029456629 0.2296985303139774115 -0.021406713250481986671 -0.53360511201742744092 0.45754823032346042533 -0.17078329481260112743 -0.34566580411390268601 -0.026703830010093833336 -0.50357255885356944081 0.1022600443270387377 -0.47222116335325897696 -0.84330180431494272675 0.77060202297619673217 0.34754746896967536607 0.16635826597547193062 -0.028910258492636425887 0.78875200130474187876 0.7064753307244119318 0.63232992006653798711 0.037591015218294804301 0.53782717405887470186 -0.86592085970532073347 -0.76736979408465488817 -0.1407773117486028347 -0.62193662483094225291 0.2403045929205226694 0.08453768280134696389 0.61937133739697791679 0.48826416202876171679 0.26707567370816770458 -0.86827729385996399447 0.56425575650739767664 -0.068044648845980493235 0.72356467424114179199 -0.50725612196751157512 -0.10874902586906641522 -0.64194016425061506403 -0.64350563423674467245 -0.30593288889327191482 0.62186324402954040735 -0.35872432015933486404 -0.11411375176896558503 -0.018585834475339530619 0.095463779240212445765 -0.078687064560961167414 0.82080155613011351878 -0.81487230070766469847 -0.91166790679709974743 0.66774899322063285823 -0.65329977475577816204 -0.19658550509806943518 -0.40818563157686976739 0.060510495733217158076 -0.79767974146847697714 -0.23651916944086573413 -0.58271482844016642133 0.066155789209127374706 -0.77225172997564961452 0.46776160827454810187 0.85463461950607866324 0.020358514364403671598 0.92134089369197236241 -0.55244648963901898941 0.018140788370495736226 -0.72857296920377578875 -0.55717231171612258134 0.38818268018224788563 0.83849006536017534064 1.0104611419106102055 -0.049682856145798599823 0.8257298110510221667 -0.51603911362978127642 0.29058205259641450846 -0.20378178098027488474 -0.99580851681532944752 0.39076546818354529478 0.73674819187619922101 0.21924977178743498829 0.05086088495634617096 -0.9250735701295806912 -0.35868134108028099094 -0.6543230270729848419 -0.19883221389828367731 0.84767178860893632741 0.75519360752841313555 -0.23558250413584230776 0.38258995489678016 -0.98492091007481574749 -0.21489178254104537857 0.80456954313027018166 -0.101752197683438253 0.47483485911904271815 -0.0247739316994020492;-0.97457009168033148505 -0.029235076262057149016 0.64853406502846489001 -0.55129905799440515057 -0.43896316777376248597 0.08270727995065774163 -0.24126901953450574645 -0.14149353490415561563 0.46376745217105452834 -0.62819451835975825826 -0.11485421048538843602 0.92537886406011227169 -0.73926152300268854756 0.16474390907340630275 -0.514613056085668652 0.087272564086236195657 0.18955205627687082837 0.67890478682480159822 -0.10513593705829596403 0.45226437144798214973 -0.18332118145832393408 0.28906393980414429867 0.84735723354480541047 0.12017081778745382359 0.29249684955381344276 0.023118714369176080609 0.50969627907495163033 0.30281238511147928749 0.021104057698343562516 -0.078849583095112266151 -0.69824662032669382317 0.70174284334398107088 -0.3303845408515330706 0.10586908434563697956 -0.29591746979578337218 0.39294668280233097102 -1.0237099835460949926 -1.0262508209152887417 -0.30536430185846102914 -0.51522446624954842953 -0.26290969368580596743 0.87708367694737365827 -0.23707576174256406176 0.30865327218937332887 -0.52020430099567038784 -0.12540881514464119473 -0.39109762578497914154 0.34930990636405306882 0.6698611694858559451 0.42143847669943773626 -0.3313456028635409778 -0.54403414239741421099 -0.5771918012156759259 -0.35091428664315155173 0.3037436050756560646 -0.65990406090388309401 0.73503116560735159979 0.11381059733359913388 -0.37054508813554742908 0.15277718469488502095 0.4334068312171476256 0.49800216485499793073 -0.43204874040348417719 0.2854548699280237134 0.014554454528042656131 -0.11930312608426311971 0.35845675425726153396 0.65913642958828166929 -0.91307680653282108363 0.91845698489640748008 -0.43155935473376555445 0.51548784564324501289 0.96373309525209860382 0.46115438667477953727 0.50411976079862386158 0.026302442527638934811 0.8022262943123681378 -0.787727406561308241 -0.92940131275942494682 0.7760482041821847865 0.76878455095565989552 0.64093346123166272665 0.56553988918277531273 -0.81384341196975984456 0.018822478116498817663 -0.62713167261193702995 -0.36289349742666876519 0.55975931131944534069 -0.43148000242277084748 0.87630924651086661292 -0.75189043391495657964 -0.76306787885870852595 0.55183920300211786181 0.093602610926652882184 -0.648660084918808999 0.73853037561898293717 0.50880032869504443482 -0.36777798272369438548 -0.16411608185829529294 -0.85021708272486751223 -0.10785787282599838821 -0.75484042199061263112 0.45953026674460401013 -0.28866658693866176222 -0.60221283667481595447 -0.58832348287230273876 0.9685945593288386446 0.6313293895020024582 0.5853653517925976324 0.73909387270489756983 0.30745620076079621663 -0.059054815915798371251 -0.81614644388151613708 0.12035046416941418135 0.31198496246967322154 0.2061668098762549084 0.082248483401272540205 -0.75077045719761614784 0.70620447857762891353 0.3091478393043589068 0.10365533607169565011 -0.85837866756140479563 0.9830384233866925614 0.2640375955468050595 -1.0061061017545769314 -0.62107047364112255572 -0.62227985087366244343 0.77648926144173369135 0.062308621156188633006 -0.75565352782475614379 0.82667861104491358049 0.5379810947831762391 0.72582592354442998506 0.21117815766049333193 0.082065362873831745882 0.8408209679549387694 -0.36715333647060682809 -0.55608221794691314877 -0.21333858900324234598 -0.63000668885152966148 -0.99449154994876942659 -0.65324688370806693882 0.46770181265135246651 0.31798552189805062707 0.39580880800209816694 0.36061460996950678304 0.076109735341962705957 0.087257816253351758173 -0.13199679238866457442 -0.18727551985077786623 -0.20122512324741892442 0.19228166250645439828 -0.047034204481617838955 -0.28880964754344679024 0.45236208646792047672 -0.9247855835124705326 0.14765638439268019555 0.6418952219379761015 -0.90642678829616851743 -0.68781234717386463551 -0.77723205322548960527 0.6424244892400885476 0.79640838732847707426 -0.91971477590735972729 -0.038046744865314841011 -0.90058597626929037805 -0.33977413521434501886 0.11725835381495643139 0.63409612607666154815 0.30428806759761994893 -1.0322986841120975754 -0.73007349492242989974 0.62025608982983060358 -0.13526746113458743004 -0.88193527763371215578 -0.20825010633428781004 0.51434672951763160675 -0.516709558475647035 -0.91667858122366385754 0.52581116793655202635 0.64799967599173091681 -0.57526239512027277367 -0.16373117581898172235 0.4138911154712534568 0.41740759235657010073 0.9284723842452663467 0.37341867379180554432 0.52507249984636694684 -0.87550433562415141964 -0.074500816451975454546 0.52261319576569431611 0.95554962795551601218 0.83161655703964576514 0.80029307588578024735 -0.11571493618448337737 0.021969718893707770174 -0.84561421996695407266 0.50346503750254378851 0.27118882818729128648 -0.82225812337031878307 -0.93479738516905330759 -0.86015189495291632937 -0.17844254262926270704 -0.54083879276178337125 0.49132026189733152277 0.066548666503071535194 -0.66911240676876881928 0.89411837700669993811 0.45220391822179839547 0.40404489247499331128 0.47048382063600135972 -0.33955479262550158914 0.85731209418963627567 -0.26176847187920582183 -0.22205366931119052687 0.23223928558810788547 -0.088486624898342122747 0.94961920667721266831 -0.041736544569172653874 0.77004692460780055363 -0.35553610706466237668 0.38940405016166440566 0.26365084614447770184 -0.029575513945754115103 -0.26175104116498715268 -0.79725992751466501218 0.11997120706303145143 -0.48721976594869204069 0.30905258541617697254 0.52262139320703326906 -0.23621412355098098113 0.81771745941303108918 0.087015007848486758402 -0.79084338001668397222 -0.79570758626370163835 -0.92088827560557273699 -0.47280469959638171673 0.57720254264355586038 0.18558865771921495558 -0.80257512126059793456 0.6711684798763007942 -0.84139019767134304306;-0.74150375380375677103 0.17378812093065137967 0.72300194578927912126 0.67999590206573445883 0.18023734100892077614 0.43763824076254687068 0.42362978950707047554 -0.61728307855312214425 0.75185485113983485661 0.79361470370653319772 0.52789869627190200152 0.26723940581120914084 -0.30156559076704003708 -0.28715227134537135711 -0.9485489461778294773 -0.77279887841687222583 0.79508304303715471306 0.45971725851315586864 -0.74970747386044689353 -0.5639735861795166505 -0.27810189512770350229 -0.92958218596589414773 -0.3996324318479884119 0.57987304182782617445 0.26624625016256925347 0.96229963868761592138 -0.46196863760344780703 0.88124738298336346976 -0.48214197410418230261 0.77066733474394844006 -0.40380876528781717294 0.53719337941777389744 -0.18779544465600503389 -0.55801716901830644701 -0.17052364914387077577 -0.13152943008251247181 0.65298377571733290381 -0.79677041028182715721 0.540297252384977722 0.40470821817556235089 -0.80551402199076038713 0.45901276199779456055 0.24643048745557621926 -0.74725190822444731431 -0.25961383044231767236 -1.0309244595087074803 -0.69134512968590833282 0.52637065263970128637 -0.26191565858259330257 -0.32266287057687370599 0.12993841347076171 0.65669600152863338849 0.48283643966473521747 -0.37753142331762429285 -0.44453341603834128914 0.011628650157470299745 0.45925469572119542727 0.18309857202005216936 0.19791278489728802992 0.83306881239805907757 -0.90778895227566347437 0.63779123996748110503 0.36405261352953433018 -0.11476637879421257293 -0.76011997890244897835 0.31806340832514168326 0.73493487708676374925 -0.93893785034554011482 -0.57171671578995086893 0.10439572238913419344 -0.68057107683039208545 -0.10351093603831243439 -0.71138916477181990405 -0.4786805755210316593 1.0034506046619435793 -0.40546759390871078832 -0.77196935189706472613 0.74101826678471161003 -0.27101588972786433418 -0.53534026756390218349 0.74535993157727276071 0.1653908327739307127 0.41943948040306910929 -0.9063335735300552809 -0.6575644000667446587 0.048281918424877910689 0.01628549040558777139 0.90976179945729573895 -0.036640964250581109507 -0.11616958888538266026 -0.18564006128628254833 0.13563268552772811404 0.10349413236836499386 -0.39620639980543942427 -0.46572119265279438016 -0.69230433151660708546 -0.930500840254990913 0.86851285270893152646 -0.45657283939173731735 -0.2410530981994776778 0.14351877228809564735 -0.78984738680283372858 -0.8897317120468019036 -0.544875259051862737 0.84527266480662244241 0.65249174893961037203 -0.82944459506812129312 0.48841925483541220876 -0.55303398155195737651 -0.27109213504083068402 -0.45239422089866671017 0.44873984488450746611 -0.0052249343372120114412 -0.16265105974104329678 -0.81075452398386793629 0.65410298279688416923 0.32038513120590506045 -0.90745310780625754177 -0.78305024235760911644 -0.72261728740771269397 -0.76221611112084208806 -1.0271961244346179409 0.64420609203160295042 0.90521168547065722354 -0.16785846589365394088 0.11357887508786947139 0.62618083357082032769 0.37440892366460770679 0.17883228309718565696 -0.077691158166153240217 0.80154312245854242303 -0.089232417941551345208 0.36203005738817983783 -0.98813116677562573553 -0.012133070662841348789 0.39912388118157737793 -0.70946008183130193636 0.28777358450747969609 0.45055774389010211367 -0.60401123837733372568 -0.60810669921158455598 0.63189094507773591047 0.43325690939849226258 0.91425291614703652066 0.42482843575212320131 -0.94037287030836236301 -0.99506810362750064414 -0.20954060923561457219 -0.77946920654747886559 -0.64438130684282046712 0.46736065696404671677 0.49081388045241863827 -0.15440920814146855133 0.19844306619637477884 -0.18191156427663299211 0.45826353425518312479 0.56567352136290649511 0.0030912204308001711359 -0.94371995774333705675 0.76689746346308607094 0.3864052473274266486 -0.81336021813846060002 -0.64063210257082392474 -0.29457913500632487702 -0.12562771198301242448 0.25295854828582076124 -0.8305214073267289665 -0.17039361473387865109 -0.6259521052408814068 -0.29285116745247419257 -0.20179163635274749433 -0.42429698374868363153 0.27912788032978758102 0.77722312576986074539 0.51340932711084308337 -0.36257523610132563752 -0.87137686870457176092 -0.62264147792134216797 0.77243579819626007055 -0.98651852677875107034 -0.46784914787918807644 0.094347340918015346056 1.0075222450492917758 0.017008741250579419158 -0.6963606774377744113 -0.19626449551433028384 0.54621738282917031704 -1.007513533020929275 0.29356647098520821659 -0.4409167564367753589 -0.034009709661070128273 0.71376152398832815038 0.2848440587487161002 0.58261450013858417929 0.47198687928317129003 -0.056182474149955072273 -0.86646705220290953786 0.52040803534410040587 0.35794312233877256801 0.53135595944038227501 0.8370723607772774244 -0.087885913595514078556 0.77731726909100573586 -1.0108729687012489862 0.73783604960467574774 -0.48467503327583227879 0.26903517826917328071 -0.67301668512025347724 -0.92880989873220276554 -0.55875670366330998373 0.0025201367200342488818 -0.56188749980366825554 -0.22305023139567287105 -0.45576933900988686466 -0.76549539901426022492 -0.22626194335883456632 -0.40200611137109665272 -0.67770722145236528267 0.070774536355033168533 0.13714413194240118732 -0.32708522421885150022 -0.5263261502185379026 -0.93579803895763957744 -0.60933201562106442672 0.21878378402935233504 -0.6591640091373867083 -0.95624378557480971264 -0.49454263518485125362 -0.10132718306349119963 -0.57120142873259693861 0.15260849667796691498 0.620732734553279486 0.75625946652103981371 0.19040464596525796814 -0.031678234335259597421 -0.81493507085134297974 0.66614693537982716531 -0.30851530359843487572 0.31382259183456423512 -0.14980740363985320385 0.30374323023584087755 -0.18879909247445975096;0.32279365199502596528 -0.2544784508218084218 -0.50754131187742523856 -0.22380555354742495688 -0.34042977087530662539 0.70432667583358798957 0.24553672715568911067 -0.64649818264145808566 -0.81792265269940411798 0.11048410874296896167 0.63778472011989129076 0.028867214573507091191 -0.32423689568346031331 -0.42492810243725792629 0.48889778541449196991 -0.99894048575299321246 -0.12951515751784689612 -0.048431737223520614222 0.94886469429453801361 -0.30735700796454262784 0.021651824916820581329 -0.69556821213605080079 -0.82970464120765186067 0.13968273417509888268 -0.81487830864543775444 -0.1783511640844215318 -0.19040598670389174973 -0.26102967328401077696 -0.57644204738312510017 -0.19253124110728653262 -0.841306973146545789 0.051369742001512369578 0.036086175402792963762 -0.32160377222705927025 0.53123046045709498841 -0.18979580876300861103 -0.24925229018361783062 -0.15920423426291788194 0.15116653450321107521 -0.6904000694022555118 0.32037435271515291024 -0.93652100837154184099 0.54616139778916694691 0.22137630897344295899 -0.98547841046948791988 0.38732178760766367009 0.59393149857871319064 0.15596092058836374949 -0.99108553398806364942 0.71419285943111532333 -0.97089938563055333542 -0.50335137551023090285 -0.089184442229788718493 0.71563763899784726963 -0.55563222721801386328 0.6046143193555957307 0.71028861109600094359 0.41105170667941848262 -0.2726199914724719009 0.33138887162242092188 -0.66912694920015425293 -0.059193833058851133555 0.47900562156575460238 0.3876648340147350047 0.73502764544708742989 0.88514224000010199855 -0.28410314970410294189 -0.042235327276874803926 0.47734645822011467775 0.12661962576604160469 -0.76311965350181731882 -0.78837889842484132341 0.17440383184371624492 -0.59970030666140095033 -0.70907724928005744225 0.27589719963831871308 0.55554715235203888657 -0.13962006751059477527 -0.9280276714683536321 0.23513711900651959597 0.6393195846999779608 0.6546289570008750891 0.26537927509984932106 -0.14283396805637019189 -0.74459835022732889787 0.6567002952553865347 0.48395533814401842099 -0.91210879592555049733 0.3763300177259999435 -0.18073182587713659819 0.98788826938394480592 0.99374226350149097442 -0.28687619051823165517 -0.60253744836728551082 -0.24173039463422588136 0.58711520626768565201 -0.54991918027099273569 0.21711521890885346342 0.27007816460016342841 1.0014380133313074417 1.0192220900352837454 -0.010831715786771275306 -0.41705308755487091599 -0.15505076515893317923 -0.07024727551690038152 0.30531151813489720848 -0.29640824853685815432 -0.1008505628145616867 0.77931480453986390344 -0.91662934488731906413 -0.67745605635596983785 -0.39212915810251969262 0.05004001767856929711 -0.21052876495941058588 -0.067744012589317323392 -0.4899789889372409557 -0.56181124825272688028 -0.040884557435765432609 0.69873697832851555667 0.75951379786843242758 -0.82870175871082263352 -0.51666565306196210461 0.45026619830332514915 0.52956843796354591269 0.68337896092742855814 0.32359696533814857888 -0.81273226598781167507 -0.3080215127069582115 0.066255581466025767479 -0.056288053016355935054 0.37986400634366990214 0.7481043720524452878 0.97645321118888939171 0.38253354057352956241 -0.71575155485428854085 0.024397530374363721184 -0.69482934650999206294 -0.72685861367443271863 0.47266981683264447378 0.85686697262108935114 -0.59177386339766058221 -0.2972304387043571694 -0.20746677613174796528 -0.63917684438859123652 -0.15379863228980217293 0.22831080905658573954 -0.37982787706516363269 0.052501114302605664252 0.36132060650894837206 -0.25552749821264636454 -0.1029895381209360028 -0.75943452299702374209 -0.32844767513330086484 0.43042495778255585037 0.76451660837065571474 -0.21355245796348654164 0.85128113759472412436 0.90703016977888961669 0.76847422518705954531 0.21530176720837679305 0.91983449427249519559 -0.26748522954024078757 -0.065183470088342465587 -0.19962536851135487259 0.1844692387194225569 0.14677582238580766383 -0.47747881902866345927 0.99025085264223822179 -0.59245482940088289858 0.51611525666634205933 0.9996290666874565467 0.40102408746814610652 0.74260597407534945091 -0.43674545640159195825 0.91896133074024755061 -0.3021063621752940187 0.16998872488472618891 1.0148106333034492277 -0.021275365532338701841 0.077697994718346166665 -0.42319426890151495835 -0.463153150842531669 0.81497889436957149378 0.90419314510289228171 0.19004073674891763801 0.73738680452087723705 -0.1600527776544070635 -0.52008608765144048736 -0.10156585003558737945 -0.21777611503889629518 0.51437817275840747033 -0.39526108268047116523 -0.52041660356574326318 0.70192553637104615483 -0.66196566002530832229 0.74257687707811104172 -0.86533677198053493562 0.94962921917895293245 0.71943180622145663783 0.83188274570885001324 0.17768471071947045115 -0.85670254728385464293 0.00051016586389110972228 0.14611645802189832111 -0.75107249089746697113 -0.71229289684826535556 -0.79662070715725974424 0.56198349588190410486 0.27508987385516509017 0.89570643606473632214 -0.41147520282519184365 0.63699732759340643717 0.98870961024945691609 -0.25152372818916912678 0.25065587475001732676 0.23269627911381640661 -0.79498366969679845617 0.72299301901716250818 -0.73178864222154205166 -0.30001674318071314129 0.12670926002661214715 -0.75076779338678456543 0.64051343572704055873 -0.39047776435568165576 0.00254787116546086349 -0.88716610309758103803 -0.017748931804991392031 0.50281219588031467183 0.42817746935156653088 -0.45288612426503477293 -0.893605999783334215 0.018534516874651685292 -0.40989739828374938124 0.85193000174629684995 0.021384838007888415379 -0.84029023539251535002 0.62341946048480223475 -0.44839691204394871438 0.046280748485446429608 -0.6578240405574418137 -0.26649181141161998321 0.85634322641485549621;0.89329684434843037444 0.016131709222222508776 -0.84802944280557757128 -0.77208810636225977397 -0.79275567723897810701 0.14165172355850561003 0.077513439971410982854 0.27792062413674384347 0.64744534331968917051 0.57232020082464452049 0.019004570160986920119 0.26794325937802432325 0.90049057995917214381 0.53466233482385128184 -0.49481652818132398908 1.0104280465664867705 -0.69254779570109314957 -0.64300379829635712081 -0.0022151236529079501927 0.74011013350630383556 -0.25725803995373952571 -0.14044423014660650795 0.68173833206977718646 0.66648499822245554913 -0.50673157189025574976 -0.032774020402378992167 -0.50380318829668002678 0.24197189190130843905 -0.89679774090751263049 -0.288556692511843349 0.65841160795755349078 -0.91377515417858801161 0.57284945556344457618 0.96978639732056037825 1.0107174207463993643 0.24981112027025895173 0.79043355863177078291 0.64048111600799695342 0.65650576688323702967 0.6412841775915119058 -0.97522626063344131087 -0.67083238535474021269 -0.73046821788194027381 0.78535342838470567628 -0.72319168761295360426 -0.19097106162289861908 -0.75272882595566192876 0.27084085428672899365 0.48086204358037537565 0.95065402039909041587 0.24060699474080968208 0.18582282936617761093 -0.8929086067560909612 -0.11603642283244901268 -0.82636338063948200361 0.73471184765644470538 0.58875312031815307812 0.62803816421029190487 0.58261271490323374156 -0.20694234888552179297 0.21124916985097472177 -0.26859910114464730091 0.51225921590590928201 0.79586802441508752715 -0.40200798226930933854 -0.41061695943826737043 0.50534037750736660044 -0.091244340526976094874 -0.41636283969691278983 -0.31356952976363078323 0.44809994439563877178 -0.68669978425139699407 0.95250971204183798591 -0.14028307651100224707 -0.26376455530789916226 -0.59842459822432925165 -0.62818484820087538978 0.21261870630289203543 0.91372750789716405961 0.47150860363540514353 -0.5097418440992469435 0.78247418846122440694 0.28917962663727903028 -0.73991210298517573474 0.87306994105024560149 0.47322257285608559929 -0.58463782335525726896 0.77313618453895871507 0.42186055250855158949 -0.54740164991299689046 -0.80803705769982314688 0.86022794832436355605 0.57406112362572725427 -0.88924938275398202059 0.68326399595207987225 0.49769073727154161668 0.51992489810548170315 -0.31382095773044060838 0.93953617263951128002 0.38030450907044771602 -0.61782705438303753276 -0.83551380788752305229 -0.30737972031030597053 -0.9346549228135347942 0.79604450539807258824 -0.06187393380757088418 0.31228608744699898336 0.40691216417610620582 0.38875982528331382015 0.47845281040962345243 1.0021895647532585993 0.9622350466723192941 -0.84205013512141380083 -0.94983725074544878009 0.95830024444189554345 0.2578235381470203591 0.52444200979151900377 0.26101258554738487883 -0.7236017918954792405 -0.09234147782218259104 0.6441518959640816222 0.23289274603671294983 -0.3759222451477085003 -0.13764229072807687704 -0.10177860774070365824 -0.2035773682208913693 -0.23977940990832144474 -0.64616785606063786851 -0.61801392785992081969 -0.72969367733182088909 0.77455020426721876703 -0.84465152668844789563 -0.75379155523407992412 -0.75797437876343187746 -0.072706207205598907817 0.069912826878207573467 0.22714243356986377198 -0.15790677742918968196 0.69489539035954006607 0.061670147906150503403 -0.77341525908309971538 -0.10323617437532789376 0.11454449073710444573 0.8232615553698758859 0.98670106261616996601 -0.3013963468625537323 -0.66542685445455374005 0.91469499448491120575 -0.11790680835778567792 0.59122194677281281194 0.47187253945791540755 -0.32397652217947142672 0.47947520876802202094 1.0403663283704818188 -0.037164661210204549824 0.81297309819185048507 0.63109864475533694606 0.037814374381957983895 -0.40676664943622103943 -0.62849935370110465715 0.18856575105175321649 -0.94321400763854412741 -0.85192870393183117717 -0.79679959756382945368 1.0750396000768462912 0.53404426377089198041 -0.069825190001888456925 -0.97505195368686292667 0.68222702062730389283 0.98209472025492061675 0.55543478813442259678 -0.58848738328807403963 0.95569718840633477441 0.88199246013067578165 -0.99014214107005216192 -0.34494463543273978789 0.10815619340703049034 -0.16415740938776107738 -0.77239672581111695759 0.024421077192728311844 0.48523069102832433463 0.97565014853728215805 -0.49951203780937469823 0.7983647728871493543 -0.3135788045771323862 -0.35409021309203309036 -0.79351565340442664631 -0.39986437054505952204 0.26336848949623081761 -0.87713938138469771388 -0.7987255241373933945 0.81392313319489673074 0.27785438076344254332 -0.86645572739017540087 -0.14095613857823127701 -0.058004967825160978767 -0.33721301573406986529 0.093725012992306441784 0.63059666562998706318 0.18432878418034026602 -1.012848799745032391 -0.15242229232608148215 0.17290764449923712309 0.33015865427109963859 -0.59230374857859469095 0.56421847816015213706 0.29440753410518638589 0.11226639573444956166 1.0524460215322186674 0.4461187811799787184 -0.37282471326871374773 0.78992135699691357065 0.51825144705688896973 0.68861161486194588655 0.81650471449567851856 0.18039786536828020247 0.93215781591309421206 0.61237793255726657993 -0.74215773740894097621 -0.071720712514221546252 -0.47547882081775905139 0.1730307443199613493 0.087079726424442574495 0.5248334895368526043 0.23575991806516821692 -0.67331358067543167767 -0.55222370584335145338 0.16275943575331422442 -0.73827113976226299563 0.89730547436102792158 -0.62738793450375973659 -0.3972843805611864787 0.54317319241156192255 -0.13048266161433974553 -0.34014840688500858068 -0.70778710627475194261 -0.62592886838601269339 -0.74957995430405355286 -0.042924749514190022048 0.46505655346107316328 0.57646348626858778808 0.90524763232190430529;0.94441740515250971466 1.0300162106514829663 -0.060874556682125061102 0.22245551128674509456 0.96229577555197665095 0.40220153344825515518 0.17080021128466463254 -0.065251907230907776891 0.46260541342206140669 0.22130308686806163254 0.71508993333213888288 -0.42415228312953706657 0.31256462243727756167 -0.31252713477947380305 0.52304221514085180722 0.90487252893919190022 -0.076778848035794183824 0.12495176954690188909 0.88675979332085175244 0.40292303782931898626 -0.28744312308517799837 0.26766039942257824347 -0.1939110067946440974 -0.3650967856008189294 -0.2264333917189342571 0.57060678450558521835 0.26674350391777246205 -0.8711724846329935712 0.96837099324788922239 -0.0032635506618848828843 -0.80854434387185769584 -0.68919656673852836004 -0.430736747843868506 -0.5911500939697483803 0.10141019444914300962 -0.24023293515691948596 0.015711001746149096114 -0.83368041861741981613 -0.14742666096413961641 0.53404039205512399136 0.50947643317847979283 -0.036303546880840587008 0.62155346342431094797 0.54669995229407974957 0.049689648762551781591 -0.71534407163896318593 0.447977518375664574 0.22709111416291591357 0.16422531905233947458 -0.24963141457400092604 -0.2523650428732812645 -0.57464040021997930818 0.58344590710584265381 1.0089720699105382273 0.17598330406985659979 -0.70781760009212868479 0.49279397988033663003 -0.81900787820558540453 0.15340660326416027948 0.13510002690404177006 -0.93206880486454546375 -0.068249559991227740086 -0.29748952108505083425 -0.5093450654746254358 -0.70956589655472501743 0.55169904347031772929 -0.41533546395992337885 -0.33088244065858601894 0.79930145470876079461 0.93781074587206214588 0.77211021437612614715 0.61314068526922571589 -0.88763082048387964562 -0.074786626537845207752 0.71774996340730301547 -0.26653263627967005434 0.81503235332742718366 -0.41927732383996929588 0.2798524275188171706 0.22792768240200148022 0.11284428510365400455 0.95891227528228650812 0.58114701032574622719 -0.95378098541613254291 0.23305411343303011895 -0.35477029832794215736 -0.68334566630555793054 -0.4867230704095434346 0.036857763179350230831 0.75785928940956925892 0.036243598643358722333 -0.41868385903332933085 -0.32260351026670108787 0.11994691615970061449 -0.96990466269153763346 0.80425270905537493693 0.27992909639426405422 0.52490303098578217078 -0.78682723773399954048 0.098760227585290405461 -0.58165722828432331326 0.27247026571311783183 0.072212782339876102622 0.072837747798759303053 -0.77885010237913832043 0.35089250577867586722 0.144719678364035792 -0.26191149431044846718 -0.62462512475351983365 0.23596531826727767944 0.33015105167368596906 -0.22506702461903146939 -0.42381591079155561674 0.99072103567508951194 0.14666344826638288978 -0.10438600684249456363 0.92057106340944749867 0.22680108331378170949 0.25383712599675839483 0.71671109521963038969 0.34138448712242780436 -0.081586304887765151439 -0.47921890952962520327 -0.014686695445022240891 0.052414873778141489458 -0.033785166684608312904 -0.67952882834558059333 -0.45240030135720621374 -0.47267088360275888448 -0.80918456142526729025 -0.4171909812924294858 0.67286847389077431014 0.59477879341327144491 0.48441515687269848245 0.46923802858085866818 -0.42528995732176794187 -0.5576648348632586849 0.23257396078439213083 0.5091326405909991637 0.81033048228680115699 0.16539155524742207848 -0.21043222336857372867 -0.28527553022841228847 -0.055761276783872035234 0.7668025511742568856 -0.78952812428003105172 -0.71944949754869802483 -0.6473453239442628071 -0.18423722955972551829 -0.23480016648896820386 -0.87762556602620345192 -0.20018906571714173426 -0.18745293359302939162 0.22039411638602024457 -0.98742908245039873183 0.13544056598176545947 0.39496685858096525212 0.38378040913429967151 0.94447993019242870716 0.7681819101413763784 -0.73195202375986057053 -0.96384099737312378675 0.0012719997396198662234 0.27730327147863192971 -0.78532621748769837478 0.15280565654556915733 0.38175209850428465375 0.9021808457340311227 0.37018418441326889079 0.61323974594300278973 0.14037463091588450737 -0.26390149805574308894 0.21996471537459541534 -0.09213992114697187874 0.95019674469651627113 -0.61888197969605363014 0.47634742223807641226 -0.39241299208262880871 0.6968368231372198407 -0.013508005488039986908 -0.18315859808157869404 0.022699555087552551746 -0.75957945109801172645 -0.61507043918050097187 0.59099447819700601237 -0.51612357346554593729 -0.81261544134584617893 -0.22867523012474247346 -0.030424627072075431655 0.062656487775259145367 0.11970061462120140661 -0.10148797432387750284 -0.25061170983817604441 -0.38134540255305532375 -0.80029941266499660113 0.61275411289397929693 0.80249702191547744867 0.43142733931657378799 -0.87638713313090910173 0.21049700297416423789 -0.6696795260645832526 -0.53005140791382743259 0.33171885355537578111 0.13290094287135525986 -0.3915896130204808423 0.012165921059882489272 -0.40548627391835884159 0.32640967340750781656 -0.11253534589063142468 0.62496164038580082067 -0.62948410918952846238 0.47329034546073944778 -0.17870152912187803329 0.0033170036791744499788 0.39926230548862540193 0.71586862173468812642 -0.31529547687536146894 0.27177954198892667614 0.8047132795729977639 0.95834697515665823175 -0.191774642263233569 -0.21018640347718109407 0.39345040600873576464 0.6596592412830457608 -0.91663766988491124366 -0.85804093662119040875 0.950200161744941596 -0.57691020290474281929 -0.71921274773770249578 -0.12938247835816354958 -0.89154682297498322185 -0.17518104648924476274 0.79090698268741554955 0.18326271812658445626 -0.47228313183898390504 0.68005100592500111745 -0.61896406512624935203 -0.26505134048720502271 -0.1813873089985764131 0.38460226628232302426 0.026384513755827343484 0.14729372734410656198;-0.61202225127233467195 -0.18034258325666810419 0.51787333123936984958 0.0079163374342992448573 -0.021364878246051207528 -0.48636914448019441526 0.68798424879418873523 0.32552519633597859494 -0.33979500098661014063 -0.64686916104142089257 0.33846423607085945884 0.70095095692858688796 0.66796396410941594191 0.41082667734241201662 0.00065066397200094761282 -0.36613555597792174501 0.36456281380682370452 -0.28943613049346272881 0.23640459572990457637 0.3296637914197861341 0.04878096119947646081 0.8620274987611583617 0.990120581079262152 0.82803965689739389422 0.5272629264129755633 0.73038664313313117482 0.1989919800540367878 -0.83522999777762929607 -0.8224634258914199636 0.69171149286098199127 -0.16984330699772404172 0.86888616636497784107 0.11010657312402598318 -0.60634224171948580828 -0.2320875623262042553 0.62699435306313699989 1.0009999831046643148 0.75689243346815326952 0.94430531589842803264 0.40155120812701056154 0.011505307627226129749 -0.38123006526741404221 -0.49438765963934122594 0.24918853257723808103 0.78997162574427293169 0.23493340660434780531 -0.066684169067440748901 0.34707921868130658938 1.022150814151515652 -0.89615180828658347334 0.16217278235925997043 -0.67674421538324924796 0.76749060921838729854 0.2092916281936053613 -0.83500210486176074109 -0.86232091792472298497 0.16905246227068521092 0.93995884983138822122 0.92328919435335077281 -0.62311272903434600234 0.11374631376147019413 -0.35898384565777297084 0.07672236641356038056 0.72447463601549055845 0.01641523263749534306 0.37768087386273280215 0.37934187349560194447 0.14071657926332167832 0.56257871993311270309 -0.29047048745118930757 0.52049027436174122307 0.15506482892538922536 0.29167870918275573544 -0.28776921248645798146 0.56471719020767463526 0.79914172219206691672 0.66423587352147983598 -0.92663092011070202769 -0.59349413903865022579 0.75364255225717735609 0.85184714313042886324 -0.92156873376261094766 0.80123325872920059254 -0.62169935972711520833 -0.54152043787815784537 0.055460225538195108419 0.80261231947398981035 -0.3067032924010587025 -0.92130275599219435545 0.38105494227856129275 0.39795756181467040191 0.53199352610253092255 0.84576009102905214121 0.66151707982181373602 0.70814985267942853753 0.32576065023307970714 -0.7818201421922713612 0.45911089233821722466 -0.86207882321248907598 0.8770881530197209841 -0.50895252201154683735 0.59702053636947360893 -0.71766412823768888085 -0.80653277523925526182 -0.28520315769912585324 -0.085741988737158464362 0.82592030936280280695 -0.66675292213283543497 0.78582202221490848881 0.49096744577620338168 0.39626441338203233222 0.7348019717803706552 -0.025849870173206872942 0.59235011468953902014 0.27238314740318109175 -0.82500793185589671452 -0.51925037040038901637 0.90266234029029690511 0.1953345915014452483 -0.84726583654911025167 -0.52352623860413538548 0.75147227964462526284 0.83631327738806382488 -0.73910978859495213289 0.67046234160131867874 -0.51018833191778489855 -0.055670331211845315578 0.29165255461222877598 -0.61806944575016853349 -0.30055989380888947782 -0.04988166390059600025 -0.089490637519493543284 -0.42760092258428644696 -0.96701381316611345618 0.90655193155751423451 -0.87234906720026161864 0.71586920534262676874 -0.28985137759725132511 0.61761827134901692293 0.090218969686943262243 -0.97658946266830071181 0.48148590201410773615 -0.812960501248007672 0.91586321490749778018 0.60949918737649433353 0.43959816765619280643 -0.28008894231166187039 0.56882113665913869305 0.21801606065104187082 0.65565090178952989408 0.4875828176044716411 0.46538430181251277951 -0.096027990865557730227 0.70633763720007114451 -0.45374526271870302407 -0.87522305668177657889 -0.054190713938827246576 -0.29640878521590530159 -0.62281249148503747826 0.42241458740560472451 0.8873772203231891087 -0.24710451077814254983 -0.78101728419112970148 -0.4549292398031806739 -0.58673463991642405002 0.26719748246339580788 0.3093318234550802015 0.91760369031439537046 0.77967333747783895692 -0.88976982951303740244 0.1706155641208912388 0.33096293519745534351 0.75267778195205403691 0.21703516967070426991 0.042877321861848824436 0.71483201774560578556 -0.35156129362454985321 -0.47659709632017271952 0.66776597487059530245 0.47486112342041814083 0.74212079239373962558 0.41660471701855372739 0.33930504360190300028 0.68064204030277541957 -0.16248951070956843545 0.62488729566807788007 0.48003013799734056688 -0.57784717012746900089 -0.14992729176354577247 -0.1250518434977092308 0.85251753660340345853 0.54664591284790320369 -0.64534094460589952469 0.43097345124131691829 -0.47466114226480754512 0.78465653236607957322 1.0245515229136139546 -0.45604036804582176456 -0.18918492418061463867 -0.19773988936687053597 -0.54231705750806691313 -0.89966282772572236937 -0.78771669925548593039 0.36729076839932295329 -0.30625309368147884959 0.83656201153354647904 0.19273350972333702646 -0.66597829678802911157 0.055747004653725791556 0.91869734951479875562 -0.15257251990280887299 -0.80017838923566186882 -0.37463246404989813954 -0.92119037030277728384 0.45939925009709042802 -0.22469970098806918424 -0.11043671684971437252 0.75962216527675785471 0.4568454288383366757 0.27763056167611249725 -0.031976531231331824234 -0.49406634821677830605 0.16868588066793480107 0.37206462541530221921 0.067371094042215917685 -0.29775728861781625145 0.32979477209546115279 -0.76594244482849649369 -0.38588220090365621395 0.27492946086715575049 -0.06758315264748059048 -0.70559240226773445315 -0.94256358059317757458 -0.549056022235632879 -0.30196333554948212585 0.44716411831714086844 0.48057805917418777719 0.57374543601312821828 -0.5076248551399789033 0.35229897857916986359 -0.082671803765582765888 0.049777184200759765076;-0.27647225908967465458 -0.72478525616384414931 0.24967308613128080808 -0.11101072923117354108 -0.93687063882333720954 -0.40922036761351460177 0.089010033574345684415 0.64473974791699673048 -0.95557939366412092408 0.8297655230560803119 -0.41290446491049875855 0.61602013392011667481 0.54915666612743418984 0.62791177637190731531 0.48061732873957102585 0.55115902075731126875 -0.76614957358928104103 0.70813351983852346194 0.68224397793833102543 -0.95773293996114083892 -0.61411096498255857146 0.070701400086850607618 0.8525718703210424243 0.63006338882307422189 0.46446003676511704583 -0.0060703100757946845331 0.78849770103067362559 -0.76314192111527479057 -0.27458862018878921196 -0.29902874200932311188 0.28928268210177859876 -0.93027338607221898847 -0.53711302777635383521 -0.91596867006631077501 -0.3734059701168250256 0.64619623451471974729 -0.75994766727822438135 0.14836815509745135411 0.87523216653875890447 -0.7518762922867253673 0.28125003581710950051 -0.98221725491461375768 0.13064452322491806879 -0.54848578763728816909 0.68924455459419431413 0.39243562776723056595 -0.88650202115345477782 -0.70137835293440831119 -0.4977618813483364324 -0.054993337012640204631 0.55735894639262684169 -0.87557269465612819204 0.22654844855753628052 -0.70977305205547502887 -0.47746468292588284399 0.42407389476440121578 -0.78500218966709056634 0.51912272790465441297 0.31342136785704388657 -0.12829009536440291739 0.83738714185182538952 0.7911768751146576184 0.57300681333752245816 0.92849193912676841745 -0.72930312475123737492 -0.62805092381517169109 0.89399080241994388629 -0.043048317968733054717 0.72014279286574423011 -0.49309164535390243023 -0.53258492261068823836 0.85769612606886502792 0.93503624774885674142 0.76230468586288280264 0.67098105018079479134 -0.42023135351440421559 -0.96413899587310303296 0.83177213857709275668 0.32311873621895642605 -0.33398755178750655359 -0.52950477208496415926 0.4930947979487376176 -0.82424930216513681014 0.84467687469196361949 -0.67395844680708061336 0.69148748379278424103 0.26661128053707172647 0.94488384928714974631 -0.11891393907343190961 -0.75538604977439938182 0.31210376640625409062 -0.86278727829987023057 1.019109085079926702 -0.87897279833238972646 -0.098528015114853678691 -0.53716694814286225501 -0.97173117715853185583 0.84245612321396645683 0.30877697569302609004 -0.86343379022056454541 -0.81999260796024975306 0.17628638323387124665 -0.69566354817937858801 0.95613846693020632106 -0.25795869606947680053 -0.64833165377960533249 -0.0091109605643577822737 -0.062364890516735813075 0.87698772570753236177 0.38024395424835460977 0.82938559388041388498 0.78177871178633673299 0.55801650864024987531 -0.24870512770131333879 0.20333528409777029688 -0.79613365661101165305 -0.1733376792770352226 -0.6192350165812845475 0.36535990088315067892 0.8789253222112015651 0.49770780820316357085 -0.4659524881284221598 -0.65185845446749923759 0.19737572520411023058 0.86474728055765026635 0.85848370340100277343 -0.049266473330007873321 0.93172785679861047647 0.22471503089273708875 -0.22510487747712218387 0.66104190216699387772 0.12426961851049665719 -0.67029389670437877768 0.37184540915193892152 -0.30485147229934500546 0.10788024168715334983 -0.13340184731546853025 -0.24592052100151023941 0.48241322049268292593 -0.93372392560795913763 -1.0067008768063878676 -0.085913416880739210124 0.89432512004925479587 0.12939319278876032504 0.70673927811648407094 -0.60417502561915370496 -0.11938027141639330486 0.076151667182330018413 -0.43936663151226279522 -0.95293381391242115708 0.75663260838557788723 0.23518012611293234726 0.26888132347777154996 -0.11698576670554518275 0.95397527985198615763 0.62006668753492011348 -0.89848787683396125203 0.58609754482329357028 -0.55210155079413947288 -0.75777671218031217304 -0.6388018834621463915 -1.0000840781012705349 0.2156831755351291402 0.074096846550997449987 0.017511853579598061353 -0.49726282712504282779 -0.24332961280168094453 0.41885566004789598349 -0.75695759416629582184 0.032418388475731987897 0.0020438571354481531797 -0.26848871281985919879 -0.31156579965184455494 0.35893625771963683091 -0.76667824562332687055 0.83195560947089863824 -0.58405698241955639194 -0.13397162868387330059 0.87382409078558342941 -0.24747306301297050668 -0.028047458632802526463 0.53477893469636550439 -0.17011749199659778609 -0.29885802783139236993 -0.93219983596613775756 0.32743707246089148732 0.29808507609550999318 0.29200313842292197064 0.39193128227287005183 0.079826989803115908084 -0.53905969314276513948 0.77511144684233923563 -0.2686827947896066604 -0.025430509681694621338 -0.47339865954284898741 0.96662920793169215816 0.22029000469281762031 0.82597401391479818855 -0.59478116421770366173 -0.26377409624429876134 -0.11432932967846350103 -0.85351826217631487914 0.86870889743735602018 0.52567915151282651465 0.61123397482939034742 0.66687455926046323995 0.58410894782650335522 0.6970740849683285667 0.33974240642723607664 -0.46703213959541722833 -0.92463809557302945041 -0.0078841802279571854273 0.85931648264476312438 -0.85058682063962343101 -0.064723246065699638341 -0.31604027037784820919 0.91457674833842206308 0.02669277767968731771 -0.99509661426613915669 0.57746883209910249146 -0.1107824207656574883 0.37441441948349141189 0.058444006830152724075 0.3869263471778773833 -0.64589454300957260813 -0.36235476825947987578 -0.17316706728524972059 -0.63868143316908576601 -0.866060520881960616 -0.72513399418927992901 -0.59454670857540692364 0.43637122616587536994 0.626969080565193293 -0.86153718920699073891 -0.82622565359254973583 0.48958542671050525596 -0.29005174157666635537 -0.30173140945316984096 0.59552091969446629971 -0.3199020804788925143 -0.36596385059110447813 0.18188100088985620362;0.48241213310683961346 -0.78051941339504904427 0.24965829193243296857 -0.66771327440032712808 0.45177685922803428875 -0.15502843608672930986 0.93304210932189202143 -0.7667231295242897815 0.8175626233788169106 -0.20429484878726481001 0.27452871488480096174 1.0253980850013661996 -0.80690411998488364986 -0.58230994259774682131 -0.81814236805736273439 -0.060719048374167645943 -0.84105668973093616891 -0.17312081894777872626 0.55425600935325058938 0.56950531585245689481 0.059784069134472470064 0.95184718429215675606 0.22677279511393680367 -0.74284689545377935449 -0.51147911653111366448 0.061802107454785905338 -0.91816427773680919788 0.87985618845643820407 -0.56681140602664115136 -0.16517563127625836672 -0.78493291292012801197 0.78957150484810068036 -0.51623188286882126796 -0.14953720747927959356 0.2747513811634011982 -0.0081519428167363249677 -0.94562137269684576335 0.016911512276915559999 -0.55990501572072448599 -0.44297533237146813345 0.60794760746347320524 0.070733636422172826985 -0.91161772373515348455 -0.96593103772815769315 0.6780392413142593 0.16259394244441924271 1.0072781999424698096 -0.22006065804594984736 0.76620245253510854688 0.28026568833593007435 -0.91752916989152810689 -0.12238275436087127368 -0.3465620455516195686 -0.77021040979465160703 -0.37399028823653301945 -0.21489820531716846697 -0.48865083773434658809 0.50355710861636548969 0.60010296572818777605 -0.59413967019591207297 -0.61090074570237773433 0.19121342087145298816 0.07371548972019666135 0.69204569393458903459 0.151792369120984455 0.89543759973336045643 0.52844668492634261359 0.16810047822872198342 0.61638985006550917056 0.076381418708882903301 0.98361315916999403353 0.414823096399898672 0.2965169305486445861 0.56920325265792437452 -0.41209342644886026719 -0.89579090743967193511 -0.85699582848162370041 0.2190448536436356286 0.12605382686235627743 -0.10028988234128916046 0.30769931834588382102 0.058560782208035636054 0.23729779012241716818 0.29812167127418753854 -1.0019159490979905325 -0.22874879064509678894 -0.47647747819952257498 0.86819564932153148185 0.57590734357563000412 0.23883782524491048438 -0.77315641251059430417 0.2854081037529473952 0.642025833107954913 -0.92934801932406407854 0.88147007517122333287 0.59772771274106928363 0.081902088924721505592 0.22002856334660819693 0.2234606908988828744 -0.045405775113457176595 0.53929972877898157968 0.72266053305987187905 -0.35533823517347784549 -0.78215725683900561016 0.84949968647358164997 -0.93179898158062179903 0.40179357748838301356 -0.64096315228573708112 0.4304220978894826577 -0.4063814221678538896 -0.88444944974450856456 0.64878060978538276693 -0.78695236009346714035 -0.25890850185964287 -0.86499710035583998735 -0.23263175887648909756 0.31739123026825416529 -0.29736831283469217224 -0.62991263912372186251 0.43301988942563024443 0.37345353881589077316 0.62989402146206940891 -0.36101853486929158521 0.36932922806518408976 -0.58328780578079819641 0.20204920851068014498 0.52641988819227258922 0.062721759985179703634 0.43635029892327220624 0.32547366151566786696 -0.69053138266697955405 0.64552826157931442186 -0.24305238331172659971 0.066832548492531188011 -0.31050275467023924492 0.79949247592928374129 -0.31824153537931371138 0.52746653454515690651 -0.31115927634388174106 0.3235775568087230214 -0.74376180004557668202 -0.71078302047451846768 -0.35708112057406771189 0.50686627939343054106 -0.79595063794748210917 -0.50788231818139628615 -0.00060551287212099954866 -0.92259048439884694393 -0.040051235090071281297 -0.56280006951555872075 -0.78418005700701554073 0.59872314472928855889 -0.83855855676167889712 0.15656508069136043648 -0.43004475373443534769 -0.40477615430528085527 0.76281971808794735157 -0.32154416023756327014 0.9102575487573323354 0.72646620015306284657 0.14002275678439599083 0.10966898103172188772 0.44289675501136499536 0.72840278442271522152 0.73323284687254164371 0.24031617612068179035 0.84823575830626163352 -0.88686065006005554423 -0.035451256037310210911 0.043138055526131549589 0.40214698201034515535 0.57591727514682933275 -0.029673720042071333181 -0.17253826472004663017 -0.4651387909652638375 0.87241267314783854658 0.50746007036303941717 -0.37547065694383402468 -0.26208766164826996503 0.47817471801810457199 -0.36002087581919822723 0.36476497105209326755 0.099840910484314829287 -0.051416225788930819407 0.18347316327348953124 0.075161865764293664394 0.32202403947567698195 -0.11201506755556600581 -0.7709434126581835578 -0.85320378664703711014 -0.47130674906615127595 0.45410955699736216262 -0.63169634430345911191 0.9153521580655420431 -0.38099125648617304662 0.69797554597015010192 1.0070218714474843402 0.8108179412803442343 -0.11572780261733782436 -0.78385913633100534614 0.27443424450850395502 0.77034285888333720038 0.24425034963384842368 0.57591176581496872355 -0.67141611544478163598 -0.45759465277752386925 0.95779669979958392823 0.5106084112142370568 0.50646797133746546127 0.59804390082058556111 -0.94745339644410153657 0.21155442013280681413 0.53140810961566853354 -0.14174386131835214897 0.07779995255482294314 0.83943533481312748723 -0.14002368176136040234 -0.57673634294533704381 -0.25015870619956970256 0.85260602805774865498 -0.67939154024599290871 -0.062318440136809781504 -0.65786049608206098593 -0.021459436298921934216 0.99903659958906831928 -0.34778713243046388559 -0.098208122827032465207 0.01529233532222828984 0.52031062420083007414 0.82686298158321314133 -0.087437265226876656476 -0.78405453827500282138 -0.79272092653752757041 0.040572789205629157527 -0.28336409216105468145 0.97096839116710154105 -0.19187637452643638292 0.80296717915533299958 -0.25500455076883937755 0.61396670919647833298 -0.3737026380928084035 1.1330819329451082833;-0.19385988989984748176 -0.58356672783066276811 -0.070452934403516298545 -0.33307405464527817252 -0.84217909416995007099 0.12622073730719762796 -0.0056703771272591267302 -0.087360811893039361231 -0.4588219546686587158 -0.56991304843408074898 0.86807252103399190624 0.48057461793115352489 0.5556958475382527407 -0.6990182913354523464 -0.28774077579974116636 -0.53388986891701195603 -0.014572441621057691599 -0.075797974137406937123 0.16288312274903862797 -0.703126916557237025 -0.96432475923441651755 0.41933661331427535268 0.32070394632045240435 0.22732407885883171295 0.80602168369003823756 0.65828957334155768777 -0.62096058195390890777 -0.48524503565256044135 0.17460185900829033878 -0.059111929240394281426 0.20426245658418748508 -0.43758217413035616072 0.72911735188325410562 -0.92708468162223167663 0.73462616421943183198 0.11103767113124848875 -0.71646380363374284617 0.82451575129991561131 -0.17796157718494184929 -0.75605321204716002814 0.89491633429993167059 0.57828692994313102282 0.79831644119908418133 -0.4073487223132403745 0.49257237383255630947 -0.24265426774501758223 0.91563550189796627521 -0.015166686468625763598 0.028464843494108330729 -0.051258914293037506626 0.98441924056131568932 -0.35725709262712523895 0.90689364979196229744 0.57719166068993155161 -0.97356111327414696088 0.77134682703983914465 0.94013392258516770283 -0.15439795124390445769 0.77528594792812699499 0.035571933565355866314 -0.70764485555252631954 0.99556609348085078892 0.579572468100243543 -0.94414207263660121505 -0.15491644840314289233 0.9698762492037408256 0.13216204917701537824 -0.3751483581969214387 -0.80172592283508137267 0.28317345297856971742 -0.93286340918532706379 -0.66736267351220335264 -0.24567789444663909459 0.65476116825732566529 0.92238763586716243648 -0.049916242470430284561 -0.25677461745676827265 0.2728565750138504109 -0.54049523183882730581 0.98378594774778749255 0.3218718351907444708 -0.93749893558709251895 -0.19057436363606231056 -0.90104644802746203247 -0.89631750152809752663 0.58535607308140469307 0.17893559891523411198 0.28951439332045897368 0.77663935795078742341 -0.58713720935488522557 0.82940972856590511331 0.19331110996460851292 0.09754278589942677602 -0.76448196699152004552 -0.87615851911532183216 -0.26767650619132155043 -0.24108402314134155797 -0.91555165017438588926 -0.25891551891991915202 -0.96708995203729619661 -0.012293024444963112848 -0.095331225198018634814 0.24185221633389766827 -0.70834154291392059655 0.36313283322797879071 -0.044926989144349407934 -0.69062402169379455419 0.33348806997499558236 -0.31233917158500840161 -0.095940264395689284216 -0.249338035353737969 0.11143971589583130666 -0.58243347703526671122 -0.51515097352791106022 0.29147460821847587242 -0.38872029784637573968 0.18499151105220185132 -0.15434417633937574932 0.60608492698294191836 -0.89998565866661217605 -0.13435575407358202327 -0.42683814144979620453 0.79533397387003046397 0.67118237919258938451 -0.10328729731694376304 -0.9580780222785116873 -0.18810472733726757433 0.83631710371139611482 -0.17507638982239639991 -0.22488456238270723708 0.66122028279705469256 -0.75313182499699904415 0.62561858871984288299 -0.9001521050560298276 0.36890328869301963755 -0.12433105436699794233 0.71470699990645980559 -0.93831443799596037092 -0.35720255420712032635 0.17170540866266434388 0.0066667547852059857311 0.37294962831105310519 -0.76612049992439279489 0.20913682888045970198 -0.65027678535169264329 -0.21936696886798814909 0.49768423977233466893 -0.061857567550219233476 -0.14541427439974979885 0.66118380536538368109 -0.93353191549629832569 0.69341126890478010925 -0.23459825618957638738 -0.27764007860455935939 -0.46195128639952887095 -0.12848797319057958521 -0.61555497320334684463 -0.89884778117475894188 0.3742813711471856819 0.57344188594033485007 0.041925654097281932209 0.80447680765463480679 -0.67232323840080632227 -0.64265391378327452188 -0.70973180896707099841 -0.21343830795540844059 -0.45858048133015422154 -0.41061208871119070363 0.2921773569592398534 -0.33782340751427397674 -0.085662379389920745298 -0.095971233248065473953 0.73200329266470787193 0.27942418374973904127 -0.55499112828751517856 0.201735613081783699 -0.56437716602187082415 0.81444602689133727136 0.051981117634839181518 0.82719731990275358058 0.39858849426040748876 0.80381377996371961014 -0.39517643541269498186 0.37740458593753561933 -0.78404874148575631754 -0.091141434101148152691 0.09988014454861635083 -0.85854119395783967672 0.60386298006637928459 -0.28506284377028046073 -0.68403130518056598497 -0.7538270087682940046 -0.8654220845401182638 -0.74274825851820514 0.64653457465891206457 0.31364808556778023263 -0.33091179793225311556 -0.71438508929391708602 -0.0012089532223786272555 -0.54552158370246217611 -0.43638051075326983463 -0.24204108636648286046 -0.72605456696832715302 0.41624319335023146627 -0.35790072681657947307 0.59767066764729936956 -0.059864807170460047903 0.69665455949864263374 -0.52203714644783272281 -0.075317952000307913929 0.34605084462380453214 0.015196107681517608337 0.88186019234088508512 0.82513920651929473227 0.96333760529226275526 -0.095990996500620318077 0.92612176860513317767 0.61032014853607885474 -0.17273491531794768483 -0.43419819794049718809 0.057891244023794731499 -0.74179410156552683109 0.088687252632607960212 -0.46286624021927846862 0.27832467275151356878 0.55284875730376303871 -0.90432041622964431937 0.18536722059477150903 0.60157256175180795488 -0.20821194757588176727 0.34755093385163521313 -0.67114743936839593719 -0.19230954638552461011 -0.19737432618848216315 -0.31467947169544574493 0.02740239737712941645 0.46595330458550371366 0.86854387206667127419 -0.35349261543314958178 -0.79393279312253506319 -0.22962712623404346601 -0.74112464040975001289;0.97319756473607932357 0.35766787313641124069 0.37001849636471523253 -0.89045507301737159001 -0.63631236521829770414 -0.87694058568147870147 0.15610793362753389024 0.0052686518734143461193 -0.94456438972657563724 0.39822044970657993757 -0.39864545246283622504 -0.89847500228854837445 -0.3375928403537166167 -0.018169378337709766319 0.64218325496478423364 -0.53663576539818613753 0.42856135578772475148 -0.90652376553454550034 -0.7865986975928834779 0.20645957262134820298 0.21105378366846069826 -0.80930287712889759089 0.77421733777951595723 -0.56714178574403317779 -0.29061517839248118822 -0.11703143852366140742 -0.55560008792632620267 0.14573944938997301923 -0.46846484184671893791 0.062519795177996773106 -0.030268871458040785133 0.51621549202656225042 -0.30121708520941686826 -0.54745804236299899781 -0.3969862392334600476 0.10813272252518199568 -0.32633643915624743759 0.60556039173530862296 -0.93971699729369673193 -0.51001918764282427876 0.16458812339546849413 -0.43171199322109710117 0.75930767456867676035 -0.81376904690184692637 0.25035812002453955438 0.29809434919230953787 0.67701131793141366977 -0.85741303375308686174 0.31835385578896263636 0.60020544848967039009 -0.25874895131978037366 0.90716332692256840264 -0.29725750808508843992 -0.67812776065925539637 0.84617637469362350089 