function [y1,xf1] = TDNN_ctrl(x1,xi1)
%TDNN_CTRL neural network simulation function.
%
% Generated by Neural Network Toolbox function genFunction, 31-Oct-2018 10:31:35.
% 
% [y1,xf1] = TDNN_ctrl(x1,xi1) takes these arguments:
%   x1 = 15xTS matrix, input #1
%   xi1 = 15x21 matrix, initial 21 delay states for input #1.
% and returns:
%   y1 = 6xTS matrix, output #1
%   xf1 = 15x21 matrix, final 21 delay states for input #1.
% where TS is the number of timesteps.

% ===== NEURAL NETWORK CONSTANTS =====

% Input 1
x1_step1.xoffset = [290.148989484803;290.149812076076;290.149985199722;290.1496250909;290.149954030937;290.149986786476;-4.35967012890615e-05;255.648834228516;260.740386962891;-4.92016442876775e-05;4.81576826132368e-05;-3.03787765005836e-05;-4.05440659960732e-05;265.549987792969;290.149993896484];
x1_step1.gain = [0.657735691473121;0.657748976769077;0.657749258920926;0.65774680336867;0.657748505638862;0.657750275088213;0.00708878066086676;0.0927153067403077;0.0987566511103644;0.00678315020576719;0.00892541420234709;0.00263664489881638;0.00440082527254804;0.0966183005109848;0.657741022501455];
x1_step1.ymin = -1;

% Layer 1
b1 = [1.3917453067788123633;-1.3470792447844643913;1.2919867917197638274;1.2419857119994957007;1.1730175495690609022;-1.1293818257727301635;-1.0677962905115443437;1.0113869157414627775;0.92452739481952628253;-0.85762450405706580625;0.81041690124014187369;-0.71477165847175505586;-0.70602811753524352678;-0.67878009457813348604;-0.59625590550218332542;-0.52212261004899329642;-0.42103421127184753603;-0.42740557982084687039;-0.35127624735798440581;-0.27549641156257559382;-0.22656473578233951582;-0.14337909704188711579;0.072156431419270694594;-0.014748033168019503494;-0.048389208743558669024;0.11633609622728431632;-0.14753188667675931622;0.21526153092811012302;0.26046516918041845434;0.34652111360404691531;0.40422209749710746873;0.43916676521452746584;-0.51740703064384041543;0.58376747383227223231;0.66846791221913615111;0.70623030436548450695;-0.75257236614145084364;-0.80311519432578082345;-0.90024851208472134179;-0.94976538159510792703;1.0212933107985222581;1.0689806274489177529;1.1098471652598820292;-1.1751438143643002654;1.2465209428738222019;-1.2760160923486201234;-1.3619841847728952899;-1.4198278243344861771];
IW1_1 = [-0.084316335889317875485 0.040447167617144452745 0.10755809073340334703 0.034037198732933676704 0.031570614632038307423 0.098599790344179871759 -0.085631893073566237029 0.10138850087745174267 -0.012391962762607216381 0.078863929648055011712 0.075900395926080055364 0.019809289472332111681 -0.085444393422456951792 0.12811862142636612494 -0.079462003716099988138 0.020781266149385663189 -0.038985720647360319613 -0.041984165688476383915 0.12795730927043685865 0.13094722039766715227 -0.094483130520808727981 0.05607628800373582606 0.030254534006782286132 0.072741736589160235771 0.075007814404846620548 -0.06884770166789935808 0.0129310505819918483 -0.062763754876577565467 -0.050529628086669560461 -0.017690323202924417706 0.037386221498818358877 0.092513269404349757208 0.060110758440463755992 -0.029758426672105278699 0.096646810073322084178 -0.025401859488181136731 0.13580008922696293339 -0.055233212644992715767 0.038232616824493387275 0.084836919606102581537 0.10899144531749870024 0.03471177146796423918 0.090221792804673489607 -0.027891145266254406543 0.0043277461856307741436 0.12077802111900334814 0.074844721555652721223 0.076291667667577361955 -0.005719085120955901165 0.072870988771497488545 -0.078436947883801524939 -0.067124793117020339905 -0.11610165346494379091 0.029036839267256982222 -0.090872917342591175149 -0.020390865032674388574 -0.11654901800478192908 -0.00043732846461292431686 -0.071864635696035808476 0.083281651441670240255 -0.0050170619902473474055 -0.050853668326220943796 0.028515366475892037906 -0.086004534618372374677 -0.07007988084189352429 0.051696392628164049288 -0.041564255791260863726 -0.044569629867725661654 -0.10058764318003989013 -0.067705381533744432576 0.13940714964264999676 0.035273054456118731192 0.13561599993729583913 -0.068441896389039871829 -0.12079629896222682239 -0.0797285300015901921 -0.066282745983150120894 0.044915093801725126943 0.042269370215584814443 -0.078938210678702366851 -0.015967458516951044817 0.051259119645936927767 -0.045289644657155771201 -0.11703233411569123612 -0.039986896948798027196 0.10193412512884565679 -0.039152813774978985351 -0.013714401631896168399 0.088660453939548564128 -0.038579124185553613502 0.037943942935780558545 -0.02262919023668841581 -0.0067312809735182790871 -0.038553964103404184116 -0.10811217209770268566 -0.048207687095692230983 0.031261071301967285896 -0.026709437827638401325 -0.11604723659605843678 -0.078644926300348014236 0.082601254999445650196 0.089054413482661909374 0.018286562105178053028 0.020231703602403075526 -0.014732394322726495919 -0.054048628753021549231 -0.09988196005610179562 -0.011541780024078487216 0.13455855352726106555 0.092875985723170767505 -0.019888842584324162299 -0.017840441756182968958 0.12252422385911512781 -0.018688420647625887672 0.12892551681947228559 -0.058720385137682185039 0.036788728448569861518 0.058682908089542115682 -0.026420347775732062195 -0.14224466574439714739 0.13034239954929249805 -0.029183329430382345254 0.076433662521676062895 0.041394871714690625875 -0.10894755906989134209 -0.030166706769078927008 0.068490625299919186131 0.091093040912603270853 0.071739364539559563605 -0.10751135137250056317 -0.093878469290105751033 0.015466021032307524646 0.1262386724422019102 0.030398303413475120244 -0.06714926120723786751 -0.081534907905810694029 0.035874171341183577755 0.067167735276725926141 -0.044388755056498342688 0.063755625187908587792 0.068392762111140176229 0.073485934845768083323 0.090144667253923310701 0.072588006772731805682 0.045909962169449675118 -0.056534296765999074441 -0.048363478161177968218 0.013381301604030924196 -0.054716585805942852261 -0.059652724284988294101 0.046194825278024279069 -0.038764951779042502999 -0.090561642256943034046 -0.09346301475058294006 0.12023497399301016908 0.076723335541758863609 -0.080940480516167215286 -0.11171557307280778615 -0.05204536539363856934 0.0057587943952198050387 -0.020234205061237967721 0.0687108438106537045 0.14214555808611839538 -0.08135715644510867206 -0.038497792724259044528 -0.051733015731177514618 -0.032325096758511542849 0.12260337424151790398 0.084391124186178945177 0.094983495368261200431 0.038494555492447089795 0.1445469112742923945 -0.12410204275687254649 0.075921272020267716041 -0.022076146433403678881 -0.079709516414801687145 -0.0049106589631181373629 0.093553416479297296648 -0.010445691074868845502 -0.096150964429031690606 -0.066608873897920001239 0.10498765026429573988 -0.10241168321769446303 0.11860469820560837206 0.12547857453481062184 0.075073401797023694981 -0.065582532071003979413 0.11162667954021474048 0.12887121824398764525 -0.10242321836855719508 0.15069080780545915377 0.13269200712599441006 -0.0093919215087983117657 -0.061432042542707350485 -0.074786078516516946157 0.11457537063667180832 0.044462250561572935759 0.13744367909004856498 0.0334853150878662853 -0.011791755139601498015 0.033270618460278782169 0.017207396218518706404 0.0042648138057908967918 0.11514403597901277931 0.12750735639434085389 0.1438671342465753511 -0.066075653464176251073 -0.10350719284104048512 -0.12277907935230066017 0.081613932235987715624 -0.031422297337782630067 -0.082621480015381193462 0.14888570793529146141 0.018739333810434240929 -0.08652148743054630109 -0.0017477849397757199736 -0.021712883809009177888 0.075640306897359968485 -0.087963368440065664577 -0.058061449991200921039 -0.1015725038977097483 -0.084819791343403228012 0.051774207677968274444 0.11783518489154962139 -0.11535419306349022073 0.014896834573876525584 0.093754992168082515458 0.080735980261302950356 -0.018289609865989202298 0.083963748815710587126 -0.0018254724977323716698 0.11566147347537968082 0.08678381650458649732 0.098322011219701868634 -0.085148936507219233349 -0.085596509865167008657 0.04668993291648885352 0.061457099919965424428 -0.0074544467004552380715 -0.10099864738679395493 0.022011013646759367696 0.083458593226887825556 -0.036761539694201393613 -0.035280104637476834839 0.098614859538464882949 0.07230765525555085671 -0.064030961291407340052 0.057182178690472422466 -0.10500736521526991829 -0.092925665830721038141 0.071518439281341730784 -0.11086674306169207183 -0.088489016368452536043 -0.055000976030096411507 -0.12495438154330175407 0.065612650324931701129 -0.025690145434370256078 0.13283953288754440925 0.067210535927774400777 -0.087360890698337842486 -0.073879131975915335317 -0.01490770600547093247 0.13078962047295464299 0.061056999180636964408 0.14001650939214957403 -0.10754866469912219284 0.088255354008215644579 0.11121631289584613111 -0.084615733447740898443 -0.10468727693158236258 0.050358497399245784332 -0.023098962345238858995 -0.043068730615102024384 0.036990556621312772889 0.088235722494984750175 0.064612518994234369174 0.083597393234674355345 0.1409234863459906395 -0.11870828818179975095 0.027392846242537152029 -0.037991688111943713868 0.11412600501249187124 -0.05838312879450197751 -0.023253171999887297522 0.088215824591190178383 -0.10033891549058074344 0.033398852184366487061 -0.035810818323412582642 0.071133249457192015974 0.040601851618397397092 -0.059270544713558269423 0.050684481233272064837 0.013547750195778239871 0.12481200809809714358 -0.045471231607932052765 0.1089078795518812065 -0.10001470258588668338 0.035741785801154009328 -0.026275187132635931947 -0.032956761343155845101 0.094218445249594218183 0.094703589224670134405 0.13663226471415854113 -0.03211844542437360811 0.08676624240029201518 0.03825729600978339251 -0.0016828097940694221497 0.09767751074981578796 0.0076892088017028858288 0.043812112212332415817 -0.12940862037155811959 -0.065952997342149502491 -0.030729990515800921502 -0.053393794222931487137 -0.12066539694118863513 -0.022651372697489735586 -0.098634575233977700437 0.1102432030188081058 0.040408488313958546012 0.073767074663863313466 0.10305666489668104113 0.021061588456966501975 -0.063686077706730487291 -0.07973842700593343491 0.12816209431993949575 0.11579738264454439434 -0.10978209635838136193 0.12697306323984411391 0.103625305560586356 0.11659485499270952347;0.061390739238703209701 -0.095525404545267658674 -0.011556480299614728044 -0.036145830378648970138 0.11982608671111749654 -0.10280398519685328418 0.0087795330203590538076 -0.081017517100692423848 -0.067646911734976264419 0.011361813218084647684 -0.025831126828577934823 0.10736885312050899188 -0.045486731667792164313 0.022549624107377520821 -0.026136637771828414439 -0.039579250799070556099 -0.017170430232198129195 0.047731850176410031694 -0.086736165174177898285 -0.043223668417582204737 -0.0080898144523430665087 0.12293401327871630868 -0.088888820268113094558 -0.0049891059612553528488 0.044243643994132442199 0.079551404209176362903 -0.094554297864488892622 -0.09527194347480033576 -0.079366360865338839159 -0.071911102310425772943 -0.0083286320712243396697 0.0072894256262624130063 -0.072950132767716766025 0.074372801888085426913 -0.014439054208979951177 -0.045002725257253274604 -0.12884619597563934379 0.026700099044835952367 -0.10037652376813087363 -0.015722942187612210657 -0.1307415462067406664 -0.063526346818056925181 -0.10744473637416064593 0.049634102878186966978 -0.053126979895206129234 -0.11384297070211986391 0.075759150130286737057 -0.075231394100483850451 -0.069504602365191417435 -0.016670975669537776986 0.036986032754747905082 -0.0071148281466330174846 -0.048372970032797620032 -0.10787157844233703774 0.11947562479003796809 0.028210766525539814759 0.010877375250306782137 -0.075485826176431639056 0.018886727788948384776 -0.042607724622477943788 -0.055367118239924267842 0.030491989286556164807 0.046633091811368293511 0.14324151481749450299 0.13679464214191791593 0.03473900421251082532 -0.0019777744849520206664 -0.206704347613641648 0.053192287582544038604 -0.051106942450480162543 -0.0047371696621761509929 -0.00085068839780551178207 0.098510813386082862753 -0.094485697798921602919 0.073817634120074207549 0.077636120440055272907 0.020566313236228535993 -0.058355482628265911704 0.013993026010285137747 0.013066560525416284766 -0.12121368430277695838 0.12062592829572769959 0.011445190427613501083 -0.030423263688625343248 0.072693106312786179291 -0.085741270855094989245 -0.039289525065824761063 -0.011418040446427007301 -0.063498382351784649069 0.058883286649065100238 0.097795099582292224771 0.0050135384610266869876 -0.095990750957442139146 0.030604130907071151052 0.098209979680165579441 -0.048916273681038853482 -0.12223780491448636709 -0.0095437794762586718872 0.09613059281672499401 -0.04800835478047293936 0.012527919276171752341 -0.12772760033757465936 -0.044131006044341523908 0.079177424626406367469 0.058403814598982389805 -0.015698641915409823622 -0.067384576538741622342 -0.037330677312627312536 -0.054875606129230355967 0.13914200206093327306 0.0014083070763480348003 0.0022823901865291302757 0.027992720958571540302 -0.031194290770499594201 -0.10984071812145757008 -0.070840740619696696001 -0.030253300206927603855 0.011694089759718483829 -0.045962379649544464477 -0.024468989459299192446 -0.03468255601871263194 0.11537076741747645525 -0.064545548108782865859 0.075168480363575804204 -0.03077045548340642464 -0.076485635815017785633 0.097695368465041038109 0.0044215981143818370094 0.054952727771950343749 -0.04130464971416217268 -0.028244989824700379027 -0.032901468811484549382 -0.01453932315826668778 0.028762554648041324667 -0.0039922218085475967217 -0.092688642973442661455 -0.045797292740836201275 0.041363618325627918293 0.081114227321418042038 0.057856604964680889702 -0.069965745906262311049 -0.10602185031030419982 -0.039986656029692008163 0.10495535421444933399 -0.080719525291203214623 -0.13586038987426110602 -0.11120459891065784253 -0.068519988021825073421 0.072040888158570626221 0.037698435108507441504 -0.08499487617938095152 -0.11654163707305956188 0.086842909925601369237 0.062501895964660283966 0.092734529333484333469 0.045256256982460357774 -0.11781177522070013231 -0.11552220811750217588 0.07654214226150909961 -0.12789680798750521773 0.054857169668111098459 -0.018107619627965736847 0.0033902425024125988455 0.087802481677455759823 -0.040090397239775400762 0.060417691975551128525 -0.0018476266596410746181 0.098792560787856087412 0.047001544899467506688 0.0093332772970601760032 -0.13971925797112449974 0.024874184743483199189 -0.17635706295189132464 -0.13671564824463061649 0.10312677466558045625 -0.078690794301477934303 -0.054379128894407664785 0.065741915047649354675 0.0058742615558124416236 0.06812237243810245757 -0.023406544919818913358 0.080827465603613202205 0.048148381621990907209 0.12141808518072688683 0.08448686327168190846 -0.045829648348279766745 0.13785294329900879551 0.029541160247031579555 0.11738725728701006334 -0.068890240139173802847 0.053414147300248973615 0.020970507698183794842 -0.080715226666273856559 0.020284861336487311489 0.031920983070026803796 -0.084148206073378181702 -0.049739078570028003035 0.078975940490836074592 0.12623435982099648345 0.034072810009730232494 -0.13599682737826501722 -0.03885315759979372785 -0.14005336736560408673 -0.099171381981779452297 0.02198292616432950472 0.00027835652367684093466 -0.084555636472152376215 -0.081281504105667243265 -0.039319249984336536452 -0.11920926568403431012 0.0095512151247541896698 -0.0055720042483493612342 0.12115973440765577529 -0.024235743656977809524 -0.021979022699016567688 -0.032514719259589805467 -0.12047742889274376532 -0.12835073666182275631 0.11736786735420186301 -0.10698559924989888004 -0.079818991133334002419 -0.013758260032049468569 0.12353630567649707961 0.010035589347773432589 0.061607179341707445086 0.13510980916517056905 0.083337533744501673949 0.020021083295272624342 0.079043126448485129254 -0.031697003811254391425 0.010446635477629818631 -0.037490005364436911062 0.038624266826845589373 0.12735597970356205 -0.14038978714614555598 0.053358260389160513948 0.077775458363656402305 -0.034816594551202159624 -0.013361920852873302584 0.082531782511048396023 -0.098582623034208685664 -0.056268529887251991783 -0.094687770298718304529 -0.019189237085831443996 0.00059231526342501937023 -0.11276490613049713896 -0.016746225856838190676 -0.089137699465752562311 0.053261443399858991732 -0.024675555888924498305 0.09251556731980692394 0.066876669085245657453 0.006299475298282931901 -0.019106462571327916672 -0.085388323020632067584 0.071566674279818345838 0.1451743569911088938 0.0042481939763453603967 -0.091039330128262749287 0.13290139952201535101 -0.1116680909445618014 -0.11230109825739446883 -0.11686184853232715886 -0.10937665380005540117 -0.083027771700622601814 -0.058977646562767542526 0.023949904219575181979 0.084513027841652266225 -0.015593302896002636526 -0.025750112442610870178 0.1783633554141201838 0.034361598394305054027 0.040525362616091929746 0.14122463451115987998 0.0099921576850059059399 -0.10190558577427673292 0.047446063367453945869 -0.099757352140629057535 0.14743238097796459996 0.10753560146603100001 -0.027324773468524049536 -0.082841981660055227787 0.11372309337997109357 0.053820945832187369606 0.16323268650055317019 -0.061334470205201115089 0.066788052710736359185 -0.02752253937795520744 -0.050984363008675114004 0.008050059784439570626 -0.071314015638067052016 -0.057443559315328102111 -0.14963073161697573732 0.043560899387980203668 -0.018108494340531404443 -0.11305833759132849492 0.1138114920228766036 0.084597463737677680573 0.1760507525762817771 0.3217841405577747671 0.1328892209038493033 0.26063075639209465351 0.014857275547318348277 -0.062544105921392187386 -0.062584808640435016236 -0.058412165410135052923 0.13034722887059077556 0.066205607461067128572 -0.036075444130095613016 0.12672675331693789014 0.059608351653925424618 0.09571415384877710042 0.068537221876797893572 0.11844002937628259065 0.078121682981045492689 0.17153172860255522236 0.20864747727203777905 -0.02146855977712461977 -0.12215521268597377691 -0.061947960444576934125 -0.21543490075980697984 -0.013627466119682277515 -0.067581001263264231516 -0.027722644491136066991 0.13495224063398106318 0.15209536481632454641 0.18495780235456385499 0.053359199893951554661 -0.08068375107145316083 0.11794005016080699733;-0.077504521933156877989 -0.078389449753642925778 0.12904957607331607461 -0.0058172935581422618653 0.094814654989733265777 -0.006392056779487557093 -0.095913284742687732187 -0.083581723423749448854 0.05505383217126188361 0.11831244806797636127 0.059152151378570445861 0.11327002474145281274 -0.05571472993992828554 0.098912247537619901738 0.040582652425663716389 -0.075481414209258856918 0.069143093964969204457 -0.10540219815643528389 0.04461713873856985868 -0.053083614101848884681 0.11063831873582159748 0.027324984953472575278 0.090701650088574559128 0.032386859640436041485 -0.097288588528377489828 0.056083681549262111299 -0.072478944491088867497 -0.082408207916061182452 -0.069041151869081676673 0.11202122900140687456 -0.12542317836179051049 0.026037606823159961666 0.061021281114727272954 -0.12505155446443569356 -0.08771409931408491456 -0.086179354830160551093 -0.033006133600176179588 -0.11099911609976421956 0.077340812580800832876 0.12127290173692556463 -0.064908924787218047481 -0.064610787718928724965 -0.085473623667327608411 0.073873280603779678533 -0.096403794353217747704 0.11578171455099547926 -0.013924352539730528583 -0.068244282511728662777 -0.11584810137822168508 0.059977590291605632766 -0.088895007394463945727 0.12369723509685738583 0.027636427864163523593 0.078084419715796812844 0.055632947055047024532 0.13188496694888124372 0.11441811745128237232 0.11733627403267876677 0.10267800993062162207 0.14754043691617410583 -0.12968890132557595041 -0.09883759945065960506 -0.03275644771284457607 -0.068725935820264039133 0.0502930085990302006 0.021498975483934732594 0.072607161047788637553 -0.054046392481924061812 0.12269708619639525804 -0.099590206950850315715 -0.041891632818481558398 0.015720229549477507391 0.084078916694804092802 -0.01800920300821318501 -0.024315761745238154146 -0.0047079979653758610714 0.042735310167915166457 -0.12413226386372275267 0.067601768469781983728 0.085994059125239899477 -0.070705376798479824263 -0.030091909072014737941 0.080383123557648566981 0.011602650443182168857 -0.12180364150405587065 -0.073425178941052646198 0.096787435330686732993 -0.1061019274577186533 0.14843939804525416171 0.069889520698249552044 0.12956322960221211549 0.0049622878676154847863 0.022228656390637722973 0.063693304442869996818 -0.074313628879972268293 0.030520919994963372629 -0.057280330366035490941 -0.13449677763139666897 -0.11159534266676016112 -0.046270112418506863239 0.028774217072211432517 0.057789336688922388063 -0.026879554975827682495 -0.041098209311680206079 -0.10700156820143620628 0.13432178046946433025 -0.079042036540791629773 0.030311665485365280742 0.040267356320985790707 -0.079823904948552446004 -0.07934364484795286554 0.020680444425742385006 -0.023760218510948016152 0.0021820837862088883832 -0.016158722435295674869 0.0021861956838030893908 0.071337271139446586932 -0.071507073812586932626 -0.029668514982365664506 0.071649074871826770594 0.022877566014790434723 -0.13084344616091844737 0.1122597025816289007 0.13430351735917334111 -0.013741433920618377484 0.10806670994315631384 -0.029990160800818798509 0.0062822977782322911647 -0.10028486040015052727 0.058723367365779391425 -0.0098755804821823757467 0.024629458014616151945 -0.10442019289543841287 0.031791376921810221567 0.054122529269172617306 -0.012346611142989431451 -0.079920876108539068428 -0.090443337901120232636 0.10324786391306436939 0.079840166547386973162 -0.041070181609471269335 0.083313523106429462906 0.075081352609215765148 -0.053108060656912196851 -0.055240223290764577102 -0.10237831897404695014 0.017805054831170397112 0.15311958044057139006 0.091456453753092345482 0.0060915442247943844475 0.076567664495234333266 0.11286171318824080034 -0.12228657804053950919 -0.11252045355221602929 0.086262364521517795324 0.1304180164646747131 -0.059852457318573373812 -0.095795884077161136405 -0.032521656876460837415 0.072080329727381250993 -0.047040355225530107453 0.0099124231117126600232 -0.096479747700550996803 -0.033095438562700987828 0.004096495152639401463 -0.00650764043163564853 0.075406158723800117971 -0.037216184344657218808 0.036695079694509503965 -0.092041079564575550842 -0.1025391386103878949 -0.013598893281544068359 0.028488094749429006963 -0.029835593441142272547 -0.045098296898547246547 -0.0004079821303759118196 -0.1106349547995447713 -0.079894948303999971384 0.033464824932115812273 0.13132458189305140639 0.087095233627299678547 -0.13107394145054412915 0.12010056435555613308 0.028087238753219643389 0.08977198262640584403 -0.0067059625429724276438 -0.06495000241143523978 0.050742289268175318206 -0.10861848312880363621 -0.068455519046741020173 -0.11213575438765531478 -0.09309250853869742437 -0.0056286727615645201425 0.057864053649011155944 0.039018645235195277554 -0.13041728652262826738 0.1279792434843461113 0.066745439640892620381 -0.088580555631338056544 -0.13581412087279956524 -0.11659586511103828266 0.010153039617075551235 -0.093007130875287780114 0.018216320464111722399 -0.019511979622697579739 -0.099306989512961116318 0.011765652416830299151 -0.075921641889043753326 -0.12458395847273347201 0.14743925114120903785 0.12537118690574275415 0.002438305564806714839 -0.019010771157314750729 0.031232759261556882618 -0.020650486054401194502 0.063401434645270607349 0.0023097298485015189951 -0.13483699281395880587 -0.02439588808467600678 0.086796628925925947695 -0.070576669586056905992 -0.044771694098762596092 0.0031199434181535669157 -0.06481459131102131066 0.063036308783327277272 0.014442921038148613666 -0.094977933762329699863 -0.10908339032623769194 -0.11836272023626570604 -0.060600178858308345609 -0.11584981035157743134 -0.061597648119426487434 0.0091640729038459500105 -0.018995745394150932023 0.050224112004990328906 -0.11989849612143010926 0.061476677929256567934 0.11765413836522367608 -0.0029289423451704884628 0.093194767952546594958 -0.042780367170844352254 -0.051302444565689983569 0.032782521912360057526 0.048854503596259916953 -0.077993395024181844111 0.001626187470044699419 0.044842343121128606931 -0.13283169861998028738 -0.11379581639706788654 0.022762888116990457471 -0.014754594788385498594 0.043248060338126649571 0.13416835777722155298 0.020353069147123661886 -0.052338639913320550434 -0.023001247496614137672 -0.041351589527555965287 -0.046378349080177579122 0.030436636967625687461 0.035347236126319847571 0.032155239842299433717 -0.1040496669927780532 0.047276256753313559977 0.0060448893623764980709 0.012188834772727957095 -0.10551320285004127386 0.045163106920377039943 0.022528084531721597611 0.10130452471886979005 0.1166029563048221751 0.056531566866681606798 -0.030876344719256237914 0.091394581631214680262 -0.071108537447883743421 -0.045014186142667798884 0.11844787427358613452 0.074094029023665436418 0.09662491229712347196 -0.084767947684254593699 -0.098033645805395405737 0.050986594884006732065 0.10202207078569124066 -0.05740681509075031691 -0.053341577811585938473 0.18572545258817851899 -0.090264160947984062311 0.11163852928877694703 0.042797587388446987899 0.087813807468826513003 0.10859862148886825772 0.028358037108063269272 -0.041799973363232288681 -0.049385713419721873063 0.11338725424584474022 -0.026995889036615192125 -0.036075505174553358645 0.12843754633409254495 -0.017882974590585836577 -0.018634809002739383815 -0.14874243214025267834 -0.13921334001282406612 0.050055330125421730603 0.062276923715538709536 -0.070563378050697386779 0.10011371163398835593 0.10725868513147185368 0.13846853138294248908 0.11563544180712695408 -0.06247224291445851313 0.10259822169042387419 -4.2249262877501953851e-05 -0.094303855078201437312 -0.087686087385981090203 0.092098187565016420564 -0.074414680750228709427 0.030190050837628164271 -0.10297843609097387385 0.0043379656672366175701 -0.079273244348972884965 0.093898714364725688331 -0.038133122291347347488 -0.072836152829557271327 -0.023558785896130491483 0.048323276575443344094 0.078630162264215902601 -0.059233574104240287184 0.052747839009966823731 -0.057645119323229507269 -0.025555252424367565917 -0.05665670963278082034;-0.041339625799768270342 0.00015638056330646990045 -0.053330457158210504975 0.096571760610895326926 0.043340433841893843958 -0.099951635039422101481 -0.030492062814720166664 0.017218930512059870547 0.011983786803557510206 -0.06958440083766523343 0.083597326809241978562 0.028833141479686366648 0.11625099259200519231 -0.079429423019176867427 0.075931602981511608919 0.040981128210209112617 0.0018560825149055938579 -0.03188194449824782728 -0.094695452038811453455 -0.072270060918265266459 -0.010278651903866127537 0.091894630422152651095 0.041687225641371034035 -0.079151476391732103477 0.12331934573862270155 -0.030957434488469517259 0.094452499824069849343 0.052046060160810481143 -0.060309176002643488657 0.024159009199941728491 0.079411129963786880603 -0.14401800875786813227 0.093702795008091338547 0.06159754039744161358 -0.0049319185056496926689 -0.10755910161307558059 -0.023325844042225492292 0.1444235357315911128 -0.051925821815674219617 0.069500692383824072551 -0.041174141251807148956 -0.057199070242557020771 -0.14613752852101336011 0.1221312469321152866 -0.068796861844657650198 -0.063428879167354346169 -0.086043507110969835727 0.0092429812357443276449 -0.066319759306330619553 0.1429960604862749729 -0.038807623815013091162 0.015523902094710129509 -0.030708612683736986881 -0.029656906260699094496 -0.079538639980501021909 0.06974075203843992099 0.077802430573241959655 -0.10843762041702036114 0.10720323197608468135 -0.028719717411653519074 0.041291703581045773042 -0.12294161882862664203 0.039152779852887745204 -0.069154865420616329352 -0.071031041244689036018 0.016933605902096179885 -0.0068116710583420170266 0.084592013827486475797 -0.11412986847633381504 -0.11878745541628150939 0.038591985203099657409 -0.10052772451948496779 -0.0079532455389919685246 0.0041057549502504222735 0.0909268288232316646 0.13361760752245158135 0.10371068765597138417 0.050137130380735861479 -0.11018477015301644806 -0.11969495395286987305 -0.072967795523886380682 0.069369855888492662488 -0.056587633382527077752 0.030873826844221276267 -0.12040551045147641906 0.074080727834985607427 -0.070923770574707001302 0.0068602583662435703479 0.096961157091872252067 -0.10480443738548128607 -0.13696190471059455085 -0.019871008005149678327 -0.0063588006835501188069 -0.060550565237957890141 0.095165390389610068911 0.011019046573315097876 0.052162624990797691604 -0.086729996943290213474 -0.095276714618805227741 0.099139171939294390423 0.054663326399534785394 0.08664363961921782431 0.082380890500213438399 -0.090382762691831153301 -0.038706579052618539372 -0.10880558584998428762 -0.072597563322627969851 0.11112995968434280503 0.04536523760570559255 0.037611404275347828929 0.010558265446010196495 0.11132591506686088934 0.10304304333593373999 0.053077189838271116029 0.023716105677078838654 0.089220111333332463577 -0.14689185750494115901 -0.031293312755610216969 0.040264042401518006231 -0.055756129722083706823 -0.14030159904020736428 0.032304669333220265015 -0.12378492503383198287 -0.12202875392824863443 -0.03427947676677198241 -0.07580770664033462114 -0.076846194994758670882 -0.11141715014393031857 -0.00070026779201637194289 -0.085505294717640470403 0.048354671846574548422 0.10558502060315323734 0.041533054716872193357 0.12293687745370512898 -0.027963772067624088208 -0.13824486640838681839 -0.0028880074846394519945 0.051067417704274448154 0.093074937258373638405 -0.0097471374819945565821 0.015389456604963897696 0.035401595619162590234 -0.090162588097393331354 -0.044697200014028701243 0.013881731615052669837 0.13488061360858499826 -0.061518297228719126535 0.10959625731351424482 0.041853201196217271196 0.10827043898982137426 -0.023213480980862736397 -0.0043061953675156937338 -0.041341454493449544816 0.032938162275174709404 0.1057671982123471327 0.043520828326121009655 -0.0010435999637768357713 -0.11032426191329225418 -0.060927379636616964265 -0.12127796172854106438 0.014740076630255879997 -0.10641072585430530473 0.034726049555926216672 -0.087561776935448948356 -0.030986695406059288488 0.01022835560343197947 -0.042924379367219121784 0.068474346868300450808 -0.085563165558728324078 -0.095464974906653662923 -0.079937363630057531316 0.026818875150348819164 0.12541662048421922671 -0.068093212160162147617 0.033349609978788288811 -0.073056939352229857687 0.06377827217206068211 0.0086500640814702080272 0.03731382721202852748 0.12423876457361543446 -0.15126363603650841427 -0.062113317525524049112 0.067101283287524071675 0.10383988510294610286 -0.02746862844420129568 -0.10159999211032641475 -0.043608057091996256516 -0.036679482278733362144 0.14607594781506283432 0.11172347593352487116 -0.013311129019735240889 0.0029517887967959836881 -0.064409080495327314386 -0.10288897747903488766 0.049000699910323262942 0.03226234909487211977 0.08326129627748735107 -0.0366338244875702157 -0.046158400656970716147 -0.14517959277960060249 0.13629810362968663995 0.067517740169827339392 0.047416422616749706598 0.063252419473379367654 0.12055170518516399036 -0.01926418179348729498 0.035960698244449362804 -0.0028783769164455489872 -0.0066085393127577789565 0.041205596323597958042 -0.12114631485937117639 -0.023444644583268899052 -0.060791425716956080938 -0.027578975466070274752 -0.084475168653133508867 -0.095776854077432929668 0.0014752289860350100217 0.037714269765319587135 0.11918967549017929486 -0.01442158007141650447 0.017511097907313314531 -0.027079903700475284334 -0.044611963137990172379 0.10790639525571019131 -0.051360924874161682785 0.019484542415993788556 0.01105226676475586263 0.010344162915233771211 -0.13136460453724069231 0.06709336245414859734 -0.0013086374910798231549 -0.14765815512699423384 0.092700937353216592007 0.1007372311810336013 -0.10860839190747149929 0.042156197433450136314 0.0050200683708002610817 0.065672151164394954037 -0.017046597658013737386 0.043169429034164236159 -0.072464737004652307606 -0.13946250251803860021 -0.003092252674182709854 -0.12452232050934096408 -0.090361991407675285037 0.0071018287228548767839 -0.11765291478007573744 0.14064411695308326467 0.059522083189728181019 -0.045394750157314818495 0.014437713094355184712 -0.083200755136531148737 0.057920322202684032531 -0.099895115593814157173 0.051733162911441255005 0.11472525076607205385 -0.0011994523063454123023 -0.1122126922746822103 0.030139421694113752159 -0.016750721109698628319 -0.13463911420944463249 -0.084076256381091271641 0.15424939124513958877 -0.11134034068612987112 -0.12317700602427984757 -0.10382872441951628006 0.0058908967921839907808 -0.008734634232434106485 0.025558932457712284225 0.063011064314520942586 0.038339500831134513958 -0.020680513245817083029 -0.12564882890954376382 0.015760558974362608858 0.10357337046086509402 -0.14115140045842863858 -0.10390101460589629134 -0.0078388959069186289752 0.11956367965984722457 -0.046162772542775946938 -0.044490764037402250053 -0.14916922668194232404 -0.038303120758374352428 -0.065637386675280781634 0.047608514634688965661 -0.10415891941330940318 -0.11892551511633848993 -0.088948690084672030198 -0.041806332557629312385 0.11534290857280551923 -0.030581640135374028172 -0.053276546223724449702 -0.032100421177040948384 0.0098182610083779181531 -0.062687133203115918967 -0.069588925919300562151 -0.085368951755807734316 -0.10627980704946575485 -0.11106666325841683951 0.020955672160805696724 -0.023984059374971358064 0.055768508687075127317 0.030489037195380482709 -0.12533901397718047455 -0.12823820017830919737 -0.031294750625682321576 0.070985118646428771449 -0.00362705731789020238 -0.089896992325153329828 -0.066702721678008100592 -0.010804662996980194181 -0.014112662719112089096 -0.10670318349128395108 -0.026227022187499206274 0.043919526368484639034 -0.024345163661689536022 0.059094014289442886589 0.1098318444948264555 -0.061898079263356498014 -0.021935111727767239026 0.038921216586330555087 0.11712441297410389196 0.13964314462509988535 0.1373205715869184329 0.027420541858651701489 0.02510807922666409911 0.053977653992388241466 -0.09019632361626658823 -0.12652453791186776821 -0.043755847666013064634;-0.069176690866361564836 -0.063445457932839455228 0.12885428169644308483 0.071746194323917072966 0.039570136845145778559 0.083402959862431458316 0.031677461631089511018 0.051447096541602427289 -0.16119522483175058314 0.10551927694202103969 -0.12231732232597390675 0.10535399876586154511 -0.068020609798706124782 0.097492138030635708268 -0.064685057521378694356 -0.010327883371232927587 0.026007809631699307235 0.12506389064836673231 0.11739690528231663813 0.11199786512363348046 0.096366302063822420476 0.0032107656708854587051 0.052102257127112125423 -0.0066235384709296745917 -0.058234341229733629919 -0.071230455138533668724 0.12547935054368475338 -0.1198991675362710424 0.12055565133003480482 0.036059780446589223546 0.030819872295706079307 0.028181685713135912891 0.048291081787558753913 0.094837009200962399391 0.015338236037173651194 0.137019181231453957 -0.069771295739892713605 -0.028821306643562038391 -0.030059348819052426199 -0.12751384375894991852 6.8812557250115115683e-05 0.10760497643931742073 -0.017085982997891317747 0.13510212950245609198 0.0064842531565321359296 -0.12180197093125413876 -0.0049021987145789576099 -0.022146676712814870186 0.050628435071008927315 -0.086529715613293728405 0.12039759673569716547 -0.042740169389376844733 -0.055570849010875493501 -0.13220547292783471627 0.011166595968792906654 0.041089082029711232469 -0.018127685199048997056 0.043543703357336198401 0.1305482119437247901 0.022424073875164547698 -0.030949232818590910465 0.017264485251275548533 -0.10682289669323076498 0.085644831225571926847 -0.081944672690255043745 -0.021547283205176896714 0.053130784905668332341 0.021470692068635582883 -0.024179952758905019772 0.030360659372198710998 0.070746859493855743239 0.11925947852129120674 -0.12660036193609550126 -0.045300865277290845723 0.10770636534842421839 -0.038445777137056838524 0.13020383821041675576 0.011229220769007770483 -0.092241831581143421404 0.13080677423470762899 -0.01400659899540072223 0.047294039458485689909 0.060778135896172633124 -0.038660274169346559026 0.090876909309683659433 -0.043162885461384942198 0.027912660223127914311 -0.035819319826765304293 0.041259625019049346595 -0.096731477896610310041 0.0974701876015381663 0.087830809401221898725 0.030371802865071018118 -0.12601536922010045383 -0.081607984141572442738 -0.060810255212105028544 -0.074926526794740974657 -0.061189425612080454442 -0.13624444452083733781 0.023891057928219147644 0.013749337595364003253 0.1377497356255150962 0.047288137842245281384 0.10825796288127272071 0.097775372108711303132 -0.044416791438598619834 -0.033032335910068669205 0.024487173820127959567 -0.11756629154988253172 0.094425703503871569189 0.042008604282632387716 0.13281788647910242052 -0.025296788421398475749 0.121086476282040445 -0.02477942224474147942 -0.0065218490186728268754 0.0077278767148516499391 0.12364823818900089192 0.0084526967229710051055 -0.080150071914355330849 -0.0097042619882330115322 0.11932459361032154987 0.057997852911029525169 0.089557847433341719601 -0.11885754290841359093 -0.048194435574665302202 -0.084568848215466160823 -0.026701267188248292705 0.12931729945265094117 0.015525789461467740665 0.061353145259672482725 0.010102427331462051144 0.0055978511944241773207 0.055083254271785953016 -0.062294738409919024613 0.046052071984764339496 0.092770513114880909233 -0.094951936413450108154 -0.12686869834695269077 0.075917964717619051962 -0.13819247596056302707 0.098939483501626207529 -0.14275592317498178585 0.10985353545568847522 -0.010769005065480076119 0.15946283034486527508 0.063998992675003099628 0.090624401846177898845 0.029322788049155747853 0.0036433088165319271919 -0.027840175553744288262 -0.087384288650821109745 0.029705951556551351417 0.086818760308866552156 -0.087858603381708297309 -0.13047166771303084221 -0.033176551469847437303 0.029555577286175006846 -0.11328637832061654034 -0.094113414629063307792 0.14952685847478353054 -0.081810131631295718302 -0.088345434897563218657 0.07015695698808802061 0.01131487551577517979 0.12776551644993211498 0.059294775869835912585 -0.022743870022925740532 0.07527003786811893582 -0.050056846744416301498 0.00097626933552493226024 -0.090088201062467843094 -0.014651675167271550199 0.030729016915191621762 0.063188002116366853711 -0.0920279157201913528 0.04068049062738867544 -0.11996129792836257577 -0.083847212627663592066 -0.037757600754552402 0.14725095824804229627 -0.022353001924216287649 0.10973223574559309856 0.068753482052691675119 0.04849056917744909434 0.019360148263027610743 -0.014973367361692887026 0.042519228421435704968 0.09492313932877466387 -0.039662543866944774407 0.098544072872187610246 0.11317299220960044814 0.03832997433754106037 0.14606858302828334972 -0.0060046208835890452563 -0.094688438655756768103 -0.12353497251775434618 -0.059588550044242530324 0.093208021427616763455 -0.067074835354121162267 0.022807495246852254461 0.10892599889028353743 -0.14900924122117767401 0.12253272535478189342 0.1122910588228448886 0.14231222339443769243 0.0088092126955546454226 -0.12648507768948846763 0.093037517221661397704 0.043122571247517116344 -0.11895310020828729625 0.030087460680626447462 0.040094263369776152184 0.069856971415445112683 -0.022184189275503099492 -0.087306286934572707725 -0.11294982855037892511 0.017167901537658378924 0.074887902858454882815 0.12235147104652289995 0.11115404026246995806 0.11221049145503449174 0.1002323171559296594 -0.048650110693762738112 -0.00088791219382958891382 -0.045857552063125743558 0.020616223131259759499 -0.056845235966332119393 0.11528781364955227595 0.026113003132689525249 0.032844090955445583158 -0.010203315593167639266 0.00068399402683455557111 -0.006396592177244629987 -0.03116580246929417583 0.12418426760120317154 0.029432573061289876021 -0.12020718126492203892 0.05258116265408037393 -0.0057447039166055200929 -0.013155851275952996221 -0.073127082969440634908 0.0016778473548274867259 0.0012141849949831124908 -0.007341154748704608636 -0.035845412734216278161 -0.11139803132539841113 -0.10711378444437796853 0.0011011682808803478686 0.035443828549458544774 0.0086974257098064028382 -0.090171600066294751996 -0.05665106186364977231 0.11027529932401246293 -0.017986015711987345111 0.039477064996733854385 0.065884681968201103119 0.1004597954079977512 0.041104142283072499231 0.0025928158254675645784 -0.018049027228198982753 0.074647774703543404162 -0.051527995473980202357 0.12893071367369374203 -0.07390189543241260095 0.019242878190892480361 0.10001104959218148904 0.11800578327629797359 -0.037138209099751906539 -0.0079142794268977356698 0.046033195651677689952 0.010756217579848490612 0.080774040927874365958 0.069318925656858348949 0.034402665883596965368 -0.11744237033654557345 -0.015428343512465615694 0.10136431020738408126 -0.025779188470729397925 -0.095801389784322010801 -0.049810999855150521476 -0.11616057177033377312 0.011539548530322577685 0.0075181952464943050882 -0.10426105171509775227 -0.025219006441073176655 0.006499567550172600551 0.016980012404992989722 -0.12481980467941196367 -0.10431382633183415576 -0.042545898131696575917 0.072107080204430434867 0.083433112802308181943 0.041440309581663427319 0.022004657362020937916 -0.072432858649785381022 -0.0083840814013719112269 0.080071760717120438189 0.07009336929569283392 -0.41199831813414344861 -0.075213029921289614732 -0.12389888055592876426 -0.12043988006427409909 -0.089099411533243674799 0.085826145907173162497 0.030695746748261695108 -0.054069248077908617367 -0.04239487291991948098 0.052850702087512899108 -0.081688825954021090925 -0.021325448972589838847 0.14360537000439274613 0.0098247205051570137696 0.098095250561476221574 0.045282733924074912435 0.032821897938777933046 -0.038920950775537282995 -0.10718523826619429096 0.049457489846373638154 0.079509033594745287532 0.10942432278716640592 0.10766371011502490207 -0.12491847072324900603 0.10407064838283423824 0.073943899200357557366 -0.063749043794356002879 0.05958039524815909177 0.10565605180285238263 -0.0011946497626939491139 0.0029610756578054794365;0.015191804548104528502 0.026044280559277498827 0.021128304281594748049 -0.06664368909059370516 -0.14504092091748163607 0.047122618955213295411 0.030201542393074123222 0.086908233532590389858 -0.047376723671997647558 -0.08606086540073831781 -0.052104559218778712104 0.073757435621265521331 -0.0041388124425131601891 -0.0064946254553812695492 0.098196294682913506935 -0.10094086789177932062 -0.11378133478234304932 -0.023567752066259536892 0.096024438014171431544 -0.11431152476329971279 0.11691252074861041566 -0.0064125491620419068292 0.0076436507758217168626 0.11719852738158656469 0.019969230871063402971 -0.057507829060557631717 -0.084530532837839483795 -0.10238464011958445243 -0.10531944633619405582 -0.047340156747144264415 0.031773577308994882529 0.063284552018912518245 -0.082100834097288688529 -0.074022407015661192964 -0.14047466186199245031 0.023337552155459493491 -0.034669345483103949923 -0.044557789854692338161 -0.070094990460233402851 0.12436683355868710654 -0.097900611673216966779 -0.0014978536493371007437 0.12965445097521613449 -0.028662346076582218002 -0.1223716704231263136 0.076389122853726731943 0.058165385198294158875 -0.10778272172874189816 0.072961508421729603935 -0.09534618617561874121 0.071558275144743901941 0.12371974479994941876 0.023995125945739746026 0.020998410084077951537 0.1301187858776943207 0.12117853711297110753 -0.10766715047986274989 -0.077659009946723728257 0.0025785698574199594248 -0.060436231295271786168 -0.037554417002750077603 -0.10619519372398661394 -0.093636329954402228171 -0.026959910451914925744 0.024222184235380233436 -0.1200427102763686471 0.04247233332648355647 -0.10166731255544979307 0.0045905027807210483509 0.00096484851648273670804 -0.039578260804441600662 0.06125239320981849811 0.07818650397566140331 0.042743730832634510564 -0.0029536107648920522165 0.10491096721036986816 -0.0005954897413034555137 0.11162374228605762005 0.054232886498581996115 -0.036493726909062454422 -0.050330659926444976104 -0.072446106669771609399 -3.9415602899847316338e-05 0.066663525775151236119 -0.11133600327178817813 0.066998623275763613538 -0.0068957917451993623603 -0.042366534718411168192 0.049509373091129516009 0.074036415566901672691 0.090910348106536684187 -0.12378048081272764736 0.032718557867308366294 -0.096488269164463597027 0.077658501051756409495 0.11299133151483575777 0.1283580372612823095 0.096982561142807802157 0.10938581249024202646 -0.11695885318587388724 0.017212040890420641365 0.068077457409271041611 -0.038717756300526831592 -0.060378608740392351872 -0.001230499736221054739 0.034000343639603206047 0.062413982742233795054 0.031629543236263400752 0.11915757441295851682 -0.073062624469354048307 -0.029258062790401145187 0.084439706056727167893 0.0046152622827396955554 -0.13929801842477479434 -0.067813298532642660166 -0.050806818047571498942 0.0011647856546532053389 0.059374424346739063107 0.075480259964057203059 -0.061157956961186366041 -0.1050303610394031778 -0.073849150825996454084 0.022402126426884740734 0.048146748960158497477 0.081421442620773207266 0.044245174763956618413 0.11732813180195190983 0.037859881900062182514 -0.018472047042737787387 -0.038449120077395204653 -0.10498315185572755504 -0.1105925355946378863 -0.056375918280323338017 0.067087810443334852661 -0.062656156649598768182 -0.13538398384012942377 -0.052815475839962724991 0.027684335560277262972 0.028730895002147274764 0.085131539033936790006 0.060989317785654174886 0.10092739562168361045 -0.12799930916015128668 -0.027484640213112161017 0.092981019134783002289 0.085652344366328903025 -0.11709120676287514129 0.092499702159942714941 0.080430973676437381159 0.054051297609003443045 -0.12001878296013951397 -0.010924970266231862071 -0.019592367710372562278 -0.14216590061287009972 0.10828449227836564606 -0.11270332249905275213 -0.080578339394664549866 0.057115239964118699745 -0.10419406593191830879 0.080426673462757308775 0.008843842649956528898 -0.12463727633651026927 0.084968484918937867145 0.10442712797333061903 -0.10439915794835206986 0.026860880335417936654 0.13693363991321882978 0.10875029143798739528 -0.040377815287199587957 -0.040590061730081020142 0.013525070189557810568 -0.074330503224744576274 -0.017010152569230659741 0.037382316110913499374 -0.08586410292678477163 -0.016986474726132655411 -0.020975023576747471588 0.096383315296031640829 0.063103599738641602546 0.024493111170257889087 0.07239232148235839881 -0.10175090953853352382 0.0586467467457509814 0.053450739880850611785 0.084021962584829967824 0.035099851408809890074 -0.09851700221129963686 -0.10435091065898872975 0.024279824308455440207 0.020838429540584398753 -0.11302933171640398846 0.11391294141820937358 0.035342277481422747221 -0.10997196427159022791 0.049034556374074202145 0.090088789492815748994 0.04377642349733022048 -0.053718608532219068452 0.0064673001903109948729 0.13152801008878950428 0.093389444432456364398 -0.054905925847343439727 0.051704429991219019724 0.039431145658418306765 0.10846452858686053689 0.13504570781140828872 -0.072497971176812794902 -0.089496376802108090764 0.058639123936173674634 0.07002776474827436537 0.024680039938289894536 -0.042618414048173999809 0.055768385866154721042 -0.11518589338597051697 -0.038354452229474110536 -0.12057966683214917103 -0.049043829752509475461 0.11573779641350248615 0.12292634608615354841 0.090031762114836100253 -0.070707940298334479023 -0.016344842403507277989 0.068266097779941900536 -0.03040959885132812901 0.12188388181772147334 0.081759951313227774428 -0.12273515126876742565 -0.06672008193860597125 0.085483039993050943806 0.034551596501634897207 -0.054983111557076143339 -0.0048235937844378646427 0.051920158356464629623 -0.018253887509592815752 0.024927843545125744767 -0.019832774434573121475 -0.12678032060554342286 -0.067652659943117976482 -0.084137792240801298482 0.11155188483196874782 -0.01673160360680876757 -0.042943658533768691576 0.02849224025656758863 -0.11197548409970735361 -0.084585964083501039013 -0.092049697721206025225 0.058542985453296600418 0.050779826611897296851 -0.049246571791528900852 -0.046438180106745587106 -0.00074667962024572921871 0.040555110303975114294 -0.11316185561185017339 -0.15321780372297810757 0.047813979227415974449 -0.13272563907699017061 0.14076239786854768954 -0.10995975684776895798 0.0085066246925398405349 0.074187181563940413076 0.003114335164480205257 -0.035868294027485266018 0.0063813854083685983207 -0.0077209186543904378963 -0.026640563574266452884 0.039637953280957066715 0.10479361441635877406 -0.081236104312322435228 -0.031581509380213909632 0.17558654496028214265 0.024802514848810620213 0.039933403160454038205 0.056464685086882994425 -0.087418139060686253505 -0.06786161592661693609 -0.091163131927187349146 -0.039201423563754493606 -0.12109910109399066314 -0.065100564032170765705 0.013281860956156280387 -0.059246320388896482612 0.04117326580635104899 -0.055598606587288511294 0.039156042316133933545 0.19452255059591519459 0.0051033747501726713092 0.11586495144059841267 0.053986425131924455079 -0.12724133415875535369 0.045798435690846080182 0.082706948488780560047 0.041649931625930024237 -0.088731008756700313622 -0.074979252318813388589 -0.11750940779585881957 -0.10643805749905267677 0.045697133719669512375 -0.11678392556023023396 -0.07234178111915406939 0.10080857176187928148 -0.13014735192436729938 -0.071911079581524844917 0.064871883216608833278 0.0030646794615913656654 0.0035276021747961353731 -0.1474368971667164574 0.10779656805042017731 0.086768753276260671137 0.098911097779151510578 0.10718301520706549623 0.058668398753455079653 0.12522754683804093734 0.033032278416412139133 -0.10945251647213043167 -0.3275082716694350804 -0.10603451192121085556 0.070931184707217889707 -0.055762878961616413331 0.0055265770201231075726 -0.034655574416135238869 0.10391219776783384987 0.063715662993921548529 0.040470946499595809864 -0.073211797624207403112 -0.0022232238495753279227 -0.040007774289751676933 0.11271944867960943804 0.11029897567761118293 -0.056865952472397729434 -0.0530724403093475669;0.0064202804050811747641 0.11237170343931671135 0.010378459310257151169 -0.1343352815846711179 0.0053010659169062269297 0.12095720515518101901 0.12889773557777789437 0.10875381279567808424 -0.017859955871744968153 -0.090028986334498697919 -0.10228643601678333308 -0.028192951848512785157 -0.048857507755346293865 -0.093853346868579795581 -0.062459415369552392927 -0.12088269441040065677 0.048934650993804694463 -0.11176589854599096319 -0.0031408163897768594935 0.071053413850428959186 0.1239291984373193517 0.022689071716428692305 -0.019986992842003468984 0.0665332901134708804 0.10516931990094344207 -0.046501065105748494444 0.01303166222502636501 -0.051387626370806023524 -0.039904644674693436068 -0.08797587532098204155 -0.11400835033795483908 -0.021362390882982935231 0.12334999341386516936 0.084539636389772868097 -0.1290683417070984107 0.12462788199707133807 0.12121141738592369763 -0.10791623133947411683 0.080909756696180376578 -0.092467892823473785135 0.016421083617737336491 -0.10922618493020248842 -0.093109753578522733153 -0.041708980533198936058 0.0046802830340016195881 0.047262642460219835006 -0.033883478643590196622 -0.10463833352838551594 0.049588299336311460197 -0.021608982775929076736 0.0051532176128528013603 -0.039801290206004806549 -0.091897916027607301492 -0.053055145655077434741 0.14340884762395747498 0.026916178637062686263 -0.010167191794247066455 0.058841587131964301349 -0.058375202388208119464 -0.0082259010637302336366 -0.061978736794094595186 -0.025152406832120517005 -0.039183684048127213895 0.069445076348069248451 -0.098741473478614893988 -0.025379866882233675929 0.086930134364570713079 -0.10557026091098778431 -0.033026559972033173174 0.12380816241283447432 0.1217170741219669311 0.12070096692649098791 0.0085790064251249215088 -0.048892086819088478866 -0.080294686302234616337 0.025765523747166112212 -0.10288079493483802407 -0.0090361313596627104022 -0.073827689114300501516 -0.0070589453394804884886 0.080848823675552489165 -0.11759536504622911113 -0.0038091728159872603916 -0.024568973024611178574 -0.045200467450024241212 0.11949358331528354971 0.027809508556916086308 0.049389574755742848833 -0.063728909768802133318 0.036990369911646142631 -0.051545189658573700719 -0.026714724421479259936 -0.10197614171640603797 0.051510482679160619901 0.093020046722560409402 0.11052136997969916332 -0.02441357279370686556 0.047426437422984871195 0.030142155838483314367 0.10181489560046272369 0.13679923901017745913 0.057764476674869051631 0.11261696661948482345 0.098338528627670354632 -0.039538425370829403949 0.078262113158355142706 0.14755370812152451832 0.075912139635925954262 0.043111099341605209345 -0.046120908944779520633 0.088284886063784984156 -0.057449118222671034795 0.068622658386724572077 0.14722897736165288518 0.089842547536541750297 0.065232513727367602563 -0.099789087533233469807 0.11383722410766154709 -0.065250574158166374517 -0.10498171700686126373 -0.012912255373882106785 0.067161173414519451108 -0.0038198034696675466949 -0.092410859526615860005 0.018654747261155409099 -0.028675709172889505411 -0.025055462071529130408 -0.098427285346641191222 -0.097826893381026416852 0.071474088827057566387 -0.064284426910292444268 -0.061317708678873525385 0.092687544779457162192 -0.056603871962915178195 0.039681324366115183766 0.052378298396731033659 0.027952291051493417806 0.059211018538413845436 0.10032872989549079801 -0.087554201858779601153 0.065186400875407182753 -0.034708126555978241479 0.1021479763943212854 0.006788122299337703662 -0.11314578461071291005 0.081399574269273244909 0.022443742021749465976 0.090322666391080455583 -0.0068356778972801911926 0.044478982908278980046 0.069523773987081871617 0.031489426379035900805 0.022483921754987791497 -0.055986099497530493474 -0.0091856455682929639972 0.082157447054359566962 -0.02575065348525397077 0.091395911377663632824 -0.050629957425871494059 0.10437180886002374314 -0.094981909947700435271 0.12454392133619175687 0.026769248594435409577 0.080863730975155645453 0.034220559219640650506 0.071677908570869669491 -0.079724025195493875007 -0.06735044635271908442 0.13731469930612624775 -0.021756941909953527586 0.002412437296527882892 0.091079365833432901489 0.091975282557491530588 0.010295979544640614101 -0.019648209062504976702 0.12122741021634866887 -0.066635186189483122665 0.070095533510335192307 0.085307087318591143243 -0.082326282567666900225 -0.022324889403764314189 0.16391963760631333979 -0.097295316406089710215 0.076032827092557125903 0.089633897730172995555 0.016660535356443770955 0.12932634034297857406 0.14211162467498203443 -0.048563944107195083921 0.0093835248552838687597 -0.051874283806012617959 0.048552519016971155963 0.094168202348398094559 -0.021570680453193415149 0.032757408035460032492 0.10862584023399078637 0.1571053251081734603 0.10464724654415659411 -0.067717195320260450964 -0.028386163554375919149 -0.025658964869742142273 0.038422977515523482062 -0.0034905573932928792014 0.027683164996108185207 -0.037299457665695007202 -0.11023392945806863297 -0.05468006908174369296 -0.010791750785952743119 0.0094429083761678987707 0.078206965951860760167 0.13251771060078637587 0.033210997375725102854 -0.07686442292142349475 -0.064351058393065346808 0.13236397433518809486 0.1221812602279961496 0.097622769303648340711 -0.098816241204413082788 0.11882118547602227299 -0.032420696246379110406 -0.074709776470578151408 0.092424681561997235058 -0.14257538528271540557 -0.02223713217055317895 -0.11646941176826876296 -0.068090626402233331294 -0.022516227550091843373 0.015469415787774854279 0.062706708481405068478 0.08544035598078221494 0.022182207017386438436 0.13042687200576438822 0.018851674650058582172 -0.068455450524374308885 0.017150564777659926124 -0.082337119001384975747 0.021287526014113929834 -0.094960687319748354751 -0.090381599278731197811 -0.13988080142561692965 -0.013059764900769772755 -0.027281029771661621797 0.063155198951914820471 0.0004830718762574177645 0.13308408634314741747 0.029331349234197397202 0.071250246366007227716 0.015948751687608724026 -0.079799621571090453842 0.053676189495555151621 -0.064016471739210198399 -0.06017998062415350069 -0.095709133539200672014 -0.11140519821943130341 0.028735511648143037544 -0.08969942173839459687 -0.058803013211931445814 0.088033403352575687051 -0.070878422575621657931 0.068297366787143529154 -0.029480347149770422255 -0.041800108330055339712 -0.048091978420086244073 0.073239939582587815226 0.11621025844709184649 -0.064322808169293255176 0.11212885808586736669 0.0032348528371819668462 0.077266578182751385895 0.040853378297828507604 -0.055697854689595163724 0.071509615700473996847 -0.083605011633238260349 -0.01886179931500831658 0.034668929867663692002 0.026206185959095171234 0.11518435638123568354 0.068737288679999175578 -0.037323456214870959213 0.025572104121442885277 0.093837646905476621018 -0.048611691161205498879 -0.0032611867630945234539 -0.061663620133173425997 0.048688153004402344448 -0.11927684731070083146 -0.022945361365545164506 -0.017742268226006937398 0.11139202980946528998 -0.089941303155368204636 0.10957885439600045796 -0.12465239430290411815 0.088229642438369365598 0.11028945562124785329 -0.028586551566579961742 -0.08402175425191214797 -0.095755668245071465239 0.0082320294704465567931 -0.025878531792086743174 -0.20925458066712804284 -0.018156022144556416276 0.06810162789609906786 0.14584222672061622483 0.019786269451790631374 0.024434275091659657386 0.16428041108344215715 0.13619071997248871631 0.14578304358100810378 -0.093644708400061962839 -0.050460690110702512146 -0.10505091785495936085 -0.027685567214238017419 -0.092545323355825451217 -0.031211034778000360662 -0.037112896291877625621 -0.11459162382574773764 0.048793506365061529995 -0.029106495134958196985 0.12499286231605781505 0.1058958307649984637 -0.059079532160136845331 0.019998899921657240647 0.063514240118774004107 0.011884428479920456506 0.022043137543690846658 -0.11706840717742363067 0.11334259301246563112 0.017716791635902447849 0.17380930813083772524 0.099397531881316503188;-0.075032855108377205511 -0.029504847049063427644 0.02593436466042334243 -0.046630849633523117903 -0.07395088906919645988 -0.0034419326609792379006 0.018123533081903175912 -0.087811399850293625491 -0.049295746391384960561 0.067948211755318885241 0.06623476926937146847 -0.080725322894350665104 0.056696755335304424572 0.059377803015438899992 0.11975183367533806522 0.052678334062620686684 -0.06250570807785886529 -0.0018147691692867492629 -0.052693329631059458718 0.088692189444603330983 0.0011710619705124114716 -0.068778143783275916268 -0.070367697620373648171 0.12285475629629342975 0.037929307415948548821 0.096342681793331233497 -0.059090508431045157822 -0.10974520092235251489 0.12271854766291635797 0.0016210532755852912531 -0.067893431797701214725 -0.10990255916910920964 0.092776751533235182756 -0.096465460629433952278 0.052412584534569171824 0.0083453350436194870948 0.082240311094330359465 0.096935224028737290713 0.098757025605521644995 -0.033292547708187923694 0.083709577104513682722 0.026544637803517883573 0.066074813200820411985 -0.074552130342943043195 -0.028271712514710112263 0.012926856916599444372 0.10117000156291713897 -0.10766080402358967072 -0.12839767910452057342 -0.13178915115584657891 -0.11669309742771748206 -0.085994413620113480112 -0.027847743047132236804 0.065532578341977024139 0.064346392037868502256 0.061582109364295901932 -0.037538646458697033648 -0.078082985058452264449 -0.11911331932704130598 0.088754824415417404859 0.071758250505534998398 -0.04646407872852411497 0.09372988698945218522 -0.10036948282337042337 -0.11153297102053727485 0.066526903935028150472 0.021598566861129580435 -0.077092535364283842902 0.10730448147372691203 -0.097929097392301545089 -0.11445805483010045023 -0.016234173726898504242 -0.034183645656350153397 -0.056679152811922206556 -0.060225304584541269892 0.052405310801007132238 0.10507398885238418418 0.11255319032153901504 0.084613663002377062505 0.036432160144692526949 0.075219495725072388348 -0.11658198861307306204 -0.098814903355758779147 0.012744925825970395208 -0.068603393534204165638 -0.086863079348020025283 -0.043538229661879375432 -0.06275818789045525814 0.060818397336549097354 -0.045194416147469315681 0.11775462240508292877 -0.084828618538120834081 -0.031863064663322532288 0.038755333152931961682 0.03182561302561600497 0.11989622281613539212 0.095458352176128663524 -0.08250386922532182421 0.035958709269919147955 0.035848709835502375054 -0.097388278611140147167 0.00098530602869818643443 0.036338244402595226701 0.019964563641260531929 -0.059889877618867645714 0.042909272066684343849 -0.046201882325617116276 -0.028755150461270095191 0.027997932012515498734 0.10940553651866902207 -0.015365200902863144355 0.10162572139314036967 0.014964727794631515687 -0.072741798737552737508 0.11629016709081060887 0.0055738671912329987648 0.11872457275048399483 0.10855086694861655616 -0.028627689378991662272 0.072751385390217165883 -0.041392102829671859054 -0.11324360138770279971 -0.13860036375471634917 0.11006648877507591022 0.1242111007206139206 0.084889128754938508736 -0.019334129903915298759 0.061368003375464767746 0.039891445210882635342 -0.14037404779393078402 -0.10317896721163107021 0.057674253363705310638 -0.063347424286395392912 -0.076595577612522822153 0.11291942620578472589 0.036846216263428530069 0.096573646669836504808 -0.13286967239838709531 -0.07040561530036064386 0.07858346617827796643 0.070522073606936699908 -0.12311262357506989884 -0.10269239403500152186 0.06768783661865011847 -0.091837143853253269676 -0.10905674396988321306 0.035242631476401949098 0.020697042331082892569 -0.07756416636564562872 0.07335101099204689723 -0.016072246809414866831 -0.026157979326466414272 -0.017173589471785266625 0.11946415577620185522 -0.097218899576265574436 -0.053053461182614142233 0.0098417086657204694289 0.096226712026565852653 0.094422628890319035277 -0.083405094873043775228 -0.097385507974563897959 -0.073055674613564491882 -0.11313623499643214732 0.11351525090403064011 -0.062351644690656904402 0.11554829096776443598 -0.010428497274331894121 0.014053615343763675716 -0.091780280536298372573 -0.03751797892548075497 -0.096190280195561972398 0.034659752901163708161 -0.025080465565741772577 -0.058285829468661010111 -0.11462124591918357308 -0.024012987973354219667 -0.068701418601215952231 -0.072516003956907132411 -0.11532416016835682349 -0.010251070928483818623 0.015720495667262624623 -0.032907639270817821975 -0.051279471461033766799 0.069835662365042253108 -0.1361793499723863432 0.11556629694282430365 0.071091737488964606984 0.11018976057196583351 0.068154143111694903689 0.042972968964148226811 -0.026442042302619643557 0.078077250947461582231 0.072699510995071839337 -0.033400155583406837545 0.092032473406947659655 0.045335244282986034148 0.099222893673682324711 -0.082684301101952614732 0.070280825178628186789 -0.1138300149007501344 0.066673262057732690655 -0.08525983971864697919 -0.098474762974119750547 -0.11908759955922916529 -0.01034475098403977826 0.063057375361783837842 -0.1248027526078782784 0.074024130173770838481 0.11507156713823776806 -0.056903260612296092946 0.025228268043622006922 0.076030251402987442111 0.12431441993534463053 0.099779380432449701899 0.035019826203977470758 -0.064881003136598142111 -0.043615408341353759103 -0.065540211517526869578 -0.054102803991955418506 -0.021495553027092734882 -0.0066953386205546323168 -0.14235142054853813787 0.035385970394277703466 -0.023237409084846089025 -0.0028275604964245093682 0.049848789581602326315 0.0057071566537483927814 -0.12228617423876193826 0.033435387272748258447 -0.048086811389861920663 0.096110987589868607239 -0.1099647874537486858 -0.10812200734310932482 -0.051428688654366089272 -0.0030787584517421640908 0.040016395448539118784 -0.12838239612806753853 0.11443697413491436821 0.13050711609616807984 0.037347077363708430786 -0.069544378463248485156 -0.10795039048289963024 -0.04915517902974533837 0.050334174766831829562 0.011043115223880255529 -0.10627683494397788255 0.022257808098274101116 0.12752022871457874276 -0.0023403184386953340516 0.017248820140196484407 0.069930041625132846606 0.040865697756749447267 -0.097547468310561463722 -0.033337437458022395331 0.028316611441100949381 -0.077058801475598653896 0.076730658494322895313 0.09330920813342660769 0.072515748337522070721 0.030627401434251067674 -0.021203149332129828109 -0.00016157155878149248715 -0.094244659053752663502 -0.088670756172025036457 0.10860487074038402411 -0.097182860446631200158 -0.1026344751372958719 -0.031751057267718485466 -0.052730908865859356383 0.055573429195122467372 -0.084183673939534617303 -0.0056231995157481609246 0.038658379546658620807 0.080789125361649422041 0.011889465688390268502 0.016045639056556960933 0.057720842034249736363 -0.081618492015694418806 0.06368455711579240619 -0.06057999127293976771 -0.12055300233034478563 0.023652460833522532396 -0.10125418601714054889 -0.12516716769577440616 0.043182095149306209958 0.052704639455531304693 -0.050242601128126104792 -0.12595450145032960343 -0.091914686158249075953 -0.093422625076653456611 0.11507346907404315817 -0.1353771610893530486 0.087326239452229073579 0.00891473709567352883 0.11331704040520387822 0.10015458271867656859 0.11236198251405872528 0.06612435244407868784 0.075196775470478011139 -0.1280160784812137964 -0.10805201519775307906 -0.028737515750438046708 -0.05283294815810517242 0.063659676020736813418 0.023184855502165844371 -0.12017823921371978413 0.048720674477595760088 -0.083326745074336711072 0.074667136856958304936 0.026882855704173334865 0.012923588164655773133 -0.10502275128466567744 0.040143085283069653013 0.035809076552550285488 -0.0097725355602592302307 -0.087762668824325304473 0.011890150611122593874 -0.11946495720230886073 0.11953400436686996422 0.049495944774866559857 0.10276948023465472259 -0.11865741061912617182 0.055714858740713732455 -0.078387161339739969135 -0.058881764065663415308 -0.0905686023955343672 -0.067340153474283445667 -0.13781348774842855365 -0.078066842614543607848 0.063266537379092671611;-0.068387235345947886 -0.091499009544750015133 0.014787441615628754699 0.12589096291904205982 -0.013883101482317510705 0.034252799895401704611 0.14254066479225246944 0.056395065304515205884 -0.086885473901268897579 -0.039307910647094761181 -0.11779096162663174607 -0.075053053264668254108 0.06440884596584149635 0.051838727628830044702 0.039206695517998678413 -0.058136498421789604973 0.12853828212555926114 0.014243370256513988859 0.12555442328567681387 0.021579724191364842156 0.090925593784278918585 0.055178610448447171222 0.043281726903887478286 -0.1151809968316043209 0.015871130760993841513 0.14151284215713505477 0.081906186271663669607 -0.079828599380455764201 -0.0072149236791116131209 -0.088804960806637106563 0.021963388253523442178 -0.11118465424575389722 0.089099320613631252663 0.10038989208508491968 -0.11955800641198392753 0.15349805225975576839 0.025149940776915253454 0.096335758111867633713 -0.049296634776834984126 -0.10229410845653388873 0.059539872250692633948 0.12186900175521900302 0.030394955562822879858 -0.012497624485265744834 0.04664630917680097355 -0.13423464612482649549 0.050492507024538536842 0.13122791449983231549 -0.10107262815890157015 -0.040783077192400707389 0.019455064843410727754 -0.0059529492778469667025 -0.052077501259914865672 0.11928919179625024904 -0.10542190961548614236 -0.045901080481345703233 0.044184943689360850483 -0.024870642181003748544 0.019588002040609377163 -0.098150505165970874932 0.058538301887341027963 0.023957105992597701322 -0.055541001069001179336 -0.093812910934145579689 0.12310891222421120605 -0.057710192458056745746 0.012807461580933350923 -0.013135142733693839015 -0.090626607350618809678 -0.097371754317043021643 -0.10895654156961864789 0.028646633814172595134 0.10542696481819879839 0.085538316918687851143 -0.019560440700636911454 -0.064619685302351848044 -0.027941081317453750343 0.14563124967908591678 -0.077287228840851748823 -0.041531394446641965723 0.050582294088464645199 0.010030975082236262205 -0.096807275969807954352 -0.047977553453831221775 -0.064480285226805045262 0.09934926676201179252 0.0078155217765134132185 0.099497468458443746875 0.046998463336018626857 0.071426561275344968571 -0.0058109023303748634851 -0.081211297433197965345 -0.13800873873466440456 -0.13255117557328197075 0.09060771145890497702 0.014534990786423659936 0.1240788482203138976 -0.12414342731816201126 -0.12603495255820554299 -0.090010162513397592998 0.081880230787420613114 -0.052134002524637304554 0.10541818859960851162 -0.072097125200693751301 0.0099313299158195426225 -0.0037291194644361253321 -0.028332172052654810285 -0.11450369583403897933 -0.032902368963623772335 0.00036800418472339235321 0.099510664300215254108 -0.12017620200804944586 -0.13422970875642403765 -0.035112654311217447733 0.019141668743140348441 -0.087809217327285554733 -0.12086203558906152833 -0.022087525497175398287 0.007412327654035993571 -0.065567354596589327853 0.0060334124164552402347 0.080036924759672709029 -0.12439490817194856498 -0.079571859902727318237 -0.074283980889927436753 0.084374913804061729694 -0.069811812893697297588 0.0082416179625071205733 0.088630900272038209975 0.045539846002929977586 0.022315025521821303667 -0.11490597966313578771 0.080082722344620202448 0.10678709486340508261 0.03474553045803507878 0.0095932475623470812864 0.1057896674819771704 -0.05261797949088855425 -0.11284160820158520289 -0.05157182857351239047 -0.069718299543263570484 0.054335999830827999557 -0.05455217498960893141 -0.088537737318498024863 -0.11764253404838857786 0.12468932204855619206 0.071934383279951760737 -0.094474659666631904953 -0.11194807033838970189 0.023706215528601366771 -0.11853626883646664614 -0.010314328677689204444 0.057332562424945748836 0.04403961302848901499 -0.095900094165365698529 0.097140176314994844398 0.12584774868295042771 0.035408835944266754681 0.046728293458170304386 -0.088603627370802809371 -0.067832616468683243349 0.13305976118431203647 -0.10595582293214547698 -0.020242874113030891181 0.029861270308459100797 0.13403107229296970515 0.094180413024032585967 -0.10340903144973635774 0.0095722927201254224411 -0.0036222271514828566392 -0.059090056743142452267 -0.10697038104717858376 -0.017175150081927385154 -0.067045847228962382469 -0.088708099876838378273 0.012153148546488251255 0.012598912472788100642 0.023551671695207554436 0.085133354799556429371 0.048294067621097974685 0.0030853895987425303954 -0.0049165415283582286632 0.012953544544682761563 0.078076578448637190544 -0.1108173164292679258 -0.012345714936832230535 -0.056689759378661108702 0.081532470602610832011 -0.11908724982157399552 0.12922912698367100548 0.12025559633447042984 0.011656103703454821427 -0.084402606125410895022 -0.037029933298205378045 0.014375144523479120584 -0.010285415283661385188 0.094705729971418198265 -0.027226366505605118645 0.098369504536156407437 0.043521951980908683832 0.022697276131996176746 0.038000328281950872256 0.10475636397661161614 0.074294931044764658812 -0.10689104246045542934 0.061659885308290376948 0.11361344656328536962 -0.031634858350497382928 0.075050725122474001849 -0.060433027981463161016 -0.056917699101303655118 0.028560286829028242589 0.14010635820747763258 0.024259708013723690206 -0.10778545790480469069 -0.085100574930283931496 -0.071876973670008503792 0.10090714024791358483 -0.046136002341171399033 0.11884400651614025757 0.032061551882957207982 -0.11649474806175151576 0.13976822432828509002 -0.062235861066229192229 0.038181866797703044314 -0.0087216883672512745401 -0.040804304621269216202 -0.10836025653023596826 -0.033342143623011161191 -0.091181049681951523156 -0.029286432032734160263 0.089720038470996910096 0.057375032906987276371 -0.062905183579980566977 0.077938446174157224866 0.0043247125185680102347 0.0016409010951235183853 0.070219487679635442245 -0.093494791751499800592 0.14043869756222016054 0.11476490367961680872 0.14535163296322520243 0.1090970418374790224 0.068863183616997059033 0.0017161991538462125287 0.11658767658806293288 0.03146860135719799223 -0.035413115266881678433 -0.03449130679256961346 0.11357266488587840214 -0.088971737920021429225 0.11056647840231732804 0.081691095013285724979 0.11776078400990759587 0.11583161266784254562 0.12639509881243321532 0.075854577915286103273 0.019224028289894005278 -0.10254492073989478207 0.10818012168703597387 -0.09517011999554537971 -0.084227470016872141301 0.078477615262120936634 -0.052459391901118403168 -0.022453750295736020492 0.075060535979304093823 -0.099605842947606007542 -0.099135404057760848073 0.09376561891137102922 0.035210459556302087236 -0.10209675838632713274 -0.032930348824168793886 -0.10930443633399410108 0.038121580739488541978 0.0087487048483052588799 0.1227865184780923824 0.12741780192744309175 -0.086915792422897375502 0.056851273487633552373 -0.051889703632230346764 -0.11036641993792796479 -0.023980822432504062675 0.0086583531806252809343 0.026682745552362094332 0.045176367355466505449 -0.075699089250049908517 -0.030451838981313723159 0.010549281345500247098 0.10226313558758765021 0.044240042335818817454 -0.010497208883870162016 -0.094133723164217919521 0.054722959941926045679 -0.010151094141719793282 -0.036913314679998754375 0.07355000264218884698 -0.057125306463887810804 -0.096803472013189104106 -0.0039503689369753038768 -0.17286129987556703158 0.021610280396329659136 0.0061697714050272791861 -0.10727536817467749064 -0.083523637321435764691 0.069307937204676997589 -0.093439797519495521039 -0.064749078474727495003 0.11109816797056279447 -0.029131688016467243568 -0.057063113943825620467 -0.0018745904368238498587 -0.1061126534926154219 -0.043935012134778052284 0.052103487368986574346 -0.029239021045021611894 0.036021901404468710528 0.039992609857695510245 -0.10293356507784870435 0.044500560007644483773 -0.0045864717206655506235 0.051561257621132526585 0.05421186494921868132 -0.11492118716565166703 -0.020419330785697371172 0.11627523199902735362 -0.052094005800981592336 0.068656338696315544201 0.042965449353057919013 0.11677913526800061395 -0.041243734268581550007;0.11359549311992502008 0.020802023356893597356 0.014722790428438917512 0.13033304918784649473 0.081488078112561423971 -0.051762557047724165604 0.10851846757639212193 -0.071029445805933788538 0.067886582124803140914 -0.12478758295862767136 0.070788387409910988324 -0.14382574287504820698 0.052634659935573674394 0.026815725875515637744 0.0031145135957620609553 0.068590794399822865857 -0.080938648297011570043 0.086819983158714322813 0.00043811960190949441208 0.11634699705589056362 -0.025704282434458724377 -0.032586357969112522692 -0.054149637958100023394 0.051313048233717191426 -0.037275462887826661673 -0.12567665698911162364 0.055850295066756067142 0.029012013009605378683 0.10012729089915071989 -0.039586590330040971608 0.13509041180860650866 0.046762992272565452601 0.0089829049579751279325 0.063457316814303804664 -0.034008694766004529675 -0.086117822890350789744 -0.12708070150104155971 0.10164740311772302306 -0.03261439680587999157 0.047274197958328961766 0.10235365054832848419 0.036470122118068805384 -0.0094479672279747396041 0.057008616632991872264 -0.061361597409452982299 -0.038986046691591169644 0.016643418132215086203 -0.03543089682295721965 0.14356739096186793558 -0.035588648045900873884 0.034722700856067163777 0.053248591551951780787 -0.040089753670553479603 0.053679090799279315094 -0.0068173781866134215701 0.084249154804494977289 0.022212904814569788686 0.12269338096554797957 -0.067605395297214390671 0.13005022233697524636 -0.097661173006010806863 0.052749717445495565571 -0.054180537205182857652 -0.078236182601116144308 -0.053852526568617574421 0.011299488311081630834 0.029585659342932932314 -0.089777655396826971934 0.1135515164170149971 -0.055953008580955219953 -0.073007785865738833442 -0.00092876142692607549945 -0.074318845680710371449 -0.019658911382689995412 0.15035984536792987298 0.13861129460133309044 -0.1175304492678190954 -0.072019894348341190193 -0.050245188494714702887 -0.021166830732362567485 -0.058790112295539993792 -0.017307591358512841584 -0.13029408909376119508 0.12951198936966618058 -0.054731655535044887451 0.087742590248310117773 0.011090296280457118822 0.064657554699619479432 -0.12944920227830311599 0.12135840907088993323 -0.058471376879792376358 -0.080933536064897754203 -0.082909356792149224713 0.054455122555537222029 0.031661831273820197075 -0.015154164151286883544 0.11372303287478727207 0.0042102821467679294939 0.010388698253076623923 -0.063210232864711834999 0.036212042622096540789 -0.10291589729724551217 0.014269537505414934403 -0.026444082859043732681 -0.009871022967275343285 -0.1075111032849210696 0.11764957983949192455 0.074610473378955030621 0.087436548410187636682 0.032166264893653775947 -0.10679001249122185846 -0.030913772003691827178 -0.075988860957019246922 0.12736460391322571017 0.0723228384575306249 0.050847626660731747028 0.046840926436652587095 0.060898580846537493649 0.066855737361979653 -0.0059325664519841118244 0.07468546939735966339 -0.13879730876683582519 -0.014949226861150100368 0.11429500174591539219 -0.072764996300159923148 0.055275420935865259009 0.038776754751759880124 -0.11677571645083736906 0.037681675552275258057 -0.10057715258760721588 -0.14088449943977562895 0.037785345366733003036 0.11662819334665840143 -0.11674374673695865623 0.020165916640365624118 -0.11242565187627541479 0.092685188369920262774 -0.10164860519391238913 0.026510317683060478228 -0.059807701662888471117 -0.046943501452769965943 -0.12616348661261331254 -0.033189780613217291505 -0.023409010987876122112 0.014308439846842661153 -0.040119480585138193873 -0.023014660559255967209 0.092230803172831915537 0.11393401815099390983 -0.0019572070930841648125 0.0053173856980937026298 -0.019184450858647946608 0.045936650909237299045 -0.051624917050180990641 0.015829024448708352291 0.092875319698034503046 0.11627024807091375369 0.041770467378766405753 0.11784365549693280595 -0.11226904133465311075 0.055762661349924323717 0.10680856105728980809 0.028821102003710144523 -0.11757077271531612972 -0.10411489780723162668 0.040673869450841622364 -0.12328078575058419586 -0.11026246535720475583 -0.10243568066004436756 0.1134182453084751907 -0.1189155296797683864 0.028921687288360531376 -0.095311159147602367292 -0.065431851972331075973 0.049090733644383294232 -0.054220750828307351377 -0.065702912687756062637 0.09787032780864413084 -0.023348161030239875796 -0.098405581155285970496 -0.028531757652677861015 0.094905211399272451644 -0.08255253803889203712 0.034359105221652759543 0.089254814835156542907 0.064472865075819285607 0.094171328949258850671 0.03377998172192944043 0.068446519469565092475 -0.083157082946018340275 0.061955964636517472932 -0.098112912971999491352 -0.06694195180316477034 0.039135023976972556359 0.020706060273731466403 0.11549594366288908065 -0.036751787800455126831 0.10409538744741794747 -0.13216985338514719572 0.072817319519762210844 0.092407249841217162234 0.091549423897156118057 0.013704691327739894 -0.025216407536832779329 0.028208986391413819889 0.077355799079288370401 -0.033866895664856525028 -0.0070846122240420380742 -0.088153499104647703444 0.084220335968560988693 0.11660311653980709456 0.067780762228802138303 0.055094753556131491334 -0.082234111484985050744 -0.14731501114746362036 0.085220496370329981706 0.015633345382370156251 0.12418856130598165954 0.077589630187465993827 -0.086202775269016443382 0.094912317396993267637 0.038721778840882112305 -0.10251365498209180638 -0.051650652903434436658 0.068331950603811392186 -0.059311897403495288106 -0.023014701252750520422 0.11771544819045666463 -0.12221793988181757495 -0.11974193114788957149 -0.0072025744183975733137 -0.051402305496748623703 0.054263303202017103277 -0.021159697076696744322 0.08658379032301354028 0.099652748721789058406 0.0405055086646388951 -0.070188180693347049233 0.14713831453783104974 -0.029323486396544432009 0.07230790976008427684 0.056881794312155967153 -0.1456966418281154807 -0.07520425542739843372 -0.09422275332606240561 0.099832058355095537605 -0.0055208300134569681869 0.087435535079111934009 -0.090489961635447688226 0.12078751478719160217 -0.13035473474194653187 -0.065119934710300392267 -0.11712088503642102688 -0.0075525367618626279911 0.097959096483412985701 0.04522209152515720143 0.077816372233093511479 -0.040397719391832211111 -0.096622577509117027472 0.023978950398075370154 -0.13350775093234970581 0.026328548548365738463 0.061048315225146441987 -0.058553186198099779758 0.10320854335578934224 -0.00096042912118591259891 -0.11029468277524673292 -0.065833874005901349413 0.026593657116615716796 -0.10769423627997717907 0.021017596565010444182 -0.051674666310197105157 -0.064347263254111622399 -0.0077034508171596105183 -0.021194980719429636074 -0.035078710525625375616 -0.10924518844828046138 -0.099118705599233608572 0.065738745290467318072 0.01334219285806944634 -0.040147891614060196575 0.032890504761377198362 -0.075459868159940060584 -0.042699144882147530011 0.14107475738740940518 0.11824933996564140903 -0.051445854586589463697 -0.0957075850771918063 -0.08297014614608065608 -0.085732920864558428975 0.049465118882824954394 0.10026514067917120798 0.1174784229030569338 0.050685961777075280721 -0.011239953892063772253 0.096503761330446941047 0.023045831058310029676 -0.047223222622487126543 -0.091390328828230393832 -0.12764410804166639868 -0.0050698084031965554366 -0.017414114662379798215 0.0071987429706886580869 -0.1036093269794200189 0.037849937913183230587 -0.017941105797080612178 0.053844099767120484623 0.13013065164536707918 -0.10942840323509818445 -0.10117808527127541973 0.0063664913360455136285 0.093590772644908934441 -0.083797581069381066321 0.033057081742686525438 0.27595160134731461232 -0.011832898665073211461 -0.0391774648653436669 -0.016141388414507778365 -0.0011157057595936228488 0.054754384850962213582 0.056055888275294230016 -0.077245943807655398361 -0.067638589583972633101 -0.084556178984355606643 -0.011234426068642085553 -0.053851988283751713038 -0.040999650749346881751 0.1106316829166449911 0.022890149673397086616 -0.064536126509447275246;-0.067966515829740281607 0.075534992464936265288 -0.071124569066238305104 0.12222683065396461322 -0.016152691358182952319 0.028156769623386788265 0.061144506001189848077 -0.030980501781321237442 0.031123341003403758726 0.13313446173344387069 -0.11507441761639576605 0.028700113570444024669 -0.054531980292975942848 0.061631929117692843545 -0.027996885055363216616 0.009245041378311216404 0.064482316321817417792 0.094477606563476618229 0.071837013177485184445 0.045054773663830066655 -0.16802925794285189509 -0.072172859012824622238 0.058969821370379482683 -0.098068289977498238064 -0.087640731836644975017 -0.044548838302775332909 -0.028562175875771277089 0.092245578967538779946 0.013842712155295188239 0.026018696512534470605 -0.064789521704525690482 -0.036499938517796412518 0.011156201948574364161 0.14099724332780599889 -0.047676061618132321851 -0.17045775395625875626 -0.036202839377875800642 -0.013765461770568599917 0.12796497660905209459 0.12978355633783070222 -0.022721340586396236716 0.091764028725383722795 0.0022141879725601429363 0.017940234540753902809 0.079730990513990809831 0.10636863958308258316 0.033598211694108995329 -0.12313540192076551094 0.10215582865639923071 0.024563171145615566443 -0.031637382149366420625 -0.088572216359871100422 0.02709281699711406366 0.019988376708995024555 0.029517549015612175312 0.016614077774115103281 -0.052175566108853974057 -0.097877839459958371204 -0.033807493346190063688 0.077199260441812245226 0.098873451356559019509 -0.12547411074405759313 0.084469509058134314983 -0.072034408025668711373 -0.11528626487878101958 0.057637172864541896811 0.099051507251508089102 0.12270589623790567613 0.030151426231190894822 -0.072356483062862797517 -0.059279877008985785991 0.088680342984802387751 -0.083986762334865572299 0.045645798501750350917 -0.059344550013382298126 0.11330731986336414763 -0.066081127220715241144 0.095882806229599562564 0.13934390194457613177 0.078088626669253424772 -0.15537781379797382941 -0.056665227155800759751 0.017290150350941013019 0.016693776335109735548 -0.12454583165399768507 0.057361044833954745459 0.070542958776939959642 -0.119620802371109336 0.11087124406089655937 -0.065311562960531296951 -0.070231122008478460983 -0.087314831355960506598 0.085608929152074089708 -0.10917485926580230982 -0.10394122344843512162 -0.13912444480330152241 0.040427490798261064842 0.11783020077929651226 0.0057608368545855022716 0.012171307918005882381 -0.10199679112524344393 0.041352446824904416645 -0.041031085802021950715 -0.13280619709955623908 0.071702750581554050568 0.017958846738864286258 -0.0020344741802985222973 -0.03427204576171351269 0.13615525503576750288 0.09435471833889848281 0.10501564675888268308 -0.016623091185216844895 0.066643313408590199032 0.00020565120135109888006 -0.091667364238109214081 -0.024441638262758389605 -0.0070067249062526343328 0.034420298105908818387 0.027379555117398621938 0.023576223480279392963 0.098168090567548785264 0.031565405223032270976 0.028082257809360893636 -0.036016421220051032803 0.0035631339702898220251 -0.060421745275723956481 0.095722945557168842567 0.047410015701249016984 -0.089920367759979996647 0.083471076135252508799 -0.079937654613249489732 -0.070668189907532333316 0.10849962167202706342 -0.11630906718421404888 0.089764129427613928436 0.083989945885731692732 0.10706123966075582754 0.010811326918397921523 -0.13347001903470515072 0.075633453572029385459 0.066328824836162619816 0.015219210168563344215 0.16461408840320435054 -0.065173241018100500077 -0.11069051555753924021 0.057095786267501238975 -0.049946455879597333183 -0.053431201645505820019 0.026101421485401381933 -0.13396140535878051092 -0.15459398690631095952 0.053025570077704996252 0.11665250151145176161 0.0099734887221706747945 -0.098060264197944946307 -0.10071934365071152917 -0.10429260808425917795 0.11838231944912232241 0.1282614931159644367 -0.072556344673453870842 -0.10400176648193966422 0.060544549239174669242 -0.0090885443999246615793 0.078782153573359881005 -0.0015646496000118459684 0.039717197280264363024 0.031793199031367215535 -0.020945394024199096711 0.02336733728624072054 -0.12777590745392786165 -0.12620532186387872775 0.014154519011122438862 0.049724282529811508757 -0.012960493272770072168 0.064671132709078080203 0.091845891835941578796 -0.05115503959535092765 -0.031178568075252263009 -0.040475639988660883084 -0.018980329864540550905 -0.15129930571753760771 0.12305401422856913907 0.0058148469095011491234 0.01682888353833398784 -0.12307069929288021182 0.05607404971562562207 0.056647917482382993681 0.084001600201815324054 0.12513786146688116174 0.035217336796163241364 -0.0071646880807258511367 0.086795277215675536997 -0.078683580934677838092 0.050740321970607897561 -0.06028120207504281125 -0.01981367696054295649 0.05609813392862579573 0.12524955229224993269 -0.022930455440324591654 -0.095334986874924462774 0.10779115515273512971 0.011660492104200384164 -0.027408361071839758977 -0.0093687717197427980431 -0.052324933382175899121 0.089533993765625763395 0.12398407320404208898 0.022681802884929543745 -0.13881992938633241907 0.019581626708019845423 0.015629263069710252337 -0.12032794243836407444 -0.053018419965102765723 0.009559041331322204807 0.10898825183859790766 -0.10981086544037121921 0.047107875653541568528 0.074969884517863946694 0.053009220335405490832 0.061195851071170682955 0.13467267227101317739 0.10808023725943165239 0.053065864610019310155 0.097194057798962424366 0.048278986766594159108 -0.10870801014414042951 -0.020832815236793734981 0.079582698608934729356 -0.063998476191496775356 0.056957227298232174229 0.064741118957400048406 0.013647212238081908933 0.10523556441743363299 -0.12357434727198984836 0.11598542834793010292 -0.020904073633170879021 0.14187641418881238864 -0.019350742724976301851 0.089337629469318363684 -0.057121921294231534083 0.099701258646134063857 0.03785252859270187703 0.07262918816831349933 0.0026334197902782379395 0.050632586118687122889 -0.083268288734212575486 0.085996653361871996935 -0.075966298844858282102 -9.6999210140434971258e-05 -0.014056983338595837457 0.043164192062053782784 0.084802200341974276476 -0.024621441120244363931 0.03112943627395593077 0.081648370213725229849 -0.051404188199717759655 0.12093688216744352681 -0.013754064382615652576 0.0076697792469134062204 -0.070261484918578767656 0.051982508411303710028 -0.11281447803389567375 0.059034401151574079913 0.075374874125237897871 -0.11481800479037182483 -0.12206987038662032996 -0.031690758543074501463 0.11731534801985538108 -0.13788555282597017571 0.016600415456340129189 -0.010118338811146702916 -0.065043509031129681519 -0.054089319667244069312 -0.0020114027173408171971 -0.013925886622089770489 -0.053692251481913561006 0.035481419195689430091 0.10998115350750953256 -0.11348475565554558275 0.087541995867818342414 -0.11342133693230373181 -0.031616770255589239647 -0.060654879929585819864 -0.063368953653860318753 -0.053152197460124339656 0.12415148348100152331 0.072670463245416330733 0.029078774005522171203 -0.0048262191828280127937 0.00032071843644160594709 -0.071677240502258279808 -0.067032156875077172908 0.097189937752148181094 -0.13301642784128428487 0.015008111516534134236 0.050914808266803779357 -0.1205314812787748463 0.039411116440077408052 -0.093097980406164182465 0.018614720570293799562 0.10821047508820383354 0.093085738002671600255 0.11518899146116476362 -0.11318966477142636262 0.087778579686354774037 -0.071903568878418977484 -0.085581024160553298419 0.097761053026449176717 -0.023255259216949292211 -0.1037409905761429163 0.098447223699927172147 0.05789026341279369936 -0.041607767078681183459 -0.12752893756318384177 -0.075941586282833928312 -0.080088678824843953508 -0.027255471727894199641 -0.045109294225994571448 -0.081245358683877583195 -0.10732488931772647678 0.0026067040644788762836 0.010546654446972359223 0.1134003776950853748 -0.11504635910227001272 0.025020715399176836347 0.030648364276727731864 -0.051029237245802341882 0.029461819616090487856 -0.031672576793515094806 0.076386243666130018704;0.0010943786634617070318 0.11203194452030150463 -0.13626409142043524603 -0.027512514025512021382 0.11844019114929589531 -0.010509996707736741356 -0.097670036353289274578 -0.014597794568889864777 -0.033298719398652892876 -0.10925484312853843416 -0.10614901739298844563 -0.030985568180718323777 -0.049714670650971071186 -0.036878408122813732817 0.095045364582323169089 0.061306730203615052155 -0.037802612690614391389 0.028013473926234835898 -0.088654338680478922408 0.019844029573414960488 -0.10067397748442735717 -0.0057150189681854316609 0.046094598495964506091 0.080516802473579993094 -0.10453452845015639983 -0.13266313471899221499 0.048523646768755444858 -0.16776770622180248171 0.03133997212454252973 -0.06407463261622357853 -0.10162451655581110355 0.076174656201908927389 -0.094221212977098317554 -0.037602914401878448358 0.10271598822407843055 0.078770076031349431367 0.040400623149736553108 -0.030378735154518596295 -0.064659163660792148831 0.013839263287762441565 -0.10659060443909006144 -0.15546458766323115186 -0.022920837865719481674 -0.031826887354294688959 0.044101524886792566049 -0.029145563912306757248 0.0051474943366991874824 -0.0467846690255832795 0.086807360959273965895 -0.039610565988525560377 0.071990275786845428496 -0.16084763099677873432 -0.091924762100105070206 0.1277140817517399829 0.031455753575522729659 -0.024929995784960835847 0.0034113076234128739822 0.039834449326691979965 -0.11268282526009079647 0.0465619709264935705 -0.033279695230481347312 0.047783506839987596737 -0.032542155389859363235 -0.0011229488199780408939 -0.065792829426398649617 -0.01920141204080709138 -0.00041586768423357474162 0.055508349870969780904 0.059370770031665368038 -0.11639453452716443105 0.036746542581527034954 -0.091876565495403419992 -0.16695686181240551593 0.011551772322371830701 -0.088978479991481077005 -0.10015926871385007202 -0.13071443297905008252 0.045224382177159870577 -0.030925984872303604462 0.051111978426287188459 0.09089504575502710404 0.046750680299898580983 0.1281033447885435439 0.017201121153867880015 -0.11827643677798004018 -0.053767642714399668802 0.10135886388268677827 0.05883688267920631626 0.13469192556648346137 -0.020316887618927321341 -0.014934908444915554263 -0.047579742034665348238 -0.10003759242974705201 0.090677557595167310178 0.065800403878062310725 -0.12911543727219101929 -0.1043654040758115048 -0.091145588103176203298 0.099946745392280295084 0.024296849444522559958 0.041204158213311491143 0.080173550039229352082 -0.035439014670770860316 -0.079251721596341209719 0.047981193040428249397 -0.035068931526274930988 -0.0060290368584171956032 0.058449408415184408994 0.13188037839666069684 0.11398121222054310997 0.038528749722172656034 -0.0070469602077740606597 -0.081847613042960787322 -0.075810299491707561215 -0.091861952993948711721 0.041071985002364280737 -0.073937655028097029608 0.0054959060234470950151 -0.089553380771580703978 0.10338992042732786381 -0.13645416111549568683 -0.070650911939489247082 -0.021814447161752542614 -0.067549196615544648825 -0.012771696889536473044 0.10161853595975561815 -0.016494923749782040151 -0.087290563574906776534 -0.023365815130066094896 -0.028004085630180641786 -0.046493924838764147389 -0.028180906135892611758 -0.082693328584002925852 -0.036327647590752895623 0.040959008293673916656 -0.056242997198611713316 -0.076986760110604166019 0.026076283884975477029 0.0051724923781003625395 -0.07781431847102411592 -0.099156002458865855065 -0.04842402784242366004 0.14242067149892614908 -0.074402365478684687194 -0.081903860251841417717 -0.14501958112829280156 -0.11611050317647580998 0.10395249010125839906 -0.015671001412832234051 0.093207633454097854608 -0.14377128278034950748 -0.031893293330809820152 0.12500560287531595205 -0.074438131394489043258 -0.061460582717270034747 0.10691040138483040578 -0.1044720626500510452 -0.12764739718929890566 -0.0017848919125425550137 -0.086981264424851226225 -0.14799196144379148099 0.00064786650413388782721 -0.096855304752282753156 -0.025052862100914834176 0.027006143820852694659 -0.085874495231334058154 0.092913913352377919264 0.050206197397525471893 0.049137413422402499708 0.0099533459938495310454 -0.12307405609116686684 -0.12126756889778864124 -0.11412695189348617819 -0.038964950730218127217 -0.062254195456580528611 -0.1496165438387899449 0.041334917707405549603 -0.0077948887315225480824 -0.0185138465352976192 0.093936739094333018829 -0.057252241399074040029 0.048441288702467985572 -0.090486106413395564485 -0.0012765240993049961019 -0.13896346077319779444 0.14322726195429405505 -0.1213686824288248145 -0.0001914626601528216399 0.023211067776546617097 0.031515710801875145008 0.052416960627781832016 0.027639619413539231324 -0.064200528546461271828 -0.048622164334344623871 -0.0016835815222839573685 0.069009148293353861359 -0.13620432946006838515 -0.04063640586631899615 -0.11852874343092451026 0.10053485364562339544 0.0065770746728795901823 -0.048437642131450880933 -0.12616692007869553804 -0.059242675285077074643 -0.089346738207086828787 -0.11578313425407109338 0.039286692939696263305 0.073112158475088284693 -0.017159476784880722811 0.097151070935151281893 -0.095540300099939232115 -0.095802810155722090135 0.051301905092465224789 0.11530141392899403985 0.10590453731959702244 0.049595990491792932287 0.082258875879059056846 -0.0095713955456277442779 -0.085083798408945907066 -0.089939012620639968709 -0.088588100952013568157 -0.075113119023705876565 -0.046652856443169229972 -0.020785916802868037445 -0.10723776836402931778 0.061845773398820150235 0.025795533775839759455 0.087442188710913734684 0.11701683665602745366 -0.0039601185872026470683 -0.12342190348909549968 -0.079910819967755938875 0.099496428067594677724 -0.072412200194561474054 -0.041319082886458434467 0.070202799919678773866 -0.12963213720927288519 0.0034989985242022346966 0.026972491632426237596 0.049195275877276720133 -0.076361873513307615413 -0.00078753265014988929615 0.02496253589146679025 0.12881614548664116482 0.043859389859908143317 -0.1092519094012796288 -0.15144267561511903786 -0.041885777490540399004 -0.10835097076102002955 0.093861865985627734865 0.046936818535610200231 -0.022334651401821749989 0.0981742767880734446 -0.063764447384943342967 -0.045355105127158255873 -0.06475105229056681011 0.040650044103628345249 -0.027452576609427341292 -0.061148029473342517537 -0.086295949971406021861 0.014726802660420196603 0.053654081130020590817 0.03227813547679933559 0.12270353836221124799 -0.087901482755470786157 -0.1314260670315018642 0.036666582592947673247 -0.13723108484586685196 -0.090110454002602660695 0.059219517258082519928 0.038169261272741776547 0.012449528030012483454 -0.11761412340465587922 0.0083587727486837300195 0.0021664183860678125175 -0.082409107755733110312 0.012958528387335396803 -0.098100614009008935135 0.068301654794752017508 -0.062357932341945233878 -0.029032452462173223562 -0.095759191878978827672 0.00040709475205196962461 0.11834549990480189297 0.094036920254248410056 -0.01084592119513050866 -0.039778389888783349804 -0.03494403874334844895 0.099088963128606252773 -0.02608528711258499555 -0.10925213608963912915 0.078570194568842413596 0.051623263282694044352 0.011564740536105851121 0.066884819642013010332 0.025039649944947769966 0.064484336426105376416 -0.058769368296945317942 0.08670813256571124894 0.048162160734019368591 -0.0055937720790155374961 0.072251657553913897769 0.14862332856048618424 0.13278149312743328658 -0.089629864010214915782 0.058859277824957305369 -0.089842990052456522809 0.096725400425393556758 0.14333525226513085804 -0.051699617266113398473 0.036757733155540178727 -0.043637567541408503469 0.060017429035239877599 -0.076277821426237166214 0.12679331621729261759 -0.077462505690549576798 -0.072450260557305773412 -0.066933808665029959073 -0.12234153681597292884 -0.092807392911685104853 -0.065889277394781176067 0.073920212184568540037 -0.064872333191054371015 -0.035313498450702952847 -0.16991507932363242306 -0.1423617559862463966 -0.10162991481677505212 0.066054082242198428054 -0.087461490138427355756 0.10452479424778744754;0.078207494968386206957 -0.087919481473775693003 -0.043601477325775142568 -0.063641461448367353526 -0.097874690285715867932 0.17358532859159683803 0.0032144299841221296923 -0.12542562007156862758 0.10403799438159581914 -0.079320308133962846853 -0.10365237475682630153 -0.037911008825320634263 -0.078999584913407375208 0.12846393164643252205 0.024508231450740543961 0.090383782894566708221 0.10194914201427239531 0.036514845685052241264 -0.063431061740892746847 0.042806261884428584152 -0.073377324737098570395 -0.08519481585315709371 0.063974334328955606566 -0.1247210932132070127 0.060894004392255049463 0.04273653609031403261 0.10984524745047237471 0.1382088008322456818 -0.10905276834428682953 0.13370548177360197517 -0.010636572968205252471 -0.12742054158033305766 0.005077152418147782599 0.10650386838476809392 0.048771873559183914759 -0.01903448965748204269 0.086468522898469374338 -0.055387435331239541492 0.070618666622268358446 -0.00071677178342294896232 -0.019175726070657032885 0.0025692731910577490048 -0.033128518925544928053 0.050876349331428191713 0.057332981431420147744 -0.067106547030161237122 0.017434208236576986817 0.12058563466385781304 -0.085233960659540072835 0.03185256449386057731 -0.099422816632299793049 0.012904354527923036708 -0.039589628168557600141 0.064411317362205511294 0.099849577279501000593 -0.012912238299655704257 -0.037636784812654026922 0.12811814110948441248 0.031209093231225913667 -0.09420628722460876181 -0.12853619500776924944 0.038752279466466768576 0.10726067719366792763 -0.081086096064438617503 0.029693867023622474294 -0.023035106625657653795 -0.11380076713640809027 -0.13117322690424201848 -0.089622002216097534921 -0.11232709124242112875 0.10697445633824102795 -0.092934906519036797334 -0.070015523655433911654 