function [y1,xf1] = TDNN_ctrl(x1,xi1)
%TDNN_CTRL neural network simulation function.
%
% Generated by Neural Network Toolbox function genFunction, 26-Oct-2018 17:17:29.
% 
% [y1,xf1] = TDNN_ctrl(x1,xi1) takes these arguments:
%   x1 = 15xTS matrix, input #1
%   xi1 = 15x21 matrix, initial 21 delay states for input #1.
% and returns:
%   y1 = 6xTS matrix, output #1
%   xf1 = 15x21 matrix, final 21 delay states for input #1.
% where TS is the number of timesteps.

% ===== NEURAL NETWORK CONSTANTS =====

% Input 1
x1_step1.xoffset = [290.148989484803;290.149812076076;290.149985199722;290.1496250909;290.149954030937;290.149986786476;-4.35967012890615e-05;255.648834228516;260.740386962891;-4.92016442876775e-05;4.81576826132368e-05;-3.03787765005836e-05;-4.05440659960732e-05;265.549987792969;290.149993896484];
x1_step1.gain = [0.657735691473121;0.657748976769077;0.657749258920926;0.65774680336867;0.657748505638862;0.657750275088213;0.00708878066086676;0.0927153067403077;0.0987566511103644;0.00678315020576719;0.00892541420234709;0.00263664489881638;0.00440082527254804;0.0966183005109848;0.657741022501455];
x1_step1.ymin = -1;

% Layer 1
b1 = [-1.4171289252173357998;-1.3966792513010124477;-1.3193468276051900645;-1.23664192445373744;-1.197633783926643547;-1.1170481255771371742;1.078034751105552802;-1.0460215584825258706;-0.86189208401504990853;-0.94501530291845303733;0.78155832077867748442;0.74158326129911322777;0.694457193350295654;-0.63991415573020649088;0.56770440015580214688;0.49068040614820168654;-0.48075361370280589313;-0.35830596217039517581;-0.33755092881883297373;-0.23173805445745060405;0.19013734879127641708;-0.12262882996852574047;-0.17999392207238310015;0.0095154169969152574415;0.0098855594235838627898;-0.13211293126946427323;0.1553031277727159043;-0.16690336262479305018;0.25927692799585611017;0.31024273758441217597;0.39985441174278030241;-0.46672988804095216775;0.51260097870277188115;-0.57955794056537945913;0.63350055979817809781;0.62047445137014656247;0.79145700512763650369;0.83321344571273381341;-0.89747804467308489595;0.99160213478350534011;-1.0305806619467750007;1.0799403056280487689;-1.1248935805048527747;-1.1834455842591482533;1.2391312685237205748;1.3136585175266666248;-1.3676563972902544553;1.4030003630181306917];
IW1_1 = [0.011237272627756617061 -0.12286244000525205211 -0.15864366716293534787 0.00700384557907253371 -0.14181595667501109559 -0.085772265600235597649 0.011348298067792379068 0.040172522789910132535 -0.046141714680702355933 0.004649582158371775957 -0.12120135012207461367 0.086859490892097421244 0.016606367992785135701 0.015838487348811693123 0.051979054679189548582 -0.038090464526493131303 0.081126225350857894547 0.078809854755766337031 -0.080236899858963692256 0.05107989525403323211 -0.072387787991456217784 -0.034940046537305549657 -0.036254115110806915678 0.010571812132402153353 -0.0055519627715494975981 0.053599288121527519091 -0.085701888222070476964 0.099612960800013944374 -0.051087579769645334593 0.028032063778992328401 0.050709428399063317949 -0.068997269150921719527 0.0032293146947510388729 0.064268047077925910537 0.13855209904416473932 -0.048283555478313124054 0.095781820591077676541 -0.098715221890585569398 0.036815686248997191166 -0.020115866834069070362 0.10256999540478456412 -0.054070266111933926179 0.080396597614454154423 0.11681542192865589092 -0.080485724035847000524 0.037507095293417745674 -0.074074862328896373675 0.1059488714101210205 -0.10049756870372404671 -0.092259890560528912129 0.090473105415467422463 0.062422776322192501108 0.040060897836026537755 0.027690559861896741484 -0.054285667297074555182 -0.048918303556649521402 -0.13127783049029156937 -0.12986378705791717936 0.089297575653219191105 -0.083561950374908988692 -0.085537500906023786196 -0.095943176673789223874 -0.034704108846933583166 -0.10750584592795096872 -0.047806222789615888946 -0.14006327132454024498 0.10898230563324008691 0.078774542869953209645 -0.022647574931746385085 0.082028061533811008621 -0.038603542092534762209 0.012274735500425144191 0.034363705986604618781 -0.0018029872979406138395 0.10378850281284424106 0.02637753862252803852 0.028075257518644078369 -0.0084071291535466954881 0.012067657082043081393 0.10250371261973761916 0.093591186854432587006 -0.13483084878922543814 -0.039748063187494339643 -0.07425555166172082 -0.11735475770817020702 0.067847350366875239236 -0.03419108737433221995 -0.0042198408108333231026 -0.070205359291937927124 0.025015273920202783092 -0.050690042205222440863 0.030332637294051011806 0.043447557425640874473 0.1239260594863815651 -0.029194665677954041716 0.027674641574608253164 0.11900383764758183658 0.09100245860980281376 -0.07555277908375367113 -0.015941913599491219083 -0.095009508539494455515 0.028686244627042303129 0.081416804637933812283 -0.097095909929840296115 0.1053638555658639453 -0.090538536631405305832 0.1139779529810476949 0.11459553524990581663 -0.010468338115358022389 0.061387231503570796609 -0.027451772686030499054 0.082663989938660226153 -0.011699688869567433439 -0.048293612372680851108 0.10710639025408816294 -0.13587992522119041183 0.0089833812154164159602 0.050906764957478103928 -0.0062689326931656122119 0.097722015276644536019 -0.052322272224002992769 0.074253286947096902582 0.074560074471488393955 -0.023030015921738512807 0.084159013037969535032 -0.1432479856418476527 -0.092008288044731087463 -0.011557438830099069083 0.042660935683147098441 0.047831247267255690148 0.067994607966536460553 -0.14343018345603372743 -0.0013502883545110702917 0.071411414979769827216 0.10020690587506231317 -0.081488515152094223581 -0.017766916139796348761 0.10140754407422711281 -0.034131010830937551226 0.03604747600883205505 -0.10829635991020017394 0.068231598500695128662 -0.12164767648341200112 -0.0061579577395786165919 -0.058044197201400693498 -0.058425071537469883132 0.0089313437657940180497 0.061404631038877423299 0.095658774310080324499 -0.028172221859811667072 -0.096222524831140673895 0.067333729980764450707 -0.10725381266177862194 0.086775032833912774111 0.02123466583303538005 -0.026414633025319139009 0.09795325479987228301 -0.047648582483895564332 -0.082247848846614568519 0.11663502847529975959 0.094233052271730580185 -0.049859209705022250469 0.034146536328705734409 -0.05134741215082155863 0.03622831068527775783 -0.048427606086465312119 0.047457914155663298572 0.044640863976535653801 0.1063617032376990984 -0.11774691172347508117 0.11630298798341273669 -0.092515483455015506964 -0.098332957777822055379 -0.0012379260720927944949 -0.024824346737035655336 -0.13443220188863488906 0.047546611790189083346 0.0016122219200556205023 0.046626382096552045076 0.036038493887279490768 -0.0024282236396996424027 -0.13112917323541520287 -0.093081581608983762766 -0.044668309606399572709 0.081397974881376650158 -0.091894760474732051225 0.0061617650177839015588 -0.11850613384485961244 -0.097384927517256289486 -0.010023196841404916069 -0.058902593644776408965 0.012542443997937037167 0.042373082051896604483 -0.11550513575918987252 0.068128207071903076897 -0.088454795234195790488 -0.10023164995330256788 -0.030088078829999111846 -0.035873382683896407053 0.028151338330282431321 -0.084861282494581483093 -0.020679457214650628916 0.055652581858444342966 -0.063246273487718912554 -0.05462307222283902669 0.041917360755464171118 -0.081515884908341620929 0.014334637845246939181 -0.1000733792615316059 0.12628173032497225226 -0.093398068752968188555 -0.072823650285569904717 -0.12214859199936750622 0.13003730692472953434 -0.086849022676288648026 -0.052797529733743402136 -0.032971505510119264448 0.092624459671628786572 -0.010940966103080759092 0.11703686223924093801 0.041920758121337685365 0.085490752375031162091 -0.045859820977710318013 -0.063680220037212700857 -0.022898549316183521019 -0.12195806517828640392 -0.12486993084894515427 -0.043354872890027693066 -0.010463810898708776273 0.099731153829506202779 0.093470686494774968267 0.12322203303678622155 0.1017156722138336522 0.095865248425204385718 -0.0091024560254841496015 -0.0058867502208078186995 0.082505315752740532309 -0.073254658525559041005 0.019499432926577513203 -0.1176495971649004213 -0.023382905021278939384 0.089305859775021645408 -0.02341448179636780938 0.092892737639919384374 -0.018161933857543714754 0.12463412281499697265 -0.12722630952596131193 -0.055771920683879580571 -0.051195252048070384598 0.12971815929581181903 -0.090692821405492785036 -0.083316996585225913674 0.043167905536109510423 -0.08723933618678983426 0.03889995758366979195 0.076707880701137820534 0.086994758623012799492 -0.031194268396187049136 -0.113624012236525046 0.084711361758886660756 0.088715654110903444107 -0.12956850373605477422 -0.0011931178273793614699 0.014941906579837838792 0.065914213690617534658 -0.10375672449373272987 -0.048832758928119592012 0.0019315148062792038362 -0.071743868788364292821 -0.0589569613665462261 -0.086539318398660233789 0.062171240065103217098 0.11478756427041020283 0.071125114586912480119 -0.098861782345168486286 -0.11093893881335810392 0.089327381761393764847 0.12255582814278340176 -0.050039621006274653814 -0.02964500700750606621 0.083851611190092864567 -0.0070840767452133857063 0.13119973512895380385 0.060605151441834113901 0.024950592703748466356 0.10733377742399585753 -0.063962887969969059454 0.070389188375390807084 0.0021396988292494874273 0.034682428174775646601 -0.13144941294805914667 0.029957128067970028445 0.1389601686237503797 0.038809721907181932155 0.11796618866121193203 -0.014124358096193636442 -0.0085182427570306886583 -0.033869541643437632572 -0.023164924072077330147 -0.13844447492723005455 -0.12679598026718599812 0.036107761940629451436 0.13169973064336606972 0.093532272843271466178 -0.087223133279038328469 -0.030087103671832798185 -0.12994608011023237037 0.13494527508739148636 0.022529355567803714677 0.082249706584761217432 0.091328228705776254293 0.11426309057156251725 -0.11713796460384227893 0.1016620399990704332 -0.0010033338849678460989 -0.026327359514200163182 -0.034983789737322419644 -0.041108605154826130534 -0.034673926406002905654 -0.075221477997062122234 -0.13168175613829191661 0.12209366055011848518 -0.093943578773490285516 -0.01857660908252458179 -0.077787939914561357591 0.081922969752395241594 0.050678391342164195998 0.093275667103563719706 0.110210701387292484 -0.10933492011071697936;0.20283044558486387765 0.21064040195857980375 0.016069285999755652389 0.10361622278860296853 0.16302997911433003697 0.082532005614420242412 0.082793035968058883989 0.015040260102954972413 -0.014728482765101460691 -0.061429385532112745771 -0.037597998673641733203 0.092713412671374062501 -0.13064752698427245514 0.083949556773752667671 0.030441237479544094868 0.18035897165853576052 0.034911469049365387307 0.15217344936354498808 0.0049335418555620557182 0.11645891509987567336 0.070216464194258310094 0.016175851733244650532 -0.03450319660318582754 0.092785702509695200391 0.085189039994217327645 0.12334177895384319801 0.012304955124995358914 0.065064857431470612958 -0.071888973613472711977 -0.024173946464215129853 -0.03306927445443828828 0.10611237998771101687 0.082750694546201000734 -0.0094241649020131591091 -0.040592914704929504432 0.14479350981262112397 0.069254356173804432206 -0.014197714330313566597 -0.033524870773558687609 0.042364601094308111662 0.11170411695565686527 0.089788618215983481696 -0.036267414678062152855 0.050338950844579288812 -6.7393982916511241095e-05 0.11409262775272388524 0.044661857560337747675 -0.058999494886169880081 -0.015807361050693236743 0.10787642967257113358 -0.00072606590002413239245 -0.11818442474593128522 -0.11050293649279824271 0.033825300539665530131 0.0011841972455255500921 0.092793777888805328846 -0.038434428734963207996 0.05757585159064929764 0.085984206451313743846 0.07270212914758593381 0.11568092041356574373 -0.10578292070901544608 0.10331983632551547392 0.041454867897373078034 0.054086105536639998703 -0.11554092061626702881 0.13252435047824390191 -0.0035317129212885304927 -0.086668164382089851738 0.074818733061358180803 0.035438351948046502293 -0.070020444876101400888 -0.05275640146083419163 0.081478131641321505096 -0.10856758866054588841 0.070583652491300052922 -0.042519393557288800989 0.051364748990758005154 0.0067959753113151534498 0.0071035978152714750189 -0.086553708100876994291 0.02449108376453391217 0.06464218840922035525 -0.092312217601217161356 0.12003231633045745308 -0.064193129848841984364 -0.062785425493623814308 0.092000868339237040772 -0.013699239993152026104 0.09262144427359432497 0.024110686398708742334 0.072653076783944767203 0.10226929683127886084 -0.12279100329914093004 -0.086614077335930711454 0.020664542429410397151 0.13996794374231730229 0.0051719861888215208634 -0.049276188032997964017 0.082553817512319563332 0.017664928578842185869 0.12858640645296404159 0.0073157597939700535691 -0.15241864978455266222 -0.013199840554031110063 0.012364126863977174114 -0.012025759420280656212 -0.047419262299226438984 -0.0070724960606058321494 -0.025446916335380695418 0.16062044517790474707 -0.0067138017543768883574 0.053764887415801786152 0.030352911125965529454 0.027451114513002417006 0.059595369155100372249 0.041018061757662920008 -0.080407501417313925751 -0.10684453189200546208 0.0094571039427925208259 0.11570219712303313198 -0.14114657349996440061 0.0033182366506990380699 -0.066616903005555894168 -0.14153463864025236929 -0.011362125584733269446 -0.050625110649919986827 0.10745667000972600191 0.092474683933518694867 -0.038632794715868751245 0.024059865919026823117 0.088200232575578421668 0.12009936494635331528 -0.13304398429750838306 -0.0070052391579810604355 0.0065808804162747298536 0.00051470027507125363196 0.14709096464341514521 -0.039513957607154183427 -0.061008096695464766879 0.085442680895936207186 -0.059277432916706757071 0.10191545448357060277 0.056547969465982644843 0.11299384379326837813 -0.11354770809691441813 -0.030449453653601760844 0.022148743668396461692 -0.097929445881369578397 -0.035726169722196478296 -0.056437122260373902283 -0.11477956915645561031 0.11270750483720719248 -0.017305628916223534525 -0.046335272407075356327 0.10584248529368614489 -0.071329730301517790814 0.042899042103812387583 0.09595559375682533032 -0.028010093988670863724 0.13644046901230882929 0.03914965519078307532 -0.10904550693924730531 0.039316530052682777119 0.068817486330911697978 0.030753765022543826796 -0.016748049597862291887 0.069468914363388922784 0.011138382453784413315 0.10538316610992197464 -0.13932750314870118169 -0.073544660422662430643 0.094288381918606542498 0.082608577741231439817 0.026089604791913884041 -0.01242801161051510471 0.14101141832169730717 -0.086482587033916397123 -0.12222210435293436037 -0.066467985402207704904 0.023030989252394232225 0.0078351749810360183518 0.086742364472290167665 0.0362420853752533495 -0.15000868124356700473 0.067293034175011770537 0.068152908240008122642 0.075085706935155052677 0.089449353672987758079 0.074344797488070116231 -0.053011841201910291088 -0.060575813762953498176 8.028187906749736924e-05 -0.092692110080407744133 -0.061161392710024790886 0.022615822521210322132 -0.1326578049214506283 -0.00055022764730835061354 0.052984827986071098005 0.03242821397231950703 0.033526721675075893403 -0.1052774334957466279 -0.041105469639143583926 0.083829907716321511169 -0.040084213766989729155 -0.030254113518945541933 -0.075019970510836850308 -0.085912828659185577762 -0.14857152824106811817 0.048673639729175176283 -0.085398318217267260577 -0.051957625716164163032 -0.012587138609645779491 -0.005525392188353565881 0.023336000027808372764 -0.030455543343841269543 0.084189639711240618625 -0.069072338410286385213 0.092677167636861387812 0.014148395380294951154 0.00060700771972144402025 0.0049508097559792961159 -0.05407332911378909257 -0.050384230914204332363 0.055314384442254491137 0.036376759577717791838 0.075356140938090759862 -0.04167775594020222546 -0.14327715600079471425 0.019342897010863561308 0.057097706798595201927 0.10947141662627508929 0.080938658120271386731 -0.14479355505104660184 0.16503565513934279063 0.078646220974273206572 0.033604438632709308921 0.051800950494372610677 -0.19883476754200329895 -0.088977154211705322684 -0.066195841011332939852 -0.15395235691624861718 0.059453240328620371447 0.034502790952818176984 -0.035384241406298852506 0.048397727606594921623 -0.056460105632565746325 0.058503873672711363685 0.040273231135431221406 0.13868043318696757216 -0.016633107033989086992 -0.03004766428974018494 -0.010047868775228929392 -0.0084478631696034839349 0.055483109312832068483 0.13234048728037617337 -0.0081578616833765989907 0.076157291065491516946 -0.16765742316535675593 -0.10571902040297534442 0.074714179752147169555 -0.11727323165126461724 -0.00030628251264785846895 -0.11333149553540747267 0.10151340165039679508 0.013426314924444873039 -0.074104077615206723206 -0.014762876969090900706 -0.078790679227591239875 0.056529984794464360753 0.14120201440674298721 0.028034920568560772747 -0.086537376352628397891 0.082474049063278931371 0.07759772575794274263 0.08990970817127784398 -0.067984926367572612316 0.03270698597052826978 0.078459331223779849029 -0.053853342924462692387 0.064161741119745707707 0.0094214535691679451856 0.0027663543065101913083 -0.045879520306777187011 0.039482581384655796031 -0.01965634093049949821 -0.10739655928507002569 0.029660756873113754833 -0.051622939162438132021 0.089972933921893413767 -0.073662146288606150657 -0.1151739305060264229 0.20543932817341536978 0.090000614798456141097 0.014742152628557190358 0.11194077062284768509 -0.03228213500611728376 0.093423432884838411572 -0.010788729977784426717 0.24775383534025666177 -0.048227155425316012294 0.053221929493391016697 0.072712878196786179252 -0.023228686151248730679 0.0044091991622803453424 0.060970890190638581119 -0.011840330811409444448 0.093705382121730129708 0.080960514225024857171 0.12903153184250309993 -0.034346399633306094745 -0.1199474838037926927 0.097643493306051654113 0.035999283213496359457 0.14330576220933224918 -0.060945564805202592784 -0.14962000605423059207 0.047413428027263185283 -0.13336653699263370521 -0.083826455330186164239 0.23899392410975062173 -0.09449229150543424216 0.15897722840344705175 -0.098521270448220746307 0.13579631318702448106 -0.093321972763435817599 0.012138063784080966104 -0.0020207541085116190009 -0.072434089091219761025 -0.050483125746820359248;0.093255625608289413608 -0.020203515497656719668 0.083351543903358443766 0.033433608482697801945 -0.12681008555007139416 -0.14381227555048309297 -0.0056965011320941824624 -0.030139545570340483399 -0.1053806163305610194 0.1401914278949117354 0.14470202196092080138 -0.10395831666432944762 0.1094082542693488036 0.12437508168237181028 0.089901211720810975114 -0.12438131994711390527 0.08426738706303840698 -0.0086686159524815720873 0.045478573629716655125 -0.097795113568598657228 -0.0019234630822420747346 -0.033564851891202923673 0.10130235796574189877 0.0016925388432344771941 -0.038257195568942574393 -0.0017330739395313471581 -0.063125436961154995918 0.056421577227496216844 0.10380184739039545472 -0.020935711272633765467 0.058345767395647660236 0.052338838623858463528 0.0057325873754473389426 -0.10982187115892308449 0.036671815918997902051 0.073362251303444273032 0.058923624710974807639 -0.062750952435172646648 0.023935123869607406039 0.046116287463458485729 -0.020557039020692949999 0.048357914287946626719 0.016014287183705833845 0.039712452301149524236 -0.063341197825045075787 -0.1016617520169809108 -0.032153687714714010437 -0.073699546910315022474 -0.0578480591868409319 -0.077232472079524952524 0.074805048825469150353 0.073576267631027508775 -0.047204968238383944457 -0.022316117825716595691 0.14418414391097311711 0.13984040993558871646 0.089613829826209787099 0.12859645236592348594 0.059359255732676113881 0.097556202391846327804 -0.10163358933458503663 -0.011808362564287381777 0.040684584202194271074 0.063292432857778316291 0.064532185637327141303 -0.13651614627321084772 -0.013800753465864033787 -0.12076036792324287839 0.066938631086630492883 -0.0091875266912147708631 0.11813771747154253045 -0.0006235550868846904439 0.073048555616292185078 -0.12157993379430609426 -0.1072553557508880151 -0.10425303901942374607 0.050897946451609943352 -0.050531562774791323467 0.045327822961951085012 0.02002838938252711129 0.028882682679211194032 -0.051105629958447980343 0.0019420860284417467735 -0.072113826736651426286 0.085766612050209842244 -0.045011303799809887494 -0.0014186931647388455625 0.030321932131830122564 -0.026548779196247384443 0.043831075147514074464 0.040288880969494934858 0.082829762489900246591 0.074057814495491092188 0.10026650563523439863 0.10430417107824813128 -0.033468913155416543659 0.031321331405500765777 0.10665482916584448358 0.046726987457643150148 0.057506521946225477859 0.065223751410698624364 0.13600652810927352232 0.081416500717927428599 -0.10935809848267953603 -0.022432277841232143439 0.030307558900252499351 -0.10804408361227570146 0.084288279886470890423 -0.093123269603105532366 0.11441223198571515152 0.0019956622867674015352 0.074741865788712155694 -0.035326042824518108509 -0.064260050288150558084 0.11549103478049946303 -0.061909107020939137256 -0.075624371681819957391 0.12565166176352957073 -0.043122921026005407719 0.10178623786373630633 0.025559391896717298387 -0.069162015132199342049 0.021660479169069511707 -0.05686114773388283028 -0.096794770086638406981 -0.023493153531646562837 -0.11453667949759932521 -0.10415333700111381598 0.060394186677566054355 0.006892780368887145917 -0.080388543977904153293 0.06614541063303346069 0.11453064190763025121 0.0082780940740465949745 0.018033421564591315539 -0.12867255821181275421 0.025523594701753152258 -0.13597275759680962914 0.11983690666314336659 -0.093426048527043531466 0.083764223021492126287 0.0066046884355716612564 -0.021316553634216386243 0.11227795843106391782 0.045870650733683147882 0.0058649192011391215393 0.11371745965663188072 0.013321197629546204996 -0.075536508108696151509 0.03258264128873832044 0.038408152969242839725 -0.024017075487689051178 0.05598289749380373076 0.020007456818401415932 -0.1048983540213065252 0.015871582602633233644 -0.070153111834384898615 -0.12059644635575438032 -0.075434301212688070759 -0.02729429483592420852 0.057902834346740240934 -0.10642780584899259877 0.12333736077956608534 -0.00068320174281211382746 -0.12252573693211479822 0.06137224897431562548 0.10191260069499062657 -0.092841404353744813593 0.060029989512113017536 0.070357940445326727641 0.083338401095556291498 0.019329765865722305096 -0.079168713324297271261 -0.1079619641644734146 0.11138484254401904983 -0.067949295848187055147 0.033042245692857297179 0.068764683073066781849 -0.12412529880838285568 -0.15718733170699233925 0.075539362538816740011 0.087205760126858933301 -0.016396320686210209133 0.0026900635697554298176 0.086673068557764659792 0.017623284180431846024 0.061797395152118253514 -0.065839487574514368728 -0.060042521275160680438 -0.086932326944307941607 -0.050532948283603287831 0.12004513058821469906 0.099971036977623273234 0.10040137594082533534 0.0042883419301027337484 -0.066151553533369308879 -0.039529998282774002349 -0.11376092309360327781 0.028103162454658128094 -0.12811201620369661036 -0.089091898961796062162 -0.094417702948322870804 0.12531922195499184403 0.05659996334876583185 -0.021229462870737854374 -0.035877591000539041377 0.082143398062057296216 -0.0017811216063309423616 -0.12029602801658829947 0.059960702702601481606 0.020141523156358996649 -0.030631549406018712678 0.10587902689835332337 -0.10754134259259792716 -0.10095080190066350878 0.099253971039284724642 0.10163525668443229577 -0.096507393697561422163 0.029634124230512464554 0.11857052814807957086 -0.063180294195794961531 -0.0045951274452101769502 -0.047289348185516985601 -0.0063524968704868163202 -0.0083538824506450073959 0.025763142671417466056 0.012368521555423029126 0.0063136601736661600304 0.064612504295777861696 -0.029650907557586581725 0.079853222073915985924 -0.017042240077329944697 -0.089046412742753142111 -0.058476606928135416164 0.12967417623724686315 -0.099081555075773958263 -0.13208603415868103159 0.086285145322497661113 0.1121396412092094258 -0.0036205405540630552011 0.10529717992013239158 0.0055013675651112486573 0.0037369460930618460942 0.11922987975140680872 0.011116423746853093535 -0.13522779076881472071 0.12424730069712783265 -0.11580952944363472057 0.10047326991298438648 -0.055323373833329893279 -0.010541317589655312126 0.057602691200902160495 -0.026290847709042129698 -0.025529668681258645135 0.069214279643953616206 0.03812131286795353291 -0.097472143770850575017 0.053127701065607234321 0.082371208982170832091 0.1334177288223492297 -0.041491287434662252331 0.046692118427934838076 0.024496840620122556365 -0.1181626819544313034 -0.084403702276165809559 0.13571479730002078412 -0.096796695661404627553 -0.10511699645005068149 0.1047197563634860995 0.043454654144147397687 0.01365503241447644199 -0.12402569095617281547 0.10346777725743963594 -0.037624611928268443528 -0.10479388076643909866 -0.081274410938290561623 0.0098687376396536883455 0.008421349198038661707 -0.047250642625458499912 0.064011995681300615235 0.016774616019169890507 0.018206361477001702792 -0.061869739746265695057 0.12406348671234622427 0.0076627288345932804969 -0.0061535773266114673907 0.067403865570509410854 0.027285358811803994694 -0.10449025306362028087 0.071636461722013031195 -0.060733623237841816156 0.11644548817233615901 -0.079368914926159342405 -0.068284856903609719714 -0.07326948005363702332 -0.059731659155627607471 0.011652507328767040817 -0.027395942674341658418 -0.081187744230276678858 -0.12032781540092454819 0.047784253876355424484 -0.088107621557371493259 -0.052492726250132897003 -0.069959824068784606799 -0.063630365760983909063 -0.10009512785181447214 -0.046147312165143693219 -0.040066181315949675468 0.042401048432038880576 -0.024838983416855996145 0.03773935398268627589 0.040622344502156279566 0.097581450414149784045 0.021297572907587426078 -0.036830955698502025608 -0.092597185043765642409 -0.11579889598353935998 -0.076832685581579643341 0.04980612192673580102 0.12712872349934928318 0.13291089705199796156 -0.053338271045192460484 0.045982072160684818452 0.10557138335079734037 0.13970403644616771754 0.032357852553825353081 0.11261730115007623221 0.13086830596309145802 0.009402450323482620595 -0.12265010353203628646;0.029164147145915760018 0.048900431405966865439 -0.14819050354351995247 0.0026394513080760587109 0.0090829792676272794183 -0.1113709999616295937 -0.01906086372496876985 0.30883606033837329718 0.038859386255290499779 0.07213724776147388551 0.0070694406361613360348 -0.053494092170495118055 0.099517638088356688564 0.14202960673150416548 0.046709296788626980534 -0.1741484432824769446 0.053447569580845531723 0.01662710363761260926 0.10059316130169311532 0.078045807181089332794 -0.10010232899706879295 0.019387977310168360429 0.1190166420107962586 0.1648984897769341651 -0.022650981799166435005 -0.047968684460967955796 0.062827622252115647439 0.055840441304853952187 0.053470689975970542296 -0.054933642999031889742 -0.0018945719996079650373 0.08535777066536170965 -0.021188436394868385981 -0.062091877641333087512 0.086703459069239569024 -0.13533699621163755578 0.00041679536877467791888 0.067447898172304066033 0.24551480570618142152 0.077970689905438789191 -0.050939308307053093872 0.060296237492627212384 -0.12880091798499426758 -0.020241699754012989348 0.022626605309581895864 0.0073935842237469696567 -0.0455942950903334282 -0.087312569875487508475 0.13331858022799669694 0.0088089248450140787694 0.084642066895017326056 0.063205944688339510407 0.23098132336173202162 0.0097716311956011735196 -0.061386250658978222527 -0.0053954862647244148169 -0.085227905866552391978 0.097747726999026493533 0.1341833628361873143 0.033143311779865958222 -0.10370851875720558943 0.089164395239397065129 -0.049880775714162529921 -0.010520373890758435292 -0.028416421599653976515 -0.039717150624448291363 0.0097244965987826198495 0.027903008322922178558 0.043911284468198544251 -0.050002064577831552283 -0.1362375886056147456 -0.030716015471460186154 0.024299162061498000287 0.12914189383727356364 0.019206591643416894705 0.041740158393127085867 0.10444250053685821822 -0.039542651864351199831 0.081088249646819529626 -0.072678704922810061229 -0.14882305849509561146 0.09691718195790254009 0.24379105424611371977 0.061421209504378924959 0.076132491974171961902 0.093517285212312131759 0.01145588524575167147 0.023295433021604028401 0.043415584615622677955 -0.038660715455957096742 -0.14207940678085256847 -0.10022051502016765534 0.01982399466293565532 -0.047125559204464886887 0.046440043291018522076 0.086029961433044657704 0.095169825343271063911 0.13256692078783421929 0.11888559687826226463 -0.05950150077024726758 -0.10423869197273651077 0.040565674383094343924 0.053087944026922767593 0.14482094215965002348 -0.0062235201192034949116 -0.16993824862622744498 0.11763560218350778419 -0.015506161476425117315 -0.089065159376024882754 -0.068552749691868322679 -0.017878763646403696835 -0.13247661248104830589 -0.0059680355389183110254 -0.04299202644075073021 -0.083553615844109641042 0.13063204632724526033 -0.041733077155708925288 -0.10856322285024629093 0.10028093258369563667 -0.021321685607234339144 -0.026049777335918851418 -0.019257272913083819249 -0.12666736902053754577 0.055908355948781358891 -0.073066886777124390173 -0.055531213230363134226 0.12262483348280348028 -0.027200352576010590477 -0.05224941539126266854 0.086267434170619786138 -0.12616284829103027731 -0.060194658531045573679 -0.10936371734188357618 0.076739438988901384486 -0.0038658223903469371603 -0.085193538809907862208 0.13683646690699199922 0.045405646003291624813 -0.035247397694562171422 -0.024369361850891051169 -0.10829194647676013141 0.028683114187246054605 -0.051269072353471278891 -0.025726772589070960595 -0.12414107786686788548 0.030341499975783590287 -0.087531356088979037078 0.062692720985774538778 -0.060377978841053538128 0.0086630174681882558124 -0.10302410946843085227 -0.074058463313948136308 -0.08318811127673908512 0.19659915031436431265 -0.0012996728662313522529 -0.14646492159447127568 -0.14023465524689182615 0.13366959272740563947 0.0011294986755238647577 0.08613684416078494499 -0.081576948443706304159 -0.041391250027792342303 -0.092374170532869046002 0.016749065467698314585 0.00032202181414059340061 -0.10843365270862699579 -0.073293802971034022198 0.0055827469753444766004 0.15119330055529073276 0.1583558312486326447 0.018985316093613317096 -0.076803675605962476447 -0.030483461305293307886 -0.13088418135712939772 -0.05635815856935828122 -0.10510014803069082923 -0.064834123319878450564 0.076175761359167912246 0.0045816796707036921976 -0.04882075007102045644 -0.177940651244023057 0.13797665959357727217 0.0032089698810708867059 0.12342615662274326882 -0.04523683199332120819 -0.049059578660784392001 0.12442831235602877515 0.061077840489737605933 -0.10280121005176846849 0.052815030097868025105 -0.16670292087991595009 -0.10640535481769279602 -0.039452751341489525339 -0.13535914595897979851 -0.028966883808231289749 -0.093233842178661416322 0.12353714240818648717 -0.0006531149858868802666 0.17170369737086937922 -0.026617029544402124458 0.082910690476505274904 -0.0055715499787969344214 -0.043781274880638994251 -0.014114114079812280569 -0.05379816590603358345 -0.089586211812304847313 0.045717707062902186721 0.016188805525617026154 -0.1096493630276689224 0.015768283562010355914 0.051059550283555639461 0.089877026786724240059 -0.05194991358367489348 0.033525871871319924689 0.15944419344040355879 -0.10833973385431720782 0.082698391312069907677 0.10130062535051002903 -0.037549744693589827416 -0.038958619591601080512 -0.056698206766924871824 0.080569149776397994134 0.090282260786240284278 -0.13758858505135579398 -0.0035376329176947008022 -0.13219767502980522833 -0.077748756953711556372 0.081071417152468711054 -0.055907880702299364573 -0.094280049162232620885 0.028849289175366815002 0.061567414363473092764 -0.10607938257251552094 -0.15607595250305825174 -0.041187254265970862921 -0.13007680897990026025 -0.042927758247759420507 0.020130332321464567552 -0.18981945468127808807 0.025417795721610167425 0.021846147917491103713 0.08972921389206028886 -0.012477795017354145757 0.069439551246628580805 0.026622823406620265557 -0.14586593634320796364 -0.0013258263895783240285 0.10275089197637554683 -0.14817916993727026087 0.099578886823738346767 -0.011077190775107050372 0.025415099866472386919 0.12922347229486594311 -0.24923498338428135002 -0.0033126812901455682074 0.00041832886781999206608 -0.093010010273919252466 -0.0071607556328646517277 0.034105914315827191852 0.05208598686370553843 0.0047829159473187481816 -0.10568699086342517313 -0.036964930900510152567 0.034586038088011354652 0.026159845929599460923 -0.082634597209481103208 0.10326134451275682802 0.037507064483603941296 -0.24742014919879015689 0.047014532174344099424 -0.055799816852564028402 -0.10160997262703808097 0.074600732767693814229 -0.031346576336109203964 0.06200541800446312396 0.013625300315734702183 0.093807054954521185142 -0.0080979357084194746735 -0.15170349354362222538 -0.12965077933465216087 -0.079897109684791897677 -0.043033228745062428178 0.096803849132082814277 -0.16691245669140350461 0.068892346224133219068 -0.13443694451000443024 0.065358208766601005868 -0.033253840912944442054 0.1610461899288700427 0.044402403470503157279 0.059319862128007598556 -0.092383304385831102601 -0.093392944266748351145 -0.20524346915619673393 -0.10877208181346929849 -0.0092845209263859636989 -0.047801479436345176155 0.18633782264684295438 -0.27439269956172968046 0.45266757501954502096 0.093322947261796407314 0.21324825431070237869 -0.074309148024360657803 -0.0095210235723856319334 0.16223429770762631819 -0.00013390975614853517874 -0.14436389583311229345 -0.0029303521390901280871 -0.27687305554353741632 0.03938222165556008042 0.22901737805312238905 -0.1753335146932212818 0.10587095542783329927 -0.20374571235349453469 0.14115988687887445763 0.012547151423019533775 0.094460257575032582911 0.10694578725507931927 0.1016784598090031827 0.075095708810562183944 -0.19688146226007877115 0.045647638944707004394 -0.067729754335766861884 -0.11450628623452081822 -0.065021414204968527861 0.15747518055425369088 -0.064559477250336116949 0.20072800842903132379 -0.39085966392681947834 0.092595809296331432758;-0.027115576651234842703 -0.04161439208795663508 -0.085604379372889241595 -0.07309252358302781305 -0.038562151923702610301 -0.031360251973831750061 0.11470877692160766359 -0.089069196850095816442 -0.034361962972193883792 0.016006113469938951233 -0.068853497758692358555 -0.023183630696897813972 0.052605629250755146786 -0.095313332107505227553 0.027267881152727137251 0.02823751522021687721 -0.0037813049005093598773 -0.089191557682486780068 -0.024320010068312289397 0.052851910641417282344 0.049697502704917038974 0.0068111553019830463687 -0.11868785502266719634 0.0024504594583500171126 0.041012355138714463865 -0.072188816735847149975 -0.076057294603572328517 -0.06804769758801570978 -0.071800270702517432486 0.049415823185637398895 -0.028531136648090912877 -0.1096474178464024174 -0.1423561592940475462 -0.04307727000933487399 -0.12605378619217652569 -0.01504467078386087682 0.081190946160852692226 -0.036948140737157068869 0.041714456220235333894 0.080650574147547018922 -0.0096047147209061909529 0.0093426527419479387521 0.028242185959651493199 0.10871300610648140794 0.023608859161500149459 0.0037847752154185165634 -0.036721897040677319024 -0.026665110813455343564 -0.028227684970732108694 -0.11741686886309461724 0.073930685847897262275 0.11912240774697720191 0.12346490274100094253 -0.12647577854436861666 0.12459068698695249799 0.15411135984320092907 0.12673046996743808634 -0.045620749850949049442 0.016849105518927015579 0.0013763396249096269443 -0.055648974961296858444 -0.12049084355289815806 0.07958300335883776444 0.063167654766762448837 0.01431870402318428416 -0.07901128171104723763 -0.08754332220952086574 0.023301959477900750783 -0.017427287285023754237 -0.075678946972278643424 -0.014773536403032623207 -0.11898963095683040558 0.067599400490161873356 0.051968789788626457149 -0.078951503646147072613 0.0033664448363222884524 -0.0078311427867697319671 -0.15213778337195923984 -0.022640390872586773491 -0.055144655729719209425 0.083209701902454011324 -0.011083063905990210574 -0.070879606310352019638 -0.0022667714565888126554 0.021987369205559451069 0.035069975089954408265 -0.12274287256790311629 0.11621933405449333399 -0.028035403511195679943 0.070968791951295046028 -0.017187837866753732236 0.05510433165674928635 -0.15466230293505808802 -0.022597856569735150917 0.086486042595549053602 0.06036125774601486943 -0.026742880747928726021 0.12535593463679833848 0.091761010466990172718 -0.054598498488851815447 -0.051514582662920797851 0.10432222564314773405 -0.07404535877060036686 -0.065339571316289868363 0.051132649895064094525 0.054363608130057819445 -0.14227403745693209536 -0.15387575209055115444 0.050280335513859408803 -0.052199052210340414482 0.10250198848026892406 -0.056655847508624387898 0.00070421247847634043 -0.0029368561372431368356 0.14773794651531554911 0.10191139625455519768 -0.13684141059449936306 0.12450020895046397251 -0.13680025815514906817 0.078576894764412139049 0.083240689993481470355 -0.10374215210385365205 -0.0035704203218188189199 -0.060684197399057518418 0.098696443737874811619 -0.095225485536474155368 0.0046982874975223963207 -0.0063824411454144278771 0.030650265071611039469 0.074811057634652525228 0.093585102742030260026 0.11671781617989317181 0.15450850330337007055 -0.092624071266618715481 -0.033898196232436755837 -0.10548408283710054845 0.11999076682411057015 0.09989286595573614036 -0.10472683415651462546 -0.043301400460559615058 -0.01228369397131350016 0.021598719283315862688 0.11999628340270956928 -0.091403513379007705897 -0.061155929336844466748 -0.055963297130330526274 0.035874545167756406727 0.023202411987112665087 0.03839744753571628505 -0.074920702565914362725 -0.07763270839591669692 -0.005398660524504089904 0.11221439639399646837 0.087419588072232087828 -0.083546769565595299656 -0.089780516654806005739 0.011797055669125691355 0.029247597846188185672 -0.11577920342466530013 -0.05837152365213271743 0.034461796784955700534 0.10340903996688488586 0.098856008287859856165 -0.11988716079608975618 0.091481488480258943419 -0.05140332984538337896 0.027530491562597125821 0.06114803172539653997 0.089728319014483165494 0.0095506370205730214268 -0.077797231325503771182 -0.11949562158008025792 0.0035981980608209892386 -0.01243673468569271752 0.10930985056076134021 0.079200242147852206731 -0.020376443362342764459 -0.1050155912340335479 -0.060699551592110934095 0.10396511895978484408 0.019874034369827167645 0.047826165313134591517 0.0019977792049684466036 0.05211240500421122912 0.060943280213120523681 0.075460197319237642954 0.076725432450398936557 0.13221617206864971772 -0.13532916686348869795 -0.10765961526175810148 0.036294842133225722891 -0.13007296226252831883 0.021626524703201640415 0.038755760059237198689 0.030417543585489661973 0.07018342356252059433 0.046933326361469615562 -0.095801536557214420076 0.053893937820480672385 0.09533258154521681571 -0.084149334519759949602 -0.044262779951410577417 -0.12883197917012584321 -0.043225164081079785194 0.035398385726178149824 -0.089943532293099939801 0.094412371664278502137 -0.025577711906812593268 -0.11565331987057173024 -0.054769885129507513144 -0.11178375125319427175 -0.10908476130052112418 0.042804956081069163443 -0.10299985513533531367 0.0052907996310357077382 -0.058524279892416188054 -0.085761280910245346609 0.13886240960038404024 0.10171187619600674523 0.02212173735849947212 0.025210155011956201371 -0.12928315047362989865 0.041275635332613629103 0.055405581473886945931 0.016256834913115181945 -0.049773490856492907941 -0.1265349351539256928 0.077568176471709313069 0.12909431357492071046 -0.023904869103126936275 0.11097000507602831909 -0.010367586360715601301 -0.059832367834451553879 0.048893831051510579233 -0.064602640182588697004 0.085476590405192426347 0.0071321457770687109179 0.029155533498730439729 -0.112510146639281855 0.066728296049427746062 0.1180359568232812878 -0.054980538234440157197 -0.011557479866980333721 -0.01932781733107986899 -0.066730235532505469132 -0.088232402371127893748 -0.089865104803896964092 -0.014624802175665358242 0.061362416170496231205 0.0073020533214696531701 0.12019141478559398906 -0.10878199512104605451 0.085171310042930312156 -0.10676851045061133694 -0.097954685455661966165 0.01730090992436845998 -0.049026535302707133224 0.11929465043433404303 -0.024165449493081470056 0.074326907835785396839 0.065264337294595339833 -0.067742418719077032718 -0.10485043860691227458 0.0045272254634203248566 0.06280775591691087345 -0.071428917145367337715 0.00065594997384443355128 0.037814782315134347346 0.015653187008794047785 -0.093404677660810550566 -0.05491192708365594255 -0.053959536680889721993 0.025684136248064527025 -0.05172166284191739849 0.1188599723809377201 -0.076160265994807199719 0.0066512594248393664548 -0.080340167244342161612 -0.081012849793061489367 -0.0096394721898663601051 0.0081275812795477409001 0.15028883629272576927 0.076926270541622696064 0.04455880115458259183 -0.065251793894851181643 0.013561590943869753292 -0.10021563929162426165 0.10673232395857992771 -0.064246392019048997879 -0.080464372261213237825 0.092145183081707729422 -0.050851948669173252515 0.13705040202234231028 -0.018219792992119246411 0.047260409130255920385 -0.089445279339052746748 -0.074568145309494543449 0.064556797249660888283 0.11168823627088836359 -0.082779132084986078999 -0.096798321352902644277 -0.072255616322040930322 0.12518201551056004628 -0.082286253569282874487 -0.082218149983417893045 -0.01262343493653021384 0.091412577197089672776 -0.10359649989858499275 -0.07992418660409579545 0.11845872379205840685 0.043753020481031933142 -0.065872307484561021251 0.038138672705441169219 -0.059817736794970939596 -0.10583980862874617368 0.036586843058729362488 0.14352149830252455831 0.12984613728759500373 -0.031897269889528907794 0.069985622673932934568 0.0085399407339268630646 -0.064614037879641580964 -0.028226397236179399247 0.053549717239526631318 0.099443036504067716663 -0.1137393791742783572 0.055662495509910273062 -0.069725551736286472959 0.11489346173055700606 0.10832943690746829613;0.053874699456025708366 0.099088988871430527805 0.022125429155164862138 0.034321269816087032756 0.082021300646411846036 0.13359134965155641805 0.014044434463110010147 -0.16089139294843571304 0.022080345183244122487 0.14682518414559991848 0.0001029643412721770884 0.074002286706371739333 -0.012297237096756410968 -0.091170052428017123169 0.030713200226929717601 0.048627526097123112414 -0.0073727862715644576497 -0.059474193039901708524 -0.090177161135316735718 -0.035949475040835544848 -0.016393339524338780555 0.068458032615833525059 0.079269227924277152475 -0.077573481116996856333 0.075031105253735838612 0.12237274297708412851 -0.10206692812271928039 -0.067384292679266891146 0.14781937890191471086 -0.082484169691243919287 -0.10544339669610013066 0.04298377351218417991 0.073787830436193579953 -0.11584848781649226268 0.041508536445930978298 -0.021906033542247120571 -0.10176293889574626605 -0.16466204576228610224 -0.053537852657490947461 0.038893506571780429859 -0.083091342394999267995 -0.09183232807140437326 -0.097966816022967292965 0.065783966683512856699 0.11465927519440011206 0.099945154436553232391 0.079903516510301211828 -0.091267269415609336702 -0.10092773471896483717 0.059778138237980664449 0.021117620269507437342 -0.11284703969111183064 -0.092970218300868101569 -0.12069775303032537206 -0.069637264698004311403 -0.026026622323809422976 -0.081003849326296450961 -0.11653373615639181504 0.091391950939408814203 -0.082122685034814957294 -0.087641052886835629776 -0.15557226087024403349 -0.13146080004303237199 0.089376742156912838966 -0.15108868016403714796 0.11845373517964759291 0.058397886525179944217 -0.010608327289864487308 0.029957458837963354265 0.023107284626478270806 0.058956402676308826416 0.11374855488821859761 -0.11674858540758539793 0.080037187719522506768 0.10026819231569084057 0.065956016265066405579 -0.065031662549362739822 0.051330252587115876572 -0.046281897122564683023 -0.010863342479800438753 -0.054689812270231480396 0.067113599448477528897 -0.030426066869712723589 -0.064933264577777552451 0.073763990856623343206 -0.085519068527768013488 0.061324503178797319658 -0.066046025097616770094 -0.065033376548068566603 -0.046904983667270895575 0.0081075766928070027578 0.074714176897313216985 -0.12828995220667846477 0.09222116758722022356 -0.033194972246451660836 -0.10915609774317389102 -0.083845189856903923342 0.06162998224701388833 0.070802232756117550183 -0.011664058570465972789 -0.060672977892898889707 0.059686035566564661636 0.065045102811146601751 -0.07928746723837654109 -0.12023631208279739191 0.051828927870798999211 -0.008711800746547494409 0.080552127527061381795 -0.066482413295704104184 0.065064118875632043215 -0.052908811344960740564 0.073150938501941681347 0.038827488488710204528 -0.0072245682997833541791 0.10491981261534000236 -0.017396616040541136583 -0.06039554904064641655 0.11814118342368215564 -0.027320046629334345661 -0.045313419888323873408 -0.025134173491647846671 -0.14868170183263565431 -0.11500642554695585107 0.022245384167302109657 0.041758358028974533471 0.00626068275443740236 0.1007938057175503388 -0.16410969425092081231 0.01030088784616996038 -0.0014829292629144593188 -0.024670000714005400899 0.010104251687714130292 -0.13497106503199726713 0.046186526883672383847 -0.093099028305620862289 0.075677880313295017856 0.10700315935066385953 0.12723178329879589188 0.042050950130833632257 0.033143183017243824096 -0.094208454352121689945 -0.029574819698672316637 -0.10756011152744987536 -0.11016567697454290875 0.021742050187897363211 -0.073717151097958566464 0.088849046604208226086 -0.06476022739270149986 0.097568495080562672728 0.021527203708826665729 0.095619849409795829032 0.010351942710804026143 0.10342386021047032807 -0.10030340634155543444 -0.11860350604199822178 0.10076812065180656974 -0.054611220951370276211 0.048865682227041865038 -0.10334186448792197222 0.059289728551432753501 0.0089031922644809604467 0.13750319055876383811 -0.11117759166418825223 0.027058879178761676559 -0.0024583902874550059466 0.045321797438803330949 -0.02506709169528890252 0.076829669853483176234 0.063590084311314812315 0.0045965551303279632636 -0.12094177229341313007 0.11782485044598460522 -0.041749342688302507054 -0.024493371639561421077 -0.04599285667047321724 -0.013276217314812920403 0.068809133326502028294 -0.060687242967651038039 0.083956749583296561013 -0.089825763088709750792 -0.023541965852313238849 0.10445629051659569009 -0.065913630464772790529 0.017627499379342461555 0.01442593795748086348 -0.041199654904018764845 -0.11659430322427238869 0.064527348643304283105 0.068767999001808730042 -0.045785706414268420583 0.080831376593587939139 -0.12276567643639614558 0.12285188072046987484 0.10897082053685937242 0.089116288722911926601 -0.068897207602634472079 -0.064799138660008553936 -0.028093734957100605781 0.058427899427471854943 -0.10938255028750695774 0.071327329651704338143 0.049796155534376905505 -0.013560742280979950006 -0.138491937888541361 -0.053412755927691846214 0.064574950820497467596 0.065556683428796044821 -0.059342010674431983075 -0.061119284598168621692 -0.04489733825354204344 0.078776288293671253848 0.046700129121517865161 0.11496209198427796705 0.00084668627274957913853 0.056082878911901279384 -0.099798826050381456154 -0.032247801873741585577 0.030832773503458664466 -0.10737623900763861029 -0.10972933857739919361 0.093952870212332992295 -0.045764172920676422784 0.036809429140636909517 -0.087917811502476544971 -0.010794474723399180918 -0.09401333281893620164 0.019828250891930649519 0.032145743467910860292 0.023816740024054861707 -0.12180852040721951157 0.0086889076882326263251 -0.13762485734446588959 -0.050956193755199753748 -0.020980597388310557455 0.029062181920259097523 0.095545273173927150467 -0.053296421012097056069 -0.097617482775684910612 -0.103998770558084902 -0.023357760403761269191 0.10408283500901847896 0.041358739985248811621 -0.050075652741990460404 0.12562650259970672972 0.027310847883441055628 -0.045213407771247542122 0.035950041262781173845 -0.137756014156097506 0.029491663365015602372 0.049351356780969343752 0.05454550198620291418 0.083757632459096162392 0.092867186016318062358 0.10718691630666135617 -0.017126878119478706336 0.0097038292828732792411 0.027471856447919749261 -0.021750367936499283988 0.005966626513215464965 0.076871082076660310345 0.018012269544213786038 0.093350736977711221143 0.084742696476401591088 0.12232287284162474128 0.014121874492853098149 0.066175359273185463405 -0.027452072931713672466 -0.080701426161835454476 0.10574290024421367784 -0.0075587135724043772594 -0.025824610338377702173 -0.032400949958488890756 -0.099246579615619306969 0.093370586418402956586 0.0236656071700706086 0.027769071395276987563 0.11782416977105567013 -0.077408889676646816524 0.048059989568262982684 0.092210280979693928782 -0.099582994696720730787 0.090986163570922720667 -0.057358894967259863029 -0.083315493249937366826 -0.10841993092545033905 0.018595228867132846534 -0.083246554705563954868 -0.0048891646374848805184 0.12486244765420261016 0.079941966721600837831 -0.10240162235132187207 0.13268935673117226992 0.018127487211914022208 0.12408574820469936428 0.096285932296068521552 -0.012935771856767560098 0.00012221123034269137193 0.12987060718381651658 0.056146292698390304343 0.024524187331406429452 0.10681194122014148196 -0.085875169840673906685 -0.015701526833046326737 0.1034264891422817384 -0.070839174129702586757 -0.025572213337069191891 0.10940761665240104905 -0.1491979235937849757 0.13492268197722301348 0.10144772744641084028 0.12443805693768063281 0.0002100270617910446661 -0.048650596352172018055 -0.0039746873243269561018 -0.087399884493818899567 0.085797739163621308811 -0.0065102506149012449171 -0.032323676468112357008 -0.07657405357047308847 0.062009828536634649387 0.052469323467116697757 -0.13746566973745014129 -0.10774016036142144981 -0.066294900054099617503 0.023237023742318747149 0.071034693253592240403 0.040817707295239313847 -0.022768368474025170445 0.054086460832560634415 -0.021505663984970752045;-0.089023719285078281582 -0.047067543475431260214 -0.092407120526681554851 -0.08317894212532020437 -0.092995259730702758971 0.079549673387604560859 0.059223431083576853762 0.035470765304397668116 -0.08609233553020124996 -0.12535496862360492876 -0.027213456544797960668 0.080583644283785088591 -0.10669279321744476463 -0.079925097082746893173 0.0098428059034236740216 0.010360108567060826931 0.063995502933251430244 0.14361161587284312913 -0.08764741813675329396 0.03507757561757840481 -0.077505556526308819199 0.056677085434888689608 0.095692350433617331951 0.067665550269384241999 0.042037359889117976997 -0.014145108944290980466 -0.02840123445424035456 -0.10526936081635399067 0.057678365576102272327 0.095786014919119810695 -0.0043077543175448415602 -0.087532670406605297964 -0.036656233383461689357 -0.10894964115457717035 0.048529108119093881946 0.11331201313492898775 -0.010891639042057595088 -0.048434641660963818899 -0.14503742318533466293 -0.038343444799501746889 -0.0070584121609554009366 -0.05118004040868448512 0.026933303477846743529 -0.13019700289054964015 -0.0032587470775654139334 -0.064733372177298117989 0.0078703034965190796918 0.028992479108246080322 0.12470617145349220667 0.013898411326242051875 0.089994351469523364839 0.029005814200907691081 -0.047023372521037144767 0.022646957827758627813 -0.0043164555365075157889 0.02714332607357838531 0.099795092962270681713 0.06189090762030936832 0.01762350306038149364 -0.0098367570188628156158 -0.011474552734437339779 -0.055465586333356166338 -0.0081977863956383956179 -0.001737871514171871086 0.036770643264644874149 -0.067080242075182539008 0.030782423451576577944 0.04836455725019993962 -0.13397234032300289752 -0.13988485260251368181 0.032398471899074694769 0.010875970004217973622 -0.0029678037358599890227 0.018258360751907447284 0.082608609784554809519 0.14988412115329735608 -0.016007713788169508629 0.14641272079498685033 0.03662722607466698671 -0.074409391317942885635 -0.10157804807002485115 0.028771157896968609091 -0.071893517182199384585 0.10107661589181995976 -3.8849322790682265473e-05 -0.13157314355413735063 -0.055611687541996787654 -0.093588463956075063077 -0.066414963477322494501 0.08119261815533768134 0.098118195409388708761 -0.065626938250234786998 -0.023070224246028583209 0.030991381680810656252 0.10503206512708647413 -0.01753924078745369361 0.071972789312419724328 0.0097347955448707293447 -0.1494794458006172555 0.053397453781500937853 -0.10968893023627140915 0.10106275651934168436 -0.02315394506156424892 0.088249332965444252097 0.0011584007683628340466 0.13598418805822221067 0.06708839715126987957 -0.099351228717650272304 -0.08161454170051196666 0.07176894031145855668 0.1340016981284641584 0.099413321490385786472 0.053782265537158292779 0.059622587814348863844 0.016728352962143762384 0.0028941143134012109472 -0.07939969955106344901 0.078509374168306153563 0.094890337378921482681 0.0074029538512212006082 -0.041557902253584487473 0.073030326395287906149 0.12539618004137115248 0.11925318439133200665 0.12626419121313195437 0.10891112506884839672 0.0056265078545684214448 0.089489346373939127055 -0.043802372431428586441 0.016877220227769454408 0.037802279794117821243 -0.073037770158239798124 -0.055331420634019606863 -0.14441557569857343957 0.01364508965904044635 0.094474325042491938409 -0.081406680678629356196 0.0151192266159792775 0.04309082865529799411 0.077325851147680882414 0.078182438423225267266 0.11273031715549852727 -0.097824048433522214907 -0.077156543844485975248 0.10130157641774024946 -0.021781927604326168507 0.049156102587834996087 0.028166468612448630066 0.11348456722883688841 0.042927226312710044243 0.039249356386610291525 -0.0044433092965836034835 0.07317760946940782274 -0.10669143545494465253 0.1171576634701867875 0.11311174190502257253 -0.0049264058394529429419 -0.09023518528944797501 0.048794951190030778909 0.019988989527651268574 0.062350999202350938788 -0.038829902162757438944 -0.071801658116132205389 -0.093596806768607612725 0.11495347967021669888 0.029668738599520284166 -0.014180827271768677023 0.14076413940342566433 -0.062156967370315049926 0.1005846214563332619 -0.0011114419125549627066 0.015463713244752007314 0.074704862984914174873 0.041516320489384868353 -0.085322826155349168475 -0.058481440549818880514 -0.085259051644857183905 -0.088464310936884907322 0.10348148369409194969 -0.045501506358441148881 0.004816717687966952377 0.069016630028186295998 0.097858058378478343653 -0.10086076048812822603 0.11295024359544757198 -0.091284361798388308218 0.096158832834199001183 0.095387063750708114829 0.10408299452822006304 0.0035570497401857161662 -0.1462355517678033956 -0.072750900239930610391 -0.11169024251306484963 -0.01964306612394198237 0.050232700849226048778 -0.085765827356222762434 0.03871164552568996664 -0.059153079723944713975 0.10103504572457798483 0.10530803882124431525 -0.026071459229331100937 0.09183385989417666706 0.094372745436609145608 -0.13833804245280825751 0.065106467812040338949 0.0048397547706385598415 0.074130910656721477059 -0.016811873708412278239 -0.034912584809216558324 0.092817799820514787501 0.070788061678240421504 0.11319987390573356401 -0.11492033112143185125 -0.11963900713679460897 -0.085421266898514078281 0.080957343911109522216 0.027411943425123447976 0.017602162747762242073 0.036123356893234551124 0.099332268335636117462 -0.011891682249033076052 0.082720564409268601547 -0.028468317959564819891 -0.073166572977972590963 0.070010545384270941871 0.071260563473136376289 -0.10329053752918783415 0.06220207550713044431 0.050415640251263313387 0.054422908649216970856 0.07223582557700550244 -0.10815635926205126316 -0.098455926735903795399 0.086255113517306802873 0.0843999670884428288 0.097565250584251791977 -0.16446878370250692103 -0.029024281941807717616 -0.020112078395626214328 -0.076169850557500654031 -0.044888249106596715687 -0.083073640116626920604 0.11712198153185349181 -0.12362272816656234842 -0.062055558460604141879 -0.055681012870724758135 0.02286718819988518836 -0.037607968704625675815 -0.11412380593740355239 -0.1690266487429207265 -0.1503570386426955896 0.088631968852864298491 -0.079343551762326131049 -0.089834610530862002431 0.069081625053344641874 -0.11344472771289956792 0.1162384597208286352 -0.086194289809282995107 0.056256072260700729082 -0.1021473886177193674 -0.080664835884295127411 -0.021703625207919373385 0.12420964194758386812 0.0044047025209381527808 -0.042198485457838968982 0.062662893042619571826 -0.053865673191028286271 -0.096188762441615699439 0.028368088838330474122 -0.064126931529071146132 0.044261629058616094867 -0.10981623771062641592 0.11843394333137578778 0.016065780192519522884 0.096255139121757440912 -0.066226096948129739572 -0.054732158155487882489 0.0015967574286433212222 0.10842372551410812964 0.03962259831512920244 0.0096811800854386363679 -0.11393758889474610296 -0.08106741595469453554 0.055189685389579759556 0.067009459363834261714 -0.087433296833178450469 0.0012944372205474169793 -0.00015607770204614264528 0.12369481984368053962 -0.037687312173830776751 0.038942745776121730217 0.078420204786604899572 0.12430255771105044871 -0.051499111967282323876 -0.16119425009998639142 0.089050050233053318349 -0.0013241864784297953297 -0.079273630641148798426 0.10808732755111402635 0.05165097424644780888 0.06419817383591149007 0.12260459862888059557 0.013896940181984748439 0.10341522770411626375 -0.09905814347845173784 0.029379611868159780097 -0.011710595874223536303 0.11355816232527368714 -0.077534037588091908599 -0.11191720477797180433 -0.01437393369927052536 0.015524277430945237349 -0.066262370437975337545 -0.049726260617416986887 -0.010174303377701967785 0.00047388896923662471609 -0.0030194708953987427907 0.066755767229939810825 -0.095578916347758544059 0.029189514007233522547 0.079076384808800304071 -0.069240341417554279735 0.089950135069015862976 -0.0050552451595089744826 -0.16817621898800644287 0.089415626905600648078 -0.10139947373098792682 -0.12280809250598329063 -0.071262760418036058541 -0.024514175445926832814;0.074563040874038574723 0.049986384845490457185 0.070702617344123253051 -0.04110961444392775832 0.060457349692618525538 0.23263825396464135609 0.12844816738928674371 -0.098285019821102284632 0.017999126795027717979 -0.065742989611607835498 0.067462158876162900412 0.022617287616067072165 -0.014776607621113284699 -0.0034631186691850635376 -0.0059554471734298911056 -0.14245612047855599203 -0.080264249342255997166 0.0085845766625315678144 -0.051031904117007323429 0.047846124840718033677 -0.0032701398564792772891 0.062321985557686268575 -0.20396720196032330774 -0.19608928915322126896 0.031865159739390497284 0.0038049761360142283703 0.044039107716559312833 0.14794865361416312255 -0.15762603443130196457 -0.031079851097823726902 0.11627149693143513931 0.080769327159245049574 0.10836978225932084041 0.044165788496655908335 -0.032324261361531776704 -0.010188793051882038404 0.0921149062958805942 -0.014461206393484736868 -0.045344032475187930065 0.1697032049364556594 0.14499435943789162895 -0.10208423065148924946 -0.02819729743279767234 -0.057500673278714560521 -0.04467052574946185628 0.084988504877680365324 0.11485795113892441344 -0.1284235766157557912 0.027982626354893236353 -0.025369608163269254109 0.0099570523412302290589 0.040682901733533040345 -0.017499581156652843639 -0.08057420674026234686 -0.0084687132035468383473 -0.07661137657554349667 0.0590022083822580104 0.16033154785749875737 0.02417544379061231305 -0.060169454197765696868 0.073431841648522927501 -0.027527570049993312779 0.10386461996595085233 -0.029900776633783592018 0.099717987668774279997 -0.070279617509054148616 0.15097652201965941487 -0.034894870354361146036 -0.00318651928784868246 0.1176160847400427728 0.15900318656771345038 0.096455771624265149167 0.1386130261278629705 -0.0026538438452885977116 0.052192479814553008333 -0.078118283361871210246 0.021847520571184803062 0.13004270066908293901 -0.055963478432374993976 0.053138184043862175809 -0.062258875260034943211 0.11917360252158962219 -0.13269198079523292222 0.054739632205781166285 0.087022496201197716004 0.11816943863854698082 0.11436207667675972466 -0.051978001731512700478 -0.010187867563384836803 -0.048010520948506454908 -0.068582495538025103898 -0.056663445445698942815 0.086900058255801146401 0.12645277113079322895 -0.057263065449861205725 -0.016306488869414572512 0.055128408366865305767 -0.1176360560118572679 -0.0046910597669417974237 0.03516718447887067639 0.03054414541059740501 -0.026766448530528168248 0.09939844828040229896 -0.0011141429553693025893 -0.016612987794693178517 0.13843698620776931363 0.079999212128641167263 0.12710299630941032656 0.067911671963908487593 0.075855527654023854889 0.00016147219068354820375 -0.099691299834919325229 -0.13224168157497193099 -0.036847745335667418665 0.089416564311203927673 -0.016863214236731149942 0.10930935964654737991 -0.093750712963163493341 0.0058425279939703610166 0.0048553853480859405362 0.06901042959577338709 -0.05549539067183534985 0.0090479400344534964551 -0.064146210778593060198 -0.015930301829934313124 0.065195748911316075969 0.15652592773204951349 -0.18440708975210981513 -0.041689914557091069247 -0.043517907410156320136 -0.027823258485286352787 -0.040968744091020935227 -0.040803908071679009795 0.0030519320424702042586 -0.046280620379198077197 0.078955189394326483199 0.072843054857255687407 0.00088945054907757883141 0.019241916053733092162 -0.0059310868538404526787 0.13398666428643737913 0.077420337770931546562 -0.10279428087547870518 -0.041174391838206238214 0.11375286456591177098 0.034761630518634602238 -0.07988156796380550817 -0.037274706703929974538 -0.051136630326454136919 -0.095458943280704033896 0.013609458448314596876 0.06644825619732093458 -0.015131955929890129192 0.069083075614355615723 -0.093827583016864501975 -0.075998192880332687826 0.06783498672582839728 -0.06995401268415410434 0.082791492531972751823 -0.059301033166824369813 0.028633195555458727799 0.08383694277615438839 0.070788517702988690283 -0.12518516178410263318 -0.082839239808589121283 0.075587631073570596407 0.12010650419874847883 0.11626597288224058135 -0.021960329430124755912 -0.0091612343691142988922 -0.054386566889280910098 -0.061134421699130178651 -0.014386149068187522454 0.047602576389956047231 0.0079952536944684383935 0.033928795501715666716 0.039142899074212769706 -0.086354622755737117656 0.050413209469612779712 -0.023792846761500893032 -0.086551862195546877543 0.13591566581636288502 0.067436972226698796429 0.029313424392637621452 0.15359725695252210431 0.10430800856664962373 0.03727218713204327738 -0.12170552453687467909 0.062728019119823896776 -0.022543490330911138131 -0.044561191329334601252 -0.021390413981138955285 0.026594547100103921311 -0.02138835831431917453 -0.026555661598710648269 0.15662676219083704332 0.039915154492584467572 0.1525677874762895736 -0.026775783993525533594 -0.1036541530341074796 -0.08784767323982341225 -0.016688405165715586992 -0.1135119800711515553 0.051799917922276457471 0.17664675935311885402 0.119434440225455199 0.040591066714951558325 -0.10440343930941195505 -0.0018359760621304932558 -0.068082096720661997025 -0.084461505286549595772 -0.089754831246420960222 0.050991807692744126057 0.014091957710672141368 0.090264210839660213859 0.050103203412138384854 -0.096018104246887836517 0.054334661663850543356 -0.017203006508858351142 0.10059346434899915645 0.16616867030456231036 0.053512132181997060232 0.090505476482924673842 0.080263585372906717796 -0.07882182675519699977 0.060152625180669480609 0.1378781819896880978 -0.023450684438492755413 0.012719225828796780139 0.05952304050444094663 0.13186236217634564327 0.14501005205248110319 -0.19622062740878842835 0.066179679179658362775 0.068582782616072326953 -0.024682790627082409896 0.087144650508067439398 -0.10776303326677533212 0.092496644245705861298 0.03197903570726094713 0.09881489855889945273 0.010542639206549134917 0.15810600507777647361 -0.10371187237667618686 0.15117426529596086904 0.086158034199954672272 0.038871073092181594733 -0.021120142926565121239 -0.099942088020205849253 0.17483035590467482789 0.13364062895422312849 -0.038522886209398927992 -0.1137495610417134928 0.043690669670004227132 0.015045668063500947445 -0.069146807443499394563 -0.037101834218217250028 0.082904173494868449446 0.10640240398387153242 0.1056328959189329203 0.00088483798207825050796 0.0060193129929571025788 -0.12992963767600657077 0.091692423371126818843 0.0029218499655843301749 0.13669866588470508395 0.144446336040870843 -0.13059147722226521759 -0.015893746767606350273 -0.028379571537748417981 -0.0051257854561708379726 0.18710031176146132981 0.10241420873531867364 -0.08138519170305828776 -0.019254628609785530424 0.054893459693061079363 0.059910878522686880632 -0.0096787385646847860082 -0.054478067022861759172 0.011226666997434013584 -0.087506010556056543215 -0.06410158797165965705 -0.077956037549671466924 0.13671770988979933814 -0.012648147265725131344 0.12417094471935199995 0.025430411683167435805 0.00066536446432634397015 0.16405636874899320876 0.04740240512501051745 -0.033348202004240969087 0.10625363953341701584 -0.13385880515002765434 0.13032346262756219768 0.096289993306518634197 0.030658297353694401177 0.10952267092334494469 -0.12602927877453359851 0.21225321563179380679 0.013505144029214070575 -0.049763932418076778363 0.15839467636618234647 0.13492613149908241899 -0.017469806488564880442 -0.057520927112243394608 0.023080597306167301153 -0.053967796038154026983 -0.026237325004472778628 -0.063563441931243414018 0.066304916231711738539 0.093392189775625591985 -0.05768382977816494811 -0.15904719767578870404 0.17416657691920764406 0.037737088643101678043 -0.06566670129039020587 0.069014722021625493631 0.18063300396253892388 0.18831436930216466363 0.13119481791068643428 0.0066479239244688660693 0.085836424040816761138 0.0030479234317544569646 0.043836307465152928031 -0.058499771481297542508 -0.023366414635220943835 0.15515684425478717956 -0.1166373833899316953 0.12251360922827755906 0.05366291519343957539;0.097686159094003174874 -0.074715394922801561806 0.052687541810951615817 -0.018671781726965937243 0.073029024955666890784 -0.051287637000710699364 -0.073127604284649039279 0.044342557233342294598 0.16605498645706498473 0.0047907259302347139293 -0.10629148395453226483 0.1099258059046588909 0.040789545112367465995 0.0075084674648135578748 -0.066977913459117785488 0.099900266950053481785 -0.013264306170503805532 0.095713692127483374072 -0.043686085859882858862 -0.063196093737027100867 -0.090363175811557672201 -0.079639163273357488348 0.064748579148334303723 -0.0033760528497134433164 -0.066074846632177663963 -0.043301202042913218559 0.0011159252172497882878 0.025645686098212595178 0.048660039741195766638 -0.089378514019665886159 -0.043697824275864279031 0.0086744068354505550478 0.074051496216954310059 0.061349654072706392982 0.098942716988645110221 -0.083948217048008047514 -0.13030386625738546447 0.12261568653380518212 -0.062807766906533252227 0.014319379284819614209 -0.077527065524731486601 -0.046215728788934512528 0.10136656441502339687 -0.039384489998334666627 -0.036198122969390525427 0.11881305992674601191 0.036668403506961134986 0.073002108026796200257 -0.11253163512600290741 -0.10382303840713472121 0.13040969583771125362 -0.10428441033947372096 0.082726478922557508677 0.15685075999007841441 -0.14934134448966904229 -0.017628414854793460209 -0.01520198365176665331 0.031979705505395347731 -0.053101357712965327473 0.041919346983332307632 -0.041319134402019744301 -0.055122766096499936639 -0.11246573283517624642 -0.11000628276659253635 0.061774682718906494261 -0.018411766745000286705 0.047399539560460883514 0.11211970939763511723 -0.052614994923077036681 -0.12049469889153401059 -0.070597845554308841232 0.12478759396286162597 -0.14682752189956710387 -0.027845168210817939497 -0.028145708245140507037 0.10702346756380873294 -0.051190441064936503812 -0.12063073320527159527 -0.014744686320946782943 0.08271208676764565948 0.032925672276435793973 0.12429691939348581908 0.063794131567464024135 -0.10655935487440491849 -0.046340565457815625916 -0.11300980926556918049 -0.029161911801215797263 0.009529997915887544746 0.13263822286130638739 -0.090647084136234734597 0.052612984345893842875 -0.079543761376373797733 0.032187508018452881675 0.098408337444255047921 0.12130295842742873369 -0.039066076048116848973 -0.006780219001163859463 0.071066218710033060568 -0.10675292473137965032 0.023064941154168617371 0.038230467999199234386 0.095376074771288593679 -0.046697404733897503182 -0.010085745910227426544 -0.062413962018823196387 -0.11986287523202268646 -0.14910798839330516308 -0.098873092765809258986 -0.029399860494953720252 0.067313451375085306405 0.045920446753898745695 -0.09656995708142082635 -0.055712820042856381342 -0.024747788256151259656 -0.11572846701183105156 -0.05736305482454574084 0.052384996036255807028 0.11273884444134341098 0.027604274112993987256 -0.0022487584475503297025 -0.051108273483344991706 0.027534248261803184049 0.021655872910894085476 0.0022287636587006655516 0.010683071758723610561 -0.079618669191402285934 0.080173519454494232561 -0.087306458848223300606 -0.10971277826432748737 -0.13035933870889823694 -0.087278932113895923983 0.001711779932423219009 0.13504509740988626665 0.12776450384826476547 -0.01902615045808158864 0.061648736335602409564 -0.034031941604642172716 -0.082095048122543048952 0.016504693466226356968 0.11091237382330799977 0.058066890057119034674 0.022881315571953622645 0.11823947988696843769 -0.040425496010724669416 -0.08693598049160029817 -0.041513362615264351452 0.053010446573640082613 -0.044264535950815628307 -0.046231056003942304355 0.018754997067977216552 0.032732173888927768024 -0.017091414794333910365 -0.11872038040100640899 0.072832818330527446249 0.060068581992372263589 0.089096200157269586639 0.075119589491757302047 0.093958128547567687505 0.091092082323408166133 -0.10766108618620628956 -0.074351862904206589278 -0.093730737619032791774 0.027747929329040316865 -0.11980416468704735422 0.0051685816256545795769 0.12472438229992412195 -0.066826369772249649692 -0.043248935462393202356 -0.066972779000590315635 0.098106782360951660937 -0.070180662226414142202 -0.082541501911165160443 -0.13019904002117330122 0.063348342781741978635 -0.077910212693903843628 -0.071029287154999953824 0.035734868550246899621 0.067529851949610947281 -0.015297885391937013008 -0.039835655416482353142 0.022712232500104709981 -0.017801303857985228962 -0.05912197004290883906 0.006751797822239652587 0.040422647872956130044 -0.0090911255884359165602 -0.084278076974232007945 0.055158339245188654776 -0.094731034650070961023 0.029370589493848905244 -0.10164058777929060873 0.020539357345664900623 0.11708447446733649677 0.072842817596748862807 -0.036726234892293312118 -0.1343118781256735228 0.023018565358766653051 0.10903504933126913212 -0.05212059498632341803 -0.084870154507473954952 0.087268417990049237942 -0.010663508334142392936 0.096429166677047470357 -0.073129525850946591747 -0.091463945480440858593 -0.13474217027771553945 -0.052964907714472840572 0.09267746441375536437 -0.049793565667409424302 0.060356122707687302753 0.092118713379702135691 0.024052473362168261956 -0.13048225771662122496 -0.032979775890593684973 0.022866147293694530362 -0.090627861189061034719 -0.045843684351024586998 0.0015291298513283478264 0.09162732497042223867 -0.091638568667296929626 -0.03880655378677589501 0.10248789257121804219 -0.10625300954620940652 -0.084487996113610824844 0.08163275270993458621 0.067345513619596314436 0.014799179653501694578 0.024869057247445688907 -0.095959065224322431797 -0.055113173334736240139 0.080173280295589968714 -0.09011454335279980854 -0.13614108398605340167 -0.037080757096639507808 0.018882311191773134412 -0.08308113293977108238 0.010778910497417935888 0.11432128053037711457 -0.088753676250681229343 0.06964287658715270779 0.12360846871245347034 -0.077765390010995472103 -0.078314339721213530043 -0.12508740583246347189 0.11829381942044800424 0.085160865568538593462 0.02865707942109277373 0.04312083113017216307 -0.061487170578465720483 -0.1284626047600705423 -0.032841929189016516588 0.047838569188618312866 -0.047786976125430535856 -0.15796836189696913944 -0.0005736480979342934404 -0.02612496740939110329 0.10933750853332906139 0.029501262236797866356 -0.13187309694898433077 0.086178008451917822996 -0.05491407095109444858 0.097727401806614294655 0.080414747268880204523 -0.14483324045366458011 -0.045356782880857732243 -0.080106936236139514307 0.082893809654708230927 0.1044190043512195909 0.054919221846996470193 -0.056128891547828747843 0.14508618484226618039 -0.026523786533582133923 0.01643148393359857018 0.028934446667084664367 -0.075280893086563091532 0.097096461669288744445 0.058998025286824185009 -0.13644859466274664173 -0.18980558318691356789 -0.10326157652716297375 -0.068576017339644551596 0.014785999300293112615 0.027041376908112466082 -0.095686017040682330714 -0.046029575183157721285 -0.10785498321621224405 -0.073881514616653445882 -0.024291847020448214395 -0.06857322100535763465 -0.01050719444323173872 -0.01572191229927240308 0.15295232391267093996 0.080243812348562745806 -0.19194336817035376197 -0.076871319039336402645 -0.15675918025027968383 0.017195540155010822364 -0.038206457122506948254 -0.19872630283789508021 -0.082892097916209647734 0.13116303735265885666 -0.086917241608577291978 0.076887401306580893667 -0.10744930391992320307 0.089098986988432146705 0.023023503305118903084 0.0026663354172872131762 -0.0062244141814553370293 0.048809670242296550324 -0.070065389840081510053 -0.23121314014104019097 0.14464822425059353783 -0.061013916717211257035 -0.21250392264455714164 -0.18418132531914657712 0.029690520201569165631 0.1059258826510372925 -0.099073211922219336922 -0.077103196730437445483 -0.13232379100958382989 -0.014777393977033216263 0.075211485606690317574 -0.0027020596500961237794 0.056016801185639231164 -0.028276194652138438024 -0.25032282122800597612 -0.013857983065017700358 -0.16740990790716048231 -0.11543224522297833301 -0.08622820504524099372;0.10066963355061470109 0.097700425263087017913 0.15409061317169522876 0.019487312279047055985 0.095212400744246694639 0.043693089840223277298 0.018623828113968250025 0.029035175835579619258 0.066771113539023138617 0.049237194194535503777 -0.15915883333690883372 0.055464312565839647695 0.029911901394228560674 0.19735077434310771549 -0.087046163837473364278 -0.048070638204788004866 -0.016566362305953256928 0.0070999122380158664544 -0.068094295558633638477 -0.072980625593353026792 0.079318030403724926192 -0.035251393742199980952 -0.043816087125643207734 0.11220869307747795285 -0.018210652174865078062 -0.050367269411077240926 -0.060183733374706255281 0.12348684577703829268 0.034293272149327286291 -0.0020241114856232715093 0.088550060603639360601 -0.090584182013931188737 0.045614041990024174755 -0.13746286713347824482 0.13357321982160039187 0.14996325468249485646 -0.10629462033055819825 0.16998973672427514225 0.12248777295258951592 0.06364632281187893037 0.033363789688346856543 -0.073101579386222859114 -0.10174318400293469455 0.12940152671024063302 -0.0079905051917391611838 0.0081503092811384316579 -0.054423404258806110101 -0.058558034376951020872 0.032012435027639486729 -0.08918682892068421908 -0.058852939833150673399 -0.10316179423917735958 -0.038968780650650791664 0.13146726129371125169 -0.0043854873845650564276 0.090028113558639363823 -0.033948505403328270436 0.10041607251721029748 0.02013796943063915143 -0.033529256700908151301 0.045230539744497380572 0.084492904733229137748 -0.15932797142924029488 -0.0081897942862783484896 0.069807901030892294258 0.053948978133755744191 0.048558785361944641068 0.1216554948077549908 0.015252272609138842543 0.010072021448496148652 -0.020047782918848414124 -0.021729718400602667655 -0.061682482559227681806 -0.09492895212696433882 0.039197614853348515529 0.092082383041996451745 -0.010618082737996751425 0.097493045301141750825 0.0053040936952041166721 -0.11430083400173952912 -0.035717443478189080108 -0.038820751255851604355 0.10428815917163625215 0.02114549909165192379 -0.0064043015809623340603 -0.043621223712089818303 0.014729112959778405123 0.028883464950049772546 0.11703827049509943348 -0.057798925390221182752 -0.078336286923759421152 0.13743656749431595876 -0.039224846493787303425 -0.11801377776006671816 -0.0063918262720109222247 0.14138703253999998499 0.11723849906314313951 0.032987567519353257206 -0.11324267545316614447 0.10476899613454052074 -0.046315652634172185809 0.042007994521140019917 -0.023923689036381815681 0.13167094189368847013 -0.020054852688019587231 0.043054190946543502427 -0.094322258525675037322 -0.038843732452546339551 -0.065087309514809385536 0.048203862097180791291 0.10922364946327445256 -1.2546139161706553491e-05 -0.082854738243042791446 0.018145004436026828526 -0.067828924711326510355 -0.011017650106422636688 0.053568470466611117775 0.074638772030702280058 0.11333376099799750969 -0.028266819900019671957 0.13771239716486663451 0.047545557216503150921 0.065696462341628972248 0.092050415340251115492 -0.03229352763743639082 0.019832055701062199088 -0.1059313985640256417 -0.034702512046414765723 -0.13615952309154544242 0.07944291341205379775 -0.042547005796029817304 -0.064291342735142739673 -0.029761324528591176497 0.12318762735438314182 -0.048141426787068598847 -0.086054621492350352741 0.087173978562739964926 -0.11778567810769659252 0.099912689804595541943 0.001378760719266385092 -0.034775082885019244217 -0.10925629035954388668 -0.11989831635532699483 -0.057456033670784702194 0.040360368747168806625 -0.015757896280467170724 0.065444011503276583452 -0.071808107970563181399 -0.0070578834058232621865 0.0043615795831692463769 0.11510776965370551894 -0.056282418636411778168 -0.083187452353053081833 0.046676269326141404947 0.073226663787982815279 -0.073370003148560236639 -0.075481622997465455671 -0.13538486362447160749 -0.082233545901522694943 -0.10828980369542054452 -0.005653426978877690301 0.11530451398637669991 -0.12140911157251488284 0.10370290529185550998 -0.055464232287314903236 -0.015310504931817733171 0.036984341769575990178 0.031595953931959047667 0.0061386525939084966852 -0.080284660503475019366 -0.08338441086908360278 -0.040540013545218515911 -0.046833874406858960748 0.037113025163570172171 0.017389424527133517939 0.044319725382527153101 -0.12476251927368764427 -0.14159575634083473861 -0.1071462644706244749 -0.040171665995921326808 0.042706905891012843235 0.057792779913323266694 -0.11122129654810235244 0.012879484404776694872 -0.039313028519645416836 -0.059446550860920363557 0.058393257039193520452 -0.10251067583355517876 0.04375334185109795021 -0.027422718505500813524 -0.085589509305258992811 -0.080306223753947081345 -0.049430587515264585996 0.024597226935042740964 -0.014801818867074156838 0.0082352982370569437903 -0.033708581184004403342 0.1215799298379002108 0.0050771085763213199757 -0.0033395047858689793502 -0.10772522798458378235 0.11611597127111951411 0.043835935367412731667 0.0077604779333484696924 0.16760475454682505214 -0.061002780061714841076 -0.094901073703380009472 -0.02016671386202919386 0.053574582590687917782 -0.058113560913492498528 0.013633764606973979364 -0.11480010352962205511 0.067861718059225362154 0.091988682828530371483 -0.085327467413976135213 0.052350457203664109429 -0.087362975789677457805 -0.093612560398247793292 -0.035306418057076731365 -0.070168782029961587754 0.018588560437187630348 -0.023890244612944935843 0.022603417400195557896 0.08734843804850825344 0.032250791995728333994 0.12100364783890456277 -0.11952778357615521931 -0.015733524255525540431 -0.1149060405779646632 0.06941448083425683091 0.075008759178825060165 -0.11262137824773328643 -0.09758879555265485839 -0.042885060628714666286 0.080522910863045679686 -0.099178863965797794955 0.14684542219899043847 -0.011015797104980547608 -0.0026143706667711018483 0.021596415508706650471 -0.059668411847067920339 -0.043916208281158657101 0.079876481245330893666 -0.021554380573628639101 0.056920753716898177255 -0.1681338771268967025 -0.040981255090333339186 -0.1509180171536267101 0.059441202926758571201 -0.086536646542868980725 0.018820598105174664999 0.10019014634801443053 0.1192203773912774295 -0.038267950760485065775 -0.0011562815187418850563 0.11257869521678878777 -0.11992657246349198996 0.03067179995010919924 -0.056601147924316197457 0.040527371620160249077 0.0044325802398944673388 0.00069076879281122056074 -0.016527527067198233279 -0.097483352209734489002 0.11348067936356182051 -0.069629852441317294232 0.09149949210340803385 -0.0093342582569189338354 0.16342671273547243471 0.022714753145528166628 0.064029225770158626485 0.070742638300798035833 0.016593236405352772972 0.048770185700141938101 0.092559249868029699893 -0.085642098448092757179 0.060951818642930380432 -0.05817220434419821673 0.0085328316257058476474 0.029037560992679886662 -0.047986696534074183007 -0.04648529069122113444 0.11688827663218923081 0.030990483038957690465 -0.035886249197322216131 0.055070425338044175223 -0.070934879553066390589 0.0034102773564372960979 0.025682801140005418611 -0.0097700112587380261164 -0.09462445353139367632 0.10608090116866905617 -0.11831291685049583062 -0.098792405624325799196 -0.046838840504213961891 -0.1420880145787624671 0.074832577953887771671 0.095522340133825600628 0.057158806275861867574 0.018391339758126113574 0.056528587673941657621 0.010796734355945603392 -0.015217208975718496747 -0.11278844900695879361 -0.012085206125596471838 -0.06127423454014143539 0.12932969208816855189 -0.13765888775707091352 0.122440481847288965 0.12785154036425702695 0.0075566323073129187948 -0.0010404199713438986533 0.029936205429604376832 0.052284262627571909121 -0.0295265067949514598 0.0735269529914213682 -0.23093144604220577909 -0.071639223996725662214 0.11610397136956246422 0.11611712543060756508 0.25894550699304058616 0.10366145392341223619 0.033095950774620269685 0.078253740247560044097 -0.0025535437157727432916 -0.27145691196274429613 0.14691056865045443169 -0.070757642377008864165 0.2311038792154112842 -0.027026468880181744869;-0.10137490535659869628 -0.13820046759172269213 0.00092504444343896380029 -0.072963683669396942055 0.062238374347600156078 0.0019920549554606507489 0.11194084611854505928 0.15135077347883424403 -0.063670982551444543773 0.0068248378778531333319 0.079937516538837932734 0.078759505183047515131 -0.027890533920338505397 -0.084638753106958675154 0.001863106387157268274 -0.011377636558960247878 -0.21681274004505401987 -0.01897967701891602188 0.011937801085669143275 -0.014447346300317189319 -0.13736400676560153733 -0.065246774472157625935 0.001453150708169390808 -0.055186701050018133197 0.080635637537720752932 0.0034736923385984409644 -0.013442886989337678866 -0.025080367449886439846 -0.0055960992057164276117 -0.02775834563089862872 0.055014660130936268723 -0.11700081433136814979 0.053144607318470593604 0.0091770248797560672466 -0.06887630062603103398 -0.1702447523669429752 0.1060454589945167142 -0.098904892354839304969 0.023603744710945086943 -0.058455287795617608126 -0.0043941663260281555586 0.1264060899579384778 0.09496943087284080709 0.040536301583526612724 -0.15817932697396011599 0.0030779056198458536013 0.0012646184642664541793 -0.09741401786282047337 -0.032289799656876436162 -0.118462254522774868 -0.066946497335105756288 0.12784739288926616485 -0.1101120342303285593 0.093464641292755695767 -0.077144073197655566032 -0.0020620497807731746724 -0.077468644855581525466 0.10187566713703807841 0.016745600756816823862 0.092488618333343333711 -0.00083641083367572198557 -0.15703059101149083321 -0.0011527380405997671945 0.075380536517664450957 -0.065335329520105275836 -0.084027016459373257695 0.04417289763974426714 0.039674738972237798273 0.084915123990829996514 0.043484241232106771169 -0.030857647682531456901 -0.0641390778469567574 -0.090240211197622807737 0.10634924332862079333 -0.14869989956994700275 0.013970821359828385425 0.048491134819971894176 0.09063054496397712767 -0.11072781672615805704 -0.0095124548041765344397 -0.17411866638994202838 -0.051919902630219297301 -0.039819443401663566495 0.084401895236425050761 0.12830838643453568171 0.024722345458298107534 -0.083994114645520590035 -0.08626161442349870867 -0.080439541906030337381 -0.010406427402682336472 -0.081022831922412372196 0.13783775402873982285 0.059551869057149618703 -0.094123922544715452054 -0.10840679146305320923 -0.067028713003196557785 0.073120476579420723429 0.0038790518233337133863 0.068135797143171861201 0.010349368104392851417 0.13864530205920813644 -0.00372022668801315088 0.069949506867520161446 0.095639978270525269344 -0.026593562965617090904 -0.079223459320372488501 0.12982131734039256687 0.01279601126366784053 0.091410151937151365442 -0.14544932555938167029 -0.10107778895566979505 -0.10032056591485105645 -0.06708509597667743074 -0.032679358961773562198 0.059190709362749581446 0.15278830771886900419 0.02956936985859009645 0.11750037730107278089 -0.079200025569592463759 -0.037278000951956304088 0.10847633196206933615 -0.087246106455896435539 0.082450373703744320175 0.01780145728033767985 -0.014394169387325453022 -0.048506081153464192246 -0.068527533564379114472 -0.11647720392770254116 0.083713665450564175852 -0.034485408742666069648 -0.12585301062531720206 -0.11386303445901164999 0.15091937889793249905 -0.084827845098670237589 0.037771981352404199184 0.11514169750395106262 0.086755883095317565257 0.044505762241339300034 -0.12013530315163209461 -0.019354922403581657775 -0.084973997309623974794 0.097023033632840316454 -0.05107361154779990059 -0.052850270315472527849 0.10578255575032376179 -0.013604598121638181163 -0.016930129104202669421 0.092107381766011173219 0.072056844771483247181 0.0020553547671822419013 -0.081670295363598016669 -0.03502716047852495046 0.11633517646384644584 -0.0031361095294817954195 0.086403150088550775831 -0.088824633432814728562 -0.031645980001714937857 0.073557811380237592136 -0.08123558525839108535 0.042027749210922844825 0.0016615149551760612957 -0.12778046423979563806 0.14066708243023443026 0.029389101998635352303 0.039045750055054756489 0.0013730862044807026941 -0.0819482808135216928 -0.05425744649131050007 0.079649340848470903675 0.037028729310095605254 0.1158708230338786338 -0.098087026966038173836 -0.038659466465758608733 0.051145065140762356604 0.12694811726325760937 -0.056062712666107329673 0.081748573727580722825 -0.10653907653528500721 -0.12443201266149284123 -0.086929927401570530887 0.095320764247062705898 0.052732784666892316972 -0.071399283518617864819 0.15156533549652134729 0.12218334917093100211 -0.030172278656019794335 -0.023860260130634212972 -0.11493340385539863036 0.0384080449676602112 -0.029710396327597053678 0.099344687840168116599 0.10692535362339204708 -0.020361661539309641733 -0.12505002875027138032 -0.055984075841604155621 -0.0051968592129444917543 0.13106025765557102747 -0.10589818074176025886 0.018252059950424021767 -0.091468413399143647102 -0.067908070824536703736 0.12678476657535597827 -0.042036121454066828484 0.13752720723031472416 0.028040340157959222495 -0.030082831632728863208 -0.049553046279158866061 0.12164133050719945495 -0.033034376507247442678 -0.036073562565030733995 0.034054860816663957979 0.0064582469240288594564 -0.03410004838864930804 0.0075898911860819203573 0.054316155286257668255 0.03252538256223222457 -0.093325421760474147614 0.066339319618659395306 -0.032060861072317502207 0.0055675298716990348838 0.010475972499885582642 0.079304701773125041431 0.095442919783117655119 -0.052341398451687261295 -0.069406972538222824753 -0.031548315855949110587 -0.072469548081604689971 0.15311581131568824388 -0.085149205637142247327 0.13064017841426292521 0.057199579899131360039 -0.015188501485296478435 0.091073585178663402084 -0.10296685070708595788 0.055977423924581617976 -0.093842713253424622777 0.09032687810829716224 0.061498796968314353717 -0.0070191230540546031835 -0.11984331777881623848 -0.081309893992209641977 0.14320427958744333385 -0.049704340887623932321 -0.11700022192221778972 0.042564025378418114676 -0.011365372395738348663 -0.077084591509523819886 -0.041022287441726368318 0.02963952551023740084 0.0087473627504549688466 -0.0079805703977450410946 -0.070631170818442917669 -0.013309188287083601257 0.15292460886642347817 -0.083559887609976485345 0.028660313630942846341 0.059230155104172649283 -0.055289342234147692556 -0.017592069583662710286 0.018478342747319090322 0.13024560198804130406 0.036882441454754333332 0.097089452166148296208 -0.0048255153064766026158 -0.090207415117569855756 -0.053130952063818417952 0.044358828338303867012 -0.042542545917854682203 -0.080167579725028553783 -0.18087595667947492517 -0.027042783126103510372 -0.0086040453325073370378 -0.097363448210466274624 0.11773451789670397183 0.010502902476312558563 -0.027594214343607922219 -0.076122378899234552363 -0.068109378306388884683 -0.012950906599986289694 0.099741880314298481114 0.010625511481196956223 0.099035606348092219964 -0.045716129564835235322 -0.072883406882077714228 -0.28129871210562096273 -0.04111055086833896588 -0.076947794889993037515 0.086220195416130046562 0.14410813940432493085 0.0126483077696150914 -0.0081987176162568609766 -0.069051791957341082662 0.051220804978715020472 0.087074078484403238942 -0.084558927257951693734 -0.031968240801240867255 0.055057199564069542186 0.019189153403554336241 0.1206870184635730342 -0.58289903458570524464 0.16963449211901199254 0.078489694971673837354 0.11920441053516651897 0.14644454051705796394 -0.092175976313664212403 -0.076306311668397436287 -0.056568349971835144019 -0.079862132259131787815 -0.0076318907609748401141 0.075583302808864702427 -0.019628362355464317596 0.10253919926485932645 0.1096806837399972312 0.033953490086507220891 -0.14559619916907115544 0.11953662512356985625 0.10219669368552856958 0.078647820374041332858 -0.059368492513321977078 -0.036356397670776280373 0.02994592721839410554 0.13677133260293991568 0.11853961296228965328 0.038185647925546739589 0.040805974478516839066 -0.043652423279529589673 -0.083925527449006373515 0.07263536735901750252 0.024516948295198282698 0.03862737147545293459;-0.10801590567859871428 -0.076422287364434071666 0.068102422202883455826 0.04267157742045347979 0.1135061653669975773 -0.089348526596345664852 -0.017438014927475736782 -0.10212019055462215333 0.0046364135009395240558 -0.034350198197351848595 -0.064788501082088861827 -0.01603482848791731169 -0.017754794849094385906 -0.010026544462816226397 0.038556495528344211787 0.078961834235392699965 -0.046982338415207075544 -0.094393760047848135342 -0.051001941201711170626 0.17070341387306456338 -0.068745910215648908803 0.083882054567892896935 0.075804389850473177792 0.055305357873936977775 0.07925326076153871302 -0.025815553978118948447 -0.059642241395147704841 -0.024091375534921632973 -0.1567762294883688623 0.058637622047061625785 0.12099245871620518955 0.13745507888512867312 0.087841561681061691713 0.0085814477627601023352 0.07890818589295695018 0.071021290322084332236 0.031387625507644366374 -0.05280320180677481462 -0.14654981041141004749 0.020867532428747521261 -0.0074749158632668559477 -0.099847268808634509485 -0.080434343717708647881 -0.084773654246691781955 0.01956476903038799342 -0.074406771370553195788 0.13639454380118828936 -0.094737404121582796668 0.036006746958325584751 0.11504222651305238967 0.062781980661091765783 -0.0055918808706245078446 0.03506242233124799712 0.059644065986483363329 -0.06087615727944347549 0.013290385838890202141 -0.070010698854359051935 0.044921144485552545744 -0.17038478277194937793 0.079744457094459972324 -0.040259506925051397053 -0.071635126305173602024 0.087890160426159810725 0.051791282283304575229 -0.061310717468079624359 -0.0032894405315990644934 -0.13600806470244122814 0.073935782644490452564 0.044065890692428381914 -0.018347720154020318722 0.074703201107383043755 -0.12796071760257671235 0.013131348665070211729 0.10340217215560632003 0.023638204822816016176 -0.1226852127350266386 -0.06397753746887138715 -0.016040722404935887219 0.066501936525266078237 0.14480222842415116369 0.067649062228022305288 0.072035022291854336474 0.10065938651478720245 -0.047297992234874901285 -0.026964829582014290116 -0.078469798424957160066 0.032426133876542931334 0.11728338744726105047 -0.095095359192020473271 0.010347051258049600256 0.036167137222089203175 -0.079764565725790201323 0.1216096554822809761 0.084648277447203795765 -0.063919034826368736901 0.10253592951765669317 0.035801385995488016478 0.10434015513689448573 -0.13201818108505875005 0.10555972987105480265 -0.090506774610979306983 0.034201430559723806912 0.009273113059447635545 0.017288799588411226521 0.057673467434888631145 0.073498599360229080468 -0.039625976864714869408 -0.036550147062227741901 -0.027771405612971821614 -0.026992420319332351836 -0.064621425726283779345 0.081467842469056861443 -0.10542958707792070283 -0.038002798697011043461 -0.071117926878261156221 0.094239164172030681632 0.078710990953610629473 0.042257878305206525438 0.1016014412709685677 -0.056365515062917224964 0.12129438406309091258 -0.074814194784419002504 0.12322854357225028477 0.0435789235272753539 0.086961627065597055242 -0.052444813542370245785 0.088212986212825195143 0.0049396286376579929753 -0.091483367110935062683 0.059708008997696924991 -0.082354078232517322067 -0.11818358729322832323 -0.03057915805975584822 0.01993161626932346206 0.028720040392638174209 0.039294172840099103605 -0.038041391331885603122 0.11726203103788430948 0.017131928380412855123 0.1424690134784089568 -0.014917365189447284388 -0.12390372315880551768 -0.11449938429264543138 0.036536143725933729887 0.11609037434557785418 0.10091528779458491805 -0.1045520273244349152 -0.030575898094495689711 -0.057801309527437963465 -0.093790631123060755336 0.02326454583680085883 -0.10823079252754438939 -0.080637600975533935133 0.096480048820568875545 -0.089002147294631725472 0.00877387407140110126 0.048615692804654518644 -0.07910008091230313898 -0.0096071197123980128785 -0.031475363983675501423 -0.051269635824321840856 0.040100293723402270774 0.0093019208729313157535 0.0069216615489568200648 0.10593339598009177127 0.0010734130531307453042 0.10828178332536553263 0.072614400211869628565 0.097066872484040542246 0.071478343491407692056 -0.07695468172639029214 0.0099454499959891803224 -0.082080455782720204705 -0.067412780558510077 -0.050968797049123368281 0.064523373081402768392 -0.010972050501055846672 -0.033812428755469497998 -0.10443696458141710215 -0.0013769211683553556156 -0.011352899199736480457 0.11773628520441976886 0.055885682864091131006 -0.1128166435013798069 -0.1153722845422638088 -0.030276970029038337978 0.10549905788168875698 0.023067398099993609989 -0.088335648384760767637 -0.100349767863238723 -0.081278415552119828713 -0.087249974154945439397 0.13603763543290109395 0.082990629494988601977 -0.045130129169132719713 -0.097334564828706698902 -0.059034995216877203528 0.12789097539652344304 0.096836873134010223452 -0.085832065434519197455 0.00055580388580158930981 0.10633984349112121648 0.076639277975486364003 0.06409880809627056808 0.12406280681690115553 -0.038913183243515565846 -0.020006141814960201608 -0.052545401840047897823 -0.15097067097872446384 -0.010223862032738312289 0.041559011007905072299 -0.041707065556878357426 0.11726535653846929808 -0.015871904886369456178 -0.023406547325456310976 -0.014833839673674409365 -7.56751966454183967e-05 0.045364256233611927049 -0.15175838698288052209 0.065798315187023059813 -0.11299331618726789206 0.018512260736605213457 0.11056825774522088812 0.027044140779808732711 -0.066654820771470488228 0.085981072195423335902 -0.081900317736100763932 -0.070838574938628232069 0.13848461844745052485 0.091507925859533309487 -0.08013789358703023169 0.022263031749165326095 0.01150207651838919265 -0.14572310341106503584 -0.036730983007814320407 0.13648822957780928911 -0.091571168940620450982 0.063093078853802428418 0.035851565765465130686 0.0056990911070450610623 -0.068386477623872718445 -0.020189169862455166177 -0.10091781020209492081 -0.04190785156268898165 0.1376627670713871654 -0.010840109496924090968 0.036856154535265465977 -0.13409405058208001549 0.065758775734199706453 -0.036985659078925467447 -0.02227486218864303813 0.055264015527231598324 0.092149786896266211444 -0.06937543987051758565 0.016064361612957871184 -0.088314065031535188277 0.046164317240141618248 0.14554986447487092138 0.13277188115605118024 0.091703938422366071404 0.11083960910287327106 0.065303266849840752029 0.00048472157981615116972 0.029941573545289770775 -0.033260572448321909511 -0.077060283480910971021 -0.017257993761185256437 0.11674565044133226877 -0.063438126844117717629 -0.032459984048594438255 -0.031553987424248627902 0.11415670708213984663 -0.036775243842474790446 0.077996997269881740422 -0.094925192356137916283 -0.09836440500289807265 0.13490793986582391706 -0.10712706116824201319 -0.071026104112616922359 0.072142861414180095569 0.05026030384957479169 0.14063824886329209796 -0.041911087493782736568 0.12411447418895378558 0.029819803228053602673 0.0005162703155783192159 -0.093027404770761629171 0.11860142499876139 0.12829681226947847739 0.12685197209011772612 -0.031925585779789177054 -0.073847299647561551184 0.02170303918618187583 0.097493228626658795521 -0.079829087844494717174 0.0308856142148818541 -0.033113544074528267203 0.054105923184628569589 -0.11506120478965697895 -0.02071479827353607181 0.033398227736488775297 0.15591943262917892787 0.16901692181858898878 0.19256491670587605469 0.090494605467363903317 0.035764334546942604109 -0.0053333991253465594731 -0.097097270389624068532 -0.014893470208432757831 0.061625354338872083415 0.038650616857781913693 -0.012263808833596009235 0.14808999185858165437 -0.06997600931064340557 -0.020978162808173609483 0.0023694641433756194818 0.19131107470429367656 0.079840307550063355224 -0.025606682979393158989 0.19385709459360653262 -0.018586745640302524546 -0.13330148691964338603 0.11990020520479865995 0.002937629282718077009 -0.082483919046459616697 -0.062325310415306402201 -0.081634953782171393311 0.1057878040249388002 -0.045545752175704661002 0.04971397136429003133;-0.0079678699954895803453 -0.11710797746138497388 -0.041183120609206223806 0.036573256218053150357 0.089203701753013661668 -0.078579252039877839353 0.043907074767966992879 0.12345662407397532678 0.1009615012366063963 0.060014816254978932408 0.065658873627220420977 -0.10103696590282040813 0.079172607990783946952 -0.034246059644325609062 0.037083104460555314785 -0.077960109839094460238 0.058380482830535727901 -0.14264065404185946595 0.03723623624764678397 -0.0038985995540366928137 -0.071468279864904726839 0.0036314509878329491628 -0.0702847684419123514 -0.026658582776056753694 -0.030128428775420861702 0.088320978781403255975 -0.060090341869739695435 -0.020269418384279223877 0.019426754599437122406 0.034539783346057846558 0.11293106852227441372 -0.072144897543306191201 0.096769886376529626326 0.090416930137769788156 0.018526211944510494883 -0.12404693181000255031 -0.030098358461020043725 -0.0095379160135402683146 -0.066043742187908274777 -0.014722619533251511681 -0.1325160399631943875 -0.081416768849412735065 0.080960585119464925641 0.12552872367418099753 -0.10603020185810559106 -0.064245260787800059776 0.098271023949763738892 -0.0953707876097146523 -0.042322547430993499862 -0.010874426634878009076 0.09352320798031271698 -0.054210678598021644348 0.0053888315660078379976 0.09470135673080043448 -0.081017132679621073343 0.064780747000519306456 -0.073293061540159215594 0.044568784391005172862 -0.075373132091093142382 -0.07987759443865080633 -0.12426004451848886301 0.040223935035668401117 -0.026216131395245430291 0.080830321770297502981 0.10962063612801377366 -0.10782619561267568764 0.068739806283265189601 -0.016360894081606323219 0.058535276394551270795 0.033540315480055628294 0.094992060157448765523 0.015114855494099103603 -0.15640291095960084933 0.13845381717908394892 0.11758087824766469409 -0.0087292180024922238352 -0.041298777533074822188 