function [y1,xf1] = NN_TS_ctrl(x1,xi1)
%NN_TS_CTRL neural network simulation function.
%
% Generated by Neural Network Toolbox function genFunction, 29-Nov-2016 10:12:44.
% 
% [y1,xf1] = NN_TS_ctrl(x1,xi1) takes these arguments:
%   x1 = 30xTS matrix, input #1
%   xi1 = 30x21 matrix, initial 21 delay states for input #1.
% and returns:
%   y1 = 6xTS matrix, output #1
%   xf1 = 30x21 matrix, final 21 delay states for input #1.
% where TS is the number of timesteps.

% ===== NEURAL NETWORK CONSTANTS =====

% Input 1
x1_step1.xoffset = [290.166376476501;290.149943588147;290.412555626358;290.149915280775;290.149988708549;291.106095343295;3.38347235810943e-05;0.00010333422687836;2.58396867138799e-05;7.89166806498542e-05;1.59986830112757e-05;1.20371050797985e-05;-3.81536374334246e-05;9.99999974737875e-05;263.712341308594;4.86023673147429e-05;269.907623291016;-4.90213242301252e-05;4.86023673147429e-05;269.907623291016;-3.58168836100958e-05;4.86023673147429e-05;269.907623291016;-4.42128475697245e-05;4.86023673147429e-05;269.907623291016;274.412506103516;5.97333335876465;297.130004882812;290.149993896484];
x1_step1.gain = [0.674894562927942;0.671128676736073;0.735986092949701;0.671148338633239;0.671139958336367;0.988189230453028;0.0253393570835507;0.00818376343702445;0.0331795860748413;0.0107158947019704;0.0528582798347177;0.0702546741158377;0.00831307025606517;0.00844599566408802;0.11781583365992;0.017399624072244;0.138531652419484;0.00727208117961757;0.00698446210277407;0.138531652419484;0.00411893909944313;0.00681562222957587;0.138531652419484;0.00481428696706073;0.0131018651631583;0.138531652419484;0.148664343786295;0.0659540041116841;0.332226519925176;0.671138465319665];
x1_step1.ymin = -1;

% Layer 1
b1 = [1.4189581888827984546;-1.3511685409963098969;1.3059551300977123578;1.2480431357278214399;-1.1747407031065957295;-1.1326621228983158041;1.0291694976390759475;-0.99915532634102299792;0.9474043770384630303;0.88489597045742796055;0.83041242837464979143;-0.78069026975358113418;0.72820972237575321007;0.63310078165874461575;0.56999648831327420773;-0.46122233881794072463;0.45909173761040000805;0.39956843651702711462;-0.3142227503733092675;-0.24471956953512846722;-0.18900988790639061676;-0.10965033412441457794;0.073812654370930458336;-0.079894243236122375329;0.011560233033808785252;-0.081577430353388574735;0.14968667239453883888;-0.25115635126644186847;0.26931433563025286571;0.35941955815148474151;0.41227912184142206931;-0.46964313325479911665;0.52451892075620709655;-0.58163109204708640654;0.61243227655628840189;-0.69005109207441073238;-0.77541068457297390726;-0.78770875815617846794;0.84774754637044635874;0.96717648429462899085;1.01566575936961212;-1.0867287610812295107;1.1005931677657652124;-1.2051789286909120325;-1.2415011908144253372;-1.2930223579065223127;-1.3677365281833764321;-1.393157047491969891];
IW1_1 = [-0.098988295251139252207 -0.05860338227980843584 -0.021031644779181443705 -0.03018389838791779925 0.028016027957466022036 0.082058750022353910136 0.078748856940270436922 0.0336780364766671933 0.036939835962511297085 0.0095147526386658316105 -0.024915972993391936191 -0.085754125242847478727 -0.071040890347796994964 -0.06483153853654453902 0.043697832655639423649 -0.0062012791381984341127 0.0038143544624498751036 -0.048888783817481844263 -0.086376133703251797846 0.03350131891788322297 -0.088819779515906471801 0.068751144844054687399 -0.046749193012466272457 -0.10352155645124391792 -0.044357799402937714284 0.046885952574315499508 0.11236441674448473249 -0.059845236203159825339 0.070928203018693222748 0.097163499931988084324 0.053086076497753410808 -0.061289918977876139961 -0.08314653795160198424 -0.075689708137901476337 -0.040251270550427223349 -0.034295969417947096136 0.063786786676484852343 -0.053429034531541068354 0.069636777622375745089 -0.07366009666590106475 -0.063809471183576951803 0.044154904434552430526 -0.080117535101431783251 0.027801300402948880136 -0.08719269569048627988 0.013466530079016417534 -0.018595833523642656127 0.026095240499228521819 -0.050783411785756002454 -0.041313009808078018925 0.067942500560913915431 -0.071353052628327279239 0.069277000855843484661 0.070342091487321595222 -0.063733890754337857443 0.069922127297788030931 0.013361158991703240076 -0.031083661130802048289 -0.023719833746500756239 -0.0044548130364324388386 -0.050603614342756474132 0.074481637123735386363 0.059741894913551307766 0.0044363997626026005841 0.0080966438753805342748 0.03119467009245813216 0.063297521696321787377 -0.0095463078856572979036 -0.040977011222429325643 -0.0080315090811159221829 -0.046868166579354997303 0.027587313389508354849 -0.017883976014807123622 0.00081085151366477837501 0.011863396499565095898 0.019934893233613706909 0.0034694431955396994559 0.068525882191754677875 0.041683100332615387329 -0.075946350888914590516 0.019773592689056786881 0.042060423454484768824 0.034075959912285430642 -0.058793241783085092855 0.065801003371033353617 0.069898699301605582423 -0.020374955693771647919 -0.1042903304609894416 0.05389529647037151483 0.076195901046797478995 0.030204405428832570291 -0.053075933897835096686 -0.065454609941332633771 -0.092256690054532075607 0.071547035508344028476 0.078120955277879419731 -0.080516913036261780756 -0.040080893870750186614 0.084597877058274290052 0.073388203169505991652 -0.035342603109214165702 -0.0011712306028891076616 0.048711276282809710947 -0.032811517481023476372 0.01373597754761016719 -0.032397290596414385355 0.1009297407345081804 0.0064642762793118979658 -0.01372566099819495615 0.001404959094280766466 0.012155558256611702708 -0.047806767001933987704 0.027430776960428386591 -0.06157843807055119606 0.016254099578494572709 0.074111212284472094414 -0.014005021860417790278 -0.0045891627045423566758 0.057549095094534548356 0.026521630805852319801 0.067336185571106363379 0.08062860145050826377 0.072877758322089133958 0.015706264616703904252 0.061266021406438046781 -0.028257483334056917451 -0.070669474428836906443 -0.036083227998733889696 0.071331584615252741077 -0.0050098218014329601658 -0.08682705496134435208 0.06908717073789165386 -0.091812820840373995934 0.06217292518722553063 0.037080495373537490644 -0.056562055801464547478 -0.066021089448644793007 0.053498516777851293225 -0.012413498431319310369 -0.019669307119352875263 0.07666361093089218981 0.028098300136339779409 0.046954618107523445059 0.066400579850962926365 -0.050119295228433335954 -0.049390443061081069909 -0.06157404471757109421 -0.022864739913622481732 -0.036211162012046792247 0.069646673151937704693 0.0069597598043665016149 -0.010862598853083094835 0.047966400682086234031 0.03223639876444850394 0.010338859255335328124 -0.069176687518942348021 -0.078960130652993468225 -0.0070632685123967441088 -0.0097750678940609434658 0.061430347371763761866 0.078987558368845647849 0.078163581577992261029 -0.052999906557528002338 -0.030436533644940377136 0.082134149636596695543 -0.027178051654329581782 -0.08604575752665827304 -0.073495711692669690729 -0.074395521791085716945 0.045688758136061130566 -0.027655365532048243465 -0.050880097154097317369 0.070610778045143679504 0.029036562383826094308 0.013231271900846846082 -0.085429806047843476202 0.019011536398474845888 -0.074390019620033512315 0.0098500249531777474277 0.051983870498357107048 -0.025955208407241910779 0.030127809814647146802 0.051881274564880286437 -0.011979878556896132735 -0.040306651839076015897 0.085270104588551817737 0.026487065657964020682 0.016776050045393210708 -0.062337370552734534812 0.080235809569377092298 0.084760920698604677592 -0.01116082050092316591 -0.071317782797396700456 0.026730921604598296276 -0.066157516064870150463 0.038280575853215377535 -0.014778891294718474181 0.022158422621773431888 0.070106532306080424077 0.064844601111533173299 -0.0095709794760703171407 -0.047217670675894711507 0.037096028495745878018 -0.025050705582939779281 0.09942492145032004458 -0.027192082957573037588 0.10169270223468271364 0.058188386021203394871 0.074292969853307452843 -0.046842541014713384717 0.039603980877748599931 -0.081348790491736946984 -0.066731640520668253358 -0.031256497409251189634 -0.035342554035797585366 -0.086983677728446326394 0.0560270443889404543 0.059946322096209363195 -0.040606549653252471677 0.0099062575417221288704 0.009171724950773374116 -0.074927207816969765286 -0.056194048348341497923 -0.049710568959283496504 0.014625501195716317238 0.06087259204573559207 0.041425974714479729677 0.055655866046933830105 -0.066856794348770967606 -0.077848335984363123408 0.078407743604346810673 -0.008718268055203766409 0.029000878868546558359 0.034550363956050218761 0.076538544422477108875 0.036440775076287811041 0.0050723544831793943369 0.06286294564988434419 0.042013321815359820632 -0.07290456262054083314 0.086182230115898775247 0.081929926558399618353 0.049006123107344742862 -0.047351647312914593724 -0.014657968057849676824 0.0021598522573068584113 -0.071979392848250764447 -0.0297792286426009703 0.083470975149688209083 -0.063855976907062281245 0.073852606865638478761 0.072471069447323843704 -0.021773138741056352607 0.081382359872056275751 -0.096050540341216072981 0.085488797280917822041 0.052477860922834282387 0.038206436788453743136 0.058488376838206256048 0.0076139474564801438647 -0.032934418455647769541 0.032822200212979296685 -0.021170710137883626961 -0.068615705088852285698 -0.050813642236775959093 -0.058663394235649202191 0.04442896125816511721 0.015441666764136942683 0.073967088407861786292 0.037263712327518246081 -0.0205447990311761787 0.029949822954646928425 -0.079397208281943701391 0.068427433206989352055 0.036209542737290205394 0.010722172692908548547 -0.013893111193113575133 -0.042021246781091564637 -0.081254917872675455626 -0.026112102231667204399 -0.060080696483140842712 0.068101515525019237773 0.041396950312410911443 -0.068258656047325158567 -0.08782918238567417879 0.027846006440107901048 -0.034055689767900097775 -0.0006602232787960617957 0.077478539634423942983 0.027804026674273129432 -0.020552161948358675658 -0.0024381033332349592163 0.04767332290193383032 -0.023938792000004267824 0.071975058977262321158 -0.07914019307201450304 0.015617364908809928253 -0.044595667704817799903 -0.01477808559702822877 -0.11444809015302492838 -0.0013771119477059869107 0.036204930899724506455 -0.058235097958125807416 -0.093002773834572297074 0.047971111220825077281 -0.059619856236409696226 -0.088099354839851942711 0.021662186359559524457 0.079731821122173612837 -0.064539308351962171306 -0.0045284979497270966969 -0.017268698925836056118 0.075065690756892122781 -0.034503093868803361155 0.036398357164056129032 0.019646411208135827059 -0.07938459935770764142 0.044150090973326255872 0.014392923261327744341 -0.00061272595982147842666 -0.088856281612365944911 -0.0046500761512553324267 -0.044358220551073704319 -0.034115310522708885976 0.042285116426479925356 0.082959146999294006153 0.021381940380059059198 -0.030253782290864877219 0.063426432335645599458 -0.0029717254552292784661 -0.048657891409828284146 0.043867512896647330167 -0.075563195909751246226 -0.094751751493982613872 0.036536873893725535511 -0.080567491242396899187 -0.073345345323463734255 0.058397804840227898748 0.030847292879964217927 -0.020317316717701941475 -0.033492697767643193896 -0.070971664450958024672 0.053050561469518142665 -0.013195027985459340664 -0.085741635071294078352 0.034177223049632138308 0.093129436979545884845 0.078815130740881950144 -0.016218418554582853669 -0.084206693646480978988 0.08582273737238783895 0.006131791771755891983 -0.076329271293803860332 0.076531608080412732997 0.057709087026190153402 -0.038757624869934691192 -0.035223945858912565632 0.071196564139375764779 -0.01274067024868989588 0.062800108023078338171 0.052781234101611167187 -0.077682001252698695826 -0.077958339372544663282 -0.075076926673802626966 0.040514773039488777284 -0.020195461433085697134 -0.068853302770533794663 0.070056182154835125453 0.025207559508216507982 -0.089731918939157509496 -0.073981494958354487856 0.017225865247528424767 0.0011648370676341068125 -0.065137767490817774507 0.00066238783062177834793 -0.048991279170007673294 0.019983445733418224444 -0.086209398674242085359 0.0085933320229193057432 0.011172576695129622301 0.076281296788862432146 -0.011421719455738213109 0.082446910518225641207 0.058176120363742901687 0.0063351164913892912475 0.015402778343870639211 0.038028761320680629088 0.076617523155815783764 0.049630051064046644405 0.079415839716254404967 -0.09496979170552125038 0.040457371694339654133 0.018874754712745883678 0.019798465832537335413 0.029041026770192691908 0.023294244431109622367 0.034400060284077500772 0.062616777035566256737 -0.0007602555560380146139 0.098207579255978824651 -0.054541579842793799782 -0.0076712946555354327369 0.074684714294971227266 -0.02276893506107159626 0.0015415383299128200024 -0.0503073591565692535 0.012164068913614338799 0.054909089682593753556 -0.072138827094744728541 0.0019867195037165468439 -0.037490497325230083547 -0.0039565836083595958342 -0.01435285197960733776 0.029661735218130445835 -0.0057272275587429378671 0.031602624012826666111 -0.072587402239021325823 -0.019886248376510939212 0.057189742582247724001 0.070098747547169132366 0.095728753251059811591 -0.018738093095239570507 0.032022730333261105462 -0.051040825033656103682 -0.074755614975085787899 -0.086310723256301249973 0.043721227349361901915 0.060268010372501935878 0.078146670816918728519 0.059745481762598279252 -0.076889453578818142687 -0.088139469345136584044 -0.0074285158549533920544 0.054297892435978406533 -0.064501236280589638317 0.082855041518885383378 0.067123785171857824894 0.024995206183745920236 -0.049963978458129963689 -0.023329205654892191252 0.032736397136662223617 0.048824709348066659687 0.045734096409241489778 -0.084208229109674626045 0.088802759144926884938 0.067008342785298172228 0.040789929328948572318 0.055848748835994471706 0.013361288551982913181 0.10357444975444536628 -0.036585527641494280937 -0.025411397515426085991 -0.075272563726378041715 -0.095492298135460007558 -0.009106400663674789342 0.039787353530951447 0.013243269268636484806 0.0034470617275521066303 -0.05038915537160975483 -0.087233075459038494914 -0.028967118538956143636 0.068355285898232337471 -0.093260268356031544856 0.038720136602606293474 -0.047485789279074701319 -0.08372911809772734526 0.00012214448250839763169 0.04795870123161480314 0.1305737921776049526 0.019406311290967606653 0.090454244814098638816 -0.050105314389626162686 -0.048999493086634336725 0.014187596252043790587 -0.050312314071164578044 0.063316921278444335264 -0.084767801194118766461 -0.045829612197665091367 0.08738980847049704348 0.014378005060024413517 0.043575860767067431389 0.068730027686342870519 0.017862376507887769289 0.024125435964777858927 0.031483112183827141606 -0.047407033139926460508 -0.037198798209480750387 0.070549654032044259444 0.044394092491007251799 0.053322609016093723555 -0.070108389743803609107 0.071626738503680578707 0.050425960127530415622 -0.052132257771244541744 -0.018846813284255782561 0.10086316432063363591 -0.00076319894520490770377 -0.016932605784910556568 0.03839503121486899373 0.016539975960625591389 -0.035242354904530641402 -0.06557842191167340129 -0.048556958716871746751 0.016539280772311707596 0.044381041497441452159 0.060952729578243956821 0.037473974943130435034 0.054756433304580708066 -0.015648221106891464782 -0.058082025630447925435 0.079697557048446318606 0.027004870961793263351 0.081782481658350836273 -0.034808532898940570954 0.014860618004266671136 -0.022790650445308556493 -0.041679800397056349093 0.049035539920613754883 0.088510648001031547172 0.0074194510407963746093 0.098531192660021110763 0.095169851609316444274 -0.0025057347163391944719 -0.013429529192409937755 -0.062764952567968920749 -0.077441464111271146598 -0.074055269644793447759 -0.04069799524584647582 -0.093674193368824959505 0.062229881828685974787 -0.0068550735965246488435 -0.030225046395395808313 -0.01642761795937272909 -0.038482954114296447079 0.0024684607873311247873 0.019970965326930868039 -0.057040566205950174461 0.08625454581127435516 0.011385513369299049558 0.031229235187093449394 -0.069395476800555536134 -0.0065397094825037716329 0.077982269288508848648 -0.011329343101764321328 0.067500918110207919209 0.039605577291447896515 0.034958375223340436289 -0.0044795341428369829864 -0.026789866285645544397 0.01003416850029802132 -0.065981070134882441325 -0.064846653570391488142 -0.090349465539670673064 0.020122228044080380654 -0.076255412834509844755 -0.007298627809149719689 0.015012547436574827722 0.044008773977173218372 0.037049158832692455356 0.036903454201798170653 -0.099891134760470498555 0.050496128121675157296 -0.040839982053056098077 -0.10065871586693669881 0.019254590549063907434 -0.085161692118314077926 0.097760597725824030513 0.013349332497130259045 0.098620458152663653673 -0.03707390121008181938 0.069746351943632961534 -0.035703272290332349614 -0.093205360455623872951 0.061687338216530829271 -0.0060357000660514366353 0.079649692487390191808 -0.052008198090566802596 0.040274168059385086205 0.063593300612205500011 0.085335715593518740585 0.073468079619679743653 -0.014470274645117617296 -0.027940375291260366453 0.01621975999630189888 -0.023991138949779014511 0.044831026307761347172 0.023624569429785972213 -0.091045061833827448106 -0.041109544564315349258 -0.055855080501667798976 -0.03270041773620101927 -0.058921490836583052808 -0.016500861188823826714 -0.059895616529354218927 -0.0064475071594671407721 0.02544865184702047381 -0.083064828474708612971 -0.015577314320663305028 0.074258895256818072128 0.0081477840251862627269 0.006033394923385902546 0.010861833862988548235 0.065543315488172354533 -0.017323015576852854314 -0.0079066778533942970453 0.045202034186739049881 -0.050128594191481815057 -0.062206695198568057181 0.084584786514367932275 0.023715828859376071602 0.093027843353106806634 -0.072836183554453731714 0.01713006917579953936 -0.049500237546422694301 0.00523206726962505142 0.060791185178599237149 0.071119115420156767127 -0.096933878278208443491 -0.02523246829357830498 -0.086452838404135382011 -0.080345017105435151406 0.0043816578602837823186 -0.058450912762353687824 -0.068058207732727124539 -0.078857314661706409686 0.087520988387059184266 0.038768158007708240775 -0.024974856756916279793 -0.13652334896130818853 0.13051207176109827501 0.061770932381950978407 0.016223361328064650477 0.079860712171792302971 0.021003635979983947824 -0.019917808535380401858 -0.033180011857726988966 -0.056327270583148458805 -0.062100119309454887562 -0.0653917829811876683 0.018763986203552875803 0.013325078911069479157 0.11234310257537369337 0.016064071612286116852 0.036350740155356608962 0.0020863093103059564444 0.070394994432191049238 -0.051863230813833142985 0.047340043225825911843 -0.0038331803568147828493 -0.0450947086019992463 0.028933248778729207806 0.024974552888251209254 0.010806721942787598026 0.076902391965814900776 0.075876339398044223561 0.035305568685097259152 -0.016756294911802655651 0.01231858502318986838 0.004598923957579150075 0.087764322337353983805;0.012874875090724356014 -0.10710073935588855509 0.0440477518632393511 -0.091247121042106249522 0.040960893754108038123 -0.099648917371946338362 -0.020197540629436318976 0.051202005790695399867 -0.078477291079526348416 -0.030516812509939952175 -0.069662010038071792151 -0.034242809998033002516 -0.091098568717932579264 -0.068958112664093476618 -0.025641350430261791726 -0.047975476702417953201 -0.031487355553581140855 -0.069692836980915176537 0.10818916943077627746 -0.045648916242135649524 -0.021974733269524950735 0.10568764181779910505 -0.029538873928869252561 0.095263868884059313413 0.052209341793059194092 0.033806097493451932323 -0.0068299649079132385143 -0.051762107975729110265 0.17854034494550458101 -0.061142448106386568241 0.047331123271765203342 -0.0066721877328034260093 0.021334448848249403657 -0.046046843871110250401 -0.028465071648645982189 -0.035298588547584532071 -0.054386495426702478884 -0.091492203729628879261 0.014338485745294053675 -0.078770600906200985425 0.081060492104046602546 0.0061152497049216814756 -0.062833543610610609331 0.078984665408488891059 -0.035195060376164905014 -0.088736423527909835673 -0.047176374416416706759 0.056946868825369818812 -0.081960126953941669914 -0.068724168280484360105 -0.080689412393777429355 0.030059786737598896689 0.021801045818893482336 0.0087898961905375251613 0.087442309537761359062 -0.051066683755619367291 -0.0043886763010510454128 0.02644893771764553897 0.070444769158734557579 -0.042544594372118313408 -0.089264124063343136539 -0.05925035557168768785 0.010851218649409936565 -0.015004109956822336489 -0.056109259498721156256 0.066450343578939807809 0.0098762625742949017998 0.042290973570909322354 -0.0736772187395521444 0.029016039147297219974 -0.053449981030264000215 0.084928643627372193969 0.081755163789376888994 -0.0036519247581875678189 0.036790948967932744773 -0.060631297430520862679 -0.0025292382764330648658 0.072245377169904284598 0.062840299251739908937 0.019049957329224983388 0.060687794322431029559 0.047686597120494396418 0.091296834487422928728 -0.0042773830024201856329 0.082476601329291965303 -0.04244696365560055723 0.014217600184842279012 0.063104780817205038956 0.045949593566910355846 0.028242718812685533442 0.0075802639423727261395 -0.10616731216786912118 0.060328478045073914704 -0.08836539466909068552 0.042676347147343966781 0.022256736854727607322 -0.059535793914798518234 -0.0091851202798644265152 0.058410551365368275356 -0.028717634528574238761 0.082048130529406640421 -0.061156317651183317308 0.0085934779768558917229 -0.0210443517718241907 0.1007434123273952542 -0.025037473816601530513 -0.063427389615599183426 -0.082715140089666031042 0.10472935872079797148 -0.054670890063647413493 0.062414533619184343893 0.094369761440111610273 -0.061855491539684941127 0.023632302224965824611 -0.0078646826972771071568 -0.0032428649002830783714 0.029174870672297806284 0.045206623825252797988 -0.052230969133714430508 -0.011214707928793303526 0.053547329767017565194 -0.054642038759773081669 -0.085559824724846064714 -0.062906079226520694725 -0.045681794638016248733 0.043205934724757387444 -0.084529186190400854017 -0.038303446242441439862 0.062325262512575002605 -0.039630502958004514003 -0.023680825131400334155 -0.018411696998697910793 0.044170653869810831693 0.039377915759681879349 0.073908239595058183857 -0.00018320157786277089552 0.021281071785127544937 -0.034006579255438651455 -0.055673052166925154904 0.09544858959675550647 0.02079413855934711397 -0.07713831959187017473 0.0026723190314209598409 -0.087860098937198330415 -0.05120864058600031743 -0.0063253386046319762248 -0.0026433110738941778539 -0.016753295227713072002 -0.046423063543615930571 -0.061443049335167788938 0.0036777515484030230165 -0.015563444028732973529 0.070824038709109332634 0.04886874904151840282 -0.024558940896102349899 -0.0068139686378747722079 0.02918377349336831808 -0.0020845660407658389915 -0.019397268715258854377 0.067369239121989596408 0.035628153847160629053 -0.045674755756268309304 -0.055480497255391357514 0.058164087546860164524 -0.037168389251792596784 0.026425157816712004782 0.061394371274601185207 0.04163404338910094149 0.086309802105552654861 -0.039277368687386335355 -0.011462251923154163913 -0.093402946632634292756 -0.069724658359009997199 0.091544906449902638257 -0.01034895869242372958 -0.067217508949777113325 0.024249991977968326368 0.022237514701791850219 0.094814683828229218143 0.00930895261647378576 -0.088086145470543511515 -0.047607298166468685341 0.072863724303331711685 -0.057130835685343800412 0.083142310546229086787 0.052770434025240418874 -0.00074687587105716523369 0.057906715410921898168 0.081673277218402118294 -0.079036664408823176231 -0.096662433112447418426 -0.010550422470011217718 0.03728345264133464676 -0.053961301337665038003 0.08981144163935431135 0.088246181212900787205 0.096356078368645389776 0.00059683553658215662396 0.065328255783675556745 0.055871084981518194523 0.019094628653411178237 -0.078465233312670343291 0.07888999385888280369 -0.028806685900385414073 0.028890192928758034324 -0.07815375534157761872 -0.049735761666358103972 0.030308086235650611578 0.077460900073195920745 -0.085827017638550828771 -0.080038499492223233456 -0.071108452883965347913 0.037232940488459591311 0.02570849707657447622 0.027851888692579672424 -0.049088790877294827264 0.045632208453769904088 0.033882871106272340056 -0.049187026121030069659 -0.039584468317896998046 -0.021965914735247286244 0.00072452217700421370824 -0.059992570757224923661 -0.016528542419523884616 -0.037904318554748309134 -0.016118989380457415805 0.1053303524039903849 -0.0006859251352267092686 -0.063939817476518306938 0.092580192381860465511 -0.087798567764956592097 0.046716453272456492929 -0.0711720768094573214 -0.026164396029048641451 0.032677898926979163929 -0.080776395381372767535 -0.01178337348115718157 0.067382862335582702218 -0.0066794331078964715165 0.083170486907499646678 0.0090281782681050359862 0.0015590657138477743981 -0.072494512024577253961 0.10411227731792635498 0.078713426457086302368 0.061216808132823125055 -0.046588706362959864116 -0.033581130017666188659 -0.077553462444349685612 0.067145757558900093231 -0.053112858056845804744 0.086147761512634743464 -0.0086334558660101003852 0.016373054103993037872 -0.039261473102709346095 0.083519145097709010517 -0.040329783404598251728 0.010732470202497580367 -0.052881089743983804297 -0.028133782613375957204 -0.013801790707084999471 -0.0031386791271582462938 -0.04456424293729285141 0.0035747482348996500665 0.091620084952875130435 -0.025607342985789607881 0.0020019773471908770129 0.058424615040815107425 0.030619997199411219668 -0.098591617009972931651 0.058539878213318310984 0.051925878652047841033 0.09113456417817461519 0.082199287393777450972 -0.067606307293960540838 0.10650278633078237578 -0.029303379453347617317 -0.064333657384402248569 -0.066288533766510046585 -0.0002933993734906632702 -0.016116252278781082602 -0.080324669079701205288 0.07317186815820081458 -0.012301611238012981342 -0.0020262928788028307034 -0.0057036493101151938129 0.091261208667246712656 0.081022585332803279123 0.0053045806788112170177 -0.031306420684049783565 0.07683126999905266763 -0.056690876745049696706 -0.022133992023877977623 0.059497133402140960079 0.026937435472063602643 0.097387315946964578273 -0.035666332892183190417 0.043854263561595066556 -0.0070473478703267462483 0.034262558398801781778 -0.032912973071252120405 -0.0080856948105525825593 -0.029594355119397758314 0.090510287108644060794 -0.022882935316529014885 0.016378817329377615836 -0.049793141437600850485 0.030536652229177951856 -0.03957410503483204528 0.055229285576683856407 -0.0089206766744324064028 0.062170299872392122131 0.018566151603062804043 -0.057827204134854627571 0.074096983050736295318 0.064193399828224417814 0.059783932458718137826 0.0092860944765224013447 -0.011082145891357359294 -0.028068588253146224687 0.086737212376769137756 0.010137413523277996955 -0.077427187004209072074 0.075962953296271104597 -0.0025605644413176525433 0.040675707907411519371 0.011560799189366111409 0.093918101432941256124 0.089545541697872516052 0.0021284839633420819111 0.0034938362189228539673 -0.059412908848705092701 0.01982924909354642079 0.028572222650687179035 -0.051101056197388389224 0.077841948423334111906 0.083606056611949405855 0.080133547701347188075 -0.011441396086865708581 0.039068589409912778121 0.01480750963399433788 -0.033151424957216929501 0.019312947305178591179 0.062224266616359553972 -0.035628316090703660013 -0.05890480392830800549 -0.031064485336315769692 0.050312216512171062388 -0.017766743513165449142 0.086870556095328871349 0.041041525906187863171 -0.056201610591726625099 0.011187122821500233155 0.053394879054562340015 -0.023179551975265177272 0.027141442625286227308 0.076796793000111357452 0.064281961796786413199 -0.073572958074293939856 -0.11274574393724882959 -0.013616567552904820446 -0.010981607699807272027 0.017540612765184156185 -0.028989220638103545269 -0.021876771531865658871 0.031942603571641622895 -0.039743436735612910904 -0.060429563068013482374 -0.08071861039061904719 0.037056914546446884096 -0.013780478311740307698 -0.056166857515459606143 -0.043310798918922380207 -0.073104454615507477588 0.043533921241927862888 0.054283663019094006985 0.079698363041712266819 0.079374041370262410355 -0.065402965508073965251 0.013267691477401906061 -0.094742053890094810042 -0.023872625580268660994 -0.02845948090319785212 0.034789595808334149163 -0.019781568449580368835 -0.031427298786695700983 0.026050237563887822245 0.096669085659558104395 -0.037534286045726630854 0.067948007980902294656 0.066406634346346526954 0.029437091636452181187 -0.081872948034839701514 -0.045351752465175851348 0.020439118527774267908 0.090806841272943764065 -0.016015836192614808092 -0.038570028840807554782 0.044576518605962789366 0.0025614633549262320021 -0.068440441696668907756 0.032699409920702054988 -0.085411363345924543045 -0.044903237547670366014 0.037466042068345882521 0.031336803831342512072 0.022654879423549545425 -0.0087728613399115033117 -0.040512893356185339377 -0.049759724536670303652 -0.017995010832035640558 0.075710129592131802934 0.072188511214218542555 0.025733579370594672486 0.081472448673031258592 -0.039630920780099075651 0.012484510002501537917 0.051923079741406884258 -0.049714353856791668185 0.030550156230218360187 -0.00728882027353481253 -0.04863544802789369903 -0.11753018769073321492 -0.085105382401731266562 -0.13409736777598380009 0.0016462242964498750158 0.060278698986508359725 0.040631754982037499024 -0.0177059830938583046 -0.031579409386019732797 0.039330095878370337215 -0.069639429592693008475 -0.076782322268520997177 -0.06367194906614487282 -0.031866774295536977324 -0.076059456737826589001 -0.026058555705358022597 0.078228960163839622588 0.037124318910873276012 -0.0064382522941785888179 0.069299154533618137486 -0.022138125226009094937 -0.077847441915871479212 -0.061522956758875271821 -0.058559697204309174579 0.069192713317631382441 -0.070085943217919194348 -0.061807124913323026327 -0.05614248275067985211 -0.056419920114127448951 0.070639492376209617186 0.096630185234669957461 -0.038136787477720833495 0.079228587032883782126 0.019862394000961593882 -0.039778657199885041063 0.059965253434877491268 0.0089454116689262602041 0.0030467130313436424638 0.046979810547651199015 -0.056105333610111912668 0.0058919089943929798051 -0.015200989068459760251 -0.041677468310521929851 0.050129618166758802 -0.078967547109114966108 -0.072758846631593640519 0.053160233377966700785 0.037484294708087347037 0.098433357320035205773 -0.076302691154288018738 0.05358284277877633367 -0.057611526288249004235 0.035618277413290100331 -0.060940182124310481038 0.03912238020201636024 0.099254745952656098229 0.034656113439820598887 -0.016293261096622657647 -0.043555697659966849389 -0.068907395974791271764 0.026945933917211038061 0.079930946430966945404 0.034221616142760452606 -0.014708390985960806061 0.0060921628479819129112 -0.016849963290632711393 -0.086016392060785998308 -0.017323147757695306348 -0.010101056552021049281 0.00950499921400799197 -0.050490557539203687054 0.092405124012476497208 -0.043640110558604554292 0.0081800546904916299901 0.018469055655360919893 0.025356942785002244134 0.066398133309035087257 -0.011569781798451930777 0.075627382813535148909 0.08713114130780322264 0.070937077287238109458 -0.029371949338286761078 -0.076793637317279214716 -0.047016147293826270059 0.074236551825728108733 0.02903923832678478173 -0.043255323033427189872 0.069817838242685642536 0.085979974258775876406 0.024722315014874970962 -0.05683293591239820669 0.0050124214365494931464 -0.051601822317293932763 -0.046076559562018622185 0.024384028754320569848 -0.084257857651473019867 -0.0058395459469132030353 -0.044383912015777328419 0.064860748645249224897 0.058848907308055253829 0.092195851946505341656 -0.039105891923486804651 -0.083862211036850792256 0.036996072015436448632 -0.051689781118821956363 0.065036312732029269434 -0.047183384853719811947 -0.00092585545130493662313 -0.013164491456551451545 0.032616471588563573925 0.083919811845996811206 -0.040229722520568333977 -0.069272991345544446262 0.043613103974321304479 -0.06064939872304211943 0.011030125790499924199 0.057843143603759396287 -0.082129408346691634701 -0.07140463594947998871 0.041867095289725854423 0.088530739756629367454 -0.042549141849875508903 0.010531234731663317167 -0.084003303993939112959 -0.092642967065875436727 -0.049550308799779375912 -0.036459168691289109421 -0.0021593051564232040689 0.023439706894415681532 0.065473646258631723605 0.044533612566477420724 0.03030673707410389689 -0.051918843754262374024 0.046856087369394824882 0.072649278259181923612 0.073651374121115900651 -0.029406706094732514706 0.00084535850201819767551 -0.058555488709479505682 0.052223541308742543743 0.089559744277690270242 0.099505206848932326036 -0.066942772367327721406 -0.048289672484968793054 0.062407091710901974047 -0.040735894298569615135 0.02494170889027937793 0.077729268184869623748 -0.024715179473374194324 0.039762851381001586282 0.036556977845118042436 -0.062982027812021418312 -0.0085977482939259813194 -0.072994195768087952181 -0.085004902661962505883 0.026522112493032278663 0.0030738685254009354315 0.040581858358592827474 -0.050827368949090075134 -0.080529893720638359711 0.015499518942515019479 -0.083738030344462033305 -0.073616182579151048793 0.0076927568506513074528 -0.029096950999130951482 -0.049680563028824280269 0.088779346088230765011 0.011460410377466914364 -0.011905155854311066932 -0.0079844763445530674006 0.087608950453177403261 0.046656517334169159139 -0.048247031010046001476 0.019238965096982609676 0.056557783265379774074 -0.037219850073072276164 -0.068364324103047949266 0.081200330142193077876 0.054344281389603545096 0.0014701762415107876188 0.066335699636963021963 -0.021415314854996439498 0.079541184987534152562 0.085064600640341533899 -0.051994527325964420839 0.05064299503601611685 0.058222742844195707335 -0.062410059043622456709 0.091479508091113437285 0.089932506128171246784 0.026152272628009318872 -0.073467660202981219242 0.057597545788479885542 0.06562694548884376311 0.065008859325243653626 -0.041871415434017733581 0.051792737155717381847 0.032870301586441906527 0.027409528419620771134 0.0084516928006921586414 -0.041581560790008638417 -0.04702828853524382291 0.054566717158728052228 -0.064783398574438114115 0.060435271520442201965 -0.028346666117091572079 -0.088915020626682300664 0.030620986950864174936 -0.031160098127960118852 -0.078500333275877229311 -0.022793023659801545794 -0.057915708796781047163 -0.062764058922751539416 0.06612209940014901477 0.021205837554504787523 0.012288572841742445921 -0.042758508105776013575 0.077394551593413477009 -0.028553325276087723056 -0.077428924584090993988 0.094773646015716389579 -0.086073355352932839901 0.043190311228416156109 0.072861975003780485305 -0.0084732443040467456813 -0.023951940514960370909 0.065424759283533973075 0.034469989664659826667 -0.078763054533111623301 0.057788382337886579077 -0.071573174944872142156 -0.057269310720677611692 0.016671589575733159611 0.018021321014783337616 -0.035547754728005226399 0.0052793841905797835382 -0.085422280491920993262 0.006493596515966115236 -0.017035839131345677927;-0.04481129684166891558 0.053347670490071157079 0.083893214946690677913 -0.099066859720142105838 -0.013323660056979276523 0.064405007204885747485 0.099074136279691360496 -0.042006822539547780671 -0.052361209629965661805 0.044543310781587797109 -0.084088369053318637314 0.098214671563828959133 -0.092872902178500346682 0.088317173601275528183 0.081128639642587485614 -0.072589249756233820143 -0.054441082432548464076 -0.10523504307583894657 -0.093561473735790087747 0.062017057208491578602 -0.043553035212514072672 0.092083274271736556549 -0.054655067258611154946 -0.0050960712888453224209 -0.010915817662685987216 0.063067352352870212351 -0.063226756179982204764 -0.078197868085741251143 -0.012347326739648608468 0.037162782199967464569 -0.089900622681269748426 0.035137176901266900519 0.037064046384688950631 0.074323699137961080075 0.079050832207923374395 0.065855588358594202569 -0.05010809381169564064 -0.03204463360543710615 -0.058679776913031507501 -0.017093163163390795445 -0.016822436592095584007 -0.0054857898409177170002 -0.022153623307849909518 0.020341530064960602897 0.075112883972194344206 0.065926947567603672029 -0.0807054541626283789 -0.067442707696489592739 0.063620455339358408797 0.027394571326237456693 -0.092048459809925667341 0.091404950213802779735 0.035235796731220903055 -0.036485082349213937558 0.071421321041257437856 -0.085830285694548300035 0.074497952050465124363 0.045420889040089965083 -0.01315720165819177917 -0.015835286822218887226 -0.023033662789864940701 -0.066717683067507499439 -0.022878145142313208865 -0.085223655571792011898 0.032892562412472722833 -0.04673912688199251958 -0.018293989957741292607 0.018898998036069727252 0.0083087306083487275782 -0.082011600919288482614 0.097807458287139145692 0.074934305177039958745 -0.075775217073374701027 0.024486436709622423635 -0.053298070116277837527 -0.021205870627836728715 0.032539979085765627365 -0.053527670090495339805 0.081229911416670644297 -0.049860674445557140455 -0.057731117410513656252 0.0261624603721521444 0.020527464236743089149 -0.094003378229477962957 -0.041890666340289969827 -0.011114985731969092078 -0.083488017239494338728 0.0084962280044759749126 -0.086974843013537139758 0.032863881026749960923 -0.055319367034202239497 0.0076523835100203458498 0.029449533540886918548 -0.0033329722158541414366 0.045103608424309160618 0.00056124499917356877529 0.079692518876087137247 -0.085368673505227768428 0.010202685398184781554 0.091202477817453914133 0.056322752119045957353 -0.02499969582812187896 0.055164112894520021813 -0.0182351377540587202 -0.079506631003804104085 -0.068867877789305337322 -0.026020871172830403739 -0.0087826178516715088657 -0.088531257655957415476 -0.083447126312954145178 0.035460352589241371513 -0.073056908219916352754 -0.0032716962404850669088 -0.016108822274088743093 -0.010022248646891310578 0.0044110458824943993283 0.085258174508845041562 -0.083542659102537775162 0.021696430758930587701 0.013380689447421311236 -0.0185103786699883123 0.021291249244558028281 0.055847879797791405432 -0.029801074547823633992 0.012072494893268123986 0.0077163772439606329034 -0.017305201027296965993 -0.049744622958068987484 0.088476796379060598796 -0.051466246925310592253 -0.026502223944198471245 0.084922338114007817067 0.042364987004642230828 -0.011936185562419666592 -0.070223516532442575855 -0.041075590656612988305 -0.04299295354714822992 -0.028379746903673071234 -0.094370544779938461688 -0.0093628065668772512964 -0.021642911651346179169 -0.0067450885944676051281 0.010532361316112327787 0.019732015982588144848 -0.066174669134253114033 0.038928899265764177473 0.013361347523842406065 -0.034291138619755856531 -0.032988245498634223563 -0.062499023896752922691 -0.044547907129481686961 0.04705628656792662512 0.044475138844076687883 -0.086967138921265924045 -0.047817365752147351909 0.07559343349004957191 -0.042594886502886807056 0.055736589915843716414 -0.034250563188645971602 -0.0435022588920560907 -0.0056558443877665143598 0.080263249467571518014 0.039676199559095688685 1.1419083984323637732e-05 -0.056060700180502437417 0.052026170832338625161 0.043973169188368681215 0.042653401485975662999 -0.083042044551383878415 0.088502681666763449719 0.024317602471937441178 0.034114968551534140262 -0.085512660296128709114 -0.034618568697801596623 0.075581418820939036407 -0.039243403002269798552 0.024126617216789547626 0.014639426158918033768 -0.076731509199421371603 -0.06014679240774031127 -0.078175008913431418001 0.0058176021428965381949 0.072673788606506695142 -0.021595162826783625282 -0.0062125897325468280169 0.062606938911447307383 -0.01448670677060603755 -0.083423153541494862728 -0.036035517366558869612 0.049338457439858970921 0.02252824746027471195 -0.077870087941344187654 0.036375280268345897006 0.073001569235376970179 0.0011640852900507347653 -0.015923697598676386789 -0.037576650617027244905 0.025502586438431642385 0.030718492433372102113 0.010783628630581377009 -0.076214945069990477911 -0.0706725565868551453 -0.064883692945217452674 0.055062763446428610037 0.032385719955564537531 0.053782960723953936177 0.061578156574527281863 -0.039613433601113197391 -0.027155650546941214468 0.087407052416860295252 0.021269678266612229017 -0.021500062094415996194 -0.065095352877135068126 -0.032638941949936536857 -0.013266976492845212326 -0.053873646040737500906 -0.012736646482420668422 0.061158639377861270803 0.0064109688324580802951 0.090045143696196650041 0.069216780090883417431 0.065333392917191812632 -0.0091601364880965017307 0.0031614852427077366238 0.093783260502528956182 -0.044608342658450469975 -0.070899951477143008383 0.022541577741343417352 -0.027670109277263623543 0.041172822386310148346 -0.079416980008873871988 0.028889541804345927889 -0.060558998151308905677 0.025217100531813186476 -0.022352143213659119575 0.07205647977139542637 -0.056996836492482688685 -0.044461400500045565598 -0.026089600302686390826 -0.0093490059246690692535 0.027333174899365316607 -0.036961807917411305946 0.068751770665871736465 0.070154210740144593017 -0.088193872782177856751 0.057190672191187827411 -0.021646107488885308473 0.0056201582823534350017 -0.028963915981246025205 0.057394423547763306903 0.023176868312406874451 -0.025119058268021809271 0.053838681967437310161 -0.053239922287455013206 -0.05909564697074442402 -0.081392558919986493504 -0.014674908705225487779 0.07979200098961689025 -0.091426248565080192598 0.012776163347193234335 0.07121752611715252701 -0.031191933770899248762 0.016237367240472859453 -0.01273046093320553962 0.088828930362071525928 0.043442577828015430108 0.012016607350651105704 0.0070753833919796086868 0.023188829901862967331 0.012176949053192376998 -0.0063946380692874839682 -0.042467000420090945945 -0.076443011874621311086 0.062017957493556548354 0.035633732596637684997 0.048263976616699552635 -0.059701494527427734216 -0.047918879326943032704 0.016045100083659624007 -0.066298324005970687978 0.066772014305841898008 -0.072859102018131824408 -0.0023198964936008135453 0.0023974160973806177624 -0.0025683289227145579027 0.072535493063543732273 -0.009106984465201755849 0.0571413150535644912 0.055238725330942269054 0.050284638447299974395 -0.092291220002185966886 0.079823167942761757976 0.03399147851154377814 -0.022048338878161086174 -0.046099616011984465014 0.011106653769055986614 -0.01235685841257072419 -0.077744067541458516946 -0.07748771868049603162 -0.0062380366353096362506 -0.020169942654374356517 0.03225720816171250005 -0.069482682324620653747 -0.069848824181318019955 0.079183889360507714317 0.063372066314585084879 -0.018345782297647203474 -0.0019485944530597185381 0.00046239789293399142112 0.008836926344415815468 -0.075421058453014430678 0.062422334098748200049 -0.089185711370527859243 0.087853210962046887622 0.083968301346781223926 0.086307226685651883269 -0.066423868591415163865 0.081557401949978042266 -0.078702772339159898785 -0.012349900619287463785 -0.035482395277692549418 0.014112581707403046641 0.052972276127481635055 -0.076349672676216409628 -0.034928114885583928795 -0.041614322271200494818 0.060838828641267002351 -0.038735945174954697356 -0.026072062266784813006 -0.013403945268812425887 0.04916387547455253193 -0.038172704899152726243 -0.080653172776198558958 0.063036973558947481666 -0.048321736998488178105 -0.037455910522757679404 -0.045829989175374778732 -0.076429342644314682276 -0.0050637046920987034693 -0.06948843654569193673 -0.041322622332601303963 -0.021064939037587361581 -0.046117497783466319949 -0.089229919776388874619 -0.0050710942816258241725 0.061736692446102935106 -6.1643347878966253759e-05 -0.063699993911131902458 0.054414659536049993227 0.018621106775112864634 0.024244750224000459482 -0.041572845009689524121 0.024400499017580665195 -0.075677388813846002691 -0.089637271311787461436 -0.073282158349514056606 0.0010439383907064724976 -0.061656074712633270052 -0.021069056914419060506 0.053899707844678887425 -0.050366566828233906572 0.058879539644823848665 0.039764791418459677352 -0.089927113555460083671 0.030182629739238277244 0.027281689589523931 -0.091178474325359304409 0.012138732377215981709 0.056041424742536878612 0.023621821379853202155 -0.059622041526357569263 -0.082421253834727356558 -0.10967473673720011529 -0.024712321214082736548 0.060020021805286483119 -0.078454977354602925543 -0.0017614490015002051259 0.023755022589677491501 -0.036937766891571681416 0.017075623620141963666 -0.044379202932766620426 0.053164839248642653535 -0.0051663768432774872033 0.022068619402816031655 0.048197818801018248169 -0.051543817042466098799 0.011956507713601103454 0.0012045228700381523882 -0.076621387026684584232 -0.072875765794054914171 -0.023090414554854082896 0.076318364477333339169 -0.06139519452209923206 0.054911944859094834193 0.044245484654643486844 0.038500630994610977875 0.059603473946588728105 0.037477874189523051329 -0.08949871722025465326 -0.05735372877262220892 0.077754739501100622601 0.076088755847360522999 0.064970194667992489657 0.058621637975714790958 -0.085943759731435587224 -0.067034837888410289675 0.074138213103529526649 0.016593507085714900851 0.088411217351268361897 0.016114742370158547519 -0.07965876508652754151 -0.068077718063295947215 -0.00042868667431199204872 -0.056189521377540178892 0.0042333442165713294422 -0.03519997165017017815 0.065893741766841915086 -0.0056090291264410977942 0.0092346623860428567881 -0.044900465771875869292 -0.097272581785757053496 0.058781115471933931271 -0.081707283186533752328 0.030990676603705434589 -0.01661580889472075509 -0.015304413813147310988 -0.0322431725106120462 -0.063429385575081403958 0.062093513839975425506 -0.03427962140493850951 0.083438834873509171164 0.0049163927889614364442 -0.0204895697806908271 -0.072851783961539975931 0.017068892239614320144 -0.072826739902555323591 -0.062035099716513567025 -0.079274879033965670039 0.021659870614285845619 0.036796077591251766248 -0.020047564625271456495 -0.05231670975135146312 -0.08476682396004787956 -0.061798886577977898971 -0.0053257150525822935169 -0.034844454903620272757 0.061160464140946266265 -0.069879466186373542791 -0.02519545084320874706 -0.028590089575152834167 0.042152206833201352754 -0.090687728223452016008 -0.070780521870567741916 -0.0755786717136392866 0.084033077418181889584 0.061485730377331682117 0.072622498378291461263 -0.098187939320648176533 -0.08968441169568226734 0.052350800461742300063 -0.090586153084749418407 0.076301748927984941462 -0.060298978266055285047 -0.093905030770888575642 -0.0010263244071489630981 -0.09485540992427353435 -0.060503512944258923401 -0.054665945156439993413 -0.074223276608569296875 0.025107209229514683424 0.049941268836221824889 -0.054053759260629677397 0.018056253823095697042 -0.072439614792615347749 0.021670615825885780614 -0.096437669640407189253 0.056192656765576977362 0.008380771298730925814 0.00051084397040205621089 0.050169192609208809741 -0.031881412965374555935 -0.01652254648471507617 -0.0087762578009915517135 -0.057252860368609229114 -0.035584889311700305947 0.0091900093667174886924 -0.079069813280273612555 0.03285308013418468398 0.050082070834112785152 -0.0067705681827966365804 0.024845325612995936698 -0.045694225259878727685 -0.038122503729946646822 0.064316815361221912895 0.023852296132885562191 -0.020950673825457032107 -0.019957118731303891829 -0.03570014507546000887 -0.021428096525085087165 0.078585323325374684122 -0.088235441041476889157 0.084241926791793556029 -0.072046370052685104746 0.057411290205855787516 -0.067373853316303730643 -0.088599729865670745488 -0.075406945109657896875 -0.042595593874177883897 -0.042124967689542089366 -0.019213527919180121983 -0.039869751096071263941 0.015350170059657745544 -0.059850866882515195433 0.074919325597279137763 -0.081911680452916371675 -0.051101796686152139992 0.038776087662012785617 0.039478513645007456967 0.036252428647555005881 -0.043955384052865351108 -0.043743961916385534772 -0.042184157574562348991 -0.039562056674211712459 0.048408841790234788394 -0.02645834974151005381 0.031477150681976720503 -0.033870978194370522651 0.012229783089458635958 -0.064259217551414074543 -0.018577338567381581486 -0.0030123964681353586868 0.015426691498066160552 0.077357891951665827546 -0.059426575293716400739 0.075535397023675426853 0.056275504924866069645 0.048659626091722203711 0.017888588843131578848 -0.020295773296730861696 -0.056602864801806276884 -0.017817768336125063 0.055204540087011699789 -0.039260905757512995495 0.068692046658298006045 -0.091091567262631331636 0.056227475038452212619 0.016086262091965394111 -0.089754908483317144552 -0.096218407975886974248 0.060987140752408679212 -0.043483875538987561138 -0.039104087143933437265 -0.085447464424899102764 -0.027869778769239416522 -0.031896530839775949495 -0.053674564322754247936 0.083044075382360971194 0.0099790033300117542137 -0.089035546746122920525 -0.097149310995729959428 -0.088566318789102399522 0.056895808977360073921 0.016111220457226661795 -0.074573765464963845395 -0.10426886418680317292 0.056442258711766127299 0.079656898575730453183 0.014280614910086834521 0.0015243270958235184079 0.0074141873365139330729 0.046770532300057454655 -0.025102506899699943144 0.049304952357303526156 -0.09147736390870778167 0.083155387494352944744 -0.088021382139214177087 0.039957027811983757137 0.039299894693685069602 -0.015277585935195615169 -0.082425995737614707326 0.032136926203358812115 -0.10020518387746270295 -0.0051608723532522568153 0.050888038012433751967 -0.086158822579738364444 0.045161177209588315717 -0.092338895348733671109 -0.065347888773450726885 -0.097801490042461997065 0.057913031818733883005 0.026219859791055875192 0.043237915210108779362 -0.10122576083468666497 0.0031368190396604653421 -0.034191657902116506795 -0.099870690296766193028 0.052425745960772818233 0.0093097611586998169075 -0.0066935525088547172257 -0.0052645643827710676688 -0.027135413089399498809 -0.07015213882887291752 0.040872798875798047047 0.024173451620206704016 0.066137096035795331361 -0.077991533968395337917 0.018432010639709936473 -0.077318898229655402821 -0.087322483955023136315 -0.099378475654034625908 -0.013076110195094798119 -0.069138502038330856836 -0.089186594405811364661 -0.025101167486772962834 0.00031426189823850081027 -0.043837983669573719891 0.074510901873698437425 -0.027250061190661763189 0.021466488136583371932 0.046096749211545447189 0.022383504824456088717 -0.087065354140820769291 0.0071871716992523114464 -0.035669748344752422176 0.066327165219885977909 0.046434966013271260221 -0.042470269337264034137 -0.013282461347420965875 0.027702332360805295014 0.031530749201763519363 0.057918092921910510618 0.057350879411648639228 -0.081272362084791008319 0.025785461164419688773 -0.079567101601965381508 -0.001185695987578365071 0.0062551915194263753989 -0.090082884975836732822 0.065354528114720533694 0.024883315146946284602 0.032458554453087130887 -0.048391888220870787896 -0.062498502436339031796 -0.0076766865178335714354 0.078739814784068121178 -0.046670091717634414052 0.033730302598724191954 0.061812002443701281884 -0.11854465776594746984 0.041170112913417725164 0.038143595012507781894 -0.11034091724689050473 0.019262270966445248221 0.021778349702827486112 -0.0070036874794835064784 -0.0090646443370460162703 -0.00016731912735604275995 0.067812559346471859567 -0.086443424595749551731 -0.062735888327046254731;-0.024269071061122360344 0.0026354672169491733143 0.0020977239661836436305 0.015000099774201764574 0.10813386626724602602 -0.036819037417335297169 -0.05658684686724920615 -0.046613544105074442014 -0.033803758230513028527 0.074566797034234785779 0.030422340433247478664 0.05947821385534943911 -0.073555853520472558316 0.0760552626495628048 -0.078815030462372759334 -0.038978603623593149896 -0.038375054182798455649 0.023795807718462728964 -0.070907506911008250094 0.063369964975277012775 0.013088887142739126512 -0.0529464368674542607 -0.026760437862437685269 0.096057380720213941805 -0.029770575833939754568 -0.025656789210602951035 0.030152410592783701615 -0.0022600344740830000285 0.031997792907000423279 0.059615292575910125428 0.10715288213637490233 -0.066169572536587117906 0.014343185308184075097 0.00453189509189728338 -0.043875728096684281365 0.094165400470575436054 0.025765148337270185608 -0.087207028804976091663 -0.0070338603316300396875 -0.052454795962708383739 -0.017419173712971025569 0.044779740722971368705 -0.023826783439527370045 0.085015969084380194065 0.080867907320539472726 -0.06873111100358371417 -0.022880315198968569079 -0.11094318007665167347 -0.081850570684884049744 0.042139860136585334527 0.030417209990529228691 -0.077253181071145787806 0.058140522708830286169 -0.0017756620723783297922 0.0033012645942660269471 -0.070788347874524065739 0.040984596874184417437 0.065525332677492595379 -0.090833424152908834315 0.049883169167346752548 -0.052897046937204171557 0.098850013047856899462 -0.047307449430736593643 -0.038927254068189420799 0.02793041120021987761 0.095701471865097739733 0.069926992184918948525 0.089209022279415850498 0.073360837161579678378 0.0033189631526367269036 -0.042762807337273785191 -0.066941414183606121058 -0.046678235518466393295 0.007639734610035612758 0.034379304730873007367 -0.020746048672190490342 -0.026003513507095309121 -0.10203126999847442202 0.075560129631522296445 0.0021591255835351230198 0.094404661797131805834 -0.077743203632742036158 0.039159808715760545395 -0.050801985989209312577 -0.024305483964241210437 -0.043317236534837856576 0.042351696765434050651 0.027881965238222280318 -0.018056810833881744432 0.036527792718182433562 -0.077346269572056411401 -0.088618834204919477715 0.057116814641361562943 0.028789668329533328606 0.080546252528950854077 -0.032566874226526813796 0.02483344858344605291 -0.028146070154261147722 -0.020533124764564293641 0.032686868377461063273 -0.067457347751309765238 -0.050786313277893124773 0.056588242717177626717 -0.049967079039792416939 0.070887128802375173886 0.10183469376974432774 -0.082198494219828985297 0.0067864363715489321033 0.040820713953170946475 -0.090653442013731849736 0.043358876942268344268 0.029378426362892857276 0.034071652700946794545 0.013018670518890586296 0.040533527779330967566 -0.06234218233325169306 -0.07628664608986079898 0.080977935670556069891 0.090631740917246739198 -0.031281246861474418242 -0.035978741673099057241 0.045798099358113422697 0.062215338124009769705 0.043176948406472112629 0.032581161134612943164 0.065918954108157651328 0.062808372754764946189 0.069491640440302551718 -0.023062897282932610238 -0.081873101412126170207 -0.069504243914803698345 0.021532640765029930491 0.021462066757398926692 -0.025680478827557369492 -0.014633118726792848641 0.047314294377368004696 0.049550056037176611057 -0.11822477582621367109 -0.028086323059744622288 -0.067382428535053245922 0.027717452094808626289 -0.026738871527289445607 -0.0051006787067640908112 -0.084146792196721151291 0.086573517421279624906 -0.062275628487468932815 -0.05321186860995372192 -0.055552028378813810006 0.073718811588170701787 0.049997537934843912233 -0.027190871760149577102 0.015390766625909182291 -0.043500997970388664837 0.024071300203807450419 0.045495033325716360828 -0.024267181473318640006 -0.051587037658266263196 0.018388970419318636379 0.019319584661121970426 0.0050055506221150704999 -0.0080534218561745148091 -0.009382248554373182059 -0.0052865608392670786209 -0.04504726807468907579 0.010813320361830455751 0.057213910128791761744 0.078016966191437095435 0.042652879378676421263 0.05320027385860174457 0.036319960921922689323 0.011221545247435966985 -0.042841193894879767146 0.088579412875346152934 0.082082331716126138987 0.079429972292308234638 -0.04857339835666980854 -0.058071259374330580494 -0.0053567083223985305709 -0.033078848518710540771 -0.0070560530339703851632 0.0171237970624264213 0.091513631590701263741 0.055956748833665935494 0.0029554594710386253298 0.02474129559869292852 -0.093998400978166404829 -0.035046940146943199312 0.011527452393184332846 -0.056430789520387450442 0.056743701735863551205 0.086620014718758173156 0.11605700589985165627 -0.046591478167799973975 0.074724867924754259652 -0.085791056195321402367 0.054391205490805345779 -0.014178633404408495788 0.028910397984430059176 -0.091382775540243876833 -0.038445514222187705811 0.068401930542216576869 0.0040988190838666255233 -0.0046033196634971832242 -0.021199216406904287935 -0.050805515620613660166 -0.034735485141154764932 0.023366179027319213674 -0.043294425034478618841 -0.0098695225039843580833 0.074754145601711660674 0.0053567381228177817637 -0.054398518627342858089 0.069783319073561070334 -0.029588479424307246451 0.054674312116707528275 -0.02172422359249686144 -0.046827896768722267196 -0.0079612339525632919851 0.071867994112924563077 -0.0090399961076136452209 0.028856458223461840806 0.032274428941523089498 0.007919207174991319334 0.093612309284110059582 -0.041291077813468884949 -0.011566246380187925058 -0.069456622953611310556 -0.010568871757068642667 -0.04734164192183821368 0.048098265117864399953 -0.010680644382001405757 0.081737826139654343183 0.0067063518806068020406 0.017437015533918097387 -0.05138854502058647078 8.413551232964046995e-05 0.02939448374389062521 -0.036579695355874387863 -0.0060413091018349423036 0.079635241206186924146 -0.086635940893722437894 -0.0043410258037128637149 0.0088866844699725631995 -0.090466128107685797599 0.084555125858030669161 0.03612309879102715976 -0.050319822251609816477 0.015078249522746082698 0.02480082123368215069 0.0060741158911999269462 0.099083655721451308063 -0.070912463483144005938 -0.030965629974932361995 0.084805571614912825251 -0.0059581105796427634436 0.049065466457635022179 -0.049602310613595844424 -0.10164869736573194092 0.01300506874426246226 0.0050717175986136958307 -0.060288059989134459848 -0.056468923021750203062 -0.0098920443032502868713 0.030825318958663725649 -0.042394597502352707186 0.058434072431284261873 -0.076322533027624026025 0.026671575751185595815 -0.031856266273084896112 -0.050444106281437722794 0.034906749043370849384 -0.080769674609048908165 0.09686888417438761778 -0.069890771047416852535 0.042323298779039744688 -0.048740626869333135429 0.012455026891345814116 0.10289400277694925323 0.10364858425785562768 -0.057964778319972647125 0.034680093390512596596 -0.0059761209291459647247 -0.067859383675199766439 -0.067345549549672784062 -0.03408390569012474669 -0.051865881323604895448 -0.064703635162694395078 0.020990948289760263251 -0.052834262147530633436 -0.055980343999094968332 -0.085364345773141669937 0.014141843936931325354 -0.057837358696558240079 0.0041994061919631764032 0.068297632249878836852 0.081662524435441558035 0.01895165759925289059 0.027128559521783380398 -0.044823218527504350706 -0.025854738540968102284 0.088376733945338348253 -0.052232872450105896633 0.034037167744437782368 -0.065595863190479095084 -0.09875201174106018609 -0.010460383011918187104 -0.027433947448125037272 0.00588236572553066904 -0.036361410034219172893 0.025107875452266423949 0.072320100077929536098 0.045269580262305972318 -0.06901615796931218072 -0.011022391268260992719 -0.10270886625662396796 -0.022906875952552717413 -0.028413887438581312411 -0.06284050936184440439 -0.020760771085734347485 -0.012661123509407758853 0.062360347188676890084 -0.071931230083416994314 0.083242833748942757222 0.072758657959753059163 0.033420349508651719939 0.013799303129854173164 0.0067165397227143827999 0.0064026537667922723759 -0.00030050993708247484117 -0.077990771951538792606 0.073191318106053490644 0.085490111280488667589 0.038560029111296655058 0.012986558781153779291 -0.078652587878660751297 0.038820992639614700093 -0.02303594614326854445 -0.059030570004379868954 -0.017246331411689869856 -0.086143711249169946376 0.039736044825528983593 0.079145299807199198661 -0.061965607755963048042 -0.029662192102828905532 0.0030510653255667145867 0.014668415285058637038 -0.037635165115122895529 0.082295819907927114656 -0.087244598810859858018 0.00035745343134206035776 0.028090006399472219889 -0.081971160292680783632 0.047568488922130003349 0.06867598992347064002 0.046196874632186531173 -0.066698415453222872906 0.072079074779767868253 0.0019361987068219257274 -0.030884515675382195887 0.01634913745408930405 0.052494471817852196571 -0.079169511011309076642 0.02168884913766848388 0.069429000541915197875 -0.067856781712343466895 -0.035236858054725574141 -0.061499200694403087508 0.011602394157163537641 -0.011869773536130816954 -0.069223955293311489889 -0.025409830211987800147 -0.025719217966599317027 0.078102612523551565027 -0.022757762569827907906 -0.079122927925875816135 0.068102659188502404075 -0.086529239260495660613 -0.070027305633132710949 0.025537631260403616945 -0.08838982102476330982 -0.072841692253328260698 0.022466550954912851978 -0.096403659495166327265 -0.07315447537611965978 -0.0047277072811255042156 -0.0018370096601327745231 -0.093582192498610508591 -0.030999222490656518775 -0.0040654119766823908905 0.096253439529944403996 0.071182930391818555194 0.045030428835544436539 0.049569744334913699857 0.014204837620819808428 0.01305118634969082772 0.070589916388832690819 0.063727911700111411486 0.086380786859267699729 0.01917741731720026821 -0.0028246507397015341301 0.033588086832688032746 0.066960077939641926559 0.034055141300774881274 0.01090568428760817915 -0.016068855949725149163 -0.031932533212719715898 -0.016196147211641288843 0.0050658967522426599436 0.044719551835966674103 -0.06048811367683558371 0.052175792938454014502 0.0064037579909704328215 -0.013906734624165308437 -0.06869593432634367447 -0.051798347640265009206 -0.091254983852823656765 -0.026001095099541491479 0.054823282156988256686 0.0025653807386983970736 0.061484768507250937841 0.03125430636886546848 0.045930091381783319515 0.039455872980020997853 0.03664095799623889177 -0.10118073423489327978 -0.035655178597514033956 0.047486382520024336684 -0.003958443625560069748 0.0042041660643955735752 0.058405853855853895329 0.032369143533022788628 -0.018767069503946277875 -0.057719305536936486856 -0.026482891886280987559 -0.045465187522241622131 -0.030848509868403730522 -0.051292026409852982394 -0.03640825584480644056 0.079652532980583237721 0.016420532991840541825 0.019944955569459986433 -0.0011677049028234987808 -0.10159594868466061135 -0.077042969621783752299 -0.026798551224861796166 0.073597028373050307759 0.066183310437117878755 0.0092612328734895457694 0.087369175061785361858 0.07298221651156780454 0.011444230134597194182 -0.037385142054789065325 0.0043850896859679395698 0.053549318512192217723 0.055687701272427149457 0.016407373342866609506 -0.022830337644886559978 -0.034197145093051044273 -0.065175137027922519506 0.050585204184068345568 -0.08958201392334408375 0.067373180811941060786 -0.03750444264061227051 0.055608317525536313242 -0.089492254045205985036 -0.016022233907640903716 -0.066358759302278316761 0.045287470816714782418 0.074397768022838747792 -0.085737839326606543611 0.028709754802540694146 -0.081289633236591940513 0.014697125422185017968 -0.047052169967305206011 -0.06846434673107275326 -0.070837280517104972422 0.0057046470670782233742 -0.060519355843890593194 -0.076916574764975528811 -0.0080685605829784214083 0.062194463699496951858 0.075796301495414997174 0.031830989055673108989 -0.081227557966741206763 0.073150699031674246142 0.0034078946541040212349 0.066999149023510867762 0.053494522132049193708 -0.08582661204794146681 0.035655824004595972065 0.077194630968486777078 -0.0048525589804751948289 0.098627329288009449315 0.086316588753209730345 -0.076127432660516650142 -0.015677874647008944314 -0.012496628202722577516 0.034406928506392396583 -0.088357323359222791903 -0.043882273495885380787 0.011716892295596116613 0.051780521200981026453 -0.092433656536605721121 0.050794280076816120117 0.031000673125251745899 -0.062658820533799286512 -0.018689926027172999029 0.025388610173240334228 -0.093212472970866114275 -0.079745784202085626124 0.05382628701610328581 0.010578390285051850195 -0.073280797913634204699 0.062118467316136440071 0.013034091459627998241 0.016248997091852211 0.089099462546080920866 0.0098821846413278680021 0.013406207983120243046 -0.060083105084388709061 -0.087086514828432090574 -0.066171626132163610667 -0.07893051365183881285 -0.034842446336367495496 0.024053656606599541079 -0.066743231913227535346 -0.049539110688722846898 0.041546899029323132446 0.023401393208518070366 0.004949250684033065957 0.05892550379358023338 -0.037027657181649360763 -0.10396068082483909956 -0.0005440583967919312763 0.035161433168807876282 -0.016670641546987996495 -0.011344953359664892989 0.02201923593534144824 -0.023248864855459065726 -0.020211793151402666913 -0.048347614686333098555 0.061321224162406283431 -0.045779482800500224948 0.068981531126849224278 -0.037475818532490809409 0.02970138171530017912 0.0037584910441893783738 0.024305152397617678373 -0.036711830384703256214 0.03330798257606966406 -0.068221410837630100388 0.044123666551132055547 0.022358393371362993152 0.081293578805167715506 -0.091766694521642905302 -0.0015222722373417901798 -0.072175169648307654913 0.052292445499749075355 0.028336120951259514966 0.061187087627475739149 0.028040100915912597596 0.055263449344024981325 0.0049064181591269859575 0.078403780873910089433 -0.083008723206795434479 -0.085813955945046579976 -0.012855476560823756588 -0.088406009125620799161 0.070444466444125539151 -0.064445788472516141177 -0.038298962339803864496 -0.032208585584916474276 0.085906587295454681086 0.023265992153468324083 0.049618590794021505408 -0.001688690078094019385 -0.01985551474127164942 0.06996174972162241823 -0.017650019249493529433 0.017473732622594866787 -0.020795521431207421303 0.054216136083657218148 -0.014423679631468150353 -0.055324713528622185277 0.035633614938634594616 -0.053644372928806041689 -0.073041729998691670711 -0.0018194684842963429125 0.035080567605544316079 0.050736643461285028944 -0.014152002137053108777 0.040427551331340023932 -0.040477983917570549421 -0.045622476582682015833 0.004087416402538337698 -0.11050841513958230278 0.020953380805041017104 0.060451773035127713551 -0.015526895038480124228 -0.060092765796172467607 0.057353809413442320697 -0.082627674709275164555 0.10336325118631545239 -0.012795446007747315192 0.044147889067279247333 0.043019967693804443687 0.0059715623915923918968 0.050741751037813656589 -0.086485439081935955308 -0.027519326946857682742 0.061883458799060674094 0.013349936460181024978 0.084527812559034937179 -0.073088770082371315451 0.0019669776534589583465 -0.10534634446112386974 0.022114868500531476708 -0.035241184045882535669 -0.099365794289733869182 -0.10951718917188470181 -0.021453202697857505499 0.017402198948495213593 -0.098311707351238133978 0.057153391420528651401 0.071642626645342308289 -0.062158562618449396397 5.8492852244745893275e-05 -0.11610702853034524096 0.0023357624555908618191 0.037598449586982621295 0.019537296693246823664 0.011043382556187029617 -0.036857218198376902329 0.079883923190911962364 0.063519736690306125015 0.057320340537579311802 -0.042674781647593917899 -0.071195021453259149657 -0.12338883898074771983 -0.0028272686313941483051 -0.030999252780119238015 -0.075341948161179603249 -0.051216457838372871081 0.004131560297334103786 0.0095030658987999561127 0.062403432664374529348 0.045364250582999997297 0.045601607353304499104 0.022761556982162017143 0.023599613591094543291 0.070176360524327713319 0.040983271331766220336 -0.056488451257814528694 -0.051017968528660508076 -0.044464237874177213461 0.066528314799195936713 -0.09015340176429174901 -0.084022432352998166483 0.074775634443251609573 -0.019551701935558229301;0.01252522260212598354 0.0056699735273607323668 -0.0039408147837963125246 -0.062743289394904894207 0.035038797749630971878 -0.055191392901440018692 0.022252389869043556758 -0.072948912296507892328 -0.039066246816535782349 0.0045478962670640185259 0.021195880682643421233 -0.01797245644787601529 -0.057421053950856601467 0.00022313190904993661931 0.081157433976672119225 0.0099568900739768363001 -0.019624223765663167951 0.088532129240167220519 -0.079439481713315385214 -0.0072280521492538761866 0.036650487519331469144 -0.025424718673313362327 -0.069683014923300673482 -0.068269366805317338587 -0.0095849012499402332782 0.063763730580240346457 -0.010819239631197777665 -0.056772949818023721313 -0.077047921090244927966 0.06601289521233578983 0.053516878871543514806 0.022473618989893997394 -0.08198434978516161431 -0.011516481080174244267 0.035308313699251421547 -0.0018335871073820427316 0.099887048430101890717 0.04644282106545383898 0.029150559607103766063 -0.043676173234261830847 0.068150548685449965913 -0.071103129365486655855 0.026623285715653786238 0.041276473465275180519 0.079558628959989802221 -0.020152281883292957193 -0.087045343520731552345 -0.040573018777721119033 -0.045999607878795853444 0.082389714972947586391 0.077967256730685260968 0.084545167902842305319 0.096811436128802358381 -0.028004579570225833496 0.059549626921649473354 0.023075496080477497091 -0.026748187868972046755 -0.045809834067734638008 -0.062269590185711605479 0.040794512379972003302 -0.045580818205527652565 -0.037921684129195901147 0.039870120615866366798 -0.088070080040907910979 -0.12841858359176824833 0.029138571956183585698 0.06058063248957042124 0.018480082305455485664 -0.025341420350687478974 0.066387006955781840967 -0.014518753721833341924 -0.047536176878502277299 0.070953473923135362833 0.034724901253806263191 0.058805180345820252941 -0.070113374597448582803 -0.014580830863370031203 0.036008941466378681373 -0.064703711277391717793 0.06820503382029761974 -0.046767211965178877298 0.016982783413664041816 0.053956399638755959958 -0.05303473575122669148 0.079365554244329936107 -0.032630308957204860743 -0.018618756148219027524 -0.0044908962900472235158 -0.12923247588167860456 -0.037453927828705213532 -0.075637761467735376009 0.056527415575526970826 -0.084574759547014072281 -0.038859350764212111096 -0.03624641422708973354 0.012387964957037060285 -0.078414362110911017822 -0.02864627528372442819 0.079999500170377560448 -0.063069500655662316668 -0.035757596159892213183 -0.020723059479136579641 -0.052192886876784548578 -0.079023795814112202107 -0.084840789874461627895 -0.076514838832502207744 -0.093029240158284037809 -0.037103106176297702412 0.073861530209616499398 -0.03487432838412899555 0.043481762069121181191 0.12873364382937832473 0.044823880158854481626 -0.035908392353177373546 -0.066747384163126602385 -0.048139166000541258605 0.020525985431845132634 0.037194259751435504446 -0.057401294744146229287 0.048154781860692198736 -0.029935881262190912333 0.058912024427485741584 -0.081040761348251694196 0.061853700341765897874 -0.12523088874766494238 -0.084724365859245864829 0.029066343847334155659 -0.025103910214371756571 -0.017551380496302337875 0.029847677269419413404 -0.067020010963946025084 0.054838915646106378698 0.022463866403286979201 0.0092918644280196114466 0.055164357415060538692 0.051222413823220638851 0.064725069390506234646 0.018092881941498738241 -0.035588035332431454394 0.042372508288489901807 -0.01332056903203497969 0.12048565239243559655 0.0695126595395276492 0.0061297889460318541466 0.043991478479978522731 0.054657784272916787316 0.093269441893441829006 0.093761048176990616221 0.0061450094927467608166 0.033216240029871356432 -0.04183207875182227975 -0.11453419883205158414 -0.028453095014980094718 -0.079536849717209673338 -0.094414477402739893641 0.058792427335253021059 -0.007954104948448760537 -0.05079677124892875012 -0.053020999952062615457 0.067002010015831253709 0.0064543704015285821574 -0.090660759599177492829 0.0057453185695931713664 0.026465200011376158185 0.073099334402175378256 -0.083846216343240589919 0.057250655658904359147 0.066992303142669962224 -0.0006385447057141159467 -0.059306783143553289117 0.085250537006373972027 0.043262920916508872116 -0.0073711433691848494976 0.071657884669551474843 -0.010491649093145089325 -0.093154807380814816375 -0.076172130394857304192 0.031553317737098622586 -0.050086106381960197875 0.020961672460721503253 0.04373804278408109647 -0.032461127942311374106 0.0071953977356673526344 0.049200896315833339556 -0.065079648587911320679 -0.093077286313177923227 -0.063065601981130176013 -0.0099737915619162089559 0.036156922318658114845 0.064622584938187926928 0.024404170634641259019 0.079521061240889631683 0.026615871962392647493 0.033809749085285147052 -0.054960574900181802249 0.028539097212242611756 -0.034477961419074873439 0.0065482950648052739781 -0.023027811289440765219 -0.052699534994070110216 0.10490248261125871554 -0.029771146138972619938 -0.071757922908356017166 0.014357883939424236422 0.030046419589568447439 0.039712071465684818661 0.086780268236106752888 -0.097068362171940536509 -0.013724423322909936121 -0.008570990078029588552 0.012414890749094827441 -0.023841840747308797738 -0.030244466137753403534 -0.069787062376191644208 -0.045037580116769032612 -0.040509858299112237734 -0.074981435240710728185 -0.03502141439739445139 -0.0066878808441480520203 -0.064255627922756283765 0.014783037535847344535 -0.021871309446748699035 -0.011237543994395846059 -0.010524705747885705273 0.077921132761241268527 0.0082661340401307438486 0.0905695339676066552 -0.02533078487845139351 0.058550868175026839213 -0.050191498720064661732 0.0041290538855840849472 0.032648159126355449922 0.0076257653549001722451 0.092640718770200095045 -0.069432788468864609088 0.069354708576929102737 -0.041972797927703975329 -0.0074977829286317345878 0.061679892147541603986 -0.054783039156531487812 0.026052601550863929009 0.03110376722987263573 0.024763389247317881686 0.074403841681762089566 0.033113315905040220655 -0.099301258971867256697 0.036518720150972960869 -0.074260490597174974581 0.043911016923448564775 0.008587256564662498759 0.06818861533910823558 -0.095498388624981375705 0.10895922468832683339 0.059854786187855134327 0.047029749369592650787 0.078049394622057094439 0.095912812158527024908 -0.032092647759938350283 -0.031490999258599224053 -0.090435307403625139755 0.070944607388505914747 0.0056577404931396225313 0.01973822083044000919 0.083424368387211358944 -0.04400201919780782206 0.0085451463425567520532 -0.047903831807634141005 0.086240511014661735967 -0.028865678953206252294 0.054993786211635607708 0.073902251804165833282 0.070712752525980332452 -0.0093602996599158050373 -0.041819372164345482157 -0.10115003706024489061 0.062169975756448690729 -0.07780378932020877436 -0.053794998607087224363 -0.064166084603851342161 -0.096430999078817011827 -0.038576741453989878139 -0.090774011242394356258 -0.053858149394980174562 -0.0051642152967843364675 -0.053339301928901079741 0.012389316047543666097 -0.088349089275151185263 0.007988815299949375906 0.09410457637985210344 0.020329093659497639995 -0.07559976389943588726 0.034465282027007840271 -0.0032174542911574187214 -0.045719337399404341715 0.050175296110672465422 0.083060183034261200752 -0.065368449617550561381 0.010738505418481286702 -0.054230508277340140622 -0.038708281513777989535 -0.045259988429421048328 0.086129115777857520597 0.018578075584719608987 0.044185812621681898327 -0.091121756045471971608 -0.048904442324469367398 -0.00038141339501504350432 0.017804213284617887575 -0.091608598884980588228 -0.08698533467309409184 -0.0071735715696874683203 0.071912979649508337876 0.00034630071237679710665 0.0676107533942643113 0.0096575725303654959969 0.043304215556864582293 0.0080196768141717056366 0.0010428596723467738888 0.026182661767322285007 0.058868131369391986374 0.017866189007637908737 0.039829812732559317923 0.040133083646591662108 -0.060426986639854393668 -0.032580605221011957329 0.087588520828492569259 0.043156008528280900838 0.050978680451741621715 0.033625761877844106973 -0.017096160126276380847 -0.052254941943557210726 0.080582750738347294628 0.009724736897132648869 0.092861911999993843048 -0.042996743818323510111 0.010136352298127353916 -0.0014244142784991433836 0.035259696745197313672 -0.00035594601171216801606 0.040219010286460472881 0.069549333824856673925 -0.098081543069371113219 -0.033674964338077255366 0.046150429377604974823 -0.065654962263354668672 -0.052590766002151193015 0.0041533676919337046002 -0.067915761175159961027 -0.092966490569951237832 -0.026622785399474303836 -0.069703963388502390708 0.034130878130303105022 -0.061849602201759834585 -0.0051260071977787041372 0.030397665967368592277 -0.087635381777522919355 -0.079646634435005608799 -0.01631981597902940756 0.048503684743142365388 0.02830193348507060308 -0.079968370509006847513 -0.014893488611428768592 0.064613701835546044627 -0.055824610977754735019 0.018654428433991867425 -0.056911673081173112798 0.024311020403592370487 0.077311211838677743047 0.064325776459014841202 -0.00086557892787354220009 -0.081266865682314004538 0.073483834097121683571 -0.049982180027479061746 0.049255244047247993822 -0.072032216241122562495 0.069976016376466540492 0.065963488039472217839 0.026519921112179448142 -0.1096089052556050436 0.04352482150009760048 0.0073771122775970398786 -0.086041170632462277146 -0.058199649760721373914 0.049241001522642977029 0.082252713833724011572 -0.078869137961854657304 -0.020774815524059929428 -0.087410312619378718879 0.015381986554356982463 0.04709313544045052452 -0.035762089027176549583 -0.018101281960160833101 -0.05871385452381914366 -0.10226778539151128167 0.056342625720806512046 0.054887534129054491028 -0.059553746121780382072 0.0080293167145986527045 -0.0094144565892638511218 0.056213822074766571502 0.0534686144186622761 0.02424946488651582438 0.069331929847405673883 -0.089402973777466143712 -0.0038347387209831033765 -0.01576415128061166987 0.03496948132896750272 -0.053843764659869605693 -0.049275306450675779302 0.003662288824031982061 -0.051578861614188682705 0.020357995209691528288 -0.068624912217567640704 0.050495143113379929722 -0.033320311895651509582 0.059786270174124724053 -0.066570897838295298166 0.01250260061842005041 0.088635784200219933093 0.0068027287538309395842 -0.084605076928522676694 -0.0095871374579033809271 -0.11810847032325771933 -0.05609325021783554549 -0.092561645577216716818 -0.097571420400430639019 0.028820315852131270923 -0.072893140752553889361 -0.021175641975732611283 0.021073194784554511588 0.043497914207399977771 -0.066896860381839173826 -0.071062486403140071034 0.073181310645544075943 -0.025973857330831979368 -0.0047445650219946570308 -0.021226307892406988398 -0.019151853477324086439 -0.041576059171097932976 -0.024603150517009737819 0.016551334135820022775 -0.054275628301825043498 -0.01231029647189626694 0.02009645556171620745 0.035003076914323617841 0.05133724104646161801 0.0059246606772854629522 -0.029326440863275501925 0.10080186097397346445 -0.063452278462145836335 0.053892323486278467803 0.020576104485168816155 0.054022182698183325578 -0.07793310263527924997 -0.081674945127314657611 0.022648798824102311933 0.036054112425678686016 0.077160198591336173757 -0.079915862760294803513 0.092166146178705832259 -0.067733404526732973738 0.025415094470373975066 -0.01375957330285208606 0.020369412770378077238 -0.038552217032537375307 0.055446327359882238706 -0.01740612329900879246 0.043612044215400179448 0.10228530927904555536 -0.085573814784960566815 0.0022125370908624764944 -0.058915291747055342775 0.065718403854365364802 0.094387227585500305116 -0.040636307597197794672 -0.059941543282196550757 0.080430358142546828915 -0.11360800970674540811 0.059706630325980517005 -0.11448853243817982972 0.052591732988658219938 -0.095929582129216567354 -0.016041118075049064229 0.02764183733035822238 -0.05278776342291986029 -0.054363670532294655624 -0.05771071304505472066 -0.051692568701472874082 0.031091954829739320426 -0.029777151444139369346 -0.086107406545881184923 -0.0021971148526206728605 -0.040656864782144502835 -0.055181147677465965107 -0.067564214020896504187 0.058898010299277103741 -0.061688889022491089076 0.083504788293810375266 0.023664942956975482807 -0.074750603238740401246 -0.018181261787523324974 0.020899512443081424279 0.082197584431151812789 0.037048573402642490104 0.0034240827767517546636 -0.028035091581410435252 0.037636972592170116203 0.034309149983480294321 0.07223611244996659686 -0.043485545918382981223 -0.04689177866360792063 -0.034512373006727846414 -0.048330158899580553944 0.036718855490504305472 -0.021138470698282445237 -0.074480646556345384002 -0.064337714435069373597 -0.045251143135700312714 0.0025267768949743299976 -0.0032529105028456036137 -0.062801969834174506402 0.022553765380425461889 0.017661118824830939616 -0.028953533765106516384 -0.074044207391811556196 0.00062651118072802494501 0.0034736804726020350208 -0.090060453266864057276 -0.075569635692624467782 0.057725103243315048496 -0.04878106084601027681 -0.04967425183668399552 0.037402104256715529296 0.032086026856385667372 0.031861721484106125812 -0.092336406899528961079 0.003170879942704409038 -0.027438078865288206831 0.089651881674886427231 -0.1437243856973491607 0.070710712420757299013 -0.074170033558276296515 -0.081898419755668375175 -0.073654968437169218709 -0.038408477501256768627 -0.071813636749409229254 0.065396239402317243861 0.079719977179969842007 4.6669708961107963195e-05 -0.090515468713752753049 -0.0062111034478148944779 -0.075397665095783869549 -0.085847211213484667103 -0.050444504540109187662 -0.039183710894572058858 0.061725285487816888841 -0.045233225079996143558 -0.040927052300730182299 -0.018988772551289629514 0.06869241353225385982 -0.042796034066309995847 -0.067053990118747366922 -0.082153665899346486889 0.059907486933122769401 -0.01401495427719681372 -0.067227257015462046907 0.088445911359519652217 0.011368158725210898014 0.079239565447526569275 -0.10943026318240449413 0.059116607168346949064 0.02073990726748052224 0.066741992408706665718 -0.091209037960700511949 0.03363387412423520656 0.039185220589012900727 -0.097783221168447731486 -0.005429602245959811932 -0.081554557125045445964 -0.01606721134567376183 0.013332839405966190327 0.029163398859512846412 0.040970252506796242531 -0.090747418754535874585 0.0083102915334107661099 0.023652822895151477678 -0.084064011436118912801 0.062130510892418881752 0.026533765802829133856 0.094798365155608119159 -0.085075050623733911026 -0.11777449347819954339 -0.020978951698377167751 -0.032962569930674839869 -0.081730805720144350524 0.081297941509798271609 0.028544267801034420989 0.049761694694770472469 0.011361925072959324495 -0.092395064851481606416 -0.052518765911229003951 0.028792532208430643426 0.086192812285664541228 -0.054357639688087933116 -0.02309389191994805704 0.012552207833458567041 0.061922365871644013957 -0.0043532343786462030302 -0.041314457397756798596 -0.015740144500524702598 0.023711681632250455193 0.02076523025222592328 0.08524359023487268483 -0.059291137423408690754 0.04353089393164366605 0.067456476670421178232 -0.015512696962183979491 0.074075517712459279518 -0.040604501144831647852 0.016559235995432006194 -0.0048789027885355260028 -0.081064482281032079758 -0.08205030522364691048 0.0056167840804428083301 -0.022156219320004274381 0.040654238608066210758 -0.0057216113027352463044 -0.10383457744242588494 -0.10631197440937414922 0.048669957939839691985 0.071320949138993616767 -0.055653357386297244713 0.058113506065099990172 -0.021493851859049763198 0.0797386595813270177 0.097511133738559546691 -0.038742017058253190587 0.034935705466812884412 -0.048286148147080695803 0.031233355962727978039 0.017936914375620761908 0.060764090804957537895 -0.080111733185867131657 0.039253685192018210326 0.052230481027858204068 0.036964142501563795884 -0.060828978892360198449 -0.025458477959580266131 -0.034088420863080858003 0.041498728980319803117 -0.08620961186811190724 0.024656361715847275456 -0.024433541184425550813 -0.033753821041404806491 -0.030826927999546525905 -0.027202218612881849669 -0.012603571219971489853 0.077403669088669066478 0.076760977200373031737 -0.13770129491236882124;0.076106713668993658528 0.059768927955844500244 -0.084913039331702869217 0.069543820620579885339 -0.021744553536485623085 0.021160523642077471579 -0.0023567534235772202335 -0.08336382511849646515 0.027735964259947242655 -0.059649746606187478704 0.031300296081766799949 0.035668948089668618684 -0.048972832860227369367 -0.013868273907240571269 0.099215082016077343896 -0.10312173881401437425 -0.037643833375911130157 0.047674589458244785722 0.10061187170334230656 0.047672439203543436059 0.060095651894767621037 0.13841518476198114151 -0.070522643150665087486 0.016826919692392108135 -0.10208441674105422914 0.014235122898737727695 -0.24262594756834751641 -0.19650456704507601735 0.05230145651088676656 0.077363627344417484899 0.045569148613418861138 0.050918623792690499708 0.019901685109925675021 0.078228739137038205698 0.0020291448558010950071 -0.071237820040714883163 -0.0075827715406874473744 0.0021874980961894109968 -0.097185310763244964205 0.023173908975073927857 0.042519903973648631723 0.081167143737126926095 -0.080761522642515473636 -0.09261630103382918755 -0.01933787812624770952 -0.078060001421923597142 0.0012949996904184190704 0.059841470665276022545 0.054885410709376615535 -0.084826631635981794566 0.10294243886198974069 0.079732357583362861719 -0.11353569027956851578 -0.033077265613212954165 -0.0021772931594286641308 -0.07971126048980552159 -0.14565910984650692894 -0.066209984812500483065 -0.02510115773051392607 0.015656461694442590227 -0.091815217107196492319 -0.043778637329418647328 -0.053021948530485508988 0.11225127401233363222 -0.052697142546651511152 0.036117392863786880464 -0.020915343958727589807 -0.092338761560035856335 -0.042644734365402781062 -0.12157501640011726673 -0.09543922924304842903 0.052085563588931932388 0.039231016033889676287 -0.089016208675334718148 0.033663097911724775002 -0.01269380955836708208 0.021280714580169394351 0.01794052670739445382 -0.04042219648362219836 0.0067993802581283284414 0.0093991375051432658749 -0.015750616180716509734 -0.085379695265547297933 -0.0083432851953083690677 -0.022232569308591406537 -0.090891962951868104925 -0.10516495551647910001 -0.043642445369220593532 0.032714279900849574378 0.074895976743723044478 -0.042797145407249007065 0.032180789892679993736 -0.032192981911833243314 0.050731809105384835512 0.02490695175852629395 0.036264456503766508144 -0.014274208335867375613 -0.07526723781367970767 -0.052922372508034151717 -0.12673524522021351046 -0.015103145187490661996 -0.014440290176355107324 -0.017071742838372767903 0.022571133654664728846 0.0066512091053568733398 -0.033515631662451139672 -0.082991215652694155791 -0.03259784303976372144 0.074988057058664667198 -0.12230753927834879524 0.015540456580081327825 0.032807468881895340829 -0.035879719368262168178 -0.015973751924251454459 -0.10201327105505234027 -0.11009958344907370964 -0.15278912634238187018 -0.012244689838648421115 -0.060482873238026993445 0.0096238763187533847565 0.065339475757519596688 0.050224079535050959733 0.02111204006877355141 -0.015853364311978281748 -0.03109372635458623052 0.036144566382575724073 0.049397873406205709823 -0.126381202215848365 -0.011849449480225345346 -0.075798618098262784959 0.01586095568028198996 0.062229821392071164865 0.094555479763320904318 0.021987030327364161242 0.042418450537820964752 -0.028557034975338669441 -0.075653025533354012477 0.0014434892422932454198 0.041547387536109238459 -0.11402237728123222615 -0.071903288677067536683 0.01505533463377344526 0.075397425876788812249 0.066762828415958735961 0.010072372953957981628 -0.067606648390992535314 -0.069329193156050877844 0.034951628577336656123 -0.0088229144413278729614 0.033279809457661783945 -0.043050826888383540714 -0.091653667571638910982 -0.018509768600960058854 0.06265200394551874441 0.089825983797953076748 0.0095142998554350894508 -0.11901177377837283966 -0.0071673457647248159028 0.0095911781248114707371 -0.099399648399076445671 -0.0033989493111131886642 -0.11774422234638470819 0.075078081718101416508 -0.025605725696243752942 0.036190212509081991221 0.0037897285760571360405 -0.046421252340862605157 0.06734594454846534739 0.065737908820846402413 0.081410101282180513671 0.023441324224353677491 -0.0044305274306704889309 -0.011358994222704383442 0.061380145481726010315 0.039906247154186107184 0.041078344025786167615 -0.1674391943621413581 0.049288059625925847995 0.0033797322101527826378 0.019427801018272818773 -0.054907347776354656355 -0.029321913879054938012 0.0098773726961107633643 0.049278338370770842503 0.0066753012352278439517 -0.01827942331776542112 -0.012415903106871222644 -0.052055625551489528857 -0.0091004977853701308349 -0.036715911289851674293 -0.069626185031788564994 -0.064659690376200784634 0.0099354579544362418148 -0.09557258793821210574 0.0058566886177725263618 0.066101347287808878694 -0.04196197597335266094 0.0094848226676356901799 -0.094333213086023895433 -0.085066200699796465368 -0.025526243901732671715 0.02424962854831976683 0.04221474505468436611 -0.0094781152346004992476 -0.085014751917553699201 -0.10942794537711338088 -0.16064443425668883947 0.072618565853018929301 -0.024943834712344483545 -0.0076028268472037264722 -0.081103788796509673764 -0.080600298430589883969 0.063701229561943059632 0.0067049139942002046466 0.040454109870616691835 0.083725697336580973129 -0.073282599971344050682 0.040916009131196987014 0.043067926936689239492 -0.10663992533372772253 0.040877715950689737234 -0.031136725596830228113 -0.068592653144658982667 -0.10752777285704281929 -0.081421078797926246806 0.078475392461465828808 -0.00034236355176061727262 0.089679606251675453299 -0.0045231293575320368275 0.022936076263557626798 -0.02889696321836843565 -0.051609748929344563539 0.049503237344298560429 0.045178087853464880819 -0.030806058504030838646 -0.068122862529751956884 -0.13624665406631386588 0.1820014210153365064 -0.022847418317341577909 -0.010590519595669169867 0.047982436612600168346 0.070661196272075371683 -0.074506168301914546537 -0.056971585795152671072 0.032413406195603747251 0.047226660347016752306 -0.035930046666280857082 0.021565997997548692899 0.031406693269392847723 0.086978640784790284268 0.056371664424380914238 -0.0048821497182260321576 0.12713028134694467908 0.017953537791059962642 -0.026659976715579056239 -0.046863232637229440547 -0.060725846509502585946 0.04128308429131306162 0.050778119671143762126 -0.046429215669810446065 -0.033576630433308420065 -0.031511717516207946033 -0.12980095117622539314 0.052671904611428399523 -0.025469991175035729819 0.028716208976570657685 0.014384239855215216405 -0.028924107013023236251 -0.023900068383102900105 -0.0060103647268652873881 -0.0041765985884981088674 -0.071187803416086839481 -0.03022266187311378749 0.036386168297235871316 0.023382221362835575729 0.014151219399763126719 -0.039098992262003015585 -0.090703038732532409449 0.03604621089023041236 -0.034505409955044245851 -0.09044359330991269541 0.055088410913620405873 0.14002585355426988567 0.014730880025409247638 -0.087561993094535689464 0.069401704057322544106 -0.064627306536464895759 -0.06826533432989968786 0.085386066076492350696 -0.10582339949026488279 0.10816398497815432611 -0.041027578833243108503 0.0012484427402193812306 0.092374065643976835394 0.090506250099741086812 -0.042970949358253150707 -0.081381209780931829112 -0.12466883394635414062 0.047828296586533744494 0.048265636529425517964 0.00075449745349934400386 0.027339371952851514169 0.041552001891840675829 0.054689192470323548523 -0.066068699646801218317 0.039981954888726772834 -0.0057826457721861053082 0.095738054478510914436 -0.0011631706329869164005 0.0011243095117511067542 -0.020542403365556731465 -0.025408409274437805669 0.018706331499579342825 0.037481954198433121983 -0.012375845383615219353 -0.014549746398479829548 -0.049869865808199360935 0.015116017287814968728 0.044132887907449312725 0.058652645538997016939 0.093011643384669537293 0.068823962464467924871 0.073927533779614890141 0.036549378123715399458 0.044791077063454566576 -0.0759349485127410323 -0.029737984583769704744 -0.031848448486029870552 -0.013275667720057626048 0.029502859886951716267 -0.03210117199265660054 -0.074777618168848758451 -0.08642178955337964652 -0.012033837720461324633 -0.089065026382142892247 0.055653041412041921732 0.042737160758494013857 0.048013000082229029264 0.072180663746850337592 0.035787648002231803313 -0.09436472173776561112 -0.060798557635922872988 -0.057572223381017986754 0.017306640919395471084 -0.08568628071057945994 -0.089774601955658672736 0.027172085549559653328 0.05831432771618681038 0.060572892445853669663 -0.082030115033836864535 0.046099866170812645039 -0.0031721539781594076772 -0.034351748886510206915 0.058423309460271119486 0.078671891352483647175 0.039245591850004819812 -0.085370797593296313122 -0.13479778558525401522 -0.038939137056636805023 0.024378262890835295656 -0.0091665711087473237401 -0.04913880794294283455 -0.024749493651026396868 0.051332479088066380879 -0.050320249951863751936 0.020313521633217698076 -0.033444004712018381154 0.010088549610474993948 0.052907142378776222946 0.05527197862455301286 -0.050328329130379809153 0.069428889782291794419 0.010246990160158377103 -0.082035563565021563104 -0.038395742776002717012 0.011493159428762951546 0.078402517901251939092 -0.020783946837287275294 -0.096682120027022991349 -0.022075568811142764342 0.090086717131674959314 -0.024805018997933796221 0.040506290675585497618 0.09209306471544255468 0.012735993063052028149 -0.0060448001913810806007 0.085189185289334834472 -0.10973572305614388844 -0.021553964163556968425 0.016194419311599532463 -0.074885922296928197905 0.046029171472079882799 0.056934169122091884963 -0.061205582113276084388 -0.0061482038235986047683 -0.088996726290488714639 -0.047297063328021700379 -0.069466115753853613368 0.043308387009643352361 -0.009297759239107913215 -0.030674619276264452478 0.070479137786959064615 -0.0043557132868498084355 -0.039154718201121770094 -0.055780956272132524443 0.0099706280517696411342 -0.062727658246489501059 0.0035868368458676271743 -0.070700459612857327607 -0.10097735303313605526 0.12740469011999422388 -0.085706253582750427378 -0.052504391580969526909 -0.011817602702459337194 -0.061955312283113482541 0.040195784148904158128 0.026323720666041466876 -0.11278940965388152551 0.0028530041775034820951 0.074576501819405643934 0.015706549098301193779 0.10251646585533256972 0.10814911148388596518 0.0020199784611289951959 -0.060145121873539861279 -0.081769603240633537133 0.005359151657908893529 -0.032485077922047911336 0.0036639553924692333173 0.026111936007766182316 0.054007457797795678511 0.042040982116215055986 0.1065952202321890363 0.047082246571399075097 -0.0057193362147995429473 0.0033232277153907303739 0.064256277147587803622 -0.030706909178255359372 -0.079327768622927868902 0.026295761602197563478 -0.016003728978090256407 -0.06941254914055516867 -0.014281672682824783291 -0.074442232520048279287 -0.014304480477689620124 -0.026496755773620959268 -0.060118449863321210547 -0.054899183170322447822 -0.041744179604568519559 -0.022736012232846228298 0.062315771690937549199 -0.069704236166231045568 -0.039000303188185009295 0.0044727070508923947104 -0.10226661951667179173 0.039734998653327274765 -0.048124433263516064319 -0.038366925199149498615 -0.10759023105423821953 0.03699389876977293018 -0.011514057054254102364 -0.015285006877987044466 0.10606187855776776086 -0.091076652895037829571 -0.10148412452721214394 0.047083361228138075061 -0.042449654818243476306 -0.021295796580408934973 -0.031030210795013266067 -0.03658653285513031872 0.13018336686998846496 -0.065020324704670659499 -0.027337559212723898383 -0.021214680678687976995 -0.099774168094920123728 0.064996919682949072516 0.015056511434112759482 0.07523200772670711467 -0.087274399795867249607 -0.052493920585358615216 0.070663145783560643576 -0.037877728866590042178 0.0081973513449019128757 -0.02812074975719151132 0.053726914368320700943 -0.10625336929307806211 -0.055290201056242715971 -0.056959899631453377034 0.015206409798414572895 0.0032386378097339157088 0.017511244463573064079 -0.07863402787270661054 0.0082518933362593690356 0.056512035618920229696 -0.019254337641554240129 -0.040670106024541283207 -0.082075937228512169108 0.014659076377720710663 0.077814047481063797207 -0.087838655896572442883 0.069129813895213040875 0.018752286951478729093 -0.041883497971426437989 0.025272846745826960807 -0.043089576720703022528 -0.032867486406510895702 0.088698286881790683323 -0.057656473850617069588 -0.014632769094572044971 -0.010927545166632428655 -0.070525611307866886701 -0.066542248852799162906 0.069161343631000932186 0.0083954700538566139761 -0.08953062727547314581 -0.067827884664330623243 0.081155418433480785989 0.094560526328256719331 0.003764176594141186924 0.019799333333684759201 0.081424331978994096692 -0.026027717852803278209 -0.068202173061611248706 -0.0745822871697069123 -0.054580202345008037301 -0.024813209622244491309 -0.1024607370630888914 0.058701261242973985788 0.1005139480012029185 -0.015222324993834399076 -0.037274209297717297851 -0.037238287927323927839 -0.093131234512936214576 -0.011976259112139472571 0.061652465039382951806 -0.05626688791383108873 -0.035378647502988906648 -0.10677899597043802316 0.07154275625079072054 0.06979748198920755764 0.040645111687891796737 -0.03516056260944187134 0.0048317682002084723705 -0.082298225963815488382 -0.082098464636846293918 -0.014078182548008445762 0.095307465843965780139 -0.0080947767748347689704 -0.078296019754448734074 0.005521048174822021197 0.0094420223777945087862 0.10461307505100585213 -0.016015177429755552557 -0.059791863087145361022 -0.028147927793133773605 0.079423042334733129355 -0.057526923037106297842 0.094644861438287916644 -0.028536584166004946156 -0.0075700211731518814162 -0.011637699494675026249 -0.028196366333622008976 -0.11492944043604937099 0.017839946155298058023 -0.063864278248365533019 -0.049301236913029955478 0.032210040562756878102 0.083263703181399112419 -0.054523070561759881536 -0.0049282777356276777012 0.079991826381685532388 0.055227788614990683258 -0.038934592941214180017 0.0073742108793220899343 -0.085844998560700533363 0.0037430791056959314585 0.010184661361783980613 0.0043842560066618876252 0.045378061699215689606 0.0067294399476674447713 -0.0085142213572332280103 0.091914297170754735711 -0.083905755940798742998 -0.025824080923072950666 -0.1024028259289302828 0.076654300220164062196 -0.075067866443573980084 0.11967526325457110425 0.015080728744201347957 -0.10428020740178066406 0.0050611316755947684601 -0.0647395461106336223 -0.062813937529195632004 0.099632820527983959047 0.042684760521760983787 -0.042098035720016420413 -0.0013445398632309169332 0.049669974436751175573 -0.23569070804768246785 0.36802787499763733869 0.01404428629737503563 0.10623677206442271037 0.092307837430342168372 -0.0074615771983035563547 0.011657678463095844101 -0.010885245523597777972 -0.048123707345872436536 0.046614260202818169621 0.066941835518994699528 0.011106234072421122469 -0.042762372244813696975 -0.031854354788961272704 -0.077382392876154518224 0.071228819020618880375 -0.17445128613127169892 -0.038956492027224225161 0.032476612203201346563 0.089511655888512231538 -0.05260531276785423288 -0.08111984725494342241 0.047625002074411976194 0.078098462771004836802 -0.07576915738049647131 0.075998143567676382237 0.0052818579196507427567 -0.12219497980423812966 0.17698139090024053721 0.012715132403082260795 -0.20144208185884313056 0.098272985956482761249 0.099718850493347166442 0.029279246372574507795 0.077291071195004112937 0.0073429531387071422799 -0.02966198010735916421 -0.062344809666785808155 0.058219032379593679827 0.1223487774807201639 0.14878202158052553084 0.08869164493828252116 0.087691866116101024886 0.0010818632491029172953 -0.025228163876860158765 0.02616460198645753979 -0.19330636291299335694 0.1378824716664866501 -0.031116308165549201592 0.11512995890889002326 0.085066588068814327772 -0.040014845271321160258 -0.033199981716513789209 0.046775070991957934385 -0.075389286849098929855 0.048589779594389745365 0.036900895534788202834 -0.1110433593917512507 0.19458732026538641535 -0.035033547028662487266 -0.10516481266327594446 -0.022251093182283406685;-0.036272386348805356338 0.065298742516827282256 0.077935681710966639435 0.0014777226498161892456 0.028765781292420789655 0.019114662115365905343 -0.06871415183612254729 -0.016871483182566017478 -0.058112510209449123877 